/*!
 * The following copyright notice may not be removed under any circumstances.
 * 
 * Copyright:
 * Copyright (c) 2010 Anton Koovit.
 * 
 * Trademark:
 * Arvo is a trademark of Anton Koovit. 2010
 * 
 * Description:
 * Copyright (c) 2010 by Anton Koovit. All rights reserved under SIL openfont
 * License 1.1
 * 
 * Manufacturer:
 * Anton Koovit
 * 
 * Designer:
 * Anton Koovit
 * 
 * Vendor URL:
 * http://www.korkork.com/
 * 
 * License information:
 * http://www.korkork.com/license/arvo/
 */
Cufon.registerFont({"w":1542,"face":{"font-family":"arvo","font-weight":400,"font-stretch":"normal","units-per-em":"2048","panose-1":"2 0 0 0 0 0 0 0 0 0","ascent":"1638","descent":"-410","x-height":"31","bbox":"-20 -1969 2550 506","underline-thickness":"50","underline-position":"-50","unicode-range":"U+0020-U+2026"},"glyphs":{" ":{"d":false,"w":448},"A":{"d":"1040,-172r126,0r-120,-344r-583,0r-117,344r156,0r0,172r-492,0r0,-172r132,0r472,-1344r295,0r471,1344r152,0r0,172r-492,0r0,-172xm520,-682r468,0r-236,-678","k":{"y":76,"v":102,"Y":125,"W":100,"V":102,"U":125,"T":184}},"B":{"d":"143,-172r144,0r0,-1171r-144,0r0,-175r682,2v61,0,119,11,173,34v54,23,101,54,141,94v40,40,72,87,95,141v23,54,34,112,34,174v0,65,-18,124,-54,177v-36,53,-87,96,-154,128v33,17,62,37,89,60v27,23,49,49,68,76v19,27,33,56,43,87v10,31,16,62,16,94v0,63,-11,122,-34,177v-23,55,-55,102,-95,143v-40,41,-87,73,-141,96v-54,23,-111,35,-172,35r-691,0r0,-172xm483,-674r0,502r353,0v32,0,62,-8,89,-24v27,-16,51,-36,72,-62v21,-26,37,-55,49,-88v12,-33,17,-66,17,-100v0,-29,-6,-58,-18,-85v-12,-27,-29,-52,-49,-73v-20,-21,-44,-38,-72,-51v-28,-13,-57,-19,-88,-19r-353,0xm483,-1343r0,495r344,0v32,0,61,-6,89,-19v28,-13,52,-30,72,-51v20,-21,37,-46,49,-74v12,-28,18,-57,18,-87v0,-33,-6,-65,-18,-97v-12,-32,-28,-59,-49,-84v-21,-25,-44,-45,-72,-60v-28,-15,-58,-23,-89,-23r-344,0","w":1352},"C":{"d":"1219,-1116v-45,-76,-103,-136,-177,-179v-74,-43,-156,-65,-247,-65v-77,0,-148,16,-212,49v-64,33,-119,76,-165,131v-46,55,-81,120,-106,192v-25,72,-38,148,-38,228v0,95,14,179,42,252v28,73,65,134,110,182v45,48,98,88,160,120v62,32,132,49,209,49v105,0,197,-26,275,-77v78,-51,145,-134,200,-251r176,83v-25,72,-68,141,-129,208v-61,67,-136,121,-225,162v-89,41,-187,62,-295,62v-103,0,-198,-19,-285,-58v-87,-39,-164,-95,-232,-167v-68,-72,-118,-157,-154,-256v-36,-99,-54,-202,-54,-309v0,-108,18,-210,54,-306v36,-96,86,-179,150,-250v64,-71,141,-127,230,-168v89,-41,185,-62,289,-62v93,0,173,14,240,40v67,26,124,58,171,94v47,36,88,75,122,118r106,0r0,178r-215,0","w":1509},"D":{"d":"143,-1516r564,0v69,0,135,9,198,27v63,18,121,43,175,76v54,33,103,71,147,117v44,46,82,97,113,153v31,56,54,117,71,181v17,64,25,131,25,200v0,71,-8,138,-25,203v-17,65,-40,125,-71,182v-31,57,-69,109,-113,155v-44,46,-93,85,-147,118v-54,33,-112,59,-175,77v-63,18,-129,27,-198,27r-564,0r0,-172r144,0r0,-1171r-144,0r0,-173xm483,-1343r0,1171r236,0v70,0,135,-15,197,-46v62,-31,116,-73,162,-126v46,-53,82,-114,109,-186v27,-72,40,-149,40,-232v0,-81,-13,-157,-40,-228v-27,-71,-63,-132,-109,-184v-46,-52,-100,-94,-162,-124v-62,-30,-127,-45,-197,-45r-236,0","w":1507},"E":{"d":"143,-1516r1086,0r0,429r-205,0r0,-256r-541,0r0,485r455,0r0,172r-455,0r0,514r541,0r0,-256r205,0r0,428r-1086,0r0,-172r144,0r0,-1171r-144,0r0,-173","w":1286},"F":{"d":"143,-1516r1086,0r0,429r-205,0r0,-256r-541,0r0,487r521,0r0,168r-521,0r0,516r152,0r0,172r-492,0r0,-172r144,0r0,-1171r-144,0r0,-173","w":1243,"k":{".":256,",":256,"o":111,"e":111,"c":111,"a":102,"A":76}},"G":{"d":"1313,6r0,-304v-25,53,-57,99,-95,138v-38,39,-80,71,-127,96v-47,25,-96,44,-149,57v-53,13,-107,19,-162,19v-99,0,-190,-17,-273,-50v-83,-33,-159,-85,-227,-157v-68,-72,-118,-157,-154,-256v-36,-99,-54,-202,-54,-309v0,-108,18,-210,54,-306v36,-96,86,-180,150,-251v64,-71,141,-127,230,-168v89,-41,185,-61,289,-61v96,0,178,14,247,41v69,27,129,60,178,99v49,39,88,77,117,112r97,0r0,178r-215,0v-45,-76,-103,-136,-177,-180v-74,-44,-157,-65,-248,-64v-77,0,-147,16,-211,49v-64,33,-119,77,-165,132v-46,55,-81,119,-106,191v-25,72,-38,148,-38,228v0,89,14,171,42,247v28,76,64,138,107,185v43,47,97,87,161,118v64,31,134,46,211,46v128,0,233,-32,315,-94v82,-62,139,-159,172,-291r-424,0r0,-172r641,0r0,727r-186,0","w":1683},"H":{"d":"1208,-1516r492,0r0,172r-144,0r0,1172r144,0r0,172r-492,0r0,-172r152,0r0,-545r-877,0r0,545r152,0r0,172r-492,0r0,-172r144,0r0,-1172r-144,0r0,-172r492,0r0,172r-152,0r0,459r877,0r0,-459r-152,0r0,-172","w":1843},"I":{"d":"143,-1516r484,0r0,173r-144,0r0,1171r144,0r0,172r-484,0r0,-172r144,0r0,-1171r-144,0r0,-173","w":770},"J":{"d":"150,-1516r491,0r0,173r-127,0r0,1171v0,15,-3,32,-10,52v-7,20,-17,40,-28,62v-11,22,-23,45,-38,68r-44,67v-35,51,-75,105,-120,161r-172,-15v39,-60,75,-117,106,-172r39,-71v13,-24,24,-48,34,-71v10,-23,19,-43,25,-63v6,-20,9,-37,9,-51r0,-1138r-165,0r0,-173","w":682},"K":{"d":"1147,-1343r0,-173r348,0r0,173r-119,0r-664,559r621,612r162,0r0,172r-408,0r0,-172r-602,-602xm145,-1516r492,0r0,173r-154,0r0,1171r152,0r0,172r-492,0r0,-172r144,0r0,-1171r-142,0r0,-173","w":1567,"k":{"O":76}},"L":{"d":"143,-1516r492,0r0,173r-152,0r0,1171r523,0v11,0,21,-3,32,-8v11,-5,20,-11,29,-19v9,-8,16,-17,21,-27v5,-10,8,-21,8,-32r0,-191r190,0r0,449r-1143,0r0,-172r144,0r0,-1171r-144,0r0,-173","w":1296,"k":{"Y":219,"W":100,"V":102,"T":154}},"M":{"d":"143,-172r144,0r0,-1153r-144,0r0,-191r480,0r481,1309r487,-1309r455,0r0,191r-143,0r0,1153r143,0r0,172r-492,0r0,-172r162,0r0,-1164r-530,1336r-170,0r-537,-1339r0,1167r156,0r0,172r-492,0r0,-172","w":2189},"N":{"d":"1081,-1516r492,0r0,173r-129,0r0,1343r-256,0r-705,-1257r0,1085r156,0r0,172r-492,0r0,-172r140,0r0,-1171r-144,0r0,-175r408,0r692,1245r8,-48r0,-1022r-170,0r0,-173","w":1624},"O":{"d":"799,30v-105,0,-200,-19,-287,-58v-87,-39,-164,-95,-232,-167v-68,-72,-120,-157,-155,-256v-35,-99,-53,-201,-53,-307v0,-109,18,-212,54,-308v36,-96,86,-179,150,-250v64,-71,141,-127,230,-168v89,-41,186,-62,293,-62v107,0,206,21,295,62v89,41,166,97,230,168v64,71,114,154,149,250v35,96,53,199,53,308v0,109,-18,212,-54,308v-36,96,-86,179,-150,250v-64,71,-141,127,-230,168v-89,41,-186,62,-293,62xm799,-156v79,0,151,-16,215,-49v64,-33,120,-76,165,-131v45,-55,80,-119,105,-192v25,-73,37,-149,37,-230v0,-83,-14,-163,-41,-240v-27,-77,-64,-142,-112,-195v-48,-53,-105,-94,-169,-123v-64,-29,-131,-44,-200,-44v-79,0,-151,16,-216,49v-65,33,-120,76,-165,131v-45,55,-80,119,-105,192v-25,73,-37,150,-37,230v0,93,14,177,41,250v27,73,64,134,109,182v45,48,98,88,160,121v62,33,134,49,213,49","w":1597,"k":{"Y":51,"X":102}},"P":{"d":"143,-1516r613,0v68,0,131,8,188,26v57,18,106,44,148,78v42,34,73,78,96,129v23,51,35,110,35,177v0,55,-11,107,-34,156v-23,49,-55,92,-96,129v-41,37,-91,66,-149,87v-58,21,-121,32,-192,32r-269,0r0,530r152,0r0,172r-492,0r0,-172r144,0r0,-1171r-144,0r0,-173xm483,-1343r0,477r273,0v38,0,72,-6,104,-16v32,-10,59,-25,82,-45v23,-20,41,-45,54,-75v13,-30,20,-65,20,-104v0,-75,-23,-132,-68,-174v-45,-42,-118,-63,-217,-63r-248,0","w":1272,"k":{".":410,",":399,"a":76,"A":125}},"Q":{"d":"698,24v-93,-13,-179,-42,-256,-87v-77,-45,-143,-103,-198,-173v-55,-70,-97,-149,-127,-238v-30,-89,-45,-184,-45,-284v0,-109,18,-212,54,-308v36,-96,86,-179,150,-250v64,-71,141,-127,230,-168v89,-41,186,-62,293,-62v107,0,206,21,295,62v89,41,166,97,230,168v64,71,114,154,149,250v35,96,53,199,53,308v0,101,-15,196,-46,286v-31,90,-75,170,-131,240v-56,70,-123,127,-201,172v-78,45,-164,74,-258,85v43,11,78,25,104,40v26,15,59,33,98,53v39,20,79,29,118,29v38,0,72,-10,102,-29v30,-19,49,-48,58,-87r152,69v-8,37,-22,70,-44,98v-22,28,-47,53,-76,72v-29,19,-61,33,-94,42v-33,9,-66,14,-98,14v-51,0,-99,-9,-144,-28v-45,-19,-93,-41,-142,-68v-49,-27,-97,-40,-142,-40v-27,0,-55,4,-84,13r0,-179xm799,-156v79,0,151,-16,215,-49v64,-33,120,-76,165,-131v45,-55,80,-119,105,-192v25,-73,37,-149,37,-230v0,-83,-14,-162,-41,-238v-27,-76,-64,-142,-113,-196v-49,-54,-104,-95,-166,-124v-62,-29,-129,-44,-202,-44v-79,0,-151,16,-216,49v-65,33,-120,76,-165,131v-45,55,-80,119,-105,192v-25,73,-37,150,-37,230v0,91,13,174,40,247v27,73,63,134,108,183v45,49,100,90,166,123v66,33,136,49,209,49","w":1597},"R":{"d":"143,-1516r631,0v67,0,129,8,186,26v57,18,106,44,148,78v42,34,75,78,98,129v23,51,35,110,35,177v0,38,-7,75,-21,112v-14,37,-32,72,-56,104v-24,32,-54,59,-87,84v-33,25,-70,44,-109,57v17,7,33,17,50,31v17,14,33,30,48,50v15,20,30,43,42,68v12,25,22,51,29,80r84,330r131,0r2,190r-295,0r-113,-461v-21,-83,-52,-144,-94,-183v-42,-39,-101,-58,-174,-58r-195,0r0,530r152,0r0,172r-492,0r0,-172r144,0r0,-1171r-144,0r0,-173xm483,-1343r0,477r291,0v38,0,72,-5,104,-15v32,-10,59,-25,82,-45v23,-20,41,-44,54,-74v13,-30,20,-65,20,-104v0,-75,-23,-134,-68,-176v-45,-42,-117,-63,-216,-63r-267,0","w":1458},"S":{"d":"888,-1236v-21,-29,-44,-52,-70,-68v-26,-16,-54,-28,-85,-36v-31,-8,-61,-12,-92,-12v-51,0,-95,6,-133,18v-38,12,-69,27,-94,47v-25,20,-44,43,-57,70v-13,27,-19,55,-19,84v0,44,8,80,24,107v16,27,35,48,59,64v24,16,50,30,79,39r84,28r202,66v61,19,114,41,160,66v46,25,86,53,117,87v31,34,55,73,71,117v16,44,25,95,25,153v0,63,-13,121,-39,174v-26,53,-61,100,-107,139v-46,39,-101,71,-165,93v-64,22,-133,33,-209,33v-78,0,-145,-9,-200,-27v-55,-18,-101,-40,-139,-70v-38,-30,-68,-64,-91,-102v-23,-38,-40,-77,-53,-117r-76,0r0,-172r252,0v0,74,8,126,24,157v16,31,37,56,65,76v28,20,61,36,100,46v39,10,81,16,128,16v45,0,87,-5,123,-16v36,-11,66,-26,92,-46v26,-20,46,-45,60,-74v14,-29,20,-62,20,-99v0,-41,-9,-75,-26,-103v-17,-28,-38,-53,-65,-73v-27,-20,-55,-36,-87,-49v-32,-13,-63,-24,-92,-33r-219,-62v-48,-15,-91,-33,-131,-56v-40,-23,-74,-50,-102,-83v-28,-33,-51,-70,-66,-114v-15,-44,-23,-95,-23,-152v0,-58,11,-112,34,-163v23,-51,56,-95,100,-133v44,-38,97,-68,161,-90v64,-22,137,-32,219,-32v54,0,103,6,149,19v46,13,87,30,124,53v37,23,70,52,98,84v28,32,53,67,72,106r75,0r0,172r-245,0v0,-59,-11,-103,-32,-132","w":1210},"T":{"d":"453,-172r139,0r0,-1180r-346,0r0,236r-205,0r0,-400r1352,0r0,400r-205,0r0,-236r-400,0r0,1180r156,0r0,172r-491,0r0,-172","w":1434,"k":{".":299,",":299,"u":184,"q":250,"o":246,"n":170,"e":246,"d":246,"c":246,"a":205,"A":184}},"U":{"d":"113,-1516r491,0r0,173r-155,0r0,706v0,85,10,157,29,217v19,60,44,108,78,146v34,38,74,65,120,82v46,17,98,26,153,26v57,0,110,-8,158,-23v48,-15,89,-41,123,-77v34,-36,61,-86,80,-146v19,-60,29,-135,29,-225r0,-706r-164,0r0,-173r491,0r0,173r-135,0r0,684v0,109,-15,206,-45,291v-30,85,-72,156,-125,213v-53,57,-115,101,-186,131v-71,30,-148,44,-230,44v-80,0,-155,-15,-225,-44v-70,-29,-130,-72,-182,-129v-52,-57,-92,-125,-122,-207v-30,-82,-44,-176,-44,-281r0,-702r-139,0r0,-173","w":1550,"k":{".":76,",":76}},"V":{"d":"1013,-1516r492,0r0,173r-131,0r-491,1343r-275,0r-484,-1343r-134,0r0,-173r492,0r0,173r-132,0r389,1169r417,-1169r-143,0r0,-173","w":1485,"k":{".":190,"o":125,"A":102}},"W":{"d":"2058,-1516r492,0r0,173r-132,0r-433,1343r-306,0r-411,-1321r-379,1321r-303,0r-442,-1343r-134,0r0,-173r492,0r0,173r-132,0r367,1165r387,-1338r299,0r412,1338r374,-1165r-151,0r0,-173","w":2560},"X":{"d":"950,-1516r492,0r0,173r-112,0r-410,569r428,602r94,0r0,172r-492,0r0,-172r185,0r-324,-451r-326,451r177,0r0,172r-492,0r0,-172r99,0r432,-603r-408,-568r-123,0r0,-173r492,0r0,173r-146,0r295,415r298,-415r-159,0r0,-173","w":1500,"k":{"O":76}},"Y":{"d":"51,-1516r492,0r0,173r-144,0r285,487r305,-487r-158,0r0,-173r492,0r0,173r-129,0r-426,646r0,525r156,0r0,172r-492,0r0,-172r139,0r0,-530r-402,-641r-118,0r0,-173","w":1354,"k":{".":215,",":201,"s":184,"A":154}},"Z":{"d":"1163,-1292r-913,1120r711,0r0,-252r196,0r0,424r-1106,0r0,-227r900,-1116r-687,0r0,256r-196,0r0,-429r1095,0r0,224","w":1214},"_":{"d":"0,154r1024,0r0,102r-1024,0r0,-102","w":1024},"a":{"d":"709,-96v-39,37,-83,67,-131,90v-48,23,-101,35,-162,35v-51,0,-98,-8,-140,-24v-42,-16,-78,-37,-109,-65v-31,-28,-54,-60,-71,-97v-17,-37,-26,-76,-26,-117v0,-44,7,-83,20,-117v13,-34,30,-64,52,-89v22,-25,47,-45,76,-62v29,-17,58,-32,90,-42v32,-10,65,-18,98,-22v33,-4,64,-6,94,-6v48,0,88,1,121,4v33,3,62,8,89,13r1,-85v0,-37,-5,-69,-16,-96v-11,-27,-26,-48,-45,-66v-19,-18,-43,-31,-70,-40v-27,-9,-57,-13,-90,-13v-31,0,-61,3,-90,7v-29,4,-55,9,-80,16v-25,7,-49,15,-70,24v-21,9,-38,19,-53,29r-61,-129v25,-16,52,-30,81,-44v29,-14,61,-26,93,-36v32,-10,64,-16,98,-22v34,-6,67,-9,100,-9v60,0,114,7,162,21v48,14,89,37,122,67v33,30,59,69,77,115v18,46,27,101,27,166r-1,518r115,0r0,172r-301,0r0,-96xm457,-127v25,0,49,-3,74,-9v25,-6,48,-14,70,-24v22,-10,42,-22,61,-36v19,-14,34,-28,47,-43r1,-234r-216,0v-36,0,-68,4,-98,12v-30,8,-56,20,-78,35v-22,15,-38,34,-50,57v-12,23,-18,49,-18,78v0,27,5,51,15,71v10,20,25,38,43,52v18,14,40,23,65,30v25,7,53,11,84,11","w":1120},"b":{"d":"57,-1556r336,0r0,606v44,-34,92,-61,144,-81v52,-20,106,-30,161,-30v68,0,130,13,187,38v57,25,106,61,147,107v41,46,72,102,95,166v23,64,34,135,34,213v0,83,-13,159,-38,227v-25,68,-60,125,-105,174v-45,49,-99,86,-161,112v-62,26,-130,40,-204,40v-51,0,-100,-7,-145,-22v-45,-15,-83,-35,-115,-59r0,65r-186,0r0,-1384r-150,0r0,-172xm649,-897v-49,0,-95,10,-140,30v-45,20,-83,47,-116,81r0,557v21,22,53,42,94,59v41,17,93,25,156,25v43,0,84,-8,123,-24v39,-16,74,-41,104,-73v30,-32,54,-72,72,-120v18,-48,27,-104,27,-168v0,-59,-8,-111,-25,-156v-17,-45,-41,-84,-70,-115v-29,-31,-62,-55,-101,-71v-39,-16,-80,-25,-124,-25","w":1253},"c":{"d":"848,-760v-28,-50,-63,-87,-106,-110v-43,-23,-93,-35,-150,-35v-43,0,-84,9,-122,27v-38,18,-72,44,-100,77v-28,33,-50,73,-66,121v-16,48,-25,101,-25,160v0,58,9,110,25,157v16,47,38,86,67,119v29,33,61,58,99,76v38,18,79,27,122,27v64,0,120,-16,167,-47v47,-31,85,-76,113,-136r154,76v-20,43,-45,81,-74,115v-29,34,-63,63,-100,87v-37,24,-78,43,-122,56v-44,13,-91,19,-140,19v-72,0,-139,-14,-200,-41v-61,-27,-114,-64,-158,-113v-44,-49,-78,-107,-103,-174v-25,-67,-37,-141,-37,-221v0,-80,13,-154,39,-221v26,-67,62,-125,107,-173v45,-48,98,-87,159,-114v61,-27,126,-41,195,-41v65,0,128,11,186,34v58,23,109,57,153,103r105,0r0,172r-188,0","w":1118},"d":{"d":"711,-1556r327,0r0,1384r152,0r0,172r-338,0r0,-85v-33,34,-72,60,-116,79v-44,19,-94,29,-150,29v-70,0,-136,-13,-196,-37v-60,-24,-112,-59,-156,-106v-44,-47,-79,-106,-104,-174v-25,-68,-38,-146,-38,-234v0,-80,12,-152,36,-218v24,-66,58,-122,102,-168v44,-46,97,-82,159,-108v62,-26,131,-39,207,-39v50,0,96,6,137,17v41,11,81,30,119,57r0,-397r-141,0r0,-172xm610,-139v55,0,102,-9,139,-25v37,-16,72,-40,103,-73r0,-580v-33,-28,-72,-48,-115,-61v-43,-13,-88,-19,-133,-19v-44,0,-85,9,-124,25v-39,16,-73,40,-102,71v-29,31,-51,70,-68,115v-17,45,-25,97,-25,156v0,64,8,120,24,169v16,49,38,90,67,123v29,33,63,57,103,74v40,17,84,25,131,25","w":1268},"e":{"d":"276,-494v0,29,2,56,6,80v4,24,11,48,19,70v25,67,65,116,119,150v54,34,115,51,184,51v54,0,107,-8,158,-23v51,-15,104,-38,160,-70r75,127v-68,47,-136,81,-205,104v-69,23,-140,34,-214,34v-70,0,-134,-12,-194,-35v-60,-23,-111,-58,-154,-104v-43,-46,-78,-103,-102,-172v-24,-69,-36,-149,-36,-240v0,-74,10,-144,31,-210v21,-66,52,-123,93,-172v41,-49,91,-87,152,-116v61,-29,131,-43,212,-43v78,0,144,11,196,35v52,24,95,55,128,94v33,39,57,84,74,134v17,50,29,101,36,153v3,25,5,51,6,77v1,26,2,51,2,76r-746,0xm567,-907v-43,0,-81,7,-113,19v-32,12,-60,29,-83,52v-23,23,-41,52,-55,85v-14,33,-23,71,-30,112r537,0v-3,-39,-9,-74,-19,-107v-10,-33,-24,-61,-44,-85v-20,-24,-46,-43,-77,-56v-31,-13,-70,-20,-116,-20","w":1175},"f":{"d":"442,-1036r240,0r0,151r-240,0r0,713r162,0r0,172r-504,0r0,-172r156,0r0,-713r-171,0r0,-151r171,0r0,-162v1,-60,10,-112,26,-157v16,-45,39,-82,68,-112v29,-30,65,-52,106,-67v41,-15,87,-22,138,-22v35,0,67,2,95,5v28,3,53,7,75,13v22,6,41,12,58,19v17,7,33,13,46,20r-57,133v-21,-11,-49,-21,-83,-29v-34,-8,-71,-12,-108,-12v-55,0,-98,17,-130,51v-32,34,-48,85,-48,152r0,168","w":745},"g":{"d":"858,-91v-34,36,-73,64,-118,84v-45,20,-97,30,-154,30v-70,0,-136,-13,-196,-37v-60,-24,-112,-59,-156,-106v-44,-47,-79,-106,-104,-174v-25,-68,-38,-146,-38,-234v0,-80,12,-152,36,-218v24,-66,58,-122,102,-168v44,-46,97,-82,159,-108v62,-26,131,-39,207,-39v52,0,98,5,140,17v42,12,83,32,122,61r0,-53r186,0r0,995v0,164,-38,288,-116,372v-78,84,-199,126,-363,126v-36,0,-74,-3,-113,-8v-39,-5,-78,-13,-116,-25v-38,-12,-76,-27,-112,-45v-36,-18,-70,-40,-101,-66r100,-151v20,17,43,33,69,48v26,15,53,28,82,38v29,10,60,18,91,24v31,6,63,9,94,9v51,0,95,-5,133,-16v38,-11,70,-30,94,-57v24,-27,42,-63,54,-109v12,-46,18,-104,18,-175r0,-15xm610,-139v31,0,59,-3,84,-9v25,-6,48,-14,69,-24v21,-10,39,-20,55,-33v16,-13,29,-26,40,-40r0,-567v-34,-30,-74,-52,-118,-65v-44,-13,-89,-20,-136,-20v-44,0,-85,9,-124,25v-39,16,-73,40,-102,71v-29,31,-51,70,-68,115v-17,45,-25,97,-25,156v0,64,8,120,24,169v16,49,38,90,67,123v29,33,63,57,103,74v40,17,84,25,131,25","w":1200},"h":{"d":"114,-1556r328,0r0,634r6,0v19,-19,40,-36,64,-52v24,-16,50,-31,77,-43v27,-12,54,-21,83,-28v29,-7,59,-10,90,-10v55,0,105,8,150,23v45,15,83,39,114,70v31,31,55,71,72,120v17,49,26,107,26,174r0,496r156,0r0,172r-492,0r0,-172r142,0r0,-473v0,-79,-20,-140,-60,-181v-40,-41,-99,-61,-174,-61v-43,0,-86,11,-130,31v-44,20,-85,45,-124,76r0,608r150,0r0,172r-492,0r0,-172r156,0r0,-1212r-142,0r0,-172","w":1354},"i":{"d":"92,-1036r338,0r0,864r156,0r0,172r-492,0r0,-172r148,0r0,-692r-150,0r0,-172xm207,-1403v0,-17,4,-33,11,-49v7,-16,16,-30,28,-42v12,-12,25,-21,41,-28v16,-7,33,-10,51,-10v17,0,34,3,50,10v16,7,28,16,40,28v12,12,21,26,28,42v7,16,11,32,11,49v0,18,-4,35,-11,51v-7,16,-16,30,-28,42v-12,12,-24,23,-40,30v-16,7,-33,10,-50,10v-18,0,-35,-3,-51,-10v-16,-7,-29,-18,-41,-30v-12,-12,-21,-26,-28,-42v-7,-16,-11,-33,-11,-51","w":657},"j":{"d":"84,-1036r336,0r0,1116v0,59,-8,112,-23,160v-15,48,-38,88,-67,122v-29,34,-64,60,-106,79v-42,19,-90,29,-144,30r-19,-139v59,-9,102,-36,129,-84v27,-48,41,-111,41,-189r0,-923r-147,0r0,-172xm207,-1403v0,-16,3,-31,9,-45v6,-14,15,-26,26,-37v11,-11,24,-19,38,-25v14,-6,29,-10,46,-10v16,0,32,4,46,10v14,6,26,14,37,25v11,11,19,23,25,37v6,14,10,29,10,45v0,17,-4,32,-10,47v-6,15,-14,27,-25,38v-11,11,-23,20,-37,26v-14,6,-30,10,-46,10v-17,0,-32,-4,-46,-10v-14,-6,-27,-15,-38,-26v-11,-11,-20,-23,-26,-38v-6,-15,-9,-30,-9,-47","w":604},"k":{"d":"92,-1556r365,0r0,172r-2,0r0,774r180,0r246,-254r-62,0r0,-172r393,0r0,172r-131,0r-315,325r344,367r125,0r0,172r-219,0r-424,-463r-137,0r0,291r86,0r0,172r-443,0r0,-172r170,0r0,-1212r-176,0r0,-172","w":1286},"l":{"d":"92,-1556r336,0r0,1384r156,0r0,172r-492,0r0,-172r150,0r0,-1212r-150,0r0,-172","w":666},"m":{"d":"100,-1036r330,0r0,121r2,0v23,-19,47,-38,72,-55v25,-17,51,-31,78,-44v27,-13,56,-23,86,-30v30,-7,60,-11,92,-11v75,0,139,13,193,41v54,28,96,71,125,130v25,-23,52,-45,80,-66v28,-21,58,-39,88,-54v30,-15,62,-28,95,-37v33,-9,68,-14,104,-14v56,0,106,8,151,23v45,15,83,39,114,70v31,31,56,71,72,120v16,49,24,107,24,174r0,496r144,0r0,172r-484,0r0,-172r146,0r0,-473v0,-79,-20,-140,-60,-181v-40,-41,-98,-61,-173,-61v-45,0,-90,11,-137,32v-47,21,-87,48,-120,81r0,602r143,0r0,172r-483,0r0,-172r146,0r0,-473v0,-79,-20,-140,-60,-181v-40,-41,-99,-61,-174,-61v-43,0,-87,10,-131,31v-44,21,-86,46,-125,77r0,607r146,0r0,172r-484,0r0,-172r144,0r0,-692r-144,0r0,-172","w":2050},"n":{"d":"782,-172r146,0r0,-473v0,-79,-20,-140,-60,-181v-40,-41,-99,-61,-174,-61v-43,0,-87,10,-131,31v-44,21,-86,46,-125,77r0,607r146,0r0,172r-484,0r0,-172r144,0r0,-692r-144,0r0,-172r330,0r0,122r2,0v22,-19,45,-38,70,-55v25,-17,52,-32,79,-45v27,-13,55,-23,85,-30v30,-7,61,-11,94,-11v55,0,105,8,150,23v45,15,83,39,114,70v31,31,55,71,72,120v17,49,26,107,26,174r0,496r144,0r0,172r-484,0r0,-172","w":1366},"o":{"d":"86,-518v1,-82,14,-157,40,-224v26,-67,61,-126,107,-174v46,-48,101,-85,164,-111v63,-26,133,-39,209,-39v77,0,146,13,210,39v64,26,119,63,164,111v45,48,81,105,106,172v25,67,38,142,38,224v0,81,-13,154,-38,222v-25,68,-61,126,-106,175v-45,49,-100,86,-164,113v-64,27,-133,41,-210,41v-78,0,-149,-13,-212,-40v-63,-27,-118,-65,-163,-113v-45,-48,-81,-106,-106,-173v-25,-67,-38,-142,-39,-223xm283,-518v0,59,8,113,25,161v17,48,40,89,70,123v30,34,65,60,104,78v39,18,80,27,124,27v46,0,88,-9,128,-27v40,-18,75,-44,104,-78v29,-34,52,-74,69,-122v17,-48,25,-102,25,-162v0,-63,-8,-118,-25,-167v-17,-49,-40,-89,-69,-122v-29,-33,-63,-57,-103,-74v-40,-17,-83,-25,-129,-25v-44,0,-85,8,-124,25v-39,17,-74,41,-104,74v-30,33,-53,73,-70,122v-17,49,-25,104,-25,167","w":1225,"k":{".":49}},"p":{"d":"59,-1036r330,0r0,86v44,-34,92,-61,144,-81v52,-20,106,-30,161,-30v68,0,130,13,187,38v57,25,106,61,147,107v41,46,72,102,95,166v23,64,34,135,34,213v0,83,-13,159,-38,228v-25,69,-60,128,-105,177v-45,49,-99,87,-161,114v-62,27,-130,41,-204,41v-53,0,-100,-6,-141,-17v-41,-11,-80,-25,-117,-42r0,335r162,0r0,172r-492,0r0,-172r142,0r0,-1163r-144,0r0,-172xm645,-897v-48,0,-95,10,-139,29v-44,19,-82,46,-115,80r0,561v22,23,54,43,95,61v41,18,92,27,153,27v43,0,84,-8,123,-25v39,-17,74,-41,104,-74v30,-33,54,-74,72,-123v18,-49,27,-105,27,-169v0,-59,-8,-111,-25,-156v-17,-45,-41,-84,-70,-115v-29,-31,-62,-55,-101,-71v-39,-16,-80,-25,-124,-25","w":1249},"q":{"d":"698,299r150,0r0,-380v-33,33,-72,59,-115,77v-43,18,-92,27,-147,27v-70,0,-136,-13,-196,-37v-60,-24,-112,-59,-156,-106v-44,-47,-79,-106,-104,-174v-25,-68,-38,-146,-38,-234v0,-80,12,-152,36,-218v24,-66,58,-122,102,-168v44,-46,97,-82,159,-108v62,-26,131,-39,207,-39v50,0,95,6,135,17v40,11,79,29,117,54r0,-46r186,0r0,1335r156,0r0,172r-492,0r0,-172xm610,-139v57,0,105,-9,144,-28v39,-19,71,-41,94,-66r0,-587v-33,-27,-72,-47,-114,-59v-42,-12,-85,-18,-130,-18v-44,0,-85,9,-124,25v-39,16,-73,40,-102,72v-29,32,-51,70,-68,115v-17,45,-25,97,-25,155v0,64,8,120,24,169v16,49,38,90,67,123v29,33,63,57,103,74v40,17,84,25,131,25","w":1206},"r":{"d":"845,-817r-190,0r0,-64v-22,0,-44,5,-67,13v-23,8,-45,21,-65,38v-20,17,-38,38,-53,64v-15,26,-25,58,-32,94r0,500r176,0r0,172r-514,0r0,-172r143,0r1,-692r-144,0r0,-172r331,0r0,143v12,-21,26,-41,41,-59v15,-18,32,-34,50,-48v18,-14,38,-24,60,-32v22,-8,47,-12,73,-12r98,0v31,0,61,1,92,2r0,225","w":960,"k":{".":150,",":170}},"s":{"d":"678,-830v-13,-20,-29,-36,-50,-48v-21,-12,-44,-20,-69,-26v-25,-6,-50,-9,-74,-9v-27,0,-51,3,-73,9v-22,6,-42,15,-58,26v-16,11,-29,26,-38,42v-9,16,-13,34,-13,54v0,35,10,62,31,82v21,20,57,40,106,57r199,70v85,29,148,68,187,117v39,49,59,108,59,177v0,46,-9,89,-27,127v-18,38,-44,71,-78,98v-34,27,-75,47,-122,62v-47,15,-100,23,-158,23v-81,0,-146,-13,-197,-39v-51,-26,-90,-60,-117,-103r-104,0r0,-172r207,0v0,29,7,53,19,73v12,20,28,37,48,50v20,13,44,22,70,28v26,6,51,9,78,9v26,0,51,-3,75,-9v24,-6,45,-16,63,-28v18,-12,33,-28,44,-45v11,-17,16,-37,16,-59v0,-33,-10,-62,-32,-85v-22,-23,-59,-44,-111,-63r-198,-74v-81,-29,-140,-66,-179,-110v-39,-44,-59,-99,-59,-166v0,-44,9,-85,25,-122v16,-37,39,-69,70,-96v31,-27,69,-49,114,-64v45,-15,96,-23,153,-23v74,0,136,10,186,31v50,21,95,56,135,106r97,0r0,172r-205,0v0,-28,-7,-52,-20,-72","w":993},"t":{"d":"400,-1036r243,0r0,151r-245,0r-3,598v0,41,5,74,14,99v9,25,24,42,45,52v21,10,44,15,70,15v28,0,53,-2,74,-7v21,-5,45,-14,70,-26r43,125v-32,17,-66,29,-101,39v-35,10,-77,15,-125,15v-45,0,-85,-6,-119,-17v-34,-11,-61,-29,-84,-55v-23,-26,-41,-61,-52,-105v-11,-44,-17,-98,-17,-163r3,-570r-165,0r0,-151r167,0r0,-248r182,-86r0,334","w":762},"u":{"d":"724,-1036r334,0r0,864r115,0r0,172r-302,0r0,-96v-47,36,-98,64,-153,84v-55,20,-113,30,-176,30v-52,0,-100,-7,-142,-22v-42,-15,-78,-38,-108,-70v-30,-32,-52,-72,-68,-121v-16,-49,-24,-107,-24,-174r0,-495r-140,0r0,-172r334,0r0,645v0,79,18,139,55,180v37,41,89,61,158,61v41,0,84,-7,129,-22v45,-15,87,-35,127,-61r0,-631r-139,0r0,-172","w":1350},"v":{"d":"20,-1036r358,0r0,172r-97,0r256,714r250,-714r-63,0r0,-172r328,0r0,172r-89,0r-339,880r-184,0r-338,-880r-82,0r0,-172","w":1100,"k":{".":190,",":236}},"w":{"d":"20,-1036r328,0r0,172r-48,0r181,661r248,-833r156,0r237,831r189,-659r-60,0r0,-172r328,0r0,172r-89,0r-284,880r-172,0r-235,-827r-234,827r-174,0r-282,-880r-89,0r0,-172","w":1640,"k":{".":190}},"x":{"d":"694,-172r59,0r-206,-256r-201,256r51,0r0,172r-344,0r0,-172r84,0r315,-367r-296,-325r-105,0r0,-172r344,0r0,172r-39,0r191,246r193,-246r-50,0r0,-172r344,0r0,172r-89,0r-293,338r310,354r76,0r0,172r-344,0r0,-172","w":1090},"y":{"d":"31,-1036r393,0r0,172r-123,0r243,661r254,-661r-122,0r0,-172r393,0r0,172r-107,0r-461,1163r142,0r0,172r-418,0r0,-172r126,0r110,-285r-346,-878r-84,0r0,-172","w":1176,"k":{".":215,",":215}},"z":{"d":"76,-115r525,-766r-331,0r0,146r-184,0r0,-301r741,0r0,118r-524,762r354,0r0,-176r193,0r0,332r-774,0r0,-115","w":924},",":{"d":"205,-283r219,86r-260,537r-144,-53","w":569,"k":{" ":236}},"-":{"d":"94,-496r0,-172r551,0r0,172r-551,0","w":737},"\u00ad":{"d":"94,-496r0,-172r551,0r0,172r-551,0","w":737},".":{"d":"96,-121v0,-17,3,-33,10,-49v7,-16,17,-30,29,-42v12,-12,25,-21,41,-28v16,-7,33,-10,51,-10v17,0,33,3,49,10v16,7,30,16,42,28v12,12,21,26,28,42v7,16,10,32,10,49v0,18,-3,35,-10,51v-7,16,-16,30,-28,42v-12,12,-26,23,-42,30v-16,7,-32,10,-49,10v-18,0,-35,-3,-51,-10v-16,-7,-29,-18,-41,-30v-12,-12,-22,-26,-29,-42v-7,-16,-10,-33,-10,-51","w":456},"0":{"d":"655,18v-108,0,-198,-20,-271,-60v-73,-40,-130,-95,-174,-165v-44,-70,-75,-152,-94,-246v-19,-94,-28,-195,-28,-303v0,-115,13,-224,38,-324v25,-100,59,-180,102,-241v43,-61,97,-112,162,-155v65,-43,154,-64,267,-64v107,0,197,17,268,51v71,34,131,87,177,157v46,70,78,155,97,254v19,99,28,205,28,316v0,109,-9,210,-28,305v-19,95,-51,177,-95,247v-44,70,-103,126,-176,167v-73,41,-164,61,-273,61xm655,-160v78,0,141,-16,189,-48v48,-32,84,-74,108,-129v24,-55,42,-118,54,-191v12,-73,18,-151,18,-234v0,-79,-5,-155,-14,-228v-9,-73,-27,-138,-54,-194v-27,-56,-64,-101,-112,-134v-48,-33,-110,-50,-187,-50v-79,0,-142,17,-188,50v-46,33,-80,73,-103,120v-23,47,-41,112,-54,194v-13,82,-19,163,-19,242v0,83,5,161,13,234v8,73,24,136,50,191v26,55,62,97,110,129v48,32,111,48,189,48","w":1330},"1":{"d":"242,-172r147,0r0,-1109r-307,167r0,-209r422,-236r80,0r0,1387r149,0r0,172r-491,0r0,-172","w":858},"2":{"d":"88,-147r533,-644r57,-69v20,-25,37,-51,54,-78v17,-27,31,-56,42,-86v11,-30,17,-60,17,-92v0,-33,-7,-65,-20,-94v-13,-29,-32,-55,-55,-77v-23,-22,-52,-39,-84,-52v-32,-13,-67,-19,-106,-19v-35,0,-67,5,-98,16v-31,11,-59,28,-82,49v-23,21,-42,47,-56,79v-14,32,-23,69,-24,110r-180,0v1,-63,13,-122,37,-176v24,-54,57,-99,97,-138v40,-39,87,-70,140,-92v53,-22,109,-32,168,-32v68,0,130,10,185,32v55,22,103,52,142,90v39,38,69,83,91,135v22,52,33,108,33,169v0,24,-3,49,-9,76v-6,27,-14,57,-28,88v-14,31,-32,64,-54,99v-22,35,-51,73,-85,114r-473,563r647,0r0,176r-889,0r0,-147","w":1100},"3":{"d":"780,-1120v0,-26,-5,-54,-16,-84v-11,-30,-29,-57,-52,-82v-23,-25,-51,-46,-86,-62v-35,-16,-77,-24,-124,-24v-39,0,-76,6,-108,20v-32,14,-64,40,-96,77v-32,37,-49,79,-52,124r-190,0v3,-58,18,-110,44,-157v26,-47,58,-88,97,-123v39,-35,85,-63,138,-84v53,-21,108,-31,165,-31v71,0,136,12,194,36v58,24,107,55,148,94v41,39,74,83,96,133v22,50,33,101,33,153v0,32,-4,64,-12,96v-8,32,-20,63,-37,92v-17,29,-39,55,-66,80v-27,25,-59,46,-97,65v31,12,61,29,89,51v28,22,51,47,72,77v21,30,37,64,49,102v12,38,18,80,18,125v0,65,-13,126,-38,182v-25,56,-60,103,-103,144v-43,41,-94,73,-152,96v-58,23,-121,34,-188,34v-61,0,-122,-10,-182,-32v-60,-22,-112,-53,-154,-93v-42,-40,-73,-82,-93,-125v-20,-43,-32,-86,-36,-129r192,0v19,62,53,111,103,146v50,35,113,53,190,53v35,0,69,-7,102,-21v33,-14,62,-34,87,-59v25,-25,46,-54,61,-88v15,-34,23,-70,23,-110v0,-42,-8,-80,-23,-114v-15,-34,-36,-62,-62,-86v-26,-24,-56,-43,-90,-56v-34,-13,-71,-19,-110,-19r-86,0r0,-151r70,0v44,0,83,-7,118,-20v35,-13,65,-30,89,-53v24,-23,42,-49,55,-79v13,-30,20,-63,20,-98","w":1110},"4":{"d":"92,-596r539,-920r213,0r-513,906r388,0r0,-250r196,-14r0,264r226,0r0,172r-226,0r0,266r150,0r0,172r-492,0r0,-172r146,0r0,-266r-629,0","w":1251},"5":{"d":"317,-894v37,-25,76,-45,115,-58v39,-13,84,-19,135,-19v75,0,143,13,206,40v63,27,116,63,161,108v45,45,81,99,106,159v25,60,37,124,37,191v0,68,-12,132,-37,193v-25,61,-60,115,-105,161v-45,46,-99,82,-163,109v-64,27,-135,41,-213,41v-59,0,-115,-7,-166,-23v-51,-16,-98,-38,-139,-66v-41,-28,-78,-63,-108,-102v-30,-39,-54,-82,-72,-129r164,-82v11,34,26,66,47,95v21,29,45,53,73,74v28,21,59,38,93,50v34,12,70,17,108,17v48,0,92,-9,133,-27v41,-18,78,-41,108,-72v30,-31,54,-67,71,-108v17,-41,26,-84,26,-131v0,-47,-9,-91,-26,-131v-17,-40,-41,-76,-72,-106v-31,-30,-66,-53,-107,-70v-41,-17,-86,-25,-133,-25v-53,0,-102,10,-147,29v-45,19,-83,44,-113,76r-147,-23r0,-793r854,0r0,166r-689,0r0,456","w":1139},"6":{"d":"815,-1516r-340,567v41,-17,78,-27,111,-30v33,-3,62,-4,88,-4v61,0,121,12,178,35v57,23,108,54,152,96v44,42,80,92,107,150v27,58,40,121,40,190v0,85,-14,160,-43,226v-29,66,-67,122,-116,167v-49,45,-106,79,-170,103v-64,24,-132,36,-204,36v-68,0,-133,-12,-196,-37v-63,-25,-119,-59,-168,-103v-49,-44,-87,-98,-116,-160v-29,-62,-44,-132,-44,-208v0,-59,12,-117,34,-174v22,-57,50,-117,83,-180r371,-674r233,0xm596,-819v-48,0,-88,8,-122,23v-34,15,-66,35,-96,62v-30,27,-54,62,-71,104v-17,42,-26,89,-26,144v0,52,9,99,26,140v17,41,41,76,72,104v31,28,67,51,109,66v42,15,86,22,135,22v45,0,89,-8,130,-24v41,-16,78,-39,109,-68v31,-29,56,-64,75,-105v19,-41,28,-86,28,-135v0,-55,-10,-102,-30,-144v-20,-42,-47,-77,-81,-105v-34,-28,-72,-49,-117,-63v-45,-14,-92,-21,-141,-21","w":1249},"7":{"d":"182,-172r117,0v36,-103,76,-206,119,-312r132,-309r132,-285r119,-245r-568,0r0,117r-192,0r0,-310r995,0r0,150r-138,276r-142,298v0,0,-71,153,-137,310v-44,105,-84,208,-120,310r126,0r0,172r-443,0r0,-172","w":1077},"8":{"d":"631,-1544v57,0,112,10,163,31v51,21,95,49,134,85v39,36,70,78,92,126v22,48,33,100,33,155v0,65,-15,126,-46,181v-31,55,-72,101,-123,137v34,20,65,43,93,71v28,28,52,59,72,92v20,33,36,68,47,106v11,38,16,77,16,118v0,63,-12,123,-38,178v-26,55,-61,104,-105,146v-44,42,-95,74,-154,98v-59,24,-121,36,-188,36v-67,0,-131,-12,-190,-36v-59,-24,-111,-56,-155,-98v-44,-42,-78,-91,-104,-146v-26,-55,-39,-115,-39,-178v0,-41,6,-80,17,-118v11,-38,26,-75,46,-108v20,-33,46,-62,74,-90v28,-28,59,-52,94,-72v-51,-37,-90,-83,-120,-138v-30,-55,-45,-114,-45,-179v0,-55,11,-107,33,-155v22,-48,52,-90,90,-126v38,-36,84,-64,136,-85v52,-21,108,-31,167,-31xm322,-446v0,39,8,77,24,112v16,35,38,65,66,91v28,26,59,47,96,62v37,15,77,23,119,23v41,0,80,-8,117,-23v37,-15,68,-36,96,-62v28,-26,50,-56,66,-91v16,-35,24,-73,24,-112v0,-39,-8,-75,-24,-110v-16,-35,-38,-65,-66,-91v-28,-26,-59,-46,-96,-61v-37,-15,-76,-23,-117,-23v-42,0,-82,8,-119,23v-37,15,-68,35,-96,61v-28,26,-50,56,-66,91v-16,35,-24,71,-24,110xm377,-1143v0,33,6,64,19,93v13,29,30,54,53,76v23,22,50,39,81,52v31,13,64,19,101,19v34,0,66,-6,96,-19v30,-13,56,-30,79,-52v23,-22,42,-47,55,-76v13,-29,20,-60,20,-93v0,-33,-7,-64,-20,-93v-13,-29,-32,-54,-55,-76v-23,-22,-49,-38,-79,-51v-30,-13,-62,-19,-96,-19v-37,0,-70,6,-101,19v-31,13,-58,29,-81,51v-23,22,-40,47,-53,76v-13,29,-19,60,-19,93","w":1276},"9":{"d":"430,0r349,-572v-33,13,-64,22,-91,27v-27,5,-57,7,-88,7v-59,0,-119,-11,-182,-34v-63,-23,-118,-56,-162,-98v-44,-42,-81,-93,-110,-154v-29,-61,-43,-122,-43,-185v0,-85,14,-160,43,-226v29,-66,67,-122,116,-167v49,-45,106,-80,170,-104v64,-24,132,-35,204,-35v72,0,140,12,202,36v62,24,117,58,166,103v49,45,86,100,114,162v28,62,42,131,42,207v0,59,-12,117,-34,174v-22,57,-50,117,-83,180r-380,679r-233,0xm631,-1367v-45,0,-89,8,-130,24v-41,16,-78,39,-109,68v-31,29,-56,64,-75,105v-19,41,-28,86,-28,135v0,55,10,103,30,145v20,42,47,76,81,104v34,28,70,49,112,63v42,14,84,21,126,21v61,0,108,-7,142,-22v34,-15,66,-37,96,-64v30,-27,54,-60,71,-102v17,-42,26,-90,26,-145v0,-52,-9,-99,-26,-140v-17,-41,-41,-77,-72,-105v-31,-28,-67,-49,-109,-64v-42,-15,-86,-23,-135,-23","w":1270},"!":{"d":"211,-121v0,-17,4,-33,11,-49v7,-16,16,-30,28,-42v12,-12,25,-21,41,-28v16,-7,33,-10,51,-10v17,0,34,3,50,10v16,7,28,16,40,28v12,12,21,26,28,42v7,16,11,32,11,49v0,18,-4,35,-11,51v-7,16,-16,30,-28,42v-12,12,-24,23,-40,30v-16,7,-33,10,-50,10v-18,0,-35,-3,-51,-10v-16,-7,-29,-18,-41,-30v-12,-12,-21,-26,-28,-42v-7,-16,-11,-33,-11,-51xm211,-1577r260,0r-41,1167r-178,0","w":682},"%":{"d":"75,-1167v0,-45,8,-87,25,-127v17,-40,40,-76,70,-106v30,-30,67,-54,109,-72v42,-18,88,-27,138,-27v50,0,96,9,138,27v42,18,78,42,108,72v30,30,54,66,71,106v17,40,25,82,25,127v0,45,-9,88,-25,128v-16,40,-39,75,-69,106v-30,31,-66,55,-108,73v-42,18,-89,26,-140,26v-52,0,-99,-8,-141,-26v-42,-18,-78,-42,-108,-73v-30,-31,-52,-66,-68,-106v-16,-40,-25,-83,-25,-128xm417,-1335v-24,0,-46,5,-67,13v-21,8,-40,19,-56,34v-16,15,-27,33,-36,54v-9,21,-14,43,-14,67v0,23,5,46,14,67v9,21,20,38,36,54v16,16,35,29,56,38v21,9,43,13,67,13v23,0,45,-4,66,-13v21,-9,39,-22,54,-37v15,-15,28,-34,37,-55v9,-21,13,-43,13,-67v0,-24,-4,-46,-13,-67v-9,-21,-22,-39,-37,-54v-15,-15,-33,-26,-54,-34v-21,-8,-43,-13,-66,-13xm1252,-1540r195,0r-1041,1556r-194,0xm941,-323v0,-45,8,-87,25,-127v17,-40,40,-76,70,-106v30,-30,67,-54,109,-72v42,-18,88,-27,138,-27v50,0,96,9,138,27v42,18,79,42,109,72v30,30,53,66,70,106v17,40,25,82,25,127v0,45,-9,89,-25,129v-16,40,-38,76,-68,106v-30,30,-66,54,-108,72v-42,18,-89,27,-141,27v-52,0,-99,-9,-141,-27v-42,-18,-78,-42,-108,-72v-30,-30,-52,-66,-68,-106v-16,-40,-25,-84,-25,-129xm1283,-491v-23,0,-46,4,-67,13v-21,9,-38,21,-54,36v-16,15,-29,32,-38,52v-9,20,-13,43,-13,67v0,23,4,46,13,67v9,21,22,38,38,54v16,16,33,29,54,38v21,9,44,13,67,13v23,0,45,-4,66,-13v21,-9,39,-22,54,-37v15,-15,28,-34,37,-55v9,-21,13,-43,13,-67v0,-24,-4,-47,-13,-67v-9,-20,-22,-37,-37,-52v-15,-15,-33,-27,-54,-36v-21,-9,-43,-13,-66,-13","w":1730},"&":{"d":"1288,6r-236,-228v-28,35,-58,66,-91,95v-33,29,-68,54,-105,75v-37,21,-76,36,-118,48v-42,12,-85,18,-132,18v-65,0,-126,-11,-182,-34v-56,-23,-104,-54,-146,-93v-42,-39,-75,-85,-99,-139v-24,-54,-36,-112,-36,-174v0,-41,7,-80,19,-118v12,-38,28,-75,50,-108v22,-33,47,-63,76,-90v29,-27,75,-56,136,-87r-66,-64v-17,-16,-34,-34,-50,-55v-16,-21,-32,-43,-44,-67v-12,-24,-22,-49,-30,-75v-8,-26,-11,-52,-11,-77v0,-53,10,-103,31,-149v21,-46,48,-86,84,-120v36,-34,78,-60,126,-80v48,-20,99,-30,154,-30v58,0,112,10,162,31v50,21,92,48,128,83v36,35,64,75,85,121v21,46,31,94,31,144v0,40,-4,75,-12,105v-8,30,-19,58,-34,82v-15,24,-32,46,-52,66v-20,20,-43,37,-66,54v-23,17,-46,32,-70,46v-24,14,-49,26,-74,39r306,285v21,-49,39,-96,52,-144v13,-48,23,-91,30,-130r188,0v-11,63,-29,128,-52,195v-23,67,-53,133,-89,198r276,256xm473,-666v-23,9,-43,22,-61,38v-18,16,-35,35,-48,56v-13,21,-24,44,-31,68v-7,24,-11,49,-11,74v0,39,7,75,22,108v15,33,36,61,62,85v26,24,58,43,94,57v36,14,73,20,114,20v35,0,67,-4,98,-13v31,-9,59,-21,86,-37v27,-16,52,-34,74,-56v22,-22,43,-45,62,-70r-380,-367xm784,-1026v17,-19,32,-40,44,-64v12,-24,18,-50,18,-77v0,-28,-6,-55,-18,-81v-12,-26,-29,-49,-50,-69v-21,-20,-44,-35,-72,-47v-28,-12,-57,-18,-88,-18v-33,0,-63,5,-90,16v-27,11,-51,27,-70,46v-19,19,-34,42,-45,68v-11,26,-16,53,-16,83v0,28,7,58,21,89v14,31,38,63,74,97r89,83v39,-17,76,-36,111,-56v35,-20,65,-43,92,-70","w":1468},"'":{"d":"216,-1059r-179,0r0,-518r227,-16","w":340},"\"":{"d":"251,-1059r-169,0r-41,-518r228,0xm588,-1059r-169,0r-14,-518r230,0","w":651},"(":{"d":"530,451v-60,-75,-114,-153,-162,-235v-48,-82,-88,-168,-122,-256v-34,-88,-60,-178,-78,-270v-18,-92,-27,-185,-27,-280v0,-95,9,-188,27,-280v18,-92,44,-183,78,-270v34,-87,74,-172,122,-254v48,-82,102,-161,162,-236r138,110v-53,67,-99,137,-140,211v-41,74,-76,150,-104,229v-28,79,-49,160,-64,242v-15,82,-22,165,-22,248v0,83,7,166,22,248v15,82,36,163,64,242v28,79,63,156,104,230v41,74,87,143,140,210","w":721},")":{"d":"53,340v53,-67,100,-136,141,-210v41,-74,75,-151,103,-230v28,-79,49,-160,64,-242v15,-82,22,-165,22,-248v0,-83,-7,-166,-22,-248v-15,-82,-36,-163,-64,-242v-28,-79,-62,-155,-103,-229v-41,-74,-88,-144,-141,-211r137,-110v60,75,114,154,162,236v48,82,89,167,123,254v34,87,60,178,78,270v18,92,27,185,27,280v0,95,-9,188,-27,280v-18,92,-44,182,-78,270v-34,88,-75,174,-123,256v-48,82,-102,160,-162,235","w":721},"*":{"d":"483,-1295r248,-81r37,119r-249,80r157,214r-109,72r-149,-206r-148,204r-108,-70r155,-212r-258,-82r39,-125r252,82r0,-246r133,0r0,251","w":836},"+":{"d":"143,-791r420,0r0,-419r182,0r0,419r422,0r0,183r-422,0r0,422r-182,0r0,-422r-420,0r0,-183","w":1311},"\/":{"d":"637,-1569r174,0r-600,1598r-174,0","w":848},"@":{"d":"1589,-956r0,663v0,41,5,71,17,92v12,21,26,35,42,45v16,10,36,15,61,15v49,0,90,-14,123,-41v33,-27,59,-59,78,-97v19,-38,32,-77,40,-117v8,-40,12,-91,12,-151v0,-68,-10,-133,-29,-197v-19,-64,-46,-124,-81,-180v-35,-56,-78,-109,-127,-156v-49,-47,-104,-86,-165,-120v-61,-34,-126,-60,-196,-79v-70,-19,-143,-28,-219,-28v-75,0,-147,10,-217,29v-70,19,-136,47,-196,82v-60,35,-114,78,-164,127v-50,49,-93,105,-128,165v-35,60,-62,125,-81,194v-19,69,-29,141,-29,216v0,75,10,148,29,218v19,70,46,134,81,195v35,61,78,116,128,165v50,49,104,92,164,127v60,35,126,63,196,82v70,19,142,29,217,29v77,0,151,-10,222,-30v71,-20,138,-50,200,-87r94,157v-75,46,-156,81,-243,106v-87,25,-178,38,-273,38v-92,0,-181,-12,-266,-36v-85,-24,-165,-57,-239,-100v-74,-43,-141,-95,-202,-156v-61,-61,-114,-129,-157,-203v-43,-74,-77,-154,-101,-239v-24,-85,-35,-174,-35,-266v0,-91,11,-179,35,-264v24,-85,58,-165,101,-239v43,-74,96,-141,157,-202v61,-61,128,-113,202,-156v74,-43,154,-77,239,-101v85,-24,174,-35,266,-35v93,0,183,12,269,35v86,23,165,55,239,96v74,41,141,91,202,149v61,58,112,122,155,192v43,70,76,145,100,225v24,80,36,162,36,247v0,45,-4,91,-13,137v-9,46,-22,90,-39,132v-17,42,-39,81,-64,118v-25,37,-53,69,-86,96v-33,27,-70,48,-110,64v-40,16,-83,23,-130,23v-61,0,-113,-13,-154,-40v-41,-27,-74,-61,-97,-103v-42,35,-89,62,-142,81v-53,19,-109,29,-170,29v-70,0,-135,-12,-193,-36v-58,-24,-108,-58,-151,-101v-43,-43,-75,-92,-99,-149v-24,-57,-36,-118,-36,-183v0,-65,12,-126,37,-183v25,-57,58,-106,101,-149v43,-43,94,-76,152,-101v58,-25,122,-38,189,-38v49,0,95,7,140,20v45,13,86,32,124,57r0,-83r184,0xm1141,-195v63,0,117,-14,162,-43v45,-29,79,-67,102,-113r0,-253v-11,-23,-25,-45,-43,-65v-18,-20,-38,-37,-61,-51v-23,-14,-48,-26,-75,-34v-27,-8,-55,-12,-85,-12v-43,0,-82,8,-118,23v-36,15,-67,36,-93,62v-26,26,-47,56,-62,91v-15,35,-22,72,-22,111v0,39,7,77,21,111v14,34,33,64,59,90v26,26,58,45,94,60v36,15,76,23,121,23","w":2310},"[":{"d":"238,-1706r403,0r0,151r-219,0r0,1780r219,0r0,152r-403,0r0,-2083","w":721},"\\":{"d":"41,-1581r162,0r704,1606r-162,0","w":948},"]":{"d":"299,-1555r-219,0r0,-151r403,0r0,2083r-403,0r0,-152r219,0r0,-1780","w":721},"\u00b6":{"d":"465,-701v-62,-4,-119,-17,-171,-39v-52,-22,-96,-49,-134,-84v-38,-35,-67,-76,-88,-124v-21,-48,-31,-100,-31,-156v0,-68,12,-128,35,-179v23,-51,57,-94,100,-129v43,-35,95,-61,156,-78v61,-17,130,-26,205,-26r598,0r0,162r-80,0r0,1723r-181,0r0,-1723r-229,0r0,1723r-180,0r0,-1070","w":1274},"\u00df":{"d":"588,-964r78,0v43,-2,74,-9,94,-20v20,-11,36,-25,51,-41v15,-16,26,-33,34,-53v8,-20,12,-40,12,-60v0,-33,-6,-65,-18,-94v-12,-29,-29,-54,-51,-75v-22,-21,-48,-36,-78,-47v-30,-11,-63,-16,-100,-16v-32,0,-61,6,-88,18v-27,12,-50,27,-68,48v-18,21,-32,45,-42,74v-10,29,-15,60,-15,94r0,1136r-381,0r0,-172r185,0r0,-987v0,-47,9,-94,27,-141v18,-47,45,-90,80,-128v35,-38,77,-68,128,-92v51,-24,109,-36,176,-36v62,0,120,11,173,32v53,21,100,50,139,88v39,38,70,83,92,134v22,51,33,104,33,160v0,31,-3,58,-9,84v-6,26,-14,50,-24,72v-10,22,-21,41,-34,58v-13,17,-26,32,-39,45v34,22,65,48,93,77v28,29,51,60,70,92v19,32,35,69,46,110v11,41,16,85,16,130v0,67,-14,131,-40,192v-26,61,-62,114,-108,158v-46,44,-99,78,-160,102v-61,24,-125,36,-194,36v-26,0,-52,-2,-78,-6r0,-188v13,3,26,6,39,8v13,2,26,2,39,2v43,0,84,-8,122,-24v38,-16,70,-39,98,-68v28,-29,50,-62,66,-100v16,-38,24,-75,24,-112v0,-43,-8,-84,-25,-122v-17,-38,-39,-71,-67,-96v-28,-25,-61,-46,-98,-62v-37,-16,-77,-24,-118,-24r-80,0r0,-186","w":1247},"\u00ae":{"d":"102,-831v0,-79,10,-154,30,-227v20,-73,49,-142,86,-205v37,-63,82,-121,134,-173v52,-52,110,-97,173,-134v63,-37,132,-66,205,-86v73,-20,149,-30,228,-30v79,0,155,10,228,30v73,20,142,49,206,86v64,37,122,82,174,134v52,52,97,110,134,173v37,63,66,132,86,205v20,73,31,148,31,227v0,79,-11,156,-31,229v-20,73,-49,141,-86,204v-37,63,-82,121,-134,173v-52,52,-110,96,-174,133v-64,37,-133,66,-206,86v-73,20,-149,31,-228,31v-79,0,-155,-11,-228,-31v-73,-20,-142,-49,-205,-86v-63,-37,-121,-81,-173,-133v-52,-52,-97,-110,-134,-173v-37,-63,-66,-131,-86,-204v-20,-73,-30,-150,-30,-229xm283,-831v0,95,18,183,53,265v35,82,83,155,144,216v61,61,132,109,214,144v82,35,170,52,264,52v94,0,182,-17,264,-52v82,-35,152,-83,214,-144v62,-61,111,-134,146,-216v35,-82,52,-170,52,-265v0,-63,-17,-145,-52,-247v-35,-102,-84,-181,-146,-238v-62,-57,-132,-103,-214,-138v-82,-35,-170,-53,-264,-53v-94,0,-182,18,-264,53v-82,35,-153,81,-214,138v-61,57,-109,130,-144,216v-35,86,-53,176,-53,269xm555,-518r98,0r0,-670r-102,0r0,-158r483,0v49,0,93,7,132,21v39,14,73,33,100,58v27,25,49,53,64,87v15,34,22,70,22,109v0,33,-3,62,-10,87v-7,25,-16,48,-30,68v-14,20,-31,36,-51,51v-20,15,-43,28,-69,39v21,11,40,28,56,52v16,24,28,53,36,88r41,168r82,0r2,158r-256,0r-51,-254v-9,-56,-31,-96,-64,-121v-33,-25,-76,-37,-129,-37r-67,0r0,254r92,0r0,158r-379,0r0,-158xm842,-1188r0,260r143,0v49,0,89,-10,118,-30v29,-20,44,-54,44,-99v0,-41,-13,-74,-41,-97v-28,-23,-71,-34,-129,-34r-135,0","w":1919},"\u00a9":{"d":"102,-831v0,-79,10,-154,30,-227v20,-73,49,-142,86,-205v37,-63,82,-121,134,-173v52,-52,110,-97,173,-134v63,-37,132,-66,205,-86v73,-20,149,-30,228,-30v79,0,155,10,228,30v73,20,142,49,206,86v64,37,122,82,174,134v52,52,97,110,134,173v37,63,66,132,86,205v20,73,31,148,31,227v0,79,-11,156,-31,229v-20,73,-49,141,-86,204v-37,63,-82,121,-134,173v-52,52,-110,96,-174,133v-64,37,-133,66,-206,86v-73,20,-149,31,-228,31v-79,0,-155,-11,-228,-31v-73,-20,-142,-49,-205,-86v-63,-37,-121,-81,-173,-133v-52,-52,-97,-110,-134,-173v-37,-63,-66,-131,-86,-204v-20,-73,-30,-150,-30,-229xm283,-831v0,95,18,183,53,265v35,82,83,155,144,216v61,61,132,109,214,144v82,35,170,52,264,52v94,0,182,-17,264,-52v82,-35,152,-83,214,-144v62,-61,111,-134,146,-216v35,-82,52,-170,52,-265v0,-93,-17,-183,-52,-269v-35,-86,-84,-159,-146,-216v-62,-57,-132,-103,-214,-138v-82,-35,-170,-53,-264,-53v-94,0,-182,18,-264,53v-82,35,-153,81,-214,138v-61,57,-109,130,-144,216v-35,86,-53,176,-53,269xm1190,-1059v-32,-31,-65,-53,-100,-67v-35,-14,-72,-21,-111,-21v-43,0,-83,9,-120,25v-37,16,-69,38,-97,67v-28,29,-50,62,-66,100v-16,38,-24,78,-24,121v0,43,8,83,24,120v16,37,38,70,66,98v28,28,60,50,97,66v37,16,77,24,120,24v37,0,74,-7,109,-22v35,-15,62,-35,83,-58r134,129v-15,20,-35,39,-59,57v-24,18,-50,33,-79,46v-29,13,-59,22,-91,30v-32,8,-65,12,-97,12v-70,0,-136,-13,-197,-39v-61,-26,-114,-62,-159,-107v-45,-45,-81,-99,-107,-160v-26,-61,-39,-126,-39,-196v0,-69,13,-135,39,-196v26,-61,62,-114,107,-160v45,-46,98,-82,159,-108v61,-26,127,-39,197,-39v39,0,75,5,109,13v34,8,66,18,96,32v30,14,58,30,82,48v24,18,46,35,65,54","w":1919},"\u00ab":{"d":"514,-172r-192,0r-220,-393r220,-393r192,0r-229,393xm938,-172r-193,0r-219,-393r219,-393r193,0r-229,393","w":1040},"\u00bb":{"d":"332,-565r-230,-393r193,0r219,393r-219,393r-193,0xm756,-565r-230,-393r193,0r219,393r-219,393r-193,0","w":1040},"\u2026":{"d":"205,-123v0,-20,3,-39,11,-57v8,-18,18,-32,32,-46v14,-14,30,-24,48,-32v18,-8,36,-12,56,-12v21,0,40,4,58,12v18,8,34,18,48,32v14,14,24,28,32,46v8,18,12,37,12,57v0,20,-4,39,-12,57v-8,18,-18,34,-32,47v-14,13,-30,24,-48,32v-18,8,-37,12,-58,12v-20,0,-38,-4,-56,-12v-18,-8,-34,-19,-48,-32v-14,-13,-24,-29,-32,-47v-8,-18,-11,-37,-11,-57xm877,-123v0,-20,3,-39,11,-57v8,-18,18,-32,32,-46v14,-14,30,-24,48,-32v18,-8,36,-12,56,-12v21,0,40,4,58,12v18,8,34,18,48,32v14,14,24,28,32,46v8,18,12,37,12,57v0,20,-4,39,-12,57v-8,18,-18,34,-32,47v-14,13,-30,24,-48,32v-18,8,-37,12,-58,12v-20,0,-38,-4,-56,-12v-18,-8,-34,-19,-48,-32v-14,-13,-24,-29,-32,-47v-8,-18,-11,-37,-11,-57xm1548,-123v0,-20,4,-39,12,-57v8,-18,19,-32,32,-46v13,-14,29,-24,47,-32v18,-8,37,-12,57,-12v21,0,40,4,58,12v18,8,34,18,47,32v13,14,24,28,32,46v8,18,12,37,12,57v0,20,-4,39,-12,57v-8,18,-19,34,-32,47v-13,13,-29,24,-47,32v-18,8,-37,12,-58,12v-20,0,-39,-4,-57,-12v-18,-8,-34,-19,-47,-32v-13,-13,-24,-29,-32,-47v-8,-18,-12,-37,-12,-57","w":2048},"\u2013":{"d":"0,-647r1024,0r0,162r-1024,0r0,-162","w":1024},"\u2014":{"d":"0,-647r2048,0r0,162r-2048,0r0,-162","w":2048},"\u201c":{"d":"805,-1556r131,63r-191,514r-190,-78xm379,-1556r131,63r-191,514r-190,-78","w":1065},"\u201d":{"d":"223,-979r-131,-63r191,-514r190,77xm649,-979r-131,-63r191,-514r190,77","w":1028},"\u2018":{"d":"362,-1556r132,63r-191,514r-190,-78","w":606},"\u2019":{"d":"276,-1565r220,86r-260,537r-144,-53","w":606},"\u00b1":{"d":"102,-893r420,0r0,-420r183,0r0,420r421,0r0,182r-421,0r0,402r-183,0r0,-402r-420,0r0,-182xm102,-162r1024,0r0,162r-1024,0r0,-162","w":1229},"#":{"d":"170,-1198r252,0r63,-318r191,0r-62,318r351,0r63,-318r191,0r-62,318r225,0r-39,199r-225,0r-81,415r239,0r-37,195r-240,0r-75,389r-193,0r76,-389r-351,0r-75,389r-197,0r77,-389r-241,0r41,-195r239,0r82,-415r-253,0xm494,-584r351,0r81,-415r-351,0","w":1423},"<":{"d":"10,-761r843,-423r0,185r-678,315r678,315r0,185r-843,-421r0,-156","w":1001},"=":{"d":"86,-446r750,0r0,141r-750,0r0,-141xm86,-784r750,0r0,141r-750,0r0,-141","w":922},">":{"d":"1007,-605r-843,421r0,-185r678,-315r-678,-315r0,-185r843,423r0,156","w":1147},"?":{"d":"338,-121v0,-17,3,-33,10,-49v7,-16,16,-30,28,-42v12,-12,26,-21,42,-28v16,-7,33,-10,51,-10v17,0,33,3,49,10v16,7,30,16,42,28v12,12,21,26,28,42v7,16,10,32,10,49v0,18,-3,35,-10,51v-7,16,-16,30,-28,42v-12,12,-26,23,-42,30v-16,7,-32,10,-49,10v-18,0,-35,-3,-51,-10v-16,-7,-30,-18,-42,-30v-12,-12,-21,-26,-28,-42v-7,-16,-10,-33,-10,-51xm381,-336v0,-69,2,-128,7,-176v5,-48,15,-94,29,-134v14,-40,33,-75,58,-105v25,-30,57,-62,96,-95v35,-30,68,-56,97,-78v29,-22,53,-43,74,-64v21,-21,37,-44,48,-68v11,-24,17,-54,17,-89v0,-30,-6,-59,-18,-87v-12,-28,-29,-52,-49,-74v-20,-22,-44,-40,-72,-53v-28,-13,-57,-20,-88,-20v-54,0,-99,9,-135,28v-36,19,-65,41,-87,67v-22,26,-38,55,-47,84v-9,29,-14,54,-14,75r-176,-12v3,-56,17,-109,41,-159v24,-50,55,-94,95,-132v40,-38,87,-68,142,-90v55,-22,115,-33,181,-33v67,0,126,11,178,33v52,22,95,51,130,88v35,37,62,80,80,128v18,48,27,98,27,151v0,68,-17,131,-52,188v-35,57,-86,110,-155,158v-31,22,-68,50,-108,85v-40,35,-69,77,-86,128v-17,51,-26,94,-29,128v-3,34,-4,77,-4,128r-180,0","w":1065},"$":{"d":"516,186r0,-322v-66,-11,-118,-31,-156,-61v-38,-30,-69,-65,-91,-106r-119,0r0,-172r251,0r0,11r2,-1v0,54,19,95,56,123v37,28,93,43,166,43v67,0,120,-13,159,-39v39,-26,58,-63,58,-111v0,-25,-7,-45,-20,-62v-13,-17,-28,-30,-48,-41v-20,-11,-42,-20,-66,-27r-69,-19r-176,-47v-38,-10,-73,-23,-105,-39v-32,-16,-59,-37,-82,-61v-23,-24,-41,-52,-54,-85v-13,-33,-19,-71,-19,-114v0,-39,7,-75,21,-108v14,-33,34,-62,61,-87v27,-25,60,-46,99,-63v39,-17,83,-29,132,-36r0,-341r197,0r0,342v57,10,106,28,147,54v41,26,75,57,100,93r101,0r0,172r-209,0r-23,3r0,-3r-2,0r0,-22v-7,-43,-28,-78,-65,-105v-37,-27,-85,-40,-146,-40v-73,0,-128,11,-166,35v-38,24,-57,57,-57,98v0,28,7,50,19,67v12,17,27,31,46,41v19,10,40,18,62,24v22,6,43,11,64,17r174,53v44,13,83,29,118,46v35,17,65,36,89,59v24,23,42,49,55,79v13,30,20,66,20,107v0,41,-8,79,-24,115v-16,36,-37,68,-66,96v-29,28,-64,52,-104,71v-40,19,-84,33,-133,41r0,322r-197,0","w":1210},"{":{"d":"133,-723v28,0,52,-8,73,-23v21,-15,39,-35,53,-60v14,-25,24,-54,31,-86v7,-32,11,-65,11,-98r0,-452v0,-42,7,-79,19,-112v12,-33,28,-60,48,-83v20,-23,42,-39,67,-51v25,-12,51,-18,77,-18r137,0r0,126r-69,0v-36,0,-60,17,-74,52v-14,35,-21,84,-21,147r0,428v0,41,-4,78,-13,110v-9,32,-21,60,-36,84v-15,24,-32,44,-52,60v-20,16,-43,28,-67,37r0,4v24,9,47,21,67,37v20,16,37,36,52,60v15,24,27,53,36,85v9,32,13,68,13,109r0,418v0,63,7,112,21,147v14,35,38,52,74,52r69,0r0,127r-137,0v-26,0,-52,-5,-77,-17v-25,-12,-47,-29,-67,-52v-20,-23,-36,-50,-48,-83v-12,-33,-19,-70,-19,-112r0,-443v0,-33,-4,-66,-11,-98v-7,-32,-17,-59,-31,-84v-14,-25,-32,-46,-53,-61v-21,-15,-45,-23,-73,-23r0,-127","w":721},"|":{"d":"152,-1726r155,0r0,1996r-155,0r0,-1996","w":455},"}":{"d":"72,377r0,-127r69,0v36,0,61,-17,75,-52v14,-35,20,-84,20,-147r0,-418v0,-41,4,-77,13,-109v9,-32,20,-61,35,-85v15,-24,34,-44,54,-60v20,-16,42,-28,65,-37r0,-4v-23,-9,-45,-21,-65,-37v-20,-16,-39,-36,-54,-60v-15,-24,-26,-52,-35,-84v-9,-32,-13,-69,-13,-110r0,-428v0,-63,-6,-112,-20,-147v-14,-35,-39,-52,-75,-52r-69,0r0,-126r137,0v26,0,52,6,77,18v25,12,48,28,68,51v20,23,36,50,48,83v12,33,18,70,18,112r0,452v0,33,3,66,10,98v7,32,18,61,32,86v14,25,31,45,52,60v21,15,46,23,74,23r0,127v-28,0,-53,8,-74,23v-21,15,-38,36,-52,61v-14,25,-25,52,-32,84v-7,32,-10,65,-10,98r0,443v0,42,-6,79,-18,112v-12,33,-28,60,-48,83v-20,23,-43,40,-68,52v-25,12,-51,17,-77,17r-137,0","w":721},"~":{"d":"141,-483v30,-56,65,-99,106,-130v41,-31,91,-46,150,-46v39,0,78,8,119,23v41,15,81,30,120,48v58,26,58,28,109,50v34,15,64,22,89,22v29,0,57,-11,86,-34v29,-23,61,-63,94,-118r73,115v-30,56,-65,99,-105,130v-40,31,-91,46,-151,46v-26,0,-52,-4,-79,-11v-27,-7,-53,-15,-80,-26v-27,-11,-54,-22,-80,-34v-38,-18,-38,-19,-74,-35v-24,-11,-45,-20,-66,-27v-21,-7,-40,-10,-57,-10v-29,0,-58,11,-87,34v-29,23,-60,62,-93,117","w":1229},"\u00a3":{"d":"33,-807r195,0v-17,-46,-32,-93,-45,-142v-13,-49,-19,-100,-19,-155v0,-52,9,-100,27,-143v18,-43,43,-81,76,-112v33,-31,72,-56,117,-73v45,-17,96,-26,151,-26v49,0,95,8,136,26v41,18,77,43,106,74v29,31,52,69,67,112v15,43,21,91,18,142r-166,10v-1,-25,-5,-50,-12,-74v-7,-24,-17,-45,-30,-64v-13,-19,-30,-34,-50,-45v-20,-11,-42,-17,-67,-17v-29,0,-54,4,-76,12v-22,8,-40,20,-55,34v-15,14,-28,32,-36,51v-8,19,-13,40,-14,62v-1,17,-1,33,0,49v1,16,4,31,7,48v3,17,8,36,14,56r20,67r15,54r16,54r279,0r0,145r-234,0v9,29,18,56,25,82r18,70v6,25,7,53,4,83v-3,30,-10,60,-22,91v-12,31,-27,60,-48,88v-21,28,-46,54,-76,76r486,0r0,168r-799,0r0,-168r110,0v41,-23,73,-52,98,-84v25,-32,42,-68,52,-106v10,-38,13,-78,9,-122v-4,-44,-13,-89,-29,-134r-16,-44r-252,0r0,-145","w":932},"\u00a2":{"d":"516,186r0,-329v-60,-11,-114,-31,-164,-62v-50,-31,-92,-70,-128,-117v-36,-47,-64,-101,-84,-162v-20,-61,-29,-128,-29,-200v0,-71,10,-136,31,-197v21,-61,49,-114,85,-161v36,-47,79,-87,128,-118v49,-31,103,-53,161,-64r0,-355r197,0r0,356v45,9,88,24,128,45v40,21,76,48,108,82r106,0r0,172r-183,0r-4,2v-1,0,-1,-1,-1,-2r-1,0r0,-1v-29,-49,-64,-86,-107,-109v-43,-23,-92,-35,-149,-35v-43,0,-84,9,-122,27v-38,18,-72,44,-100,77v-28,33,-50,73,-66,121v-16,48,-25,101,-25,160v0,58,9,110,25,157v16,47,38,86,67,119v29,33,61,58,99,76v38,18,79,27,122,27v64,0,120,-16,168,-47v48,-31,85,-76,113,-135r153,75v-33,70,-77,128,-134,174v-57,46,-122,78,-197,93r0,331r-197,0","w":1210},"\u00d7":{"d":"525,-676r-373,-448r145,-123r353,422r341,-408r160,115r-373,447r377,450r-151,119r-350,-420r-355,426r-166,-111","w":1303},":":{"d":"96,-907v0,-17,3,-33,10,-49v7,-16,17,-30,29,-42v12,-12,25,-21,41,-28v16,-7,33,-10,51,-10v17,0,33,3,49,10v16,7,30,16,42,28v12,12,21,26,28,42v7,16,10,32,10,49v0,18,-3,35,-10,51v-7,16,-16,30,-28,42v-12,12,-26,22,-42,29v-16,7,-32,11,-49,11v-18,0,-35,-4,-51,-11v-16,-7,-29,-17,-41,-29v-12,-12,-22,-26,-29,-42v-7,-16,-10,-33,-10,-51xm96,-121v0,-17,3,-33,10,-49v7,-16,17,-30,29,-42v12,-12,25,-21,41,-28v16,-7,33,-10,51,-10v17,0,33,3,49,10v16,7,30,16,42,28v12,12,21,26,28,42v7,16,10,32,10,49v0,18,-3,35,-10,51v-7,16,-16,30,-28,42v-12,12,-26,23,-42,30v-16,7,-32,10,-49,10v-18,0,-35,-3,-51,-10v-16,-7,-29,-18,-41,-30v-12,-12,-22,-26,-29,-42v-7,-16,-10,-33,-10,-51","w":524},";":{"d":"96,-907v0,-17,3,-33,10,-49v7,-16,17,-30,29,-42v12,-12,25,-21,41,-28v16,-7,33,-10,51,-10v17,0,33,3,49,10v16,7,30,16,42,28v12,12,21,26,28,42v7,16,10,32,10,49v0,18,-3,35,-10,51v-7,16,-16,30,-28,42v-12,12,-26,22,-42,29v-16,7,-32,11,-49,11v-18,0,-35,-4,-51,-11v-16,-7,-29,-17,-41,-29v-12,-12,-22,-26,-29,-42v-7,-16,-10,-33,-10,-51xm164,-283r219,86r-260,537r-143,-53","w":524},"\u00af":{"d":"797,-1229r-758,0r0,-117r758,0r0,117","w":797},"\u02c9":{"d":"797,-1229r-758,0r0,-117r758,0r0,117","w":797},"\u00b8":{"d":"182,303v37,-1,70,-7,100,-19v30,-12,56,-29,78,-49v22,-20,40,-44,54,-71v14,-27,25,-55,30,-86r150,45v-12,49,-31,93,-56,131v-25,38,-55,70,-90,96v-35,26,-75,47,-118,61v-43,14,-89,21,-137,21","w":940},"\u00b0":{"d":"340,-1737v33,0,63,6,92,19v29,13,55,30,77,52v22,22,39,47,52,76v13,29,19,60,19,93v0,33,-6,63,-19,92v-13,29,-30,53,-52,75v-22,22,-48,40,-77,52v-29,12,-59,18,-92,18v-33,0,-63,-6,-92,-18v-29,-12,-55,-30,-76,-52v-21,-22,-38,-46,-51,-75v-13,-29,-19,-59,-19,-92v0,-33,6,-64,19,-93v13,-29,30,-54,51,-76v21,-22,47,-39,76,-52v29,-13,59,-19,92,-19xm205,-1497v0,19,4,37,11,53v7,16,16,30,28,42v12,12,28,23,44,30v16,7,33,10,52,10v19,0,36,-3,52,-10v16,-7,31,-18,44,-30v13,-12,23,-26,30,-42v7,-16,11,-34,11,-53v0,-19,-4,-37,-11,-53v-7,-16,-17,-30,-30,-43v-13,-13,-28,-23,-44,-30v-16,-7,-33,-11,-52,-11v-19,0,-36,4,-52,11v-16,7,-32,17,-44,30v-12,13,-21,27,-28,43v-7,16,-11,34,-11,53","w":682},"`":{"d":"387,-1178r-287,-282r0,-17r248,0r184,299r-145,0","w":590},"\u00b4":{"d":"297,-1477r240,0r0,17r-299,282r-154,0","w":645},"\u00a8":{"d":"39,-1360v0,-17,4,-34,11,-50v7,-16,16,-28,28,-40v12,-12,24,-21,40,-28v16,-7,33,-11,50,-11v17,0,33,4,48,11v15,7,29,16,40,28v11,12,20,24,27,40v7,16,10,33,10,50v0,18,-3,35,-10,51v-7,16,-16,31,-27,43v-11,12,-25,21,-40,28v-15,7,-31,11,-48,11v-17,0,-34,-4,-50,-11v-16,-7,-28,-16,-40,-28v-12,-12,-21,-27,-28,-43v-7,-16,-11,-33,-11,-51xm498,-1360v0,-17,3,-34,10,-50v7,-16,16,-28,28,-40v12,-12,26,-21,42,-28v16,-7,32,-11,49,-11v17,0,32,4,47,11v15,7,28,16,40,28v12,12,21,24,28,40v7,16,10,33,10,50v0,18,-3,35,-10,51v-7,16,-16,31,-28,43v-12,12,-25,21,-40,28v-15,7,-30,11,-47,11v-17,0,-33,-4,-49,-11v-16,-7,-30,-16,-42,-28v-12,-12,-21,-27,-28,-43v-7,-16,-10,-33,-10,-51","w":612},"\u0131":{"d":"59,-1036r338,0r0,864r156,0r0,172r-492,0r0,-172r148,0r0,-692r-150,0r0,-172","w":612},"\u00c6":{"d":"-2,-172r106,0r816,-1344r938,0r0,429r-205,0r0,-256r-465,0r0,481r379,0r0,172r-379,0r0,518r465,0r0,-256r205,0r0,428r-992,0r0,-172r125,0r0,-254r-517,0r-148,254r163,0r0,172r-491,0r0,-172xm991,-598r0,-714r-416,714r416,0","w":1915},"\u00e6":{"d":"481,-606v88,0,159,7,212,21r0,-3r1,-92v1,-37,-4,-69,-15,-96v-11,-27,-25,-48,-45,-66v-20,-18,-44,-31,-72,-40v-28,-9,-58,-13,-91,-13v-31,0,-61,3,-90,7v-29,4,-56,9,-81,16v-25,7,-47,15,-68,24v-21,9,-39,19,-54,29r-61,-129v25,-16,52,-30,81,-44v29,-14,60,-26,92,-36v32,-10,66,-16,100,-22v34,-6,66,-9,99,-9v77,0,143,11,199,35v56,24,101,61,133,111v41,-47,92,-83,151,-110v59,-27,127,-40,206,-40v78,0,144,11,196,35v52,24,95,55,128,94v33,39,57,84,74,134v17,50,29,101,36,153v3,25,5,51,6,77v1,26,2,51,2,76r-746,0v0,36,3,70,9,102v6,32,16,65,31,98v15,33,50,66,104,100v54,34,115,51,184,51v54,0,107,-8,158,-23v51,-15,104,-38,160,-70r75,127v-68,47,-136,81,-205,104v-69,23,-140,34,-214,34v-79,0,-150,-15,-214,-43v-64,-28,-118,-71,-162,-128v-21,26,-46,50,-74,71v-28,21,-60,39,-93,54v-33,15,-68,26,-105,34v-37,8,-73,12,-110,12v-56,0,-107,-8,-152,-24v-45,-16,-83,-37,-115,-65v-32,-28,-57,-60,-74,-97v-17,-37,-26,-76,-26,-117v0,-43,6,-82,19,-115v13,-33,30,-62,52,-87v22,-25,47,-45,76,-62v29,-17,60,-30,92,-40v32,-10,63,-18,96,-22v33,-4,65,-6,95,-6xm438,-127v65,0,122,-13,172,-37v50,-24,91,-56,125,-96v-25,-63,-40,-135,-44,-217r-216,0v-36,0,-69,4,-99,12v-30,8,-54,20,-76,35v-22,15,-39,34,-51,57v-12,23,-18,49,-18,78v0,28,5,52,15,73v10,21,24,39,42,53v18,14,41,24,66,31v25,7,53,11,84,11xm1165,-907v-43,0,-81,7,-113,19v-32,12,-60,29,-83,52v-23,23,-41,52,-55,85v-14,33,-23,71,-30,112r537,0v-3,-39,-9,-74,-19,-107v-10,-33,-24,-61,-44,-85v-20,-24,-46,-43,-77,-56v-31,-13,-70,-20,-116,-20","w":1784},"\u00fe":{"d":"57,-1577r328,0r0,627v44,-34,92,-61,144,-81v52,-20,106,-30,161,-30v68,0,130,13,187,38v57,25,106,61,147,107v41,46,72,102,95,166v23,64,34,135,34,213v0,83,-13,159,-38,227v-25,68,-60,125,-105,174v-45,49,-99,86,-161,112v-62,26,-130,40,-204,40v-51,0,-100,-7,-145,-22v-45,-15,-83,-34,-115,-59r0,364r162,0r0,172r-492,0r0,-172r144,0r0,-1704r-142,0r0,-172xm641,-897v-49,0,-95,10,-140,30v-45,20,-83,47,-116,81r0,557v21,22,53,42,94,59v41,17,93,25,156,25v43,0,84,-8,123,-24v39,-16,74,-41,104,-73v30,-32,54,-72,72,-120v18,-48,27,-104,27,-168v0,-59,-8,-111,-25,-156v-17,-45,-41,-84,-70,-115v-29,-31,-62,-55,-101,-71v-39,-16,-80,-25,-124,-25","w":1243},"\u00de":{"d":"106,-1516r492,0r0,173r-158,0r0,134r328,1v67,0,129,9,186,26v57,17,106,43,148,78v42,35,75,77,98,128v23,51,35,110,35,177v0,55,-11,108,-34,157v-23,49,-54,91,-95,128v-41,37,-91,66,-149,87v-58,21,-122,32,-193,32r-324,0r0,223r156,0r0,172r-492,0r0,-172r140,0r0,-1171r-138,0r0,-173xm440,-1036r0,477r328,0v38,0,72,-5,104,-15v32,-10,59,-26,82,-46v23,-20,41,-45,54,-75v13,-30,20,-65,20,-104v0,-61,-13,-108,-38,-141v-25,-33,-55,-56,-92,-72v-37,-16,-89,-24,-155,-24r-303,0","w":1323},"\u00b9":{"d":"92,-952r82,0r0,-445r-141,76r0,-139r217,-119r59,0r0,627r80,0r0,112r-297,0r0,-112","w":500},"\u00b2":{"d":"55,-944r275,-277v21,-21,39,-43,56,-67v17,-24,26,-49,26,-74v0,-13,-3,-24,-8,-36v-5,-12,-13,-22,-23,-31v-10,-9,-23,-16,-37,-21v-14,-5,-30,-8,-47,-8v-35,0,-64,10,-85,30v-21,20,-33,46,-34,78r-125,0v0,-35,6,-66,19,-94v13,-28,31,-53,54,-73v23,-20,48,-35,78,-46v30,-11,62,-16,95,-16v35,0,67,5,97,15v30,10,56,25,78,44v22,19,39,41,52,68v13,27,19,57,19,90v0,25,-6,52,-19,80v-13,28,-33,56,-61,84r-235,235r313,0r0,121r-488,0r0,-102","w":700},"\u00b3":{"d":"428,-1364v0,-11,-3,-22,-8,-34v-5,-12,-14,-22,-24,-31v-10,-9,-23,-17,-38,-23v-15,-6,-32,-10,-51,-10v-11,0,-23,2,-36,6v-13,4,-26,9,-37,17v-11,8,-21,19,-29,31v-8,12,-12,27,-12,44r-132,0v2,-29,9,-58,22,-84v13,-26,30,-48,51,-68v21,-20,47,-36,76,-48v29,-12,61,-17,95,-17v37,0,72,5,103,17v31,12,58,28,80,47v22,19,40,42,52,67v12,25,19,52,19,80v0,32,-8,62,-23,88v-15,26,-38,47,-69,64v28,13,52,32,72,60v20,28,30,62,30,101v0,32,-7,61,-20,89v-13,28,-31,52,-55,72v-24,20,-52,37,-84,48v-32,11,-66,17,-103,17v-32,0,-63,-5,-94,-15v-31,-10,-58,-23,-82,-42v-24,-19,-43,-43,-58,-70v-15,-27,-22,-58,-22,-93r133,0v5,32,20,56,42,73v22,17,51,26,87,26v17,0,33,-3,48,-8v15,-5,29,-12,40,-21v11,-9,20,-21,27,-33v7,-12,10,-26,10,-41v0,-34,-12,-61,-36,-79v-24,-18,-55,-27,-93,-27r-57,0r0,-107r55,0v38,0,68,-9,89,-27v21,-18,32,-41,32,-69","w":631},"\u00ba":{"d":"102,-1217v0,-52,9,-101,27,-145v18,-44,43,-82,75,-114v32,-32,70,-58,115,-76v45,-18,94,-28,148,-28v54,0,103,8,148,26v45,18,83,43,115,75v32,32,56,70,74,114v18,44,27,92,27,145v0,53,-9,102,-26,146v-17,44,-42,83,-74,115v-32,32,-70,57,-115,75v-45,18,-94,27,-149,27v-55,0,-104,-9,-149,-27v-45,-18,-84,-42,-116,-74v-32,-32,-57,-70,-74,-114v-17,-44,-26,-92,-26,-145xm254,-1217v0,35,6,66,17,94v11,28,27,51,46,71v19,20,41,35,67,46v26,11,54,16,83,16v30,0,58,-5,84,-16v26,-11,48,-26,67,-46v19,-20,35,-43,46,-71v11,-28,16,-59,16,-94v0,-37,-5,-69,-16,-98v-11,-29,-27,-52,-46,-71v-19,-19,-41,-34,-67,-44v-26,-10,-54,-15,-84,-15v-29,0,-57,5,-83,15v-26,10,-48,25,-67,44v-19,19,-35,42,-46,71v-11,29,-17,61,-17,98","w":934},"\u00aa":{"d":"551,-942v-28,23,-58,40,-90,54v-32,14,-69,21,-111,21v-37,0,-70,-5,-100,-16v-30,-11,-57,-25,-79,-44v-22,-19,-39,-40,-51,-65v-12,-25,-18,-52,-18,-80v0,-39,9,-72,27,-100v18,-28,41,-50,70,-67v29,-17,61,-30,97,-38v36,-8,70,-12,105,-12v31,0,59,1,83,4v24,3,47,6,67,10r0,-49v0,-45,-15,-78,-43,-98v-28,-20,-65,-31,-111,-31v-43,0,-82,4,-117,13v-35,9,-64,21,-87,34r-50,-96v38,-23,81,-42,129,-56v48,-14,95,-22,144,-22v43,0,81,4,116,14v35,10,64,25,88,45v24,20,43,45,56,77v13,32,20,70,20,114r0,313r82,0r0,131r-227,0r0,-56xm375,-984v36,0,69,-7,101,-20v32,-13,57,-29,75,-47r0,-136r-156,0v-21,0,-41,2,-60,7v-19,5,-35,11,-48,20v-13,9,-23,19,-31,32v-8,13,-12,27,-12,44v0,33,12,57,36,74v24,17,55,26,95,26","w":838},"\u00a4":{"d":"125,-743v0,-53,8,-103,25,-150v17,-47,41,-90,71,-128r-147,-177r145,-123r149,179v31,-16,64,-28,98,-37v34,-9,70,-13,107,-13v37,0,72,4,106,13v34,9,66,21,97,36r137,-164r160,115r-145,174v30,38,54,80,70,127v16,47,24,96,24,148v0,51,-8,100,-24,146v-16,46,-39,88,-68,126r147,176r-151,119r-143,-171v-32,17,-66,30,-101,39v-35,9,-71,13,-109,13v-38,0,-75,-4,-109,-13v-34,-9,-67,-21,-98,-37r-145,175r-166,-111r164,-190v-31,-39,-54,-81,-70,-127v-16,-46,-24,-94,-24,-145xm295,-748v0,39,7,76,22,110v15,34,35,64,60,89v25,25,55,45,89,60v34,15,70,22,109,22v39,0,75,-7,109,-22v34,-15,65,-35,90,-60v25,-25,45,-55,60,-89v15,-34,22,-71,22,-110v0,-39,-7,-75,-22,-109v-15,-34,-35,-64,-60,-89v-25,-25,-56,-45,-90,-60v-34,-15,-70,-22,-109,-22v-39,0,-75,7,-109,22v-34,15,-64,35,-89,60v-25,25,-45,55,-60,89v-15,34,-22,70,-22,109","w":1128},"\u00ac":{"d":"1143,-999r0,567r-182,0r0,-383r-912,0r0,-184r1094,0","w":1214},"\u00b5":{"d":"1018,-172r115,0r0,172r-302,0r0,-96v-47,36,-98,64,-153,84v-55,20,-113,30,-176,30v-57,0,-106,-8,-148,-25r0,478r-196,0r0,-1507r196,0r0,645v0,79,18,139,55,180v37,41,89,61,158,61v41,0,84,-7,129,-22v45,-15,87,-35,127,-61r0,-803r195,0r0,864","w":1198},"\u03bc":{"d":"1018,-172r115,0r0,172r-302,0r0,-96v-47,36,-98,64,-153,84v-55,20,-113,30,-176,30v-57,0,-106,-8,-148,-25r0,478r-196,0r0,-1507r196,0r0,645v0,79,18,139,55,180v37,41,89,61,158,61v41,0,84,-7,129,-22v45,-15,87,-35,127,-61r0,-803r195,0r0,864","w":1198},"\u00b7":{"d":"174,-666v0,-17,3,-34,10,-50v7,-16,16,-28,28,-40v12,-12,26,-21,42,-28v16,-7,33,-11,51,-11v17,0,33,4,49,11v16,7,30,16,42,28v12,12,21,24,28,40v7,16,10,33,10,50v0,18,-3,36,-10,52v-7,16,-16,30,-28,42v-12,12,-26,22,-42,29v-16,7,-32,11,-49,11v-18,0,-35,-4,-51,-11v-16,-7,-30,-17,-42,-29v-12,-12,-21,-26,-28,-42v-7,-16,-10,-34,-10,-52","w":612},"\u2219":{"d":"174,-666v0,-17,3,-34,10,-50v7,-16,16,-28,28,-40v12,-12,26,-21,42,-28v16,-7,33,-11,51,-11v17,0,33,4,49,11v16,7,30,16,42,28v12,12,21,24,28,40v7,16,10,33,10,50v0,18,-3,36,-10,52v-7,16,-16,30,-28,42v-12,12,-26,22,-42,29v-16,7,-32,11,-49,11v-18,0,-35,-4,-51,-11v-16,-7,-30,-17,-42,-29v-12,-12,-21,-26,-28,-42v-7,-16,-10,-34,-10,-52","w":612},"\u00a1":{"d":"211,-1010v0,-17,4,-34,11,-50v7,-16,16,-28,28,-40v12,-12,25,-21,41,-28v16,-7,33,-11,51,-11v17,0,34,4,50,11v16,7,28,16,40,28v12,12,21,24,28,40v7,16,11,33,11,50v0,18,-4,35,-11,51v-7,16,-16,31,-28,43v-12,12,-24,21,-40,28v-16,7,-33,11,-50,11v-18,0,-35,-4,-51,-11v-16,-7,-29,-16,-41,-28v-12,-12,-21,-27,-28,-43v-7,-16,-11,-33,-11,-51xm252,-696r178,0r41,1167r-260,0","w":682},"\u00bf":{"d":"406,-1022v0,-17,3,-34,10,-50v7,-16,16,-28,28,-40v12,-12,26,-21,42,-28v16,-7,33,-11,51,-11v17,0,33,4,49,11v16,7,30,16,42,28v12,12,21,24,28,40v7,16,10,33,10,50v0,18,-3,35,-10,51v-7,16,-16,31,-28,43v-12,12,-26,21,-42,28v-16,7,-32,11,-49,11v-18,0,-35,-4,-51,-11v-16,-7,-30,-16,-42,-28v-12,-12,-21,-27,-28,-43v-7,-16,-10,-33,-10,-51xm623,-780v0,69,-2,130,-7,182v-5,52,-15,98,-29,138v-14,40,-34,77,-59,110v-25,33,-57,67,-96,100v-35,30,-67,56,-96,78v-29,22,-54,43,-74,64v-20,21,-37,44,-48,68v-11,24,-17,54,-17,89v0,30,6,59,18,87v12,28,29,52,49,74v20,22,44,40,72,53v28,13,57,20,88,20v54,0,99,-9,135,-28v36,-19,65,-41,87,-67v22,-26,38,-55,47,-84v9,-29,14,-54,14,-75r176,12v-4,56,-17,109,-41,159v-24,50,-56,94,-96,132v-40,38,-87,68,-142,90v-55,22,-115,33,-180,33v-67,0,-126,-11,-178,-33v-52,-22,-95,-51,-130,-88v-35,-37,-62,-80,-80,-128v-18,-48,-28,-98,-28,-151v0,-68,17,-131,52,-189v35,-58,87,-110,155,-157v31,-22,59,-42,82,-61v23,-19,44,-38,61,-57v17,-19,30,-40,41,-62v11,-22,19,-48,25,-77v6,-29,11,-62,14,-100v3,-38,4,-81,4,-132r181,0","w":1030},"^":{"d":"672,-1513r403,790r-143,0r-315,-626r-320,626r-141,0r403,-790r113,0","w":1229},"\u00a6":{"d":"152,-1729r155,0r0,750r-155,0r0,-750xm152,-481r155,0r0,749r-155,0r0,-749","w":512},"\u00bc":{"d":"1276,-1577r199,0r-1276,1638r-199,0xm1080,-303r280,-457r148,0r-273,455r183,0r0,-164r135,0r0,164r112,0r0,110r-112,0r0,195r-135,0r0,-195r-336,0xm64,-907r84,0r0,-404r-129,72r0,-162r217,-121r70,0r0,615r81,0r0,129r-323,0r0,-129","w":1700},"\u00bd":{"d":"1276,-1577r199,0r-1276,1638r-199,0xm1039,-121r274,-276v23,-21,41,-42,55,-64v14,-22,21,-44,21,-65v0,-23,-9,-43,-27,-60v-18,-17,-42,-26,-73,-26v-33,0,-60,9,-79,28v-19,19,-28,43,-28,72r-145,0v0,-37,7,-70,20,-100v13,-30,32,-55,55,-76v23,-21,50,-37,81,-48v31,-11,65,-16,100,-16v34,0,66,4,97,14v31,10,57,25,80,44v23,19,42,42,55,70v13,28,20,59,20,94v0,28,-6,54,-19,79v-13,25,-32,49,-55,74r-229,236r301,0r0,141r-504,0r0,-121xm76,-907r84,0r0,-404r-129,72r0,-162r217,-121r70,0r0,615r82,0r0,129r-324,0r0,-129","w":1700},"\u00be":{"d":"1337,-1577r199,0r-1276,1638r-199,0xm373,-1309v0,-10,-2,-21,-7,-31v-5,-10,-11,-19,-20,-28v-9,-9,-20,-16,-34,-22v-14,-6,-30,-9,-48,-9v-10,0,-21,2,-33,5v-12,3,-23,8,-33,16v-10,8,-19,18,-26,30v-7,12,-10,25,-10,41r-150,0v1,-31,7,-61,20,-89v13,-28,30,-52,52,-72v22,-20,48,-36,79,-48v31,-12,64,-18,101,-18v37,0,72,6,104,18v32,12,59,27,82,47v23,20,41,43,54,69v13,26,20,54,20,83v0,33,-8,63,-22,89v-14,26,-35,47,-62,63v13,6,25,15,36,25v11,10,21,22,30,36v9,14,15,29,20,46v5,17,8,34,8,52v0,32,-6,62,-20,91v-14,29,-33,53,-57,75v-24,22,-52,40,-85,52v-33,12,-68,18,-106,18v-36,0,-70,-5,-102,-16v-32,-11,-60,-26,-84,-46v-24,-20,-44,-44,-58,-72v-14,-28,-22,-61,-22,-97r151,0v5,30,17,54,37,71v20,17,48,25,82,25v16,0,30,-3,44,-8v14,-5,26,-13,36,-23v10,-10,18,-20,24,-32v6,-12,9,-26,9,-40v0,-29,-10,-52,-31,-70v-21,-18,-50,-28,-86,-28r-65,0r0,-113r67,0v33,0,60,-8,78,-25v18,-17,27,-39,27,-65xm975,-303r280,-457r148,0r-273,455r183,0r0,-164r135,0r0,164r112,0r0,110r-112,0r0,195r-135,0r0,-195r-336,0","w":1700},"\u00d8":{"d":"263,-218v-60,-71,-107,-152,-139,-244v-32,-92,-48,-191,-48,-296v0,-73,8,-143,24,-210v16,-67,40,-130,70,-189v30,-59,67,-111,110,-159v43,-48,91,-89,145,-123v54,-34,113,-60,176,-79v63,-19,131,-28,202,-28v77,0,148,11,215,32v67,21,128,51,185,89r140,-179r199,0r-220,282v66,72,118,156,154,252v36,96,54,200,54,312v0,73,-8,143,-24,210v-16,67,-40,130,-70,188v-30,58,-67,112,-110,160v-43,48,-91,90,-145,124v-54,34,-113,60,-177,79v-64,19,-130,28,-201,28v-83,0,-160,-13,-231,-37v-71,-24,-136,-58,-195,-103r-111,143r-199,0xm803,-158v79,0,151,-16,215,-48v64,-32,119,-77,164,-132v45,-55,80,-118,104,-190v24,-72,37,-149,37,-230v0,-75,-11,-147,-33,-216v-22,-69,-53,-131,-94,-185r-698,895v41,34,87,60,138,78v51,18,107,28,167,28xm309,-556v19,64,46,122,82,175r692,-890v-39,-28,-82,-49,-129,-65v-47,-16,-97,-24,-151,-24v-79,0,-151,16,-215,49v-64,33,-120,76,-165,131v-45,55,-80,119,-105,192v-25,73,-37,150,-37,230v0,71,9,138,28,202","w":1593},"\u00f8":{"d":"213,-145v-39,-48,-69,-103,-90,-166v-21,-63,-31,-132,-31,-207v0,-81,13,-156,38,-223v25,-67,60,-125,106,-173v46,-48,100,-86,163,-113v63,-27,133,-40,209,-40v52,0,101,6,146,18v45,12,87,29,126,52r133,-170r198,0r-211,270v40,48,71,104,93,167v22,63,33,133,33,210v0,83,-12,158,-36,226v-24,68,-59,126,-104,174v-45,48,-100,86,-164,112v-64,26,-135,39,-214,39v-53,0,-103,-6,-149,-19v-46,-13,-89,-31,-128,-54r-80,103r-199,0xm920,-644v-9,-38,-21,-72,-38,-102r-441,564v25,17,51,29,79,38v28,9,57,13,88,13v46,0,88,-9,128,-27v40,-18,75,-44,104,-77v29,-33,52,-73,69,-121v17,-48,25,-102,25,-162v0,-46,-5,-88,-14,-126xm298,-400v9,36,21,69,37,99r439,-561v-24,-15,-50,-27,-78,-34v-28,-7,-57,-11,-88,-11v-44,0,-85,8,-124,25v-39,17,-74,42,-104,75v-30,33,-53,73,-70,122v-17,49,-25,104,-25,167v0,42,4,82,13,118","w":1219},"\u00d0":{"d":"127,-676r0,-172r168,0r0,-495r-156,0r0,-173r576,0v69,0,135,9,198,27v63,18,121,43,175,76v54,33,103,71,147,117v44,46,82,97,113,153v31,56,54,117,71,181v17,64,25,131,25,200v0,71,-8,138,-25,203v-17,65,-40,125,-71,182v-31,57,-69,109,-113,155v-44,46,-93,85,-147,118v-54,33,-112,59,-175,77v-63,18,-129,27,-198,27r-576,0r0,-172r156,0r0,-504r-168,0xm492,-1343r0,495r186,0r0,172r-186,0r0,504r235,0v70,0,135,-15,197,-46v62,-31,116,-73,162,-126v46,-53,82,-114,109,-186v27,-72,40,-149,40,-232v0,-81,-13,-157,-40,-228v-27,-71,-63,-132,-109,-184v-46,-52,-100,-94,-162,-124v-62,-30,-127,-45,-197,-45r-235,0","w":1516},"\u00f0":{"d":"666,-1526r89,162r170,-55r53,164r-138,45r194,352v34,62,62,122,84,179v22,57,33,116,33,175v0,76,-14,146,-43,208v-29,62,-68,116,-117,160v-49,44,-104,78,-167,103v-63,25,-129,37,-197,37v-72,0,-141,-12,-205,-36v-64,-24,-120,-58,-169,-104v-49,-46,-87,-101,-116,-167v-29,-66,-43,-141,-43,-226v0,-69,13,-132,40,-190v27,-58,62,-108,106,-149v44,-41,96,-74,153,-97v57,-23,117,-35,178,-35v26,0,55,1,88,4v33,3,70,13,111,30r-112,-186r-149,48r-52,-164r109,-35r-134,-223r234,0xm649,-836v-49,0,-97,8,-141,22v-44,14,-82,35,-116,63v-34,28,-61,63,-81,105v-20,42,-30,89,-30,144v0,49,9,94,27,135v18,41,44,76,75,105v31,29,68,52,109,68v41,16,85,24,131,24v49,0,93,-7,135,-22v42,-15,78,-38,109,-66v31,-28,55,-63,72,-104v17,-41,26,-88,26,-140v0,-51,-9,-98,-27,-139v-18,-41,-40,-76,-70,-105v-30,-29,-64,-52,-102,-67v-38,-15,-77,-23,-117,-23","w":1270},"\u00e4":{"d":"709,-96v-39,37,-83,67,-131,90v-48,23,-101,35,-162,35v-51,0,-98,-8,-140,-24v-42,-16,-78,-37,-109,-65v-31,-28,-54,-60,-71,-97v-17,-37,-26,-76,-26,-117v0,-44,7,-83,20,-117v13,-34,30,-64,52,-89v22,-25,47,-45,76,-62v29,-17,58,-32,90,-42v32,-10,65,-18,98,-22v33,-4,64,-6,94,-6v48,0,88,1,121,4v33,3,62,8,89,13r1,-85v0,-37,-5,-69,-16,-96v-11,-27,-26,-48,-45,-66v-19,-18,-43,-31,-70,-40v-27,-9,-57,-13,-90,-13v-31,0,-61,3,-90,7v-29,4,-55,9,-80,16v-25,7,-49,15,-70,24v-21,9,-38,19,-53,29r-61,-129v25,-16,52,-30,81,-44v29,-14,61,-26,93,-36v32,-10,64,-16,98,-22v34,-6,67,-9,100,-9v60,0,114,7,162,21v48,14,89,37,122,67v33,30,59,69,77,115v18,46,27,101,27,166r-1,518r115,0r0,172r-301,0r0,-96xm457,-127v25,0,49,-3,74,-9v25,-6,48,-14,70,-24v22,-10,42,-22,61,-36v19,-14,34,-28,47,-43r1,-234r-216,0v-36,0,-68,4,-98,12v-30,8,-56,20,-78,35v-22,15,-38,34,-50,57v-12,23,-18,49,-18,78v0,27,5,51,15,71v10,20,25,38,43,52v18,14,40,23,65,30v25,7,53,11,84,11xm121,-1360v0,-17,4,-34,11,-50v7,-16,16,-28,28,-40v12,-12,24,-21,40,-28v16,-7,33,-11,50,-11v17,0,33,4,48,11v15,7,29,16,40,28v11,12,20,24,27,40v7,16,10,33,10,50v0,18,-3,35,-10,51v-7,16,-16,31,-27,43v-11,12,-25,21,-40,28v-15,7,-31,11,-48,11v-17,0,-34,-4,-50,-11v-16,-7,-28,-16,-40,-28v-12,-12,-21,-27,-28,-43v-7,-16,-11,-33,-11,-51xm580,-1360v0,-17,3,-34,10,-50v7,-16,16,-28,28,-40v12,-12,26,-21,42,-28v16,-7,32,-11,49,-11v17,0,32,4,47,11v15,7,28,16,40,28v12,12,21,24,28,40v7,16,10,33,10,50v0,18,-3,35,-10,51v-7,16,-16,31,-28,43v-12,12,-25,21,-40,28v-15,7,-30,11,-47,11v-17,0,-33,-4,-49,-11v-16,-7,-30,-16,-42,-28v-12,-12,-21,-27,-28,-43v-7,-16,-10,-33,-10,-51","w":1120},"\u010d":{"d":"841,-1488r-252,353r-49,0r-252,-353r144,0r133,196r135,-196r141,0xm848,-760v-28,-50,-63,-87,-106,-110v-43,-23,-93,-35,-150,-35v-43,0,-84,9,-122,27v-38,18,-72,44,-100,77v-28,33,-50,73,-66,121v-16,48,-25,101,-25,160v0,58,9,110,25,157v16,47,38,86,67,119v29,33,61,58,99,76v38,18,79,27,122,27v64,0,120,-16,167,-47v47,-31,85,-76,113,-136r154,76v-20,43,-45,81,-74,115v-29,34,-63,63,-100,87v-37,24,-78,43,-122,56v-44,13,-91,19,-140,19v-72,0,-139,-14,-200,-41v-61,-27,-114,-64,-158,-113v-44,-49,-78,-107,-103,-174v-25,-67,-37,-141,-37,-221v0,-80,13,-154,39,-221v26,-67,62,-125,107,-173v45,-48,98,-87,159,-114v61,-27,126,-41,195,-41v65,0,128,11,186,34v58,23,109,57,153,103r105,0r0,172r-188,0","w":1118},"\u00f5":{"d":"470,-1415v33,0,62,6,86,17v24,11,47,23,68,36v21,13,42,24,63,35v21,11,44,16,70,16v19,0,37,-6,55,-19v18,-13,29,-33,35,-61r119,35v-13,57,-39,101,-78,132v-39,31,-85,46,-139,46v-37,0,-69,-6,-95,-16v-26,-10,-50,-21,-71,-33r-60,-33v-19,-10,-39,-16,-61,-16v-10,0,-20,1,-30,2v-10,1,-21,5,-31,10v-10,5,-19,12,-27,22v-8,10,-15,25,-20,44r-109,-53v9,-31,21,-58,37,-79v16,-21,34,-37,54,-50v20,-13,41,-22,64,-27v23,-5,47,-8,70,-8xm86,-518v1,-82,14,-157,40,-224v26,-67,61,-126,107,-174v46,-48,101,-85,164,-111v63,-26,133,-39,209,-39v77,0,146,13,210,39v64,26,119,63,164,111v45,48,81,105,106,172v25,67,38,142,38,224v0,81,-13,154,-38,222v-25,68,-61,126,-106,175v-45,49,-100,86,-164,113v-64,27,-133,41,-210,41v-78,0,-149,-13,-212,-40v-63,-27,-118,-65,-163,-113v-45,-48,-81,-106,-106,-173v-25,-67,-38,-142,-39,-223xm283,-518v0,59,8,113,25,161v17,48,40,89,70,123v30,34,65,60,104,78v39,18,80,27,124,27v46,0,88,-9,128,-27v40,-18,75,-44,104,-78v29,-34,52,-74,69,-122v17,-48,25,-102,25,-162v0,-63,-8,-118,-25,-167v-17,-49,-40,-89,-69,-122v-29,-33,-63,-57,-103,-74v-40,-17,-83,-25,-129,-25v-44,0,-85,8,-124,25v-39,17,-74,41,-104,74v-30,33,-53,73,-70,122v-17,49,-25,104,-25,167","w":1225},"\u00f6":{"d":"86,-518v1,-82,14,-157,40,-224v26,-67,61,-126,107,-174v46,-48,101,-85,164,-111v63,-26,133,-39,209,-39v77,0,146,13,210,39v64,26,119,63,164,111v45,48,81,105,106,172v25,67,38,142,38,224v0,81,-13,154,-38,222v-25,68,-61,126,-106,175v-45,49,-100,86,-164,113v-64,27,-133,41,-210,41v-78,0,-149,-13,-212,-40v-63,-27,-118,-65,-163,-113v-45,-48,-81,-106,-106,-173v-25,-67,-38,-142,-39,-223xm283,-518v0,59,8,113,25,161v17,48,40,89,70,123v30,34,65,60,104,78v39,18,80,27,124,27v46,0,88,-9,128,-27v40,-18,75,-44,104,-78v29,-34,52,-74,69,-122v17,-48,25,-102,25,-162v0,-63,-8,-118,-25,-167v-17,-49,-40,-89,-69,-122v-29,-33,-63,-57,-103,-74v-40,-17,-83,-25,-129,-25v-44,0,-85,8,-124,25v-39,17,-74,41,-104,74v-30,33,-53,73,-70,122v-17,49,-25,104,-25,167xm249,-1360v0,-17,4,-34,11,-50v7,-16,16,-28,28,-40v12,-12,24,-21,40,-28v16,-7,33,-11,50,-11v17,0,33,4,48,11v15,7,29,16,40,28v11,12,20,24,27,40v7,16,10,33,10,50v0,18,-3,35,-10,51v-7,16,-16,31,-27,43v-11,12,-25,21,-40,28v-15,7,-31,11,-48,11v-17,0,-34,-4,-50,-11v-16,-7,-28,-16,-40,-28v-12,-12,-21,-27,-28,-43v-7,-16,-11,-33,-11,-51xm708,-1360v0,-17,3,-34,10,-50v7,-16,16,-28,28,-40v12,-12,26,-21,42,-28v16,-7,32,-11,49,-11v17,0,32,4,47,11v15,7,28,16,40,28v12,12,21,24,28,40v7,16,10,33,10,50v0,18,-3,35,-10,51v-7,16,-16,31,-28,43v-12,12,-25,21,-40,28v-15,7,-30,11,-47,11v-17,0,-33,-4,-49,-11v-16,-7,-30,-16,-42,-28v-12,-12,-21,-27,-28,-43v-7,-16,-10,-33,-10,-51","w":1225},"\u00fc":{"d":"724,-1036r334,0r0,864r115,0r0,172r-302,0r0,-96v-47,36,-98,64,-153,84v-55,20,-113,30,-176,30v-52,0,-100,-7,-142,-22v-42,-15,-78,-38,-108,-70v-30,-32,-52,-72,-68,-121v-16,-49,-24,-107,-24,-174r0,-495r-140,0r0,-172r334,0r0,645v0,79,18,139,55,180v37,41,89,61,158,61v41,0,84,-7,129,-22v45,-15,87,-35,127,-61r0,-631r-139,0r0,-172xm260,-1360v0,-17,4,-34,11,-50v7,-16,16,-28,28,-40v12,-12,24,-21,40,-28v16,-7,33,-11,50,-11v17,0,33,4,48,11v15,7,29,16,40,28v11,12,20,24,27,40v7,16,10,33,10,50v0,18,-3,35,-10,51v-7,16,-16,31,-27,43v-11,12,-25,21,-40,28v-15,7,-31,11,-48,11v-17,0,-34,-4,-50,-11v-16,-7,-28,-16,-40,-28v-12,-12,-21,-27,-28,-43v-7,-16,-11,-33,-11,-51xm719,-1360v0,-17,3,-34,10,-50v7,-16,16,-28,28,-40v12,-12,26,-21,42,-28v16,-7,32,-11,49,-11v17,0,32,4,47,11v15,7,28,16,40,28v12,12,21,24,28,40v7,16,10,33,10,50v0,18,-3,35,-10,51v-7,16,-16,31,-28,43v-12,12,-25,21,-40,28v-15,7,-30,11,-47,11v-17,0,-33,-4,-49,-11v-16,-7,-30,-16,-42,-28v-12,-12,-21,-27,-28,-43v-7,-16,-10,-33,-10,-51","w":1350},"\u0161":{"d":"770,-1488r-252,353r-49,0r-252,-353r144,0r133,196r135,-196r141,0xm678,-830v-13,-20,-29,-36,-50,-48v-21,-12,-44,-20,-69,-26v-25,-6,-50,-9,-74,-9v-27,0,-51,3,-73,9v-22,6,-42,15,-58,26v-16,11,-29,26,-38,42v-9,16,-13,34,-13,54v0,35,10,62,31,82v21,20,57,40,106,57r199,70v85,29,148,68,187,117v39,49,59,108,59,177v0,46,-9,89,-27,127v-18,38,-44,71,-78,98v-34,27,-75,47,-122,62v-47,15,-100,23,-158,23v-81,0,-146,-13,-197,-39v-51,-26,-90,-60,-117,-103r-104,0r0,-172r207,0v0,29,7,53,19,73v12,20,28,37,48,50v20,13,44,22,70,28v26,6,51,9,78,9v26,0,51,-3,75,-9v24,-6,45,-16,63,-28v18,-12,33,-28,44,-45v11,-17,16,-37,16,-59v0,-33,-10,-62,-32,-85v-22,-23,-59,-44,-111,-63r-198,-74v-81,-29,-140,-66,-179,-110v-39,-44,-59,-99,-59,-166v0,-44,9,-85,25,-122v16,-37,39,-69,70,-96v31,-27,69,-49,114,-64v45,-15,96,-23,153,-23v74,0,136,10,186,31v50,21,95,56,135,106r97,0r0,172r-205,0v0,-28,-7,-52,-20,-72","w":993},"\u017e":{"d":"741,-1488r-252,353r-49,0r-252,-353r144,0r133,196r135,-196r141,0xm76,-115r525,-766r-331,0r0,146r-184,0r0,-301r741,0r0,118r-524,762r354,0r0,-176r193,0r0,332r-774,0r0,-115","w":924},"\u00c4":{"d":"1040,-172r126,0r-120,-344r-583,0r-117,344r156,0r0,172r-492,0r0,-172r132,0r472,-1344r295,0r471,1344r152,0r0,172r-492,0r0,-172xm520,-682r468,0r-236,-678xm415,-1840v0,-17,4,-34,11,-50v7,-16,16,-28,28,-40v12,-12,24,-21,40,-28v16,-7,33,-11,50,-11v17,0,33,4,48,11v15,7,29,16,40,28v11,12,20,24,27,40v7,16,10,33,10,50v0,18,-3,35,-10,51v-7,16,-16,31,-27,43v-11,12,-25,21,-40,28v-15,7,-31,11,-48,11v-17,0,-34,-4,-50,-11v-16,-7,-28,-16,-40,-28v-12,-12,-21,-27,-28,-43v-7,-16,-11,-33,-11,-51xm874,-1840v0,-17,3,-34,10,-50v7,-16,16,-28,28,-40v12,-12,26,-21,42,-28v16,-7,32,-11,49,-11v17,0,32,4,47,11v15,7,28,16,40,28v12,12,21,24,28,40v7,16,10,33,10,50v0,18,-3,35,-10,51v-7,16,-16,31,-28,43v-12,12,-25,21,-40,28v-15,7,-30,11,-47,11v-17,0,-33,-4,-49,-11v-16,-7,-30,-16,-42,-28v-12,-12,-21,-27,-28,-43v-7,-16,-10,-33,-10,-51"},"\u010c":{"d":"1036,-1968r-252,353r-49,0r-252,-353r144,0r133,196r135,-196r141,0xm1219,-1116v-45,-76,-103,-136,-177,-179v-74,-43,-156,-65,-247,-65v-77,0,-148,16,-212,49v-64,33,-119,76,-165,131v-46,55,-81,120,-106,192v-25,72,-38,148,-38,228v0,95,14,179,42,252v28,73,65,134,110,182v45,48,98,88,160,120v62,32,132,49,209,49v105,0,197,-26,275,-77v78,-51,145,-134,200,-251r176,83v-25,72,-68,141,-129,208v-61,67,-136,121,-225,162v-89,41,-187,62,-295,62v-103,0,-198,-19,-285,-58v-87,-39,-164,-95,-232,-167v-68,-72,-118,-157,-154,-256v-36,-99,-54,-202,-54,-309v0,-108,18,-210,54,-306v36,-96,86,-179,150,-250v64,-71,141,-127,230,-168v89,-41,185,-62,289,-62v93,0,173,14,240,40v67,26,124,58,171,94v47,36,88,75,122,118r106,0r0,178r-215,0","w":1509},"\u00d6":{"d":"799,30v-105,0,-200,-19,-287,-58v-87,-39,-164,-95,-232,-167v-68,-72,-120,-157,-155,-256v-35,-99,-53,-201,-53,-307v0,-109,18,-212,54,-308v36,-96,86,-179,150,-250v64,-71,141,-127,230,-168v89,-41,186,-62,293,-62v107,0,206,21,295,62v89,41,166,97,230,168v64,71,114,154,149,250v35,96,53,199,53,308v0,109,-18,212,-54,308v-36,96,-86,179,-150,250v-64,71,-141,127,-230,168v-89,41,-186,62,-293,62xm799,-156v79,0,151,-16,215,-49v64,-33,120,-76,165,-131v45,-55,80,-119,105,-192v25,-73,37,-149,37,-230v0,-83,-14,-163,-41,-240v-27,-77,-64,-142,-112,-195v-48,-53,-105,-94,-169,-123v-64,-29,-131,-44,-200,-44v-79,0,-151,16,-216,49v-65,33,-120,76,-165,131v-45,55,-80,119,-105,192v-25,73,-37,150,-37,230v0,93,14,177,41,250v27,73,64,134,109,182v45,48,98,88,160,121v62,33,134,49,213,49xm443,-1840v0,-17,4,-34,11,-50v7,-16,16,-28,28,-40v12,-12,24,-21,40,-28v16,-7,33,-11,50,-11v17,0,33,4,48,11v15,7,29,16,40,28v11,12,20,24,27,40v7,16,10,33,10,50v0,18,-3,35,-10,51v-7,16,-16,31,-27,43v-11,12,-25,21,-40,28v-15,7,-31,11,-48,11v-17,0,-34,-4,-50,-11v-16,-7,-28,-16,-40,-28v-12,-12,-21,-27,-28,-43v-7,-16,-11,-33,-11,-51xm902,-1840v0,-17,3,-34,10,-50v7,-16,16,-28,28,-40v12,-12,26,-21,42,-28v16,-7,32,-11,49,-11v17,0,32,4,47,11v15,7,28,16,40,28v12,12,21,24,28,40v7,16,10,33,10,50v0,18,-3,35,-10,51v-7,16,-16,31,-28,43v-12,12,-25,21,-40,28v-15,7,-30,11,-47,11v-17,0,-33,-4,-49,-11v-16,-7,-30,-16,-42,-28v-12,-12,-21,-27,-28,-43v-7,-16,-10,-33,-10,-51","w":1597},"\u00d5":{"d":"664,-1895v33,0,62,6,86,17v24,11,47,23,68,36v21,13,42,24,63,35v21,11,44,16,70,16v19,0,37,-6,55,-19v18,-13,29,-33,35,-61r119,35v-13,57,-39,101,-78,132v-39,31,-85,46,-139,46v-37,0,-69,-6,-95,-16v-26,-10,-50,-21,-71,-33r-60,-33v-19,-10,-39,-16,-61,-16v-10,0,-20,1,-30,2v-10,1,-21,5,-31,10v-10,5,-19,12,-27,22v-8,10,-15,25,-20,44r-109,-53v9,-31,21,-58,37,-79v16,-21,34,-37,54,-50v20,-13,41,-22,64,-27v23,-5,47,-8,70,-8xm799,30v-105,0,-200,-19,-287,-58v-87,-39,-164,-95,-232,-167v-68,-72,-120,-157,-155,-256v-35,-99,-53,-201,-53,-307v0,-109,18,-212,54,-308v36,-96,86,-179,150,-250v64,-71,141,-127,230,-168v89,-41,186,-62,293,-62v107,0,206,21,295,62v89,41,166,97,230,168v64,71,114,154,149,250v35,96,53,199,53,308v0,109,-18,212,-54,308v-36,96,-86,179,-150,250v-64,71,-141,127,-230,168v-89,41,-186,62,-293,62xm799,-156v79,0,151,-16,215,-49v64,-33,120,-76,165,-131v45,-55,80,-119,105,-192v25,-73,37,-149,37,-230v0,-83,-14,-163,-41,-240v-27,-77,-64,-142,-112,-195v-48,-53,-105,-94,-169,-123v-64,-29,-131,-44,-200,-44v-79,0,-151,16,-216,49v-65,33,-120,76,-165,131v-45,55,-80,119,-105,192v-25,73,-37,150,-37,230v0,93,14,177,41,250v27,73,64,134,109,182v45,48,98,88,160,121v62,33,134,49,213,49","w":1597},"\u00dc":{"d":"113,-1516r491,0r0,173r-155,0r0,706v0,85,10,157,29,217v19,60,44,108,78,146v34,38,74,65,120,82v46,17,98,26,153,26v57,0,110,-8,158,-23v48,-15,89,-41,123,-77v34,-36,61,-86,80,-146v19,-60,29,-135,29,-225r0,-706r-164,0r0,-173r491,0r0,173r-135,0r0,684v0,109,-15,206,-45,291v-30,85,-72,156,-125,213v-53,57,-115,101,-186,131v-71,30,-148,44,-230,44v-80,0,-155,-15,-225,-44v-70,-29,-130,-72,-182,-129v-52,-57,-92,-125,-122,-207v-30,-82,-44,-176,-44,-281r0,-702r-139,0r0,-173xm473,-1840v0,-17,4,-34,11,-50v7,-16,16,-28,28,-40v12,-12,24,-21,40,-28v16,-7,33,-11,50,-11v17,0,33,4,48,11v15,7,29,16,40,28v11,12,20,24,27,40v7,16,10,33,10,50v0,18,-3,35,-10,51v-7,16,-16,31,-27,43v-11,12,-25,21,-40,28v-15,7,-31,11,-48,11v-17,0,-34,-4,-50,-11v-16,-7,-28,-16,-40,-28v-12,-12,-21,-27,-28,-43v-7,-16,-11,-33,-11,-51xm932,-1840v0,-17,3,-34,10,-50v7,-16,16,-28,28,-40v12,-12,26,-21,42,-28v16,-7,32,-11,49,-11v17,0,32,4,47,11v15,7,28,16,40,28v12,12,21,24,28,40v7,16,10,33,10,50v0,18,-3,35,-10,51v-7,16,-16,31,-28,43v-12,12,-25,21,-40,28v-15,7,-30,11,-47,11v-17,0,-33,-4,-49,-11v-16,-7,-30,-16,-42,-28v-12,-12,-21,-27,-28,-43v-7,-16,-10,-33,-10,-51","w":1550},"\u0160":{"d":"899,-1968r-252,353r-49,0r-252,-353r144,0r133,196r135,-196r141,0xm888,-1236v-21,-29,-44,-52,-70,-68v-26,-16,-54,-28,-85,-36v-31,-8,-61,-12,-92,-12v-51,0,-95,6,-133,18v-38,12,-69,27,-94,47v-25,20,-44,43,-57,70v-13,27,-19,55,-19,84v0,44,8,80,24,107v16,27,35,48,59,64v24,16,50,30,79,39r84,28r202,66v61,19,114,41,160,66v46,25,86,53,117,87v31,34,55,73,71,117v16,44,25,95,25,153v0,63,-13,121,-39,174v-26,53,-61,100,-107,139v-46,39,-101,71,-165,93v-64,22,-133,33,-209,33v-78,0,-145,-9,-200,-27v-55,-18,-101,-40,-139,-70v-38,-30,-68,-64,-91,-102v-23,-38,-40,-77,-53,-117r-76,0r0,-172r252,0v0,74,8,126,24,157v16,31,37,56,65,76v28,20,61,36,100,46v39,10,81,16,128,16v45,0,87,-5,123,-16v36,-11,66,-26,92,-46v26,-20,46,-45,60,-74v14,-29,20,-62,20,-99v0,-41,-9,-75,-26,-103v-17,-28,-38,-53,-65,-73v-27,-20,-55,-36,-87,-49v-32,-13,-63,-24,-92,-33r-219,-62v-48,-15,-91,-33,-131,-56v-40,-23,-74,-50,-102,-83v-28,-33,-51,-70,-66,-114v-15,-44,-23,-95,-23,-152v0,-58,11,-112,34,-163v23,-51,56,-95,100,-133v44,-38,97,-68,161,-90v64,-22,137,-32,219,-32v54,0,103,6,149,19v46,13,87,30,124,53v37,23,70,52,98,84v28,32,53,67,72,106r75,0r0,172r-245,0v0,-59,-11,-103,-32,-132","w":1210},"\u017d":{"d":"884,-1968r-252,353r-49,0r-252,-353r144,0r133,196r135,-196r141,0xm1163,-1292r-913,1120r711,0r0,-252r196,0r0,424r-1106,0r0,-227r900,-1116r-687,0r0,256r-196,0r0,-429r1095,0r0,224","w":1214},"\u00c0":{"d":"1040,-172r126,0r-120,-344r-583,0r-117,344r156,0r0,172r-492,0r0,-172r132,0r472,-1344r295,0r471,1344r152,0r0,172r-492,0r0,-172xm520,-682r468,0r-236,-678xm758,-1658r-287,-282r0,-17r248,0r184,299r-145,0"},"\u00c1":{"d":"1040,-172r126,0r-120,-344r-583,0r-117,344r156,0r0,172r-492,0r0,-172r132,0r472,-1344r295,0r471,1344r152,0r0,172r-492,0r0,-172xm520,-682r468,0r-236,-678xm758,-1957r240,0r0,17r-299,282r-154,0"},"\u00c2":{"d":"489,-1646r250,-313r63,0r252,313r-149,0r-133,-155r-135,155r-148,0xm1040,-172r126,0r-120,-344r-583,0r-117,344r156,0r0,172r-492,0r0,-172r132,0r472,-1344r295,0r471,1344r152,0r0,172r-492,0r0,-172xm520,-682r468,0r-236,-678"},"\u00c3":{"d":"636,-1895v33,0,62,6,86,17v24,11,47,23,68,36v21,13,42,24,63,35v21,11,44,16,70,16v19,0,37,-6,55,-19v18,-13,29,-33,35,-61r119,35v-13,57,-39,101,-78,132v-39,31,-85,46,-139,46v-37,0,-69,-6,-95,-16v-26,-10,-50,-21,-71,-33r-60,-33v-19,-10,-39,-16,-61,-16v-10,0,-20,1,-30,2v-10,1,-21,5,-31,10v-10,5,-19,12,-27,22v-8,10,-15,25,-20,44r-109,-53v9,-31,21,-58,37,-79v16,-21,34,-37,54,-50v20,-13,41,-22,64,-27v23,-5,47,-8,70,-8xm1040,-172r126,0r-120,-344r-583,0r-117,344r156,0r0,172r-492,0r0,-172r132,0r472,-1344r295,0r471,1344r152,0r0,172r-492,0r0,-172xm520,-682r468,0r-236,-678"},"\u00c5":{"d":"667,-1692v0,14,3,28,9,40v6,12,12,22,22,32v10,10,22,18,34,24v12,6,25,8,39,8v14,0,27,-2,40,-8v13,-6,23,-14,33,-24v10,-10,18,-20,24,-32v6,-12,8,-26,8,-40v0,-14,-2,-27,-8,-40v-6,-13,-14,-24,-24,-34v-10,-10,-20,-16,-33,-22v-13,-6,-26,-9,-40,-9v-14,0,-27,3,-39,9v-12,6,-24,12,-34,22v-10,10,-16,21,-22,34v-6,13,-9,26,-9,40xm771,-1948v35,0,68,6,99,20v31,14,59,33,82,56v23,23,40,50,54,81v14,31,21,64,21,99v0,35,-7,67,-21,98v-14,31,-31,59,-54,82v-23,23,-51,42,-82,56v-31,14,-64,20,-99,20v-35,0,-68,-6,-99,-20v-31,-14,-58,-33,-81,-56v-23,-23,-41,-51,-55,-82v-14,-31,-21,-63,-21,-98v0,-35,7,-68,21,-99v14,-31,32,-58,55,-81v23,-23,50,-42,81,-56v31,-14,64,-20,99,-20xm1040,-172r126,0r-120,-344r-583,0r-117,344r156,0r0,172r-492,0r0,-172r132,0r472,-1344r295,0r471,1344r152,0r0,172r-492,0r0,-172xm520,-682r468,0r-236,-678"},"\u00c7":{"d":"1219,-1116v-45,-76,-103,-136,-177,-179v-74,-43,-156,-65,-247,-65v-77,0,-148,16,-212,49v-64,33,-119,76,-165,131v-46,55,-81,120,-106,192v-25,72,-38,148,-38,228v0,95,14,179,42,252v28,73,65,134,110,182v45,48,98,88,160,120v62,32,132,49,209,49v105,0,197,-26,275,-77v78,-51,145,-134,200,-251r176,83v-25,72,-68,141,-129,208v-61,67,-136,121,-225,162v-89,41,-187,62,-295,62v-103,0,-198,-19,-285,-58v-87,-39,-164,-95,-232,-167v-68,-72,-118,-157,-154,-256v-36,-99,-54,-202,-54,-309v0,-108,18,-210,54,-306v36,-96,86,-179,150,-250v64,-71,141,-127,230,-168v89,-41,185,-62,289,-62v93,0,173,14,240,40v67,26,124,58,171,94v47,36,88,75,122,118r106,0r0,178r-215,0xm544,303v37,-1,70,-7,100,-19v30,-12,56,-29,78,-49v22,-20,40,-44,54,-71v14,-27,25,-55,30,-86r150,45v-12,49,-31,93,-56,131v-25,38,-55,70,-90,96v-35,26,-75,47,-118,61v-43,14,-89,21,-137,21","w":1509},"\u00c8":{"d":"143,-1516r1086,0r0,429r-205,0r0,-256r-541,0r0,485r455,0r0,172r-455,0r0,514r541,0r0,-256r205,0r0,428r-1086,0r0,-172r144,0r0,-1171r-144,0r0,-173xm627,-1658r-287,-282r0,-17r248,0r184,299r-145,0","w":1286},"\u00c9":{"d":"143,-1516r1086,0r0,429r-205,0r0,-256r-541,0r0,485r455,0r0,172r-455,0r0,514r541,0r0,-256r205,0r0,428r-1086,0r0,-172r144,0r0,-1171r-144,0r0,-173xm673,-1957r240,0r0,17r-299,282r-154,0","w":1286},"\u00ca":{"d":"417,-1656r250,-313r63,0r252,313r-149,0r-133,-155r-135,155r-148,0xm143,-1516r1086,0r0,429r-205,0r0,-256r-541,0r0,485r455,0r0,172r-455,0r0,514r541,0r0,-256r205,0r0,428r-1086,0r0,-172r144,0r0,-1171r-144,0r0,-173","w":1286},"\u00cb":{"d":"143,-1516r1086,0r0,429r-205,0r0,-256r-541,0r0,485r455,0r0,172r-455,0r0,514r541,0r0,-256r205,0r0,428r-1086,0r0,-172r144,0r0,-1171r-144,0r0,-173xm289,-1840v0,-17,4,-34,11,-50v7,-16,16,-28,28,-40v12,-12,24,-21,40,-28v16,-7,33,-11,50,-11v17,0,33,4,48,11v15,7,29,16,40,28v11,12,20,24,27,40v7,16,10,33,10,50v0,18,-3,35,-10,51v-7,16,-16,31,-27,43v-11,12,-25,21,-40,28v-15,7,-31,11,-48,11v-17,0,-34,-4,-50,-11v-16,-7,-28,-16,-40,-28v-12,-12,-21,-27,-28,-43v-7,-16,-11,-33,-11,-51xm748,-1840v0,-17,3,-34,10,-50v7,-16,16,-28,28,-40v12,-12,26,-21,42,-28v16,-7,32,-11,49,-11v17,0,32,4,47,11v15,7,28,16,40,28v12,12,21,24,28,40v7,16,10,33,10,50v0,18,-3,35,-10,51v-7,16,-16,31,-28,43v-12,12,-25,21,-40,28v-15,7,-30,11,-47,11v-17,0,-33,-4,-49,-11v-16,-7,-30,-16,-42,-28v-12,-12,-21,-27,-28,-43v-7,-16,-10,-33,-10,-51","w":1286},"\u00cc":{"d":"143,-1516r484,0r0,173r-144,0r0,1171r144,0r0,172r-484,0r0,-172r144,0r0,-1171r-144,0r0,-173xm373,-1658r-287,-282r0,-17r248,0r184,299r-145,0","w":770},"\u00cd":{"d":"143,-1516r484,0r0,173r-144,0r0,1171r144,0r0,172r-484,0r0,-172r144,0r0,-1171r-144,0r0,-173xm372,-1957r240,0r0,17r-299,282r-154,0","w":770},"\u00ce":{"d":"104,-1656r250,-313r63,0r252,313r-149,0r-133,-155r-135,155r-148,0xm143,-1516r484,0r0,173r-144,0r0,1171r144,0r0,172r-484,0r0,-172r144,0r0,-1171r-144,0r0,-173","w":770},"\u00cf":{"d":"143,-1516r484,0r0,173r-144,0r0,1171r144,0r0,172r-484,0r0,-172r144,0r0,-1171r-144,0r0,-173xm30,-1840v0,-17,4,-34,11,-50v7,-16,16,-28,28,-40v12,-12,24,-21,40,-28v16,-7,33,-11,50,-11v17,0,33,4,48,11v15,7,29,16,40,28v11,12,20,24,27,40v7,16,10,33,10,50v0,18,-3,35,-10,51v-7,16,-16,31,-27,43v-11,12,-25,21,-40,28v-15,7,-31,11,-48,11v-17,0,-34,-4,-50,-11v-16,-7,-28,-16,-40,-28v-12,-12,-21,-27,-28,-43v-7,-16,-11,-33,-11,-51xm489,-1840v0,-17,3,-34,10,-50v7,-16,16,-28,28,-40v12,-12,26,-21,42,-28v16,-7,32,-11,49,-11v17,0,32,4,47,11v15,7,28,16,40,28v12,12,21,24,28,40v7,16,10,33,10,50v0,18,-3,35,-10,51v-7,16,-16,31,-28,43v-12,12,-25,21,-40,28v-15,7,-30,11,-47,11v-17,0,-33,-4,-49,-11v-16,-7,-30,-16,-42,-28v-12,-12,-21,-27,-28,-43v-7,-16,-10,-33,-10,-51","w":770},"\u00d2":{"d":"799,30v-105,0,-200,-19,-287,-58v-87,-39,-164,-95,-232,-167v-68,-72,-120,-157,-155,-256v-35,-99,-53,-201,-53,-307v0,-109,18,-212,54,-308v36,-96,86,-179,150,-250v64,-71,141,-127,230,-168v89,-41,186,-62,293,-62v107,0,206,21,295,62v89,41,166,97,230,168v64,71,114,154,149,250v35,96,53,199,53,308v0,109,-18,212,-54,308v-36,96,-86,179,-150,250v-64,71,-141,127,-230,168v-89,41,-186,62,-293,62xm799,-156v79,0,151,-16,215,-49v64,-33,120,-76,165,-131v45,-55,80,-119,105,-192v25,-73,37,-149,37,-230v0,-83,-14,-163,-41,-240v-27,-77,-64,-142,-112,-195v-48,-53,-105,-94,-169,-123v-64,-29,-131,-44,-200,-44v-79,0,-151,16,-216,49v-65,33,-120,76,-165,131v-45,55,-80,119,-105,192v-25,73,-37,150,-37,230v0,93,14,177,41,250v27,73,64,134,109,182v45,48,98,88,160,121v62,33,134,49,213,49xm786,-1658r-287,-282r0,-17r248,0r184,299r-145,0","w":1597},"\u00d1":{"d":"723,-1895v33,0,63,6,87,17v24,11,47,23,68,36v21,13,41,24,62,35v21,11,44,16,70,16v19,0,36,-6,54,-19v18,-13,30,-33,36,-61r119,35v-13,57,-39,101,-78,132v-39,31,-85,46,-139,46v-37,0,-69,-6,-95,-16v-26,-10,-50,-21,-71,-33r-60,-33v-19,-10,-39,-16,-61,-16v-10,0,-21,1,-31,2v-10,1,-20,5,-30,10v-10,5,-20,12,-28,22v-8,10,-14,25,-19,44r-109,-53v9,-31,21,-58,37,-79v16,-21,34,-37,54,-50v20,-13,42,-22,65,-27v23,-5,46,-8,69,-8xm1081,-1516r492,0r0,173r-129,0r0,1343r-256,0r-705,-1257r0,1085r156,0r0,172r-492,0r0,-172r140,0r0,-1171r-144,0r0,-175r408,0r692,1245r8,-48r0,-1022r-170,0r0,-173","w":1624},"\u00d3":{"d":"799,30v-105,0,-200,-19,-287,-58v-87,-39,-164,-95,-232,-167v-68,-72,-120,-157,-155,-256v-35,-99,-53,-201,-53,-307v0,-109,18,-212,54,-308v36,-96,86,-179,150,-250v64,-71,141,-127,230,-168v89,-41,186,-62,293,-62v107,0,206,21,295,62v89,41,166,97,230,168v64,71,114,154,149,250v35,96,53,199,53,308v0,109,-18,212,-54,308v-36,96,-86,179,-150,250v-64,71,-141,127,-230,168v-89,41,-186,62,-293,62xm799,-156v79,0,151,-16,215,-49v64,-33,120,-76,165,-131v45,-55,80,-119,105,-192v25,-73,37,-149,37,-230v0,-83,-14,-163,-41,-240v-27,-77,-64,-142,-112,-195v-48,-53,-105,-94,-169,-123v-64,-29,-131,-44,-200,-44v-79,0,-151,16,-216,49v-65,33,-120,76,-165,131v-45,55,-80,119,-105,192v-25,73,-37,150,-37,230v0,93,14,177,41,250v27,73,64,134,109,182v45,48,98,88,160,121v62,33,134,49,213,49xm786,-1957r240,0r0,17r-299,282r-154,0","w":1597},"\u00d4":{"d":"517,-1656r250,-313r63,0r252,313r-149,0r-133,-155r-135,155r-148,0xm799,30v-105,0,-200,-19,-287,-58v-87,-39,-164,-95,-232,-167v-68,-72,-120,-157,-155,-256v-35,-99,-53,-201,-53,-307v0,-109,18,-212,54,-308v36,-96,86,-179,150,-250v64,-71,141,-127,230,-168v89,-41,186,-62,293,-62v107,0,206,21,295,62v89,41,166,97,230,168v64,71,114,154,149,250v35,96,53,199,53,308v0,109,-18,212,-54,308v-36,96,-86,179,-150,250v-64,71,-141,127,-230,168v-89,41,-186,62,-293,62xm799,-156v79,0,151,-16,215,-49v64,-33,120,-76,165,-131v45,-55,80,-119,105,-192v25,-73,37,-149,37,-230v0,-83,-14,-163,-41,-240v-27,-77,-64,-142,-112,-195v-48,-53,-105,-94,-169,-123v-64,-29,-131,-44,-200,-44v-79,0,-151,16,-216,49v-65,33,-120,76,-165,131v-45,55,-80,119,-105,192v-25,73,-37,150,-37,230v0,93,14,177,41,250v27,73,64,134,109,182v45,48,98,88,160,121v62,33,134,49,213,49","w":1597},"\u00d9":{"d":"113,-1516r491,0r0,173r-155,0r0,706v0,85,10,157,29,217v19,60,44,108,78,146v34,38,74,65,120,82v46,17,98,26,153,26v57,0,110,-8,158,-23v48,-15,89,-41,123,-77v34,-36,61,-86,80,-146v19,-60,29,-135,29,-225r0,-706r-164,0r0,-173r491,0r0,173r-135,0r0,684v0,109,-15,206,-45,291v-30,85,-72,156,-125,213v-53,57,-115,101,-186,131v-71,30,-148,44,-230,44v-80,0,-155,-15,-225,-44v-70,-29,-130,-72,-182,-129v-52,-57,-92,-125,-122,-207v-30,-82,-44,-176,-44,-281r0,-702r-139,0r0,-173xm816,-1658r-287,-282r0,-17r248,0r184,299r-145,0","w":1550},"\u00da":{"d":"113,-1516r491,0r0,173r-155,0r0,706v0,85,10,157,29,217v19,60,44,108,78,146v34,38,74,65,120,82v46,17,98,26,153,26v57,0,110,-8,158,-23v48,-15,89,-41,123,-77v34,-36,61,-86,80,-146v19,-60,29,-135,29,-225r0,-706r-164,0r0,-173r491,0r0,173r-135,0r0,684v0,109,-15,206,-45,291v-30,85,-72,156,-125,213v-53,57,-115,101,-186,131v-71,30,-148,44,-230,44v-80,0,-155,-15,-225,-44v-70,-29,-130,-72,-182,-129v-52,-57,-92,-125,-122,-207v-30,-82,-44,-176,-44,-281r0,-702r-139,0r0,-173xm816,-1957r240,0r0,17r-299,282r-154,0","w":1550},"\u00db":{"d":"547,-1656r250,-313r63,0r252,313r-149,0r-133,-155r-135,155r-148,0xm113,-1516r491,0r0,173r-155,0r0,706v0,85,10,157,29,217v19,60,44,108,78,146v34,38,74,65,120,82v46,17,98,26,153,26v57,0,110,-8,158,-23v48,-15,89,-41,123,-77v34,-36,61,-86,80,-146v19,-60,29,-135,29,-225r0,-706r-164,0r0,-173r491,0r0,173r-135,0r0,684v0,109,-15,206,-45,291v-30,85,-72,156,-125,213v-53,57,-115,101,-186,131v-71,30,-148,44,-230,44v-80,0,-155,-15,-225,-44v-70,-29,-130,-72,-182,-129v-52,-57,-92,-125,-122,-207v-30,-82,-44,-176,-44,-281r0,-702r-139,0r0,-173","w":1550},"\u00dd":{"d":"51,-1516r492,0r0,173r-144,0r285,487r305,-487r-158,0r0,-173r492,0r0,173r-129,0r-426,646r0,525r156,0r0,172r-492,0r0,-172r139,0r0,-530r-402,-641r-118,0r0,-173xm674,-1957r240,0r0,17r-299,282r-154,0","w":1354},"\u00e0":{"d":"709,-96v-39,37,-83,67,-131,90v-48,23,-101,35,-162,35v-51,0,-98,-8,-140,-24v-42,-16,-78,-37,-109,-65v-31,-28,-54,-60,-71,-97v-17,-37,-26,-76,-26,-117v0,-44,7,-83,20,-117v13,-34,30,-64,52,-89v22,-25,47,-45,76,-62v29,-17,58,-32,90,-42v32,-10,65,-18,98,-22v33,-4,64,-6,94,-6v48,0,88,1,121,4v33,3,62,8,89,13r1,-85v0,-37,-5,-69,-16,-96v-11,-27,-26,-48,-45,-66v-19,-18,-43,-31,-70,-40v-27,-9,-57,-13,-90,-13v-31,0,-61,3,-90,7v-29,4,-55,9,-80,16v-25,7,-49,15,-70,24v-21,9,-38,19,-53,29r-61,-129v25,-16,52,-30,81,-44v29,-14,61,-26,93,-36v32,-10,64,-16,98,-22v34,-6,67,-9,100,-9v60,0,114,7,162,21v48,14,89,37,122,67v33,30,59,69,77,115v18,46,27,101,27,166r-1,518r115,0r0,172r-301,0r0,-96xm457,-127v25,0,49,-3,74,-9v25,-6,48,-14,70,-24v22,-10,42,-22,61,-36v19,-14,34,-28,47,-43r1,-234r-216,0v-36,0,-68,4,-98,12v-30,8,-56,20,-78,35v-22,15,-38,34,-50,57v-12,23,-18,49,-18,78v0,27,5,51,15,71v10,20,25,38,43,52v18,14,40,23,65,30v25,7,53,11,84,11xm508,-1178r-287,-282r0,-17r248,0r184,299r-145,0","w":1120},"\u00e1":{"d":"709,-96v-39,37,-83,67,-131,90v-48,23,-101,35,-162,35v-51,0,-98,-8,-140,-24v-42,-16,-78,-37,-109,-65v-31,-28,-54,-60,-71,-97v-17,-37,-26,-76,-26,-117v0,-44,7,-83,20,-117v13,-34,30,-64,52,-89v22,-25,47,-45,76,-62v29,-17,58,-32,90,-42v32,-10,65,-18,98,-22v33,-4,64,-6,94,-6v48,0,88,1,121,4v33,3,62,8,89,13r1,-85v0,-37,-5,-69,-16,-96v-11,-27,-26,-48,-45,-66v-19,-18,-43,-31,-70,-40v-27,-9,-57,-13,-90,-13v-31,0,-61,3,-90,7v-29,4,-55,9,-80,16v-25,7,-49,15,-70,24v-21,9,-38,19,-53,29r-61,-129v25,-16,52,-30,81,-44v29,-14,61,-26,93,-36v32,-10,64,-16,98,-22v34,-6,67,-9,100,-9v60,0,114,7,162,21v48,14,89,37,122,67v33,30,59,69,77,115v18,46,27,101,27,166r-1,518r115,0r0,172r-301,0r0,-96xm457,-127v25,0,49,-3,74,-9v25,-6,48,-14,70,-24v22,-10,42,-22,61,-36v19,-14,34,-28,47,-43r1,-234r-216,0v-36,0,-68,4,-98,12v-30,8,-56,20,-78,35v-22,15,-38,34,-50,57v-12,23,-18,49,-18,78v0,27,5,51,15,71v10,20,25,38,43,52v18,14,40,23,65,30v25,7,53,11,84,11xm508,-1477r240,0r0,17r-299,282r-154,0","w":1120},"\u00e2":{"d":"239,-1176r250,-313r63,0r252,313r-149,0r-133,-155r-135,155r-148,0xm709,-96v-39,37,-83,67,-131,90v-48,23,-101,35,-162,35v-51,0,-98,-8,-140,-24v-42,-16,-78,-37,-109,-65v-31,-28,-54,-60,-71,-97v-17,-37,-26,-76,-26,-117v0,-44,7,-83,20,-117v13,-34,30,-64,52,-89v22,-25,47,-45,76,-62v29,-17,58,-32,90,-42v32,-10,65,-18,98,-22v33,-4,64,-6,94,-6v48,0,88,1,121,4v33,3,62,8,89,13r1,-85v0,-37,-5,-69,-16,-96v-11,-27,-26,-48,-45,-66v-19,-18,-43,-31,-70,-40v-27,-9,-57,-13,-90,-13v-31,0,-61,3,-90,7v-29,4,-55,9,-80,16v-25,7,-49,15,-70,24v-21,9,-38,19,-53,29r-61,-129v25,-16,52,-30,81,-44v29,-14,61,-26,93,-36v32,-10,64,-16,98,-22v34,-6,67,-9,100,-9v60,0,114,7,162,21v48,14,89,37,122,67v33,30,59,69,77,115v18,46,27,101,27,166r-1,518r115,0r0,172r-301,0r0,-96xm457,-127v25,0,49,-3,74,-9v25,-6,48,-14,70,-24v22,-10,42,-22,61,-36v19,-14,34,-28,47,-43r1,-234r-216,0v-36,0,-68,4,-98,12v-30,8,-56,20,-78,35v-22,15,-38,34,-50,57v-12,23,-18,49,-18,78v0,27,5,51,15,71v10,20,25,38,43,52v18,14,40,23,65,30v25,7,53,11,84,11","w":1120},"\u00e3":{"d":"386,-1415v33,0,62,6,86,17v24,11,47,23,68,36v21,13,42,24,63,35v21,11,44,16,70,16v19,0,37,-6,55,-19v18,-13,29,-33,35,-61r119,35v-13,57,-39,101,-78,132v-39,31,-85,46,-139,46v-37,0,-69,-6,-95,-16v-26,-10,-50,-21,-71,-33r-60,-33v-19,-10,-39,-16,-61,-16v-10,0,-20,1,-30,2v-10,1,-21,5,-31,10v-10,5,-19,12,-27,22v-8,10,-15,25,-20,44r-109,-53v9,-31,21,-58,37,-79v16,-21,34,-37,54,-50v20,-13,41,-22,64,-27v23,-5,47,-8,70,-8xm709,-96v-39,37,-83,67,-131,90v-48,23,-101,35,-162,35v-51,0,-98,-8,-140,-24v-42,-16,-78,-37,-109,-65v-31,-28,-54,-60,-71,-97v-17,-37,-26,-76,-26,-117v0,-44,7,-83,20,-117v13,-34,30,-64,52,-89v22,-25,47,-45,76,-62v29,-17,58,-32,90,-42v32,-10,65,-18,98,-22v33,-4,64,-6,94,-6v48,0,88,1,121,4v33,3,62,8,89,13r1,-85v0,-37,-5,-69,-16,-96v-11,-27,-26,-48,-45,-66v-19,-18,-43,-31,-70,-40v-27,-9,-57,-13,-90,-13v-31,0,-61,3,-90,7v-29,4,-55,9,-80,16v-25,7,-49,15,-70,24v-21,9,-38,19,-53,29r-61,-129v25,-16,52,-30,81,-44v29,-14,61,-26,93,-36v32,-10,64,-16,98,-22v34,-6,67,-9,100,-9v60,0,114,7,162,21v48,14,89,37,122,67v33,30,59,69,77,115v18,46,27,101,27,166r-1,518r115,0r0,172r-301,0r0,-96xm457,-127v25,0,49,-3,74,-9v25,-6,48,-14,70,-24v22,-10,42,-22,61,-36v19,-14,34,-28,47,-43r1,-234r-216,0v-36,0,-68,4,-98,12v-30,8,-56,20,-78,35v-22,15,-38,34,-50,57v-12,23,-18,49,-18,78v0,27,5,51,15,71v10,20,25,38,43,52v18,14,40,23,65,30v25,7,53,11,84,11","w":1120},"\u00e5":{"d":"418,-1433v0,14,2,27,8,39v6,12,14,24,24,34v10,10,20,16,32,22v12,6,26,9,40,9v14,0,27,-3,40,-9v13,-6,24,-12,34,-22v10,-10,16,-22,22,-34v6,-12,9,-25,9,-39v0,-14,-3,-27,-9,-40v-6,-13,-12,-23,-22,-33v-10,-10,-21,-18,-34,-24v-13,-6,-26,-8,-40,-8v-14,0,-28,2,-40,8v-12,6,-22,14,-32,24v-10,10,-18,20,-24,33v-6,13,-8,26,-8,40xm522,-1689v35,0,68,7,99,21v31,14,58,31,81,54v23,23,42,51,56,82v14,31,20,64,20,99v0,35,-6,68,-20,99v-14,31,-33,58,-56,81v-23,23,-50,41,-81,55v-31,14,-64,21,-99,21v-35,0,-67,-7,-98,-21v-31,-14,-59,-32,-82,-55v-23,-23,-42,-50,-56,-81v-14,-31,-20,-64,-20,-99v0,-35,6,-68,20,-99v14,-31,33,-59,56,-82v23,-23,51,-40,82,-54v31,-14,63,-21,98,-21xm709,-96v-39,37,-83,67,-131,90v-48,23,-101,35,-162,35v-51,0,-98,-8,-140,-24v-42,-16,-78,-37,-109,-65v-31,-28,-54,-60,-71,-97v-17,-37,-26,-76,-26,-117v0,-44,7,-83,20,-117v13,-34,30,-64,52,-89v22,-25,47,-45,76,-62v29,-17,58,-32,90,-42v32,-10,65,-18,98,-22v33,-4,64,-6,94,-6v48,0,88,1,121,4v33,3,62,8,89,13r1,-85v0,-37,-5,-69,-16,-96v-11,-27,-26,-48,-45,-66v-19,-18,-43,-31,-70,-40v-27,-9,-57,-13,-90,-13v-31,0,-61,3,-90,7v-29,4,-55,9,-80,16v-25,7,-49,15,-70,24v-21,9,-38,19,-53,29r-61,-129v25,-16,52,-30,81,-44v29,-14,61,-26,93,-36v32,-10,64,-16,98,-22v34,-6,67,-9,100,-9v60,0,114,7,162,21v48,14,89,37,122,67v33,30,59,69,77,115v18,46,27,101,27,166r-1,518r115,0r0,172r-301,0r0,-96xm457,-127v25,0,49,-3,74,-9v25,-6,48,-14,70,-24v22,-10,42,-22,61,-36v19,-14,34,-28,47,-43r1,-234r-216,0v-36,0,-68,4,-98,12v-30,8,-56,20,-78,35v-22,15,-38,34,-50,57v-12,23,-18,49,-18,78v0,27,5,51,15,71v10,20,25,38,43,52v18,14,40,23,65,30v25,7,53,11,84,11","w":1120},"\u00e7":{"d":"848,-760v-28,-50,-63,-87,-106,-110v-43,-23,-93,-35,-150,-35v-43,0,-84,9,-122,27v-38,18,-72,44,-100,77v-28,33,-50,73,-66,121v-16,48,-25,101,-25,160v0,58,9,110,25,157v16,47,38,86,67,119v29,33,61,58,99,76v38,18,79,27,122,27v64,0,120,-16,167,-47v47,-31,85,-76,113,-136r154,76v-20,43,-45,81,-74,115v-29,34,-63,63,-100,87v-37,24,-78,43,-122,56v-44,13,-91,19,-140,19v-72,0,-139,-14,-200,-41v-61,-27,-114,-64,-158,-113v-44,-49,-78,-107,-103,-174v-25,-67,-37,-141,-37,-221v0,-80,13,-154,39,-221v26,-67,62,-125,107,-173v45,-48,98,-87,159,-114v61,-27,126,-41,195,-41v65,0,128,11,186,34v58,23,109,57,153,103r105,0r0,172r-188,0xm358,303v37,-1,70,-7,100,-19v30,-12,56,-29,78,-49v22,-20,40,-44,54,-71v14,-27,25,-55,30,-86r150,45v-12,49,-31,93,-56,131v-25,38,-55,70,-90,96v-35,26,-75,47,-118,61v-43,14,-89,21,-137,21","w":1118},"\u00e8":{"d":"276,-494v0,29,2,56,6,80v4,24,11,48,19,70v25,67,65,116,119,150v54,34,115,51,184,51v54,0,107,-8,158,-23v51,-15,104,-38,160,-70r75,127v-68,47,-136,81,-205,104v-69,23,-140,34,-214,34v-70,0,-134,-12,-194,-35v-60,-23,-111,-58,-154,-104v-43,-46,-78,-103,-102,-172v-24,-69,-36,-149,-36,-240v0,-74,10,-144,31,-210v21,-66,52,-123,93,-172v41,-49,91,-87,152,-116v61,-29,131,-43,212,-43v78,0,144,11,196,35v52,24,95,55,128,94v33,39,57,84,74,134v17,50,29,101,36,153v3,25,5,51,6,77v1,26,2,51,2,76r-746,0xm567,-907v-43,0,-81,7,-113,19v-32,12,-60,29,-83,52v-23,23,-41,52,-55,85v-14,33,-23,71,-30,112r537,0v-3,-39,-9,-74,-19,-107v-10,-33,-24,-61,-44,-85v-20,-24,-46,-43,-77,-56v-31,-13,-70,-20,-116,-20xm544,-1178r-287,-282r0,-17r248,0r184,299r-145,0","w":1175},"\u00e9":{"d":"276,-494v0,29,2,56,6,80v4,24,11,48,19,70v25,67,65,116,119,150v54,34,115,51,184,51v54,0,107,-8,158,-23v51,-15,104,-38,160,-70r75,127v-68,47,-136,81,-205,104v-69,23,-140,34,-214,34v-70,0,-134,-12,-194,-35v-60,-23,-111,-58,-154,-104v-43,-46,-78,-103,-102,-172v-24,-69,-36,-149,-36,-240v0,-74,10,-144,31,-210v21,-66,52,-123,93,-172v41,-49,91,-87,152,-116v61,-29,131,-43,212,-43v78,0,144,11,196,35v52,24,95,55,128,94v33,39,57,84,74,134v17,50,29,101,36,153v3,25,5,51,6,77v1,26,2,51,2,76r-746,0xm567,-907v-43,0,-81,7,-113,19v-32,12,-60,29,-83,52v-23,23,-41,52,-55,85v-14,33,-23,71,-30,112r537,0v-3,-39,-9,-74,-19,-107v-10,-33,-24,-61,-44,-85v-20,-24,-46,-43,-77,-56v-31,-13,-70,-20,-116,-20xm544,-1477r240,0r0,17r-299,282r-154,0","w":1175},"\u00ea":{"d":"287,-1176r250,-313r63,0r252,313r-149,0r-133,-155r-135,155r-148,0xm276,-494v0,29,2,56,6,80v4,24,11,48,19,70v25,67,65,116,119,150v54,34,115,51,184,51v54,0,107,-8,158,-23v51,-15,104,-38,160,-70r75,127v-68,47,-136,81,-205,104v-69,23,-140,34,-214,34v-70,0,-134,-12,-194,-35v-60,-23,-111,-58,-154,-104v-43,-46,-78,-103,-102,-172v-24,-69,-36,-149,-36,-240v0,-74,10,-144,31,-210v21,-66,52,-123,93,-172v41,-49,91,-87,152,-116v61,-29,131,-43,212,-43v78,0,144,11,196,35v52,24,95,55,128,94v33,39,57,84,74,134v17,50,29,101,36,153v3,25,5,51,6,77v1,26,2,51,2,76r-746,0xm567,-907v-43,0,-81,7,-113,19v-32,12,-60,29,-83,52v-23,23,-41,52,-55,85v-14,33,-23,71,-30,112r537,0v-3,-39,-9,-74,