/*!
 * The following copyright notice may not be removed under any circumstances.
 * 
 * Copyright:
 * © 2008 Bernd Montag - feel free to distribute - feel free to use personal and
 * commercial - read attached textfile for restrictions
 */
Cufon.registerFont({"w":1235,"face":{"font-family":"sansationbold","font-weight":700,"font-stretch":"normal","units-per-em":"2048","panose-1":"2 0 8 3 0 0 0 2 0 4","ascent":"1638","descent":"-410","x-height":"9","bbox":"-20 -1848 2090 438","underline-thickness":"210","underline-position":"-59","unicode-range":"U+0020-U+2122"},"glyphs":{" ":{"w":350},"!":{"d":"415,-1430r0,1060r-265,0r0,-1060r265,0xm415,-245r0,245r-265,0r0,-245r265,0","w":565},"\"":{"d":"715,-1430r-30,435r-185,0r-30,-435r245,0xm345,-1430r-30,435r-185,0r-30,-435r245,0","w":815},"#":{"d":"803,-876r-90,378r377,0r90,-378r-377,0xm403,5r89,-349r-392,0r30,-154r402,0r89,-378r-401,0r30,-154r412,0r100,-395r180,0r-100,395r378,0r102,-400r180,0r-101,400r392,0r-30,154r-402,0r-89,378r401,0r-30,154r-412,0r-90,349r-180,0r90,-349r-378,0r-90,349r-180,0","w":1893},"$":{"d":"150,-240r0,-220v117,40,238,60,364,60v114,0,171,-37,171,-110v0,-60,-42,-90,-125,-90r-110,0v-233,0,-350,-113,-350,-340v0,-167,107,-267,320,-300r0,-190r235,0r0,190v80,7,162,23,245,50r0,220v-117,-40,-231,-60,-343,-60v-135,0,-202,37,-202,110v0,60,38,90,115,90r110,0v247,0,370,107,370,320v0,180,-98,287,-295,320r0,190r-235,0r0,-190v-97,-7,-187,-23,-270,-50","w":1050},"%":{"d":"365,0r-265,0r1017,-1430r265,0xm428,-995v89,0,134,-49,134,-147v0,-83,-45,-124,-134,-124v-92,0,-138,41,-138,124v0,98,46,147,138,147xm100,-1140v0,-200,109,-300,328,-300v216,0,324,100,324,300v0,213,-108,319,-324,319v-219,0,-328,-106,-328,-319xm1078,-164v89,0,134,-46,134,-137v0,-89,-45,-134,-134,-134v-92,0,-138,45,-138,134v0,91,46,137,138,137xm750,-299v0,-207,109,-310,328,-310v216,0,324,103,324,310v0,206,-108,309,-324,309v-219,0,-328,-103,-328,-309","w":1502},"&":{"d":"283,-727v-122,-57,-183,-159,-183,-308v0,-263,170,-395,510,-395v123,0,243,17,360,50r0,210v-117,-33,-232,-50,-347,-50v-172,0,-258,60,-258,180v0,140,68,210,205,210r338,0r0,-142r143,0r102,142r182,0r0,210r-162,0r0,130v0,329,-183,493,-548,493v-350,0,-525,-139,-525,-417v0,-151,61,-256,183,-313xm572,-620v-138,0,-207,67,-207,201v0,139,87,209,261,209v188,0,282,-94,282,-282r0,-128r-336,0","w":1335},"'":{"d":"345,-1430r-30,435r-185,0r-30,-435r245,0","w":445},"(":{"d":"565,-1430v-133,301,-200,603,-200,905v0,302,67,604,200,905r-265,0v-133,-301,-200,-603,-200,-905v0,-302,67,-604,200,-905r265,0","w":640},")":{"d":"340,-1430v133,301,200,603,200,905v0,302,-67,604,-200,905r-265,0v133,-301,200,-603,200,-905v0,-302,-67,-604,-200,-905r265,0","w":640},"*":{"d":"327,-1430r156,0r-30,232r209,-101r48,147r-228,43r159,170r-123,92r-113,-205r-113,204r-124,-89r161,-171r-230,-42r48,-150r211,103","w":810},"+":{"d":"370,-630r0,-270r210,0r0,270r270,0r0,210r-270,0r0,270r-210,0r0,-270r-270,0r0,-210r270,0","w":950},",":{"d":"515,-185r-150,435r-265,0r150,-435r265,0","w":615},"-":{"d":"600,-630r0,210r-500,0r0,-210r500,0","w":700},"\u2010":{"d":"600,-630r0,210r-500,0r0,-210r500,0","w":700},".":{"d":"365,-245r0,245r-265,0r0,-245r265,0","w":465},"\/":{"d":"310,0r-285,0r725,-1430r285,0","w":1060},"0":{"d":"713,-220v235,0,352,-166,352,-499v0,-327,-117,-491,-352,-491v-242,0,-363,164,-363,491v0,333,121,499,363,499xm75,-713v0,-485,213,-727,638,-727v418,0,627,242,627,727v0,482,-209,723,-627,723v-425,0,-638,-241,-638,-723","w":1375},"1":{"d":"250,0r0,-1181r-150,0r0,-109r415,-140r0,1430r-265,0","w":585},"2":{"d":"100,0r0,-200v477,-331,715,-605,715,-820v0,-127,-87,-190,-260,-190v-147,0,-285,37,-415,110r0,-240v130,-67,268,-100,415,-100v350,0,525,140,525,420v0,247,-191,510,-573,790r573,0r0,230r-980,0","w":1180},"3":{"d":"100,-1380v133,-40,273,-60,420,-60v357,0,535,130,535,390v0,157,-63,266,-188,325v125,57,188,165,188,325v0,273,-178,410,-535,410v-147,0,-287,-20,-420,-60r0,-240v133,47,273,70,420,70v180,0,270,-60,270,-180v0,-140,-64,-210,-192,-210r-348,0r0,-230r345,0v130,0,195,-70,195,-210v0,-107,-90,-160,-270,-160v-147,0,-287,23,-420,70r0,-240","w":1115},"4":{"d":"942,0r-265,0r0,-340r-602,0r0,-230r395,-860r264,0r-386,860r329,0r0,-528r265,0r0,528r148,76r0,154r-148,0r0,340","w":1125,"k":{"7":150}},"5":{"d":"150,-1430r894,0r0,230r-656,0r-24,272v71,-8,140,-12,206,-12v380,0,570,160,570,480v0,313,-183,470,-550,470v-180,0,-337,-20,-470,-60r0,-240v133,47,290,70,470,70v190,0,285,-80,285,-240v0,-167,-102,-250,-305,-250v-183,0,-340,17,-470,50","w":1175},"6":{"d":"100,-530v0,-311,169,-625,508,-943r201,157v-171,131,-294,270,-369,419v67,-22,132,-33,195,-33v337,0,505,153,505,460v0,320,-171,480,-513,480v-351,0,-527,-180,-527,-540xm636,-220v162,0,243,-83,243,-250v0,-153,-84,-230,-251,-230v-90,0,-175,13,-255,38v-12,33,-18,72,-18,116v0,217,94,326,281,326","w":1240,"k":{"9":96,"7":150}},"7":{"d":"100,-1430r950,0r0,210r-572,1220r-291,0r582,-1200r-669,0r0,-230","w":1125,"k":{"6":150,"4":150}},"8":{"d":"100,-424v0,-149,71,-259,212,-331v-115,-63,-172,-171,-172,-323v0,-244,173,-366,520,-366v347,0,520,122,520,366v0,152,-59,260,-177,323v145,72,217,182,217,331v0,289,-183,434,-550,434v-380,0,-570,-145,-570,-434xm915,-1048v0,-108,-84,-162,-253,-162v-171,0,-257,54,-257,162v0,125,87,188,260,188v167,0,250,-63,250,-188xm955,-418v0,-141,-98,-212,-293,-212v-198,0,-297,71,-297,212v0,132,103,198,310,198v187,0,280,-66,280,-198","w":1240},"9":{"d":"1140,-904v0,311,-169,625,-508,943r-215,-165v181,-125,308,-262,383,-411v-69,42,-141,63,-216,63v-323,0,-484,-163,-484,-490v0,-320,178,-480,533,-480v338,0,507,180,507,540xm624,-1214v-175,0,-263,83,-263,250v0,167,77,250,232,250v103,0,194,-23,274,-69v12,-26,18,-61,18,-105v0,-217,-87,-326,-261,-326","w":1190,"k":{"7":96}},":":{"d":"365,-1050r0,245r-265,0r0,-245r265,0xm365,-245r0,245r-265,0r0,-245r265,0","w":465},";":{"d":"515,-1050r0,245r-265,0r0,-245r265,0xm515,-185r-150,435r-265,0r150,-435r265,0","w":615},"<":{"d":"100,-430r0,-190r900,-380r0,250r-573,229r573,221r0,250","w":1100},"=":{"d":"850,-470r0,210r-750,0r0,-210r750,0xm850,-790r0,210r-750,0r0,-210r750,0","w":950},">":{"d":"100,-50r0,-250r573,-221r-573,-229r0,-250r900,380r0,190","w":1100},"?":{"d":"250,-245r0,245r265,0r0,-245r-265,0xm100,-1380v140,-33,273,-50,400,-50v343,0,515,130,515,390v0,293,-167,440,-500,440r0,230r-265,0r0,-440r265,0v170,0,255,-77,255,-230v0,-120,-90,-180,-270,-180v-127,0,-260,17,-400,50r0,-210","w":1115},"@":{"d":"575,-327v0,-215,142,-323,426,-323v105,0,196,7,274,20r0,-69v0,-94,-94,-141,-283,-141v-108,0,-219,17,-332,50r0,-210v113,-33,224,-50,332,-50v365,0,548,112,548,336r0,596v0,39,27,58,80,58v97,0,145,-160,145,-480v0,-460,-229,-690,-686,-690v-476,0,-714,230,-714,690v0,473,215,710,645,710r0,210v-607,0,-910,-307,-910,-920v0,-600,321,-900,964,-900v644,0,966,300,966,900v0,460,-149,690,-447,690v-201,0,-301,-75,-301,-224v-85,49,-189,74,-312,74v-263,0,-395,-109,-395,-327xm1026,-450v-127,0,-191,40,-191,120v0,80,53,120,160,120v108,0,200,-27,275,-82r0,-138v-67,-13,-148,-20,-244,-20","w":2130},"A":{"d":"25,0r607,-1430r285,0r620,1430r-285,0r-180,-390r-458,0r91,-230r297,0r-234,-537r-471,1157r-272,0","w":1562,"k":{"Y":175,"V":175,"T":125}},"B":{"d":"150,0r0,-1430r670,0v272,0,408,111,408,333v0,163,-89,279,-266,349v189,35,284,144,284,325v0,282,-149,423,-447,423r-649,0xm788,-230v117,0,176,-60,176,-180v0,-149,-88,-223,-263,-223r-80,0r0,-171v220,-37,330,-129,330,-276v0,-80,-49,-120,-148,-120r-388,0r0,970r373,0","w":1310},"C":{"d":"1290,-60v-123,47,-263,70,-420,70v-513,0,-770,-248,-770,-745v0,-470,257,-705,770,-705v157,0,297,23,420,70r0,240v-123,-53,-257,-80,-400,-80v-343,0,-515,158,-515,475v0,343,172,515,515,515v143,0,277,-27,400,-80r0,240","w":1390},"D":{"d":"730,-230v297,0,445,-175,445,-524v0,-297,-148,-446,-445,-446r-315,0r0,970r315,0xm150,0r0,-1430r620,0v447,0,670,225,670,676v0,503,-223,754,-670,754r-620,0","w":1540},"E":{"d":"1089,-1430r0,228r-676,0r0,360r642,0r0,237r-645,0r0,375r693,0r0,230r-953,0r0,-1430r939,0","w":1238},"F":{"d":"1089,-1430r0,228r-676,0r0,360r642,0r0,237r-645,0r0,605r-260,0r0,-1430r939,0","w":1224,"k":{"\u0104":150,"\u00c1":150,"\u00c2":150,"\u00c3":150,"\u00c0":150,"\u00c6":150,"\u00c5":150,"\u00c4":150,"A":150}},"G":{"d":"1290,-66v-115,51,-260,76,-433,76v-505,0,-757,-248,-757,-745v0,-470,257,-705,770,-705v157,0,297,23,420,70r0,240v-123,-53,-257,-80,-400,-80v-343,0,-515,158,-515,475v0,343,162,515,486,515v48,0,103,-8,164,-24r0,-416r265,0r0,594","w":1390},"H":{"d":"150,0r0,-1430r265,0r0,590r705,0r0,-590r265,0r0,1430r-265,0r0,-610r-705,0r0,610r-265,0","w":1535},"I":{"d":"415,-1430r0,1430r-265,0r0,-1430r265,0","w":565},"J":{"d":"590,-1430r0,1018v0,275,-188,412,-565,412r0,-230v200,0,300,-61,300,-182r0,-1018r265,0","w":740},"K":{"d":"415,-1430r0,1430r-265,0r0,-1430r265,0xm1361,-1430r-630,667r714,763r-367,0r-583,-668r0,-172r542,-590r324,0","w":1450,"k":{"\u00d2":150,"\u00d4":150,"\u00d3":150,"\u0152":150,"\u00d5":150,"\u00d8":150,"\u00d6":150,"\u00c7":150,"Q":150,"O":150,"G":150,"C":150}},"L":{"d":"415,-1430r0,1200r668,0r0,230r-933,0r0,-1430r265,0","w":1183,"k":{"\u00d2":150,"\u00d4":150,"\u00d3":150,"\u0152":150,"\u00d5":150,"\u00d8":150,"\u00d6":150,"\u00c7":150,"Y":288,"V":300,"T":300,"Q":150,"O":150,"G":150,"C":150}},"M":{"d":"150,0r0,-1430r275,0r485,1085r475,-1085r265,0r0,1430r-245,0r0,-996r-388,996r-226,0r-396,-996r0,996r-245,0","w":1800},"N":{"d":"150,0r0,-1430r265,0r795,1022r0,-1022r255,0r0,1430r-265,0r-795,-1044r0,1044r-255,0","w":1615},"O":{"d":"818,-220v288,0,432,-166,432,-499v0,-327,-144,-491,-432,-491v-295,0,-443,164,-443,491v0,333,148,499,443,499xm100,-713v0,-485,239,-727,718,-727v471,0,707,242,707,727v0,482,-236,723,-707,723v-457,0,-697,-241,-718,-723","w":1625},"P":{"d":"150,0r0,-1430r670,0v272,0,408,121,408,363v0,285,-196,458,-589,519r-38,-236v233,-43,350,-135,350,-275v0,-92,-49,-138,-148,-138r-388,0r0,1197r-265,0","w":1243,"k":{"\u0104":150,"\u00c1":150,"\u00c2":150,"\u00c3":150,"\u00c0":150,"\u00c6":150,"\u00c5":150,"\u00c4":150,"A":150}},"Q":{"d":"818,-220v288,0,432,-166,432,-499v0,-327,-144,-491,-432,-491v-295,0,-443,164,-443,491v0,333,148,499,443,499xm100,-713v0,-485,239,-727,718,-727v471,0,707,242,707,727v0,399,-148,634,-445,706r232,270r-209,159r-325,-412v-431,0,-657,-241,-678,-723","w":1625},"R":{"d":"150,-2r0,-1428r650,0v292,0,438,128,438,383v0,173,-114,316,-341,429r453,618r-344,0r-435,-623r0,-121v260,-43,390,-142,390,-295v0,-105,-59,-158,-178,-158r-363,0r0,1195r-270,0","w":1375},"S":{"d":"170,-60r0,-240v143,53,305,80,486,80v219,0,329,-73,329,-220v0,-107,-67,-160,-202,-160r-244,0v-293,0,-439,-133,-439,-400v0,-293,208,-440,625,-440v160,0,312,23,455,70r0,240v-143,-53,-295,-80,-455,-80v-240,0,-360,70,-360,210v0,107,58,160,174,160r244,0v311,0,467,133,467,400v0,300,-198,450,-594,450v-181,0,-343,-23,-486,-70","w":1310,"k":{"\u015a":96,"S":96}},"T":{"d":"1085,-1430r0,230r-410,0r0,1200r-265,0r0,-1200r-410,0r0,-230r1085,0","w":1085,"k":{"\u0119":150,"\u015b":150,"\u0144":150,"\u0107":150,"\u0105":150,"\u0104":125,"\u017a":150,"\u017c":150,"\u00c1":125,"\u00c2":125,"\u0153":150,"\u00c3":125,"\u00c0":125,"\u00f8":150,"\u00e6":150,"\u00c6":125,"\u00fc":150,"\u00fb":150,"\u00f9":150,"\u00fa":150,"\u00f5":150,"\u00f6":150,"\u00f4":150,"\u00f2":150,"\u00f3":150,"\u00eb":150,"\u00ea":150,"\u00e8":150,"\u00e9":150,"\u00e7":150,"\u00e5":150,"\u00e3":150,"\u00e4":150,"\u00e2":150,"\u00e0":150,"\u00e1":150,"\u00c5":125,"\u00c4":125,"z":150,"y":150,"x":150,"w":150,"v":150,"u":150,"t":150,"s":150,"r":150,"q":150,"p":150,"o":150,"n":150,"m":140,"g":150,"e":150,"d":150,"c":150,"a":150,"A":125}},"U":{"d":"150,-562r0,-868r265,0r0,868v0,228,117,342,350,342v233,0,350,-114,350,-342r0,-868r265,0r0,868v0,381,-205,572,-615,572v-410,0,-615,-191,-615,-572","w":1530},"V":{"d":"1512,-1430r-627,1430r-285,0r-600,-1430r315,0r443,1095r442,-1095r312,0","w":1512,"k":{"\u0119":125,"\u015b":125,"\u0144":96,"\u0105":100,"\u0104":175,"\u017a":96,"\u017c":96,"\u00c1":175,"\u00c2":175,"\u0153":125,"\u00c3":175,"\u00c0":175,"\u00f8":125,"\u00e6":100,"\u00c6":175,"\u00f5":125,"\u00f6":125,"\u00f4":125,"\u00f2":125,"\u00f3":125,"\u00f1":96,"\u00eb":125,"\u00ea":125,"\u00e8":125,"\u00e9":125,"\u00e7":125,"\u00e5":100,"\u00e3":100,"\u00e4":100,"\u00e2":100,"\u00e0":100,"\u00e1":100,"\u00c5":175,"\u00c4":175,"z":96,"s":125,"r":96,"q":125,"p":96,"o":125,"n":96,"m":96,"g":125,"e":125,"d":125,"c":125,"a":100,"A":175}},"W":{"d":"0,-1430r259,0r183,997r352,-997r255,0r328,957r192,-957r251,0r-269,1430r-252,0r-393,-1122r-422,1122r-249,0","w":1820},"X":{"d":"25,-1430r335,0r1125,1430r-335,0xm360,0r-335,0r1125,-1430r335,0","w":1502},"Y":{"d":"25,-1430r285,0r402,689r378,-689r275,0r-526,930r0,500r-265,0r0,-500","w":1300,"k":{"\u0119":150,"\u015b":150,"\u0144":96,"\u0107":150,"\u0105":150,"\u0104":175,"\u017a":96,"\u017c":96,"\u00c1":175,"\u00c2":175,"\u0153":150,"\u00c3":175,"\u00c0":175,"\u00f8":150,"\u00e6":150,"\u00c6":175,"\u00fc":96,"\u00fb":96,"\u00f9":96,"\u00fa":96,"\u00f5":150,"\u00f6":150,"\u00f4":150,"\u00f2":150,"\u00f3":150,"\u00f1":96,"\u00eb":150,"\u00ea":150,"\u00e8":150,"\u00e9":150,"\u00e7":150,"\u00e5":150,"\u00e3":150,"\u00e4":150,"\u00e2":150,"\u00e0":150,"\u00e1":150,"\u00c5":175,"\u00c4":175,"z":96,"x":96,"u":96,"s":150,"r":96,"q":150,"p":96,"o":150,"n":96,"m":96,"g":150,"e":150,"d":150,"c":150,"a":150,"A":175}},"Z":{"d":"1185,-1430r0,230r-761,970r761,0r0,230r-1060,0r0,-230r794,-970r-774,0r0,-230r1040,0","w":1250},"[":{"d":"630,-1430r0,210r-265,0r0,1390r265,0r0,210r-530,0r0,-1810r530,0","w":680},"\\":{"d":"25,-1430r285,0r725,1430r-285,0","w":1060},"]":{"d":"580,-1430r0,1810r-530,0r0,-210r265,0r0,-1390r-265,0r0,-210r530,0","w":680},"^":{"d":"450,-1430r150,0r400,730r-230,0r-249,-473r-241,473r-230,0","w":1050},"_":{"d":"1025,0r0,210r-1000,0r0,-210r1000,0","w":1050},"`":{"d":"400,-1385r0,210r-400,-150r0,-210","w":400},"a":{"d":"75,-327v0,-215,152,-323,456,-323v91,0,173,7,244,20r0,-69v0,-94,-91,-141,-273,-141v-115,0,-229,17,-342,50r0,-210v113,-33,227,-50,342,-50v359,0,538,115,538,346r0,704r-134,0r-114,-74v-91,49,-189,74,-292,74v-283,0,-425,-109,-425,-327xm531,-450v-127,0,-191,40,-191,120v0,80,53,120,160,120v108,0,200,-27,275,-82r0,-138v-67,-13,-148,-20,-244,-20","w":1165},"b":{"d":"390,-243v61,19,131,29,211,29v173,0,260,-113,260,-339v0,-185,-76,-277,-227,-277v-89,0,-171,18,-244,54r0,533xm125,-1430r265,0r0,430v79,-33,161,-50,245,-50v325,0,488,168,488,504v0,364,-178,546,-533,546v-144,0,-299,-14,-465,-43r0,-1387","w":1183},"c":{"d":"930,-30v-87,20,-183,30,-290,30v-387,0,-580,-182,-580,-545v0,-337,193,-505,580,-505v107,0,203,10,290,30r0,210v-87,-20,-177,-30,-270,-30v-223,0,-335,98,-335,295v0,223,112,335,335,335v93,0,183,-10,270,-30r0,210","w":980},"d":{"d":"830,-776v-68,-36,-150,-54,-246,-54v-165,0,-247,92,-247,277v0,219,82,329,247,329v96,0,178,-13,246,-39r0,-513xm1095,-63v-161,42,-324,63,-491,63v-353,0,-529,-182,-529,-546v0,-336,169,-504,508,-504v91,0,173,17,247,50r0,-430r265,0r0,1367","w":1220},"e":{"d":"1012,-422r-687,0v0,141,115,212,346,212v106,0,212,-10,318,-30r0,210v-93,20,-212,30,-358,30v-381,0,-571,-179,-571,-537v0,-342,174,-513,523,-513v348,0,491,209,429,628xm325,-616r438,0v9,-151,-61,-226,-210,-226v-140,0,-216,75,-228,226","w":1086},"f":{"d":"125,5r0,-1106v0,-254,157,-381,472,-381v86,0,164,13,234,40r0,210v-66,-27,-144,-40,-235,-40v-137,0,-206,74,-206,222r315,0r0,210r-315,0r0,841","w":741},"g":{"d":"827,-812v-43,-16,-112,-24,-205,-24v-190,0,-285,101,-285,303v0,195,79,293,237,293v96,0,180,-18,253,-54r0,-518xm1092,0v0,253,-188,380,-563,380v-129,0,-244,-17,-344,-50r0,-210v102,33,217,50,346,50v197,0,296,-80,296,-240v-79,33,-163,50,-254,50v-332,0,-498,-170,-498,-511v0,-346,192,-519,575,-519v122,0,269,14,442,43r0,1007","w":1217},"h":{"d":"125,0r0,-1430r265,0r0,494v109,-76,228,-114,357,-114v242,0,363,130,363,391r0,659r-265,0r0,-662v0,-116,-58,-174,-173,-174v-93,0,-187,44,-282,133r0,703r-265,0"},"i":{"d":"390,-1430r0,210r-265,0r0,-210r265,0xm390,-1050r0,1050r-265,0r0,-1050r265,0","w":515},"j":{"d":"390,-1430r0,210r-265,0r0,-210r265,0xm390,-1050r0,970v0,212,-61,385,-182,518r-208,-145v83,-90,125,-214,125,-373r0,-970r265,0","w":515},"k":{"d":"125,0r0,-1430r265,0r0,462v109,-55,230,-82,363,-82v255,0,382,111,382,333v0,127,-93,228,-280,304r316,413r-314,0r-334,-445r0,-83v231,-21,347,-84,347,-190v0,-81,-57,-122,-170,-122v-102,0,-205,31,-310,94r0,746r-265,0","w":1221},"l":{"d":"390,-1430r0,1430r-265,0r0,-1430r265,0","w":515},"m":{"d":"125,0r0,-1050r205,0r31,132v121,-88,240,-132,359,-132v132,0,226,48,281,144v134,-96,260,-144,377,-144v221,0,332,133,332,399r0,651r-265,0r0,-661v0,-117,-49,-175,-148,-175v-79,0,-161,45,-247,136r0,700r-265,0r0,-658v0,-119,-49,-178,-146,-178v-84,0,-167,45,-249,136r0,700r-265,0","w":1835},"n":{"d":"125,0r0,-1050r205,0r33,134v127,-89,255,-134,384,-134v242,0,363,130,363,391r0,659r-265,0r0,-662v0,-116,-58,-174,-173,-174v-93,0,-187,44,-282,133r0,703r-265,0"},"o":{"d":"590,-200v177,0,265,-110,265,-329v0,-214,-88,-321,-265,-321v-177,0,-265,107,-265,321v0,219,88,329,265,329xm60,-525v0,-357,177,-535,530,-535v353,0,530,178,530,535v0,356,-177,534,-530,534v-352,0,-529,-178,-530,-534","w":1180},"p":{"d":"390,-274v73,36,154,54,243,54v165,0,247,-111,247,-333v0,-189,-94,-283,-282,-283v-89,0,-158,5,-208,14r0,548xm125,-1007v139,-29,293,-43,462,-43v370,0,555,166,555,499v0,367,-169,551,-508,551v-84,0,-165,-17,-244,-50r0,430r-265,0r0,-1387","w":1202},"q":{"d":"827,-812v-63,-16,-138,-24,-225,-24v-177,0,-265,101,-265,303v0,209,79,313,237,313v96,0,180,-18,253,-54r0,-538xm1092,380r-265,0r0,-430v-79,33,-163,50,-254,50v-332,0,-498,-177,-498,-531v0,-346,182,-519,545,-519v142,0,299,14,472,43r0,1387","w":1217},"r":{"d":"125,0r0,-1050r205,0r33,134v92,-89,189,-134,292,-134r0,214v-99,0,-187,44,-265,133r0,703r-265,0","w":680},"s":{"d":"125,-50r0,-220v117,47,251,70,404,70v114,0,171,-37,171,-110v0,-67,-38,-100,-115,-100r-190,0v-213,0,-320,-107,-320,-320v0,-220,156,-330,467,-330v132,0,256,20,373,60r0,220v-117,-47,-243,-70,-380,-70v-143,0,-215,37,-215,110v0,67,42,100,125,100r170,0v233,0,350,107,350,320v0,220,-149,330,-446,330v-146,0,-277,-20,-394,-60","w":1025},"t":{"d":"125,-1220r196,0r40,170r244,0r0,210r-215,0r0,483v0,98,42,147,127,147r88,0r0,210r-216,0v-176,0,-264,-94,-264,-283r0,-937","w":680},"u":{"d":"1110,-1050r0,1050r-207,0r-32,-134v-127,89,-255,134,-384,134v-241,0,-362,-130,-362,-391r0,-659r265,0r0,662v0,116,57,174,172,174v93,0,187,-44,283,-133r0,-703r265,0"},"v":{"d":"0,-1050r280,0r255,734r265,-734r280,0r-427,1050r-252,0","w":1080},"w":{"d":"25,-1050r267,0r156,711r233,-711r227,0r252,711r138,-711r276,0r-284,1050r-249,0r-247,-725r-250,725r-253,0","w":1599},"x":{"d":"0,-1050r295,0r785,1050r-295,0xm295,0r-295,0r785,-1050r295,0","w":1080},"y":{"d":"0,-1050r281,0r265,756r259,-756r276,0r-436,1081v-77,191,-201,326,-371,407r-128,-181v117,-51,203,-135,256,-251","w":1081},"z":{"d":"120,-1050r810,0r0,210r-537,640r517,0r0,200r-810,0r0,-200r545,-640r-525,0r0,-210","w":990},"{":{"d":"705,-1430v-87,117,-130,277,-130,478v0,235,-83,377,-250,427v167,50,250,192,250,427v0,201,43,361,130,478r-265,0v-87,-117,-130,-277,-130,-478v0,-208,-70,-312,-210,-312r0,-230v140,0,210,-104,210,-312v0,-201,43,-361,130,-478r265,0","w":755},"|":{"d":"415,-1430r0,1810r-265,0r0,-1810r265,0","w":565},"}":{"d":"315,-1430v87,117,130,277,130,478v0,208,70,312,210,312r0,230v-140,0,-210,104,-210,312v0,201,-43,361,-130,478r-265,0v87,-117,130,-277,130,-478v0,-235,57,-377,170,-427v-113,-50,-170,-192,-170,-427v0,-201,-43,-361,-130,-478r265,0","w":755},"~":{"d":"850,-650r0,210v-70,73,-192,80,-365,20v-173,-60,-302,-53,-385,20r0,-210v70,-73,192,-80,365,-20v173,60,302,53,385,-20","w":950},"\u00c4":{"d":"25,0r607,-1430r285,0r620,1430r-285,0r-180,-390r-458,0r91,-230r297,0r-234,-537r-471,1157r-272,0xm1049,-1789r0,190r-215,0r0,-190r215,0xm709,-1789r0,190r-215,0r0,-190r215,0","w":1562,"k":{"Y":175,"V":175,"T":125}},"\u00c5":{"d":"25,0r607,-1430r285,0r620,1430r-285,0r-180,-390r-458,0r91,-230r297,0r-234,-537r-471,1157r-272,0xm764,-1441v83,0,124,-42,124,-127v0,-76,-41,-114,-124,-114v-79,0,-118,38,-118,114v0,85,39,127,118,127xm476,-1566v0,-180,96,-270,288,-270v196,0,294,90,294,270v0,186,-98,279,-294,279v-192,0,-288,-93,-288,-279","w":1562,"k":{"Y":175,"V":175,"T":125}},"\u00c7":{"d":"583,244v72,33,144,50,216,50v72,0,108,-18,108,-55v0,-29,-28,-44,-83,-44r-183,0r131,-270r165,0r-81,152v143,0,214,54,214,162v0,122,-90,183,-271,183v-72,0,-144,-17,-216,-50r0,-128xm1290,-60v-123,47,-263,70,-420,70v-513,0,-770,-248,-770,-745v0,-470,257,-705,770,-705v157,0,297,23,420,70r0,240v-123,-53,-257,-80,-400,-80v-343,0,-515,158,-515,475v0,343,172,515,515,515v143,0,277,-27,400,-80r0,240","w":1390},"\u00c9":{"d":"150,-1430r0,1430r953,0r0,-230r-693,0r0,-375r645,0r0,-237r-642,0r0,-360r676,0r0,-228r-939,0xm821,-1848r0,210r-400,150r0,-210","w":1238},"\u00d1":{"d":"150,0r0,-1430r265,0r795,1022r0,-1022r255,0r0,1430r-265,0r-795,-1044r0,1044r-255,0xm1064,-1839r0,210v-70,53,-150,60,-240,20v-90,-40,-177,-33,-260,20r0,-210v70,-53,150,-60,240,-20v90,40,177,33,260,-20","w":1615},"\u00d6":{"d":"818,-220v288,0,432,-166,432,-499v0,-327,-144,-491,-432,-491v-295,0,-443,164,-443,491v0,333,148,499,443,499xm100,-713v0,-485,239,-727,718,-727v471,0,707,242,707,727v0,482,-236,723,-707,723v-457,0,-697,-241,-718,-723xm1079,-1789r0,190r-215,0r0,-190r215,0xm739,-1789r0,190r-215,0r0,-190r215,0","w":1625},"\u00dc":{"d":"150,-562r0,-868r265,0r0,868v0,228,117,342,350,342v233,0,350,-114,350,-342r0,-868r265,0r0,868v0,381,-205,572,-615,572v-410,0,-615,-191,-615,-572xm1047,-1789r0,190r-215,0r0,-190r215,0xm707,-1789r0,190r-215,0r0,-190r215,0","w":1530},"\u00e1":{"d":"75,-327v0,-215,152,-323,456,-323v91,0,173,7,244,20r0,-69v0,-94,-91,-141,-273,-141v-115,0,-229,17,-342,50r0,-210v113,-33,227,-50,342,-50v359,0,538,115,538,346r0,704r-134,0r-114,-74v-91,49,-189,74,-292,74v-283,0,-425,-109,-425,-327xm531,-450v-127,0,-191,40,-191,120v0,80,53,120,160,120v108,0,200,-27,275,-82r0,-138v-67,-13,-148,-20,-244,-20xm768,-1535r0,210r-400,150r0,-210","w":1165},"\u00e0":{"d":"75,-327v0,-215,152,-323,456,-323v91,0,173,7,244,20r0,-69v0,-94,-91,-141,-273,-141v-115,0,-229,17,-342,50r0,-210v113,-33,227,-50,342,-50v359,0,538,115,538,346r0,704r-134,0r-114,-74v-91,49,-189,74,-292,74v-283,0,-425,-109,-425,-327xm531,-450v-127,0,-191,40,-191,120v0,80,53,120,160,120v108,0,200,-27,275,-82r0,-138v-67,-13,-148,-20,-244,-20xm768,-1385r0,210r-400,-150r0,-210","w":1165},"\u00e2":{"d":"75,-327v0,-215,152,-323,456,-323v91,0,173,7,244,20r0,-69v0,-94,-91,-141,-273,-141v-115,0,-229,17,-342,50r0,-210v113,-33,227,-50,342,-50v359,0,538,115,538,346r0,704r-134,0r-114,-74v-91,49,-189,74,-292,74v-283,0,-425,-109,-425,-327xm531,-450v-127,0,-191,40,-191,120v0,80,53,120,160,120v108,0,200,-27,275,-82r0,-138v-67,-13,-148,-20,-244,-20xm514,-1538r150,0r175,260r-180,0r-70,-130r-70,130r-180,0","w":1165},"\u00e4":{"d":"75,-327v0,-215,152,-323,456,-323v91,0,173,7,244,20r0,-69v0,-94,-91,-141,-273,-141v-115,0,-229,17,-342,50r0,-210v113,-33,227,-50,342,-50v359,0,538,115,538,346r0,704r-134,0r-114,-74v-91,49,-189,74,-292,74v-283,0,-425,-109,-425,-327xm531,-450v-127,0,-191,40,-191,120v0,80,53,120,160,120v108,0,200,-27,275,-82r0,-138v-67,-13,-148,-20,-244,-20xm868,-1430r0,190r-215,0r0,-190r215,0xm528,-1430r0,190r-215,0r0,-190r215,0","w":1165},"\u00e3":{"d":"75,-327v0,-215,152,-323,456,-323v91,0,173,7,244,20r0,-69v0,-94,-91,-141,-273,-141v-115,0,-229,17,-342,50r0,-210v113,-33,227,-50,342,-50v359,0,538,115,538,346r0,704r-134,0r-114,-74v-91,49,-189,74,-292,74v-283,0,-425,-109,-425,-327xm531,-450v-127,0,-191,40,-191,120v0,80,53,120,160,120v108,0,200,-27,275,-82r0,-138v-67,-13,-148,-20,-244,-20xm819,-1479r0,210v-70,53,-150,60,-240,20v-90,-40,-177,-33,-260,20r0,-210v70,-53,150,-60,240,-20v90,40,177,33,260,-20","w":1165},"\u00e5":{"d":"550,-1404v83,0,124,-42,124,-127v0,-76,-41,-114,-124,-114v-79,0,-118,38,-118,114v0,85,39,127,118,127xm262,-1529v0,-180,96,-270,288,-270v196,0,294,90,294,270v0,186,-98,279,-294,279v-192,0,-288,-93,-288,-279xm75,-327v0,-215,152,-323,456,-323v91,0,173,7,244,20r0,-69v0,-94,-91,-141,-273,-141v-115,0,-229,17,-342,50r0,-210v113,-33,227,-50,342,-50v359,0,538,115,538,346r0,704r-134,0r-114,-74v-91,49,-189,74,-292,74v-283,0,-425,-109,-425,-327xm531,-450v-127,0,-191,40,-191,120v0,80,53,120,160,120v108,0,200,-27,275,-82r0,-138v-67,-13,-148,-20,-244,-20","w":1165},"\u00e7":{"d":"358,244v72,33,144,50,216,50v72,0,108,-15,108,-45v0,-36,-28,-54,-83,-54r-183,0r131,-269r165,0r-81,151v143,0,214,57,214,172v0,115,-90,173,-271,173v-72,0,-144,-17,-216,-50r0,-128xm930,-30v-87,20,-183,30,-290,30v-387,0,-580,-182,-580,-545v0,-337,193,-505,580,-505v107,0,203,10,290,30r0,210v-87,-20,-177,-30,-270,-30v-223,0,-335,98,-335,295v0,223,112,335,335,335v93,0,183,-10,270,-30r0,210","w":980},"\u00e9":{"d":"1012,-422r-687,0v0,141,115,212,346,212v106,0,212,-10,318,-30r0,210v-93,20,-212,30,-358,30v-381,0,-571,-179,-571,-537v0,-342,174,-513,523,-513v348,0,491,209,429,628xm325,-616r438,0v9,-151,-61,-226,-210,-226v-140,0,-216,75,-228,226xm730,-1535r0,210r-400,150r0,-210","w":1086},"\u00e8":{"d":"1012,-422r-687,0v0,141,115,212,346,212v106,0,212,-10,318,-30r0,210v-93,20,-212,30,-358,30v-381,0,-571,-179,-571,-537v0,-342,174,-513,523,-513v348,0,491,209,429,628xm325,-616r438,0v9,-151,-61,-226,-210,-226v-140,0,-216,75,-228,226xm730,-1385r0,210r-400,-150r0,-210","w":1086},"\u00ea":{"d":"1012,-422r-687,0v0,141,115,212,346,212v106,0,212,-10,318,-30r0,210v-93,20,-212,30,-358,30v-381,0,-571,-179,-571,-537v0,-342,174,-513,523,-513v348,0,491,209,429,628xm325,-616r438,0v9,-151,-61,-226,-210,-226v-140,0,-216,75,-228,226xm466,-1538r150,0r175,260r-180,0r-70,-130r-70,130r-180,0","w":1086},"\u00eb":{"d":"1012,-422r-687,0v0,141,115,212,346,212v106,0,212,-10,318,-30r0,210v-93,20,-212,30,-358,30v-381,0,-571,-179,-571,-537v0,-342,174,-513,523,-513v348,0,491,209,429,628xm325,-616r438,0v9,-151,-61,-226,-210,-226v-140,0,-216,75,-228,226xm819,-1430r0,190r-215,0r0,-190r215,0xm479,-1430r0,190r-215,0r0,-190r215,0","w":1086},"\u00ed":{"d":"390,-1050r0,1050r-265,0r0,-1050r265,0xm460,-1535r0,210r-400,150r0,-210","w":515},"\u00ec":{"d":"390,-1050r0,1050r-265,0r0,-1050r265,0xm460,-1385r0,210r-400,-150r0,-210","w":515},"\u00ee":{"d":"390,-1050r0,1050r-265,0r0,-1050r265,0xm185,-1538r150,0r175,260r-180,0r-70,-130r-70,130r-180,0","w":515},"\u00ef":{"d":"390,-1050r0,1050r-265,0r0,-1050r265,0xm535,-1430r0,190r-215,0r0,-190r215,0xm195,-1430r0,190r-215,0r0,-190r215,0","w":515},"\u00f1":{"d":"125,0r0,-1050r205,0r33,134v127,-89,255,-134,384,-134v242,0,363,130,363,391r0,659r-265,0r0,-662v0,-116,-58,-174,-173,-174v-93,0,-187,44,-282,133r0,703r-265,0xm866,-1479r0,210v-70,53,-150,60,-240,20v-90,-40,-177,-33,-260,20r0,-210v70,-53,150,-60,240,-20v90,40,177,33,260,-20"},"\u00f3":{"d":"590,-200v177,0,265,-110,265,-329v0,-214,-88,-321,-265,-321v-177,0,-265,107,-265,321v0,219,88,329,265,329xm60,-525v0,-357,177,-535,530,-535v353,0,530,178,530,535v0,356,-177,534,-530,534v-352,0,-529,-178,-530,-534xm784,-1535r0,210r-400,150r0,-210","w":1180},"\u00f2":{"d":"590,-200v177,0,265,-110,265,-329v0,-214,-88,-321,-265,-321v-177,0,-265,107,-265,321v0,219,88,329,265,329xm60,-525v0,-357,177,-535,530,-535v353,0,530,178,530,535v0,356,-177,534,-530,534v-352,0,-529,-178,-530,-534xm784,-1385r0,210r-400,-150r0,-210","w":1180},"\u00f4":{"d":"590,-200v177,0,265,-110,265,-329v0,-214,-88,-321,-265,-321v-177,0,-265,107,-265,321v0,219,88,329,265,329xm60,-525v0,-357,177,-535,530,-535v353,0,530,178,530,535v0,356,-177,534,-530,534v-352,0,-529,-178,-530,-534xm513,-1538r150,0r175,260r-180,0r-70,-130r-70,130r-180,0","w":1180},"\u00f6":{"d":"590,-200v177,0,265,-110,265,-329v0,-214,-88,-321,-265,-321v-177,0,-265,107,-265,321v0,219,88,329,265,329xm60,-525v0,-357,177,-535,530,-535v353,0,530,178,530,535v0,356,-177,534,-530,534v-352,0,-529,-178,-530,-534xm863,-1430r0,190r-215,0r0,-190r215,0xm523,-1430r0,190r-215,0r0,-190r215,0","w":1180},"\u00f5":{"d":"590,-200v177,0,265,-110,265,-329v0,-214,-88,-321,-265,-321v-177,0,-265,107,-265,321v0,219,88,329,265,329xm60,-525v0,-357,177,-535,530,-535v353,0,530,178,530,535v0,356,-177,534,-530,534v-352,0,-529,-178,-530,-534xm837,-1479r0,210v-70,53,-150,60,-240,20v-90,-40,-177,-33,-260,20r0,-210v70,-53,150,-60,240,-20v90,40,177,33,260,-20","w":1180},"\u00fa":{"d":"1110,-1050r0,1050r-207,0r-32,-134v-127,89,-255,134,-384,134v-241,0,-362,-130,-362,-391r0,-659r265,0r0,662v0,116,57,174,172,174v93,0,187,-44,283,-133r0,-703r265,0xm819,-1535r0,210r-400,150r0,-210"},"\u00f9":{"d":"1110,-1050r0,1050r-207,0r-32,-134v-127,89,-255,134,-384,134v-241,0,-362,-130,-362,-391r0,-659r265,0r0,662v0,116,57,174,172,174v93,0,187,-44,283,-133r0,-703r265,0xm819,-1385r0,210r-400,-150r0,-210"},"\u00fb":{"d":"1110,-1050r0,1050r-207,0r-32,-134v-127,89,-255,134,-384,134v-241,0,-362,-130,-362,-391r0,-659r265,0r0,662v0,116,57,174,172,174v93,0,187,-44,283,-133r0,-703r265,0xm544,-1538r150,0r175,260r-180,0r-70,-130r-70,130r-180,0"},"\u00fc":{"d":"1110,-1050r0,1050r-207,0r-32,-134v-127,89,-255,134,-384,134v-241,0,-362,-130,-362,-391r0,-659r265,0r0,662v0,116,57,174,172,174v93,0,187,-44,283,-133r0,-703r265,0xm900,-1430r0,190r-215,0r0,-190r215,0xm560,-1430r0,190r-215,0r0,-190r215,0"},"\u00b0":{"d":"438,-965v96,0,144,-49,144,-147v0,-96,-48,-144,-144,-144v-99,0,-148,48,-148,144v0,98,49,147,148,147xm100,-1110v0,-213,113,-320,338,-320v223,0,334,107,334,320v0,213,-111,319,-334,319v-225,0,-338,-106,-338,-319","w":872},"\u00a2":{"d":"950,-220v-51,17,-113,27,-185,30r0,190r-255,0r0,-190v-273,-35,-410,-216,-410,-545v0,-301,137,-469,410,-505r0,-190r255,0r0,190v59,1,120,11,185,30r0,210v-87,-20,-173,-30,-260,-30v-217,0,-325,98,-325,295v0,223,108,335,325,335v87,0,173,-10,260,-30r0,210","w":1050},"\u00a3":{"d":"100,-182v124,-50,186,-127,186,-231v0,-78,-26,-175,-77,-291v-51,-116,-77,-224,-77,-323v0,-275,186,-413,558,-413v180,0,322,33,427,100r0,240v-105,-87,-250,-130,-434,-130v-183,0,-274,67,-274,201v0,96,12,162,35,199r386,0r0,210r-314,0v26,69,39,137,39,204v0,91,-21,151,-64,178v61,-12,148,1,261,39v113,38,235,11,365,-81r0,230v-125,87,-287,106,-485,56v-198,-50,-376,-41,-532,24r0,-212","w":1217},"\u00a7":{"d":"150,-40r0,-220v117,40,238,60,364,60v141,0,211,-30,211,-90v0,-67,-52,-100,-155,-100r-70,0v-267,0,-400,-103,-400,-310v0,-105,44,-177,131,-216v-87,-40,-131,-115,-131,-224v0,-200,156,-300,467,-300v132,0,256,17,373,50r0,220v-117,-40,-241,-60,-373,-60v-148,0,-222,30,-222,90v0,67,52,100,155,100r70,0v280,0,420,102,420,307v0,100,-37,174,-111,222v74,36,111,110,111,221v0,200,-159,300,-476,300v-126,0,-247,-17,-364,-50xm500,-598r70,0v103,0,155,-35,155,-106v0,-85,-52,-127,-155,-127r-70,0v-103,0,-155,38,-155,114v0,79,52,119,155,119","w":1090},"\u00b6":{"d":"443,434r0,-972v-295,0,-443,-149,-443,-448v0,-296,148,-444,443,-444r510,0r0,90r-150,0r0,1774r-100,0r0,-1774r-160,0r0,1774r-100,0","w":953},"\u00df":{"d":"125,0r0,-959v0,-312,168,-468,504,-468v313,0,470,132,470,397r0,135v-203,35,-304,101,-304,198v0,47,61,89,185,127v124,38,186,121,186,248v0,215,-141,322,-424,322r-212,0r0,-210r214,0v98,0,147,-31,147,-92v0,-54,-58,-100,-175,-138v-117,-38,-176,-122,-176,-254v0,-139,96,-251,288,-336v0,-125,-69,-187,-206,-187v-155,0,-232,87,-232,261r0,956r-265,0","w":1216},"\u00ae":{"d":"404,-756r0,-536r229,0v102,0,153,43,153,128v0,70,-50,122,-150,155r184,253r-91,0r-171,-241r0,-45v103,-17,154,-56,154,-119v0,-49,-29,-74,-86,-74r-153,0r0,479r-69,0xm580,-664v240,0,360,-120,360,-361v0,-246,-120,-369,-360,-369v-238,0,-357,123,-357,369v0,241,119,361,357,361xm150,-1023v0,-285,143,-427,430,-427v289,0,433,142,433,427v0,277,-144,415,-433,415v-279,0,-422,-138,-430,-415","w":1163},"\u00a9":{"d":"580,-664v240,0,360,-120,360,-361v0,-246,-120,-369,-360,-369v-238,0,-357,123,-357,369v0,241,119,361,357,361xm150,-1023v0,-285,143,-427,430,-427v289,0,433,142,433,427v0,277,-144,415,-433,415v-279,0,-422,-138,-430,-415xm765,-830v-47,18,-96,27,-146,27v-151,0,-226,-76,-226,-229v0,-142,75,-213,226,-213v50,0,99,9,146,27r0,-62v-47,-15,-99,-23,-154,-23v-193,0,-289,90,-289,271v0,191,96,287,289,287v55,0,107,-8,154,-23r0,-62","w":1163},"\u2122":{"d":"661,-1430r0,71r-212,0r0,602r-87,0r0,-602r-212,0r0,-71r511,0xm750,-757r0,-673r110,0r248,561r242,-561r106,0r0,673r-78,0r0,-543r-239,543r-69,0r-243,-543r0,543r-77,0","w":1606},"\u00b4":{"d":"400,-1535r0,210r-400,150r0,-210","w":400},"\u00a8":{"d":"555,-1430r0,190r-215,0r0,-190r215,0xm215,-1430r0,190r-215,0r0,-190r215,0","w":555},"\u00c6":{"d":"25,0r607,-1430r1098,0r0,230r-738,0r160,360r543,0r0,230r-444,0r166,380r333,0r0,230r-528,0r-460,-1144r-220,544r250,0r68,210r-399,0r-154,390r-282,0","w":1885},"\u00d8":{"d":"138,0r1083,-1430r258,0r-1084,1430r-257,0xm818,-220v288,0,432,-166,432,-499v0,-327,-144,-491,-432,-491v-295,0,-443,164,-443,491v0,333,148,499,443,499xm100,-713v0,-485,239,-727,718,-727v471,0,707,242,707,727v0,482,-236,723,-707,723v-457,0,-697,-241,-718,-723","w":1625},"\u00b1":{"w":636},"\u00a5":{"d":"50,-1430r275,0r292,510r298,-510r285,0r-413,660r293,0r0,210r-336,0r0,111r336,0r0,210r-336,0r0,239r-265,0r0,-239r-309,0r0,-210r309,0r0,-111r-309,0r0,-210r267,0","w":1250},"\u00b5":{"d":"1110,-1050r0,1050r-207,0r-32,-134v-101,89,-199,134,-294,134v-93,0,-156,-20,-187,-60r0,440r-265,0r0,-1430r265,0r0,552v0,189,64,284,192,284v106,0,194,-44,263,-133r0,-703r265,0"},"\u03bc":{"d":"1110,-1050r0,1050r-207,0r-32,-134v-101,89,-199,134,-294,134v-93,0,-156,-20,-187,-60r0,440r-265,0r0,-1430r265,0r0,552v0,189,64,284,192,284v106,0,194,-44,263,-133r0,-703r265,0"},"\u00aa":{"w":576},"\u00ba":{"d":"593,-487v0,-362,171,-543,512,-543v183,0,334,47,453,140r0,772v0,39,27,58,80,58v97,0,145,-160,145,-480v0,-460,-229,-690,-686,-690v-476,0,-714,230,-714,690v0,473,215,710,645,710r0,210v-607,0,-910,-307,-910,-920v0,-600,321,-900,964,-900v644,0,966,300,966,900v0,460,-149,690,-447,690v-201,0,-301,-75,-301,-224v-85,49,-189,74,-312,74v-263,0,-395,-162,-395,-487xm1064,-810v-141,0,-211,107,-211,320v0,187,53,280,160,280v108,0,200,-27,275,-82r0,-468v-60,-33,-135,-50,-224,-50","w":451},"\u00e6":{"d":"511,-450v-114,0,-171,40,-171,120v0,80,50,120,150,120v101,0,183,-27,245,-82r0,-138v-73,-13,-148,-20,-224,-20xm1001,-656r438,0v-4,-123,-67,-184,-190,-184v-153,0,-236,61,-248,184xm164,-792r0,-205v112,-35,223,-53,334,-53v199,0,331,45,396,136v85,-91,212,-136,382,-136v325,0,457,203,394,608r-667,0v0,155,120,232,360,232v99,0,194,-10,285,-29r0,209v-97,20,-211,30,-341,30v-183,0,-323,-37,-418,-112v-129,75,-261,112,-398,112v-277,0,-416,-110,-416,-329v0,-221,146,-331,437,-331v69,0,145,7,226,22v0,-135,-81,-202,-242,-202v-113,0,-224,16,-332,48","w":1745},"\u00f8":{"d":"60,0r800,-1050r258,0r-801,1050r-257,0xm595,-200v177,0,265,-110,265,-329v0,-214,-88,-321,-265,-321v-177,0,-265,107,-265,321v0,219,88,329,265,329xm65,-525v0,-357,177,-535,530,-535v353,0,530,178,530,535v0,356,-177,534,-530,534v-352,0,-529,-178,-530,-534","w":1180},"\u00bf":{"d":"250,-805r0,-245r265,0r0,245r-265,0xm100,120v140,33,273,50,400,50v180,0,270,-60,270,-180v0,-153,-85,-230,-255,-230r-265,0r0,-440r265,0r0,230v333,0,500,147,500,440v0,260,-172,390,-515,390v-127,0,-260,-17,-400,-50r0,-210","w":1115},"\u00a1":{"d":"150,380r0,-1060r265,0r0,1060r-265,0xm150,-805r0,-245r265,0r0,245r-265,0","w":565},"\u00ac":{"w":1395},"\u00ab":{"d":"499,-525r258,-375r272,0r-258,375r258,375r-272,0xm50,-525r258,-375r272,0r-258,375r258,375r-272,0","w":1079},"\u00bb":{"d":"322,-150r-272,0r258,-375r-258,-375r272,0r258,375xm771,-150r-272,0r258,-375r-258,-375r272,0r258,375","w":1079},"\u2026":{"w":792},"\u00a0":{"w":498},"\u00c0":{"d":"25,0r607,-1430r285,0r620,1430r-285,0r-180,-390r-458,0r91,-230r297,0r-234,-537r-471,1157r-272,0xm972,-1698r0,210r-400,-150r0,-210","w":1562,"k":{"Y":175,"V":175,"T":125}},"\u00c3":{"d":"25,0r607,-1430r285,0r620,1430r-285,0r-180,-390r-458,0r91,-230r297,0r-234,-537r-471,1157r-272,0xm1020,-1839r0,210v-70,53,-150,60,-240,20v-90,-40,-177,-33,-260,20r0,-210v70,-53,150,-60,240,-20v90,40,177,33,260,-20","w":1562,"k":{"Y":175,"V":175,"T":125}},"\u00d5":{"d":"818,-220v288,0,432,-166,432,-499v0,-327,-144,-491,-432,-491v-295,0,-443,164,-443,491v0,333,148,499,443,499xm100,-713v0,-485,239,-727,718,-727v471,0,707,242,707,727v0,482,-236,723,-707,723v-457,0,-697,-241,-718,-723xm1060,-1839r0,210v-70,53,-150,60,-240,20v-90,-40,-177,-33,-260,20r0,-210v70,-53,150,-60,240,-20v90,40,177,33,260,-20","w":1625},"\u0152":{"d":"818,-230v281,0,422,-163,422,-489v0,-321,-141,-481,-422,-481v-295,0,-443,160,-443,481v0,326,148,489,443,489xm100,-713v0,-478,239,-717,718,-717r1257,0r0,230r-700,0v73,75,120,195,140,360r525,0r0,230r-525,0v-14,161,-58,288,-131,380r706,0r0,230r-1272,0v-457,0,-697,-238,-718,-713","w":2215},"\u0153":{"d":"576,-210v170,0,255,-106,255,-319v0,-207,-85,-311,-255,-311v-170,0,-255,104,-255,311v0,213,85,319,255,319xm1106,-616r408,0v9,-151,-54,-226,-190,-226v-133,0,-206,75,-218,226xm60,-522v0,-352,170,-528,510,-528v176,0,304,56,385,169v79,-113,208,-169,387,-169v345,0,485,209,420,628r-663,0v0,141,121,212,362,212v98,0,191,-9,279,-28r0,206v-91,21,-202,32,-333,32v-215,0,-365,-49,-451,-146v-77,97,-205,146,-386,146v-326,0,-496,-174,-510,-522","w":1837},"\u2013":{"w":684},"\u2014":{"w":894},"\u201c":{"d":"925,-1430r-150,435r-245,0r150,-435r245,0xm495,-1430r-150,435r-245,0r150,-435r245,0","w":1025},"\u201d":{"d":"345,-1430r150,435r-245,0r-150,-435r245,0xm775,-1430r150,435r-245,0r-150,-435r245,0","w":1025},"\u2018":{"d":"345,-1430r150,435r-245,0r-150,-435r245,0","w":595},"\u2019":{"d":"495,-1430r-150,435r-245,0r150,-435r245,0","w":595},"\u00f7":{"d":"100,-630r0,210r785,0r0,-210r-785,0xm605,-340r0,190r-225,0r0,-190r225,0xm605,-900r0,190r-225,0r0,-190r225,0","w":985},"\u00ff":{"w":393},"\u0178":{"w":526},"\u00a4":{"d":"216,-756r-116,-120r109,-112r125,121v72,-45,153,-68,242,-68v83,0,158,23,225,68r128,-121r110,112r-118,120v39,55,58,132,58,231v0,93,-23,170,-68,232r128,120r-110,112r-128,-123v-72,40,-150,60,-233,60v-83,0,-164,-20,-243,-60r-116,123r-109,-112r116,-120v-38,-69,-57,-146,-57,-232v0,-91,19,-168,57,-231xm322,-529v0,164,82,246,245,246v163,0,245,-82,245,-246v0,-163,-82,-244,-245,-244v-163,0,-245,81,-245,244","w":1139},"\u00b7":{"d":"100,-525v0,-83,42,-125,125,-125v83,0,125,42,125,125v0,83,-42,125,-125,125v-83,0,-125,-42,-125,-125","w":450},"\u2219":{"d":"100,-525v0,-83,42,-125,125,-125v83,0,125,42,125,125v0,83,-42,125,-125,125v-83,0,-125,-42,-125,-125","w":450},"\u00c2":{"d":"25,0r607,-1430r285,0r620,1430r-285,0r-180,-390r-458,0r91,-230r297,0r-234,-537r-471,1157r-272,0xm690,-1834r150,0r175,260r-180,0r-70,-130r-70,130r-180,0","w":1562,"k":{"Y":175,"V":175,"T":125}},"\u00ca":{"d":"1089,-1430r0,228r-676,0r0,360r642,0r0,237r-645,0r0,375r693,0r0,230r-953,0r0,-1430r939,0xm551,-1834r150,0r175,260r-180,0r-70,-130r-70,130r-180,0","w":1238},"\u00c1":{"d":"25,0r607,-1430r285,0r620,1430r-285,0r-180,-390r-458,0r91,-230r297,0r-234,-537r-471,1157r-272,0xm972,-1848r0,210r-400,150r0,-210","w":1562,"k":{"Y":175,"V":175,"T":125}},"\u00cb":{"d":"150,-1430r0,1430r953,0r0,-230r-693,0r0,-375r645,0r0,-237r-642,0r0,-360r676,0r0,-228r-939,0xm887,-1789r0,190r-215,0r0,-190r215,0xm547,-1789r0,190r-215,0r0,-190r215,0","w":1238},"\u00c8":{"d":"150,-1430r0,1430r953,0r0,-230r-693,0r0,-375r645,0r0,-237r-642,0r0,-360r676,0r0,-228r-939,0xm821,-1698r0,210r-400,-150r0,-210","w":1238},"\u00cd":{"d":"415,-1430r0,1430r-265,0r0,-1430r265,0xm485,-1848r0,210r-400,150r0,-210","w":565},"\u00ce":{"d":"415,-1430r0,1430r-265,0r0,-1430r265,0xm210,-1834r150,0r175,260r-180,0r-70,-130r-70,130r-180,0","w":565},"\u00cf":{"d":"389,-1430r0,1430r-265,0r0,-1430r265,0xm534,-1789r0,190r-214,0r0,-190r214,0xm194,-1789r0,190r-214,0r0,-190r214,0","w":515},"\u00cc":{"d":"415,-1430r0,1430r-265,0r0,-1430r265,0xm485,-1698r0,210r-400,-150r0,-210","w":565},"\u00d3":{"d":"818,-220v288,0,432,-166,432,-499v0,-327,-144,-491,-432,-491v-295,0,-443,164,-443,491v0,333,148,499,443,499xm100,-713v0,-485,239,-727,718,-727v471,0,707,242,707,727v0,482,-236,723,-707,723v-457,0,-697,-241,-718,-723xm1006,-1848r0,210r-400,150r0,-210","w":1625},"\u00d4":{"d":"818,-220v288,0,432,-166,432,-499v0,-327,-144,-491,-432,-491v-295,0,-443,164,-443,491v0,333,148,499,443,499xm100,-713v0,-485,239,-727,718,-727v471,0,707,242,707,727v0,482,-236,723,-707,723v-457,0,-697,-241,-718,-723xm751,-1834r150,0r175,260r-180,0r-70,-130r-70,130r-180,0","w":1625},"\u00d2":{"d":"818,-220v288,0,432,-166,432,-499v0,-327,-144,-491,-432,-491v-295,0,-443,164,-443,491v0,333,148,499,443,499xm100,-713v0,-485,239,-727,718,-727v471,0,707,242,707,727v0,482,-236,723,-707,723v-457,0,-697,-241,-718,-723xm1006,-1698r0,210r-400,-150r0,-210","w":1625},"\u00da":{"d":"150,-562r0,-868r265,0r0,868v0,228,117,342,350,342v233,0,350,-114,350,-342r0,-868r265,0r0,868v0,381,-205,572,-615,572v-410,0,-615,-191,-615,-572xm966,-1848r0,210r-400,150r0,-210","w":1530},"\u00db":{"d":"150,-562r0,-868r265,0r0,868v0,228,117,342,350,342v233,0,350,-114,350,-342r0,-868r265,0r0,868v0,381,-205,572,-615,572v-410,0,-615,-191,-615,-572xm690,-1834r150,0r175,260r-180,0r-70,-130r-70,130r-180,0","w":1530},"\u00d9":{"d":"150,-562r0,-868r265,0r0,868v0,228,117,342,350,342v233,0,350,-114,350,-342r0,-868r265,0r0,868v0,381,-205,572,-615,572v-410,0,-615,-191,-615,-572xm966,-1698r0,210r-400,-150r0,-210","w":1530},"\u00af":{"w":360},"\u02c9":{"w":360},"\u00b8":{"d":"0,244v72,33,144,50,216,50v72,0,108,-18,108,-55v0,-29,-28,-44,-83,-44r-183,0r131,-270r165,0r-81,152v143,0,214,54,214,162v0,122,-90,183,-271,183v-72,0,-144,-17,-216,-50r0,-128","w":487},"\u0160":{"w":621},"\u0161":{"w":342},"\u00a6":{"w":201},"\u00d0":{"w":663},"\u00f0":{"w":483},"\u00dd":{"w":526},"\u00fd":{"w":393},"\u00de":{"w":576},"\u00fe":{"w":348},"\u00ad":{"w":636},"\u2212":{"w":636},"\u00d7":{"w":636},"\u00b9":{"w":300},"\u00b2":{"w":300},"\u00b3":{"w":300},"\u00bd":{"w":786},"\u00bc":{"w":786},"\u00be":{"w":786},"\u0141":{"d":"150,-632r658,-484r0,230r-658,484r0,-230xm565,-1430r0,1200r668,0r0,230r-933,0r0,-1430r265,0","w":1333,"k":{"\u00d2":150,"\u00d4":150,"\u00d3":150,"\u0152":150,"\u00d5":150,"\u00d8":150,"\u00d6":150,"\u00c7":150,"Y":288,"V":300,"T":300,"Q":150,"O":150,"G":150,"C":150}},"\u0142":{"d":"0,-632r565,-420r0,230r-565,420r0,-230xm415,-1430r0,1430r-265,0r0,-1430r265,0","w":565},"\u017d":{"w":690},"\u017e":{"w":462},"\u0131":{"w":234},"\u017b":{"d":"145,-1430r0,230r774,0r-794,970r0,230r1040,0r0,-230r-741,0r761,-970r0,-230r-1040,0xm780,-1789r0,220r-245,0r0,-220r245,0","w":1250},"\u017c":{"d":"120,-1050r810,0r0,210r-537,640r537,0r0,200r-830,0r0,-200r545,-640r-525,0r0,-210xm649,-1430r0,220r-235,0r0,-220r235,0","w":990},"\u0179":{"d":"145,-1430r0,230r774,0r-794,970r0,230r1040,0r0,-230r-741,0r761,-970r0,-230r-1040,0xm871,-1843r0,210r-400,150r0,-210","w":1250},"\u017a":{"d":"120,-1050r810,0r0,210r-537,640r537,0r0,200r-830,0r0,-200r545,-640r-525,0r0,-210xm718,-1535r0,210r-400,150r0,-210","w":990},"\u0104":{"d":"25,0r607,-1430r285,0r620,1430r-285,0r-180,-390r-458,0r91,-230r297,0r-234,-537r-471,1157r-272,0xm1537,0v-159,64,-238,130,-238,198v0,45,28,68,85,68v57,0,102,-7,137,-20r0,160v-41,13,-90,20,-149,20v-174,0,-261,-68,-261,-203v0,-87,47,-162,141,-223r285,0","w":1562,"k":{"Y":175,"V":175,"T":125}},"\u0105":{"d":"1040,0v-135,64,-202,130,-202,198v0,45,28,68,85,68v57,0,102,-7,137,-20r0,160v-41,13,-90,20,-149,20v-174,0,-261,-68,-261,-203v0,-87,54,-162,161,-223r229,0xm75,-327v0,-215,152,-323,456,-323v91,0,173,7,244,20r0,-69v0,-94,-91,-141,-273,-141v-115,0,-229,17,-342,50r0,-210v113,-33,227,-50,342,-50v359,0,538,115,538,346r0,704r-229,0r-19,-74v-91,49,-189,74,-292,74v-283,0,-425,-109,-425,-327xm531,-450v-127,0,-191,40,-191,120v0,80,53,120,160,120v108,0,200,-27,275,-82r0,-138v-67,-13,-148,-20,-244,-20","w":1165},"\u0106":{"d":"1290,-300v-123,53,-257,80,-400,80v-343,0,-515,-172,-515,-515v0,-317,172,-475,515,-475v143,0,277,27,400,80r0,-240v-123,-47,-263,-70,-420,-70v-513,0,-770,235,-770,705v0,497,257,745,770,745v157,0,297,-23,420,-70r0,-240xm971,-1843r0,210r-400,150r0,-210","w":1390},"\u0107":{"d":"930,-240v-87,20,-177,30,-270,30v-223,0,-335,-112,-335,-335v0,-197,112,-295,335,-295v93,0,183,10,270,30r0,-210v-87,-20,-183,-30,-290,-30v-387,0,-580,168,-580,505v0,363,193,545,580,545v107,0,203,-10,290,-30r0,-210xm749,-1535r0,210r-400,150r0,-210","w":980},"\u0143":{"d":"150,0r0,-1430r265,0r795,1022r0,-1022r255,0r0,1430r-265,0r-795,-1044r0,1044r-255,0xm1038,-1843r0,210r-400,150r0,-210","w":1615},"\u0144":{"d":"125,0r0,-1050r205,0r33,134v127,-89,255,-134,384,-134v242,0,363,130,363,391r0,659r-265,0r0,-662v0,-116,-58,-174,-173,-174v-93,0,-187,44,-282,133r0,703r-265,0xm823,-1535r0,210r-400,150r0,-210"},"\u015a":{"d":"170,-60r0,-240v143,53,305,80,486,80v219,0,329,-73,329,-220v0,-107,-67,-160,-202,-160r-244,0v-293,0,-439,-133,-439,-400v0,-293,208,-440,625,-440v160,0,312,23,455,70r0,240v-143,-53,-295,-80,-455,-80v-240,0,-360,70,-360,210v0,107,58,160,174,160r244,0v311,0,467,133,467,400v0,300,-198,450,-594,450v-181,0,-343,-23,-486,-70xm872,-1843r0,210r-400,150r0,-210","w":1310,"k":{"S":96}},"\u015b":{"d":"125,-50r0,-220v117,47,251,70,404,70v114,0,171,-37,171,-110v0,-67,-38,-100,-115,-100r-190,0v-213,0,-320,-107,-320,-320v0,-220,156,-330,467,-330v132,0,256,20,373,60r0,220v-117,-47,-243,-70,-380,-70v-143,0,-215,37,-215,110v0,67,42,100,125,100r180,0v227,0,340,107,340,320v0,220,-149,330,-446,330v-146,0,-277,-20,-394,-60xm700,-1535r0,210r-400,150r0,-210","w":1025},"\u0118":{"d":"1089,-1430r0,228r-676,0r0,360r642,0r0,237r-645,0r0,375r693,0r0,230r-953,0r0,-1430r939,0xm1103,0v-135,64,-202,130,-202,198v0,45,28,68,85,68v57,0,102,-7,137,-20r0,160v-41,13,-90,20,-149,20v-174,0,-261,-68,-261,-203v0,-87,54,-162,161,-223r229,0","w":1238},"\u0119":{"d":"1012,-422r-687,0v0,141,115,212,346,212v106,0,212,-10,318,-30r0,210v-93,20,-212,30,-358,30v-381,0,-571,-179,-571,-537v0,-342,174,-513,523,-513v348,0,491,209,429,628xm325,-616r438,0v9,-151,-61,-226,-210,-226v-140,0,-216,75,-228,226xm989,-30v-135,84,-202,160,-202,228v0,45,28,68,85,68v57,0,102,-7,137,-20r0,160v-41,13,-90,20,-149,20v-174,0,-261,-68,-261,-203v0,-87,54,-172,161,-253r229,0","w":1086}}});
