/*!
 * The following copyright notice may not be removed under any circumstances.
 * 
 * Copyright:
 * © 2008 Bernd Montag - feel free to distribute - feel free to use personal and
 * commercial - read attached textfile for restrictions
 */
Cufon.registerFont({"w":405,"face":{"font-family":"sansationlight","font-weight":300,"font-stretch":"normal","units-per-em":"2048","panose-1":"2 0 5 3 0 0 0 2 0 4","ascent":"1638","descent":"-410","bbox":"-50 -1834 2090 434","underline-thickness":"90","underline-position":"-119","unicode-range":"U+0020-U+2122"},"glyphs":{" ":{"w":485},"!":{"d":"255,-1430r0,1060r-105,0r0,-1060r105,0xm255,-105r0,105r-105,0r0,-105r105,0"},"\"":{"d":"505,-1430r-30,435r-55,0r-30,-435r115,0xm215,-1430r-30,435r-55,0r-30,-435r115,0","w":605},"#":{"d":"723,-906r-110,438r457,0r110,-438r-457,0xm393,5r99,-379r-392,0r20,-94r392,0r109,-438r-401,0r20,-94r402,0r110,-425r100,0r-110,425r458,0r112,-430r100,0r-111,430r482,0r-20,94r-482,0r-109,438r491,0r-20,94r-492,0r-100,379r-100,0r100,-379r-458,0r-100,379r-100,0","w":1883},"$":{"d":"150,-240r0,-100v117,40,238,60,364,60v207,0,311,-70,311,-210v0,-113,-75,-170,-225,-170r-150,0v-233,0,-350,-93,-350,-280v0,-187,130,-287,390,-300r0,-190r95,0r0,190v127,7,232,23,315,50r0,100v-117,-40,-231,-60,-343,-60v-235,0,-352,70,-352,210v0,113,82,170,245,170r150,0v233,0,350,93,350,280v0,187,-122,287,-365,300r0,190r-95,0r0,-190v-143,-7,-257,-23,-340,-50","w":1050},"%":{"d":"225,0r-125,0r1017,-1430r125,0xm378,-1005v116,0,174,-59,174,-177v0,-116,-58,-174,-174,-174v-119,0,-178,58,-178,174v0,118,59,177,178,177xm100,-1180v0,-173,93,-260,278,-260v183,0,274,87,274,260v0,173,-91,259,-274,259v-185,0,-278,-86,-278,-259xm968,-74v116,0,174,-59,174,-177v0,-116,-58,-174,-174,-174v-119,0,-178,58,-178,174v0,118,59,177,178,177xm690,-249v0,-173,93,-260,278,-260v183,0,274,87,274,260v0,173,-91,259,-274,259v-185,0,-278,-86,-278,-259","w":1342},"&":{"d":"323,-727v-149,-43,-223,-149,-223,-318v0,-257,170,-385,510,-385v123,0,243,17,360,50r0,90v-123,-33,-242,-50,-357,-50v-272,0,-408,97,-408,290v0,187,112,280,335,280r468,0r0,-172r73,0r22,172r172,0r0,90r-162,0r0,190v0,329,-173,493,-518,493v-330,0,-495,-132,-495,-397v0,-165,74,-276,223,-333xm542,-680v-225,0,-337,94,-337,281v0,206,127,309,381,309v281,0,422,-134,422,-402r0,-188r-466,0","w":1275},"'":{"d":"215,-1430r-30,435r-55,0r-30,-435r115,0","w":315},"(":{"d":"405,-1430v-133,301,-200,603,-200,905v0,302,67,604,200,905r-105,0v-133,-301,-200,-603,-200,-905v0,-302,67,-604,200,-905r105,0","w":480},")":{"d":"180,-1430v133,301,200,603,200,905v0,302,-67,604,-200,905r-105,0v133,-301,200,-603,200,-905v0,-302,-67,-604,-200,-905r105,0","w":480},"*":{"d":"328,-1430r156,0r-30,232r209,-101r48,147r-228,43r159,170r-123,92r-113,-205r-113,204r-124,-89r161,-171r-230,-42r48,-150r211,103","w":810},"+":{"d":"430,-570r0,-330r100,0r0,330r320,0r0,90r-320,0r0,330r-100,0r0,-330r-330,0r0,-90r330,0","w":950},",":{"d":"355,-185r-150,435r-105,0r150,-435r105,0","w":455},"-":{"d":"600,-570r0,90r-500,0r0,-90r500,0","w":700},"\u2010":{"d":"600,-570r0,90r-500,0r0,-90r500,0","w":700},".":{"d":"235,-125r0,125r-135,0r0,-125r135,0","w":335},"\/":{"d":"140,0r-115,0r725,-1430r115,0","w":965},"0":{"d":"693,-80v328,0,492,-213,492,-639v0,-421,-164,-631,-492,-631v-335,0,-503,210,-503,631v0,426,168,639,503,639xm75,-713v0,-485,206,-727,618,-727v405,0,607,242,607,727v0,482,-202,723,-607,723v-391,0,-597,-241,-618,-723","w":1375},"1":{"d":"250,0r0,-1301r-150,0r0,-59r255,-70r0,1430r-105,0","w":585},"2":{"d":"100,0r0,-90v583,-405,875,-715,875,-930v0,-220,-140,-330,-420,-330v-147,0,-285,37,-415,110r0,-100v130,-67,268,-100,415,-100v350,0,525,140,525,420v0,247,-275,557,-824,930r824,0r0,90r-980,0","w":1180},"3":{"d":"100,-1380v133,-40,267,-60,400,-60v343,0,515,130,515,390v0,171,-79,279,-238,325v159,43,238,152,238,325v0,273,-172,410,-515,410v-133,0,-267,-20,-400,-60r0,-100v133,47,267,70,400,70v273,0,410,-107,410,-320v0,-187,-111,-280,-332,-280r-328,0r0,-90r325,0v223,0,335,-93,335,-280v0,-200,-137,-300,-410,-300v-133,0,-267,23,-400,70r0,-100","w":1115},"4":{"d":"902,0r-105,0r0,-420r-722,0r0,-90r395,-920r104,0r-386,920r609,0r0,-588r105,0r0,588r148,46r0,44r-148,0r0,420","w":1125,"k":{"7":150}},"5":{"d":"150,-1430r854,0r0,80r-766,0r-44,512v131,-15,243,-22,336,-22v380,0,570,133,570,400v0,313,-183,470,-550,470v-153,0,-297,-20,-430,-60r0,-100v133,47,277,70,430,70v297,0,445,-127,445,-380v0,-213,-155,-320,-465,-320v-157,0,-300,17,-430,50","w":1175},"6":{"d":"100,-530v0,-311,169,-625,508,-943r66,77v-195,164,-336,360,-424,589v127,-42,249,-63,366,-63v349,0,524,133,524,400v0,320,-184,480,-553,480v-325,0,-487,-180,-487,-540xm596,-80v295,0,443,-130,443,-390v0,-207,-144,-310,-432,-310v-136,0,-264,23,-384,68v-19,67,-28,122,-28,166v0,311,134,466,401,466","w":1240,"k":{"9":96,"7":150}},"7":{"d":"100,-1430r950,0r0,90r-572,1340r-131,0r592,-1340r-839,0r0,-90","w":1125,"k":{"6":150,"4":150}},"8":{"d":"100,-424v0,-162,84,-269,252,-321v-141,-57,-212,-168,-212,-333v0,-244,160,-366,480,-366v320,0,480,122,480,366v0,165,-72,276,-217,333v171,52,257,159,257,321v0,289,-173,434,-520,434v-347,0,-520,-145,-520,-434xm995,-1058v0,-195,-128,-292,-383,-292v-245,0,-367,97,-367,292v0,179,127,268,380,268v247,0,370,-89,370,-268xm1035,-418v0,-188,-141,-282,-423,-282v-271,0,-407,94,-407,282v0,225,140,338,420,338v273,0,410,-113,410,-338","w":1240},"9":{"d":"1140,-904v0,311,-169,625,-508,943r-66,-77v208,-184,346,-377,414,-579v-135,62,-264,93,-386,93v-329,0,-494,-147,-494,-440v0,-320,178,-480,533,-480v338,0,507,180,507,540xm624,-1354v-282,0,-423,130,-423,390v0,227,131,340,392,340v176,0,317,-40,424,-119v12,-53,18,-101,18,-145v0,-311,-137,-466,-411,-466","w":1190,"k":{"7":96}},":":{"d":"235,-1050r0,125r-135,0r0,-125r135,0xm235,-125r0,125r-135,0r0,-125r135,0","w":385},";":{"d":"355,-185r-150,435r-105,0r150,-435r105,0xm375,-1050r0,125r-135,0r0,-125r135,0","w":525},"<":{"d":"100,-470r0,-110r900,-420r0,110r-813,369r813,361r0,110","w":1100},"=":{"d":"850,-420r0,90r-750,0r0,-90r750,0xm850,-720r0,90r-750,0r0,-90r750,0","w":950},">":{"d":"100,-50r0,-110r813,-361r-813,-369r0,-110r900,420r0,110","w":1100},"?":{"d":"290,-105r0,105r105,0r0,-105r-105,0xm100,-1380v140,-33,273,-50,400,-50v343,0,515,130,515,390v0,260,-166,390,-497,390r-123,0r0,280r-105,0r0,-370r225,0v263,0,395,-100,395,-300v0,-200,-137,-300,-410,-300v-127,0,-260,17,-400,50r0,-90","w":1115},"@":{"d":"625,-327v0,-195,142,-293,426,-293v105,0,223,7,354,20r0,-129v0,-154,-121,-231,-363,-231v-108,0,-219,17,-332,50r0,-90v113,-33,224,-50,332,-50v312,0,468,112,468,336r0,626v0,99,33,148,100,148v190,0,285,-200,285,-600v0,-540,-269,-810,-806,-810v-556,0,-834,270,-834,810v0,553,255,830,765,830r0,90v-580,0,-870,-307,-870,-920v0,-600,308,-900,924,-900v617,0,926,300,926,900v0,460,-142,690,-427,690v-107,0,-161,-75,-161,-224v-138,49,-269,74,-392,74v-263,0,-395,-109,-395,-327xm1051,-530v-214,0,-321,67,-321,200v0,160,97,240,290,240v128,0,256,-27,385,-82r0,-338v-127,-13,-245,-20,-354,-20","w":2150},"A":{"d":"25,0r647,-1430r125,0r650,1430r-125,0r-210,-480r-608,0r31,-90r537,0r-344,-778r-591,1348r-112,0","w":1472,"k":{"Y":175,"V":175,"T":125}},"B":{"d":"150,0r0,-1430r610,0v272,0,408,111,408,333v0,163,-99,279,-296,349v209,35,314,147,314,335v0,275,-149,413,-447,413r-589,0xm728,-90v231,0,346,-107,346,-320v0,-189,-144,-283,-433,-283r-80,0r0,-71v333,-30,500,-139,500,-326v0,-167,-103,-250,-308,-250r-498,0r0,1250r473,0","w":1310},"C":{"d":"1250,-50v-130,40,-263,60,-400,60v-500,0,-750,-248,-750,-745v0,-470,250,-705,750,-705v137,0,270,20,400,60r0,90v-130,-40,-257,-60,-380,-60v-443,0,-665,205,-665,615v0,437,222,655,665,655v123,0,250,-20,380,-60r0,90","w":1385},"D":{"d":"720,-90v377,0,565,-221,565,-664v0,-391,-188,-586,-565,-586r-465,0r0,1250r465,0xm150,0r0,-1430r580,0v447,0,670,225,670,676v0,503,-223,754,-670,754r-580,0","w":1500},"E":{"d":"1089,-1430r0,90r-834,0r0,570r800,0r0,90r-800,0r0,590r848,0r0,90r-953,0r0,-1430r939,0","w":1228},"F":{"d":"1089,-1430r0,90r-834,0r0,570r800,0r0,90r-800,0r0,680r-105,0r0,-1430r939,0","w":1239,"k":{"\u0104":150,"\u00c1":150,"\u00c2":150,"\u00c3":150,"\u00c0":150,"\u00c6":150,"\u00c5":150,"\u00c4":150,"A":150}},"G":{"d":"1250,-56v-122,44,-250,66,-383,66v-511,0,-767,-248,-767,-745v0,-470,250,-705,750,-705v137,0,270,20,400,60r0,90v-130,-40,-257,-60,-380,-60v-443,0,-665,205,-665,615v0,437,215,655,646,655v88,0,186,-15,294,-44r0,-526r105,0r0,594","w":1385},"H":{"d":"150,0r0,-1430r105,0r0,660r975,0r0,-660r105,0r0,1430r-105,0r0,-680r-975,0r0,680r-105,0","w":1485},"I":{"d":"255,-1430r0,1430r-105,0r0,-1430r105,0"},"J":{"d":"480,-1430r0,1018v0,275,-152,412,-455,412r0,-90v233,0,350,-107,350,-322r0,-1018r105,0","w":630},"K":{"d":"255,-1430r0,1430r-105,0r0,-1430r105,0xm1106,-1430r-661,667r745,763r-177,0r-663,-698r0,-112r622,-620r134,0","w":1263,"k":{"\u00d2":150,"\u00d4":150,"\u00d3":150,"\u0152":150,"\u00d5":150,"\u00d8":150,"\u00d6":150,"\u00c7":150,"Q":150,"O":150,"G":150,"C":150}},"L":{"d":"255,-1430r0,1340r828,0r0,90r-933,0r0,-1430r105,0","w":1183,"k":{"\u00d2":150,"\u00d4":150,"\u00d3":150,"\u0152":150,"\u00d5":150,"\u00d8":150,"\u00d6":150,"\u00c7":150,"Y":288,"V":300,"T":300,"Q":150,"O":150,"G":150,"C":150}},"M":{"d":"150,0r0,-1430r105,0r645,1307r605,-1307r95,0r0,1430r-95,0r0,-1237r-568,1237r-86,0r-606,-1247r0,1247r-95,0","w":1750},"N":{"d":"150,0r0,-1430r135,0r955,1242r0,-1242r95,0r0,1430r-85,0r-1005,-1312r0,1312r-95,0","w":1485},"O":{"d":"818,-80v395,0,592,-213,592,-639v0,-421,-197,-631,-592,-631v-402,0,-603,210,-603,631v0,426,201,639,603,639xm100,-713v0,-485,239,-727,718,-727v471,0,707,242,707,727v0,482,-236,723,-707,723v-479,0,-718,-241,-718,-723","w":1625},"P":{"d":"150,0r0,-1430r610,0v272,0,408,114,408,343v0,258,-190,418,-569,479r-28,-86v320,-50,480,-178,480,-385v0,-172,-103,-258,-308,-258r-488,0r0,1337r-105,0","w":1243,"k":{"\u0104":150,"\u00c1":150,"\u00c2":150,"\u00c3":150,"\u00c0":150,"\u00c6":150,"\u00c5":150,"\u00c4":150,"A":150}},"Q":{"d":"818,-90v395,0,592,-210,592,-629v0,-421,-197,-631,-592,-631v-402,0,-603,210,-603,631v0,419,201,629,603,629xm100,-713v0,-485,239,-727,718,-727v471,0,707,242,707,727v0,399,-178,637,-535,716r262,300r-94,68r-310,-361v-499,0,-748,-241,-748,-723","w":1625},"R":{"d":"150,0r0,-1430r590,0v259,0,388,114,388,343v0,198,-140,338,-421,421r483,666r-144,0r-475,-663r0,-71v293,-43,440,-158,440,-345v0,-172,-96,-258,-288,-258r-468,0r0,1337r-105,0","w":1215},"S":{"d":"140,-50r0,-100v150,47,315,70,496,70v293,0,439,-117,439,-350v0,-160,-97,-240,-292,-240r-314,0v-266,0,-399,-117,-399,-350v0,-280,192,-420,575,-420v160,0,315,20,465,60r0,90v-150,-40,-305,-60,-465,-60v-313,0,-470,110,-470,330v0,167,98,250,294,250r314,0v265,0,397,113,397,340v0,293,-181,440,-544,440v-181,0,-346,-20,-496,-60","w":1310,"k":{"\u015a":96,"S":96}},"T":{"d":"1075,-1430r0,90r-490,0r0,1340r-105,0r0,-1340r-480,0r0,-90r1075,0","w":1075,"k":{"\u0119":150,"\u015b":150,"\u0144":150,"\u0107":150,"\u0105":150,"\u0104":125,"\u017a":150,"\u017c":150,"\u00c1":125,"\u00c2":125,"\u0153":150,"\u00c3":125,"\u00c0":125,"\u00f8":150,"\u00e6":150,"\u00c6":125,"\u00fc":150,"\u00fb":150,"\u00f9":150,"\u00fa":150,"\u00f5":150,"\u00f6":150,"\u00f4":150,"\u00f2":150,"\u00f3":150,"\u00eb":150,"\u00ea":150,"\u00e8":150,"\u00e9":150,"\u00e7":150,"\u00e5":150,"\u00e3":150,"\u00e4":150,"\u00e2":150,"\u00e0":150,"\u00e1":150,"\u00c5":125,"\u00c4":125,"z":150,"y":150,"x":150,"w":150,"v":150,"u":150,"t":150,"s":150,"r":150,"q":150,"p":150,"o":150,"n":150,"m":140,"g":150,"e":150,"d":150,"c":150,"a":150,"A":125}},"U":{"d":"150,-552r0,-878r105,0r0,878v0,315,157,472,470,472v313,0,470,-157,470,-472r0,-878r105,0r0,878v0,375,-192,562,-575,562v-383,0,-575,-187,-575,-562","w":1450},"V":{"d":"1447,-1430r-627,1430r-165,0r-630,-1430r115,0r601,1349r594,-1349r112,0","w":1472,"k":{"\u0119":125,"\u015b":125,"\u0144":96,"\u0105":100,"\u0104":175,"\u017a":96,"\u017c":96,"\u00c1":175,"\u00c2":175,"\u0153":125,"\u00c3":175,"\u00c0":175,"\u00f8":125,"\u00e6":100,"\u00c6":175,"\u00f5":125,"\u00f6":125,"\u00f4":125,"\u00f2":125,"\u00f3":125,"\u00f1":96,"\u00eb":125,"\u00ea":125,"\u00e8":125,"\u00e9":125,"\u00e7":125,"\u00e5":100,"\u00e3":100,"\u00e4":100,"\u00e2":100,"\u00e0":100,"\u00e1":100,"\u00c5":175,"\u00c4":175,"z":96,"s":125,"r":96,"q":125,"p":96,"o":125,"n":96,"m":96,"g":125,"e":125,"d":125,"c":125,"a":100,"A":175}},"W":{"d":"25,-1430r99,0r243,1329r462,-1329r105,0r475,1342r275,-1342r91,0r-289,1430r-152,0r-452,-1306r-453,1306r-149,0","w":1849},"X":{"d":"25,-1430r125,0r1125,1430r-125,0xm150,0r-125,0r1125,-1430r125,0","w":1300},"Y":{"d":"25,-1430r125,0r463,830r477,-830r115,0r-536,930r0,500r-105,0r0,-500","w":1230,"k":{"\u0119":150,"\u015b":150,"\u0144":96,"\u0107":150,"\u0105":150,"\u0104":175,"\u017a":96,"\u017c":96,"\u00c1":175,"\u00c2":175,"\u0153":150,"\u00c3":175,"\u00c0":175,"\u00f8":150,"\u00e6":150,"\u00c6":175,"\u00fc":96,"\u00fb":96,"\u00f9":96,"\u00fa":96,"\u00f5":150,"\u00f6":150,"\u00f4":150,"\u00f2":150,"\u00f3":150,"\u00f1":96,"\u00eb":150,"\u00ea":150,"\u00e8":150,"\u00e9":150,"\u00e7":150,"\u00e5":150,"\u00e3":150,"\u00e4":150,"\u00e2":150,"\u00e0":150,"\u00e1":150,"\u00c5":175,"\u00c4":175,"z":96,"x":96,"u":96,"s":150,"r":96,"q":150,"p":96,"o":150,"n":96,"m":96,"g":150,"e":150,"d":150,"c":150,"a":150,"A":175}},"Z":{"d":"1125,-1430r0,90r-867,1250r847,0r0,90r-980,0r0,-80r894,-1260r-874,0r0,-90r980,0","w":1250},"[":{"d":"520,-1430r0,90r-275,0r0,1630r275,0r0,90r-370,0r0,-1810r370,0","w":545},"\\":{"d":"25,-1430r115,0r725,1430r-115,0","w":965},"]":{"d":"395,-1430r0,1810r-370,0r0,-90r275,0r0,-1630r-275,0r0,-90r370,0","w":545},"^":{"d":"450,-1430r150,0r400,730r-110,0r-369,-673r-361,673r-110,0","w":1050},"_":{"d":"1025,0r0,90r-1000,0r0,-90r1000,0","w":1050},"`":{"d":"400,-1355r0,150r-400,-150r0,-150","w":400},"a":{"d":"100,-317v0,-202,149,-303,446,-303v105,0,216,7,334,20r0,-129v0,-154,-121,-231,-363,-231v-108,0,-219,17,-332,50r0,-90v113,-33,224,-50,332,-50v312,0,468,112,468,336r0,714r-64,0r-34,-74v-138,49,-269,74,-392,74v-263,0,-395,-106,-395,-317xm546,-530v-227,0,-341,70,-341,210v0,153,97,230,290,230v128,0,256,-27,385,-82r0,-338v-113,-13,-225,-20,-334,-20","w":1135},"b":{"d":"255,-123v114,19,214,29,301,29v287,0,430,-153,430,-459v0,-265,-132,-397,-397,-397v-96,0,-207,18,-334,54r0,773xm150,-1430r105,0r0,430v133,-33,244,-50,335,-50v332,0,498,168,498,504v0,364,-174,546,-523,546v-151,0,-289,-14,-415,-43r0,-1387","w":1188},"c":{"d":"950,-30v-87,20,-180,30,-280,30v-380,0,-570,-182,-570,-545v0,-337,190,-505,570,-505v100,0,193,10,280,30r0,90v-87,-20,-173,-30,-260,-30v-317,0,-475,138,-475,415v0,303,158,455,475,455v87,0,173,-10,260,-30r0,90","w":1025},"d":{"d":"935,-896v-128,-36,-240,-54,-336,-54v-258,0,-387,132,-387,397v0,306,129,459,387,459v96,0,208,-13,336,-39r0,-763xm1040,-63v-127,42,-284,63,-471,63v-313,0,-469,-182,-469,-546v0,-336,166,-504,498,-504v91,0,203,17,337,50r0,-430r105,0r0,1367","w":1190},"e":{"d":"992,-502r-787,0v0,275,162,412,486,412v93,0,185,-10,278,-30r0,90v-93,20,-205,30,-338,30v-354,0,-531,-179,-531,-537v0,-342,168,-513,503,-513v308,0,438,183,389,548xm205,-596r688,0v16,-244,-91,-366,-320,-366v-233,0,-356,122,-368,366","w":1126},"f":{"d":"150,5r0,-1106v0,-254,131,-381,392,-381v86,0,164,13,234,40r0,90v-66,-27,-144,-40,-235,-40v-191,0,-286,78,-286,233r0,109r395,0r0,90r-395,0r0,961","w":721},"g":{"d":"932,-932v-117,-16,-222,-24,-315,-24v-277,0,-415,141,-415,423v0,289,132,433,397,433v96,0,207,-18,333,-54r0,-778xm1037,0v0,253,-161,380,-483,380v-129,0,-244,-17,-344,-50r0,-90v102,33,217,50,346,50v251,0,376,-97,376,-290r0,-50v-132,33,-243,50,-334,50v-332,0,-498,-177,-498,-531v0,-346,175,-519,525,-519v142,0,279,14,412,43r0,1007","w":1187},"h":{"d":"150,0r0,-1430r105,0r0,494v163,-76,308,-114,437,-114v229,0,343,130,343,391r0,659r-105,0r0,-702v0,-169,-98,-254,-293,-254v-106,0,-233,44,-382,133r0,823r-105,0","w":1185},"i":{"d":"255,-1430r0,100r-105,0r0,-100r105,0xm255,-1050r0,1050r-105,0r0,-1050r105,0"},"j":{"d":"255,-1430r0,100r-105,0r0,-100r105,0xm255,-1050r0,970v0,212,-52,361,-155,448r-75,-65v83,-57,125,-184,125,-383r0,-970r105,0"},"k":{"d":"150,0r0,-1430r105,0r0,462v129,-55,266,-82,413,-82v248,0,372,101,372,303v0,153,-110,258,-330,314r356,433r-154,0r-334,-435r0,-63v238,-27,357,-111,357,-250v0,-141,-97,-212,-290,-212v-129,0,-259,31,-390,94r0,866r-105,0","w":1101},"l":{"d":"255,-1430r0,1430r-105,0r0,-1430r105,0"},"m":{"d":"150,0r0,-1050r75,0r11,132v141,-88,277,-132,409,-132v125,0,212,48,261,144v127,-96,256,-144,387,-144v221,0,332,116,332,349r0,701r-105,0r0,-701v0,-170,-83,-255,-248,-255v-125,0,-234,45,-327,136r0,820r-105,0r0,-718v0,-159,-75,-238,-226,-238v-131,0,-250,45,-359,136r0,820r-105,0","w":1805},"n":{"d":"150,0r0,-1050r75,0r13,134v174,-89,325,-134,454,-134v229,0,343,110,343,331r0,719r-105,0r0,-722v0,-156,-88,-234,-263,-234v-126,0,-263,44,-412,133r0,823r-105,0","w":1185},"o":{"d":"600,-90v263,0,395,-146,395,-439v0,-287,-132,-431,-395,-431v-263,0,-395,144,-395,431v0,293,132,439,395,439xm100,-525v0,-350,167,-525,500,-525v333,0,500,175,500,525v0,349,-167,524,-500,524v-332,0,-499,-175,-500,-524","w":1200},"p":{"d":"255,-154v126,36,234,54,323,54v271,0,407,-151,407,-453v0,-269,-135,-403,-405,-403v-93,0,-202,8,-325,24r0,778xm150,-1007v139,-29,283,-43,432,-43v337,0,505,166,505,499v0,367,-169,551,-508,551v-84,0,-192,-17,-324,-50r0,430r-105,0r0,-1387","w":1187},"q":{"d":"932,-932v-117,-16,-222,-24,-315,-24v-277,0,-415,141,-415,423v0,289,132,433,397,433v96,0,207,-18,333,-54r0,-778xm1037,380r-105,0r0,-430v-132,33,-243,50,-334,50v-332,0,-498,-177,-498,-531v0,-346,175,-519,525,-519v142,0,279,14,412,43r0,1387","w":1187},"r":{"d":"150,0r0,-1050r75,0r13,134v59,-89,153,-134,282,-134r0,84v-125,0,-214,44,-265,133r0,833r-105,0","w":560},"s":{"d":"150,-50r0,-100v117,40,238,60,364,60v221,0,331,-70,331,-210v0,-113,-82,-170,-245,-170r-170,0v-220,0,-330,-93,-330,-280v0,-200,146,-300,437,-300v125,0,246,17,363,50r0,100v-117,-40,-238,-60,-363,-60v-221,0,-332,70,-332,210v0,120,75,180,225,180r170,0v233,0,350,90,350,270v0,200,-145,300,-436,300v-126,0,-247,-17,-364,-50","w":1050},"t":{"d":"150,-1220r66,0r20,170r264,0r0,90r-245,0r0,663v0,138,52,207,157,207r88,0r0,90r-86,0v-176,0,-264,-94,-264,-283r0,-937","w":550},"u":{"d":"1035,-1050r0,1050r-77,0r-12,-134v-174,89,-325,134,-454,134v-228,0,-342,-130,-342,-391r0,-659r105,0r0,662v0,196,97,294,292,294v106,0,234,-44,383,-133r0,-823r105,0","w":1185},"v":{"d":"0,-1050r120,0r384,959r386,-959r120,0r-447,1050r-122,0","w":1010},"w":{"d":"50,-1050r107,0r226,923r333,-923r77,0r342,903r231,-903r103,0r-274,1050r-109,0r-331,-895r-326,895r-113,0","w":1519},"x":{"d":"25,-1050r125,0r815,1050r-125,0xm150,0r-125,0r815,-1050r125,0","w":990},"y":{"d":"25,-1050r121,0r390,948r384,-948r116,0r-456,1081v-77,191,-193,310,-348,357r-31,-84v121,-44,214,-140,278,-288","w":1061},"z":{"d":"120,-1050r770,0r0,90r-657,870r637,0r0,90r-770,0r0,-90r665,-870r-645,0r0,-90","w":990},"{":{"d":"545,-1430v-87,117,-130,277,-130,478v0,235,-63,377,-190,427v127,50,190,192,190,427v0,201,43,361,130,478r-105,0v-87,-117,-130,-277,-130,-478v0,-255,-70,-382,-210,-382r0,-90v140,0,210,-127,210,-382v0,-201,43,-361,130,-478r105,0","w":570},"|":{"d":"255,-1430r0,1810r-105,0r0,-1810r105,0"},"}":{"d":"130,-1430v87,117,130,277,130,478v0,255,70,382,210,382r0,90v-140,0,-210,127,-210,382v0,201,-43,361,-130,478r-105,0v87,-117,130,-277,130,-478v0,-235,63,-377,190,-427v-127,-50,-190,-192,-190,-427v0,-201,-43,-361,-130,-478r105,0","w":570},"~":{"d":"850,-590r0,90v-70,73,-192,80,-365,20v-173,-60,-302,-53,-385,20r0,-90v70,-73,192,-80,365,-20v173,60,302,53,385,-20","w":950},"\u00c4":{"d":"949,-1759r0,110r-115,0r0,-110r115,0xm629,-1759r0,110r-115,0r0,-110r115,0xm25,0r647,-1430r125,0r650,1430r-125,0r-210,-480r-608,0r31,-90r537,0r-344,-778r-591,1348r-112,0","w":1472,"k":{"Y":175,"V":175,"T":125}},"\u00c5":{"d":"732,-1431v96,0,144,-49,144,-147v0,-96,-48,-144,-144,-144v-99,0,-148,48,-148,144v0,98,49,147,148,147xm504,-1576v0,-140,76,-210,228,-210v149,0,224,70,224,210v0,139,-75,209,-224,209v-152,0,-228,-70,-228,-209xm25,0r647,-1430r125,0r650,1430r-125,0r-210,-480r-608,0r31,-90r537,0r-344,-778r-591,1348r-112,0","w":1472,"k":{"Y":175,"V":175,"T":125}},"\u00c7":{"d":"583,284v72,40,144,60,216,60v99,0,148,-32,148,-95v0,-63,-41,-94,-123,-94r-153,0r131,-230r95,0r-81,152v149,0,224,57,224,172v0,115,-80,173,-241,173v-72,0,-144,-17,-216,-50r0,-88xm1250,-50v-130,40,-263,60,-400,60v-500,0,-750,-248,-750,-745v0,-470,250,-705,750,-705v137,0,270,20,400,60r0,90v-130,-40,-257,-60,-380,-60v-443,0,-665,205,-665,615v0,437,222,655,665,655v123,0,250,-20,380,-60r0,90","w":1385},"\u00c9":{"d":"836,-1808r0,90r-400,150r0,-90xm150,-1430r0,1430r953,0r0,-90r-848,0r0,-590r800,0r0,-90r-800,0r0,-570r834,0r0,-90r-939,0","w":1228},"\u00d1":{"d":"1015,-1779r0,90v-70,53,-150,60,-240,20v-90,-40,-177,-33,-260,20r0,-90v70,-53,150,-60,240,-20v90,40,177,33,260,-20xm150,0r0,-1430r135,0r955,1242r0,-1242r95,0r0,1430r-85,0r-1005,-1312r0,1312r-95,0","w":1485},"\u00d6":{"d":"818,-80v395,0,592,-213,592,-639v0,-421,-197,-631,-592,-631v-402,0,-603,210,-603,631v0,426,201,639,603,639xm100,-713v0,-485,239,-727,718,-727v471,0,707,242,707,727v0,482,-236,723,-707,723v-479,0,-718,-241,-718,-723xm1034,-1759r0,110r-115,0r0,-110r115,0xm714,-1759r0,110r-115,0r0,-110r115,0","w":1625},"\u00dc":{"d":"150,-552r0,-878r105,0r0,878v0,315,157,472,470,472v313,0,470,-157,470,-472r0,-878r105,0r0,878v0,375,-192,562,-575,562v-383,0,-575,-187,-575,-562xm935,-1759r0,110r-115,0r0,-110r115,0xm615,-1759r0,110r-115,0r0,-110r115,0","w":1450},"\u00e1":{"d":"758,-1475r0,90r-400,150r0,-90xm100,-317v0,-202,149,-303,446,-303v105,0,216,7,334,20r0,-129v0,-154,-121,-231,-363,-231v-108,0,-219,17,-332,50r0,-90v113,-33,224,-50,332,-50v312,0,468,112,468,336r0,714r-64,0r-34,-74v-138,49,-269,74,-392,74v-263,0,-395,-106,-395,-317xm546,-530v-227,0,-341,70,-341,210v0,153,97,230,290,230v128,0,256,-27,385,-82r0,-338v-113,-13,-225,-20,-334,-20","w":1135},"\u00e0":{"d":"758,-1325r0,90r-400,-150r0,-90xm100,-317v0,-202,149,-303,446,-303v105,0,216,7,334,20r0,-129v0,-154,-121,-231,-363,-231v-108,0,-219,17,-332,50r0,-90v113,-33,224,-50,332,-50v312,0,468,112,468,336r0,714r-64,0r-34,-74v-138,49,-269,74,-392,74v-263,0,-395,-106,-395,-317xm546,-530v-227,0,-341,70,-341,210v0,153,97,230,290,230v128,0,256,-27,385,-82r0,-338v-113,-13,-225,-20,-334,-20","w":1135},"\u00e2":{"d":"510,-1540r110,0r195,260r-100,0r-152,-194r-148,194r-100,0xm100,-317v0,-202,149,-303,446,-303v105,0,216,7,334,20r0,-129v0,-154,-121,-231,-363,-231v-108,0,-219,17,-332,50r0,-90v113,-33,224,-50,332,-50v312,0,468,112,468,336r0,714r-64,0r-34,-74v-138,49,-269,74,-392,74v-263,0,-395,-106,-395,-317xm546,-530v-227,0,-341,70,-341,210v0,153,97,230,290,230v128,0,256,-27,385,-82r0,-338v-113,-13,-225,-20,-334,-20","w":1135},"\u00e4":{"d":"786,-1400r0,110r-115,0r0,-110r115,0xm466,-1400r0,110r-115,0r0,-110r115,0xm100,-317v0,-202,149,-303,446,-303v105,0,216,7,334,20r0,-129v0,-154,-121,-231,-363,-231v-108,0,-219,17,-332,50r0,-90v113,-33,224,-50,332,-50v312,0,468,112,468,336r0,714r-64,0r-34,-74v-138,49,-269,74,-392,74v-263,0,-395,-106,-395,-317xm546,-530v-227,0,-341,70,-341,210v0,153,97,230,290,230v128,0,256,-27,385,-82r0,-338v-113,-13,-225,-20,-334,-20","w":1135},"\u00e3":{"d":"803,-1419r0,90v-70,53,-150,60,-240,20v-90,-40,-177,-33,-260,20r0,-90v70,-53,150,-60,240,-20v90,40,177,33,260,-20xm100,-317v0,-202,149,-303,446,-303v105,0,216,7,334,20r0,-129v0,-154,-121,-231,-363,-231v-108,0,-219,17,-332,50r0,-90v113,-33,224,-50,332,-50v312,0,468,112,468,336r0,714r-64,0r-34,-74v-138,49,-269,74,-392,74v-263,0,-395,-106,-395,-317xm546,-530v-227,0,-341,70,-341,210v0,153,97,230,290,230v128,0,256,-27,385,-82r0,-338v-113,-13,-225,-20,-334,-20","w":1135},"\u00e5":{"d":"565,-1394v96,0,144,-49,144,-147v0,-96,-48,-144,-144,-144v-99,0,-148,48,-148,144v0,98,49,147,148,147xm327,-1539v0,-147,79,-220,238,-220v156,0,234,73,234,220v0,146,-78,219,-234,219v-159,0,-238,-73,-238,-219xm100,-317v0,-202,149,-303,446,-303v105,0,216,7,334,20r0,-129v0,-154,-121,-231,-363,-231v-108,0,-219,17,-332,50r0,-90v113,-33,224,-50,332,-50v312,0,468,112,468,336r0,714r-64,0r-34,-74v-138,49,-269,74,-392,74v-263,0,-395,-106,-395,-317xm546,-530v-227,0,-341,70,-341,210v0,153,97,230,290,230v128,0,256,-27,385,-82r0,-338v-113,-13,-225,-20,-334,-20","w":1135},"\u00e7":{"d":"950,-30v-87,20,-180,30,-280,30v-380,0,-570,-182,-570,-545v0,-337,190,-505,570,-505v100,0,193,10,280,30r0,90v-87,-20,-173,-30,-260,-30v-317,0,-475,138,-475,415v0,303,158,455,475,455v87,0,173,-10,260,-30r0,90xm398,284v72,40,144,60,216,60v99,0,148,-32,148,-95v0,-63,-41,-94,-123,-94r-153,0r131,-230r95,0r-81,152v149,0,224,57,224,172v0,115,-80,173,-241,173v-72,0,-144,-17,-216,-50r0,-88","w":1025},"\u00e9":{"d":"768,-1475r0,90r-400,150r0,-90xm992,-502r-787,0v0,275,162,412,486,412v93,0,185,-10,278,-30r0,90v-93,20,-205,30,-338,30v-354,0,-531,-179,-531,-537v0,-342,168,-513,503,-513v308,0,438,183,389,548xm205,-596r688,0v16,-244,-91,-366,-320,-366v-233,0,-356,122,-368,366","w":1126},"\u00e8":{"d":"768,-1325r0,90r-400,-150r0,-90xm992,-502r-787,0v0,275,162,412,486,412v93,0,185,-10,278,-30r0,90v-93,20,-205,30,-338,30v-354,0,-531,-179,-531,-537v0,-342,168,-513,503,-513v308,0,438,183,389,548xm205,-596r688,0v16,-244,-91,-366,-320,-366v-233,0,-356,122,-368,366","w":1126},"\u00ea":{"d":"992,-502r-787,0v0,275,162,412,486,412v93,0,185,-10,278,-30r0,90v-93,20,-205,30,-338,30v-354,0,-531,-179,-531,-537v0,-342,168,-513,503,-513v308,0,438,183,389,548xm205,-596r688,0v16,-244,-91,-366,-320,-366v-233,0,-356,122,-368,366xm510,-1540r110,0r195,260r-100,0r-152,-194r-148,194r-100,0","w":1126},"\u00eb":{"d":"992,-502r-787,0v0,275,162,412,486,412v93,0,185,-10,278,-30r0,90v-93,20,-205,30,-338,30v-354,0,-531,-179,-531,-537v0,-342,168,-513,503,-513v308,0,438,183,389,548xm205,-596r688,0v16,-244,-91,-366,-320,-366v-233,0,-356,122,-368,366xm786,-1400r0,110r-115,0r0,-110r115,0xm466,-1400r0,110r-115,0r0,-110r115,0","w":1126},"\u00ed":{"d":"255,-1050r0,1050r-105,0r0,-1050r105,0xm405,-1475r0,90r-405,150r0,-90"},"\u00ec":{"d":"255,-1050r0,1050r-105,0r0,-1050r105,0xm405,-1325r0,100r-405,-150r0,-100"},"\u00ee":{"d":"255,-1050r0,1050r-105,0r0,-1050r105,0xm145,-1540r110,0r195,260r-100,0r-152,-194r-148,194r-100,0"},"\u00ef":{"d":"255,-1050r0,1050r-105,0r0,-1050r105,0xm420,-1400r0,110r-115,0r0,-110r115,0xm100,-1400r0,110r-115,0r0,-110r115,0"},"\u00f1":{"d":"853,-1419r0,90v-70,53,-150,60,-240,20v-90,-40,-177,-33,-260,20r0,-90v70,-53,150,-60,240,-20v90,40,177,33,260,-20xm150,0r0,-1050r75,0r13,134v174,-89,325,-134,454,-134v229,0,343,110,343,331r0,719r-105,0r0,-722v0,-156,-88,-234,-263,-234v-126,0,-263,44,-412,133r0,823r-105,0","w":1185},"\u00f3":{"d":"792,-1475r0,90r-400,150r0,-90xm600,-90v263,0,395,-146,395,-439v0,-287,-132,-431,-395,-431v-263,0,-395,144,-395,431v0,293,132,439,395,439xm100,-525v0,-350,167,-525,500,-525v333,0,500,175,500,525v0,349,-167,524,-500,524v-332,0,-499,-175,-500,-524","w":1200},"\u00f2":{"d":"784,-1325r0,90r-400,-150r0,-90xm600,-90v263,0,395,-146,395,-439v0,-287,-132,-431,-395,-431v-263,0,-395,144,-395,431v0,293,132,439,395,439xm100,-525v0,-350,167,-525,500,-525v333,0,500,175,500,525v0,349,-167,524,-500,524v-332,0,-499,-175,-500,-524","w":1200},"\u00f4":{"d":"600,-90v263,0,395,-146,395,-439v0,-287,-132,-431,-395,-431v-263,0,-395,144,-395,431v0,293,132,439,395,439xm100,-525v0,-350,167,-525,500,-525v333,0,500,175,500,525v0,349,-167,524,-500,524v-332,0,-499,-175,-500,-524xm530,-1540r110,0r195,260r-100,0r-152,-194r-148,194r-100,0","w":1200},"\u00f6":{"d":"600,-90v263,0,395,-146,395,-439v0,-287,-132,-431,-395,-431v-263,0,-395,144,-395,431v0,293,132,439,395,439xm100,-525v0,-350,167,-525,500,-525v333,0,500,175,500,525v0,349,-167,524,-500,524v-332,0,-499,-175,-500,-524xm816,-1400r0,110r-115,0r0,-110r115,0xm496,-1400r0,110r-115,0r0,-110r115,0","w":1200},"\u00f5":{"d":"846,-1419r0,90v-70,53,-150,60,-240,20v-90,-40,-177,-33,-260,20r0,-90v70,-53,150,-60,240,-20v90,40,177,33,260,-20xm600,-90v263,0,395,-146,395,-439v0,-287,-132,-431,-395,-431v-263,0,-395,144,-395,431v0,293,132,439,395,439xm100,-525v0,-350,167,-525,500,-525v333,0,500,175,500,525v0,349,-167,524,-500,524v-332,0,-499,-175,-500,-524","w":1200},"\u00fa":{"d":"808,-1475r0,90r-400,150r0,-90xm1035,-1050r0,1050r-77,0r-12,-134v-174,89,-325,134,-454,134v-228,0,-342,-130,-342,-391r0,-659r105,0r0,662v0,196,97,294,292,294v106,0,234,-44,383,-133r0,-823r105,0","w":1185},"\u00f9":{"d":"808,-1325r0,90r-400,-150r0,-90xm1035,-1050r0,1050r-77,0r-12,-134v-174,89,-325,134,-454,134v-228,0,-342,-130,-342,-391r0,-659r105,0r0,662v0,196,97,294,292,294v106,0,234,-44,383,-133r0,-823r105,0","w":1185},"\u00fb":{"d":"1035,-1050r0,1050r-77,0r-12,-134v-174,89,-325,134,-454,134v-228,0,-342,-130,-342,-391r0,-659r105,0r0,662v0,196,97,294,292,294v106,0,234,-44,383,-133r0,-823r105,0xm550,-1540r110,0r195,260r-100,0r-152,-194r-148,194r-100,0","w":1185},"\u00fc":{"d":"1035,-1050r0,1050r-77,0r-12,-134v-174,89,-325,134,-454,134v-228,0,-342,-130,-342,-391r0,-659r105,0r0,662v0,196,97,294,292,294v106,0,234,-44,383,-133r0,-823r105,0xm813,-1400r0,110r-115,0r0,-110r115,0xm493,-1400r0,110r-115,0r0,-110r115,0","w":1185},"\u00b0":{"d":"378,-985v123,0,184,-62,184,-187v0,-123,-61,-184,-184,-184v-125,0,-188,61,-188,184v0,125,63,187,188,187xm100,-1170v0,-173,93,-260,278,-260v183,0,274,87,274,260v0,173,-91,259,-274,259v-185,0,-278,-86,-278,-259","w":752},"\u00a2":{"d":"950,-240v-93,33,-175,50,-245,50r0,190r-95,0r0,-190v-340,-28,-510,-210,-510,-545v0,-301,170,-469,510,-505r0,-190r95,0r0,190v70,0,152,17,245,50r0,90v-87,-33,-173,-50,-260,-50v-323,0,-485,138,-485,415v0,303,162,455,485,455v87,0,173,-17,260,-50r0,90","w":1050},"\u00a3":{"d":"100,-62v124,-50,186,-167,186,-351v0,-78,-26,-175,-77,-291v-51,-116,-77,-224,-77,-323v0,-275,186,-413,558,-413v180,0,322,33,427,100r0,120v-105,-87,-250,-130,-434,-130v-289,0,-434,107,-434,321v0,96,18,182,55,259r446,0r0,90r-414,0v39,109,59,197,59,264v0,91,-21,191,-64,298v115,-12,241,1,381,39v140,38,275,11,405,-81r0,110v-125,87,-287,106,-485,56v-198,-50,-376,-41,-532,24r0,-92","w":1217},"\u00a7":{"d":"150,-40r0,-100v117,40,238,60,364,60v221,0,331,-67,331,-200v0,-113,-92,-170,-275,-170r-110,0v-240,0,-360,-90,-360,-270v0,-99,54,-167,162,-206v-108,-33,-162,-108,-162,-224v0,-193,152,-290,457,-290v112,0,226,17,343,50r0,100v-117,-40,-231,-60,-343,-60v-235,0,-352,67,-352,200v0,113,85,170,255,170r110,0v253,0,380,89,380,267v0,107,-55,178,-165,214v110,41,165,114,165,219v0,193,-145,290,-436,290v-126,0,-247,-17,-364,-50xm470,-538r110,0v177,0,265,-55,265,-166v0,-125,-88,-187,-265,-187r-110,0v-177,0,-265,58,-265,174v0,119,88,179,265,179","w":1050},"\u00b6":{"d":"443,434r0,-972v-295,0,-443,-149,-443,-448v0,-296,148,-444,443,-444r510,0r0,90r-150,0r0,1774r-100,0r0,-1774r-160,0r0,1774r-100,0","w":953},"\u00df":{"d":"150,0r0,-959v0,-312,155,-468,464,-468v267,0,400,132,400,397r0,55v-216,69,-324,155,-324,258v0,74,66,135,196,183v130,48,195,125,195,232v0,201,-131,302,-394,302r-132,0r0,-90r134,0v185,0,277,-71,277,-212v0,-74,-63,-134,-190,-178v-127,-44,-191,-122,-191,-234v0,-139,106,-244,318,-316v0,-205,-99,-307,-296,-307v-235,0,-352,127,-352,381r0,956r-105,0","w":1181},"\u00ae":{"d":"404,-756r0,-536r229,0v102,0,153,43,153,128v0,70,-50,122,-150,155r184,253r-91,0r-171,-241r0,-45v103,-17,154,-56,154,-119v0,-49,-29,-74,-86,-74r-153,0r0,479r-69,0xm580,-664v240,0,360,-120,360,-361v0,-246,-120,-369,-360,-369v-238,0,-357,123,-357,369v0,241,119,361,357,361xm150,-1023v0,-285,143,-427,430,-427v289,0,433,142,433,427v0,277,-144,415,-433,415v-279,0,-422,-138,-430,-415","w":1163},"\u00a9":{"d":"580,-664v240,0,360,-120,360,-361v0,-246,-120,-369,-360,-369v-238,0,-357,123,-357,369v0,241,119,361,357,361xm150,-1023v0,-285,143,-427,430,-427v289,0,433,142,433,427v0,277,-144,415,-433,415v-279,0,-422,-138,-430,-415xm765,-830v-47,18,-96,27,-146,27v-151,0,-226,-76,-226,-229v0,-142,75,-213,226,-213v50,0,99,9,146,27r0,-62v-47,-15,-99,-23,-154,-23v-193,0,-289,90,-289,271v0,191,96,287,289,287v55,0,107,-8,154,-23r0,-62","w":1163},"\u2122":{"d":"661,-1430r0,71r-212,0r0,602r-87,0r0,-602r-212,0r0,-71r511,0xm750,-757r0,-673r110,0r248,561r242,-561r106,0r0,673r-78,0r0,-543r-239,543r-69,0r-243,-543r0,543r-77,0","w":1606},"\u00b4":{"d":"400,-1475r0,90r-400,150r0,-90","w":400},"\u00a8":{"d":"555,-1430r0,150r-185,0r0,-150r185,0xm185,-1430r0,150r-185,0r0,-150r185,0","w":555},"\u00c6":{"d":"25,0r607,-1430r1098,0r0,90r-918,0r240,570r643,0r0,90r-604,0r256,590r403,0r0,90r-498,0r-557,-1353r-303,783r511,0r38,90r-600,0r-194,480r-122,0","w":1875},"\u00d8":{"d":"198,0r1083,-1430r138,0r-1084,1430r-137,0xm818,-80v395,0,592,-213,592,-639v0,-421,-197,-631,-592,-631v-402,0,-603,210,-603,631v0,426,201,639,603,639xm100,-713v0,-485,239,-727,718,-727v471,0,707,242,707,727v0,482,-236,723,-707,723v-479,0,-718,-241,-718,-723","w":1625},"\u00b1":{"w":636},"\u00a5":{"d":"50,-1430r125,0r442,661r448,-661r135,0r-493,700r373,0r0,90r-416,0r0,171r416,0r0,90r-416,0r0,379r-105,0r0,-379r-389,0r0,-90r389,0r0,-171r-389,0r0,-90r347,0","w":1250},"\u00b5":{"d":"1035,-1050r0,1050r-77,0r-12,-134v-161,89,-299,134,-414,134v-123,0,-215,-40,-277,-120r0,500r-105,0r0,-1430r105,0r0,672v0,189,104,284,312,284v106,0,227,-44,363,-133r0,-823r105,0","w":1185},"\u03bc":{"d":"1035,-1050r0,1050r-77,0r-12,-134v-161,89,-299,134,-414,134v-123,0,-215,-40,-277,-120r0,500r-105,0r0,-1430r105,0r0,672v0,189,104,284,312,284v106,0,227,-44,363,-133r0,-823r105,0","w":1185},"\u00aa":{"w":402},"\u00ba":{"w":402},"\u00e6":{"d":"526,-530v-214,0,-321,67,-321,200v0,160,93,240,280,240v135,0,253,-57,355,-172r0,-248v-100,-13,-205,-20,-314,-20xm946,-596r638,0v23,-243,-81,-364,-310,-364v-207,0,-316,121,-328,364xm189,-912r0,-85v112,-35,223,-53,334,-53v219,0,351,60,396,180v78,-120,209,-180,392,-180v305,0,433,183,384,548r-747,0v0,275,147,412,440,412v99,0,194,-10,285,-29r0,89v-97,20,-211,30,-341,30v-168,0,-306,-59,-413,-177v-132,118,-276,177,-433,177v-257,0,-386,-110,-386,-329v0,-194,142,-291,427,-291v103,0,208,7,316,22r0,-133v0,-153,-107,-229,-322,-229v-113,0,-224,16,-332,48","w":1830},"\u00f8":{"d":"600,-90v263,0,395,-146,395,-439v0,-287,-132,-431,-395,-431v-263,0,-395,144,-395,431v0,293,132,439,395,439xm100,-525v0,-350,167,-525,500,-525v333,0,500,175,500,525v0,349,-167,524,-500,524v-332,0,-499,-175,-500,-524xm145,0r800,-1050r138,0r-801,1050r-137,0","w":1200},"\u00bf":{"d":"290,-945r0,-105r105,0r0,105r-105,0xm100,330v140,33,273,50,400,50v343,0,515,-130,515,-390v0,-260,-166,-390,-497,-390r-123,0r0,-280r-105,0r0,370r225,0v263,0,395,100,395,300v0,200,-137,300,-410,300v-127,0,-260,-17,-400,-50r0,90","w":1115},"\u00a1":{"d":"150,380r0,-1060r105,0r0,1060r-105,0xm150,-945r0,-105r105,0r0,105r-105,0"},"\u00ac":{"w":1395},"\u00ab":{"d":"419,-525r258,-375r122,0r-258,375r258,375r-122,0xm100,-525r258,-375r122,0r-258,375r258,375r-122,0","w":849},"\u00bb":{"d":"172,-150r-122,0r258,-375r-258,-375r122,0r258,375xm491,-150r-122,0r258,-375r-258,-375r122,0r258,375","w":849},"\u2026":{"w":792},"\u00a0":{"w":498},"\u00c0":{"d":"925,-1658r0,90r-400,-150r0,-90xm25,0r647,-1430r125,0r650,1430r-125,0r-210,-480r-608,0r31,-90r537,0r-344,-778r-591,1348r-112,0","w":1472,"k":{"Y":175,"V":175,"T":125}},"\u00c3":{"d":"988,-1779r0,90v-70,53,-150,60,-240,20v-90,-40,-177,-33,-260,20r0,-90v70,-53,150,-60,240,-20v90,40,177,33,260,-20xm25,0r647,-1430r125,0r650,1430r-125,0r-210,-480r-608,0r31,-90r537,0r-344,-778r-591,1348r-112,0","w":1472,"k":{"Y":175,"V":175,"T":125}},"\u00d5":{"d":"818,-80v395,0,592,-213,592,-639v0,-421,-197,-631,-592,-631v-402,0,-603,210,-603,631v0,426,201,639,603,639xm100,-713v0,-485,239,-727,718,-727v471,0,707,242,707,727v0,482,-236,723,-707,723v-479,0,-718,-241,-718,-723xm1063,-1779r0,90v-70,53,-150,60,-240,20v-90,-40,-177,-33,-260,20r0,-90v70,-53,150,-60,240,-20v90,40,177,33,260,-20","w":1625},"\u0152":{"d":"818,-90v395,0,592,-210,592,-629v0,-414,-197,-621,-592,-621v-402,0,-603,207,-603,621v0,419,201,629,603,629xm100,-713v0,-478,239,-717,718,-717r1257,0r0,90r-855,0v183,91,285,281,305,570r515,0r0,90r-515,0v-20,298,-126,495,-317,590r882,0r0,90r-1272,0v-479,0,-718,-238,-718,-713","w":2215},"\u0153":{"d":"600,-90v237,0,355,-146,355,-439v0,-287,-118,-431,-355,-431v-263,0,-395,144,-395,431v0,293,132,439,395,439xm1060,-596r638,0v23,-244,-81,-366,-310,-366v-207,0,-316,122,-328,366xm100,-522v0,-352,168,-528,504,-528v189,0,324,73,405,219v65,-146,201,-219,407,-219v318,0,448,183,390,548r-743,0v0,275,147,412,442,412v98,0,191,-13,279,-38r0,96v-91,21,-202,32,-333,32v-208,0,-355,-75,-441,-226v-77,151,-212,226,-406,226v-336,0,-504,-174,-504,-522","w":1944},"\u2013":{"w":684},"\u2014":{"w":894},"\u201c":{"d":"685,-1430r-150,435r-125,0r150,-435r125,0xm375,-1430r-150,435r-125,0r150,-435r125,0","w":785},"\u201d":{"d":"225,-1430r150,435r-125,0r-150,-435r125,0xm535,-1430r150,435r-125,0r-150,-435r125,0","w":905},"\u2018":{"d":"225,-1430r150,435r-125,0r-150,-435r125,0","w":475},"\u2019":{"d":"375,-1430r-150,435r-125,0r150,-435r125,0","w":475},"\u00f7":{"d":"100,-570r0,90r785,0r0,-90r-785,0xm565,-280r0,130r-145,0r0,-130r145,0xm565,-900r0,130r-145,0r0,-130r145,0","w":985},"\u00ff":{"w":393},"\u0178":{"w":526},"\u00a4":{"d":"216,-756r-116,-120r109,-112r125,121v72,-45,153,-68,242,-68v83,0,158,23,225,68r128,-121r110,112r-118,120v39,55,58,132,58,231v0,93,-23,170,-68,232r128,120r-110,112r-128,-123v-72,40,-150,60,-233,60v-83,0,-164,-20,-243,-60r-116,123r-109,-112r116,-120v-38,-69,-57,-146,-57,-232v0,-91,19,-168,57,-231xm322,-529v0,164,82,246,245,246v163,0,245,-82,245,-246v0,-163,-82,-244,-245,-244v-163,0,-245,81,-245,244","w":1139},"\u00b7":{"d":"100,-525v0,-83,42,-125,125,-125v83,0,125,42,125,125v0,83,-42,125,-125,125v-83,0,-125,-42,-125,-125","w":450},"\u2219":{"d":"100,-525v0,-83,42,-125,125,-125v83,0,125,42,125,125v0,83,-42,125,-125,125v-83,0,-125,-42,-125,-125","w":450},"\u00c2":{"d":"25,0r647,-1430r125,0r650,1430r-125,0r-210,-480r-608,0r31,-90r537,0r-344,-778r-591,1348r-112,0xm678,-1834r110,0r195,260r-100,0r-152,-194r-148,194r-100,0","w":1472,"k":{"Y":175,"V":175,"T":125}},"\u00ca":{"d":"150,-1430r0,1430r953,0r0,-90r-848,0r0,-590r800,0r0,-90r-800,0r0,-570r834,0r0,-90r-939,0xm574,-1834r110,0r195,260r-100,0r-152,-194r-148,194r-100,0","w":1228},"\u00c1":{"d":"925,-1808r0,90r-400,150r0,-90xm25,0r647,-1430r125,0r650,1430r-125,0r-210,-480r-608,0r31,-90r537,0r-344,-778r-591,1348r-112,0","w":1472,"k":{"Y":175,"V":175,"T":125}},"\u00cb":{"d":"150,-1430r0,1430r953,0r0,-90r-848,0r0,-590r800,0r0,-90r-800,0r0,-570r834,0r0,-90r-939,0xm838,-1759r0,110r-115,0r0,-110r115,0xm518,-1759r0,110r-115,0r0,-110r115,0","w":1228},"\u00c8":{"d":"836,-1658r0,90r-400,-150r0,-90xm150,-1430r0,1430r953,0r0,-90r-848,0r0,-590r800,0r0,-90r-800,0r0,-570r834,0r0,-90r-939,0","w":1228},"\u00cd":{"d":"255,-1430r0,1430r-105,0r0,-1430r105,0xm405,-1808r0,90r-405,150r0,-90"},"\u00ce":{"d":"255,-1430r0,1430r-105,0r0,-1430r105,0xm145,-1834r110,0r195,260r-100,0r-152,-194r-148,194r-100,0"},"\u00cf":{"d":"255,-1430r0,1430r-105,0r0,-1430r105,0xm420,-1759r0,110r-115,0r0,-110r115,0xm100,-1759r0,110r-115,0r0,-110r115,0"},"\u00cc":{"d":"255,-1430r0,1430r-105,0r0,-1430r105,0xm405,-1658r0,100r-405,-150r0,-100"},"\u00d3":{"d":"990,-1808r0,90r-400,150r0,-90xm818,-80v395,0,592,-213,592,-639v0,-421,-197,-631,-592,-631v-402,0,-603,210,-603,631v0,426,201,639,603,639xm100,-713v0,-485,239,-727,718,-727v471,0,707,242,707,727v0,482,-236,723,-707,723v-479,0,-718,-241,-718,-723","w":1625},"\u00d4":{"d":"753,-1834r110,0r195,260r-100,0r-152,-194r-148,194r-100,0xm818,-80v395,0,592,-213,592,-639v0,-421,-197,-631,-592,-631v-402,0,-603,210,-603,631v0,426,201,639,603,639xm100,-713v0,-485,239,-727,718,-727v471,0,707,242,707,727v0,482,-236,723,-707,723v-479,0,-718,-241,-718,-723","w":1625},"\u00d2":{"d":"990,-1658r0,90r-400,-150r0,-90xm818,-80v395,0,592,-213,592,-639v0,-421,-197,-631,-592,-631v-402,0,-603,210,-603,631v0,426,201,639,603,639xm100,-713v0,-485,239,-727,718,-727v471,0,707,242,707,727v0,482,-236,723,-707,723v-479,0,-718,-241,-718,-723","w":1625},"\u00da":{"d":"948,-1808r0,90r-400,150r0,-90xm150,-552r0,-878r105,0r0,878v0,315,157,472,470,472v313,0,470,-157,470,-472r0,-878r105,0r0,878v0,375,-192,562,-575,562v-383,0,-575,-187,-575,-562","w":1450},"\u00db":{"d":"675,-1834r110,0r195,260r-100,0r-152,-194r-148,194r-100,0xm150,-552r0,-878r105,0r0,878v0,315,157,472,470,472v313,0,470,-157,470,-472r0,-878r105,0r0,878v0,375,-192,562,-575,562v-383,0,-575,-187,-575,-562","w":1450},"\u00d9":{"d":"948,-1658r0,90r-400,-150r0,-90xm150,-552r0,-878r105,0r0,878v0,315,157,472,470,472v313,0,470,-157,470,-472r0,-878r105,0r0,878v0,375,-192,562,-575,562v-383,0,-575,-187,-575,-562","w":1450},"\u00af":{"w":360},"\u02c9":{"w":360},"\u00b8":{"d":"0,284v72,40,144,60,216,60v99,0,148,-32,148,-95v0,-63,-41,-94,-123,-94r-153,0r131,-230r95,0r-81,152v149,0,224,57,224,172v0,115,-80,173,-241,173v-72,0,-144,-17,-216,-50r0,-88","w":457},"\u0160":{"w":621},"\u0161":{"w":342},"\u00a6":{"w":201},"\u00d0":{"w":663},"\u00f0":{"w":483},"\u00dd":{"w":526},"\u00fd":{"w":393},"\u00de":{"w":576},"\u00fe":{"w":348},"\u00ad":{"w":636},"\u2212":{"w":636},"\u00d7":{"w":636},"\u00b9":{"w":300},"\u00b2":{"w":300},"\u00b3":{"w":300},"\u00bd":{"w":786},"\u00bc":{"w":786},"\u00be":{"w":786},"\u0141":{"d":"0,-592r658,-484r0,110r-658,484r0,-110xm255,-1430r0,1340r828,0r0,90r-933,0r0,-1430r105,0","w":1183,"k":{"\u00d2":150,"\u00d4":150,"\u00d3":150,"\u0152":150,"\u00d5":150,"\u00d8":150,"\u00d6":150,"\u00c7":150,"Y":288,"V":300,"T":300,"Q":150,"O":150,"G":150,"C":150}},"\u0142":{"d":"255,-1430r0,1430r-105,0r0,-1430r105,0xm0,-592r405,-300r0,110r-405,300r0,-110"},"\u017d":{"w":690},"\u017e":{"w":462},"\u0131":{"w":234},"\u017b":{"d":"710,-1789r0,150r-175,0r0,-150r175,0xm145,-1430r0,90r874,0r-894,1260r0,80r980,0r0,-90r-847,0r867,-1250r0,-90r-980,0","w":1250},"\u017c":{"d":"589,-1430r0,150r-165,0r0,-150r165,0xm120,-1050r770,0r0,90r-657,870r637,0r0,90r-770,0r0,-90r665,-870r-645,0r0,-90","w":990},"\u0179":{"d":"812,-1808r0,90r-400,150r0,-90xm145,-1430r0,90r874,0r-894,1260r0,80r980,0r0,-90r-847,0r867,-1250r0,-90r-980,0","w":1250},"\u017a":{"d":"715,-1475r0,90r-400,150r0,-90xm120,-1050r770,0r0,90r-657,870r637,0r0,90r-770,0r0,-90r665,-870r-645,0r0,-90","w":990},"\u0104":{"d":"1447,0v-155,84,-232,160,-232,228v0,72,38,108,115,108v57,0,102,-7,137,-20r0,90v-41,13,-90,20,-149,20v-141,0,-211,-58,-211,-173v0,-101,72,-185,215,-253r125,0xm25,0r647,-1430r125,0r650,1430r-125,0r-210,-480r-608,0r31,-90r537,0r-344,-778r-591,1348r-112,0","w":1472,"k":{"Y":175,"V":175,"T":125}},"\u0105":{"d":"986,0v-155,84,-232,160,-232,228v0,72,38,108,115,108v57,0,102,-7,137,-20r0,90v-41,13,-90,20,-149,20v-141,0,-211,-58,-211,-173v0,-87,78,-172,234,-253r106,0xm100,-317v0,-202,149,-303,446,-303v105,0,216,7,334,20r0,-129v0,-154,-121,-231,-363,-231v-108,0,-219,17,-332,50r0,-90v113,-33,224,-50,332,-50v312,0,468,112,468,336r0,714r-105,0r0,-74v-133,49,-262,74,-385,74v-263,0,-395,-106,-395,-317xm546,-530v-227,0,-341,70,-341,210v0,153,97,230,290,230v128,0,256,-27,385,-82r0,-338v-113,-13,-225,-20,-334,-20","w":1135},"\u0106":{"d":"936,-1808r0,90r-400,150r0,-90xm1250,-140v-130,40,-257,60,-380,60v-443,0,-665,-218,-665,-655v0,-410,222,-615,665,-615v123,0,250,20,380,60r0,-90v-130,-40,-263,-60,-400,-60v-500,0,-750,235,-750,705v0,497,250,745,750,745v137,0,270,-20,400,-60r0,-90","w":1385},"\u0107":{"d":"768,-1475r0,90r-400,150r0,-90xm950,-120v-87,20,-173,30,-260,30v-317,0,-475,-152,-475,-455v0,-277,158,-415,475,-415v87,0,173,10,260,30r0,-90v-87,-20,-180,-30,-280,-30v-380,0,-570,168,-570,505v0,363,190,545,570,545v100,0,193,-10,280,-30r0,-90","w":1025},"\u0143":{"d":"952,-1808r0,90r-400,150r0,-90xm150,0r0,-1430r135,0r955,1242r0,-1242r95,0r0,1430r-85,0r-1005,-1312r0,1312r-95,0","w":1485},"\u0144":{"d":"795,-1475r0,90r-400,150r0,-90xm150,0r0,-1050r75,0r13,134v174,-89,325,-134,454,-134v229,0,343,110,343,331r0,719r-105,0r0,-722v0,-156,-88,-234,-263,-234v-126,0,-263,44,-412,133r0,823r-105,0","w":1185},"\u015a":{"d":"828,-1808r0,90r-400,150r0,-90xm170,-50r0,-100v150,47,315,70,496,70v293,0,439,-117,439,-350v0,-160,-97,-240,-292,-240r-314,0v-266,0,-399,-117,-399,-350v0,-280,192,-420,575,-420v160,0,315,20,465,60r0,90v-150,-40,-305,-60,-465,-60v-313,0,-470,110,-470,330v0,167,98,250,294,250r314,0v265,0,397,113,397,340v0,293,-181,440,-544,440v-181,0,-346,-20,-496,-60","w":1310,"k":{"S":96}},"\u015b":{"d":"712,-1475r0,90r-400,150r0,-90xm150,-50r0,-100v117,40,238,60,364,60v221,0,331,-70,331,-210v0,-113,-82,-170,-245,-170r-170,0v-220,0,-330,-93,-330,-280v0,-200,146,-300,437,-300v125,0,246,17,363,50r0,100v-117,-40,-238,-60,-363,-60v-221,0,-332,70,-332,210v0,120,75,180,225,180r170,0v233,0,350,90,350,270v0,200,-145,300,-436,300v-126,0,-247,-17,-364,-50","w":1050},"\u0118":{"d":"1100,0v-168,84,-252,160,-252,228v0,72,38,108,115,108v57,0,102,-7,137,-20r0,90v-41,13,-90,20,-149,20v-141,0,-211,-58,-211,-173v0,-101,68,-185,203,-253r157,0xm1089,-1430r0,90r-834,0r0,570r800,0r0,90r-800,0r0,590r848,0r0,90r-953,0r0,-1430r939,0","w":1225},"\u0119":{"d":"969,-30v-168,104,-252,190,-252,258v0,72,38,108,115,108v57,0,102,-7,137,-20r0,90v-41,13,-90,20,-149,20v-141,0,-211,-58,-211,-173v0,-101,74,-195,223,-283r137,0xm992,-502r-787,0v0,275,162,412,486,412v93,0,185,-10,278,-30r0,90v-93,20,-205,30,-338,30v-354,0,-531,-179,-531,-537v0,-342,168,-513,503,-513v308,0,438,183,389,548xm205,-596r688,0v16,-244,-91,-366,-320,-366v-233,0,-356,122,-368,366","w":1132}}});
