/*!
 * The following copyright notice may not be removed under any circumstances.
 * 
 * Copyright:
 * ©G.M.
 * 
 * Trademark:
 * GM / Walkway
 */
Cufon.registerFont({"w":525,"face":{"font-family":"walkway","font-weight":400,"font-stretch":"normal","units-per-em":"1000","panose-1":"0 0 4 0 0 0 0 0 0 0","ascent":"800","descent":"-200","x-height":"11","bbox":"-156 -874 1039 179","underline-thickness":"30","underline-position":"-118","unicode-range":"U+0020-U+2122"},"glyphs":{" ":{"w":354},"!":{"d":"80,-169r0,-509r36,0r0,509r-36,0xm97,0v-12,0,-18,-6,-18,-18r0,-64v0,-11,6,-17,18,-17v12,0,18,6,18,17r0,64v0,12,-6,18,-18,18","w":194},"\"":{"d":"203,-547v-12,0,-18,-6,-18,-17r0,-91v0,-11,6,-17,18,-17v12,0,18,6,18,17r0,91v0,11,-6,17,-18,17xm87,-547v-11,0,-17,-6,-17,-17r0,-91v0,-11,6,-17,17,-17v13,0,19,6,19,17r0,91v0,11,-6,17,-19,17","w":292},"#":{"d":"455,-359r-90,0r-22,89r89,0r-7,33r-89,0r-19,76r-36,0r19,-76r-105,0r-19,76r-36,0r19,-76r-89,0r7,-33r89,0r23,-89r-91,0r9,-33r89,0r19,-76r36,0r-19,76r105,0r18,-76r36,0r-18,76r89,0xm225,-359r-23,89r105,0r22,-89r-104,0","w":531},"$":{"d":"408,10r0,60r-36,0r0,-55v-14,1,-28,2,-42,2v-25,0,-48,-2,-69,-5r0,58r-36,0r0,-62v-131,-29,-196,-104,-196,-224r0,-17r36,0r0,13v0,104,53,168,160,193r0,-324v-54,-13,-94,-30,-121,-51v-35,-28,-53,-66,-53,-114v0,-94,58,-152,174,-173r0,-64r36,0r0,59v15,-1,32,-1,50,-1v22,0,42,1,61,3r0,-61r36,0r0,66v117,25,177,94,179,209r-36,0v-6,-95,-54,-154,-143,-175r0,304v65,17,110,35,137,54v37,28,56,70,56,127v0,49,-21,90,-62,123v-35,28,-78,46,-131,55xm372,-659v-19,-2,-39,-3,-61,-3v-18,0,-35,1,-50,3r0,281r111,21r0,-302xm225,-654v-92,20,-138,66,-138,138v0,37,14,67,43,89v20,15,52,29,95,40r0,-267xm541,-251v-22,-23,-66,-44,-133,-62r0,289v44,-7,80,-22,107,-45v33,-27,50,-61,50,-102v0,-37,-8,-63,-24,-80xm372,-321r-111,-22r0,322v21,3,45,5,70,5v14,0,28,-1,41,-3r0,-302","w":642},"%":{"d":"162,0r-43,0r487,-678r42,0xm560,19v-94,0,-141,-59,-141,-177v0,-121,47,-181,142,-181v94,0,141,60,141,181v0,118,-47,177,-142,177xm190,-301v-93,0,-140,-59,-140,-176v0,-120,47,-180,141,-180v95,0,142,60,142,180v0,117,-48,176,-143,176xm560,-306v-69,0,-104,49,-104,148v0,96,35,144,105,144v69,0,104,-48,104,-144v0,-99,-35,-148,-105,-148xm190,-624v-69,0,-103,49,-103,147v0,96,35,144,104,144v70,0,105,-48,105,-144v0,-98,-35,-147,-106,-147","w":750},"&":{"d":"494,19r0,-141v-3,5,-5,9,-7,14v-56,83,-129,124,-220,124v-57,0,-108,-13,-152,-40v-51,-32,-76,-75,-76,-129v0,-51,24,-99,72,-142v30,-26,77,-56,141,-89v-82,-40,-123,-95,-123,-164v0,-41,17,-74,50,-98v30,-21,67,-32,110,-32v46,0,83,10,112,31v33,23,50,57,50,101v0,62,-62,127,-187,194v-64,35,-107,62,-129,81v-40,37,-60,76,-60,118v0,43,21,78,63,103v36,22,77,33,123,33v90,0,156,-38,197,-115v24,-43,36,-89,36,-140r36,0r0,291r-36,0xm291,-645v-33,0,-62,8,-86,24v-27,17,-40,42,-40,74v0,62,41,111,122,146v85,-48,128,-97,128,-146v0,-32,-13,-57,-40,-75v-23,-15,-51,-23,-84,-23","w":603},"'":{"d":"87,-547v-11,0,-17,-6,-17,-17r0,-91v0,-11,6,-17,17,-17v13,0,19,6,19,17r0,91v0,11,-6,17,-19,17","w":175},"(":{"d":"190,168v-84,-131,-126,-282,-126,-451v0,-170,42,-320,126,-451r39,0v-86,131,-129,281,-129,451v0,170,43,320,129,451r-39,0","w":233},")":{"d":"38,168r-39,0v89,-131,134,-282,134,-451v0,-169,-45,-320,-134,-451r39,0v87,129,131,279,131,451v0,171,-44,322,-131,451","w":233},"*":{"d":"68,-620r1,0r74,35r0,-70v0,-11,6,-17,18,-17v12,0,18,6,18,17r0,71r73,-36v3,-1,6,-2,9,-2v7,0,12,2,15,7v6,11,3,19,-8,24r-70,33r71,35v7,3,10,8,10,15v0,11,-6,16,-18,16v-3,0,-7,-1,-11,-2r-71,-36r0,70v0,11,-6,17,-18,17v-12,0,-18,-6,-18,-17r0,-70r-72,36v-4,1,-8,2,-11,2v-12,0,-18,-5,-18,-16v0,-6,4,-11,11,-15r71,-35r-71,-34v-11,-5,-14,-13,-8,-23v3,-5,8,-7,14,-7v3,0,6,1,9,2","w":340},"+":{"d":"298,-235r0,168r-36,0r0,-168r-191,0r0,-33r191,0r0,-165r36,0r0,165r192,0r0,33r-192,0","w":560},",":{"d":"128,78v-3,9,-8,13,-17,13v-13,0,-19,-5,-19,-15v0,-1,0,-4,1,-7r43,-143v3,-11,10,-15,21,-12v12,3,16,10,13,21","w":262},"-":{"d":"44,-254r0,-20r272,0r0,20r-272,0","w":350},"\u2010":{"d":"44,-254r0,-20r272,0r0,20r-272,0","w":350},".":{"d":"105,2v-12,0,-18,-5,-18,-16r0,-55v0,-11,6,-16,18,-16v12,0,18,5,18,16r0,55v0,11,-6,16,-18,16","w":209},"\/":{"d":"28,0r-38,0r341,-694r38,0","w":350},"0":{"d":"293,12v-78,0,-140,-24,-185,-71v-45,-47,-67,-109,-67,-186r0,-168v0,-77,23,-140,68,-187v45,-47,107,-71,184,-71v77,0,138,24,183,71v45,47,67,109,67,187r0,168v0,78,-22,140,-67,187v-45,47,-106,70,-183,70xm507,-413v0,-67,-19,-121,-58,-163v-39,-42,-91,-62,-157,-62v-67,0,-120,21,-158,62v-38,41,-57,96,-57,163r0,168v0,67,19,121,58,162v39,41,91,62,157,62v67,0,120,-21,159,-64v37,-40,56,-93,56,-160r0,-168","w":584},"1":{"d":"282,0r0,-595r-144,117r-56,0r204,-168r32,0r0,646r-36,0","w":413},"2":{"d":"50,0v1,-121,69,-221,202,-301r140,-82v59,-35,89,-72,89,-113v0,-45,-19,-79,-58,-101v-31,-18,-71,-27,-120,-27v-136,0,-204,67,-204,200r-36,0v0,-77,20,-135,61,-174v41,-39,99,-59,173,-59v62,0,112,12,150,35v46,28,69,71,69,129v0,55,-54,113,-161,173v-55,31,-96,55,-122,71v-37,29,-69,61,-94,96v-31,43,-48,83,-49,120r457,0r0,33r-497,0","w":584},"3":{"d":"297,11v-77,0,-139,-17,-186,-52v-51,-39,-77,-96,-77,-170r0,-17r36,0r0,31v0,58,23,103,70,134v40,27,91,41,153,41v58,0,107,-12,147,-35v49,-28,74,-69,74,-122v0,-101,-67,-151,-202,-151r-53,0r0,-34r54,0v125,0,187,-44,187,-132v0,-45,-22,-79,-67,-102v-34,-17,-76,-26,-127,-26v-144,0,-216,63,-216,188r-36,0v0,-77,24,-135,71,-172v43,-33,103,-49,178,-49v63,0,115,11,156,33v51,27,77,70,77,128v0,78,-41,127,-122,148v90,22,135,78,135,169v0,63,-27,112,-82,147v-46,29,-103,43,-170,43","w":584},"4":{"d":"427,-220r0,220r-36,0r0,-220r-370,0r215,-427r38,0r-199,394r316,0r0,-394r36,1r0,393r129,0r0,33r-129,0","w":584},"5":{"d":"288,11v-111,0,-186,-33,-226,-100v-20,-33,-30,-76,-30,-128r36,0v0,68,21,118,63,150v38,30,91,45,158,45v65,0,116,-16,155,-49v41,-34,62,-82,62,-144v0,-63,-22,-111,-67,-146v-40,-32,-93,-48,-158,-48v-85,0,-149,32,-190,96r-38,0r15,-333r444,0r0,33r-408,0r-11,248v45,-52,109,-78,192,-78v74,0,134,19,181,58v51,41,76,98,76,169v0,73,-25,129,-74,170v-46,38,-106,57,-180,57","w":584},"6":{"d":"495,-436v0,-60,-20,-107,-59,-140v-37,-31,-84,-47,-142,-47v-59,0,-107,15,-143,46v-38,32,-57,77,-58,134r0,119v41,-58,107,-87,198,-87v68,0,124,18,167,53v45,38,68,90,68,156v0,66,-23,118,-70,155v-43,35,-98,53,-167,53v-68,0,-123,-18,-166,-53v-45,-37,-68,-89,-68,-155r0,-10v0,-5,0,-7,1,-8r0,-226v0,-66,24,-118,71,-155v43,-35,99,-52,168,-52v68,0,123,18,166,54v46,38,69,92,69,163r-35,0xm290,-381v-59,0,-106,15,-143,45v-38,33,-57,77,-57,134v0,57,19,101,56,132v37,31,85,47,144,47v59,0,106,-16,144,-47v38,-31,57,-75,57,-132v0,-57,-20,-102,-59,-134v-36,-30,-83,-45,-142,-45","w":584},"7":{"d":"217,0r-38,0r306,-613r-426,0r0,-33r480,0","w":584},"8":{"d":"301,11v-75,0,-135,-14,-182,-41v-56,-34,-84,-86,-84,-155v0,-46,14,-84,43,-114v27,-28,63,-47,110,-57v-79,-23,-118,-67,-118,-132v0,-61,24,-105,73,-134v40,-23,93,-35,158,-35v65,0,117,12,157,35v50,29,75,74,75,134v0,64,-40,108,-120,132v103,23,154,80,154,173v0,69,-29,121,-86,154v-46,27,-106,40,-180,40xm301,-624v-130,0,-195,46,-195,137v0,40,24,71,71,93v37,17,79,25,125,25v48,0,90,-9,127,-27v45,-22,68,-53,68,-93v0,-90,-65,-135,-196,-135xm302,-336v-154,0,-231,51,-231,152v0,58,25,101,75,129v39,22,91,33,155,33v64,0,116,-11,155,-33v50,-27,75,-70,75,-129v0,-101,-76,-152,-229,-152","w":601},"9":{"d":"529,-436r0,245v0,65,-24,117,-72,154v-44,35,-100,52,-168,52v-68,0,-123,-18,-166,-53v-45,-37,-68,-91,-68,-162r35,0v0,61,19,106,56,138v37,32,85,48,144,48v58,0,106,-16,144,-48v38,-32,56,-75,57,-131r0,-139v-41,58,-107,87,-198,87v-68,0,-123,-18,-166,-53v-45,-37,-68,-89,-68,-155v0,-65,23,-117,69,-156v43,-35,99,-53,167,-53v68,0,123,18,166,54v46,37,69,89,69,155r0,10v-1,3,-1,6,-1,7xm294,-633v-59,0,-107,16,-144,47v-37,31,-56,76,-56,133v0,57,19,100,56,131v37,31,85,47,144,47v59,0,106,-16,144,-47v38,-31,57,-74,57,-131v0,-57,-20,-102,-59,-135v-36,-30,-83,-45,-142,-45","w":584},":":{"d":"123,-366v-12,0,-18,-6,-18,-18r0,-63v0,-12,6,-18,18,-18v11,0,16,6,17,18r1,63v0,12,-6,18,-18,18xm123,2v-12,0,-18,-6,-18,-18r0,-63v0,-12,6,-18,18,-18v11,0,16,6,17,18r1,63v0,12,-6,18,-18,18","w":244},";":{"d":"143,-366v-12,0,-18,-6,-18,-18r0,-63v0,-12,6,-18,18,-18v12,0,18,6,18,18r0,63v0,12,-6,18,-18,18xm122,77v-3,9,-8,14,-17,14v-13,0,-19,-5,-19,-16v0,-1,0,-4,1,-7r43,-151v3,-12,10,-16,21,-13v12,3,16,10,13,22","w":251},"<":{"d":"41,-225r0,-31r445,-179r0,35r-399,160r399,160r0,35","w":535},"=":{"d":"43,-282r0,-31r545,0r0,31r-545,0xm43,-167r0,-31r545,0r0,31r-545,0","w":630},">":{"d":"41,-45r0,-35r398,-160r-398,-160r0,-35r445,179r0,31","w":535},"?":{"d":"274,-200r0,31r-37,0r0,-25v0,-66,33,-126,100,-181v40,-33,67,-58,80,-77v17,-23,25,-49,25,-80v0,-45,-19,-78,-58,-101v-31,-19,-71,-28,-120,-28v-120,0,-186,58,-199,173r-33,-19v9,-63,35,-111,78,-142v40,-30,92,-45,155,-45v57,0,105,13,144,38v46,29,69,71,69,124v0,57,-34,114,-102,169v-68,55,-102,110,-102,163xm254,0v-11,0,-17,-6,-17,-18r0,-64v0,-11,6,-17,17,-17v13,0,19,6,19,17r0,64v0,12,-6,18,-19,18"},"@":{"d":"722,-217v-15,19,-34,36,-57,51v-26,17,-50,25,-71,25v-25,0,-38,-14,-38,-42v0,-4,2,-19,5,-45v-46,67,-111,100,-194,101v-66,1,-115,-22,-148,-68v-22,-31,-33,-68,-33,-111v0,-74,21,-135,62,-182v45,-50,104,-76,179,-77v86,-1,141,31,166,96r13,-96r34,0r-50,373r0,7v1,5,4,8,11,8v15,0,33,-8,54,-24v18,-14,32,-29,42,-44v35,-55,53,-107,53,-156v0,-81,-32,-146,-97,-195v-59,-45,-130,-67,-213,-67v-99,0,-181,29,-247,87v-68,60,-102,139,-102,236v0,96,34,174,103,233v66,57,148,86,245,86v57,0,113,-13,168,-38v60,-27,104,-63,132,-110r41,0v-31,58,-80,103,-149,135v-63,30,-125,45,-187,45v-108,0,-199,-32,-274,-95v-79,-67,-118,-154,-118,-261v0,-105,38,-190,115,-256v73,-63,163,-94,269,-94v95,0,175,25,241,75v73,55,110,129,110,221v0,65,-22,125,-65,182xm421,-534v-61,1,-110,22,-147,66v-37,44,-56,97,-56,159v0,47,14,85,40,112v26,27,63,41,111,41v54,-1,100,-19,139,-56v39,-37,62,-82,70,-136v1,-9,2,-21,2,-36v0,-49,-14,-86,-42,-112v-28,-26,-67,-39,-117,-38","w":840},"A":{"d":"603,0r-97,-218r-372,0r-99,218r-42,0r312,-678r37,0r300,678r-39,0xm324,-628r-174,377r342,0","w":636},"B":{"d":"359,0r-317,0r0,-678r330,0v62,0,113,13,152,40v45,31,67,76,67,135v0,71,-42,120,-127,148v99,21,149,78,149,170v0,65,-28,113,-83,146v-44,26,-101,39,-171,39xm370,-645r-292,0r0,275r291,0v51,0,93,-10,126,-31v40,-24,60,-60,60,-107v0,-47,-20,-83,-60,-107v-33,-20,-74,-30,-125,-30xm367,-337r-289,0r0,304r293,0v56,0,103,-11,140,-33v45,-27,67,-66,67,-118v0,-55,-23,-95,-69,-121v-36,-21,-83,-32,-142,-32","w":642},"C":{"d":"648,-542v-49,-73,-131,-110,-246,-110v-98,0,-176,28,-234,85v-58,57,-88,133,-88,229v0,95,28,172,84,228v56,56,132,84,227,84v110,0,193,-37,248,-112r31,20v-63,83,-155,125,-278,125v-107,0,-192,-31,-254,-92v-62,-61,-94,-144,-94,-249v0,-107,32,-193,96,-256v64,-63,152,-95,262,-95v127,0,219,41,276,123","w":719},"D":{"d":"277,0r-227,0r0,-678r265,0v109,0,192,30,248,91v55,58,82,141,82,249v0,111,-34,195,-103,254v-65,56,-153,84,-265,84xm537,-563v-50,-55,-124,-82,-223,-82r-228,0r0,612r194,0v103,0,184,-25,242,-77v58,-52,87,-128,87,-228v0,-99,-24,-174,-72,-225","w":680},"E":{"d":"50,0r0,-678r501,0r0,33r-466,0r0,275r413,0r0,32r-413,0r0,305r471,0r0,33r-506,0","w":564},"F":{"d":"85,-645r0,275r368,0r0,32r-368,0r0,338r-35,0r0,-678r465,0r0,33r-430,0","w":505},"G":{"d":"607,-56v-60,42,-132,63,-216,63v-111,0,-199,-29,-264,-88v-67,-61,-100,-146,-100,-256v0,-107,32,-193,96,-255v64,-62,151,-93,261,-93v82,0,150,17,204,50v61,38,100,98,117,179r-37,0v-29,-131,-124,-196,-283,-196v-99,0,-177,28,-235,84v-58,56,-87,133,-87,230v0,99,29,176,87,230v58,54,139,82,241,82v78,0,144,-20,198,-60v61,-44,91,-104,91,-179r0,-26r-291,0r0,-33r325,0v2,19,3,35,3,48v0,95,-37,169,-110,220","w":758},"H":{"d":"595,0r0,-338r-509,0r0,338r-36,0r0,-678r36,0r0,308r509,0r0,-308r36,0r0,678r-36,0","w":680},"I":{"d":"50,0r0,-678r36,0r0,678r-36,0","w":134},"J":{"d":"223,7v-130,0,-200,-54,-211,-163r36,0v7,87,64,130,171,130v65,0,110,-14,137,-40v27,-26,40,-70,40,-133r0,-479r36,0r0,485v0,133,-70,200,-209,200","w":486},"K":{"d":"619,0r-381,-367r-152,119r0,248r-36,0r0,-678r36,0r0,387r508,-387r57,0r-384,291r401,387r-49,0","w":670},"L":{"d":"50,0r0,-678r36,0r0,645r428,0r0,33r-464,0","w":505},"M":{"d":"733,0r0,-619r-307,619r-33,0r-307,-619r0,619r-36,0r0,-678r46,0r313,631r314,-631r46,0r0,678r-36,0","w":819},"N":{"d":"588,0r-502,-629r0,629r-36,0r0,-678r42,0r251,314r252,313r0,-627r36,0r0,678r-43,0","w":680},"O":{"d":"379,7v-110,0,-196,-31,-258,-92v-62,-61,-93,-146,-93,-254v0,-107,32,-189,94,-248v62,-59,148,-88,257,-88v109,0,196,29,259,88v63,59,94,141,94,248v0,109,-32,194,-95,255v-63,61,-149,91,-258,91xm379,-642v-99,0,-175,27,-231,80v-56,53,-84,127,-84,223v0,96,28,173,84,229v56,56,133,84,231,84v99,0,177,-28,233,-84v56,-56,84,-132,84,-229v0,-97,-29,-173,-86,-226v-55,-51,-132,-77,-231,-77","w":757},"P":{"d":"346,-302r-260,0r0,302r-36,0r0,-678r307,0v160,0,240,63,240,190v0,64,-27,112,-82,145v-44,27,-100,41,-169,41xm363,-645r-277,0r0,309r278,0v53,0,97,-12,133,-35v42,-27,63,-66,63,-116v0,-105,-66,-158,-197,-158","w":621},"Q":{"d":"485,-5v23,25,55,38,94,38r100,0r0,33r-100,0v-55,0,-99,-21,-131,-63v-22,3,-45,5,-69,5v-110,0,-196,-31,-258,-92v-62,-61,-93,-146,-93,-254v0,-107,32,-190,94,-249v62,-59,148,-88,257,-88v109,0,196,29,259,88v63,59,94,142,94,249v0,84,-21,155,-62,213v-43,61,-105,101,-185,120xm379,-642v-99,0,-175,27,-231,80v-56,53,-84,127,-84,224v0,95,28,170,83,226v9,-32,29,-57,57,-76v28,-19,59,-28,94,-28v43,0,80,13,111,40v31,27,47,61,47,102v0,13,3,27,8,40v76,-17,134,-53,174,-109v39,-53,58,-118,58,-195v0,-98,-28,-174,-84,-226v-56,-52,-134,-78,-233,-78xm422,-75v0,-33,-12,-59,-36,-79v-24,-20,-54,-30,-88,-30v-31,0,-58,8,-81,25v-25,19,-38,42,-41,71v55,42,122,63,203,63v18,0,35,-1,52,-4v-6,-15,-9,-30,-9,-46","w":757},"R":{"d":"470,-330v80,24,120,78,120,161r0,169r-36,0r0,-166v0,-96,-65,-144,-194,-144r-274,0r0,310r-36,0r0,-678r319,0v154,0,231,58,231,175v0,88,-43,146,-130,173xm371,-645r-285,0r0,301r269,0v58,0,105,-11,142,-34v45,-27,67,-68,67,-122v0,-97,-64,-145,-193,-145","w":642},"S":{"d":"330,7v-86,0,-155,-15,-207,-46v-63,-38,-94,-97,-94,-178r0,-17r36,0r0,13v0,130,89,195,266,195v61,0,111,-9,152,-28v55,-25,82,-65,82,-118v0,-37,-10,-65,-30,-84v-17,-17,-44,-31,-83,-42v-20,-6,-68,-17,-143,-33v-85,-18,-142,-35,-172,-50v-57,-31,-86,-75,-86,-134v0,-113,87,-170,260,-170v181,0,273,69,276,208r-36,0v-4,-69,-29,-117,-76,-143v-37,-21,-91,-32,-164,-32v-149,0,-224,46,-224,137v0,45,21,79,63,102v27,15,74,28,140,40v121,22,201,45,241,70v47,28,70,73,70,134v0,62,-32,109,-95,140v-49,24,-107,36,-176,36","w":642},"T":{"d":"291,-645r0,645r-36,0r0,-645r-260,0r0,-33r555,0r0,33r-259,0","w":545},"U":{"d":"541,-53v-45,40,-115,60,-209,60v-95,0,-165,-20,-210,-60v-48,-42,-72,-109,-72,-201r0,-424r36,0r0,423v0,153,82,229,246,229v164,0,246,-75,246,-225r0,-427r36,0r0,426v0,91,-24,157,-73,199","w":664},"V":{"d":"335,0r-33,0r-300,-678r37,0r280,630r271,-630r37,0","w":628},"W":{"d":"684,0r-33,0r-164,-384r-160,384r-33,0r-289,-678r37,0r269,630r156,-381r-105,-249r37,0r269,630r260,-630r37,0","w":970},"X":{"d":"573,0r-269,-322r-272,322r-46,0r294,-349r-279,-329r48,0r255,303r257,-303r47,0r-279,329r290,349r-46,0","w":604},"Y":{"d":"332,-330r0,330r-36,0r0,-330r-313,-348r46,0r284,314r285,-314r45,0","w":626},"Z":{"d":"30,0r0,-35r515,-610r-486,0r0,-33r531,0r0,34r-516,611r524,0r0,33r-568,0","w":626},"[":{"d":"94,168r0,-902r133,0r0,33r-97,0r0,836r97,0r0,33r-133,0","w":233},"\\":{"d":"324,0r-344,-694r38,0r344,694r-38,0","w":350},"]":{"d":"138,168r-131,0r0,-33r96,0r1,-40r-1,-796r-96,0r0,-33r133,0","w":233},"^":{"d":"208,-511r-61,-97r-61,97r-38,0r84,-135r29,0r88,135r-41,0","w":298},"_":{"d":"-8,119r0,-48r541,0r0,48r-541,0"},"`":{"d":"165,-532v-7,5,-16,4,-25,-3r-114,-110v-9,-9,-9,-17,2,-24v9,-7,18,-6,27,3r113,111v8,9,7,16,-3,23","w":193},"a":{"d":"471,0r0,-110v-43,81,-113,121,-211,121v-75,0,-134,-25,-177,-74v-41,-46,-61,-106,-61,-180v0,-75,20,-136,61,-183v44,-49,104,-74,181,-74v98,0,167,39,207,118r0,-116r36,0r0,498r-36,0xm259,-467v-64,0,-114,22,-151,67v-34,41,-51,94,-51,157v0,64,17,116,50,156v37,43,87,65,152,65v64,0,116,-22,155,-65v38,-41,57,-93,57,-156v0,-69,-18,-123,-55,-163v-37,-40,-89,-61,-157,-61","w":564},"b":{"d":"292,10v-44,0,-84,-11,-121,-32v-37,-21,-65,-50,-84,-87r0,109r-36,0r0,-678r36,0r0,292v39,-79,107,-118,206,-118v77,0,138,25,181,75v40,46,60,108,60,185v0,77,-22,139,-64,185v-42,46,-101,69,-178,69xm297,-471v-70,0,-123,22,-160,65v-33,39,-50,94,-50,164v0,64,19,117,58,158v39,41,90,61,153,61v65,0,115,-22,151,-65v33,-40,50,-92,50,-157v0,-67,-17,-120,-50,-160v-36,-44,-87,-66,-152,-66","w":564},"c":{"d":"414,-26v-39,25,-85,37,-140,37v-77,0,-138,-22,-182,-67v-44,-45,-66,-104,-66,-179v0,-81,23,-145,69,-193v46,-48,109,-72,190,-72v49,0,92,11,128,34v40,25,66,62,79,111r-33,17v-22,-86,-81,-129,-176,-129v-70,0,-125,22,-165,66v-37,41,-56,97,-56,166v0,65,19,116,56,155v37,39,89,58,155,58v47,0,87,-11,121,-33v37,-24,60,-60,69,-108r35,15v-13,54,-41,95,-84,122"},"d":{"d":"471,0r0,-110v-43,81,-113,121,-211,121v-75,0,-134,-25,-177,-74v-41,-47,-61,-107,-61,-182v0,-76,20,-137,61,-184v44,-50,104,-75,181,-75v98,0,167,40,207,119r0,-293r36,0r0,678r-36,0xm259,-471v-64,0,-114,23,-151,68v-34,42,-51,95,-51,158v0,65,17,117,50,157v37,44,87,66,152,66v64,0,116,-22,155,-66v38,-41,57,-94,57,-157v0,-69,-18,-124,-55,-165v-37,-41,-89,-61,-157,-61","w":564},"e":{"d":"54,-233v4,141,73,211,208,211v45,0,85,-10,120,-31v35,-21,61,-51,76,-91r37,0v-17,55,-48,96,-92,121v-40,23,-88,34,-143,34v-80,0,-141,-23,-183,-70v-39,-44,-58,-105,-58,-184v0,-76,23,-137,67,-185v44,-48,104,-72,179,-72v75,0,134,21,179,64v45,43,67,101,67,174r0,28xm265,-467v-61,0,-111,19,-148,55v-37,36,-58,85,-63,146r415,0v-1,-61,-20,-110,-57,-146v-37,-36,-86,-55,-147,-55"},"f":{"d":"131,-481r0,41r111,0r0,34r-111,0r0,407r-36,0r0,-407r-72,0r0,-34r72,0r0,-41v0,-123,80,-185,239,-185r0,32v-135,0,-203,51,-203,153","w":267},"g":{"d":"266,179v-58,0,-106,-11,-143,-34v-44,-27,-68,-71,-71,-131r36,0v7,88,67,132,179,132v129,0,194,-56,194,-167r0,-90v-20,34,-48,60,-85,79v-37,19,-77,28,-119,28v-73,0,-129,-22,-171,-68v-42,-46,-63,-105,-63,-178v0,-75,21,-135,64,-181v43,-46,102,-69,177,-69v43,0,81,10,115,29v37,20,64,48,82,83r0,-100r36,0r0,468v0,133,-77,199,-231,199xm262,-467v-62,0,-112,21,-150,63v-35,41,-53,92,-53,153v0,62,16,112,49,151v35,42,84,63,147,63v63,0,114,-20,151,-60v37,-38,55,-88,55,-151v0,-61,-18,-114,-54,-156v-36,-42,-84,-63,-145,-63","w":545},"h":{"d":"437,0r0,-323v0,-48,-15,-85,-44,-110v-29,-25,-69,-38,-118,-38v-58,0,-103,18,-137,54v-34,36,-51,83,-51,141r0,276r-36,0r0,-678r36,0r0,274v33,-67,96,-100,187,-100v58,0,105,14,140,42v39,31,59,74,59,129r0,333r-36,0"},"i":{"d":"67,-590v-7,0,-13,-5,-16,-14r0,-68v4,-10,9,-15,16,-15v6,0,13,5,20,14r0,70v-7,9,-13,13,-20,13xm51,0r0,-492r36,0r0,492r-36,0","w":136},"j":{"d":"67,-590v-7,0,-13,-5,-16,-14r0,-68v4,-10,9,-15,16,-15v6,0,13,5,20,14r0,71v-7,8,-13,12,-20,12xm-156,179r0,-32v136,0,204,-56,204,-169r0,-469r36,0r0,470v0,133,-80,200,-240,200","w":136},"k":{"d":"468,0r-261,-280r-120,87r0,193r-36,0r0,-678r36,0r0,443r353,-258r64,1r-269,190r281,302r-48,0","w":532},"l":{"d":"51,0r0,-678r36,0r0,678r-36,0","w":136},"m":{"d":"730,0r0,-321v0,-97,-46,-146,-138,-146v-50,0,-90,14,-120,43v-30,29,-45,68,-45,117r0,307r-36,0r0,-321v0,-97,-47,-146,-141,-146v-53,0,-94,20,-124,60v-26,35,-39,80,-39,133r0,274r-36,0r0,-488r36,0r0,85v32,-65,90,-97,173,-97v80,0,132,33,157,99v29,-66,87,-99,173,-99v117,0,176,56,176,169r0,331r-36,0","w":817},"n":{"d":"437,0r0,-321v0,-47,-15,-84,-44,-109v-29,-25,-69,-37,-118,-37v-58,0,-103,17,-137,53v-34,36,-51,83,-51,140r0,274r-36,0r0,-488r36,0r0,88v33,-67,96,-100,187,-100v58,0,105,14,140,42v39,30,59,72,59,127r0,331r-36,0"},"o":{"d":"272,11v-77,0,-139,-24,-184,-72v-44,-46,-66,-107,-66,-183v0,-77,22,-139,68,-186v46,-47,107,-70,184,-70v77,0,138,23,183,70v45,47,68,109,68,186v0,77,-23,138,-69,185v-46,47,-107,70,-184,70xm273,-467v-67,0,-119,20,-157,61v-38,41,-58,95,-58,162v0,67,19,120,58,161v39,41,91,61,157,61v66,0,118,-20,157,-61v39,-41,59,-94,59,-161v0,-68,-19,-122,-57,-162v-38,-40,-92,-61,-159,-61","w":545},"p":{"d":"293,14v-99,0,-167,-39,-206,-117r0,271r-36,0r0,-656r36,0r0,106v19,-38,46,-68,83,-88v37,-20,77,-30,122,-30v77,0,137,23,179,70v42,47,63,109,63,186v0,78,-20,140,-61,186v-43,48,-103,72,-180,72xm298,-467v-65,0,-116,20,-154,61v-38,41,-57,95,-57,160v0,70,17,125,50,164v37,42,90,63,160,63v65,0,116,-22,152,-66v33,-41,50,-93,50,-158v0,-65,-17,-118,-51,-159v-36,-43,-86,-65,-150,-65","w":564},"q":{"d":"470,168r0,-269v-37,77,-108,115,-212,115v-73,0,-131,-25,-175,-76v-41,-48,-61,-109,-61,-182v0,-74,21,-134,62,-181v44,-50,103,-75,178,-75v99,0,169,39,208,118r0,-106r36,0r0,656r-36,0xm257,-467v-64,0,-114,22,-150,67v-33,41,-49,93,-49,157v0,63,17,116,50,157v37,45,87,67,150,67v69,0,123,-21,160,-62v35,-39,53,-93,53,-162v0,-65,-19,-119,-57,-161v-38,-42,-91,-63,-157,-63","w":564},"r":{"d":"87,-382v11,-24,27,-46,50,-65v43,-35,97,-53,163,-53r0,33v-77,0,-133,29,-169,87v-29,48,-44,110,-44,185r0,195r-36,0r0,-488r36,0r0,106","w":318},"s":{"d":"249,13v-143,0,-215,-63,-215,-190r38,0v0,103,59,155,178,155v41,0,75,-7,102,-21v35,-18,53,-45,53,-82v0,-46,-35,-77,-106,-93v-5,-1,-38,-7,-101,-17v-95,-15,-143,-57,-143,-127v0,-45,19,-80,56,-105v33,-23,73,-34,121,-34v138,0,207,56,208,168r-39,0v0,-89,-55,-133,-164,-133v-37,0,-70,8,-97,24v-31,19,-47,46,-47,80v0,45,34,75,103,88r106,19v94,17,141,60,141,130v0,49,-21,86,-64,110v-33,19,-77,28,-130,28","w":486},"t":{"d":"149,-430r0,430r-34,0r-2,-430r-99,0r0,-34r99,0r0,-150r36,0r0,150r101,0r0,34r-101,0","w":263},"u":{"d":"437,0r0,-88v-35,66,-97,99,-187,99v-61,0,-109,-15,-145,-46v-36,-31,-54,-75,-54,-134r0,-319r36,0r0,318v0,49,14,85,43,110v29,25,69,38,120,38v62,0,109,-19,142,-57v30,-35,45,-83,45,-144r0,-265r36,0r0,488r-36,0"},"v":{"d":"263,0r-36,0r-230,-488r43,0r205,447r190,-447r39,0","w":471},"w":{"d":"555,0r-37,0r-128,-287r-119,287r-36,0r-218,-488r41,0r195,446r117,-291r-71,-155r43,0r194,446r180,-446r39,0","w":771},"x":{"d":"434,0r-201,-227r-200,227r-45,0r223,-253r-203,-235r47,0r178,210r183,-210r44,0r-203,235r222,253r-45,0","w":467},"y":{"d":"241,179v-58,0,-105,-11,-142,-34v-44,-28,-68,-72,-71,-131r36,0v7,88,67,132,179,132v129,0,194,-56,194,-167r0,-64v-35,67,-97,100,-187,100v-61,0,-109,-16,-145,-47v-36,-31,-54,-76,-54,-135r0,-321r36,0r0,320v0,49,14,87,43,112v29,25,69,37,120,37v62,0,109,-19,142,-57v30,-35,45,-84,45,-145r0,-267r36,0r0,468v0,133,-77,199,-232,199"},"z":{"d":"21,0r0,-33r369,-422r-340,0r0,-33r386,0r0,32r-370,423r387,0r0,33r-432,0","w":473},"{":{"d":"243,168v-57,0,-85,-34,-85,-101r0,-225v0,-39,-6,-66,-18,-79v-7,-8,-26,-19,-58,-33r0,-27v32,-13,51,-24,58,-32v12,-13,18,-40,18,-79r0,-225v0,-67,28,-101,85,-101r19,0r0,33r-18,0v-23,0,-38,10,-45,31v-3,11,-5,31,-5,61r0,203v0,43,-7,74,-21,92v-7,9,-22,20,-44,31v23,11,37,21,44,30v14,18,21,49,21,93r0,202v0,31,2,51,5,62v7,21,22,31,45,31r18,0r0,33r-19,0","w":350},"|":{"d":"99,32r0,-738r36,0r0,738r-36,0","w":233},"}":{"d":"203,-237v-11,13,-17,40,-17,79r0,225v0,67,-29,101,-86,101r-18,0r0,-33r17,0v23,0,38,-10,45,-31v4,-11,6,-31,6,-62r0,-202v0,-44,7,-75,20,-93v7,-9,21,-19,44,-30v-22,-11,-37,-22,-44,-31v-13,-18,-20,-49,-20,-92r0,-203v0,-30,-2,-50,-6,-61v-7,-21,-22,-31,-45,-31r-17,0r0,-33r18,0v57,0,86,34,86,101r0,225v0,39,6,66,17,79v7,8,26,19,59,32r0,27v-33,14,-52,25,-59,33","w":350},"~":{"d":"380,-351v-21,0,-57,-11,-110,-33v-53,-22,-87,-33,-102,-33v-41,0,-65,22,-73,67r-47,0v5,-31,19,-57,42,-76v23,-19,49,-28,80,-28v19,0,55,12,108,34v53,22,87,33,102,33v41,0,66,-23,74,-69r47,0v-5,33,-19,58,-42,77v-23,19,-49,28,-79,28","w":548},"\u00a1":{"d":"98,-484v-12,0,-18,-6,-18,-17r0,-64v0,-12,6,-18,18,-18v12,0,18,6,18,18r0,64v0,11,-6,17,-18,17xm79,95r0,-509r36,0r0,509r-36,0","w":194},"\u00a2":{"d":"414,-26v-39,25,-85,38,-140,38v-43,0,-82,-8,-117,-23r-23,47r-38,0r32,-64v-68,-45,-102,-115,-102,-208v0,-81,23,-145,69,-193v46,-48,109,-72,190,-72v25,0,49,3,71,9r29,-59r38,0r-35,70v53,24,87,66,104,125r-33,17v-14,-54,-42,-91,-85,-111r-201,408v29,13,62,20,100,20v47,0,87,-11,121,-32v37,-24,60,-60,69,-109r35,15v-13,54,-41,95,-84,122xm283,-468v-70,0,-125,22,-165,66v-37,42,-56,97,-56,166v0,79,27,138,81,177r198,-402v-18,-5,-37,-7,-58,-7"},"\u00a3":{"d":"356,12v-78,0,-139,-24,-184,-71v-45,-47,-68,-109,-68,-186r0,-2r-76,0r6,-34r70,0r0,-91r-52,0r7,-33r45,0r0,-8v0,-77,23,-140,68,-187v45,-47,107,-71,184,-71v75,0,137,26,187,77r-26,24v-43,-45,-97,-68,-162,-68v-67,0,-119,21,-157,62v-38,41,-58,96,-58,163r0,8r295,0r-7,33r-288,0r0,91r270,0r-6,34r-264,0r0,2v0,67,19,121,58,162v39,41,91,62,157,62v65,0,119,-22,162,-67r26,23v-50,51,-112,77,-187,77","w":584},"\u00a4":{"d":"481,-194r-100,-86v-29,20,-62,30,-99,30v-37,0,-70,-10,-99,-31r-101,87r-25,-21r101,-88v-22,-24,-33,-52,-33,-84v0,-33,11,-61,34,-86r-102,-89r25,-21r102,88v29,-19,61,-29,97,-29v37,0,70,10,98,29r102,-88r25,21r-102,89v24,25,36,53,36,85v0,33,-11,61,-34,86r100,87xm282,-492v-33,0,-62,9,-85,27v-25,20,-37,46,-37,77v0,31,12,56,36,76v24,20,53,30,86,30v33,0,62,-10,87,-29v25,-19,37,-45,37,-76v0,-33,-13,-59,-39,-78v-23,-18,-52,-27,-85,-27","w":584},"\u00a5":{"d":"342,-330r0,46r212,0r0,34r-212,0r0,91r212,0r0,33r-212,0r0,126r-36,0r0,-126r-212,0r0,-33r212,0r0,-91r-212,0r0,-34r212,0r0,-46r-313,-348r46,0r284,314r285,-314r45,0","w":645},"\u00a6":{"d":"99,-372r0,-324r36,0r0,324r-36,0xm99,23r0,-324r36,0r0,324r-36,0","w":233},"\u00a7":{"d":"382,-143v63,21,94,58,94,111v0,45,-19,80,-57,106v-33,23,-73,34,-120,34v-137,0,-205,-56,-205,-167r36,0v0,89,55,134,164,134v39,0,72,-8,98,-24v32,-19,48,-46,48,-83v0,-45,-29,-73,-86,-85r-154,-31v-31,-10,-57,-26,-78,-49v-23,-25,-33,-53,-30,-83v5,-62,41,-102,109,-119v-63,-21,-94,-59,-94,-112v0,-45,19,-80,56,-106v33,-23,73,-34,120,-34v137,0,206,56,207,168r-36,0v0,-90,-55,-135,-165,-135v-39,0,-71,8,-98,24v-32,19,-48,47,-48,83v0,35,19,59,57,74v15,6,58,16,129,30v35,3,64,11,86,24v52,22,78,59,78,110v0,68,-37,111,-111,130xm281,-375v-84,0,-134,25,-151,76r0,15v0,39,20,69,59,90v32,17,69,26,112,26v41,0,76,-7,103,-21v35,-18,52,-46,52,-83v-16,-69,-74,-103,-175,-103","w":584},"\u00a8":{"d":"165,-547v-11,0,-17,-5,-17,-16r0,-46v0,-10,6,-15,17,-15v13,0,19,5,19,15r0,46v0,11,-6,16,-19,16xm50,-547v-12,0,-18,-5,-18,-16r0,-46v0,-10,6,-15,18,-15v12,0,18,5,18,15r0,46v0,11,-6,16,-18,16","w":214},"\u00a9":{"d":"285,-236v-69,0,-126,-19,-173,-56v-51,-41,-76,-94,-76,-161v0,-65,25,-119,76,-160v47,-39,104,-59,171,-59v67,0,124,19,172,58v52,41,78,95,78,160v0,65,-26,119,-77,160v-47,39,-104,58,-171,58xm285,-637v-57,0,-105,16,-146,48v-43,35,-65,80,-65,135v0,55,21,100,64,135v40,33,88,49,145,49v57,0,105,-16,146,-48v44,-35,66,-80,66,-135v0,-55,-22,-100,-65,-135v-40,-33,-88,-49,-145,-49xm293,-310v-45,0,-83,-13,-111,-38v-28,-25,-42,-60,-42,-103v0,-42,14,-75,42,-99v28,-24,63,-37,107,-37v76,0,120,35,132,106r-39,0v-10,-47,-41,-71,-94,-71v-33,0,-60,9,-80,27v-20,18,-30,43,-30,74v0,33,11,58,32,77v21,19,49,29,83,29v44,0,74,-25,89,-76r41,0v-22,74,-65,111,-130,111","w":560},"\u00aa":{"d":"305,-349r0,-44v-27,34,-67,51,-118,51v-47,0,-85,-15,-112,-46v-26,-29,-39,-66,-39,-112v0,-47,13,-85,40,-114v27,-29,65,-44,113,-44v51,0,89,16,116,49r0,-48r38,0r0,308r-38,0xm187,-624v-37,0,-65,12,-85,37v-19,22,-28,51,-28,87v0,36,9,65,27,87v20,25,49,37,86,37v36,0,65,-12,87,-37v21,-23,31,-52,31,-87v0,-39,-11,-69,-31,-91v-20,-22,-49,-33,-87,-33","w":378},"\u00ab":{"d":"180,-261r0,-25r164,-113r0,38r-124,87r124,88r0,35xm64,-261r0,-25r164,-113r0,38r-124,87r124,88r0,35","w":391},"\u00ac":{"d":"512,-134r0,-137r-470,0r0,-31r506,0r0,168r-36,0","w":602},"\u00ae":{"d":"274,-236v-67,0,-125,-19,-172,-57v-51,-41,-76,-94,-76,-160v0,-65,25,-119,76,-160v47,-39,104,-59,171,-59v67,0,125,19,172,58v51,41,77,94,77,160v0,67,-25,120,-76,161v-47,38,-104,57,-172,57xm274,-637v-57,0,-106,16,-146,48v-43,34,-64,79,-64,135v0,56,21,101,62,135v39,33,88,49,147,49v57,0,106,-16,146,-48v43,-34,65,-79,65,-135v0,-57,-21,-102,-64,-136v-39,-32,-88,-48,-146,-48xm362,-447v18,12,27,31,27,56r0,72r-39,0r0,-71v0,-26,-18,-39,-53,-39r-80,0r0,110r-38,0r0,-264r121,0v61,0,92,25,92,74v0,27,-10,48,-30,62xm300,-547r-83,0r0,82r78,0v39,0,59,-14,59,-43v0,-26,-18,-39,-54,-39","w":543},"\u00b0":{"d":"210,-385v-42,0,-79,-13,-110,-38v-31,-25,-47,-58,-47,-97v0,-39,16,-72,47,-97v31,-25,67,-38,109,-38v43,0,79,12,109,36v33,25,49,58,49,98v0,41,-15,74,-47,99v-32,25,-69,37,-110,37xm210,-624v-33,0,-62,9,-86,28v-24,19,-36,44,-36,75v0,31,12,55,36,75v24,20,53,30,86,30v33,0,62,-9,86,-28v24,-19,37,-45,37,-76v0,-32,-13,-57,-37,-76v-24,-19,-53,-28,-86,-28","w":420},"\u00b1":{"d":"333,-234r0,169r-36,0r0,-169r-191,0r0,-33r191,0r0,-166r36,0r0,166r192,0r0,33r-192,0xm107,3r0,-34r419,0r0,34r-419,0","w":630},"\u00b2":{"d":"29,-256v0,-57,24,-107,71,-149v21,-18,65,-46,134,-83v48,-27,72,-50,72,-70v0,-46,-36,-69,-108,-69v-82,0,-123,39,-123,118r-39,0v0,-102,53,-153,158,-153v100,0,150,35,150,106v0,32,-24,61,-72,88r-87,48v-71,39,-110,83,-116,130r295,0r0,34r-335,0","w":392},"\u00b3":{"d":"218,-252v-51,0,-93,-10,-124,-31v-37,-24,-56,-60,-56,-107r0,-18r40,0r0,26v0,33,15,58,45,75v25,13,55,20,91,20v35,0,64,-6,88,-17v32,-15,48,-37,48,-68v0,-55,-41,-83,-123,-83r-43,0r0,-34r44,0v76,0,114,-23,114,-70v0,-25,-15,-43,-44,-55v-21,-9,-46,-13,-75,-13v-88,0,-132,37,-132,112r-39,0v0,-98,57,-147,170,-147v41,0,76,7,104,21v37,18,55,45,55,82v0,42,-21,71,-62,87v47,18,70,51,70,100v0,41,-19,73,-58,94v-31,17,-68,26,-113,26","w":426},"\u00b4":{"d":"64,-535v-5,4,-10,6,-15,6v-13,0,-19,-5,-19,-15v0,-4,2,-8,5,-11r113,-111v5,-5,10,-7,16,-7v12,0,18,5,18,16v0,4,-2,8,-5,12","w":212},"\u00b5":{"d":"388,-11v-11,6,-17,15,-17,26v0,28,27,42,81,42r0,36v-31,0,-58,-6,-80,-17v-29,-14,-43,-33,-43,-58r0,-8v-17,3,-36,5,-56,5v-90,0,-152,-33,-186,-100r0,256r-36,0r0,-659r36,0r0,266v0,62,15,111,44,146v33,38,80,57,142,57v51,0,91,-12,120,-37v29,-25,44,-63,44,-112r0,-320r36,0r0,321v0,74,-28,126,-85,156"},"\u00b6":{"d":"406,133r0,-778r-71,0r0,778r-36,0r0,-378v-67,3,-124,-16,-172,-57v-48,-41,-72,-94,-72,-160v0,-65,26,-119,77,-160v48,-38,106,-57,173,-57v3,0,5,0,7,1r130,0r0,811r-36,0","w":496},"\u00b8":{"d":"123,174v-25,0,-59,-6,-101,-17r16,-30v33,11,61,16,82,16v49,0,74,-14,74,-41v0,-17,-18,-27,-54,-30v-19,-1,-34,1,-45,6r0,-17r7,-70r36,0r-2,50r8,0v60,0,90,22,90,65v0,45,-37,68,-111,68","w":259},"\u00b9":{"d":"176,-260r0,-342r-101,63r-67,0r177,-114r32,0r0,393r-41,0","w":287},"\u00ba":{"d":"205,-350v-49,0,-89,-14,-120,-42v-31,-28,-46,-64,-46,-111v0,-47,16,-85,47,-112v31,-27,72,-41,122,-41v49,0,90,14,121,42v31,28,47,64,47,111v0,48,-16,86,-48,113v-32,27,-74,40,-123,40xm206,-626v-39,0,-71,12,-96,34v-25,22,-37,52,-37,89v0,38,13,68,37,90v24,22,56,33,96,33v41,0,73,-10,98,-32v25,-22,38,-52,38,-91v0,-39,-13,-70,-40,-92v-24,-21,-56,-31,-96,-31","w":413},"\u00bb":{"d":"180,-151r0,-35r123,-88r-123,-87r0,-38r164,113r0,25xm64,-151r0,-35r123,-88r-123,-87r0,-38r164,113r0,25","w":381},"\u00bc":{"d":"672,-134r0,134r-35,0r0,-134r-269,0r161,-270r38,0r-142,240r212,0r0,-241r35,2r0,239r92,0r0,30r-92,0xm227,0r-38,0r340,-694r38,0xm199,-257r0,-350r-104,66r-59,0r169,-111r30,0r0,395r-36,0","w":816},"\u00bd":{"d":"430,0v2,-79,46,-143,133,-192r89,-49v37,-25,56,-46,56,-64v0,-49,-37,-73,-110,-73v-83,0,-125,41,-126,122r-34,0v1,-101,53,-152,156,-152v98,0,147,35,147,105v0,32,-22,60,-65,84r-90,52v-75,44,-114,90,-119,137r294,0r0,30r-331,0xm216,0r-38,0r341,-694r38,0xm188,-257r0,-350r-103,66r-60,0r169,-111r30,0r0,395r-36,0","w":803},"\u00be":{"d":"763,-134r0,134r-35,0r0,-134r-269,0r162,-270r38,0r-143,240r212,0r0,-241r35,2r0,239r92,0r0,30r-92,0xm318,0r-38,0r341,-694r38,0xm229,-250v-118,0,-177,-46,-177,-137r0,-16r34,0r0,25v0,33,15,59,46,77v26,14,57,21,94,21v35,0,65,-6,90,-18v33,-16,49,-40,49,-71v0,-57,-42,-86,-127,-86r-40,0r0,-31r41,0v78,0,117,-24,117,-72v0,-48,-41,-72,-122,-72v-89,0,-134,38,-135,113r-34,0v2,-96,58,-144,168,-144v41,0,76,7,103,20v36,18,54,46,54,83v0,42,-23,72,-69,89v52,18,78,51,78,100v0,41,-19,72,-58,93v-31,17,-68,26,-112,26","w":906},"\u00bf":{"d":"256,-500v-11,0,-17,-6,-17,-17r0,-64v0,-12,6,-18,17,-18v13,0,19,6,19,18r0,64v0,11,-6,17,-19,17xm246,95v-57,0,-106,-13,-145,-38v-45,-29,-68,-71,-68,-125v0,-41,18,-82,53,-121r98,-95v36,-38,54,-77,54,-116r0,-31r37,0r0,26v0,65,-34,126,-102,181v-40,33,-67,58,-80,77v-16,23,-24,49,-24,79v0,45,19,79,57,102v32,19,72,28,121,28v120,0,186,-58,198,-175r33,21v-9,62,-34,109,-76,142v-40,30,-92,45,-156,45"},"\u00c0":{"d":"408,-706v-9,5,-17,4,-25,-3r-114,-121v-9,-9,-8,-17,2,-24v8,-8,17,-7,26,2r114,121v9,10,8,18,-3,25xm623,0r-97,-219r-372,0r-99,219r-42,0r312,-681r37,0r300,681r-39,0xm344,-631r-174,378r342,0","w":676},"\u00c1":{"d":"298,-711v-5,5,-10,7,-15,7v-13,0,-19,-6,-19,-17v0,-4,2,-8,5,-12r114,-121v5,-5,10,-7,15,-7v12,0,18,6,18,17v0,4,-2,8,-5,12xm623,0r-97,-219r-372,0r-99,219r-42,0r312,-681r37,0r300,681r-39,0xm344,-631r-174,378r342,0","w":676},"\u00c2":{"d":"421,-700r-82,-109r-82,109r-40,0r108,-147r29,0r110,147r-43,0xm623,0r-97,-219r-372,0r-99,219r-42,0r312,-681r37,0r300,681r-39,0xm344,-631r-174,378r342,0","w":676},"\u00c3":{"d":"415,-714v-13,0,-36,-9,-71,-27v-35,-18,-57,-27,-65,-27v-11,0,-20,5,-29,15v-9,10,-13,25,-14,46r-32,-21v0,-21,8,-38,24,-52v16,-14,34,-21,53,-21v11,0,35,9,71,28v34,17,55,26,63,26v11,0,21,-5,30,-15v9,-10,13,-25,14,-45r32,18v-2,22,-10,40,-25,54v-15,14,-32,21,-51,21xm623,0r-97,-219r-372,0r-99,219r-42,0r312,-680r37,0r300,680r-39,0xm344,-630r-174,378r342,0","w":676},"\u00c4":{"d":"398,-709v-11,0,-17,-6,-17,-18r0,-54v0,-12,6,-18,17,-18v13,0,19,6,19,18r0,54v0,12,-6,18,-19,18xm283,-709v-12,0,-18,-6,-18,-18r0,-54v0,-12,6,-18,18,-18v12,0,18,6,18,18r0,54v0,12,-6,18,-18,18xm623,0r-97,-219r-372,0r-99,219r-42,0r312,-680r37,0r300,680r-39,0xm344,-630r-174,378r342,0","w":676},"\u00c5":{"d":"339,-715v-23,0,-43,-7,-60,-22v-17,-15,-25,-34,-25,-57v0,-23,8,-41,25,-56v17,-15,37,-23,60,-23v24,0,44,7,61,22v17,15,25,34,25,57v0,23,-8,42,-25,57v-17,15,-37,22,-61,22xm623,0r-97,-219r-372,0r-99,219r-42,0r312,-681r37,0r300,681r-39,0xm339,-838v-13,0,-24,4,-33,12v-9,8,-14,19,-14,32v0,13,5,24,14,32v9,8,20,12,33,12v33,0,49,-15,49,-44v0,-29,-16,-44,-49,-44xm344,-631r-174,378r342,0","w":676},"\u00c6":{"d":"583,0r0,-338r-265,0r-303,338r-45,0r611,-678r453,0r0,33r-414,0r0,274r46,0r0,1r315,0r0,32r-361,0r0,305r419,0r0,33r-456,0xm349,-371r234,0r1,-259","w":1077},"\u00c7":{"d":"648,-542v-49,-73,-131,-110,-246,-110v-98,0,-176,29,-234,86v-58,57,-88,133,-88,229v0,96,28,173,84,229v56,56,131,84,227,84v110,0,193,-37,248,-111r31,20v-63,83,-155,125,-278,125v-107,0,-192,-30,-254,-92v-62,-62,-94,-146,-94,-251v0,-107,32,-193,96,-257v64,-64,152,-95,262,-95v127,0,219,41,276,123xm374,174v-25,0,-59,-6,-102,-19r17,-31v33,11,61,17,82,17v49,0,73,-14,73,-43v0,-19,-18,-29,-53,-32v-19,-2,-34,0,-45,5r0,-17r7,-75r36,0r-2,54v2,-1,5,-1,8,-1v60,0,90,23,90,70v0,48,-37,72,-111,72","w":719},"\u00c8":{"d":"351,-697v-9,7,-18,6,-27,-3r-113,-120v-9,-10,-9,-18,2,-25v9,-7,17,-7,26,2r114,121v8,9,7,18,-2,25xm50,0r0,-681r501,0r0,33r-466,0r0,277r413,0r0,32r-413,0r0,306r471,0r0,33r-506,0","w":564},"\u00c9":{"d":"240,-700v-5,5,-10,7,-15,7v-13,0,-19,-6,-19,-17v0,-4,2,-8,5,-12r114,-121v5,-4,10,-6,15,-6v12,0,18,6,18,17v0,4,-2,8,-5,12xm50,0r0,-681r501,0r0,33r-466,0r0,277r413,0r0,32r-413,0r0,306r471,0r0,33r-506,0","w":564},"\u00ca":{"d":"362,-710r-82,-109r-82,109r-40,0r108,-147r29,0r111,147r-44,0xm50,0r0,-681r501,0r0,33r-466,0r0,277r413,0r0,32r-413,0r0,306r471,0r0,33r-506,0","w":564},"\u00cb":{"d":"340,-717v-12,0,-18,-6,-18,-18r0,-54v0,-12,6,-18,18,-18v12,0,18,6,18,18r0,54v0,12,-6,18,-18,18xm224,-717v-11,0,-17,-6,-17,-18r0,-54v0,-12,6,-18,17,-18v13,0,19,6,19,18r0,54v0,12,-6,18,-19,18xm50,0r0,-680r501,0r0,33r-466,0r0,276r413,0r0,32r-413,0r0,306r471,0r0,33r-506,0","w":564},"\u00cc":{"d":"135,-712v-9,7,-18,6,-26,-3r-113,-120v-9,-10,-8,-18,2,-25v9,-7,18,-7,27,2r113,121v9,9,8,18,-3,25xm50,0r0,-681r36,0r0,681r-36,0","w":134},"\u00cd":{"d":"25,-711v-5,5,-10,7,-15,7v-13,0,-19,-6,-19,-17v0,-4,2,-8,5,-12r113,-121v5,-5,10,-7,16,-7v12,0,18,6,18,17v0,4,-2,8,-5,12xm50,0r0,-681r36,0r0,681r-36,0","w":134},"\u00ce":{"d":"148,-706r-82,-109r-83,109r-40,0r108,-147r29,0r111,147r-43,0xm50,0r0,-681r36,0r0,681r-36,0","w":134},"\u00cf":{"d":"125,-724v-11,0,-17,-6,-17,-19r0,-54v0,-11,6,-17,17,-17v11,0,17,6,18,17r1,54v0,13,-6,19,-19,19xm10,-724v-13,0,-20,-6,-20,-19r0,-54v0,-11,7,-17,20,-17v11,0,16,6,17,17r1,54v0,13,-6,19,-18,19xm50,0r0,-680r36,0r0,680r-36,0","w":134},"\u00d0":{"d":"277,0r-227,0r0,-323r-37,0r0,-34r37,0r0,-321r265,0v109,0,192,30,248,91v55,58,82,141,82,249v0,111,-34,195,-103,254v-65,56,-153,84,-265,84xm537,-563v-50,-55,-124,-82,-223,-82r-228,0r0,288r198,0r0,34r-198,0r0,290r194,0v103,0,184,-25,242,-77v58,-52,87,-128,87,-228v0,-99,-24,-174,-72,-225","w":680},"\u00d1":{"d":"408,-708v-13,0,-37,-9,-72,-27v-35,-18,-56,-27,-64,-27v-11,0,-20,5,-29,15v-9,10,-13,25,-14,46r-32,-21v0,-21,9,-38,25,-52v16,-14,33,-21,51,-21v12,0,36,9,72,28v34,17,55,26,63,26v11,0,21,-5,30,-15v9,-10,13,-25,14,-45r32,17v-2,22,-10,40,-25,54v-15,14,-32,22,-51,22xm588,0r-502,-631r0,631r-36,0r0,-680r42,0v56,74,140,179,251,315r252,314r0,-629r36,0r0,680r-43,0","w":680},"\u00d2":{"d":"447,-710v-9,6,-17,5,-24,-3r-115,-120v-3,-4,-4,-8,-4,-12v0,-12,6,-18,18,-18v5,0,10,2,15,7r113,121v9,10,8,18,-3,25xm379,7v-110,0,-196,-31,-258,-93v-62,-62,-93,-146,-93,-254v0,-107,32,-191,94,-250v62,-59,148,-88,257,-88v109,0,195,29,258,87v63,60,95,144,95,251v0,108,-32,192,-95,254v-63,62,-149,93,-258,93xm379,-645v-99,0,-175,27,-231,80v-56,53,-84,128,-84,225v0,96,28,172,84,229v56,57,133,85,231,85v99,0,177,-28,233,-84v56,-56,84,-133,84,-230v0,-98,-28,-173,-84,-226v-56,-53,-134,-79,-233,-79","w":757},"\u00d3":{"d":"335,-717v-5,4,-9,6,-14,6v-12,0,-18,-5,-18,-15v0,-5,2,-9,5,-13r113,-121v8,-8,17,-9,27,-3v10,8,10,17,1,26xm379,7v-110,0,-196,-31,-258,-93v-62,-62,-93,-146,-93,-255v0,-107,32,-190,94,-249v62,-59,148,-88,257,-88v109,0,195,29,258,87v63,60,95,143,95,250v0,109,-32,193,-95,255v-63,62,-149,93,-258,93xm379,-645v-99,0,-175,27,-231,80v-56,53,-84,128,-84,224v0,97,28,173,84,230v56,57,133,85,231,85v99,0,177,-28,233,-84v56,-56,84,-133,84,-231v0,-97,-28,-172,-84,-225v-56,-53,-134,-79,-233,-79","w":757},"\u00d4":{"d":"459,-718r-82,-108r-82,108r-40,0r107,-146r29,0r111,146r-43,0xm379,7v-110,0,-196,-31,-258,-93v-62,-62,-93,-146,-93,-255v0,-107,32,-190,94,-249v62,-59,148,-88,257,-88v109,0,195,29,258,87v63,60,95,143,95,250v0,109,-32,193,-95,255v-63,62,-149,93,-258,93xm379,-645v-99,0,-175,27,-231,80v-56,53,-84,128,-84,224v0,97,28,173,84,230v56,57,133,85,231,85v99,0,177,-28,233,-84v56,-56,84,-133,84,-231v0,-97,-28,-172,-84,-225v-56,-53,-134,-79,-233,-79","w":757},"\u00d5":{"d":"448,-729v-12,0,-35,-9,-70,-27v-35,-18,-57,-27,-65,-27v-13,0,-23,6,-32,18v-7,9,-11,24,-13,43r-30,-21v0,-21,8,-38,24,-52v16,-14,34,-21,52,-21v12,0,36,9,72,28v34,17,55,26,62,26v12,0,22,-5,31,-15v9,-10,13,-25,14,-45r32,18v-3,22,-11,40,-26,54v-15,14,-32,21,-51,21xm379,7v-110,0,-196,-31,-258,-93v-62,-62,-93,-146,-93,-254v0,-107,32,-191,94,-250v62,-59,148,-88,257,-88v109,0,196,29,259,88v63,59,94,143,94,250v0,109,-32,194,-95,255v-63,61,-149,92,-258,92xm379,-644v-99,0,-175,27,-231,80v-56,53,-84,127,-84,224v0,97,28,174,84,230v56,56,133,84,231,84v99,0,177,-28,233,-84v56,-56,84,-133,84,-230v0,-98,-29,-174,-86,-227v-55,-51,-132,-77,-231,-77","w":757},"\u00d6":{"d":"437,-724v-12,0,-18,-6,-18,-19r0,-54v0,-11,6,-17,18,-17v11,0,16,6,17,17r1,54v0,13,-6,19,-18,19xm321,-724v-11,0,-17,-6,-17,-19r0,-54v0,-11,6,-17,17,-17v11,0,17,6,18,17r1,54v0,13,-6,19,-19,19xm379,7v-110,0,-196,-31,-258,-93v-62,-62,-93,-146,-93,-254v0,-107,32,-190,94,-249v62,-59,148,-88,257,-88v109,0,196,29,259,88v63,59,94,142,94,249v0,109,-32,194,-95,255v-63,61,-149,92,-258,92xm379,-644v-99,0,-175,27,-231,80v-56,53,-84,127,-84,224v0,97,28,174,84,230v56,56,133,84,231,84v99,0,177,-28,233,-84v56,-56,84,-133,84,-230v0,-98,-29,-174,-86,-227v-55,-51,-132,-77,-231,-77","w":757},"\u00d7":{"d":"381,-112r-136,-116r-136,115r-25,-22r135,-117r-134,-115r26,-23r134,116r135,-116r26,23r-135,115r136,119","w":490},"\u00d8":{"d":"379,7v-52,0,-99,-7,-141,-21r-21,43r-38,0r28,-57v-35,-15,-65,-37,-91,-65v-59,-63,-88,-145,-88,-246v0,-107,32,-190,94,-249v62,-59,148,-88,257,-88v51,0,98,6,139,19r23,-47r38,0r-29,60v121,55,182,156,182,305v0,109,-32,194,-95,255v-63,61,-149,91,-258,91xm534,-614r-280,568v37,13,78,20,125,20v99,0,177,-28,233,-84v56,-56,84,-132,84,-229v0,-136,-54,-228,-162,-275xm379,-642v-99,0,-175,27,-231,80v-56,53,-84,127,-84,223v0,90,27,164,80,221v23,26,49,45,78,58r280,-566v-36,-11,-77,-16,-123,-16","w":757},"\u00d9":{"d":"401,-702v-8,5,-17,4,-26,-3r-114,-121v-9,-9,-8,-17,2,-24v9,-7,18,-7,27,2r113,120v9,10,8,19,-2,26xm541,-53v-45,40,-115,60,-209,60v-95,0,-165,-20,-210,-60v-48,-43,-72,-110,-72,-202r0,-426r36,0r0,425v0,153,82,230,246,230v164,0,246,-75,246,-226r0,-429r36,0r0,428v0,91,-24,158,-73,200","w":664},"\u00da":{"d":"289,-707v-5,4,-10,6,-15,6v-12,0,-18,-5,-18,-16v0,-5,2,-9,5,-13r113,-120v5,-5,10,-7,16,-7v12,0,18,6,18,17v0,4,-2,8,-5,12xm541,-53v-45,40,-115,60,-209,60v-95,0,-165,-20,-210,-60v-48,-43,-72,-110,-72,-202r0,-426r36,0r0,425v0,153,82,230,246,230v164,0,246,-75,246,-226r0,-429r36,0r0,428v0,91,-24,158,-73,200","w":664},"\u00db":{"d":"413,-708r-83,-109r-82,109r-40,0r108,-147r29,0r111,147r-43,0xm541,-53v-45,40,-115,60,-209,60v-95,0,-165,-20,-210,-60v-48,-43,-72,-110,-72,-202r0,-426r36,0r0,425v0,153,82,230,246,230v164,0,246,-75,246,-226r0,-429r36,0r0,428v0,91,-24,158,-73,200","w":664},"\u00dc":{"d":"390,-724v-12,0,-18,-6,-18,-19r0,-54v0,-11,6,-17,18,-17v12,0,18,6,18,17r0,54v0,13,-6,19,-18,19xm274,-724v-11,0,-17,-6,-17,-19r0,-54v0,-11,6,-17,17,-17v13,0,19,6,19,17r0,54v0,13,-6,19,-19,19xm541,-53v-45,40,-115,60,-209,60v-95,0,-165,-20,-210,-60v-48,-43,-72,-110,-72,-202r0,-425r36,0r0,424v0,153,82,230,246,230v164,0,246,-75,246,-226r0,-428r36,0r0,427v0,91,-24,158,-73,200","w":664},"\u00dd":{"d":"287,-711v-5,5,-10,7,-15,7v-13,0,-19,-6,-19,-17v0,-4,2,-8,5,-12r114,-121v5,-5,10,-7,16,-7v12,0,18,6,18,17v0,4,-2,8,-5,12xm348,-332r0,332r-36,0r0,-332r-313,-349r46,0r284,316r285,-316r45,0","w":657},"\u00de":{"d":"235,-171r-148,0r0,171r-36,0r0,-678r36,0r0,151r149,0v95,0,142,60,142,180v0,117,-48,176,-143,176xm235,-494r-148,0r0,291r149,0v70,-1,105,-49,105,-144v0,-98,-35,-147,-106,-147","w":425},"\u00df":{"d":"405,-23v-47,35,-114,53,-200,53r0,-33v162,0,243,-66,243,-199v0,-63,-24,-113,-71,-148v-43,-33,-101,-49,-172,-49r0,-33v66,0,113,-5,140,-16v42,-17,63,-48,63,-94v0,-46,-17,-78,-50,-95v-25,-13,-66,-20,-123,-20v-99,0,-148,48,-148,144r0,514r-36,0r0,-400r-35,0r0,-34r35,0v0,-33,1,-68,3,-106v5,-101,66,-151,183,-151v141,0,209,48,206,144v-2,71,-40,115,-114,132v35,10,67,31,96,64v39,44,59,93,59,148v0,79,-26,138,-79,179","w":505},"\u00e0":{"d":"321,-521v-8,6,-16,5,-25,-2r-114,-120v-9,-10,-9,-18,2,-25v9,-8,18,-7,27,2r113,121v9,9,8,17,-3,24xm471,0r0,-110v-43,81,-113,121,-211,121v-75,0,-134,-25,-177,-74v-41,-47,-61,-107,-61,-182v0,-76,20,-137,61,-184v44,-50,104,-75,181,-75v98,0,167,40,207,119r0,-117r36,0r0,502r-36,0xm259,-470v-64,0,-114,22,-151,67v-34,42,-51,95,-51,158v0,65,17,117,50,157v37,44,87,66,152,66v64,0,116,-22,155,-66v38,-41,57,-94,57,-157v0,-69,-18,-123,-55,-164v-37,-41,-89,-61,-157,-61","w":552},"\u00e1":{"d":"221,-523v-5,4,-9,6,-14,6v-12,0,-18,-5,-18,-16v0,-4,2,-8,5,-12r113,-121v5,-5,10,-7,16,-7v12,0,18,6,18,17v0,4,-2,8,-5,13xm483,0r0,-110v-43,81,-113,121,-211,121v-75,0,-134,-25,-177,-74v-41,-47,-61,-107,-61,-182v0,-76,20,-137,61,-184v44,-50,104,-75,181,-75v98,0,167,40,207,119r0,-117r36,0r0,502r-36,0xm271,-470v-64,0,-114,22,-151,67v-34,42,-51,95,-51,158v0,65,17,117,50,157v37,44,87,66,152,66v64,0,116,-22,155,-66v38,-41,57,-94,57,-157v0,-69,-18,-123,-55,-164v-37,-41,-89,-61,-157,-61","w":552},"\u00e2":{"d":"345,-528r-82,-108r-82,108r-40,0r107,-146r29,0r111,146r-43,0xm483,0r0,-110v-43,81,-113,121,-211,121v-75,0,-134,-25,-177,-74v-41,-47,-61,-107,-61,-182v0,-76,20,-137,61,-184v44,-50,104,-75,181,-75v98,0,167,40,207,119r0,-117r36,0r0,502r-36,0xm271,-470v-64,0,-114,22,-151,67v-34,42,-51,95,-51,158v0,65,17,117,50,157v37,44,87,66,152,66v64,0,116,-22,155,-66v38,-41,57,-94,57,-157v0,-69,-18,-123,-55,-164v-37,-41,-89,-61,-157,-61","w":552},"\u00e3":{"d":"333,-539v-13,0,-36,-9,-71,-27v-35,-18,-57,-27,-64,-27v-13,0,-22,5,-30,15v-8,10,-13,26,-15,46r-30,-21v0,-21,9,-38,25,-52v16,-14,33,-21,51,-21v12,0,36,9,72,28v34,17,55,26,62,26v12,0,22,-5,31,-15v9,-10,13,-25,14,-45r32,18v-3,22,-11,40,-26,54v-15,14,-32,21,-51,21xm483,0r0,-110v-43,81,-113,121,-211,121v-75,0,-134,-25,-177,-74v-41,-47,-61,-107,-61,-181v0,-76,20,-138,61,-185v44,-49,104,-74,181,-74v98,0,167,39,207,118r0,-116r36,0r0,501r-36,0xm271,-470v-64,0,-114,23,-151,68v-34,41,-51,94,-51,158v0,64,17,116,50,157v37,43,87,65,152,65v64,0,115,-21,154,-64v39,-43,58,-95,58,-158v0,-69,-18,-124,-54,-163v-37,-42,-90,-63,-158,-63","w":552},"\u00e4":{"d":"335,-534v-12,0,-18,-6,-18,-19r0,-54v0,-11,6,-17,18,-17v12,0,18,6,18,17r0,54v0,13,-6,19,-18,19xm219,-534v-11,0,-17,-6,-17,-19r0,-54v0,-11,6,-17,17,-17v13,0,19,6,19,17r0,54v0,13,-6,19,-19,19xm483,0r0,-110v-43,81,-113,121,-211,121v-75,0,-134,-25,-177,-74v-41,-47,-61,-107,-61,-181v0,-76,20,-137,61,-184v44,-50,104,-75,181,-75v98,0,167,39,207,118r0,-116r36,0r0,501r-36,0xm271,-470v-64,0,-114,23,-151,68v-34,41,-51,94,-51,158v0,64,17,116,50,157v37,43,87,65,152,65v64,0,115,-21,154,-64v39,-43,58,-95,58,-158v0,-69,-18,-124,-54,-163v-37,-42,-90,-63,-158,-63","w":552},"\u00e5":{"d":"270,-542v-24,0,-44,-7,-61,-22v-17,-15,-25,-34,-25,-57v0,-23,8,-42,25,-57v17,-15,37,-22,61,-22v23,0,43,7,60,22v17,15,25,34,25,57v0,23,-8,42,-25,57v-17,15,-37,22,-60,22xm483,0r0,-111v-43,81,-113,122,-211,122v-75,0,-134,-25,-177,-74v-41,-47,-61,-107,-61,-182v0,-76,20,-138,61,-185v44,-49,104,-74,181,-74v98,0,167,39,207,118r0,-116r36,0r0,502r-36,0xm270,-665v-13,0,-25,4,-34,12v-9,8,-14,19,-14,32v0,13,5,23,14,31v9,8,21,12,34,12v13,0,25,-4,34,-12v9,-8,14,-18,14,-31v0,-13,-5,-24,-14,-32v-9,-8,-21,-12,-34,-12xm271,-471v-64,0,-114,23,-151,68v-34,41,-51,94,-51,158v0,65,17,117,50,157v37,44,87,66,152,66v64,0,116,-22,155,-66v38,-41,57,-94,57,-157v0,-69,-18,-124,-54,-163v-37,-42,-90,-63,-158,-63","w":552},"\u00e6":{"d":"507,-233r0,17v0,129,69,194,207,194v45,0,85,-10,120,-31v35,-21,61,-51,76,-91r37,0v-17,54,-48,94,-93,120v-41,23,-88,35,-142,35v-97,0,-166,-34,-205,-102r0,91r-36,0r0,-110v-43,81,-113,121,-211,121v-75,0,-134,-25,-177,-74v-41,-46,-61,-106,-61,-180v0,-75,20,-136,61,-183v44,-49,104,-74,181,-74v98,0,167,39,207,118r0,-116r36,0r0,114v9,-15,20,-29,33,-43v47,-49,105,-73,176,-73v75,0,134,21,179,64v45,43,67,101,67,174r0,28xm716,-467v-57,0,-107,18,-148,54v-41,36,-61,82,-61,139r0,8r413,0v-1,-61,-20,-110,-57,-146v-37,-36,-86,-55,-147,-55xm259,-467v-64,0,-114,22,-151,67v-34,41,-51,94,-51,157v0,64,17,116,50,156v37,43,87,65,152,65v64,0,116,-22,155,-65v38,-41,57,-93,57,-156v0,-69,-18,-123,-55,-163v-37,-40,-89,-61,-157,-61","w":984},"\u00e7":{"d":"414,-23v-39,25,-85,38,-140,38v-77,0,-138,-23,-182,-68v-44,-45,-66,-105,-66,-180v0,-81,23,-147,69,-195v46,-48,109,-72,190,-72v49,0,92,11,128,34v40,25,66,63,79,112r-33,17v-22,-87,-81,-130,-176,-130v-70,0,-125,22,-165,66v-37,42,-56,98,-56,168v0,65,19,116,56,155v37,39,89,59,155,59v47,0,87,-11,121,-33v37,-24,60,-60,69,-109r35,15v-13,55,-41,96,-84,123xm279,174v-25,0,-58,-6,-101,-18r16,-32v34,11,61,17,82,17v49,0,74,-14,74,-43v0,-18,-18,-29,-54,-32v-19,-1,-34,1,-45,6r0,-17r8,-75r36,0r-2,53r7,0v60,0,90,23,90,69v0,48,-37,72,-111,72"},"\u00e8":{"d":"331,-520v-9,5,-17,4,-25,-3r-115,-120v-3,-4,-4,-8,-4,-12v0,-12,6,-18,18,-18v5,0,10,2,15,7r114,121v9,9,8,18,-3,25xm54,-235v4,142,73,213,208,213v45,0,85,-11,120,-32v35,-21,61,-51,76,-92r37,0v-17,57,-48,98,-92,123v-40,23,-88,34,-143,34v-80,0,-141,-24,-183,-71v-39,-44,-58,-106,-58,-185v0,-76,23,-139,67,-187v44,-48,104,-72,179,-72v75,0,134,22,179,65v45,43,67,102,67,175r0,28xm265,-470v-61,0,-111,18,-148,55v-37,37,-58,86,-63,147r415,0v-1,-61,-20,-110,-57,-147v-37,-37,-86,-55,-147,-55"},"\u00e9":{"d":"334,-646r-115,121v-5,4,-9,6,-14,6v-12,0,-18,-5,-18,-16v0,-4,2,-8,5,-12r113,-121v8,-8,17,-9,28,-2v4,3,6,7,6,12v0,3,-2,7,-5,12xm54,-235v4,142,73,213,208,213v45,0,85,-11,120,-32v35,-21,61,-51,76,-92r37,0v-17,57,-48,98,-92,123v-40,23,-88,34,-143,34v-80,0,-141,-24,-183,-71v-39,-44,-58,-106,-58,-185v0,-76,23,-139,67,-187v44,-48,104,-72,179,-72v75,0,134,22,179,65v45,43,67,102,67,175r0,28xm265,-470v-61,0,-111,18,-148,55v-37,37,-58,86,-63,147r415,0v-1,-61,-20,-110,-57,-147v-37,-37,-86,-55,-147,-55"},"\u00ea":{"d":"343,-528r-82,-108r-82,108r-40,0r108,-146r29,0r110,146r-43,0xm54,-235v4,142,73,213,208,213v45,0,85,-11,120,-32v35,-21,61,-51,76,-92r37,0v-17,57,-48,98,-92,123v-40,23,-88,34,-143,34v-80,0,-141,-24,-183,-71v-39,-44,-58,-106,-58,-185v0,-76,23,-139,67,-187v44,-48,104,-72,179,-72v75,0,134,22,179,65v45,43,67,102,67,175r0,28xm265,-470v-61,0,-111,18,-148,55v-37,37,-58,86,-63,147r415,0v-1,-61,-20,-110,-57,-147v-37,-37,-86,-55,-147,-55"},"\u00eb":{"d":"321,-534v-11,0,-17,-6,-17,-19r0,-54v0,-11,6,-17,17,-17v13,0,19,6,19,17r0,54v0,13,-6,19,-19,19xm206,-534v-12,0,-18,-6,-18,-19r0,-54v0,-11,6,-17,18,-17v12,0,18,6,18,17r0,54v0,13,-6,19,-18,19xm54,-234v4,141,73,212,208,212v45,0,85,-11,120,-32v35,-21,61,-51,76,-91r37,0v-17,56,-48,97,-92,122v-40,23,-88,34,-143,34v-80,0,-141,-24,-183,-71v-39,-44,-58,-105,-58,-184v0,-77,23,-139,67,-187v44,-48,104,-72,179,-72v75,0,134,22,179,65v45,43,67,101,67,174r0,29xm265,-470v-61,0,-111,18,-148,55v-37,37,-58,86,-63,148r415,0v-1,-62,-20,-111,-57,-148v-37,-37,-86,-55,-147,-55"},"\u00ec":{"d":"136,-521v-9,5,-17,5,-25,-2r-114,-120v-9,-10,-8,-18,2,-25v8,-8,17,-7,26,2r114,121v9,9,8,17,-3,24xm51,0r0,-492r36,0r0,492r-36,0","w":136},"\u00ed":{"d":"26,-520v-5,5,-10,7,-15,7v-13,0,-19,-6,-19,-17v0,-4,2,-8,5,-11r114,-121v5,-5,10,-7,15,-7v12,0,18,6,18,17v0,4,-2,8,-5,12xm51,0r0,-492r36,0r0,492r-36,0","w":136},"\u00ee":{"d":"145,-528r-76,-107r-78,107r-39,0r102,-146r29,0r104,146r-42,0xm51,0r0,-492r36,0r0,492r-36,0","w":136},"\u00ef":{"d":"129,-534v-11,0,-17,-6,-17,-19r0,-54v0,-11,6,-17,17,-17v13,0,19,6,19,17r0,54v0,13,-6,19,-19,19xm14,-534v-13,0,-19,-6,-19,-19r0,-54v0,-11,6,-17,19,-17v12,0,18,6,18,17r0,54v0,13,-6,19,-18,19xm51,0r0,-491r36,0r0,491r-36,0","w":136},"\u00f0":{"d":"471,0r0,-110v-43,81,-113,121,-211,121v-75,0,-134,-25,-177,-74v-41,-47,-61,-107,-61,-182v0,-76,20,-137,61,-184v44,-50,104,-75,181,-75v98,0,167,40,207,119r0,-188r-332,0r0,-35r332,0r0,-70r36,0r0,678r-36,0xm259,-471v-64,0,-114,23,-151,68v-34,42,-51,95,-51,158v0,65,17,117,50,157v37,44,87,66,152,66v64,0,116,-22,155,-66v38,-41,57,-94,57,-157v0,-69,-18,-124,-55,-165v-37,-41,-89,-61,-157,-61","w":564},"\u00f1":{"d":"334,-539v-13,0,-37,-9,-72,-27v-35,-18,-56,-27,-64,-27v-11,0,-20,5,-29,15v-9,10,-13,25,-14,46r-32,-21v0,-20,8,-37,25,-51v17,-14,34,-22,51,-22v12,0,36,9,72,28v34,17,55,26,63,26v11,0,21,-5,30,-15v9,-10,13,-25,14,-45r32,18v-2,22,-10,40,-25,54v-15,14,-32,21,-51,21xm437,0r0,-323v0,-47,-15,-84,-44,-109v-29,-25,-69,-38,-118,-38v-58,0,-103,18,-137,54v-34,36,-51,83,-51,140r0,276r-36,0r0,-491r36,0r0,88v33,-67,96,-100,187,-100v58,0,105,14,140,42v39,30,59,73,59,128r0,333r-36,0"},"\u00f2":{"d":"341,-521v-8,6,-16,5,-25,-2r-114,-120v-9,-10,-9,-18,2,-25v9,-8,18,-7,27,2r113,121v9,9,8,17,-3,24xm272,11v-77,0,-138,-24,-183,-71v-45,-47,-67,-109,-67,-186v0,-77,23,-140,68,-187v45,-47,107,-71,184,-71v77,0,138,24,183,71v45,47,68,110,68,187v0,77,-23,139,-69,186v-46,47,-107,71,-184,71xm273,-470v-67,0,-119,21,-157,62v-38,41,-58,95,-58,162v0,67,19,121,58,162v39,41,91,62,157,62v66,0,118,-21,157,-62v39,-41,59,-95,59,-162v0,-68,-19,-122,-57,-163v-38,-41,-92,-61,-159,-61","w":545},"\u00f3":{"d":"230,-520v-5,5,-10,7,-15,7v-12,0,-18,-6,-18,-17v0,-4,1,-8,4,-11r114,-121v5,-5,10,-7,16,-7v12,0,18,6,18,17v0,4,-2,8,-5,12xm272,11v-77,0,-138,-24,-183,-71v-45,-47,-67,-109,-67,-186v0,-77,23,-140,68,-187v45,-47,107,-71,184,-71v77,0,138,24,183,71v45,47,68,110,68,187v0,77,-23,139,-69,186v-46,47,-107,71,-184,71xm273,-470v-67,0,-119,21,-157,62v-38,41,-58,95,-58,162v0,67,19,121,58,162v39,41,91,62,157,62v66,0,118,-21,157,-62v39,-41,59,-95,59,-162v0,-68,-19,-122,-57,-163v-38,-41,-92,-61,-159,-61","w":545},"\u00f4":{"d":"354,-528r-82,-108r-83,108r-40,0r108,-146r29,0r111,146r-43,0xm272,11v-77,0,-138,-24,-183,-71v-45,-47,-67,-109,-67,-186v0,-77,23,-140,68,-187v45,-47,107,-71,184,-71v77,0,138,24,183,71v45,47,68,110,68,187v0,77,-23,139,-69,186v-46,47,-107,71,-184,71xm273,-470v-67,0,-119,21,-157,62v-38,41,-58,95,-58,162v0,67,19,121,58,162v39,41,91,62,157,62v66,0,118,-21,157,-62v39,-41,59,-95,59,-162v0,-68,-19,-122,-57,-163v-38,-41,-92,-61,-159,-61","w":545},"\u00f5":{"d":"341,-539v-13,0,-37,-9,-72,-27v-35,-18,-56,-27,-63,-27v-12,0,-22,5,-30,15v-8,10,-13,25,-14,46r-32,-21v0,-21,8,-39,24,-53v16,-14,34,-20,53,-20v11,0,35,9,71,28v34,17,55,26,63,26v25,0,40,-20,46,-60r30,18v-3,22,-11,40,-25,54v-14,14,-32,21,-51,21xm272,11v-77,0,-138,-24,-183,-71v-45,-47,-67,-109,-67,-185v0,-77,22,-140,68,-187v46,-47,107,-71,184,-71v77,0,138,24,183,71v45,47,68,110,68,187v0,77,-23,138,-69,185v-46,47,-107,71,-184,71xm273,-470v-67,0,-119,21,-157,62v-38,41,-58,96,-58,163v0,67,19,120,57,160v39,42,92,63,158,63v66,0,119,-21,158,-63v39,-40,58,-93,58,-160v0,-68,-19,-122,-57,-163v-38,-41,-92,-62,-159,-62","w":545},"\u00f6":{"d":"331,-534v-12,0,-18,-6,-18,-19r0,-54v0,-11,6,-17,18,-17v12,0,18,6,18,17r0,54v0,13,-6,19,-18,19xm215,-534v-11,0,-17,-6,-17,-19r0,-54v0,-11,6,-17,17,-17v13,0,19,6,19,17r0,54v0,13,-6,19,-19,19xm272,11v-77,0,-138,-24,-183,-71v-45,-47,-67,-109,-67,-185v0,-77,22,-140,68,-187v46,-47,107,-71,184,-71v77,0,138,24,183,71v45,47,68,110,68,187v0,77,-23,138,-69,185v-46,47,-107,71,-184,71xm273,-470v-67,0,-119,21,-157,62v-38,41,-58,96,-58,163v0,67,19,120,57,160v39,42,92,63,158,63v66,0,119,-21,158,-63v39,-40,58,-93,58,-160v0,-68,-19,-122,-57,-163v-38,-41,-92,-62,-159,-62","w":545},"\u00f7":{"d":"296,-301v-11,0,-17,-6,-17,-18r0,-62v0,-11,6,-17,17,-17v13,0,19,6,19,17r0,62v0,12,-6,18,-19,18xm43,-224r0,-33r492,0r0,33r-492,0xm296,-74v-11,0,-17,-6,-17,-18r0,-62v0,-11,6,-17,17,-17v13,0,19,6,19,17r0,62v0,12,-6,18,-19,18","w":592},"\u00f8":{"d":"272,12v-38,0,-72,-6,-102,-18r-26,53r-38,0r33,-67v-78,-46,-117,-121,-117,-224v0,-77,22,-139,68,-186v46,-47,107,-71,184,-71v35,0,66,5,95,15r31,-63r38,0r-37,77v23,12,43,28,61,48v42,47,63,107,63,180v0,77,-23,139,-69,186v-46,47,-107,70,-184,70xm434,-399v-15,-18,-31,-32,-50,-42r-200,404v26,11,56,16,89,16v66,0,118,-20,157,-61v39,-41,59,-95,59,-162v0,-62,-18,-114,-55,-155xm273,-468v-67,0,-119,21,-157,62v-38,41,-58,95,-58,162v0,86,32,150,96,192r200,-404v-25,-8,-52,-12,-81,-12","w":545},"\u00f9":{"d":"331,-517v-9,5,-17,5,-25,-2r-114,-121v-9,-9,-8,-17,2,-24v8,-8,17,-7,26,2r114,121v9,9,8,17,-3,24xm437,0r0,-89v-35,67,-97,100,-187,100v-61,0,-109,-16,-145,-47v-36,-31,-54,-75,-54,-134r0,-322r36,0r0,321v0,49,14,86,43,111v29,25,69,38,120,38v62,0,109,-19,142,-58v30,-35,45,-84,45,-145r0,-267r36,0r0,492r-36,0"},"\u00fa":{"d":"221,-524v-5,5,-10,7,-15,7v-13,0,-19,-6,-19,-17v0,-4,2,-8,5,-11r113,-121v5,-5,10,-7,16,-7v12,0,18,6,18,17v0,5,-2,9,-5,13xm437,0r0,-89v-35,67,-97,100,-187,100v-61,0,-109,-16,-145,-47v-36,-31,-54,-76,-54,-135r0,-321r36,0r0,321v0,49,14,86,43,111v29,25,69,38,120,38v62,0,109,-19,142,-58v30,-35,45,-84,45,-145r0,-267r36,0r0,492r-36,0"},"\u00fb":{"d":"343,-528r-82,-108r-82,108r-40,0r108,-146r29,0r110,146r-43,0xm437,0r0,-89v-35,67,-97,100,-187,100v-61,0,-109,-16,-145,-47v-36,-31,-54,-76,-54,-135r0,-321r36,0r0,320v0,49,14,87,43,112v29,25,69,38,120,38v62,0,109,-19,142,-58v30,-35,45,-84,45,-145r0,-267r36,0r0,492r-36,0"},"\u00fc":{"d":"320,-534v-11,0,-17,-6,-17,-19r0,-54v0,-11,6,-17,17,-17v13,0,19,6,19,17r0,54v0,13,-6,19,-19,19xm205,-534v-12,0,-18,-6,-18,-19r0,-54v0,-11,6,-17,18,-17v12,0,18,6,18,17r0,54v0,13,-6,19,-18,19xm437,0r0,-88v-35,66,-97,99,-187,99v-61,0,-109,-16,-145,-47v-36,-31,-54,-75,-54,-134r0,-321r36,0r0,320v0,49,14,86,43,111v29,25,69,38,120,38v62,0,109,-19,142,-57v30,-35,45,-84,45,-146r0,-266r36,0r0,491r-36,0"},"\u00fd":{"d":"325,-645r-115,120v-5,4,-9,6,-14,6v-13,0,-19,-5,-19,-16v0,-5,2,-9,6,-12r113,-121v8,-8,17,-9,28,-2v4,3,6,7,6,12v0,3,-2,8,-5,13xm241,179v-58,0,-105,-12,-142,-35v-44,-27,-68,-71,-71,-131r36,0v7,89,67,133,179,133v129,0,194,-56,194,-168r0,-64v-35,67,-97,100,-187,100v-61,0,-109,-16,-145,-47v-36,-31,-54,-76,-54,-135r0,-323r36,0r0,322v0,49,14,85,43,111v29,26,69,39,120,39v62,0,109,-19,142,-58v30,-35,45,-84,45,-146r0,-268r36,0r0,470v0,133,-77,200,-232,200","w":506},"\u00fe":{"d":"293,14v-99,0,-167,-40,-206,-119r0,273r-36,0r0,-846r36,0r0,293v19,-38,46,-67,83,-87v37,-20,77,-31,122,-31v77,0,137,24,180,73v41,46,62,107,62,184v0,78,-20,140,-61,187v-43,49,-103,73,-180,73xm298,-470v-65,0,-116,21,-154,62v-38,41,-57,95,-57,160v0,70,17,125,50,165v37,42,90,63,160,63v65,0,116,-22,152,-66v33,-41,50,-94,50,-159v0,-65,-17,-118,-51,-159v-36,-44,-86,-66,-150,-66","w":564},"\u00ff":{"d":"313,-534v-11,0,-17,-6,-17,-19r0,-54v0,-11,6,-17,17,-17v11,0,17,6,18,17r1,54v0,13,-6,19,-19,19xm198,-534v-12,0,-18,-6,-18,-19r0,-54v0,-11,6,-17,18,-17v11,0,16,6,17,17r1,54v0,13,-6,19,-18,19xm241,179v-58,0,-105,-12,-142,-35v-44,-27,-68,-71,-71,-131r36,0v7,89,67,133,179,133v129,0,194,-56,194,-168r0,-64v-35,67,-97,100,-187,100v-61,0,-109,-15,-145,-46v-36,-31,-54,-77,-54,-136r0,-322r36,0r0,321v0,49,14,87,43,112v29,25,69,38,120,38v62,0,109,-19,142,-58v30,-35,45,-84,45,-146r0,-267r36,0r0,469v0,133,-77,200,-232,200","w":510},"\u0131":{"d":"51,0r0,-488r36,0r0,488r-36,0","w":136},"\u0152":{"d":"471,0v-28,5,-57,8,-88,8v-109,0,-194,-31,-257,-93v-63,-62,-95,-146,-95,-252v0,-107,31,-191,94,-253v63,-62,149,-93,258,-93v22,0,44,2,66,5r525,0r0,33r-416,0v109,55,168,147,176,275r209,0r0,33r-207,0v0,143,-57,244,-171,304r415,0r0,33r-509,0xm614,-565v-33,-32,-71,-55,-116,-69r0,264r200,0v-5,-79,-33,-144,-84,-195xm498,-337r0,295v45,-14,83,-37,116,-69v57,-57,86,-132,86,-226r-202,0xm463,-642v-25,-5,-52,-8,-80,-8v-99,0,-176,28,-232,84v-56,56,-84,132,-84,229v0,97,28,173,84,229v56,56,133,84,232,84v28,0,55,-3,80,-9r0,-609","w":1010},"\u0153":{"d":"551,-233v4,141,73,211,208,211v45,0,86,-10,121,-31v35,-21,60,-51,75,-91r37,0v-17,54,-48,94,-93,120v-41,23,-88,35,-142,35v-120,0,-196,-50,-227,-151v-19,48,-49,86,-90,112v-41,26,-89,39,-144,39v-77,0,-139,-24,-184,-72v-44,-46,-66,-107,-66,-183v0,-77,22,-139,68,-186v46,-47,107,-70,184,-70v56,0,105,13,146,40v41,27,71,66,88,117v12,-31,29,-59,52,-84v47,-49,106,-73,177,-73v75,0,134,21,179,64v45,43,67,101,67,174r0,28xm761,-467v-60,0,-109,18,-147,55v-38,37,-59,86,-63,146r414,0v-1,-61,-20,-110,-57,-146v-37,-36,-86,-55,-147,-55xm297,-467v-67,0,-119,20,-157,61v-38,41,-58,95,-58,162v0,67,19,120,58,161v39,41,91,61,157,61v66,0,118,-20,157,-61v39,-41,59,-94,59,-161v0,-68,-19,-122,-57,-162v-38,-40,-92,-61,-159,-61","w":1052},"\u0160":{"d":"332,-727r-29,0r-108,-147r40,0r82,109r82,-109r43,0xm330,7v-86,0,-155,-16,-207,-47v-63,-38,-94,-97,-94,-178r0,-17r36,0r0,13v0,131,89,196,266,196v61,0,111,-10,152,-29v55,-25,82,-64,82,-117v0,-37,-10,-66,-30,-85v-17,-17,-44,-31,-83,-42v-17,-5,-65,-16,-143,-33r-88,-21v-35,-9,-63,-19,-84,-30v-57,-31,-86,-76,-86,-135v0,-113,87,-170,260,-170v181,0,273,69,276,208r-36,0v-4,-69,-29,-117,-76,-143v-37,-21,-91,-32,-164,-32v-149,0,-224,46,-224,137v0,46,21,80,63,103v27,15,74,28,140,41v121,22,201,45,241,69v47,29,70,74,70,136v0,62,-32,108,-95,139v-49,25,-107,37,-176,37","w":642},"\u0161":{"d":"254,-537r-29,0r-108,-147r40,0r82,109r82,-109r44,0xm249,13v-143,0,-215,-64,-215,-192r38,0v0,105,59,157,178,157v41,0,75,-7,102,-22v35,-18,53,-45,53,-82v0,-46,-35,-77,-106,-94v-5,-1,-38,-7,-101,-17v-95,-15,-143,-57,-143,-127v0,-45,19,-81,56,-107v33,-23,73,-34,121,-34v138,0,207,57,208,170r-39,0v0,-90,-55,-135,-164,-135v-37,0,-70,8,-97,25v-31,19,-47,46,-47,81v0,45,34,74,103,87r106,20v94,17,141,61,141,131v0,49,-21,86,-63,110v-34,19,-78,29,-131,29","w":486},"\u0178":{"d":"394,-724v-11,0,-17,-6,-17,-19r0,-54v0,-11,6,-17,17,-17v11,0,17,6,18,17r1,54v0,13,-6,19,-19,19xm279,-724v-12,0,-18,-6,-18,-19r0,-54v0,-11,6,-17,18,-17v11,0,16,6,17,17r1,54v0,13,-6,19,-18,19xm351,-332r0,332r-36,0r0,-332r-314,-348r47,0r284,315r285,-315r45,0","w":663},"\u00af":{"d":"28,-597r0,-19r259,0r0,19r-259,0","w":313},"\u02c9":{"d":"28,-597r0,-19r259,0r0,19r-259,0","w":313},"\u2013":{"d":"-8,-254r0,-20r509,0r0,20r-509,0","w":495},"\u2014":{"d":"-8,-254r0,-20r908,0r0,20r-908,0","w":894},"\u2018":{"d":"86,-513v-3,11,-11,15,-22,12v-11,-3,-15,-10,-12,-21r42,-143v3,-8,9,-12,18,-12v16,0,22,7,17,21","w":175},"\u2019":{"d":"87,-513v-3,8,-9,12,-18,12v-16,0,-22,-7,-17,-21r43,-143v3,-11,10,-15,21,-12v12,3,16,10,13,21","w":175},"\u201c":{"d":"191,-513v-3,11,-11,15,-22,12v-11,-3,-15,-10,-12,-21r42,-143v3,-8,9,-12,18,-12v16,0,22,7,17,21xm86,-513v-3,11,-11,15,-22,12v-11,-3,-15,-10,-12,-21r42,-143v3,-8,9,-12,18,-12v16,0,22,7,17,21","w":267},"\u201d":{"d":"192,-513v-3,8,-9,12,-18,12v-16,0,-22,-7,-17,-21r43,-143v3,-11,10,-15,21,-12v12,3,16,10,13,21xm87,-513v-3,8,-9,12,-18,12v-16,0,-22,-7,-17,-21r43,-143v3,-11,10,-15,21,-12v12,3,16,10,13,21","w":276},"\u2026":{"d":"524,2v-12,0,-18,-5,-18,-16r0,-55v0,-11,6,-16,18,-16v12,0,18,5,18,16r0,55v0,11,-6,16,-18,16xm335,2v-12,0,-18,-5,-18,-16r0,-55v0,-11,6,-16,18,-16v12,0,18,5,18,16r0,55v0,11,-6,16,-18,16xm146,2v-12,0,-18,-5,-18,-16r0,-55v0,-11,6,-16,18,-16v12,0,18,5,18,16r0,55v0,11,-6,16,-18,16","w":638},"\u2122":{"d":"704,-347r0,-275r-145,275r-33,0r-151,-279v1,60,1,153,2,279r-40,0r0,-303r-103,0r0,303r-40,0r0,-303r-148,0r0,-34r341,0r155,285r153,-285r50,0r0,337r-41,0","w":789},"\u00ad":{"d":"43,-231r0,-19r492,0r0,19r-492,0","w":592},"\u2212":{"d":"43,-231r0,-19r492,0r0,19r-492,0","w":592},"\u00b7":{"d":"119,-280v-12,0,-18,-6,-18,-17r0,-54v0,-11,6,-16,18,-16v12,0,18,5,18,16r0,54v0,11,-6,17,-18,17","w":209},"\u2219":{"d":"119,-280v-12,0,-18,-6,-18,-17r0,-54v0,-11,6,-16,18,-16v12,0,18,5,18,16r0,54v0,11,-6,17,-18,17","w":209},"\u00a0":{}}});
