/*!
 * The following copyright notice may not be removed under any circumstances.
 * 
 * Copyright:
 * Copyright (c) 2011 by Admix Designs. All rights reserved.
 * 
 * Trademark:
 * Varela is a trademark of Admix Designs (www.admixdesigns.com)
 * 
 * Description:
 * Copyright (c) 2011 by Admix Designs. All rights reserved.
 * 
 * Manufacturer:
 * Joe Prince
 * 
 * Designer:
 * Joe Prince
 * 
 * License information:
 * http://scripts.sil.org/OFL
 */
Cufon.registerFont({"w":628,"face":{"font-family":"varela","font-weight":400,"font-stretch":"normal","units-per-em":"1000","panose-1":"2 0 0 0 0 0 0 0 0 0","ascent":"800","descent":"-200","x-height":"10","bbox":"-33 -918 995 240","underline-thickness":"50","underline-position":"-50","unicode-range":"U+0020-U+2122"},"glyphs":{" ":{"w":260},"!":{"d":"84,0r0,-112r112,0r0,112r-112,0xm89,-698r103,0r0,146r-20,359r-64,0r-19,-359r0,-146","w":281},"\"":{"d":"55,-740r113,0r-31,244r-52,0xm243,-740r113,0r-30,244r-52,0","w":411},"#":{"d":"421,-655r71,0r-29,181r102,0r0,70r-113,0r-24,152r102,0r0,70r-113,0r-29,182r-71,0r29,-182r-127,0r-29,182r-71,0r29,-182r-102,0r0,-70r113,0r24,-152r-102,0r0,-70r113,0r29,-181r71,0r-29,181r127,0xm357,-252r24,-152r-127,0r-24,152r127,0","w":612},"$":{"d":"569,-185v0,54,-21,99,-64,135v-43,36,-100,56,-171,60r0,95r-45,0r0,-95v-83,-3,-158,-21,-227,-54r0,-89r5,0v65,36,139,55,222,58r0,-229v-92,-23,-154,-50,-186,-81v-13,-13,-25,-29,-35,-49v-10,-20,-14,-44,-14,-69v0,-55,21,-103,62,-141v41,-38,99,-59,173,-63r0,-96r45,0r0,95v67,3,128,15,184,36r0,85r-7,0v-58,-23,-117,-36,-177,-38r0,238v36,9,64,17,86,24v22,7,46,18,72,33v51,30,77,78,77,145xm184,-588v-27,20,-40,46,-40,77v0,31,12,55,37,71v25,16,61,30,108,42r0,-225v-43,4,-78,15,-105,35xm334,-76v97,-7,145,-45,145,-115v0,-27,-13,-47,-37,-61v-24,-14,-60,-28,-108,-41r0,217","w":612},"%":{"d":"589,-701r78,0r-441,705r-78,0xm204,-715v51,0,91,17,119,51v28,34,42,76,42,128v0,52,-14,94,-42,128v-28,34,-68,51,-119,51v-51,0,-91,-17,-119,-51v-28,-34,-42,-76,-42,-128v0,-52,14,-94,42,-128v28,-34,68,-51,119,-51xm204,-422v29,0,51,-11,67,-32v16,-21,24,-49,24,-82v0,-33,-8,-61,-24,-82v-16,-21,-38,-32,-67,-32v-29,0,-51,11,-67,32v-16,21,-24,49,-24,82v0,33,8,61,24,82v16,21,38,32,67,32xm610,-340v51,0,91,16,119,50v28,34,42,77,42,129v0,52,-14,95,-42,129v-28,34,-68,50,-119,50v-51,0,-91,-16,-119,-50v-28,-34,-42,-77,-42,-129v0,-52,14,-95,42,-129v28,-34,68,-50,119,-50xm610,-47v29,0,51,-11,67,-32v16,-21,24,-49,24,-82v0,-33,-8,-61,-24,-82v-16,-21,-38,-32,-67,-32v-29,0,-51,11,-67,32v-16,21,-24,49,-24,82v0,33,8,61,24,82v16,21,38,32,67,32","w":814},"&":{"d":"579,-127r131,124r0,3r-117,0r-70,-66r-4,0v-59,51,-128,76,-207,76v-79,0,-139,-20,-180,-61v-41,-41,-61,-86,-61,-137v0,-51,12,-92,35,-124v23,-32,49,-56,77,-74r0,-3v-20,-24,-35,-47,-45,-68v-10,-21,-15,-47,-15,-76v0,-49,17,-90,51,-124v34,-34,77,-51,129,-51v52,0,101,16,148,49r0,86r-2,0v-41,-38,-86,-57,-135,-57v-33,0,-59,10,-78,28v-19,18,-29,40,-29,66v0,26,6,49,19,68v13,19,40,47,81,85r207,195r3,0v15,-23,28,-47,38,-72r90,0v-19,51,-41,94,-66,128r0,5xm460,-121r0,-4r-219,-205r-5,0v-53,35,-79,81,-79,137v0,37,14,67,43,91v29,24,65,35,108,35v57,0,108,-18,152,-54","w":732},"'":{"d":"73,-740r112,0r0,112v0,77,-37,132,-112,163r0,-65v37,-20,55,-53,55,-98r-55,0r0,-112","w":238},"(":{"d":"288,-760r0,3v-97,129,-146,279,-146,449v0,170,49,321,146,450r0,3r-94,0v-95,-131,-143,-283,-143,-453v0,-170,48,-321,143,-452r94,0","w":312},")":{"d":"25,-757r0,-3r94,0v95,131,143,282,143,452v0,170,-48,322,-143,453r-94,0r0,-3v97,-129,146,-280,146,-450v0,-170,-49,-320,-146,-449","w":312},"*":{"d":"326,-436r-104,-82r20,131r-67,0r19,-131r-103,82r-34,-58r123,-49r-123,-48r34,-59r103,83r-19,-131r67,0r-20,131r104,-83r34,59r-123,48r123,49","w":417},"+":{"d":"45,-307r0,-77r197,0r0,-198r78,0r0,198r197,0r0,77r-197,0r0,198r-78,0r0,-198r-197,0","w":562},",":{"d":"74,-112r112,0r0,112v0,77,-37,132,-112,163r0,-65v37,-20,55,-53,55,-98r-55,0r0,-112","w":260},"-":{"d":"334,-240r-260,0r0,-81r260,0r0,81","w":408},".":{"d":"74,0r0,-112r112,0r0,112r-112,0","w":260},"\/":{"d":"322,-751r86,0r-286,836r-86,0","w":443},"0":{"d":"112,-611v46,-65,114,-97,202,-97v88,0,154,32,201,97v47,65,70,152,70,262v0,110,-23,197,-70,262v-47,65,-113,97,-201,97v-88,0,-156,-32,-202,-97v-46,-65,-69,-152,-69,-262v0,-110,23,-197,69,-262xm314,-74v58,0,103,-24,134,-73v31,-49,46,-115,46,-201v0,-86,-15,-153,-46,-202v-31,-49,-76,-73,-134,-73v-58,0,-103,24,-134,73v-31,49,-46,116,-46,202v0,86,15,152,46,201v31,49,76,73,134,73"},"1":{"d":"387,-85r137,0r0,85r-384,0r0,-85r156,0r0,-506r-4,0r-145,72r0,-97r156,-82r84,0r0,613"},"2":{"d":"553,-505v0,33,-8,65,-25,95v-17,30,-40,56,-66,78v-26,22,-55,45,-87,68v-32,23,-62,44,-91,61v-69,42,-112,80,-127,114r0,4r386,0r0,85r-478,0r0,-52v0,-33,9,-64,29,-94v20,-30,44,-57,74,-79v30,-22,62,-45,97,-68r97,-64v30,-19,54,-41,74,-66v20,-25,29,-50,29,-75v0,-83,-53,-124,-158,-124v-81,0,-151,20,-212,60r-5,0r0,-89v71,-38,149,-57,233,-57v65,0,120,18,164,56v44,38,66,87,66,147"},"3":{"d":"409,-361v96,24,144,83,144,178v0,61,-25,109,-73,143v-48,34,-112,50,-190,50v-78,0,-150,-15,-217,-45r0,-89r5,0v59,31,125,47,199,47v86,0,142,-19,169,-57v11,-15,16,-33,16,-54v0,-84,-74,-126,-221,-126r-52,0r0,-84r40,0v67,0,118,-10,154,-30v36,-20,54,-51,54,-91v0,-32,-13,-57,-40,-76v-27,-19,-66,-28,-118,-28v-75,0,-140,18,-195,55r-4,0r0,-84v67,-37,137,-56,211,-56v74,0,132,16,174,47v42,31,63,76,63,133v0,81,-40,137,-119,166r0,1"},"4":{"d":"479,-257r112,0r0,81r-112,0r0,176r-91,0r0,-176r-359,0r0,-86r341,-436r109,0r0,441xm388,-257r0,-336r-2,0r-258,334r0,2r260,0"},"5":{"d":"174,-403v49,-26,107,-39,174,-39v67,0,121,20,162,62v41,42,61,97,61,164v0,67,-23,122,-69,164v-46,42,-113,62,-201,62v-88,0,-164,-22,-227,-65r0,-97r4,0v61,48,130,72,207,72v63,0,112,-11,145,-32v33,-21,50,-56,50,-102v0,-46,-14,-81,-42,-105v-28,-24,-65,-36,-113,-36v-73,0,-132,19,-178,58r-79,-35r57,-366r404,0r0,85r-328,0r-30,210r3,0"},"6":{"d":"351,-452v69,0,124,21,166,64v42,43,63,98,63,166v0,68,-23,124,-68,167v-45,43,-104,65,-179,65v-183,0,-274,-119,-274,-358v0,-87,21,-167,62,-238v21,-37,52,-66,91,-88v39,-22,88,-34,148,-34v60,0,119,16,177,49r0,92r-5,0v-55,-35,-113,-53,-176,-53v-41,0,-75,9,-104,26v-29,17,-50,40,-64,69v-25,52,-39,105,-42,160r2,0v45,-58,113,-87,203,-87xm334,-75v46,0,83,-14,112,-42v29,-28,43,-63,43,-106v0,-43,-13,-78,-38,-105v-25,-27,-62,-41,-111,-41v-87,0,-150,37,-189,110v18,123,79,184,183,184"},"7":{"d":"65,-698r498,0r0,81r-300,617r-104,0r303,-607r0,-4r-397,0r0,-87"},"8":{"d":"490,-652v38,37,58,77,58,120v0,43,-10,76,-32,102v-22,26,-50,45,-84,56r0,1v99,33,149,96,149,188v0,48,-20,92,-59,131v-19,19,-47,34,-83,46v-36,12,-78,18,-125,18v-47,0,-89,-6,-125,-18v-36,-12,-64,-27,-83,-46v-39,-39,-59,-83,-59,-131v0,-92,50,-155,149,-188r0,-1v-34,-11,-62,-30,-84,-56v-22,-26,-32,-59,-32,-102v0,-43,20,-83,58,-120v38,-37,97,-56,176,-56v79,0,138,19,176,56xm314,-70v60,0,104,-13,133,-40v29,-27,43,-56,43,-85v0,-43,-17,-75,-51,-99v-34,-24,-76,-36,-125,-36v-49,0,-91,12,-125,36v-34,24,-51,56,-51,99v0,29,14,58,43,85v29,27,73,40,133,40xm208,-598v-24,20,-37,46,-37,76v0,30,12,55,35,77v23,22,59,33,108,33v49,0,85,-11,108,-33v23,-22,35,-47,35,-77v0,-30,-13,-56,-37,-76v-24,-20,-59,-30,-106,-30v-47,0,-82,10,-106,30"},"9":{"d":"277,-246v-69,0,-124,-21,-166,-64v-42,-43,-63,-98,-63,-166v0,-68,23,-124,68,-167v45,-43,104,-65,179,-65v183,0,274,119,274,358v0,87,-21,167,-62,238v-21,37,-52,66,-91,88v-39,22,-88,34,-148,34v-60,0,-119,-16,-177,-49r0,-92r5,0v55,35,113,53,176,53v41,0,75,-9,104,-26v29,-17,50,-40,64,-69v25,-52,39,-105,42,-160r-2,0v-45,58,-113,87,-203,87xm294,-623v-46,0,-83,14,-112,42v-29,28,-43,63,-43,106v0,43,13,78,38,105v25,27,62,41,111,41v87,0,150,-37,189,-110v-18,-123,-79,-184,-183,-184"},":":{"d":"74,-398r0,-112r112,0r0,112r-112,0xm74,0r0,-112r112,0r0,112r-112,0","w":260},";":{"d":"74,-398r0,-112r112,0r0,112r-112,0xm74,-112r112,0r0,112v0,77,-37,132,-112,163r0,-65v37,-20,55,-53,55,-98r-55,0r0,-112","w":260},"<":{"d":"512,-550r0,88r-367,165r0,2r367,165r0,88r-471,-214r0,-80","w":580},"=":{"d":"634,-404r-556,0r0,-78r556,0r0,78xm634,-180r-556,0r0,-78r556,0r0,78","w":712},">":{"d":"68,-462r0,-88r471,214r0,80r-471,214r0,-88r367,-165r0,-2","w":580},"?":{"d":"164,0r0,-112r112,0r0,112r-112,0xm42,-655v63,-35,127,-53,191,-53v64,0,116,17,157,51v41,34,62,80,62,138v0,31,-7,57,-20,81v-13,24,-28,44,-46,59r-56,45v-44,37,-66,80,-66,129r0,12r-88,0r0,-16v0,-35,6,-67,19,-95v13,-28,29,-49,47,-66v18,-17,36,-33,54,-47v44,-33,66,-66,66,-97v0,-73,-48,-109,-143,-109v-55,0,-113,20,-173,59r-4,0r0,-91","w":497},"@":{"d":"473,-688v105,1,195,33,269,98v74,65,112,147,112,248v0,93,-26,162,-78,208v-29,26,-63,39,-101,39v-38,0,-66,-7,-85,-22v-19,-15,-30,-32,-34,-52v-41,50,-96,75,-165,75v-53,0,-95,-16,-125,-49v-30,-33,-45,-75,-45,-127v0,-74,24,-133,71,-177v47,-44,103,-66,166,-66v50,0,93,17,128,51r8,-43r75,0r-41,234v-5,37,-7,62,-7,74v0,12,5,25,13,37v8,12,20,18,37,18v41,0,73,-18,95,-54v22,-36,34,-85,34,-146v0,-61,-17,-114,-50,-160v-33,-46,-73,-80,-122,-101v-49,-21,-100,-32,-155,-32v-101,0,-187,37,-261,111v-74,74,-111,161,-111,262v0,49,11,96,33,140v22,44,58,80,104,109v46,29,100,44,162,44v82,0,163,-21,242,-62r-10,60v-69,36,-147,54,-232,54v-103,0,-188,-34,-253,-102v-65,-68,-98,-149,-98,-243v0,-75,19,-146,57,-211v38,-65,91,-118,156,-157v65,-39,136,-58,211,-58xm559,-303r16,-93v-29,-31,-67,-46,-112,-46v-45,0,-85,14,-117,43v-32,29,-48,68,-48,119v0,39,11,68,32,88v21,20,49,29,83,29v81,0,130,-47,146,-140","w":898},"A":{"d":"593,0r-75,-179r-339,0r-75,179r-99,0r296,-698r95,0r296,698r-99,0xm215,-267r0,5r267,0r0,-5r-132,-319r-2,0","w":697},"B":{"d":"641,-196v0,131,-86,196,-257,196r-287,0r0,-698r281,0v71,0,127,16,166,49v39,33,58,77,58,132v0,73,-32,124,-96,153r0,3v90,29,135,84,135,165xm188,-85r187,0v65,0,110,-10,137,-30v27,-20,41,-48,41,-85v0,-76,-59,-114,-177,-114r-188,0r0,229xm188,-396r166,0v59,0,101,-10,125,-30v24,-20,36,-46,36,-80v0,-34,-13,-60,-39,-79v-26,-19,-60,-28,-105,-28r-183,0r0,217","w":693},"C":{"d":"638,-553v-69,-45,-144,-68,-227,-68v-83,0,-147,25,-194,76v-47,51,-70,116,-70,196v0,80,23,145,70,196v47,51,111,76,194,76v83,0,158,-23,227,-68r5,0r0,90v-72,43,-151,65,-237,65v-102,0,-186,-33,-252,-98v-66,-65,-98,-152,-98,-261v0,-109,32,-196,98,-261v66,-65,150,-98,252,-98v86,0,165,22,237,65r0,90r-5,0","w":698},"D":{"d":"343,-698v57,0,109,10,155,30v46,20,84,48,112,82v57,69,86,148,86,237v0,71,-19,136,-56,195v-41,65,-97,109,-169,134v-39,13,-82,20,-128,20r-246,0r0,-698r246,0xm332,-85v83,0,149,-24,199,-73v50,-49,75,-112,75,-191v0,-79,-25,-142,-75,-191v-50,-49,-116,-73,-199,-73r-144,0r0,528r144,0","w":750},"E":{"d":"581,-613r-393,0r0,221r357,0r0,85r-357,0r0,222r393,0r0,85r-484,0r0,-698r484,0r0,85","w":638},"F":{"d":"97,-698r472,0r0,85r-381,0r0,221r346,0r0,85r-346,0r0,307r-91,0r0,-698","w":610},"G":{"d":"410,-383r263,0r0,316v-86,51,-175,77,-267,77v-105,0,-189,-33,-254,-100v-65,-67,-97,-153,-97,-259v0,-106,33,-192,100,-259v67,-67,147,-100,241,-100v94,0,182,26,266,77r0,94r-4,0v-82,-55,-162,-83,-242,-83v-80,0,-145,24,-195,72v-50,48,-75,114,-75,196v0,82,24,149,73,200v49,51,115,76,199,76v63,0,121,-15,175,-44r0,-181r-183,0r0,-82","w":744},"H":{"d":"567,-698r91,0r0,698r-91,0r0,-306r-379,0r0,306r-91,0r0,-698r91,0r0,307r379,0r0,-307","w":755},"I":{"d":"188,-698r0,698r-91,0r0,-698r91,0","w":285},"J":{"d":"282,-698r91,0r0,468v0,87,-20,150,-59,186v-39,36,-85,54,-140,54v-55,0,-105,-14,-150,-41r0,-90r4,0v41,30,82,45,124,45v42,0,74,-10,96,-31v22,-21,34,-60,34,-117r0,-474","w":466},"K":{"d":"362,-404r311,404r-111,0r-258,-340r-5,0r-111,115r0,225r-91,0r0,-698r91,0r0,357r3,0r337,-357r119,0","w":670},"L":{"d":"556,-91r0,91r-459,0r0,-698r91,0r0,607r368,0","w":576},"M":{"d":"727,-698r142,0r0,698r-91,0r0,-602r-2,0r-246,602r-94,0r-247,-602r-1,0r0,602r-91,0r0,-698r142,0r243,597r2,0","w":966},"N":{"d":"615,-698r91,0r0,698r-112,0r-404,-575r-2,0r0,575r-91,0r0,-698r112,0r403,574r3,0r0,-574","w":803},"O":{"d":"406,-708v105,0,190,33,253,100v63,67,96,153,98,259v-2,106,-35,192,-98,259v-63,67,-148,100,-253,100v-105,0,-190,-33,-253,-100v-63,-67,-96,-153,-98,-259v2,-106,35,-192,98,-259v63,-67,148,-100,253,-100xm216,-152v46,52,110,77,190,77v80,0,143,-25,190,-77v47,-52,70,-118,70,-197v0,-79,-23,-145,-70,-197v-47,-52,-110,-77,-190,-77v-80,0,-144,25,-190,77v-46,52,-70,118,-70,197v0,79,24,145,70,197","w":811},"P":{"d":"370,-698v48,0,90,7,126,20v36,13,64,30,84,52v20,22,34,45,43,70v9,25,14,52,14,80v0,28,-5,55,-14,80v-9,25,-23,48,-43,70v-20,22,-48,39,-84,52v-36,13,-78,20,-126,20r-182,0r0,254r-91,0r0,-698r273,0xm361,-340v68,0,115,-13,143,-39v28,-26,42,-58,42,-97v0,-39,-14,-71,-42,-97v-28,-26,-75,-39,-143,-39r-173,0r0,272r173,0","w":669},"Q":{"d":"552,-18r0,3r136,152r0,3r-112,0r-110,-134v-17,3,-37,4,-60,4v-105,0,-190,-33,-253,-100v-63,-67,-96,-153,-98,-259v2,-106,35,-192,98,-259v63,-67,148,-100,253,-100v105,0,190,33,253,100v63,67,96,153,98,259v-1,78,-21,147,-57,205v-36,58,-85,100,-148,126xm216,-152v46,52,110,77,190,77v80,0,143,-25,190,-77v47,-52,70,-118,70,-197v0,-79,-23,-145,-70,-197v-47,-52,-110,-77,-190,-77v-80,0,-144,25,-190,77v-46,52,-70,118,-70,197v0,79,24,145,70,197","w":812},"R":{"d":"636,-86r0,24v0,21,6,41,17,58r0,4r-94,0v-9,-15,-14,-33,-14,-54r0,-16v0,-61,-6,-103,-19,-126v-6,-12,-14,-25,-24,-38v-21,-25,-56,-38,-107,-38r-207,0r0,272r-91,0r0,-698r278,0v91,0,159,19,204,56v45,37,68,86,68,147v0,41,-11,77,-33,109v-22,32,-54,56,-96,71r0,2v79,21,118,96,118,227xm369,-358v57,0,103,-11,137,-34v34,-23,50,-54,50,-95v0,-41,-15,-72,-44,-93v-29,-21,-78,-32,-148,-32r-176,0r0,254r181,0","w":712},"S":{"d":"148,-510v0,27,11,49,32,66v21,17,47,29,78,36v31,7,65,16,102,26v37,10,72,22,103,34v31,12,58,32,79,60v21,28,31,62,31,103v0,57,-24,105,-71,141v-47,36,-112,54,-196,54v-84,0,-164,-18,-240,-54r0,-89r5,0v69,39,148,58,237,58v117,0,175,-39,175,-116v0,-38,-28,-66,-85,-84v-25,-8,-52,-16,-82,-23v-30,-7,-60,-16,-90,-26v-30,-10,-59,-22,-84,-36v-25,-14,-44,-32,-60,-56v-16,-24,-24,-54,-24,-87v0,-58,22,-107,68,-146v46,-39,108,-59,186,-59v78,0,147,12,210,36r0,85r-7,0v-63,-25,-123,-38,-181,-38v-58,0,-103,11,-136,31v-33,20,-50,48,-50,84","w":616},"T":{"d":"592,-698r0,85r-241,0r0,613r-91,0r0,-613r-241,0r0,-85r573,0","w":611},"U":{"d":"575,-698r91,0r0,436v0,45,-9,86,-26,122v-17,36,-40,64,-68,85v-28,21,-59,38,-92,49v-33,11,-66,16,-101,16v-35,0,-68,-5,-101,-16v-33,-11,-64,-28,-92,-49v-28,-21,-51,-49,-68,-85v-17,-36,-26,-77,-26,-122r0,-436r91,0r0,439v0,59,19,104,58,137v39,33,85,49,138,49v53,0,99,-16,138,-49v39,-33,58,-78,58,-137r0,-439","w":758},"V":{"d":"591,-698r98,0r-288,698r-108,0r-288,-698r99,0r241,605r4,0","w":694},"W":{"d":"900,-698r95,0r-228,698r-91,0r-170,-542r-5,0r-170,542r-91,0r-228,-698r95,0r176,576r3,0r178,-576r79,0r178,576r3,0","w":1007},"X":{"d":"386,-350r270,350r-113,0r-209,-280r-5,0r-206,280r-108,0r268,-349r-268,-349r114,0r205,278r5,0r204,-278r110,0","w":669},"Y":{"d":"541,-698r111,0r-284,403r0,295r-91,0r0,-295r-284,-403r111,0r216,319r5,0","w":645},"Z":{"d":"587,-698r0,82r-426,528r0,3r426,0r0,85r-540,0r0,-80r426,-527r0,-4r-418,0r0,-87r532,0","w":638},"[":{"d":"288,-660r-122,0r0,721r122,0r0,71r-201,0r0,-864r201,0r0,72","w":322},"\\":{"d":"35,-751r86,0r286,836r-86,0","w":443},"]":{"d":"156,-660r-122,0r0,-72r201,0r0,864r-201,0r0,-71r122,0r0,-721","w":322},"^":{"d":"378,-426r-116,-185r-2,0r-115,185r-80,0r147,-272r100,0r147,272r-81,0","w":524},"_":{"d":"606,147r-549,0r0,-66r549,0r0,66","w":663},"`":{"d":"35,-711r99,0r76,133r-62,0","w":246},"a":{"d":"88,-482v58,-25,120,-38,186,-38v66,0,118,19,153,58v35,39,53,85,53,139r0,323r-80,0r-11,-64r-3,0v-48,49,-110,74,-185,74v-45,0,-83,-14,-115,-41v-32,-27,-48,-65,-48,-112v0,-47,19,-86,58,-115v39,-29,97,-44,172,-44r121,0r0,-8v0,-44,-11,-76,-33,-95v-22,-19,-59,-29,-112,-29v-53,0,-103,11,-150,34r-6,0r0,-82xm389,-145r0,-84r-109,0v-101,0,-151,26,-151,79v0,53,35,80,106,80v29,0,58,-8,85,-22v27,-14,50,-32,69,-53","w":555},"b":{"d":"341,-520v65,0,121,24,169,72v48,48,73,112,73,193v0,81,-25,145,-73,193v-48,48,-104,72,-169,72v-65,0,-121,-25,-168,-74r-3,0r-11,64r-80,0r0,-730r91,0r0,284r3,0v47,-49,103,-74,168,-74xm328,-75v49,0,89,-16,119,-47v30,-31,45,-76,45,-133v0,-57,-15,-102,-45,-133v-30,-31,-70,-47,-119,-47v-60,0,-113,25,-158,75r0,210v45,50,98,75,158,75","w":631},"c":{"d":"482,-385v-49,-33,-102,-50,-160,-50v-58,0,-103,16,-136,49v-33,33,-49,77,-49,131v0,54,16,98,49,131v33,33,78,49,136,49v58,0,111,-17,160,-50r4,0r0,86v-55,33,-113,49,-173,49v-74,0,-137,-24,-189,-72v-52,-48,-78,-112,-78,-193v0,-81,26,-145,78,-193v52,-48,115,-72,189,-72v60,0,118,16,173,49r0,86r-4,0","w":536},"d":{"d":"290,-520v65,0,121,25,168,74r3,0r0,-284r91,0r0,730r-80,0r-11,-64r-3,0v-47,49,-103,74,-168,74v-65,0,-122,-24,-170,-72v-48,-48,-72,-112,-72,-193v0,-81,24,-145,72,-193v48,-48,105,-72,170,-72xm303,-75v60,0,113,-25,158,-75r0,-210v-45,-50,-98,-75,-158,-75v-49,0,-89,16,-119,47v-30,31,-45,76,-45,133v0,57,15,102,45,133v30,31,70,47,119,47","w":631},"e":{"d":"527,-255r0,32r-386,0v5,47,23,83,52,109v29,26,73,39,133,39v60,0,115,-17,166,-50r5,0r0,88v-56,31,-121,47,-197,47v-76,0,-136,-24,-182,-70v-46,-46,-69,-109,-69,-188v0,-79,20,-144,61,-195v41,-51,100,-77,178,-77v78,0,137,26,178,77v41,51,61,114,61,188xm141,-297r295,0v-3,-48,-18,-84,-48,-109v-30,-25,-63,-37,-100,-37v-37,0,-70,12,-99,37v-29,25,-45,61,-48,109","w":570},"f":{"d":"357,-640v-25,-9,-49,-13,-73,-13v-24,0,-42,6,-56,19v-14,13,-20,36,-20,69r0,55r156,0r0,78r-156,0r0,432r-91,0r0,-432r-93,0r0,-78r93,0r0,-58v0,-58,15,-102,45,-130v30,-28,62,-42,100,-42v38,0,72,8,102,25r0,75r-7,0","w":380},"g":{"d":"472,-510r80,0r0,488v0,84,-20,149,-61,194v-41,45,-100,68,-177,68v-77,0,-147,-17,-210,-51r0,-90r5,0v57,37,123,55,199,55v102,0,153,-54,153,-163r0,-65r-3,0v-46,49,-101,74,-165,74v-64,0,-121,-22,-171,-68v-50,-46,-74,-110,-74,-192v0,-82,24,-146,74,-192v50,-46,107,-68,171,-68v64,0,119,25,165,74r3,0xm461,-157r0,-206v-48,-49,-97,-74,-149,-74v-52,0,-94,15,-126,45v-32,30,-47,75,-47,132v0,57,15,102,47,132v32,30,74,45,126,45v52,0,101,-25,149,-74","w":631},"h":{"d":"356,-520v55,0,99,19,131,56v32,37,48,84,48,140r0,324r-91,0r0,-314v0,-81,-37,-122,-110,-122v-58,0,-113,32,-164,96r0,340r-91,0r0,-730r91,0r0,299r3,0v54,-59,115,-89,183,-89","w":609},"i":{"d":"83,0r0,-510r91,0r0,510r-91,0xm178,-716r0,98r-98,0r0,-98r98,0","w":257},"j":{"d":"80,-716r98,0r0,98r-98,0r0,-98xm83,101r0,-611r91,0r0,613v0,41,-11,74,-32,99v-21,25,-54,38,-99,38v-29,0,-54,-4,-75,-13r0,-75r8,0v16,5,32,8,50,8v18,0,32,-4,42,-11v10,-7,15,-23,15,-48","w":257},"k":{"d":"309,-305r230,305r-112,0r-180,-241r-3,0r-74,74r0,167r-91,0r0,-730r91,0r0,447r3,0r221,-227r122,0","w":546},"l":{"d":"178,-730r0,730r-91,0r0,-730r91,0","w":265},"m":{"d":"677,-520v55,0,97,19,125,58v28,39,42,83,42,134r0,328r-91,0r0,-310v0,-43,-7,-76,-23,-96v-16,-20,-42,-30,-79,-30v-57,0,-105,32,-144,96r0,340r-91,0r0,-310v0,-43,-8,-76,-23,-96v-15,-20,-42,-30,-79,-30v-57,0,-105,32,-144,96r0,340r-91,0r0,-510r80,0r11,64r0,15r2,0v43,-59,99,-89,168,-89v37,0,70,10,96,29v26,19,45,43,56,72r3,0v41,-67,101,-101,182,-101","w":919},"n":{"d":"356,-520v55,0,99,19,131,56v32,37,48,84,48,140r0,324r-91,0r0,-314v0,-81,-37,-122,-110,-122v-58,0,-113,32,-164,96r0,340r-91,0r0,-510r80,0r11,64r0,15r2,0v54,-59,115,-89,184,-89","w":609},"o":{"d":"118,-447v47,-49,109,-73,186,-73v77,0,139,24,186,73v47,49,70,113,70,192v0,79,-23,143,-70,192v-47,49,-109,73,-186,73v-77,0,-139,-24,-186,-73v-47,-49,-70,-113,-70,-192v0,-79,23,-143,70,-192xm304,-73v44,0,83,-15,116,-45v33,-30,49,-77,49,-138v0,-61,-16,-106,-49,-136v-33,-30,-72,-45,-116,-45v-44,0,-83,15,-116,45v-33,30,-49,75,-49,136v0,61,16,108,49,138v33,30,72,45,116,45","w":608},"p":{"d":"341,10v-65,0,-121,-25,-168,-74r-3,0r0,294r-91,0r0,-740r80,0r11,64r3,0v47,-49,103,-74,168,-74v65,0,121,24,169,72v48,48,73,112,73,193v0,81,-25,145,-73,193v-48,48,-104,72,-169,72xm328,-435v-60,0,-113,25,-158,75r0,210v45,50,98,75,158,75v49,0,89,-16,119,-47v30,-31,45,-76,45,-133v0,-57,-15,-102,-45,-133v-30,-31,-70,-47,-119,-47","w":631},"q":{"d":"290,10v-65,0,-122,-24,-170,-72v-48,-48,-72,-112,-72,-193v0,-81,24,-145,72,-193v48,-48,105,-72,170,-72v65,0,121,25,168,74r3,0r11,-64r80,0r0,740r-91,0r0,-294r-3,0v-47,49,-103,74,-168,74xm303,-435v-49,0,-89,16,-119,47v-30,31,-45,76,-45,133v0,57,15,102,45,133v30,31,70,47,119,47v60,0,113,-25,158,-75r0,-210v-45,-50,-98,-75,-158,-75","w":631},"r":{"d":"360,-520r8,0r0,87r-8,0v-39,0,-76,8,-110,23v-34,15,-61,37,-80,64r0,346r-91,0r0,-510r80,0r11,64r0,15r2,0v48,-59,111,-89,188,-89","w":387},"s":{"d":"170,-418v-20,13,-31,30,-31,50v0,20,10,34,31,45v21,11,46,19,76,25v30,6,59,15,88,24v29,9,54,25,75,48v21,23,31,54,31,93v0,39,-16,73,-50,101v-34,28,-84,42,-150,42v-66,0,-127,-15,-182,-45r0,-87r5,0v54,32,113,48,178,48v74,0,111,-24,111,-71v0,-15,-10,-27,-31,-37v-21,-10,-46,-18,-75,-25v-29,-7,-59,-15,-88,-24v-29,-9,-54,-25,-75,-47v-21,-22,-31,-50,-31,-84v0,-47,16,-85,50,-114v34,-29,80,-44,138,-44v58,0,112,9,162,28r0,83r-7,0v-45,-19,-88,-28,-131,-28v-43,0,-74,6,-94,19","w":480},"t":{"d":"348,-432r-145,0r0,302v0,28,8,45,23,52v13,5,29,8,49,8v20,0,42,-5,66,-16r7,0r0,74v-28,15,-58,22,-90,22v-97,0,-146,-44,-146,-132r0,-310r-95,0r0,-6r186,-182r0,110r145,0r0,78","w":384},"u":{"d":"254,10v-55,0,-99,-19,-131,-56v-32,-37,-48,-84,-48,-140r0,-324r91,0r0,314v0,81,37,122,110,122v58,0,113,-32,164,-96r0,-340r91,0r0,510r-80,0r-11,-64r0,-15r-2,0v-54,59,-115,89,-184,89","w":610},"v":{"d":"425,-510r99,0r-214,510r-90,0r-214,-510r99,0r158,402r4,0","w":530},"w":{"d":"678,-510r96,0r-175,510r-89,0r-116,-365r-3,0r-116,365r-89,0r-175,-510r96,0r121,400r3,0r124,-400r75,0r124,400r3,0","w":785},"x":{"d":"521,-510r-197,252r197,258r-114,0r-137,-181r-5,0r-130,181r-114,0r196,-252r-196,-258r114,0r135,182r5,0r132,-182r114,0","w":542},"y":{"d":"529,-510r-307,740r-92,0r86,-222r-211,-518r98,0r160,403r4,0r164,-403r98,0","w":533},"z":{"d":"448,-510r0,85r-289,337r0,3r289,0r0,85r-402,0r0,-84r293,-337r0,-4r-284,0r0,-85r393,0","w":499},"{":{"d":"207,-425v0,57,-30,96,-90,118r0,1v60,22,90,61,90,117r0,222v0,8,1,14,3,19v2,5,7,11,16,16v9,5,23,7,40,7r45,0r0,70r-42,0v-45,0,-79,-9,-103,-26v-24,-17,-37,-49,-37,-94r0,-211v0,-11,-1,-21,-3,-28v-2,-7,-5,-14,-12,-23v-14,-17,-47,-28,-100,-33r0,-74v53,-5,86,-16,100,-33v7,-9,10,-16,12,-23v2,-7,3,-17,3,-28r0,-211v0,-45,13,-77,37,-94v24,-17,58,-26,103,-26r42,0r0,70r-45,0v-17,0,-31,2,-40,7v-9,5,-14,11,-16,16v-2,5,-3,11,-3,19r0,222","w":344},"|":{"d":"167,-736r0,927r-81,0r0,-927r81,0","w":253},"}":{"d":"137,-425r0,-222v0,-8,-1,-14,-3,-19v-2,-5,-7,-11,-16,-16v-9,-5,-23,-7,-40,-7r-45,0r0,-70r42,0v45,0,79,9,103,26v24,17,37,49,37,94r0,211v0,11,1,21,3,28v2,7,5,14,12,23v14,17,47,28,100,33r0,74v-53,5,-86,16,-100,33v-7,9,-10,16,-12,23v-2,7,-3,17,-3,28r0,211v0,45,-13,77,-37,94v-24,17,-58,26,-103,26r-42,0r0,-70r45,0v17,0,31,-2,40,-7v9,-5,14,-11,16,-16v2,-5,3,-11,3,-19r0,-222v0,-56,30,-95,90,-117r0,-1v-60,-22,-90,-61,-90,-118","w":344},"~":{"d":"521,-359r50,0v-6,50,-21,88,-44,114v-23,26,-51,39,-83,39v-32,0,-64,-6,-95,-19v-31,-13,-59,-25,-85,-38v-26,-13,-50,-19,-70,-19v-39,0,-64,22,-73,67r-50,0v5,-49,19,-87,43,-113v24,-26,52,-39,84,-39v32,0,64,6,95,19v31,13,59,25,86,38v27,13,50,19,69,19v39,0,64,-23,73,-68","w":638},"\u00a0":{"w":260},"\u00a1":{"d":"73,-510r112,0r0,112r-112,0r0,-112xm78,188r0,-146r19,-359r64,0r20,359r0,146r-103,0","w":259},"\u00a2":{"d":"480,-385v-30,-19,-60,-33,-89,-40r-118,346v13,3,28,4,46,4v58,0,112,-17,161,-50r4,0r0,86v-55,33,-113,49,-173,49v-25,0,-47,-2,-66,-7r-40,115r-59,0r46,-133v-45,-21,-81,-52,-108,-93v-27,-41,-40,-90,-40,-147v0,-81,26,-145,78,-193v52,-48,115,-72,189,-72v13,0,31,1,52,4r34,-99r59,0r-38,113v20,7,42,17,66,31r0,86r-4,0xm335,-434r-16,-1v-57,0,-102,16,-135,49v-33,33,-49,77,-49,131v0,75,28,127,85,158","w":551},"\u00a3":{"d":"223,-118r25,-1v27,0,60,7,101,21v41,14,75,20,105,20v30,0,61,-11,94,-33r4,0r0,89v-40,21,-76,32,-109,32v-33,0,-68,-7,-106,-22v-38,-15,-71,-23,-100,-23v-46,0,-87,15,-123,45r-55,-46v77,-70,116,-143,116,-219v0,-18,-2,-35,-6,-52r-125,0r0,-45r113,0r-7,-22r-8,-24v-11,-37,-17,-72,-17,-104v0,-64,23,-114,67,-151v44,-37,99,-55,165,-55v66,0,124,13,175,38r0,90r-5,0v-47,-27,-99,-40,-155,-40v-56,0,-96,11,-120,33v-24,22,-36,49,-36,81v0,28,5,59,16,93r19,61r195,0r0,45r-185,0v3,13,4,29,4,46v0,51,-14,99,-42,143","w":604},"\u00a4":{"d":"571,-349v0,51,-15,97,-45,139r72,73r-52,52r-73,-73v-41,31,-88,46,-139,46v-51,0,-98,-15,-139,-46r-73,73r-52,-52r72,-73v-30,-42,-45,-88,-45,-139v0,-51,15,-97,45,-140r-72,-72r52,-52r73,72v42,-30,88,-45,139,-45v51,0,97,15,139,45r73,-72r52,52r-72,72v30,43,45,89,45,140xm334,-194v43,0,80,-16,110,-46v30,-30,46,-67,46,-110v0,-43,-15,-80,-46,-110v-31,-30,-67,-45,-110,-45v-43,0,-79,15,-110,45v-31,30,-46,67,-46,110v0,43,16,80,46,110v30,30,67,46,110,46","w":668},"\u00a5":{"d":"621,-698r-204,333r129,0r0,75r-172,0r0,91r172,0r0,75r-172,0r0,124r-90,0r0,-124r-173,0r0,-75r173,0r0,-91r-173,0r0,-75r130,0r-204,-333r111,0r181,317r181,-317r111,0","w":658},"\u00a7":{"d":"177,-554v0,29,26,52,79,71v57,21,105,42,144,63v23,13,41,30,56,52v15,22,23,47,23,76v0,63,-33,106,-99,127v43,29,65,67,65,114v0,47,-17,84,-51,112v-34,28,-84,42,-150,42v-66,0,-126,-15,-181,-45r0,-87r5,0v54,32,113,48,178,48v75,0,113,-23,113,-70v0,-18,-10,-34,-31,-47v-21,-13,-46,-26,-76,-36v-30,-10,-58,-22,-88,-35v-30,-13,-55,-33,-76,-57v-21,-24,-31,-53,-31,-87v0,-62,33,-104,98,-126v-43,-31,-64,-70,-64,-116v0,-46,17,-83,51,-111v34,-28,80,-42,140,-42v60,0,114,11,163,32r0,85r-7,0v-45,-22,-95,-33,-148,-33v-75,0,-113,23,-113,70xm320,-198v50,-12,75,-41,75,-88v0,-26,-13,-47,-40,-62v-23,-13,-49,-24,-78,-35v-29,-11,-50,-19,-62,-24v-49,12,-74,41,-74,88v0,26,13,47,40,62v18,11,43,22,75,34v32,12,53,20,64,25","w":529},"\u00a8":{"d":"66,-578r0,-96r96,0r0,96r-96,0xm234,-578r0,-96r96,0r0,96r-96,0","w":400},"\u00a9":{"d":"410,-708v99,0,184,35,254,105v70,70,105,155,105,254v0,99,-35,184,-105,254v-70,70,-155,105,-254,105v-99,0,-184,-35,-254,-105v-70,-70,-105,-155,-105,-254v0,-99,35,-184,105,-254v70,-70,155,-105,254,-105xm193,-132v60,60,133,90,217,90v84,0,156,-30,216,-90v60,-60,91,-132,91,-217v0,-85,-31,-157,-91,-217v-60,-60,-132,-90,-216,-90v-84,0,-157,30,-217,90v-60,60,-90,132,-90,216v0,84,30,158,90,218xm416,-206v55,0,93,-26,114,-77r67,0v-11,43,-33,76,-65,101v-32,25,-71,37,-116,37v-57,0,-104,-19,-140,-56v-36,-37,-53,-87,-53,-148v0,-61,17,-111,53,-148v36,-37,80,-56,132,-56v52,0,92,13,124,37v32,24,54,58,65,101r-67,0v-21,-51,-59,-77,-114,-77v-40,0,-71,14,-93,41v-22,27,-33,61,-33,102v0,41,11,75,33,102v22,27,53,41,93,41","w":819},"\u00aa":{"d":"197,-339v-32,0,-59,-10,-82,-29v-23,-19,-34,-46,-34,-79v0,-33,14,-59,41,-78v27,-19,67,-28,120,-28r76,0r0,-2v0,-30,-7,-52,-21,-65v-14,-13,-37,-20,-69,-20v-32,0,-69,9,-110,26r-4,0r0,-66v45,-19,89,-28,134,-28v45,0,80,14,105,41v25,27,37,60,37,98r0,223r-65,0r-7,-40r-2,0v-27,31,-67,47,-119,47xm250,-499v-65,0,-97,15,-97,47v0,32,22,48,67,48v37,0,69,-16,98,-47r0,-48r-68,0xm72,-285r327,0r0,56r-327,0r0,-56","w":485},"\u00ab":{"d":"327,-479r-193,224r193,223r-104,0r-186,-223r186,-224r104,0xm342,-255r193,223r-104,0r-186,-223r186,-224r104,0","w":585},"\u00ac":{"d":"78,-311r0,-72r418,0r0,210r-75,0r0,-138r-343,0","w":579},"\u00ae":{"d":"410,-708v99,0,184,35,254,105v70,70,105,155,105,254v0,99,-35,184,-105,254v-70,70,-155,105,-254,105v-99,0,-184,-35,-254,-105v-70,-70,-105,-155,-105,-254v0,-99,35,-184,105,-254v70,-70,155,-105,254,-105xm193,-132v60,60,133,90,217,90v84,0,156,-30,216,-90v60,-60,91,-132,91,-217v0,-85,-31,-157,-91,-217v-60,-60,-132,-90,-216,-90v-84,0,-157,30,-217,90v-60,60,-90,132,-90,216v0,84,30,158,90,218xm573,-192v0,11,4,24,12,38r0,4r-67,0v-9,-13,-13,-26,-13,-39r0,-8v0,-37,-5,-63,-15,-77v-13,-17,-32,-25,-58,-25r-104,0r0,149r-67,0r0,-398r160,0v53,0,92,11,118,33v26,22,39,51,39,87v0,45,-24,77,-73,96r0,1v19,7,35,21,48,41v13,20,20,48,20,84r0,14xm418,-358v29,0,51,-6,68,-18v17,-12,26,-28,26,-50v0,-43,-32,-64,-96,-64r-88,0r0,132r90,0","w":819},"\u00af":{"d":"297,-648r0,60r-284,0r0,-60r284,0","w":312},"\u00b0":{"d":"92,-668v27,-27,60,-40,98,-40v38,0,69,13,96,40v27,27,40,58,40,96v0,38,-13,71,-40,98v-27,27,-58,40,-96,40v-38,0,-71,-13,-98,-40v-27,-27,-40,-60,-40,-98v0,-38,13,-69,40,-96xm189,-486v23,0,43,-8,60,-25v17,-17,25,-37,25,-60v0,-23,-8,-43,-25,-60v-17,-17,-37,-25,-60,-25v-23,0,-43,8,-60,25v-17,17,-25,37,-25,60v0,23,8,43,25,60v17,17,37,25,60,25","w":378},"\u00b1":{"d":"67,0r0,-77r472,0r0,77r-472,0xm67,-342r0,-77r197,0r0,-192r78,0r0,192r197,0r0,77r-197,0r0,192r-78,0r0,-192r-197,0","w":606},"\u00b2":{"d":"286,-816v25,22,37,48,37,77v0,29,-9,56,-28,80v-19,24,-40,43,-63,58v-69,44,-108,73,-118,88r0,3r203,0r0,59r-274,0r0,-39v0,-26,11,-50,34,-74v23,-24,48,-43,75,-58v72,-41,108,-76,108,-107v0,-40,-25,-60,-76,-60v-51,0,-92,13,-123,39r-4,0r0,-65v40,-23,81,-35,125,-35v44,0,79,12,104,34","w":370},"\u00b3":{"d":"308,-744v0,43,-20,73,-60,89r0,2v49,15,74,47,74,96v0,32,-12,59,-36,80v-24,21,-59,32,-108,32v-49,0,-93,-9,-130,-28r0,-62r5,0v34,19,72,28,114,28v61,0,92,-17,92,-52v0,-41,-37,-62,-112,-62r-36,0r0,-60r29,0v71,0,106,-19,106,-58v0,-33,-26,-50,-78,-50v-42,0,-79,11,-111,33r-5,0r0,-60v39,-23,81,-34,124,-34v43,0,76,10,98,30v22,20,34,45,34,76","w":370},"\u00b4":{"d":"111,-711r99,0r-113,133r-62,0","w":240},"\u00b5":{"d":"84,213r0,-723r91,0r0,314v0,81,37,122,110,122v58,0,113,-32,164,-96r0,-340r91,0r0,510r-80,0r-11,-64r0,-15r-2,0v-26,29,-52,51,-78,66v-26,15,-58,23,-95,23v-37,0,-69,-9,-96,-26r-3,0r0,229r-91,0","w":604},"\u00b6":{"d":"683,-698r0,79r-81,0r0,838r-79,0r0,-838r-112,0r0,838r-79,0r0,-403r-36,0v-71,0,-132,-25,-182,-75v-50,-50,-75,-111,-75,-182v0,-71,25,-132,75,-182v50,-50,111,-75,182,-75r387,0","w":732},"\u00b7":{"d":"74,-229r0,-112r112,0r0,112r-112,0","w":260},"\u00b8":{"d":"146,63v11,-3,25,-4,42,-4v17,0,34,6,48,19v14,13,21,30,21,51v0,61,-37,92,-111,92v-35,0,-67,-10,-98,-31r16,-35v25,15,48,23,69,23v38,0,57,-15,57,-46v0,-10,-3,-18,-10,-23v-7,-5,-17,-8,-30,-8v-13,0,-27,4,-42,12r-29,-16r71,-114r42,0","w":307},"\u00b9":{"d":"232,-510r75,0r0,59r-223,0r0,-59r84,0r0,-258r-4,0r-76,37r0,-66r90,-47r54,0r0,334","w":370},"\u00ba":{"d":"257,-708v54,0,97,16,129,50v32,34,49,79,49,134v0,55,-17,100,-49,134v-32,34,-75,51,-129,51v-54,0,-97,-17,-129,-51v-32,-34,-49,-79,-49,-134v0,-55,17,-100,49,-134v32,-34,75,-50,129,-50xm257,-403v28,0,53,-11,74,-31v21,-20,32,-50,32,-90v0,-40,-11,-71,-32,-91v-21,-20,-46,-30,-74,-30v-28,0,-53,10,-74,30v-21,20,-32,51,-32,91v0,40,11,70,32,90v21,20,46,31,74,31xm75,-285r364,0r0,56r-364,0r0,-56","w":514},"\u00bb":{"d":"451,-255r-193,-224r104,0r186,224r-186,223r-104,0xm50,-32r193,-223r-193,-224r104,0r186,224r-186,223r-104,0","w":585},"\u00bc":{"d":"239,-369r75,0r0,59r-223,0r0,-59r84,0r0,-258r-4,0r-76,37r0,-66r90,-47r54,0r0,334xm727,-710r-439,724r-80,0r439,-724r80,0xm801,-155r61,0r0,59r-61,0r0,96r-64,0r0,-96r-194,0r0,-56r188,-241r70,0r0,238xm737,-155r0,-157r-2,0r-119,155r0,2r121,0","w":940},"\u00bd":{"d":"824,-366v25,22,37,49,37,78v0,29,-9,56,-28,80v-19,24,-40,43,-63,58v-69,44,-108,73,-118,88r0,3r203,0r0,59r-274,0r0,-39v0,-26,11,-51,34,-75v23,-24,48,-43,75,-58v72,-40,108,-75,108,-106v0,-40,-25,-60,-76,-60v-51,0,-92,13,-123,39r-4,0r0,-65v40,-23,81,-35,125,-35v44,0,79,11,104,33xm721,-710r-439,724r-80,0r439,-724r80,0xm233,-369r75,0r0,59r-223,0r0,-59r84,0r0,-258r-4,0r-76,37r0,-66r90,-47r54,0r0,334","w":940},"\u00be":{"d":"741,-710r-439,724r-80,0r439,-724r80,0xm815,-155r61,0r0,59r-61,0r0,96r-64,0r0,-96r-194,0r0,-56r188,-241r70,0r0,238xm751,-155r0,-157r-2,0r-119,155r0,2r121,0xm335,-603v0,43,-20,73,-60,89r0,2v49,15,74,47,74,96v0,32,-11,59,-35,80v-24,21,-61,32,-110,32v-49,0,-92,-9,-129,-28r0,-62r5,0v34,19,72,28,114,28v61,0,92,-17,92,-52v0,-41,-37,-62,-112,-62r-36,0r0,-60r29,0v71,0,106,-19,106,-58v0,-33,-26,-50,-78,-50v-42,0,-79,11,-111,33r-5,0r0,-60v39,-23,81,-34,124,-34v43,0,77,9,99,29v22,20,33,46,33,77","w":940},"\u00bf":{"d":"328,-510r0,112r-112,0r0,-112r112,0xm450,145v-63,35,-127,53,-191,53v-64,0,-116,-17,-157,-51v-41,-34,-62,-80,-62,-138v0,-31,7,-57,20,-81v13,-24,28,-44,46,-59r56,-45v44,-37,66,-80,66,-129r0,-12r88,0r0,16v0,35,-6,67,-19,95v-13,28,-29,49,-47,66v-18,17,-36,33,-54,47v-44,33,-66,66,-66,97v0,73,48,109,143,109v55,0,113,-20,173,-59r4,0r0,91","w":488},"\u00c0":{"d":"223,-883r99,0r76,133r-62,0xm593,0r-75,-179r-339,0r-75,179r-99,0r296,-698r95,0r296,698r-99,0xm215,-267r0,5r267,0r0,-5r-132,-319r-2,0","w":697},"\u00c1":{"d":"375,-883r99,0r-113,133r-62,0xm593,0r-75,-179r-339,0r-75,179r-99,0r296,-698r95,0r296,698r-99,0xm215,-267r0,5r267,0r0,-5r-132,-319r-2,0","w":697},"\u00c2":{"d":"390,-873r113,123r-79,0r-75,-73r-75,73r-79,0r113,-123r82,0xm593,0r-75,-179r-339,0r-75,179r-99,0r296,-698r95,0r296,698r-99,0xm215,-267r0,5r267,0r0,-5r-132,-319r-2,0","w":697},"\u00c3":{"d":"469,-855r45,0v-3,36,-12,63,-28,82v-16,19,-34,28,-56,28v-22,0,-49,-8,-82,-24v-33,-16,-57,-24,-74,-24v-22,0,-36,14,-43,43r-44,0v3,-36,11,-63,27,-82v16,-19,35,-29,56,-29v21,0,48,7,81,23v33,16,58,24,76,24v23,0,37,-14,42,-41xm593,0r-75,-179r-339,0r-75,179r-99,0r296,-698r95,0r296,698r-99,0xm215,-267r0,5r267,0r0,-5r-132,-319r-2,0","w":697},"\u00c4":{"d":"593,0r-75,-179r-339,0r-75,179r-99,0r296,-698r95,0r296,698r-99,0xm215,-267r0,5r267,0r0,-5r-132,-319r-2,0xm217,-750r0,-96r96,0r0,96r-96,0xm385,-750r0,-96r96,0r0,96r-96,0","w":697},"\u00c5":{"d":"349,-918v26,0,49,10,67,28v18,18,27,40,27,66v0,26,-9,48,-27,66v-18,18,-41,28,-67,28v-26,0,-49,-10,-67,-28v-18,-18,-27,-40,-27,-66v0,-26,9,-48,27,-66v18,-18,41,-28,67,-28xm349,-775v13,0,25,-5,35,-15v10,-10,14,-21,14,-34v0,-13,-4,-24,-14,-34v-10,-10,-22,-15,-35,-15v-13,0,-25,5,-35,15v-10,10,-14,21,-14,34v0,13,4,24,14,34v10,10,22,15,35,15xm593,0r-75,-179r-339,0r-75,179r-99,0r296,-698r95,0r296,698r-99,0xm215,-267r0,5r267,0r0,-5r-132,-319r-2,0","w":697},"\u00c6":{"d":"983,-613r-393,0r0,221r357,0r0,85r-357,0r0,222r393,0r0,85r-484,0r0,-179r-308,0r-116,179r-108,0r460,-698r556,0r0,85xm499,-262r0,-351r-25,0r-227,348r0,3r252,0","w":1040},"\u00c7":{"d":"381,63v11,-3,25,-4,42,-4v17,0,33,6,47,19v14,13,22,30,22,51v0,61,-37,92,-111,92v-35,0,-67,-10,-98,-31r16,-35v25,15,48,23,69,23v38,0,57,-15,57,-46v0,-10,-3,-18,-10,-23v-7,-5,-16,-8,-29,-8v-13,0,-28,4,-43,12r-29,-16r55,-89v-92,-8,-167,-44,-225,-108v-58,-64,-88,-148,-88,-254v0,-106,32,-191,98,-256v66,-65,150,-98,252,-98v86,0,165,22,237,65r0,90r-5,0v-69,-45,-144,-68,-227,-68v-83,0,-147,25,-194,76v-47,51,-70,116,-70,196v0,80,23,145,70,196v47,51,111,76,194,76v83,0,158,-23,227,-68r5,0r0,90v-71,43,-149,64,-232,65","w":698},"\u00c8":{"d":"581,-613r-393,0r0,221r357,0r0,85r-357,0r0,222r393,0r0,85r-484,0r0,-698r484,0r0,85xm218,-883r99,0r76,133r-62,0","w":638},"\u00c9":{"d":"581,-613r-393,0r0,221r357,0r0,85r-357,0r0,222r393,0r0,85r-484,0r0,-698r484,0r0,85xm365,-883r99,0r-113,133r-62,0","w":638},"\u00ca":{"d":"581,-613r-393,0r0,221r357,0r0,85r-357,0r0,222r393,0r0,85r-484,0r0,-698r484,0r0,85xm390,-873r113,123r-79,0r-75,-73r-75,73r-79,0r113,-123r82,0","w":638},"\u00cb":{"d":"581,-613r-393,0r0,221r357,0r0,85r-357,0r0,222r393,0r0,85r-484,0r0,-698r484,0r0,85xm206,-750r0,-96r96,0r0,96r-96,0xm374,-750r0,-96r96,0r0,96r-96,0","w":638},"\u00cc":{"d":"188,-698r0,698r-91,0r0,-698r91,0xm22,-883r99,0r76,133r-62,0","w":285},"\u00cd":{"d":"188,-698r0,698r-91,0r0,-698r91,0xm164,-883r99,0r-113,133r-62,0","w":285},"\u00ce":{"d":"188,-698r0,698r-91,0r0,-698r91,0xm183,-873r113,123r-79,0r-75,-73r-75,73r-79,0r113,-123r82,0","w":285},"\u00cf":{"d":"188,-698r0,698r-91,0r0,-698r91,0xm10,-750r0,-96r96,0r0,96r-96,0xm178,-750r0,-96r96,0r0,96r-96,0","w":285},"\u00d0":{"d":"22,-315r0,-67r82,0r0,-316r246,0v57,0,110,10,156,30v46,20,83,48,111,82v57,69,86,148,86,237v0,71,-18,136,-55,195v-41,65,-98,109,-170,134v-39,13,-82,20,-128,20r-246,0r0,-315r-82,0xm339,-85v83,0,149,-24,199,-73v50,-49,75,-112,75,-191v0,-79,-25,-142,-75,-191v-50,-49,-116,-73,-199,-73r-144,0r0,231r146,0r0,67r-146,0r0,230r144,0","w":757},"\u00d1":{"d":"615,-698r91,0r0,698r-112,0r-404,-575r-2,0r0,575r-91,0r0,-698r112,0r403,574r3,0r0,-574xm525,-855r45,0v-3,36,-12,63,-28,82v-16,19,-34,28,-56,28v-22,0,-49,-8,-82,-24v-33,-16,-57,-24,-74,-24v-22,0,-36,14,-43,43r-44,0v3,-36,11,-63,27,-82v16,-19,35,-29,56,-29v21,0,48,7,81,23v33,16,58,24,76,24v23,0,37,-14,42,-41","w":803},"\u00d2":{"d":"406,-708v105,0,190,33,253,100v63,67,96,153,98,259v-2,106,-35,192,-98,259v-63,67,-148,100,-253,100v-105,0,-190,-33,-253,-100v-63,-67,-96,-153,-98,-259v2,-106,35,-192,98,-259v63,-67,148,-100,253,-100xm216,-152v46,52,110,77,190,77v80,0,143,-25,190,-77v47,-52,70,-118,70,-197v0,-79,-23,-145,-70,-197v-47,-52,-110,-77,-190,-77v-80,0,-144,25,-190,77v-46,52,-70,118,-70,197v0,79,24,145,70,197xm288,-883r99,0r76,133r-62,0","w":811},"\u00d3":{"d":"406,-708v105,0,190,33,253,100v63,67,96,153,98,259v-2,106,-35,192,-98,259v-63,67,-148,100,-253,100v-105,0,-190,-33,-253,-100v-63,-67,-96,-153,-98,-259v2,-106,35,-192,98,-259v63,-67,148,-100,253,-100xm216,-152v46,52,110,77,190,77v80,0,143,-25,190,-77v47,-52,70,-118,70,-197v0,-79,-23,-145,-70,-197v-47,-52,-110,-77,-190,-77v-80,0,-144,25,-190,77v-46,52,-70,118,-70,197v0,79,24,145,70,197xm425,-883r99,0r-113,133r-62,0","w":811},"\u00d4":{"d":"406,-708v105,0,190,33,253,100v63,67,96,153,98,259v-2,106,-35,192,-98,259v-63,67,-148,100,-253,100v-105,0,-190,-33,-253,-100v-63,-67,-96,-153,-98,-259v2,-106,35,-192,98,-259v63,-67,148,-100,253,-100xm216,-152v46,52,110,77,190,77v80,0,143,-25,190,-77v47,-52,70,-118,70,-197v0,-79,-23,-145,-70,-197v-47,-52,-110,-77,-190,-77v-80,0,-144,25,-190,77v-46,52,-70,118,-70,197v0,79,24,145,70,197xm447,-873r113,123r-79,0r-75,-73r-75,73r-79,0r113,-123r82,0","w":811},"\u00d5":{"d":"406,-708v105,0,190,33,253,100v63,67,96,153,98,259v-2,106,-35,192,-98,259v-63,67,-148,100,-253,100v-105,0,-190,-33,-253,-100v-63,-67,-96,-153,-98,-259v2,-106,35,-192,98,-259v63,-67,148,-100,253,-100xm216,-152v46,52,110,77,190,77v80,0,143,-25,190,-77v47,-52,70,-118,70,-197v0,-79,-23,-145,-70,-197v-47,-52,-110,-77,-190,-77v-80,0,-144,25,-190,77v-46,52,-70,118,-70,197v0,79,24,145,70,197xm525,-855r45,0v-3,36,-12,63,-28,82v-16,19,-34,28,-56,28v-22,0,-49,-8,-82,-24v-33,-16,-57,-24,-74,-24v-22,0,-36,14,-43,43r-44,0v3,-36,11,-63,27,-82v16,-19,35,-29,56,-29v21,0,48,7,81,23v33,16,58,24,76,24v23,0,37,-14,42,-41","w":811},"\u00d6":{"d":"406,-708v105,0,190,33,253,100v63,67,96,153,98,259v-2,106,-35,192,-98,259v-63,67,-148,100,-253,100v-105,0,-190,-33,-253,-100v-63,-67,-96,-153,-98,-259v2,-106,35,-192,98,-259v63,-67,148,-100,253,-100xm216,-152v46,52,110,77,190,77v80,0,143,-25,190,-77v47,-52,70,-118,70,-197v0,-79,-23,-145,-70,-197v-47,-52,-110,-77,-190,-77v-80,0,-144,25,-190,77v-46,52,-70,118,-70,197v0,79,24,145,70,197xm274,-750r0,-96r96,0r0,96r-96,0xm442,-750r0,-96r96,0r0,96r-96,0","w":811},"\u00d7":{"d":"506,-430r-171,171r0,2r171,171r-54,53r-170,-171r-2,0r-171,170r-53,-53r171,-170r0,-2r-170,-171r53,-53r170,171r2,0r171,-171","w":563},"\u00d8":{"d":"635,-631v79,67,120,161,122,282v-2,106,-35,192,-98,259v-63,67,-148,100,-253,100v-69,0,-132,-16,-187,-48r-48,68r-41,-29r48,-68v-79,-65,-120,-159,-123,-282v2,-106,35,-192,98,-259v63,-67,148,-100,253,-100v71,0,134,16,188,48r48,-69r41,29xm216,-546v-46,52,-70,120,-70,204v0,84,28,151,83,202r315,-449v-39,-23,-85,-34,-138,-34v-81,0,-144,25,-190,77xm406,-75v80,0,143,-25,190,-77v47,-52,70,-120,70,-204v0,-84,-27,-152,-82,-203r-315,449v40,23,86,35,137,35","w":811},"\u00d9":{"d":"575,-698r91,0r0,436v0,45,-9,86,-26,122v-17,36,-40,64,-68,85v-28,21,-59,38,-92,49v-33,11,-66,16,-101,16v-35,0,-68,-5,-101,-16v-33,-11,-64,-28,-92,-49v-28,-21,-51,-49,-68,-85v-17,-36,-26,-77,-26,-122r0,-436r91,0r0,439v0,59,19,104,58,137v39,33,85,49,138,49v53,0,99,-16,138,-49v39,-33,58,-78,58,-137r0,-439xm267,-883r99,0r76,133r-62,0","w":758},"\u00da":{"d":"575,-698r91,0r0,436v0,45,-9,86,-26,122v-17,36,-40,64,-68,85v-28,21,-59,38,-92,49v-33,11,-66,16,-101,16v-35,0,-68,-5,-101,-16v-33,-11,-64,-28,-92,-49v-28,-21,-51,-49,-68,-85v-17,-36,-26,-77,-26,-122r0,-436r91,0r0,439v0,59,19,104,58,137v39,33,85,49,138,49v53,0,99,-16,138,-49v39,-33,58,-78,58,-137r0,-439xm392,-883r99,0r-113,133r-62,0","w":758},"\u00db":{"d":"575,-698r91,0r0,436v0,45,-9,86,-26,122v-17,36,-40,64,-68,85v-28,21,-59,38,-92,49v-33,11,-66,16,-101,16v-35,0,-68,-5,-101,-16v-33,-11,-64,-28,-92,-49v-28,-21,-51,-49,-68,-85v-17,-36,-26,-77,-26,-122r0,-436r91,0r0,439v0,59,19,104,58,137v39,33,85,49,138,49v53,0,99,-16,138,-49v39,-33,58,-78,58,-137r0,-439xm420,-873r113,123r-79,0r-75,-73r-75,73r-79,0r113,-123r82,0","w":758},"\u00dc":{"d":"575,-698r91,0r0,436v0,45,-9,86,-26,122v-17,36,-40,64,-68,85v-28,21,-59,38,-92,49v-33,11,-66,16,-101,16v-35,0,-68,-5,-101,-16v-33,-11,-64,-28,-92,-49v-28,-21,-51,-49,-68,-85v-17,-36,-26,-77,-26,-122r0,-436r91,0r0,439v0,59,19,104,58,137v39,33,85,49,138,49v53,0,99,-16,138,-49v39,-33,58,-78,58,-137r0,-439xm247,-750r0,-96r96,0r0,96r-96,0xm415,-750r0,-96r96,0r0,96r-96,0","w":758},"\u00dd":{"d":"541,-698r111,0r-284,403r0,295r-91,0r0,-295r-284,-403r111,0r216,319r5,0xm345,-883r99,0r-113,133r-62,0","w":645},"\u00de":{"d":"370,-586v48,0,90,7,126,20v36,13,64,30,84,52v20,22,34,45,43,70v9,25,14,52,14,80v0,28,-5,55,-14,80v-9,25,-23,48,-43,70v-20,22,-48,39,-84,52v-36,13,-78,20,-126,20r-182,0r0,142r-91,0r0,-698r91,0r0,112r182,0xm361,-228v68,0,115,-13,143,-39v28,-26,42,-58,42,-97v0,-39,-14,-71,-42,-97v-28,-26,-75,-39,-143,-39r-173,0r0,272r173,0","w":671},"\u00df":{"d":"415,-351v35,8,68,24,97,49v34,29,51,73,51,130v0,57,-19,102,-56,134v-37,32,-81,48,-131,48v-50,0,-93,-8,-132,-23r0,-82r4,0v32,16,65,24,99,24v34,0,63,-9,88,-26v25,-17,37,-46,37,-86v0,-40,-16,-71,-50,-93v-34,-22,-78,-33,-131,-33r-21,0r0,-70r8,0v47,0,84,-12,112,-35v28,-23,43,-54,43,-90v0,-36,-12,-64,-35,-86v-23,-22,-54,-33,-93,-33v-39,0,-72,11,-97,33v-25,22,-38,61,-38,115r0,475r-91,0r0,-486v0,-70,21,-125,62,-164v41,-39,93,-58,156,-58v63,0,117,16,161,50v44,34,66,83,66,146v0,83,-36,137,-109,160r0,1","w":610},"\u00e0":{"d":"88,-482v58,-25,120,-38,186,-38v66,0,118,19,153,58v35,39,53,85,53,139r0,323r-80,0r-11,-64r-3,0v-48,49,-110,74,-185,74v-45,0,-83,-14,-115,-41v-32,-27,-48,-65,-48,-112v0,-47,19,-86,58,-115v39,-29,97,-44,172,-44r121,0r0,-8v0,-44,-11,-76,-33,-95v-22,-19,-59,-29,-112,-29v-53,0,-103,11,-150,34r-6,0r0,-82xm389,-145r0,-84r-109,0v-101,0,-151,26,-151,79v0,53,35,80,106,80v29,0,58,-8,85,-22v27,-14,50,-32,69,-53xm155,-711r99,0r76,133r-62,0","w":555},"\u00e1":{"d":"88,-482v58,-25,120,-38,186,-38v66,0,118,19,153,58v35,39,53,85,53,139r0,323r-80,0r-11,-64r-3,0v-48,49,-110,74,-185,74v-45,0,-83,-14,-115,-41v-32,-27,-48,-65,-48,-112v0,-47,19,-86,58,-115v39,-29,97,-44,172,-44r121,0r0,-8v0,-44,-11,-76,-33,-95v-22,-19,-59,-29,-112,-29v-53,0,-103,11,-150,34r-6,0r0,-82xm389,-145r0,-84r-109,0v-101,0,-151,26,-151,79v0,53,35,80,106,80v29,0,58,-8,85,-22v27,-14,50,-32,69,-53xm287,-711r99,0r-113,133r-62,0","w":555},"\u00e2":{"d":"88,-482v58,-25,120,-38,186,-38v66,0,118,19,153,58v35,39,53,85,53,139r0,323r-80,0r-11,-64r-3,0v-48,49,-110,74,-185,74v-45,0,-83,-14,-115,-41v-32,-27,-48,-65,-48,-112v0,-47,19,-86,58,-115v39,-29,97,-44,172,-44r121,0r0,-8v0,-44,-11,-76,-33,-95v-22,-19,-59,-29,-112,-29v-53,0,-103,11,-150,34r-6,0r0,-82xm389,-145r0,-84r-109,0v-101,0,-151,26,-151,79v0,53,35,80,106,80v29,0,58,-8,85,-22v27,-14,50,-32,69,-53xm314,-701r113,123r-79,0r-75,-73r-75,73r-79,0r113,-123r82,0","w":555},"\u00e3":{"d":"88,-482v58,-25,120,-38,186,-38v66,0,118,19,153,58v35,39,53,85,53,139r0,323r-80,0r-11,-64r-3,0v-48,49,-110,74,-185,74v-45,0,-83,-14,-115,-41v-32,-27,-48,-65,-48,-112v0,-47,19,-86,58,-115v39,-29,97,-44,172,-44r121,0r0,-8v0,-44,-11,-76,-33,-95v-22,-19,-59,-29,-112,-29v-53,0,-103,11,-150,34r-6,0r0,-82xm389,-145r0,-84r-109,0v-101,0,-151,26,-151,79v0,53,35,80,106,80v29,0,58,-8,85,-22v27,-14,50,-32,69,-53xm389,-683r45,0v-3,36,-12,63,-28,82v-16,19,-34,28,-56,28v-22,0,-49,-8,-82,-24v-33,-16,-57,-24,-74,-24v-22,0,-36,14,-43,43r-44,0v3,-36,11,-63,27,-82v16,-19,35,-29,56,-29v21,0,48,7,81,23v33,16,58,24,76,24v23,0,37,-14,42,-41","w":555},"\u00e4":{"d":"88,-482v58,-25,120,-38,186,-38v66,0,118,19,153,58v35,39,53,85,53,139r0,323r-80,0r-11,-64r-3,0v-48,49,-110,74,-185,74v-45,0,-83,-14,-115,-41v-32,-27,-48,-65,-48,-112v0,-47,19,-86,58,-115v39,-29,97,-44,172,-44r121,0r0,-8v0,-44,-11,-76,-33,-95v-22,-19,-59,-29,-112,-29v-53,0,-103,11,-150,34r-6,0r0,-82xm389,-145r0,-84r-109,0v-101,0,-151,26,-151,79v0,53,35,80,106,80v29,0,58,-8,85,-22v27,-14,50,-32,69,-53xm142,-578r0,-96r96,0r0,96r-96,0xm310,-578r0,-96r96,0r0,96r-96,0","w":555},"\u00e5":{"d":"88,-482v58,-25,120,-38,186,-38v66,0,118,19,153,58v35,39,53,85,53,139r0,323r-80,0r-11,-64r-3,0v-48,49,-110,74,-185,74v-45,0,-83,-14,-115,-41v-32,-27,-48,-65,-48,-112v0,-47,19,-86,58,-115v39,-29,97,-44,172,-44r121,0r0,-8v0,-44,-11,-76,-33,-95v-22,-19,-59,-29,-112,-29v-53,0,-103,11,-150,34r-6,0r0,-82xm389,-145r0,-84r-109,0v-101,0,-151,26,-151,79v0,53,35,80,106,80v29,0,58,-8,85,-22v27,-14,50,-32,69,-53xm269,-739v26,0,49,9,67,27v18,18,27,41,27,67v0,26,-9,49,-27,67v-18,18,-41,27,-67,27v-26,0,-49,-9,-67,-27v-18,-18,-27,-41,-27,-67v0,-26,9,-49,27,-67v18,-18,41,-27,67,-27xm269,-596v13,0,25,-4,35,-14v10,-10,14,-22,14,-35v0,-13,-4,-25,-14,-35v-10,-10,-22,-14,-35,-14v-13,0,-25,4,-35,14v-10,10,-14,22,-14,35v0,13,4,25,14,35v10,10,22,14,35,14","w":555},"\u00e6":{"d":"861,-255r0,29r-388,0v11,101,70,151,177,151v67,0,127,-17,178,-51r3,0r0,89v-56,31,-119,47,-189,47v-91,0,-158,-29,-203,-87v-38,58,-107,87,-206,87v-55,0,-101,-14,-139,-41v-38,-27,-57,-64,-57,-111v0,-47,20,-85,59,-114v39,-29,96,-43,171,-43r121,0r0,-11v0,-44,-10,-76,-32,-95v-22,-19,-60,-29,-113,-29v-53,0,-104,12,-152,35r-4,0r0,-83v58,-25,119,-38,183,-38v80,0,137,28,171,84v42,-56,103,-84,181,-84v78,0,137,26,178,77v41,51,61,114,61,188xm388,-169r0,-57r-109,0v-101,0,-151,25,-151,76v0,23,10,42,32,57v22,15,52,23,90,23v38,0,71,-7,98,-22v27,-15,40,-40,40,-77xm473,-299r298,0v-3,-48,-19,-84,-49,-108v-30,-24,-63,-36,-100,-36v-37,0,-70,12,-100,36v-30,24,-46,60,-49,108","w":904},"\u00e7":{"d":"285,63v11,-3,25,-4,42,-4v17,0,33,6,47,19v14,13,22,30,22,51v0,61,-37,92,-111,92v-35,0,-67,-10,-98,-31r16,-35v25,15,48,23,69,23v38,0,57,-15,57,-46v0,-10,-3,-18,-10,-23v-7,-5,-16,-8,-29,-8v-13,0,-28,4,-43,12r-29,-16r56,-90v-65,-9,-119,-36,-162,-83v-43,-47,-65,-108,-65,-185v0,-77,26,-139,78,-187v52,-48,115,-72,189,-72v60,0,118,16,173,49r0,86r-4,0v-49,-33,-103,-50,-161,-50v-58,0,-102,16,-135,49v-33,33,-49,77,-49,131v0,54,16,98,49,131v33,33,77,49,135,49v58,0,112,-17,161,-50r4,0r0,86v-54,32,-111,48,-172,49","w":537},"\u00e8":{"d":"527,-255r0,32r-386,0v5,47,23,83,52,109v29,26,73,39,133,39v60,0,115,-17,166,-50r5,0r0,88v-56,31,-121,47,-197,47v-76,0,-136,-24,-182,-70v-46,-46,-69,-109,-69,-188v0,-79,20,-144,61,-195v41,-51,100,-77,178,-77v78,0,137,26,178,77v41,51,61,114,61,188xm141,-297r295,0v-3,-48,-18,-84,-48,-109v-30,-25,-63,-37,-100,-37v-37,0,-70,12,-99,37v-29,25,-45,61,-48,109xm175,-711r99,0r76,133r-62,0","w":570},"\u00e9":{"d":"527,-255r0,32r-386,0v5,47,23,83,52,109v29,26,73,39,133,39v60,0,115,-17,166,-50r5,0r0,88v-56,31,-121,47,-197,47v-76,0,-136,-24,-182,-70v-46,-46,-69,-109,-69,-188v0,-79,20,-144,61,-195v41,-51,100,-77,178,-77v78,0,137,26,178,77v41,51,61,114,61,188xm141,-297r295,0v-3,-48,-18,-84,-48,-109v-30,-25,-63,-37,-100,-37v-37,0,-70,12,-99,37v-29,25,-45,61,-48,109xm301,-711r99,0r-113,133r-62,0","w":570},"\u00ea":{"d":"527,-255r0,32r-386,0v5,47,23,83,52,109v29,26,73,39,133,39v60,0,115,-17,166,-50r5,0r0,88v-56,31,-121,47,-197,47v-76,0,-136,-24,-182,-70v-46,-46,-69,-109,-69,-188v0,-79,20,-144,61,-195v41,-51,100,-77,178,-77v78,0,137,26,178,77v41,51,61,114,61,188xm141,-297r295,0v-3,-48,-18,-84,-48,-109v-30,-25,-63,-37,-100,-37v-37,0,-70,12,-99,37v-29,25,-45,61,-48,109xm328,-701r113,123r-79,0r-75,-73r-75,73r-79,0r113,-123r82,0","w":570},"\u00eb":{"d":"527,-255r0,32r-386,0v5,47,23,83,52,109v29,26,73,39,133,39v60,0,115,-17,166,-50r5,0r0,88v-56,31,-121,47,-197,47v-76,0,-136,-24,-182,-70v-46,-46,-69,-109,-69,-188v0,-79,20,-144,61,-195v41,-51,100,-77,178,-77v78,0,137,26,178,77v41,51,61,114,61,188xm141,-297r295,0v-3,-48,-18,-84,-48,-109v-30,-25,-63,-37,-100,-37v-37,0,-70,12,-99,37v-29,25,-45,61,-48,109xm155,-578r0,-96r96,0r0,96r-96,0xm323,-578r0,-96r96,0r0,96r-96,0","w":570},"\u00ec":{"d":"83,0r0,-510r91,0r0,510r-91,0xm8,-711r99,0r76,133r-62,0","w":257},"\u00ed":{"d":"83,0r0,-510r91,0r0,510r-91,0xm150,-711r99,0r-113,133r-62,0","w":257},"\u00ee":{"d":"83,0r0,-510r91,0r0,510r-91,0xm169,-701r113,123r-79,0r-75,-73r-75,73r-79,0r113,-123r82,0","w":257},"\u00ef":{"d":"83,0r0,-510r91,0r0,510r-91,0xm-4,-578r0,-96r96,0r0,96r-96,0xm164,-578r0,-96r96,0r0,96r-96,0","w":257},"\u00f0":{"d":"362,-637v123,111,184,232,184,363v0,83,-20,151,-61,204v-41,53,-101,80,-181,80v-80,0,-142,-24,-187,-71v-45,-47,-68,-108,-68,-182v0,-74,21,-137,63,-187v42,-50,99,-75,171,-75v39,0,76,9,109,26r3,0v-26,-39,-61,-77,-106,-115r-103,60r-25,-43r85,-50v-35,-24,-69,-45,-102,-62v32,-46,48,-69,49,-69v49,28,92,57,129,87r86,-52r26,43xm297,-70v43,0,81,-16,113,-46v32,-30,48,-76,48,-136v0,-60,-16,-104,-48,-134v-32,-30,-70,-45,-113,-45v-43,0,-80,15,-112,45v-32,30,-48,74,-48,134v0,60,16,106,48,136v32,30,69,46,112,46","w":599},"\u00f1":{"d":"356,-520v55,0,99,19,131,56v32,37,48,84,48,140r0,324r-91,0r0,-314v0,-81,-37,-122,-110,-122v-58,0,-113,32,-164,96r0,340r-91,0r0,-510r80,0r11,64r0,15r2,0v54,-59,115,-89,184,-89xm429,-683r45,0v-3,36,-12,63,-28,82v-16,19,-34,28,-56,28v-22,0,-49,-8,-82,-24v-33,-16,-57,-24,-74,-24v-22,0,-36,14,-43,43r-44,0v3,-36,11,-63,27,-82v16,-19,35,-29,56,-29v21,0,48,7,81,23v33,16,58,24,76,24v23,0,37,-14,42,-41","w":609},"\u00f2":{"d":"118,-447v47,-49,109,-73,186,-73v77,0,139,24,186,73v47,49,70,113,70,192v0,79,-23,143,-70,192v-47,49,-109,73,-186,73v-77,0,-139,-24,-186,-73v-47,-49,-70,-113,-70,-192v0,-79,23,-143,70,-192xm304,-73v44,0,83,-15,116,-45v33,-30,49,-77,49,-138v0,-61,-16,-106,-49,-136v-33,-30,-72,-45,-116,-45v-44,0,-83,15,-116,45v-33,30,-49,75,-49,136v0,61,16,108,49,138v33,30,72,45,116,45xm184,-711r99,0r76,133r-62,0","w":608},"\u00f3":{"d":"118,-447v47,-49,109,-73,186,-73v77,0,139,24,186,73v47,49,70,113,70,192v0,79,-23,143,-70,192v-47,49,-109,73,-186,73v-77,0,-139,-24,-186,-73v-47,-49,-70,-113,-70,-192v0,-79,23,-143,70,-192xm304,-73v44,0,83,-15,116,-45v33,-30,49,-77,49,-138v0,-61,-16,-106,-49,-136v-33,-30,-72,-45,-116,-45v-44,0,-83,15,-116,45v-33,30,-49,75,-49,136v0,61,16,108,49,138v33,30,72,45,116,45xm325,-711r99,0r-113,133r-62,0","w":608},"\u00f4":{"d":"118,-447v47,-49,109,-73,186,-73v77,0,139,24,186,73v47,49,70,113,70,192v0,79,-23,143,-70,192v-47,49,-109,73,-186,73v-77,0,-139,-24,-186,-73v-47,-49,-70,-113,-70,-192v0,-79,23,-143,70,-192xm304,-73v44,0,83,-15,116,-45v33,-30,49,-77,49,-138v0,-61,-16,-106,-49,-136v-33,-30,-72,-45,-116,-45v-44,0,-83,15,-116,45v-33,30,-49,75,-49,136v0,61,16,108,49,138v33,30,72,45,116,45xm345,-701r113,123r-79,0r-75,-73r-75,73r-79,0r113,-123r82,0","w":608},"\u00f5":{"d":"118,-447v47,-49,109,-73,186,-73v77,0,139,24,186,73v47,49,70,113,70,192v0,79,-23,143,-70,192v-47,49,-109,73,-186,73v-77,0,-139,-24,-186,-73v-47,-49,-70,-113,-70,-192v0,-79,23,-143,70,-192xm304,-73v44,0,83,-15,116,-45v33,-30,49,-77,49,-138v0,-61,-16,-106,-49,-136v-33,-30,-72,-45,-116,-45v-44,0,-83,15,-116,45v-33,30,-49,75,-49,136v0,61,16,108,49,138v33,30,72,45,116,45xm424,-683r45,0v-3,36,-11,63,-27,82v-16,19,-34,28,-56,28v-22,0,-49,-8,-82,-24v-33,-16,-58,-24,-75,-24v-22,0,-36,14,-43,43r-44,0v3,-36,12,-63,27,-82v15,-19,34,-29,56,-29v22,0,49,7,82,23v33,16,58,24,75,24v23,0,37,-14,42,-41","w":608},"\u00f6":{"d":"118,-447v47,-49,109,-73,186,-73v77,0,139,24,186,73v47,49,70,113,70,192v0,79,-23,143,-70,192v-47,49,-109,73,-186,73v-77,0,-139,-24,-186,-73v-47,-49,-70,-113,-70,-192v0,-79,23,-143,70,-192xm304,-73v44,0,83,-15,116,-45v33,-30,49,-77,49,-138v0,-61,-16,-106,-49,-136v-33,-30,-72,-45,-116,-45v-44,0,-83,15,-116,45v-33,30,-49,75,-49,136v0,61,16,108,49,138v33,30,72,45,116,45xm172,-578r0,-96r96,0r0,96r-96,0xm340,-578r0,-96r96,0r0,96r-96,0","w":608},"\u00f7":{"d":"78,-372r556,0r0,81r-556,0r0,-81xm310,-100r0,-92r92,0r0,92r-92,0xm402,-562r0,92r-92,0r0,-92r92,0","w":712},"\u00f8":{"d":"477,-459v55,50,83,116,83,199v0,83,-23,148,-70,197v-47,49,-109,73,-186,73v-50,0,-94,-11,-133,-33r-37,53r-41,-29r37,-53v-55,-49,-82,-115,-82,-198v0,-83,23,-148,70,-197v47,-49,109,-73,186,-73v51,0,95,11,132,32r37,-53r41,29xm188,-392v-33,30,-49,74,-49,132v0,58,14,102,43,134r204,-291v-25,-13,-52,-20,-82,-20v-44,0,-83,15,-116,45xm304,-73v44,0,83,-15,116,-45v33,-30,49,-74,49,-132v0,-58,-15,-103,-44,-136r-204,292v26,14,54,21,83,21","w":608},"\u00f9":{"d":"254,10v-55,0,-99,-19,-131,-56v-32,-37,-48,-84,-48,-140r0,-324r91,0r0,314v0,81,37,122,110,122v58,0,113,-32,164,-96r0,-340r91,0r0,510r-80,0r-11,-64r0,-15r-2,0v-54,59,-115,89,-184,89xm183,-711r99,0r76,133r-62,0","w":610},"\u00fa":{"d":"254,10v-55,0,-99,-19,-131,-56v-32,-37,-48,-84,-48,-140r0,-324r91,0r0,314v0,81,37,122,110,122v58,0,113,-32,164,-96r0,-340r91,0r0,510r-80,0r-11,-64r0,-15r-2,0v-54,59,-115,89,-184,89xm324,-711r99,0r-113,133r-62,0","w":610},"\u00fb":{"d":"254,10v-55,0,-99,-19,-131,-56v-32,-37,-48,-84,-48,-140r0,-324r91,0r0,314v0,81,37,122,110,122v58,0,113,-32,164,-96r0,-340r91,0r0,510r-80,0r-11,-64r0,-15r-2,0v-54,59,-115,89,-184,89xm344,-701r113,123r-79,0r-75,-73r-75,73r-79,0r113,-123r82,0","w":610},"\u00fc":{"d":"254,10v-55,0,-99,-19,-131,-56v-32,-37,-48,-84,-48,-140r0,-324r91,0r0,314v0,81,37,122,110,122v58,0,113,-32,164,-96r0,-340r91,0r0,510r-80,0r-11,-64r0,-15r-2,0v-54,59,-115,89,-184,89xm171,-578r0,-96r96,0r0,96r-96,0xm339,-578r0,-96r96,0r0,96r-96,0","w":610},"\u00fd":{"d":"529,-510r-307,740r-92,0r86,-222r-211,-518r98,0r160,403r4,0r164,-403r98,0xm287,-711r99,0r-113,133r-62,0","w":533},"\u00fe":{"d":"341,-520v65,0,121,24,169,72v48,48,73,112,73,193v0,81,-25,145,-73,193v-48,48,-104,72,-169,72v-65,0,-121,-25,-168,-74r-3,0r0,294r-91,0r0,-960r91,0r0,284r3,0v47,-49,103,-74,168,-74xm328,-75v49,0,89,-16,119,-47v30,-31,45,-76,45,-133v0,-57,-15,-102,-45,-133v-30,-31,-70,-47,-119,-47v-60,0,-113,25,-158,75r0,210v45,50,98,75,158,75","w":631},"\u00ff":{"d":"529,-510r-307,740r-92,0r86,-222r-211,-518r98,0r160,403r4,0r164,-403r98,0xm133,-578r0,-96r96,0r0,96r-96,0xm301,-578r0,-96r96,0r0,96r-96,0","w":533},"\u2013":{"d":"610,-240r-536,0r0,-81r536,0r0,81","w":684},"\u2014":{"d":"817,-240r-743,0r0,-81r743,0r0,81","w":891},"\u2018":{"d":"183,-465r-112,0r0,-112v0,-77,37,-132,112,-163r0,65v-37,20,-55,53,-55,98r55,0r0,112","w":255},"\u2019":{"d":"73,-740r112,0r0,112v0,77,-37,132,-112,163r0,-65v37,-20,55,-53,55,-98r-55,0r0,-112","w":238},"\u201c":{"d":"365,-465r-112,0r0,-112v0,-77,37,-132,112,-163r0,65v-37,20,-55,53,-55,98r55,0r0,112xm183,-465r-112,0r0,-112v0,-77,37,-132,112,-163r0,65v-37,20,-55,53,-55,98r55,0r0,112","w":437},"\u201d":{"d":"73,-740r112,0r0,112v0,77,-37,132,-112,163r0,-65v37,-20,55,-53,55,-98r-55,0r0,-112xm255,-740r112,0r0,112v0,77,-37,132,-112,163r0,-65v37,-20,55,-53,55,-98r-55,0r0,-112","w":420},"\u2026":{"d":"428,0r0,-112r112,0r0,112r-112,0xm782,-112r112,0r0,112r-112,0r0,-112xm74,0r0,-112r112,0r0,112r-112,0","w":968},"\u2122":{"d":"62,-640r0,-58r312,0r0,58r-125,0r0,318r-63,0r0,-318r-124,0xm775,-698r87,0r0,376r-64,0r0,-286r-1,0r-120,286r-57,0r-121,-286r-1,0r0,286r-64,0r0,-376r87,0r126,303r2,0","w":953}}});
