// #### Generated By: http://www.cufonfonts.com ####
/*!
 * The following copyright notice may not be removed under any circumstances.
 * 
 * Copyright:
 * © 1999 Ray Larabie. This font is freeware. Read attached text file for details.
 * Info & updates visit www.larabiefonts.com. Donations gratefully accepted at
 * www.larabiefonts.com/donation.html. Also visit my commercial type foundry at
 * www.typodermic.com. This font was updated in 2004.
 * 
 * Description:
 * If you would like to help support Larabie Fonts please consider making a
 * donation. It costs a lot to keep the site running and free from irritating
 * pop-up or banner ads. Any amount is appreciated and goes right back into making
 * maintaining the site and developing more free fonts. Visit www.larabiefonts.com
 * for details.
 * 
 * Manufacturer:
 * Ray Larabie
 * 
 * Designer:
 * Ray Larabie
 * 
 * Vendor URL:
 * http://www.larabiefonts.com
*/
Cufon.registerFont({"w":477,"face":{"font-family":"Deftone Stylus","font-weight":400,"font-stretch":"normal","units-per-em":"1000","panose-1":"0 0 4 0 0 0 0 0 0 0","ascent":"800","descent":"-200","bbox":"-91.1283 -831 1352 248.174","underline-thickness":"20","underline-position":"-123","unicode-range":"U+0020-U+0131"},"glyphs":{" ":{"w":202},"!":{"d":"300,-74v-2,48,-61,71,-109,74v-29,2,-62,-13,-60,-39v3,-48,60,-71,110,-73v26,0,60,13,59,38xm363,-557v8,-21,-19,-35,-45,-35v-17,0,-25,-9,-25,-28v-1,-49,70,-29,111,-29v102,0,141,25,111,92r-184,414r-125,-60","w":290},"\"":{"d":"390,-612v-3,52,-74,111,-90,150v-9,20,-22,30,-39,30v-19,1,-22,-16,-14,-30v13,-25,11,-95,23,-121v17,-37,44,-56,81,-56v26,0,39,9,39,27xm511,-612v-2,52,-73,111,-89,150v-8,20,-23,30,-40,30v-18,1,-21,-16,-14,-30v14,-26,11,-95,24,-121v18,-37,43,-56,80,-56v26,0,39,9,39,27","w":253},"#":{"d":"375,-395r31,-70r-45,0r-31,70r45,0xm478,-326r-70,0r-31,69r-63,0r30,-69r-45,0r-31,69r-59,0r31,-69r-60,0r31,-69r59,0r31,-70r-59,0r31,-69r59,0r29,-64r59,0r-28,64r45,0r29,-64r63,0r-28,64r70,0r-31,69r-70,0r-31,70r70,0","w":380},"$":{"d":"422,-512v-43,-7,-92,69,-32,88v34,11,92,20,87,62v-12,96,-89,161,-176,164r-26,60r-72,0r26,-59v-91,11,-178,-49,-153,-133r59,-36v-19,71,53,110,120,110v70,0,116,-82,51,-113v-64,-30,-75,-24,-87,-73v10,-79,82,-129,175,-125r26,-58r71,0r-25,58r110,0r-69,55r-85,0","w":349},"%":{"d":"383,-323v25,-7,30,-49,42,-72v-5,-14,-21,-5,-25,7v-7,19,-18,36,-23,57v0,5,2,8,6,8xm325,-534v25,-7,31,-48,42,-72v-4,-13,-21,-3,-25,8v-6,19,-19,35,-23,57v0,5,2,7,6,7xm485,-405v-4,50,-50,115,-88,110v-32,-4,-85,10,-82,-24v4,-48,51,-121,94,-115v33,5,79,-8,76,29xm568,-644r-345,349r-46,0r346,-349r45,0xm427,-616v-4,50,-50,115,-88,110v-32,-4,-85,10,-82,-24v4,-46,51,-124,94,-114v33,1,79,-8,76,28","w":333},"&":{"d":"313,-59v1,-17,4,-31,9,-41r93,-208v-71,21,-115,49,-130,85v-20,49,-48,91,-60,147v0,11,4,16,13,16xm476,-88v42,1,126,-64,137,-97r27,36v-24,69,-157,149,-247,149v-14,0,-28,-5,-43,-14v-41,20,-84,13,-138,14v-130,2,-134,-73,-96,-169v35,-88,109,-162,207,-185v-69,-13,-92,-69,-65,-132v29,-70,46,-119,134,-146v40,-12,81,-20,122,-20v70,0,153,21,138,90r-148,54v6,-30,62,-81,-10,-81v-69,0,-76,75,-100,121v-18,35,14,102,44,107r31,-69r146,0r-31,69r40,0r-22,48r-40,0r-96,219v0,4,3,6,10,6","w":531},"'":{"d":"408,-639v33,-2,72,20,55,56v-27,57,-76,96,-151,115r-8,-20v31,-5,52,-18,61,-39v-34,7,-69,-5,-67,-36v3,-50,60,-74,110,-76","w":229,"k":{"t":5,"s":165}},"(":{"d":"217,-11v-62,18,-147,22,-147,-49v0,-13,3,-26,9,-40r200,-449v28,-66,124,-124,217,-89r-32,72v-19,-4,-34,2,-40,17r-200,449v-6,16,9,21,25,17","w":237},")":{"d":"310,-638v61,-16,148,-21,147,49v0,13,-3,27,-9,40r-200,449v-27,68,-125,126,-217,89r32,-72v19,4,33,-3,40,-17r201,-456v1,-11,-15,-13,-26,-10","w":237},"*":{"d":"400,-351v49,-30,116,-129,193,-131v21,0,31,10,31,30v-2,51,-87,92,-152,104v-36,7,-62,16,-77,25v32,24,128,26,128,86v0,32,-43,69,-75,69v-60,0,-58,-89,-73,-126v-6,19,-6,41,-6,66v1,66,-45,133,-96,133v-39,0,-34,-39,-22,-69v17,-41,80,-101,96,-132v-47,29,-113,126,-189,128v-21,0,-31,-10,-31,-30v0,-50,89,-94,150,-104v33,-6,57,-14,72,-21v-28,-28,-131,-29,-131,-90v0,-32,44,-69,76,-69v63,0,55,96,77,133v7,-18,10,-44,9,-71v-1,-70,44,-138,97,-138v39,0,34,38,22,68v-17,40,-83,107,-99,139","w":449},"+":{"d":"347,-313r-70,0r-33,73r-48,0r32,-73r-69,0r22,-48r69,0r30,-68r48,0r-30,68r71,0","w":229},",":{"d":"173,-112v34,-1,71,20,55,56v-26,57,-75,95,-150,114r-9,-19v32,-6,53,-19,62,-39v-35,7,-71,-6,-68,-37v4,-48,60,-73,110,-75","w":229},"-":{"d":"351,-313r-189,0r22,-48r188,0","w":229},".":{"d":"232,-74v-3,48,-60,72,-109,74v-28,1,-61,-12,-59,-39v3,-47,60,-71,109,-73v27,-1,60,12,59,38","w":229},"\/":{"d":"590,-567r-443,486r-86,0r443,-486r86,0","w":366},"0":{"d":"250,-85r90,-200v6,-14,4,-26,-13,-26v-17,0,-29,9,-37,26r-89,200v-6,13,-7,33,11,32v16,0,29,-11,38,-32xm408,-145v-42,97,-98,145,-163,145v-70,0,-175,24,-172,-55v2,-54,43,-129,63,-178v26,-62,93,-138,168,-138v74,0,166,-18,161,65v-3,57,-37,114,-57,161","w":371},"1":{"d":"113,-371v67,0,170,-18,173,44v0,13,-4,29,-13,49r-124,278r-125,0r123,-278v8,-24,-7,-36,-37,-36v-16,0,-24,-9,-24,-27v0,-20,9,-30,27,-30","w":172},"2":{"d":"386,-371v53,-3,87,38,65,90v-28,64,-115,89,-187,113v-64,21,-74,56,-95,108r166,0r-26,60r-292,0v38,-74,54,-173,134,-203v59,-22,153,-23,163,-91v-3,-39,-75,-16,-112,-22r-20,-55r204,0","w":331,"k":{"3":23}},"3":{"d":"373,-121v0,74,-80,121,-151,121r-205,0r69,-55r85,0v28,1,67,-35,65,-64v4,-28,-59,-17,-54,-46v-2,-28,38,-66,66,-64v29,1,67,-34,65,-63v-2,-42,-73,-18,-111,-24r-20,-55r204,0v39,-1,76,19,73,56v-6,75,-61,102,-139,129v35,14,53,36,53,65","w":331},"4":{"d":"186,-371v50,6,111,37,87,93r-37,84r57,0v33,-75,66,-116,176,-112r-49,112r53,0r-22,49r-53,0r-65,145r-126,0r64,-145r-185,0","w":412,"k":{"9":33,"3":52}},"5":{"d":"250,-229v70,0,141,-5,143,53v-24,113,-81,176,-222,176r-154,0r26,-60r126,0v48,1,84,-28,87,-76v4,-50,-116,-45,-166,-29r92,-206r308,0r-69,55r-132,0","w":343},"6":{"d":"199,-60v39,0,83,-45,86,-87v3,-30,-44,-33,-76,-26v-10,25,-33,66,-35,92v0,14,8,21,25,21xm236,-233v67,-26,167,-11,164,63v-3,69,-57,126,-99,149v-38,20,-121,21,-189,21v-64,0,-75,-48,-51,-95v55,-107,75,-276,225,-276r173,0r-69,55v-64,-5,-124,5,-139,48","w":349,"k":{"1":-19}},"7":{"d":"451,-278r-286,278r-141,0r285,-278v17,-14,16,-36,-15,-36r-103,0v-16,0,-24,-9,-24,-27v0,-20,9,-30,27,-30r205,0v92,-2,100,46,52,93","w":336},"8":{"d":"199,-60v35,0,87,-49,87,-85v0,-19,-12,-28,-37,-28v-42,0,-77,37,-77,82v0,21,9,31,27,31xm280,-242v32,0,58,-14,58,-45v0,-17,-10,-25,-31,-25v-27,-1,-53,18,-53,48v0,15,9,22,26,22xm446,-307v0,49,-27,78,-67,101v47,69,-17,133,-61,170v-54,44,-112,35,-197,36v-41,0,-61,-22,-61,-65v0,-71,37,-101,97,-139v-7,-9,-10,-19,-10,-32v23,-106,97,-135,214,-135v46,0,85,21,85,64","w":349},"9":{"d":"318,-311v-39,0,-83,47,-86,88v-3,30,44,33,76,26v10,-25,34,-66,35,-93v0,-14,-8,-21,-25,-21xm282,-138v-67,28,-168,12,-165,-62v3,-69,57,-127,99,-149v39,-21,120,-21,189,-21v64,0,75,48,51,95v-55,107,-75,276,-225,276r-165,0r70,-55v63,3,114,-8,130,-48","w":359},":":{"d":"232,-74v-3,48,-60,72,-109,74v-28,1,-61,-12,-59,-39v3,-47,60,-71,109,-73v27,-1,60,12,59,38xm305,-236v-3,47,-60,72,-110,74v-29,1,-60,-14,-59,-39v3,-47,60,-71,109,-73v27,-1,62,12,60,38","w":229},";":{"d":"173,-112v34,-1,71,20,55,56v-26,57,-75,95,-150,114r-9,-19v32,-6,53,-19,62,-39v-35,7,-71,-6,-68,-37v4,-48,60,-73,110,-75xm305,-236v-3,47,-60,72,-110,74v-29,1,-60,-14,-59,-39v3,-47,60,-71,109,-73v27,-1,62,12,60,38","w":229},"=":{"d":"315,-232r-189,0r22,-48r188,0xm387,-394r-189,0r22,-48r188,0","w":229},"?":{"d":"290,-74v-2,48,-61,72,-109,74v-28,1,-61,-12,-59,-39v3,-47,59,-71,109,-73v27,-1,60,12,59,38xm509,-651v89,4,208,17,178,104v-38,112,-131,178,-264,235v-24,10,-38,26,-44,39r-58,130r-125,-60v20,-42,34,-98,70,-122v48,-32,103,-43,164,-85v79,-54,87,-69,112,-146v-13,-71,-142,-2,-186,-3v-27,0,-53,-13,-77,-38r24,-53v25,18,48,27,69,27v16,1,100,-29,137,-28","w":484},"@":{"d":"485,-253r67,-152v-4,-16,-28,-9,-33,5v-21,56,-52,104,-69,165v0,7,3,10,8,10v9,0,18,-9,27,-28xm684,-567v65,-3,96,69,66,127v-43,83,-56,174,-136,226v-34,22,-65,34,-94,34v-15,0,-24,-8,-25,-23v-34,40,-137,29,-130,-26v10,-82,79,-231,180,-229v23,0,40,8,52,24r6,-15r65,0r-83,191v0,6,4,9,11,9v40,-1,76,-112,97,-156v24,-50,27,-117,-39,-117r-184,0v-11,0,-22,11,-31,32r-132,295v-30,55,27,67,94,61r8,51r-169,0v-66,1,-58,-60,-36,-109r110,-248v38,-85,97,-127,176,-127r194,0","w":680},"A":{"d":"227,-70v66,-14,121,-67,142,-115r131,-293v17,-39,8,-110,-36,-110v-15,0,-28,10,-37,31r-211,478v0,6,4,9,11,9xm485,-88v44,1,125,-62,137,-97r27,36v-24,66,-170,149,-263,149v-46,0,-64,-32,-56,-78v-53,52,-119,78,-196,78v-76,0,-78,-67,-52,-125r178,-399v30,-74,120,-128,220,-129v58,0,97,16,116,49r20,-45r105,0r-246,554v0,5,3,7,10,7"},"B":{"d":"248,-70v94,-26,147,-92,166,-184v0,-31,-22,-57,-67,-77r-110,252v0,6,4,9,11,9xm363,-367v131,-51,148,-78,186,-173v11,-29,0,-53,-36,-53v-33,0,-57,18,-72,53xm450,-620v60,-54,291,-47,249,68v-34,94,-110,176,-213,198v67,17,84,76,61,142v-45,130,-170,211,-344,212r-155,0r248,-557v7,-19,-17,-35,-32,-35r-173,0v-16,0,-24,-9,-24,-28v0,-19,9,-29,27,-29r243,0v61,0,99,10,113,29","w":472},"C":{"d":"535,-150v-21,65,-170,151,-256,150r-76,0v-130,2,-138,-75,-96,-169r147,-331v43,-97,106,-146,188,-146v79,0,213,-29,184,76r-149,54v4,-25,54,-70,-4,-71v-22,0,-36,6,-41,18r-208,466v-12,29,-16,42,24,43v102,5,224,-56,260,-125","w":362},"D":{"d":"248,-70v65,-14,121,-68,142,-115r159,-355v11,-29,0,-53,-36,-53v-33,0,-57,18,-72,53r-204,461v0,6,4,9,11,9xm450,-620v60,-54,299,-44,249,68r-173,387v-42,102,-176,165,-323,165r-155,0r248,-557v7,-19,-17,-35,-32,-35r-173,0v-16,0,-24,-9,-24,-28v0,-19,9,-29,27,-29r243,0v61,0,99,10,113,29","w":472},"E":{"d":"256,-59v98,1,237,-58,260,-126v9,12,19,23,27,36v-20,64,-170,150,-255,149r-76,0v-130,2,-134,-74,-96,-169v35,-88,108,-162,207,-185v-38,-8,-77,-39,-77,-83v0,-19,28,-93,46,-125v-11,-20,-21,-30,-28,-30r-173,0v-16,0,-24,-9,-24,-28v0,-19,9,-29,27,-29r243,0v23,0,41,5,54,16v76,-30,271,-43,243,63r-149,54r25,-58v0,-10,-9,-15,-27,-15v-56,2,-65,81,-89,121v-16,47,12,67,63,101r-16,36v-84,27,-137,62,-156,108v-21,49,-48,94,-62,148v0,11,11,16,33,16","w":364},"F":{"d":"87,-87r79,-178v-54,12,-91,125,-117,184v3,18,31,9,38,-6xm296,-557v7,-19,-17,-35,-32,-35r-173,0v-16,0,-24,-9,-24,-28v0,-19,9,-29,27,-29r599,0v-44,48,-63,67,-84,117r-63,0v11,-26,25,-51,34,-60r-122,0v-23,84,-67,154,-97,231r148,0r-22,48r-148,0r-91,205v-27,62,-91,107,-176,108v-52,0,-129,-26,-103,-81r44,-98v39,-87,104,-147,196,-182","w":229},"G":{"d":"275,-17v-18,0,-82,78,-79,98v2,18,34,12,37,-4xm356,-183r73,-164r-77,-42r-81,181v-7,16,-14,43,5,43v20,0,47,-6,80,-18xm478,-92v40,1,120,-62,130,-93v9,12,19,23,27,36v-23,62,-143,131,-220,144v-24,58,-47,108,-101,141v-63,38,-191,43,-197,-39v19,-95,104,-194,202,-197r7,-15v-21,6,-47,9,-76,9v-130,2,-137,-74,-96,-168r127,-290v1,-13,-20,-29,-33,-28r-173,0v-17,0,-25,-9,-25,-28v0,-19,9,-29,28,-29v104,3,233,-8,321,8v53,-10,121,-3,182,-5v55,-1,73,30,60,76r-148,54v7,-20,18,-36,24,-57v-3,-21,-84,-17,-85,4r-60,135r188,104r-98,225v0,9,5,13,16,13","w":471},"H":{"d":"506,-88v44,1,126,-62,137,-97r27,36v-24,66,-170,149,-263,149v-43,0,-82,-40,-62,-85r102,-228r-108,0r-139,313r-152,0r248,-557v7,-19,-17,-35,-32,-35r-173,0v-16,0,-24,-9,-24,-28v0,-19,9,-29,27,-29r243,0v101,2,141,25,111,92r-87,196r108,0r128,-288r145,0r-246,554v0,5,3,7,10,7","w":495},"I":{"d":"304,-557v9,-17,-16,-35,-31,-35r-173,0v-17,0,-25,-9,-25,-28v0,-19,9,-29,27,-29r244,0v102,1,140,26,110,92r-247,557r-152,0","w":229},"J":{"d":"89,75r101,-226v-31,7,-92,56,-104,85r-64,150v3,9,69,10,67,-9xm370,-557v9,-17,-16,-35,-31,-35r-173,0v-17,0,-25,-9,-25,-28v0,-19,9,-29,27,-29r244,0v101,2,141,25,111,92r-272,611v-27,62,-92,108,-176,108v-54,0,-159,-25,-133,-81v46,-99,66,-190,158,-256v40,-29,84,-54,133,-73","w":303},"K":{"d":"575,-150v-23,68,-172,152,-264,150v-51,-1,-76,-46,-53,-98r84,-188v10,-20,-10,-28,-33,-24r-137,310r-153,0r250,-564v1,-13,-21,-29,-33,-28r-173,0v-17,0,-25,-9,-25,-28v0,-19,9,-29,27,-29r243,0v102,1,141,25,111,92r-79,178v25,4,44,-4,53,-22v49,-98,69,-240,207,-248r116,0v11,0,16,3,16,10v0,22,-41,54,-74,47v-51,0,-49,17,-71,66r-56,125v-11,23,-38,42,-83,56v27,21,42,32,32,59v-24,61,-56,114,-76,179v0,10,5,15,16,15v42,1,116,-62,128,-93","w":388},"L":{"d":"79,10v32,-3,33,-47,47,-70v-26,17,-51,23,-61,60v0,7,5,10,14,10xm492,-540v42,20,72,16,84,-20v0,-10,-5,-15,-15,-15v-22,0,-45,12,-69,35xm651,-593v0,82,-101,148,-184,109r-153,343v85,4,118,86,205,86v39,0,81,-24,128,-72r39,10v-81,76,-108,110,-227,119v-49,4,-137,-65,-181,-62v-23,79,-95,136,-194,138v-61,1,-121,-34,-92,-95v29,-63,89,-122,171,-125r166,-371v6,-11,13,-20,20,-27v-61,-41,-113,-61,-155,-61v-19,-4,-104,26,-116,27v-10,0,-15,-7,-15,-21v0,-13,10,-24,29,-31v107,-38,214,-19,314,33v38,-35,91,-53,160,-53v57,0,85,18,85,53","w":525},"M":{"d":"765,-88v45,1,125,-62,138,-97r27,36v-24,67,-171,149,-264,149v-42,0,-81,-40,-61,-85r210,-472v8,-14,8,-31,-11,-31v-47,-1,-122,74,-138,110r-213,478r-145,0r247,-557v7,-14,9,-31,-9,-31v-44,-1,-117,74,-133,110r-213,478r-152,0r248,-557v7,-19,-17,-35,-32,-35r-173,0v-16,0,-24,-9,-24,-28v0,-19,9,-29,27,-29r243,0v66,0,105,12,117,35v47,-27,94,-40,139,-40v43,0,119,10,120,40v52,-63,296,-53,247,57r-204,462v0,5,3,7,9,7","w":750},"N":{"d":"506,-88v44,1,126,-62,137,-97r27,36v-24,67,-170,149,-263,149v-43,0,-82,-40,-62,-85r210,-472v7,-13,9,-31,-9,-31v-44,-1,-117,74,-133,110r-213,478r-152,0r248,-557v7,-19,-17,-35,-32,-35r-173,0v-16,0,-24,-9,-24,-28v0,-19,9,-29,27,-29r243,0v66,0,105,12,117,35v47,-27,94,-40,139,-40v57,0,135,34,108,97r-205,462v0,5,3,7,10,7","w":495},"O":{"d":"350,-142r150,-336v17,-39,8,-110,-36,-110v-15,0,-28,10,-37,31r-185,415v-12,29,3,52,39,52v31,0,54,-17,69,-52xm617,-564v16,-4,16,-47,-2,-46v-14,0,-21,7,-21,20v-1,12,11,26,23,26xm781,-583v13,0,32,17,21,31v-23,33,-74,54,-151,62r-163,365v-37,83,-122,125,-254,125v-133,0,-191,-37,-152,-125r178,-399v38,-94,171,-153,299,-115v37,-32,135,-37,132,27v0,17,-6,35,-18,55v45,16,68,-7,108,-26"},"P":{"d":"430,-273r119,-267v11,-29,0,-53,-36,-53v-33,0,-57,18,-72,53r-164,368v87,-33,138,-67,153,-101xm450,-620v60,-54,299,-44,249,68r-110,246v-48,110,-169,170,-328,170r-61,136r-152,0r248,-557v6,-44,-59,-35,-105,-35v-16,0,-24,-9,-24,-28v0,-19,9,-29,27,-29v82,3,227,-12,256,29","w":472},"Q":{"d":"350,-142r150,-336v17,-39,8,-110,-36,-110v-15,0,-28,10,-37,31r-185,415v-12,29,3,52,39,52v31,0,54,-17,69,-52xm617,-564v16,-4,16,-47,-2,-46v-14,0,-21,7,-21,20v-1,12,11,26,23,26xm802,-552v-33,34,-83,55,-151,62r-163,365v-31,68,-92,108,-185,120r-61,139r-97,-57r35,-80v-95,-11,-130,-50,-98,-122r178,-399v38,-94,171,-153,299,-115v36,-32,132,-37,132,27v0,17,-6,35,-18,55v42,12,52,1,99,-23"},"R":{"d":"363,-367v131,-51,148,-78,186,-173v11,-29,0,-53,-36,-53v-33,0,-57,18,-72,53xm516,-92v40,1,114,-62,125,-93r27,35v-24,69,-172,150,-263,150v-47,0,-73,-53,-54,-98v22,-51,63,-95,63,-156v0,-31,-22,-57,-67,-77r-147,331r-152,0r248,-557v6,-44,-59,-35,-105,-35v-16,0,-24,-9,-24,-28v0,-19,9,-29,27,-29v82,3,227,-12,256,29v60,-54,291,-47,249,68v-34,94,-110,176,-213,198v67,17,88,78,61,142v-15,36,-34,69,-45,108v0,8,5,12,14,12","w":472},"S":{"d":"221,-60v69,-3,126,-62,126,-136v0,-8,-5,-36,-15,-83v-82,30,-119,58,-153,131v-18,38,1,90,42,88xm506,-540v42,20,72,16,84,-20v0,-10,-5,-15,-15,-15v-22,0,-45,12,-69,35xm664,-593v0,83,-100,147,-183,109v-40,41,-15,82,10,113v21,11,51,14,75,5r-22,49v-9,7,-23,10,-42,11v27,53,-10,114,-32,167v-34,83,-144,142,-258,145v-111,3,-190,-72,-140,-176v44,-92,126,-167,243,-186v-20,-84,9,-128,48,-184v-25,-18,-72,-60,-101,-61v-14,-4,-83,26,-89,27v-21,-2,-18,-43,4,-48v58,-27,127,-40,182,-7r61,36v38,-35,91,-53,160,-53v56,0,84,18,84,53","w":402,"k":{"x":7,"t":-20,"s":53,"o":7,"d":20,"a":7}},"T":{"d":"365,-557v7,-19,-17,-35,-32,-35r-173,0v-16,0,-24,-9,-24,-28v0,-19,9,-29,27,-29r599,0v-44,48,-63,67,-84,117r-63,0v11,-26,25,-51,34,-60r-122,0v-1,10,-4,22,-10,35r-239,557r-159,0","w":347,"k":{"z":14,"y":21,"w":43,"u":36,"s":28,"r":28,"q":36,"p":50,"o":28,"i":43,"e":28,"a":64}},"U":{"d":"506,-88v44,1,126,-62,137,-97r27,36v-24,67,-170,149,-263,149v-46,0,-64,-32,-56,-78v-53,52,-119,78,-196,78v-76,0,-78,-67,-52,-125r193,-432v7,-19,-17,-35,-32,-35r-173,0v-16,0,-24,-9,-24,-28v0,-19,9,-29,27,-29r243,0v101,2,140,25,111,92r-211,478v6,18,26,7,44,-1v54,-25,90,-61,109,-105r207,-464r145,0r-246,554v0,5,3,7,10,7","w":495},"V":{"d":"296,-557v7,-19,-17,-35,-32,-35r-173,0v-16,0,-24,-9,-24,-28v0,-19,9,-29,27,-29r243,0v101,2,140,25,111,92r-211,478v7,18,26,6,45,-2v53,-25,89,-60,108,-104r207,-464r145,0v-90,197,-143,370,-309,513v-102,88,-193,136,-278,136v-76,0,-78,-67,-52,-125","w":495},"W":{"d":"296,-557v7,-19,-17,-35,-32,-35r-176,0v-17,0,-25,-9,-25,-28v0,-19,9,-29,27,-29r247,0v101,2,141,25,111,92r-208,467v-4,10,-3,20,10,20v45,1,118,-68,133,-101r213,-478r146,0r-252,569v0,7,4,10,12,10v48,1,131,-79,147,-115r207,-464r145,0v-91,197,-142,370,-308,513v-103,88,-194,136,-279,136v-48,1,-72,-25,-67,-69v-69,46,-133,69,-192,69v-76,0,-78,-67,-52,-125","w":753},"X":{"d":"683,-150v-25,66,-170,150,-264,150v-45,0,-89,-49,-68,-98r108,-246v-6,-18,-26,-6,-44,2v-53,25,-90,60,-109,104r-106,237r-145,0v48,-124,134,-252,234,-324v-67,-4,-65,-71,-41,-124v17,-38,36,-73,49,-115v1,-13,-20,-29,-33,-28r-173,0v-16,0,-24,-9,-24,-28v0,-19,9,-29,27,-29r243,0v101,2,139,25,111,92v-21,52,-49,98,-66,154v6,18,26,6,44,-2v106,-45,123,-148,171,-244r145,0v-38,93,-97,162,-197,235v71,1,72,61,48,116r-79,177v-6,14,-7,29,11,29v42,1,119,-62,131,-93","w":495},"Y":{"d":"274,75v11,-27,29,-68,53,-121v-35,3,-74,77,-91,127v3,17,35,11,38,-6xm296,-557v7,-19,-17,-35,-32,-35r-173,0v-16,0,-24,-9,-24,-28v0,-19,9,-29,27,-29r243,0v101,2,141,25,111,92r-165,369v-3,11,-4,20,9,20v36,2,122,-73,134,-100r170,-381r152,0r-313,703v-26,63,-97,111,-181,112v-54,1,-121,-27,-97,-85v43,-104,106,-184,213,-223r7,-14v-65,39,-124,58,-179,58v-75,0,-76,-67,-51,-124","w":495},"Z":{"d":"215,-132v-35,-1,-123,22,-123,52v0,9,9,13,27,13v25,0,57,-22,96,-65xm379,-621v0,-10,5,-27,14,-27r449,0v22,1,13,18,1,28r-426,431v69,17,96,134,166,134v39,0,82,-24,129,-72r38,10v-81,76,-108,119,-226,119v-83,0,-119,-92,-180,-118v-54,57,-141,113,-236,116v-72,2,-98,-36,-75,-90v35,-80,119,-122,251,-125r359,-376v4,-9,-3,-12,-17,-12r-232,0v-10,0,-15,-6,-15,-18","w":586},"\\":{"d":"377,-567r11,486r-87,0r-10,-486r86,0","w":366},"_":{"d":"327,162r-374,0r33,-74r373,0","w":434},"`":{"d":"677,-719r-82,0r-60,-110r109,0","w":509},"a":{"d":"246,-98r89,-202v-4,-21,-44,-12,-47,7r-85,190v-7,16,-14,43,5,43v14,0,27,-13,38,-38xm405,-92v42,1,119,-62,131,-93r27,35v-25,68,-170,152,-264,150v-21,0,-34,-10,-37,-30v-48,55,-198,38,-187,-40v18,-132,106,-301,248,-301v33,0,58,11,75,33r9,-20r92,0r-105,237v-6,13,-7,29,11,29","w":391,"k":{"j":19,"'":76,"\"":80}},"b":{"d":"260,-98r89,-202v-3,-21,-43,-12,-46,7r-88,195v-6,16,-13,41,5,41v15,0,28,-14,40,-41xm430,-129v50,0,105,-51,120,-89r38,29v-52,69,-133,130,-193,130v-21,0,-33,-7,-38,-21v-32,42,-107,80,-176,82v-103,3,-124,-70,-89,-148r224,-503r145,0r-132,297v53,-35,127,-15,127,53v0,25,-27,90,-48,153v0,11,7,17,22,17","w":378,"k":{"'":109,"\"":104}},"c":{"d":"197,-60v116,10,235,-52,279,-125v8,12,19,23,26,36v-20,64,-170,149,-255,149v-84,0,-184,2,-184,-71v0,-46,41,-125,60,-170v27,-63,86,-130,164,-130v75,0,188,-19,160,76r-149,54v8,-20,19,-37,25,-59v-3,-21,-43,-12,-46,7r-85,190v-7,16,-14,40,5,43","w":326,"k":{"'":76,"\"":71}},"d":{"d":"244,-84r97,-218v-12,-13,-38,-3,-45,12r-88,199v-6,13,-12,34,5,34v13,0,23,-9,31,-27xm411,-90v53,0,92,-43,134,-93v8,13,18,24,26,37v-24,66,-170,151,-263,148v-29,0,-45,-9,-46,-28v-54,55,-188,31,-178,-42v18,-131,104,-294,248,-300v13,0,25,2,36,6r128,-287r145,0r-243,548v0,7,4,11,13,11","w":390,"k":{"'":57}},"e":{"d":"285,-212v12,-30,28,-56,38,-88v-3,-21,-43,-12,-46,7r-37,81r45,0xm197,-60v117,11,235,-53,279,-125v8,12,19,23,26,36v-20,64,-170,149,-255,149v-84,0,-184,2,-184,-71v0,-46,41,-125,60,-170v27,-63,86,-130,164,-130v64,0,163,-17,163,49v0,20,-14,55,-35,109v-26,66,-112,57,-199,57v-10,25,-31,51,-31,81v0,10,4,15,12,15","w":320,"k":{"'":57,"\"":90}},"f":{"d":"174,77v18,-46,51,-94,55,-149v0,-15,-4,-23,-13,-26r-79,182v4,16,36,5,37,-7xm347,-310r115,-260v-2,-17,-34,-13,-37,4r-152,342v27,-7,51,-36,74,-86xm441,-651v52,-1,126,27,100,81v-56,116,-93,244,-167,343v-26,34,-53,55,-78,66v7,51,60,55,94,25r27,36v-24,26,-78,55,-125,43v14,17,12,21,1,45v-31,66,-39,125,-120,155v-65,24,-183,33,-181,-42v0,-14,4,-30,11,-47r266,-597v27,-62,89,-107,172,-108","w":299,"k":{"'":38}},"g":{"d":"196,-24v-47,34,-59,46,-82,105v2,18,32,12,37,-4v8,-23,24,-56,45,-101xm256,-146r67,-154v-3,-21,-43,-12,-46,7v-23,59,-56,112,-74,176v0,9,4,13,11,13v15,0,29,-14,42,-42xm394,-92v40,1,120,-62,130,-93r27,35v-23,51,-133,149,-209,121v-30,67,-51,133,-117,169v-66,36,-199,46,-207,-40v9,-74,60,-114,130,-132v-43,-8,-65,-35,-65,-80v0,-127,104,-259,228,-259v33,0,58,11,76,33r9,-20r92,0r-99,221v-7,14,-10,25,-10,32v0,9,5,13,15,13","w":372,"k":{"'":66,"\"":99}},"h":{"d":"414,-92v40,1,120,-62,130,-93v9,12,19,23,27,36v-24,66,-170,152,-263,149v-51,-1,-77,-47,-54,-98r88,-196v4,-11,2,-21,-11,-21v-15,0,-26,7,-33,22r-130,293r-145,0r289,-649r145,0r-128,286v58,-36,146,-31,142,52v-4,78,-53,139,-73,206v0,9,5,13,16,13","w":394,"k":{"'":71,"\"":90}},"i":{"d":"396,-150v-25,66,-170,150,-264,150v-46,0,-73,-53,-53,-98r131,-293r110,61r-93,209v-6,14,-7,29,11,29v42,1,119,-62,131,-93xm410,-515v-3,47,-59,71,-109,73v-27,1,-60,-12,-59,-38v3,-48,60,-72,109,-74v28,-1,61,12,59,39","w":218,"k":{"'":71}},"j":{"d":"83,-17v-18,0,-81,78,-78,98v2,18,34,12,37,-4xm286,-92v42,1,119,-62,131,-93v8,12,19,23,26,36v-23,62,-143,131,-220,144v-24,57,-49,107,-100,141v-73,49,-237,29,-189,-75v32,-70,105,-164,194,-161r129,-291r111,61r-93,209v-6,14,-7,29,11,29xm458,-515v-3,47,-60,71,-109,73v-28,1,-61,-13,-60,-38v2,-48,61,-72,110,-74v27,-1,61,13,59,39","w":257,"k":{"'":52}},"k":{"d":"286,-257v8,-10,98,-18,96,-48v0,-7,-4,-10,-13,-10v-22,0,-50,19,-83,58xm575,-150v-25,66,-170,152,-264,150v-32,-1,-66,-26,-63,-56v-6,-23,45,-113,45,-127v-6,-22,-37,-7,-45,11r-76,172r-146,0r289,-649r145,0r-136,306v28,-29,65,-44,111,-44v39,0,58,13,58,40v0,55,-36,81,-88,104v54,22,10,88,-1,136v0,10,5,15,16,15v42,1,116,-62,128,-93","w":388,"k":{"'":57,"\"":128}},"l":{"d":"323,-338v66,-24,103,-161,139,-232v-3,-17,-35,-11,-38,6xm254,-84v58,0,142,-55,157,-101r27,36v-27,72,-150,149,-247,149v-71,0,-139,-56,-108,-126r186,-417v27,-62,89,-107,172,-108v52,-1,125,26,100,81r-65,146v-39,87,-104,148,-196,183v-19,45,-42,86,-57,135v0,15,10,22,31,22","w":285,"k":{"'":38}},"m":{"d":"602,-92v40,1,120,-62,130,-93v9,12,19,23,27,36v-24,65,-171,151,-263,149v-51,-2,-77,-47,-54,-98r88,-196v4,-11,2,-21,-11,-21v-15,0,-26,7,-33,22r-130,293r-145,0r131,-294v4,-11,2,-21,-12,-21v-15,0,-25,7,-32,22r-130,293r-146,0r174,-391r92,49v38,-44,158,-69,180,4v33,-31,74,-46,121,-46v80,0,78,88,52,150r-55,129v0,9,5,13,16,13","w":590,"k":{"'":71,"\"":94}},"n":{"d":"575,-150v-25,66,-170,153,-264,150v-50,-2,-76,-46,-53,-98r88,-196v4,-11,2,-21,-12,-21v-15,0,-25,7,-32,22r-130,293r-146,0r174,-391r92,49v41,-50,188,-73,183,31v-4,79,-55,137,-73,206v0,9,5,13,15,13v42,1,119,-62,131,-93","w":399,"k":{"'":71,"\"":94}},"o":{"d":"243,-85r78,-176v-16,-2,-22,-32,-15,-50v-11,6,-18,15,-23,26r-89,200v-6,12,-7,33,10,32v16,0,29,-11,39,-32xm402,-300v15,-4,16,-48,-2,-47v-14,0,-21,7,-21,20v-1,12,11,27,23,27xm587,-288v-33,34,-83,54,-150,61r-24,55v-51,115,-110,172,-176,172v-70,0,-175,23,-172,-55v2,-54,42,-130,64,-178v34,-73,98,-152,209,-138v34,-36,141,-45,138,22v0,17,-6,35,-18,56v44,10,52,0,99,-24","w":353,"k":{"x":-12,"s":64,"'":76,"\"":80}},"p":{"d":"260,-98r89,-202v-3,-21,-43,-12,-46,7r-88,195v-6,16,-13,41,5,41v15,0,28,-14,40,-41xm430,-129v50,0,105,-51,120,-89r38,29v-53,68,-132,130,-193,130v-21,0,-33,-7,-38,-21v-38,44,-110,100,-183,70r-76,171r-143,0r231,-519r91,0r-13,30v41,-46,197,-53,192,28v4,25,-26,91,-48,154v0,11,7,17,22,17","w":368,"k":{"'":76,"\"":118}},"q":{"d":"234,-98r89,-202v-3,-21,-43,-12,-46,7r-85,190v-7,16,-14,43,5,43v13,0,26,-13,37,-38xm394,-92v40,1,120,-62,130,-93v9,12,19,23,27,36v-23,49,-136,151,-209,120r-84,187r-137,0r71,-159v-69,12,-137,-16,-129,-69v19,-130,106,-301,248,-301v33,0,58,11,76,33r9,-20r92,0r-110,253v0,9,5,13,16,13","w":368,"k":{"'":80}},"r":{"d":"402,-91v42,1,119,-62,131,-94r27,36v-24,66,-170,149,-263,149v-60,0,-75,-50,-54,-97r71,-161v1,-9,-15,-18,-24,-18v-8,0,-16,8,-23,25v-38,84,-113,160,-214,186r148,-331r214,121v57,45,-28,113,-28,171v0,9,5,13,15,13","w":387,"k":{"'":66,"\"":104}},"s":{"d":"220,-87v63,0,105,-96,71,-154r-83,94v-6,20,-8,60,12,60xm369,-417v-16,-13,-34,10,-27,34v18,-19,27,-30,27,-34xm349,-65v73,-3,165,-65,193,-125r25,43v-50,83,-172,147,-299,147v-89,0,-133,-31,-132,-97v-23,27,-70,54,-141,82r3,-50v121,-77,211,-157,271,-240v-16,-77,48,-168,108,-168v34,0,51,11,51,32v0,49,-27,60,-62,111v96,119,101,174,-17,265","w":378,"k":{"'":52,"\"":80}},"t":{"d":"233,-88v44,1,126,-62,137,-97r27,36v-24,67,-170,149,-263,149v-54,0,-77,-51,-55,-100r95,-213r-38,0r22,-48r37,0r129,-288r145,0r-128,288r40,0r-22,48r-40,0r-96,218v0,5,3,7,10,7","w":237,"k":{"'":76,"!":-58}},"u":{"d":"405,-92v40,1,120,-62,130,-93v9,12,19,23,27,36v-24,66,-170,152,-263,149v-21,0,-34,-10,-37,-30v-49,55,-197,38,-188,-40v12,-97,79,-201,112,-288r131,0r-114,255v-7,16,-14,43,5,43v14,0,26,-13,37,-38r130,-293r111,61r-92,209v-6,13,-7,29,11,29","w":380,"k":{"'":94,"\"":90}},"v":{"d":"485,-330v-51,103,-75,212,-169,279v-48,34,-92,53,-137,53v-127,0,-120,-79,-79,-171r84,-189r131,0r-114,255v-7,16,-14,43,5,43v14,0,26,-13,37,-38r131,-293","w":348,"k":{"'":76,"\"":99}},"w":{"d":"577,-300v16,-2,16,-48,-2,-47v-14,0,-21,7,-21,20v-1,12,11,28,23,27xm479,-289v0,-59,50,-111,109,-111v72,0,77,60,45,107v45,10,51,1,99,-24r30,29v-33,33,-83,54,-150,61r-43,97v-28,71,-116,132,-217,132v-42,0,-71,-8,-88,-23v-63,41,-202,29,-193,-49v13,-111,89,-223,126,-321r104,61r-102,227v-7,16,-14,43,5,43v14,0,27,-13,38,-38r95,-212r102,61v-23,59,-56,109,-72,175v0,9,4,14,12,14v13,0,26,-13,37,-38r74,-166v-7,-5,-11,-13,-11,-25","w":519,"k":{"'":57,"\"":99}},"x":{"d":"266,-89v43,0,119,-63,130,-96r27,36v-24,67,-171,151,-264,149v-41,0,-62,-19,-63,-56r-36,23r-63,0r123,-96v24,-58,54,-110,74,-173v0,-12,-9,-18,-26,-18v-23,0,-52,19,-85,58v26,-56,77,-114,145,-115v52,-1,82,38,80,91r35,-27r63,0r-105,85v-1,3,-15,40,-47,108v-7,14,-8,31,12,31","w":255,"k":{"'":85,"\"":76}},"y":{"d":"196,-24v-47,34,-59,46,-82,105v2,18,32,12,37,-4v8,-23,24,-56,45,-101xm394,-92v40,1,120,-62,130,-93v9,12,19,23,27,36v-24,61,-142,131,-219,144v-25,60,-49,113,-107,145v-66,37,-199,46,-207,-40v9,-75,60,-113,130,-132v-88,-18,-77,-91,-43,-168r85,-191r103,61r-83,187v-7,15,-14,39,4,39v15,0,29,-14,42,-42r116,-261r104,77r-98,225v0,9,5,13,16,13","w":370,"k":{"'":85,"\"":113}},"z":{"d":"226,-60v91,1,228,-61,250,-125r26,35v-21,65,-170,150,-255,150v-80,0,-194,15,-194,-57v0,-61,45,-128,98,-146v60,-20,153,-23,163,-91v-3,-39,-75,-16,-112,-22r-20,-55r204,0v53,-3,92,41,65,90v-39,69,-68,72,-175,108v-52,17,-83,40,-93,87v0,17,14,26,43,26","w":331,"k":{"'":90,"\"":85}},"~":{"d":"420,-671r-33,24r-34,0r-6,-14r-16,14r-26,0r33,-24r29,0r7,14v11,-9,23,-17,46,-14","w":132},"\u00a1":{"d":"260,-328v4,-58,93,-90,150,-64v12,7,19,16,19,29v0,46,-59,73,-109,73v-28,0,-62,-14,-60,-38xm199,155v-30,83,-149,98,-278,92v-11,0,-15,-5,-10,-15v9,-20,40,-46,72,-42v17,2,58,-23,63,-35r158,-354r179,-60","w":290},"\u00a8":{"d":"619,-794v-2,38,-40,60,-75,60v-25,0,-37,-9,-37,-28v0,-36,40,-60,76,-60v24,0,36,9,36,28xm729,-794v0,36,-40,60,-75,60v-25,0,-37,-9,-37,-28v0,-35,41,-60,76,-60v24,0,36,9,36,28","w":581},"\u00b4":{"d":"742,-829r-157,110r-82,0r130,-110r109,0","w":509},"\u00b8":{"d":"307,52v0,82,-98,131,-196,115r9,-21v55,9,102,-21,109,-66v3,-18,-18,-25,-39,-21r92,-87r30,0r-42,39v25,7,37,20,37,41","w":514},"\u00bf":{"d":"313,-342v3,-48,60,-72,109,-74v28,-1,61,12,59,39v-3,47,-60,71,-109,73v-27,1,-60,-12,-59,-38xm93,234v-89,0,-207,-17,-177,-103v39,-112,132,-178,264,-235v24,-10,37,-26,43,-39r59,-131r125,61v-31,69,-49,128,-131,151v-47,13,-173,96,-188,132v-15,36,-58,102,23,102v25,0,111,-29,136,-29v27,0,53,13,77,38r-24,53v-25,-18,-48,-27,-69,-27v-16,-1,-101,27,-138,27","w":484},"\u00c0":{"d":"227,-70v66,-14,121,-67,142,-115r131,-293v17,-39,8,-110,-36,-110v-15,0,-28,10,-37,31r-211,478v0,6,4,9,11,9xm485,-88v44,1,125,-62,137,-97r27,36v-24,66,-170,149,-263,149v-46,0,-64,-32,-56,-78v-53,52,-119,78,-196,78v-76,0,-78,-67,-52,-125r178,-399v30,-74,120,-128,220,-129v58,0,97,16,116,49r20,-45r105,0r-246,554v0,5,3,7,10,7xm707,-719r-82,0r-60,-110r109,0"},"\u00c1":{"d":"227,-70v66,-14,121,-67,142,-115r131,-293v17,-39,8,-110,-36,-110v-15,0,-28,10,-37,31r-211,478v0,6,4,9,11,9xm485,-88v44,1,125,-62,137,-97r27,36v-24,66,-170,149,-263,149v-46,0,-64,-32,-56,-78v-53,52,-119,78,-196,78v-76,0,-78,-67,-52,-125r178,-399v30,-74,120,-128,220,-129v58,0,97,16,116,49r20,-45r105,0r-246,554v0,5,3,7,10,7xm713,-829r-157,110r-82,0r130,-110r109,0"},"\u00c2":{"d":"679,-724r-83,0r-26,-65r-82,65r-83,0r117,-102r130,0xm227,-70v66,-14,121,-67,142,-115r131,-293v17,-39,8,-110,-36,-110v-15,0,-28,10,-37,31r-211,478v0,6,4,9,11,9xm485,-88v44,1,125,-62,137,-97r27,36v-24,66,-170,149,-263,149v-46,0,-64,-32,-56,-78v-53,52,-119,78,-196,78v-76,0,-78,-67,-52,-125r178,-399v30,-74,120,-128,220,-129v58,0,97,16,116,49r20,-45r105,0r-246,554v0,5,3,7,10,7"},"\u00c3":{"d":"562,-831v27,0,74,39,95,38v17,0,33,-13,50,-38r10,0v-21,49,-54,73,-97,73v-28,0,-75,-40,-95,-39v-15,0,-32,12,-49,37r-11,0v23,-47,55,-71,97,-71xm227,-70v66,-14,121,-67,142,-115r131,-293v17,-39,8,-110,-36,-110v-15,0,-28,10,-37,31r-211,478v0,6,4,9,11,9xm485,-88v44,1,125,-62,137,-97r27,36v-24,66,-170,149,-263,149v-46,0,-64,-32,-56,-78v-53,52,-119,78,-196,78v-76,0,-78,-67,-52,-125r178,-399v30,-74,120,-128,220,-129v58,0,97,16,116,49r20,-45r105,0r-246,554v0,5,3,7,10,7"},"\u00c4":{"d":"227,-70v66,-14,121,-67,142,-115r131,-293v17,-39,8,-110,-36,-110v-15,0,-28,10,-37,31r-211,478v0,6,4,9,11,9xm485,-88v44,1,125,-62,137,-97r27,36v-24,66,-170,149,-263,149v-46,0,-64,-32,-56,-78v-53,52,-119,78,-196,78v-76,0,-78,-67,-52,-125r178,-399v30,-74,120,-128,220,-129v58,0,97,16,116,49r20,-45r105,0r-246,554v0,5,3,7,10,7xm570,-794v-2,38,-40,60,-75,60v-25,0,-37,-9,-37,-28v0,-36,40,-60,76,-60v24,0,36,9,36,28xm680,-794v0,36,-40,60,-75,60v-25,0,-37,-9,-37,-28v0,-35,41,-60,76,-60v24,0,36,9,36,28"},"\u00c5":{"d":"567,-727v35,0,83,-18,83,-52v0,-19,-16,-28,-48,-28v-37,0,-83,17,-83,52v0,19,16,28,48,28xm687,-786v-3,55,-73,80,-131,82v-33,1,-76,-16,-74,-45v4,-53,71,-79,130,-81v35,-1,76,16,75,44xm227,-70v66,-14,121,-67,142,-115r131,-293v17,-39,8,-110,-36,-110v-15,0,-28,10,-37,31r-211,478v0,6,4,9,11,9xm485,-88v44,1,125,-62,137,-97r27,36v-24,66,-170,149,-263,149v-46,0,-64,-32,-56,-78v-53,52,-119,78,-196,78v-76,0,-78,-67,-52,-125r178,-399v30,-74,120,-128,220,-129v58,0,97,16,116,49r20,-45r105,0r-246,554v0,5,3,7,10,7"},"\u00c7":{"d":"533,-150v-21,65,-170,151,-256,150r-76,0v-130,2,-138,-75,-96,-169r147,-331v43,-97,106,-146,188,-146v79,0,213,-29,184,76r-149,54v4,-25,54,-70,-4,-71v-22,0,-36,6,-41,18r-208,466v-12,29,-16,42,24,43v102,5,224,-56,260,-125xm268,52v0,82,-98,131,-196,115r9,-21v55,9,102,-21,109,-66v3,-18,-18,-25,-39,-21r92,-87r30,0r-42,39v25,7,37,20,37,41","w":360},"\u00c8":{"d":"256,-59v98,1,237,-58,260,-126v9,12,19,23,27,36v-20,64,-170,150,-255,149r-76,0v-130,2,-134,-74,-96,-169v35,-88,108,-162,207,-185v-38,-8,-77,-39,-77,-83v0,-19,28,-93,46,-125v-11,-20,-21,-30,-28,-30r-173,0v-16,0,-24,-9,-24,-28v0,-19,9,-29,27,-29r243,0v23,0,41,5,54,16v76,-30,271,-43,243,63r-149,54r25,-58v0,-10,-9,-15,-27,-15v-56,2,-65,81,-89,121v-16,47,12,67,63,101r-16,36v-84,27,-137,62,-156,108v-21,49,-48,94,-62,148v0,11,11,16,33,16xm608,-719r-82,0r-60,-110r109,0","w":364},"\u00c9":{"d":"256,-59v98,1,237,-58,260,-126v9,12,19,23,27,36v-20,64,-170,150,-255,149r-76,0v-130,2,-134,-74,-96,-169v35,-88,108,-162,207,-185v-38,-8,-77,-39,-77,-83v0,-19,28,-93,46,-125v-11,-20,-21,-30,-28,-30r-173,0v-16,0,-24,-9,-24,-28v0,-19,9,-29,27,-29r243,0v23,0,41,5,54,16v76,-30,271,-43,243,63r-149,54r25,-58v0,-10,-9,-15,-27,-15v-56,2,-65,81,-89,121v-16,47,12,67,63,101r-16,36v-84,27,-137,62,-156,108v-21,49,-48,94,-62,148v0,11,11,16,33,16xm683,-829r-157,110r-82,0r130,-110r109,0","w":364},"\u00ca":{"d":"679,-724r-83,0r-26,-65r-82,65r-83,0r117,-102r130,0xm256,-59v98,1,237,-58,260,-126v9,12,19,23,27,36v-20,64,-170,150,-255,149r-76,0v-130,2,-134,-74,-96,-169v35,-88,108,-162,207,-185v-38,-8,-77,-39,-77,-83v0,-19,28,-93,46,-125v-11,-20,-21,-30,-28,-30r-173,0v-16,0,-24,-9,-24,-28v0,-19,9,-29,27,-29r243,0v23,0,41,5,54,16v76,-30,271,-43,243,63r-149,54r25,-58v0,-10,-9,-15,-27,-15v-56,2,-65,81,-89,121v-16,47,12,67,63,101r-16,36v-84,27,-137,62,-156,108v-21,49,-48,94,-62,148v0,11,11,16,33,16","w":364},"\u00cb":{"d":"256,-59v98,1,237,-58,260,-126v9,12,19,23,27,36v-20,64,-170,150,-255,149r-76,0v-130,2,-134,-74,-96,-169v35,-88,108,-162,207,-185v-38,-8,-77,-39,-77,-83v0,-19,28,-93,46,-125v-11,-20,-21,-30,-28,-30r-173,0v-16,0,-24,-9,-24,-28v0,-19,9,-29,27,-29r243,0v23,0,41,5,54,16v76,-30,271,-43,243,63r-149,54r25,-58v0,-10,-9,-15,-27,-15v-56,2,-65,81,-89,121v-16,47,12,67,63,101r-16,36v-84,27,-137,62,-156,108v-21,49,-48,94,-62,148v0,11,11,16,33,16xm570,-794v-2,38,-40,60,-75,60v-25,0,-37,-9,-37,-28v0,-36,40,-60,76,-60v24,0,36,9,36,28xm680,-794v0,36,-40,60,-75,60v-25,0,-37,-9,-37,-28v0,-35,41,-60,76,-60v24,0,36,9,36,28","w":364},"\u00cc":{"d":"304,-557v9,-17,-16,-35,-31,-35r-173,0v-17,0,-25,-9,-25,-28v0,-19,9,-29,27,-29r244,0v102,1,140,26,110,92r-247,557r-152,0xm478,-719r-82,0r-60,-110r109,0","w":229},"\u00cd":{"d":"304,-557v9,-17,-16,-35,-31,-35r-173,0v-17,0,-25,-9,-25,-28v0,-19,9,-29,27,-29r244,0v102,1,140,26,110,92r-247,557r-152,0xm583,-829r-157,110r-82,0r130,-110r109,0","w":229},"\u00ce":{"d":"559,-724r-83,0r-26,-65r-82,65r-83,0r117,-102r130,0xm304,-557v9,-17,-16,-35,-31,-35r-173,0v-17,0,-25,-9,-25,-28v0,-19,9,-29,27,-29r244,0v102,1,140,26,110,92r-247,557r-152,0","w":229},"\u00cf":{"d":"304,-557v9,-17,-16,-35,-31,-35r-173,0v-17,0,-25,-9,-25,-28v0,-19,9,-29,27,-29r244,0v102,1,140,26,110,92r-247,557r-152,0xm440,-794v-2,38,-40,60,-75,60v-25,0,-37,-9,-37,-28v0,-36,40,-60,76,-60v24,0,36,9,36,28xm550,-794v0,36,-40,60,-75,60v-25,0,-37,-9,-37,-28v0,-35,41,-60,76,-60v24,0,36,9,36,28","w":229},"\u00d0":{"d":"283,-70v64,-14,121,-68,142,-115r158,-355v13,-28,1,-53,-35,-53v-33,0,-57,18,-73,53r-203,461v0,6,4,9,11,9xm485,-620v59,-54,298,-45,248,68r-172,387v-42,101,-177,165,-324,165r-154,0r249,-564v1,-13,-21,-29,-33,-28r-173,0v-17,0,-25,-9,-25,-28v0,-19,9,-29,27,-29r243,0v62,0,100,10,114,29xm407,-287r-244,0r33,-73r243,0","w":541},"\u00d1":{"d":"572,-831v27,0,74,39,95,38v17,0,33,-13,50,-38r10,0v-21,49,-54,73,-97,73v-28,0,-75,-40,-95,-39v-15,0,-32,12,-49,37r-11,0v23,-47,55,-71,97,-71xm506,-88v44,1,126,-62,137,-97r27,36v-24,67,-170,149,-263,149v-43,0,-82,-40,-62,-85r210,-472v7,-13,9,-31,-9,-31v-44,-1,-117,74,-133,110r-213,478r-152,0r248,-557v7,-19,-17,-35,-32,-35r-173,0v-16,0,-24,-9,-24,-28v0,-19,9,-29,27,-29r243,0v66,0,105,12,117,35v47,-27,94,-40,139,-40v57,0,135,34,108,97r-205,462v0,5,3,7,10,7","w":495},"\u00d2":{"d":"350,-142r150,-336v17,-39,8,-110,-36,-110v-15,0,-28,10,-37,31r-185,415v-12,29,3,52,39,52v31,0,54,-17,69,-52xm617,-564v16,-4,16,-47,-2,-46v-14,0,-21,7,-21,20v-1,12,11,26,23,26xm781,-583v13,0,32,17,21,31v-23,33,-74,54,-151,62r-163,365v-37,83,-122,125,-254,125v-133,0,-191,-37,-152,-125r178,-399v38,-94,171,-153,299,-115v37,-32,135,-37,132,27v0,17,-6,35,-18,55v45,16,68,-7,108,-26xm618,-719r-82,0r-60,-110r109,0"},"\u00d3":{"d":"350,-142r150,-336v17,-39,8,-110,-36,-110v-15,0,-28,10,-37,31r-185,415v-12,29,3,52,39,52v31,0,54,-17,69,-52xm617,-564v16,-4,16,-47,-2,-46v-14,0,-21,7,-21,20v-1,12,11,26,23,26xm781,-583v13,0,32,17,21,31v-23,33,-74,54,-151,62r-163,365v-37,83,-122,125,-254,125v-133,0,-191,-37,-152,-125r178,-399v38,-94,171,-153,299,-115v37,-32,135,-37,132,27v0,17,-6,35,-18,55v45,16,68,-7,108,-26xm693,-829r-157,110r-82,0r130,-110r109,0"},"\u00d4":{"d":"679,-724r-83,0r-26,-65r-82,65r-83,0r117,-102r130,0xm350,-142r150,-336v17,-39,8,-110,-36,-110v-15,0,-28,10,-37,31r-185,415v-12,29,3,52,39,52v31,0,54,-17,69,-52xm617,-564v16,-4,16,-47,-2,-46v-14,0,-21,7,-21,20v-1,12,11,26,23,26xm781,-583v13,0,32,17,21,31v-23,33,-74,54,-151,62r-163,365v-37,83,-122,125,-254,125v-133,0,-191,-37,-152,-125r178,-399v38,-94,171,-153,299,-115v37,-32,135,-37,132,27v0,17,-6,35,-18,55v45,16,68,-7,108,-26"},"\u00d5":{"d":"552,-831v27,0,74,39,95,38v17,0,33,-13,50,-38r10,0v-21,49,-54,73,-97,73v-28,0,-75,-40,-95,-39v-15,0,-32,12,-49,37r-11,0v23,-47,55,-71,97,-71xm350,-142r150,-336v17,-39,8,-110,-36,-110v-15,0,-28,10,-37,31r-185,415v-12,29,3,52,39,52v31,0,54,-17,69,-52xm617,-564v16,-4,16,-47,-2,-46v-14,0,-21,7,-21,20v-1,12,11,26,23,26xm781,-583v13,0,32,17,21,31v-23,33,-74,54,-151,62r-163,365v-37,83,-122,125,-254,125v-133,0,-191,-37,-152,-125r178,-399v38,-94,171,-153,299,-115v37,-32,135,-37,132,27v0,17,-6,35,-18,55v45,16,68,-7,108,-26"},"\u00d6":{"d":"350,-142r150,-336v17,-39,8,-110,-36,-110v-15,0,-28,10,-37,31r-185,415v-12,29,3,52,39,52v31,0,54,-17,69,-52xm617,-564v16,-4,16,-47,-2,-46v-14,0,-21,7,-21,20v-1,12,11,26,23,26xm781,-583v13,0,32,17,21,31v-23,33,-74,54,-151,62r-163,365v-37,83,-122,125,-254,125v-133,0,-191,-37,-152,-125r178,-399v38,-94,171,-153,299,-115v37,-32,135,-37,132,27v0,17,-6,35,-18,55v45,16,68,-7,108,-26xm570,-794v-2,38,-40,60,-75,60v-25,0,-37,-9,-37,-28v0,-36,40,-60,76,-60v24,0,36,9,36,28xm680,-794v0,36,-40,60,-75,60v-25,0,-37,-9,-37,-28v0,-35,41,-60,76,-60v24,0,36,9,36,28"},"\u00d8":{"d":"793,-583v14,0,32,17,22,31v-23,33,-74,54,-151,62r-164,365v-37,83,-121,125,-253,125v-133,0,-191,-37,-152,-125r178,-399v36,-94,171,-153,298,-115v37,-32,137,-37,133,27v0,17,-6,35,-19,55v45,15,69,-6,108,-26xm520,-505v5,-45,-9,-83,-44,-83v-15,0,-28,10,-37,31r-122,275xm363,-142r80,-181r-191,210v5,15,18,23,41,23v31,0,55,-17,70,-52xm629,-564v16,-2,16,-47,-2,-46v-14,0,-21,7,-21,20v-1,12,11,26,23,26"},"\u00d9":{"d":"506,-88v44,1,126,-62,137,-97r27,36v-24,67,-170,149,-263,149v-46,0,-64,-32,-56,-78v-53,52,-119,78,-196,78v-76,0,-78,-67,-52,-125r193,-432v7,-19,-17,-35,-32,-35r-173,0v-16,0,-24,-9,-24,-28v0,-19,9,-29,27,-29r243,0v101,2,140,25,111,92r-211,478v6,18,26,7,44,-1v54,-25,90,-61,109,-105r207,-464r145,0r-246,554v0,5,3,7,10,7xm648,-719r-82,0r-60,-110r109,0","w":495},"\u00da":{"d":"506,-88v44,1,126,-62,137,-97r27,36v-24,67,-170,149,-263,149v-46,0,-64,-32,-56,-78v-53,52,-119,78,-196,78v-76,0,-78,-67,-52,-125r193,-432v7,-19,-17,-35,-32,-35r-173,0v-16,0,-24,-9,-24,-28v0,-19,9,-29,27,-29r243,0v101,2,140,25,111,92r-211,478v6,18,26,7,44,-1v54,-25,90,-61,109,-105r207,-464r145,0r-246,554v0,5,3,7,10,7xm703,-829r-157,110r-82,0r130,-110r109,0","w":495},"\u00db":{"d":"699,-724r-83,0r-26,-65r-82,65r-83,0r117,-102r130,0xm506,-88v44,1,126,-62,137,-97r27,36v-24,67,-170,149,-263,149v-46,0,-64,-32,-56,-78v-53,52,-119,78,-196,78v-76,0,-78,-67,-52,-125r193,-432v7,-19,-17,-35,-32,-35r-173,0v-16,0,-24,-9,-24,-28v0,-19,9,-29,27,-29r243,0v101,2,140,25,111,92r-211,478v6,18,26,7,44,-1v54,-25,90,-61,109,-105r207,-464r145,0r-246,554v0,5,3,7,10,7","w":495},"\u00dc":{"d":"506,-88v44,1,126,-62,137,-97r27,36v-24,67,-170,149,-263,149v-46,0,-64,-32,-56,-78v-53,52,-119,78,-196,78v-76,0,-78,-67,-52,-125r193,-432v7,-19,-17,-35,-32,-35r-173,0v-16,0,-24,-9,-24,-28v0,-19,9,-29,27,-29r243,0v101,2,140,25,111,92r-211,478v6,18,26,7,44,-1v54,-25,90,-61,109,-105r207,-464r145,0r-246,554v0,5,3,7,10,7xm590,-794v-2,38,-40,60,-75,60v-25,0,-37,-9,-37,-28v0,-36,40,-60,76,-60v24,0,36,9,36,28xm700,-794v0,36,-40,60,-75,60v-25,0,-37,-9,-37,-28v0,-35,41,-60,76,-60v24,0,36,9,36,28","w":495},"\u00dd":{"d":"274,75v11,-27,29,-68,53,-121v-35,3,-74,77,-91,127v3,17,35,11,38,-6xm296,-557v7,-19,-17,-35,-32,-35r-173,0v-16,0,-24,-9,-24,-28v0,-19,9,-29,27,-29r243,0v101,2,141,25,111,92r-165,369v-3,11,-4,20,9,20v36,2,122,-73,134,-100r170,-381r152,0r-313,703v-26,63,-97,111,-181,112v-54,1,-121,-27,-97,-85v43,-104,106,-184,213,-223r7,-14v-65,39,-124,58,-179,58v-75,0,-76,-67,-51,-124xm733,-829r-157,110r-82,0r130,-110r109,0","w":475},"\u00df":{"d":"363,-367v131,-51,148,-78,186,-173v11,-29,0,-53,-36,-53v-33,0,-57,18,-72,53xm547,-212v-43,112,-114,181,-262,205r47,-107v43,-39,49,-46,75,-109v21,-52,-5,-81,-60,-108r-147,331r-152,0r246,-552v30,-68,104,-102,223,-102v126,0,189,24,189,71v0,119,-108,202,-220,229v67,17,86,77,61,142","w":364},"\u00e0":{"d":"246,-98r89,-202v-4,-21,-44,-12,-47,7r-85,190v-7,16,-14,43,5,43v14,0,27,-13,38,-38xm405,-92v42,1,119,-62,131,-93r27,35v-25,68,-170,152,-264,150v-21,0,-34,-10,-37,-30v-48,55,-198,38,-187,-40v18,-132,106,-301,248,-301v33,0,58,11,75,33r9,-20r92,0r-105,237v-6,13,-7,29,11,29xm504,-420r-82,0r-60,-110r109,0","w":391},"\u00e1":{"d":"246,-98r89,-202v-4,-21,-44,-12,-47,7r-85,190v-7,16,-14,43,5,43v14,0,27,-13,38,-38xm405,-92v42,1,119,-62,131,-93r27,35v-25,68,-170,152,-264,150v-21,0,-34,-10,-37,-30v-48,55,-198,38,-187,-40v18,-132,106,-301,248,-301v33,0,58,11,75,33r9,-20r92,0r-105,237v-6,13,-7,29,11,29xm589,-530r-157,110r-82,0r130,-110r109,0","w":391},"\u00e2":{"d":"515,-425r-83,0r-26,-65r-82,65r-83,0r117,-102r130,0xm246,-98r89,-202v-4,-21,-44,-12,-47,7r-85,190v-7,16,-14,43,5,43v14,0,27,-13,38,-38xm405,-92v42,1,119,-62,131,-93r27,35v-25,68,-170,152,-264,150v-21,0,-34,-10,-37,-30v-48,55,-198,38,-187,-40v18,-132,106,-301,248,-301v33,0,58,11,75,33r9,-20r92,0r-105,237v-6,13,-7,29,11,29","w":391},"\u00e3":{"d":"388,-532v27,0,74,39,95,38v17,0,33,-13,50,-38r10,0v-21,49,-54,73,-97,73v-28,0,-75,-40,-95,-39v-15,0,-32,12,-49,37r-11,0v23,-47,55,-71,97,-71xm246,-98r89,-202v-4,-21,-44,-12,-47,7r-85,190v-7,16,-14,43,5,43v14,0,27,-13,38,-38xm405,-92v42,1,119,-62,131,-93r27,35v-25,68,-170,152,-264,150v-21,0,-34,-10,-37,-30v-48,55,-198,38,-187,-40v18,-132,106,-301,248,-301v33,0,58,11,75,33r9,-20r92,0r-105,237v-6,13,-7,29,11,29","w":391},"\u00e4":{"d":"246,-98r89,-202v-4,-21,-44,-12,-47,7r-85,190v-7,16,-14,43,5,43v14,0,27,-13,38,-38xm405,-92v42,1,119,-62,131,-93r27,35v-25,68,-170,152,-264,150v-21,0,-34,-10,-37,-30v-48,55,-198,38,-187,-40v18,-132,106,-301,248,-301v33,0,58,11,75,33r9,-20r92,0r-105,237v-6,13,-7,29,11,29xm416,-495v-2,38,-40,60,-75,60v-25,0,-37,-9,-37,-28v0,-36,40,-60,76,-60v24,0,36,9,36,28xm526,-495v0,36,-40,60,-75,60v-25,0,-37,-9,-37,-28v0,-35,41,-60,76,-60v24,0,36,9,36,28","w":391},"\u00e5":{"d":"383,-428v35,0,83,-18,83,-52v0,-19,-16,-28,-48,-28v-37,0,-83,17,-83,52v0,19,16,28,48,28xm503,-487v-3,55,-73,80,-131,82v-33,1,-76,-16,-74,-45v4,-53,71,-79,130,-81v35,-1,76,16,75,44xm246,-98r89,-202v-4,-21,-44,-12,-47,7r-85,190v-7,16,-14,43,5,43v14,0,27,-13,38,-38xm405,-92v42,1,119,-62,131,-93r27,35v-25,68,-170,152,-264,150v-21,0,-34,-10,-37,-30v-48,55,-198,38,-187,-40v18,-132,106,-301,248,-301v33,0,58,11,75,33r9,-20r92,0r-105,237v-6,13,-7,29,11,29","w":391},"\u00e6":{"d":"231,-98r95,-214v-25,-1,-43,-1,-52,19r-85,190v-6,15,-14,43,4,43v14,0,27,-13,38,-38xm466,-212v12,-30,28,-56,38,-88v-3,-21,-43,-12,-46,7r-37,81r45,0xm378,-60v117,11,235,-53,279,-125v8,12,19,23,26,36v-20,64,-170,150,-255,149r-144,0v-21,0,-33,-10,-36,-30v-50,55,-198,37,-188,-40v18,-132,106,-301,248,-301r259,0v43,0,64,16,64,49v0,21,-14,56,-35,109v-26,66,-112,57,-199,57v-10,25,-31,51,-31,81v0,10,4,15,12,15","w":506},"\u00e7":{"d":"206,-60v116,10,235,-52,279,-125v8,12,19,23,26,36v-20,64,-170,149,-255,149v-84,0,-184,2,-184,-71v0,-46,41,-125,60,-170v27,-63,86,-130,164,-130v75,0,188,-19,160,76r-149,54v8,-20,19,-37,25,-59v-3,-21,-43,-12,-46,7r-85,190v-7,16,-14,40,5,43xm228,52v0,82,-98,131,-196,115r9,-21v55,9,102,-21,109,-66v3,-18,-18,-25,-39,-21r92,-87r30,0r-42,39v25,7,37,20,37,41","w":313},"\u00e8":{"d":"285,-212v12,-30,28,-56,38,-88v-3,-21,-43,-12,-46,7r-37,81r45,0xm197,-60v117,11,235,-53,279,-125v8,12,19,23,26,36v-20,64,-170,149,-255,149v-84,0,-184,2,-184,-71v0,-46,41,-125,60,-170v27,-63,86,-130,164,-130v64,0,163,-17,163,49v0,20,-14,55,-35,109v-26,66,-112,57,-199,57v-10,25,-31,51,-31,81v0,10,4,15,12,15xm434,-420r-82,0r-60,-110r109,0","w":320},"\u00e9":{"d":"285,-212v12,-30,28,-56,38,-88v-3,-21,-43,-12,-46,7r-37,81r45,0xm197,-60v117,11,235,-53,279,-125v8,12,19,23,26,36v-20,64,-170,149,-255,149v-84,0,-184,2,-184,-71v0,-46,41,-125,60,-170v27,-63,86,-130,164,-130v64,0,163,-17,163,49v0,20,-14,55,-35,109v-26,66,-112,57,-199,57v-10,25,-31,51,-31,81v0,10,4,15,12,15xm519,-530r-157,110r-82,0r130,-110r109,0","w":320},"\u00ea":{"d":"485,-425r-83,0r-26,-65r-82,65r-83,0r117,-102r130,0xm285,-212v12,-30,28,-56,38,-88v-3,-21,-43,-12,-46,7r-37,81r45,0xm197,-60v117,11,235,-53,279,-125v8,12,19,23,26,36v-20,64,-170,149,-255,149v-84,0,-184,2,-184,-71v0,-46,41,-125,60,-170v27,-63,86,-130,164,-130v64,0,163,-17,163,49v0,20,-14,55,-35,109v-26,66,-112,57,-199,57v-10,25,-31,51,-31,81v0,10,4,15,12,15","w":320},"\u00eb":{"d":"285,-212v12,-30,28,-56,38,-88v-3,-21,-43,-12,-46,7r-37,81r45,0xm197,-60v117,11,235,-53,279,-125v8,12,19,23,26,36v-20,64,-170,149,-255,149v-84,0,-184,2,-184,-71v0,-46,41,-125,60,-170v27,-63,86,-130,164,-130v64,0,163,-17,163,49v0,20,-14,55,-35,109v-26,66,-112,57,-199,57v-10,25,-31,51,-31,81v0,10,4,15,12,15xm376,-495v-2,38,-40,60,-75,60v-25,0,-37,-9,-37,-28v0,-36,40,-60,76,-60v24,0,36,9,36,28xm486,-495v0,36,-40,60,-75,60v-25,0,-37,-9,-37,-28v0,-35,41,-60,76,-60v24,0,36,9,36,28","w":320},"\u00ec":{"d":"234,-92v40,1,120,-62,130,-93v9,12,19,23,27,36v-25,66,-170,149,-264,149v-46,0,-73,-53,-53,-98r131,-293r111,61r-98,225v0,9,5,13,16,13xm374,-420r-82,0r-60,-110r109,0","w":218},"\u00ed":{"d":"234,-92v40,1,120,-62,130,-93v9,12,19,23,27,36v-25,66,-170,149,-264,149v-46,0,-73,-53,-53,-98r131,-293r111,61r-98,225v0,9,5,13,16,13xm439,-530r-157,110r-82,0r130,-110r109,0","w":218},"\u00ee":{"d":"415,-425r-83,0r-26,-65r-82,65r-83,0r117,-102r130,0xm234,-92v40,1,120,-62,130,-93v9,12,19,23,27,36v-25,66,-170,149,-264,149v-46,0,-73,-53,-53,-98r131,-293r111,61r-98,225v0,9,5,13,16,13","w":218},"\u00ef":{"d":"234,-92v40,1,120,-62,130,-93v9,12,19,23,27,36v-25,66,-170,149,-264,149v-46,0,-73,-53,-53,-98r131,-293r111,61r-98,225v0,9,5,13,16,13xm306,-495v-2,38,-40,60,-75,60v-25,0,-37,-9,-37,-28v0,-36,40,-60,76,-60v24,0,36,9,36,28xm416,-495v0,36,-40,60,-75,60v-25,0,-37,-9,-37,-28v0,-35,41,-60,76,-60v24,0,36,9,36,28","w":218},"\u00f0":{"w":305},"\u00f1":{"d":"378,-532v27,0,74,39,95,38v17,0,33,-13,50,-38r10,0v-21,49,-54,73,-97,73v-28,0,-75,-40,-95,-39v-15,0,-32,12,-49,37r-11,0v23,-47,55,-71,97,-71xm575,-150v-25,66,-170,153,-264,150v-50,-2,-76,-46,-53,-98r88,-196v4,-11,2,-21,-12,-21v-15,0,-25,7,-32,22r-130,293r-146,0r174,-391r92,49v41,-50,188,-73,183,31v-4,79,-55,137,-73,206v0,9,5,13,15,13v42,1,119,-62,131,-93","w":399},"\u00f2":{"d":"243,-85r78,-176v-16,-2,-22,-32,-15,-50v-11,6,-18,15,-23,26r-89,200v-6,12,-7,33,10,32v16,0,29,-11,39,-32xm402,-300v15,-4,16,-48,-2,-47v-14,0,-21,7,-21,20v-1,12,11,27,23,27xm587,-288v-33,34,-83,54,-150,61r-24,55v-51,115,-110,172,-176,172v-70,0,-175,23,-172,-55v2,-54,42,-130,64,-178v34,-73,98,-152,209,-138v34,-36,141,-45,138,22v0,17,-6,35,-18,56v44,10,52,0,99,-24xm444,-420r-82,0r-60,-110r109,0","w":353},"\u00f3":{"d":"243,-85r78,-176v-16,-2,-22,-32,-15,-50v-11,6,-18,15,-23,26r-89,200v-6,12,-7,33,10,32v16,0,29,-11,39,-32xm402,-300v15,-4,16,-48,-2,-47v-14,0,-21,7,-21,20v-1,12,11,27,23,27xm587,-288v-33,34,-83,54,-150,61r-24,55v-51,115,-110,172,-176,172v-70,0,-175,23,-172,-55v2,-54,42,-130,64,-178v34,-73,98,-152,209,-138v34,-36,141,-45,138,22v0,17,-6,35,-18,56v44,10,52,0,99,-24xm509,-530r-157,110r-82,0r130,-110r109,0","w":353},"\u00f4":{"d":"505,-425r-83,0r-26,-65r-82,65r-83,0r117,-102r130,0xm243,-85r78,-176v-16,-2,-22,-32,-15,-50v-11,6,-18,15,-23,26r-89,200v-6,12,-7,33,10,32v16,0,29,-11,39,-32xm402,-300v15,-4,16,-48,-2,-47v-14,0,-21,7,-21,20v-1,12,11,27,23,27xm587,-288v-33,34,-83,54,-150,61r-24,55v-51,115,-110,172,-176,172v-70,0,-175,23,-172,-55v2,-54,42,-130,64,-178v34,-73,98,-152,209,-138v34,-36,141,-45,138,22v0,17,-6,35,-18,56v44,10,52,0,99,-24","w":353},"\u00f5":{"d":"368,-532v27,0,74,39,95,38v17,0,33,-13,50,-38r10,0v-21,49,-54,73,-97,73v-28,0,-75,-40,-95,-39v-15,0,-32,12,-49,37r-11,0v23,-47,55,-71,97,-71xm243,-85r78,-176v-16,-2,-22,-32,-15,-50v-11,6,-18,15,-23,26r-89,200v-6,12,-7,33,10,32v16,0,29,-11,39,-32xm402,-300v15,-4,16,-48,-2,-47v-14,0,-21,7,-21,20v-1,12,11,27,23,27xm587,-288v-33,34,-83,54,-150,61r-24,55v-51,115,-110,172,-176,172v-70,0,-175,23,-172,-55v2,-54,42,-130,64,-178v34,-73,98,-152,209,-138v34,-36,141,-45,138,22v0,17,-6,35,-18,56v44,10,52,0,99,-24","w":353},"\u00f6":{"d":"243,-85r78,-176v-16,-2,-22,-32,-15,-50v-11,6,-18,15,-23,26r-89,200v-6,12,-7,33,10,32v16,0,29,-11,39,-32xm402,-300v15,-4,16,-48,-2,-47v-14,0,-21,7,-21,20v-1,12,11,27,23,27xm587,-288v-33,34,-83,54,-150,61r-24,55v-51,115,-110,172,-176,172v-70,0,-175,23,-172,-55v2,-54,42,-130,64,-178v34,-73,98,-152,209,-138v34,-36,141,-45,138,22v0,17,-6,35,-18,56v44,10,52,0,99,-24xm386,-495v-2,38,-40,60,-75,60v-25,0,-37,-9,-37,-28v0,-36,40,-60,76,-60v24,0,36,9,36,28xm496,-495v0,36,-40,60,-75,60v-25,0,-37,-9,-37,-28v0,-35,41,-60,76,-60v24,0,36,9,36,28","w":353},"\u00f8":{"d":"257,-85r78,-176v-15,-2,-21,-32,-14,-50v-11,6,-19,15,-24,26r-89,200v-6,12,-7,33,10,32v17,0,30,-11,39,-32xm416,-300v16,-2,16,-48,-2,-47v-14,0,-21,7,-21,20v-1,12,11,28,23,27xm601,-288v-33,34,-83,54,-150,61r-24,55v-51,115,-109,172,-175,172v-70,0,-176,23,-173,-55v2,-53,43,-130,64,-178v33,-74,98,-152,209,-138v34,-36,141,-45,138,22v0,17,-6,35,-18,56v44,10,52,0,99,-24xm361,-293r-269,269r57,0r268,-269r-56,0","w":353},"\u00f9":{"d":"405,-92v40,1,120,-62,130,-93v9,12,19,23,27,36v-24,66,-170,152,-263,149v-21,0,-34,-10,-37,-30v-49,55,-197,38,-188,-40v12,-97,79,-201,112,-288r131,0r-114,255v-7,16,-14,43,5,43v14,0,26,-13,37,-38r130,-293r111,61r-92,209v-6,13,-7,29,11,29xm444,-420r-82,0r-60,-110r109,0","w":380},"\u00fa":{"d":"405,-92v40,1,120,-62,130,-93v9,12,19,23,27,36v-24,66,-170,152,-263,149v-21,0,-34,-10,-37,-30v-49,55,-197,38,-188,-40v12,-97,79,-201,112,-288r131,0r-114,255v-7,16,-14,43,5,43v14,0,26,-13,37,-38r130,-293r111,61r-92,209v-6,13,-7,29,11,29xm509,-530r-157,110r-82,0r130,-110r109,0","w":380},"\u00fb":{"d":"495,-425r-83,0r-26,-65r-82,65r-83,0r117,-102r130,0xm405,-92v40,1,120,-62,130,-93v9,12,19,23,27,36v-24,66,-170,152,-263,149v-21,0,-34,-10,-37,-30v-49,55,-197,38,-188,-40v12,-97,79,-201,112,-288r131,0r-114,255v-7,16,-14,43,5,43v14,0,26,-13,37,-38r130,-293r111,61r-92,209v-6,13,-7,29,11,29","w":380},"\u00fc":{"d":"405,-92v40,1,120,-62,130,-93v9,12,19,23,27,36v-24,66,-170,152,-263,149v-21,0,-34,-10,-37,-30v-49,55,-197,38,-188,-40v12,-97,79,-201,112,-288r131,0r-114,255v-7,16,-14,43,5,43v14,0,26,-13,37,-38r130,-293r111,61r-92,209v-6,13,-7,29,11,29xm386,-495v-2,38,-40,60,-75,60v-25,0,-37,-9,-37,-28v0,-36,40,-60,76,-60v24,0,36,9,36,28xm496,-495v0,36,-40,60,-75,60v-25,0,-37,-9,-37,-28v0,-35,41,-60,76,-60v24,0,36,9,36,28","w":380},"\u00fd":{"d":"196,-24v-47,34,-59,46,-82,105v2,18,32,12,37,-4v8,-23,24,-56,45,-101xm394,-92v40,1,120,-62,130,-93v9,12,19,23,27,36v-24,61,-142,131,-219,144v-25,60,-49,113,-107,145v-66,37,-199,46,-207,-40v9,-75,60,-113,130,-132v-88,-18,-77,-91,-43,-168r85,-191r103,61r-83,187v-7,15,-14,39,4,39v15,0,29,-14,42,-42r116,-261r104,77r-98,225v0,9,5,13,16,13xm509,-530r-157,110r-82,0r130,-110r109,0","w":385},"\u00ff":{"d":"196,-24v-47,34,-59,46,-82,105v2,18,32,12,37,-4v8,-23,24,-56,45,-101xm394,-92v40,1,120,-62,130,-93v9,12,19,23,27,36v-24,61,-142,131,-219,144v-25,60,-49,113,-107,145v-66,37,-199,46,-207,-40v9,-75,60,-113,130,-132v-88,-18,-77,-91,-43,-168r85,-191r103,61r-83,187v-7,15,-14,39,4,39v15,0,29,-14,42,-42r116,-261r104,77r-98,225v0,9,5,13,16,13xm386,-495v-2,38,-40,60,-75,60v-25,0,-37,-9,-37,-28v0,-36,40,-60,76,-60v24,0,36,9,36,28xm496,-495v0,36,-40,60,-75,60v-25,0,-37,-9,-37,-28v0,-35,41,-60,76,-60v24,0,36,9,36,28","w":370},"\u0131":{"d":"234,-92v40,1,120,-62,130,-93v9,12,19,23,27,36v-25,66,-170,149,-264,149v-46,0,-73,-53,-53,-98r131,-293r111,61r-98,225v0,9,5,13,16,13","w":218},"\u00a9":{"d":"346,-21v-123,-49,-210,-200,-148,-364v46,-122,206,-210,364,-148v122,47,210,206,148,364v-47,122,-206,211,-364,148xm359,-504v-108,44,-186,178,-131,324v41,108,183,184,323,130v108,-42,186,-181,131,-322v-42,-108,-182,-189,-323,-132xm311,-273v0,-98,43,-174,139,-174v52,0,90,22,115,67r-52,34v-17,-24,-38,-36,-63,-36v-52,1,-77,50,-77,109v0,56,29,107,78,108v26,0,49,-15,62,-31r50,34v-25,41,-63,62,-113,62v-94,0,-139,-77,-139,-173","w":635},"\u00ae":{"d":"628,-353v0,-105,-83,-171,-193,-171v-108,0,-181,67,-181,171v0,105,73,172,181,172v111,0,193,-64,193,-172xm346,-548v182,-69,377,80,300,275v-38,96,-173,161,-300,113v-94,-36,-168,-152,-118,-274v22,-52,64,-93,118,-114xm411,-418r0,52v28,-1,62,7,62,-25v0,-34,-32,-26,-62,-27xm519,-391v-1,36,-14,49,-38,65r41,91r-48,0r-39,-84r-24,0r0,84r-45,0r0,-229r82,0v43,0,72,28,71,73","w":540},"\u00ab":{"d":"95,-302r102,48r0,60r-156,-77r0,-59r156,-81r0,62xm243,-302r102,48r0,60r-156,-77r0,-59r156,-81r0,62","w":374},"\u00bb":{"d":"302,-304r-102,-47r0,-60r156,77r0,59r-156,81r0,-62xm154,-304r-102,-47r0,-60r156,77r0,59r-156,81r0,-62","w":386},"^":{"d":"62,0r1,-340r67,0r0,-28r-18,0r0,-88r18,0r0,-31r-18,0r0,-37r439,0r0,46v-5,-9,-13,-13,-24,-13v-31,0,-46,26,-46,77v0,69,43,99,79,57r0,17r24,0r0,-184r374,0r0,26r34,0r0,-26r360,0r0,524r-1290,0xm938,-340v-3,-60,18,-152,-47,-148v-16,0,-26,8,-31,24v-11,-32,-44,-32,-55,0r0,-23r-32,0r0,119r-19,0r0,28r70,0r0,-28r-19,0v4,-30,-12,-83,19,-84v10,0,15,8,15,23r0,89r51,0r0,-28r-19,0v4,-29,-13,-82,19,-83v10,0,15,7,15,22r0,89r33,0xm986,-267r-56,0r0,189r32,0r0,-122r3,0r9,122r58,0r0,-189r-32,0r0,122r-3,0xm480,-267r0,189r79,0v15,-17,11,-52,11,-83v-8,-9,-9,-22,0,-31v0,-29,3,-61,-11,-75r-79,0xm826,-247r0,148r10,21r67,0r12,-21r0,-148r-11,-20r-68,0xm271,-267r0,189r38,0r0,-83r11,0r0,83r41,0r0,-76v-5,-8,-13,-13,-15,-24r15,-20v0,-27,2,-56,-11,-69r-79,0xm256,-293r33,0r0,-56v33,31,70,-1,70,-64v0,-69,-43,-99,-79,-56r0,-18r-24,0r0,194xm475,-412v0,-52,-18,-78,-55,-78v-36,0,-54,26,-54,78v0,51,18,76,54,76v37,0,55,-25,55,-76xm1184,-209r38,0v1,-24,0,-46,-10,-58r-66,0v-16,17,-10,54,-11,86r12,20r37,9r0,38r-10,0r0,-28r-39,0v-1,26,-1,51,11,64r65,0v16,-18,10,-59,11,-93r-13,-21r-35,-8r0,-33r10,0r0,24xm256,-78v5,-77,-14,-129,-26,-189r-41,0v-11,60,-27,114,-23,189r37,0r0,-36r13,0r0,36r40,0xm464,-78v5,-76,-13,-129,-24,-189r-41,0v-11,60,-27,114,-23,189r38,0r0,-36r12,0r0,36r38,0xm169,-293v101,14,72,-106,76,-194r-33,0r0,91v0,17,-7,26,-20,26v-13,0,-19,-9,-19,-26r0,-91r-32,0v-3,70,-7,181,71,141v2,21,-20,25,-43,23r0,30xm678,-159r26,0r0,-33r-26,0r0,-35r26,0r0,-40r-64,0r0,189r64,0r0,-42r-26,0r0,-39xm786,-156r24,0r0,-33r-24,0r0,-38r24,0r0,-40r-63,0r0,189r39,0r0,-78xm1064,-227r0,149r39,0r0,-149r21,0r0,-40r-81,0r0,40r21,0xm685,-487r-15,0r0,23v-13,-43,-76,-30,-76,17v0,18,7,30,22,36v-40,13,-25,79,22,75v31,-3,47,-19,47,-53r-15,0v2,22,-45,27,-45,5v-1,-16,13,-19,30,-18r0,-18v-31,9,-43,-33,-10,-33v11,0,20,7,25,20r15,0r0,-54xm1096,-485r-16,0r0,21v-8,-17,-18,-26,-30,-26v-33,0,-50,26,-50,78v0,50,17,75,51,75v24,0,39,-19,45,-58r-16,0v-2,15,-10,23,-25,23v-15,0,-23,-13,-23,-40v0,-50,45,-54,48,-14r16,0r0,-59xm151,-120r-22,0r0,-147r-38,0r0,189r60,0r0,-42xm625,-78r0,-189r-39,0r0,189r39,0xm740,-368r-14,0v3,-30,-12,-103,26,-79r11,-33v-17,-16,-40,-7,-48,16r0,-23r-19,0r0,147r44,0r0,-28xm943,-487r0,31r15,0r0,116r34,0r0,-147r-49,0xm286,-387v1,-26,-7,-65,21,-65v14,0,21,13,21,38v0,44,-28,57,-42,27xm442,-412v0,27,-7,40,-22,40v-14,0,-21,-13,-21,-40v0,-27,7,-41,21,-41v15,0,22,14,22,41xm553,-440v-1,26,7,67,-20,65v-14,0,-21,-13,-21,-38v0,-43,27,-57,41,-27xm63,-368r0,-88r19,0r0,88r-19,0xm864,-114r0,-119r11,0r0,119r-11,0xm63,-487r0,-37r19,0r0,37r-19,0xm203,-142v1,-25,0,-51,8,-69v2,23,6,44,5,69r-13,0xm414,-142v-1,-25,3,-46,5,-69r3,0r4,69r-12,0xm519,-161r11,0r0,47r-11,0r0,-47xm519,-192r0,-41r11,0r0,41r-11,0xm309,-192r0,-41r11,0r0,41r-11,0","w":1414},"\u00a0":{"w":202}}});
