// #### Generated By: http://www.cufonfonts.com ####
/*!
 * The following copyright notice may not be removed under any circumstances.
 * 
 * Copyright:
 * Copyright (c) 2004-2008, SIL International (http://www.sil.org/). Licensed under
 * the SIL Open Font License, Version 1.1 (http://scripts.sil.org/OFL), with
 * Reserved Font Names "Andika" and "SIL".
 * 
 * Trademark:
 * Andika is a trademark of SIL International.
 * 
 * Description:
 * Copyright (c) 2004-2008 by SIL International.
 * 
 * Manufacturer:
 * SIL International
 * 
 * Designer:
 * Annie Olsen & Victor Gaultney
 * 
 * Vendor URL:
 * http://scripts.sil.org
 * 
 * License information:
 * http://scripts.sil.org/OFL
*/
Cufon.registerFont({"w":1200,"face":{"font-family":"Andika Basic","font-weight":400,"font-stretch":"normal","units-per-em":"2048","panose-1":"2 0 0 0 0 0 0 0 0 0","ascent":"1638","descent":"-410","bbox":"-190 -2135 2015 490","underline-thickness":"80","underline-position":"-70","unicode-range":"U+0020-U+20AC"},"glyphs":{" ":{"w":550},"!":{"d":"360,25v-81,0,-135,-54,-135,-135v0,-81,54,-135,135,-135v81,0,135,54,135,135v0,81,-54,135,-135,135xm490,-1510v-33,348,-35,705,-40,1070r-175,0r-9,-481v-2,-89,-5,-181,-10,-279v-5,-98,-12,-201,-21,-310r255,0","w":764},"\"":{"d":"785,-1585v-23,181,-33,352,-40,540r-125,0r-10,-231v-3,-43,-6,-90,-11,-141v-5,-51,-11,-107,-19,-168r205,0xm445,-1585v-23,181,-33,352,-40,540r-125,0r-10,-231v-3,-43,-6,-90,-11,-141v-5,-51,-11,-107,-19,-168r205,0","w":1025},"#":{"d":"427,-725r275,0r67,-235r-275,0xm84,-1110r303,0r100,-350r150,0r-100,350r275,0r100,-350r150,0r-100,350r213,0r0,150r-256,0r-67,235r264,0r0,150r-307,0r-107,375r-150,0r107,-375r-275,0r-107,375r-150,0r107,-375r-209,0r0,-150r252,0r67,-235r-260,0r0,-150"},"$":{"d":"553,-1222v-116,23,-218,108,-181,250v21,80,97,105,181,138r0,-388xm683,-174v117,-31,220,-126,181,-278v-21,-83,-97,-114,-181,-151r0,429xm553,-649v-197,-62,-363,-128,-363,-368v0,-155,88,-257,198,-318v46,-26,101,-43,165,-50r0,-215r130,0r0,213v124,8,208,36,303,81r-37,179v-91,-49,-159,-82,-266,-97r0,433v190,62,363,139,363,377v0,239,-158,361,-363,406r0,228r-130,0r0,-220v-165,-7,-302,-51,-400,-124r42,-189v96,86,206,140,358,151r0,-487"},"%":{"d":"399,-1480v218,0,291,164,291,391v0,237,-74,404,-300,404v-221,0,-290,-163,-290,-393v0,-234,77,-402,299,-402xm394,-825v120,0,131,-122,131,-251v0,-136,-3,-264,-131,-264v-121,0,-129,120,-129,249v0,136,3,266,129,266xm1239,-1480r-780,1505r-168,0r782,-1505r166,0xm1135,-770v218,0,291,164,291,391v0,237,-74,404,-300,404v-221,0,-290,-163,-290,-393v0,-234,77,-402,299,-402xm1130,-115v120,0,131,-122,131,-251v0,-136,-3,-264,-131,-264v-121,0,-129,120,-129,249v0,136,3,266,129,266","w":1526},"&":{"d":"475,-1350v-141,0,-203,149,-121,268v29,41,59,91,99,143v56,-56,100,-106,131,-149v31,-43,46,-82,46,-117v0,-91,-64,-145,-155,-145xm241,-455v-53,184,85,347,280,295v85,-23,157,-74,220,-124r-257,-355r-52,-67v-81,77,-159,141,-191,251xm155,-1190v0,-203,138,-295,335,-295v135,0,230,67,274,164v74,162,-33,312,-117,405v-29,34,-61,68,-96,102r99,134r110,156r97,131v47,-52,92,-113,118,-177r105,135v-30,58,-73,119,-121,170v74,85,134,153,216,195v-46,33,-87,82,-150,95v-14,0,-36,-15,-67,-46v-31,-31,-69,-75,-115,-132v-125,108,-340,236,-557,147v-158,-65,-279,-257,-214,-477v44,-149,157,-239,265,-345v-74,-106,-182,-198,-182,-362","w":1222},"'":{"d":"405,-1585v-23,181,-33,352,-40,540r-125,0r-10,-231v-3,-43,-6,-90,-11,-141v-5,-51,-11,-107,-19,-168r205,0","w":605},"(":{"d":"535,410v-246,-257,-420,-574,-420,-1035v0,-467,173,-807,440,-1015r75,155v-214,185,-325,466,-325,860v-1,405,127,675,325,890","w":795},")":{"d":"240,-1640v267,208,440,548,440,1015v0,459,-175,779,-420,1035r-95,-145v192,-220,325,-487,325,-890v0,-386,-120,-671,-325,-860","w":795},"*":{"d":"540,-1140v5,107,14,200,30,300r-140,0r20,-300r-110,76r-135,104r-70,-125r152,-72r118,-63r-123,-57r-157,-63r75,-125r138,95r112,70v-4,-106,-22,-201,-35,-300r145,0r-18,235v-1,21,-2,43,-2,65r111,-76r134,-104r70,125r-213,105r-57,30r122,57r158,63r-75,125r-195,-131","w":1028},"+":{"d":"155,-810r370,0r0,-370r150,0r0,370r370,0r0,150r-370,0r0,375r-150,0r0,-375r-370,0r0,-150"},",":{"d":"320,-250v168,0,170,218,102,347v-31,59,-73,118,-132,173r-100,-40v62,-69,127,-157,135,-280r-140,0r0,-100v15,-61,65,-100,135,-100","w":650},"-":{"d":"80,-705r700,0r0,150r-700,0r0,-150","w":860},".":{"d":"320,25v-81,0,-135,-54,-135,-135v0,-81,54,-135,135,-135v81,0,135,54,135,135v0,81,-54,135,-135,135","w":640},"\/":{"d":"990,-1600r-830,1845r-150,0r830,-1845r150,0","w":1000},"0":{"d":"1072,-1087v50,184,48,537,-2,715v-67,239,-196,397,-480,397v-399,0,-496,-323,-500,-745v-1,-258,49,-456,152,-594v81,-107,200,-171,368,-171v274,0,399,165,462,398xm730,-177v198,-107,205,-527,160,-817v-28,-182,-93,-321,-290,-321v-188,0,-259,137,-288,309v-49,290,-41,721,156,829v75,41,187,41,262,0"},"1":{"d":"535,-1260r-300,172r-25,-180r345,-212r170,0r0,1310r315,0r0,170r-820,0r0,-170r315,0r0,-1090"},"2":{"d":"125,-1290v107,-145,373,-250,607,-166v158,57,278,181,278,391v0,220,-122,370,-228,506v-116,148,-252,273,-392,394r516,-3v37,-1,71,-2,100,-4v29,-2,54,-5,74,-8r0,180r-960,0r0,-170v211,-155,423,-348,571,-568v59,-88,119,-186,119,-307v0,-175,-114,-260,-285,-260v-164,0,-272,92,-355,185"},"3":{"d":"180,-1325v107,-128,354,-202,576,-136v151,45,284,136,284,321v0,155,-104,243,-210,300v-38,20,-75,33,-110,40v205,44,370,151,370,395v0,216,-165,334,-338,396v-142,51,-319,44,-452,-11v-74,-30,-137,-71,-190,-120r25,-215v112,131,305,253,546,188v117,-31,214,-111,214,-258v0,-151,-123,-218,-251,-255v-70,-20,-147,-21,-234,-20r0,-170v190,10,332,-46,410,-154v20,-29,30,-60,30,-91v0,-139,-122,-192,-260,-195v-180,-4,-285,62,-375,155"},"4":{"d":"263,-550r482,0r0,-680xm935,-395r0,395r-190,0r0,-395r-655,0r0,-155r655,-930r190,0r0,930r190,0r0,155r-190,0"},"5":{"d":"750,-686v-143,-97,-406,-68,-555,1r0,-775r805,0r0,190v-180,-36,-411,-14,-620,-20r0,370v116,-14,265,-15,366,24v173,67,314,194,314,421v0,251,-135,399,-326,466v-154,55,-385,39,-512,-22v-29,-14,-61,-30,-92,-49r30,-210v99,81,197,138,370,135v208,-4,336,-107,340,-315v2,-106,-55,-172,-120,-216"},"6":{"d":"920,-435v0,-181,-94,-283,-275,-285v-149,-1,-261,60,-338,139v13,176,72,322,189,395v108,67,281,26,345,-46v44,-49,79,-116,79,-203xm307,-733v90,-86,196,-162,358,-162v215,0,356,97,419,253v46,112,39,270,-6,378v-74,178,-232,289,-478,289v-272,0,-399,-181,-457,-410v-71,-278,-21,-648,97,-836v106,-169,283,-288,568,-260v93,9,160,43,225,86r-44,195v-92,-105,-278,-147,-429,-79v-177,79,-241,286,-253,546"},"7":{"d":"1090,-1300v-279,380,-490,809,-630,1300r-185,0v27,-94,55,-183,83,-266v128,-390,303,-721,512,-1029v-252,5,-561,-14,-770,20r0,-185r990,0r0,160"},"8":{"d":"600,-145v186,0,310,-95,310,-280v0,-140,-81,-223,-186,-264v-122,-47,-281,-7,-346,59v-48,49,-88,113,-88,205v0,185,124,280,310,280xm600,-865v156,0,260,-82,260,-240v0,-151,-108,-220,-260,-220v-152,0,-260,69,-260,220v0,158,104,240,260,240xm855,-795v132,73,255,187,255,390v0,223,-147,346,-322,401v-279,88,-556,-29,-654,-220v-27,-54,-44,-113,-44,-181v2,-210,125,-314,260,-390v-104,-59,-200,-145,-200,-310v0,-200,134,-307,292,-355v244,-74,491,20,572,192v23,48,36,102,36,163v0,166,-95,247,-195,310"},"9":{"d":"306,-1036v-4,208,163,311,374,264v99,-22,176,-77,234,-143v-26,-207,-93,-395,-318,-395v-177,0,-286,99,-290,274xm917,-748v-85,84,-204,162,-358,162v-213,0,-352,-102,-417,-254v-47,-111,-37,-263,11,-366v76,-166,231,-279,463,-279v272,0,403,191,464,419v73,276,23,639,-94,827v-105,169,-284,288,-568,260v-93,-9,-160,-43,-225,-86r44,-195v66,66,147,110,274,110v315,0,391,-272,406,-598"},":":{"d":"320,25v-81,0,-135,-54,-135,-135v0,-81,54,-135,135,-135v81,0,135,54,135,135v0,81,-54,135,-135,135xm320,-655v-81,0,-135,-54,-135,-135v0,-81,54,-135,135,-135v81,0,135,54,135,135v0,81,-54,135,-135,135","w":640},";":{"d":"320,-250v168,0,170,218,102,347v-31,59,-73,118,-132,173r-100,-40v62,-69,127,-157,135,-280r-140,0r0,-100v15,-61,65,-100,135,-100xm320,-655v-81,0,-135,-54,-135,-135v0,-81,54,-135,135,-135v81,0,135,54,135,135v0,81,-54,135,-135,135","w":650},"<":{"d":"1080,-245r-980,-400r0,-170r980,-400r0,180r-790,305r790,305r0,180"},"=":{"d":"120,-980r960,0r0,150r-960,0r0,-150xm120,-630r960,0r0,150r-960,0r0,-150"},">":{"d":"120,-1215r980,400r0,170r-980,400r0,-180r790,-305r-790,-305r0,-180"},"?":{"d":"450,25v-81,0,-135,-54,-135,-135v0,-81,54,-135,135,-135v81,0,135,54,135,135v0,81,-54,135,-135,135xm140,-1430v73,-66,184,-110,320,-110v217,0,370,89,370,300v0,238,-219,292,-266,496v-20,88,-23,182,-24,304r-185,0v-1,-234,28,-415,130,-540r59,-76v37,-54,81,-95,81,-174v0,-97,-85,-135,-193,-135v-105,0,-186,48,-247,114","w":1050},"@":{"d":"1025,-871v-65,-29,-209,-50,-280,-6v-88,54,-142,162,-142,304v0,130,31,239,145,253v103,-12,168,-87,222,-156v23,-29,40,-61,55,-94r0,-301xm1250,118v-157,113,-456,154,-677,63v-282,-116,-478,-359,-478,-755v0,-371,158,-604,397,-740v172,-98,472,-125,682,-42v256,101,433,312,433,658v0,232,-84,400,-229,483v-42,24,-86,34,-130,34v-134,-1,-167,-102,-207,-199v-84,106,-221,253,-407,176v-114,-47,-181,-163,-181,-329v-1,-217,95,-373,221,-456v130,-86,366,-45,500,9r0,350v0,108,7,187,30,254v20,58,77,73,132,36v132,-90,159,-373,90,-562v-80,-221,-260,-367,-558,-367v-295,0,-481,175,-577,394v-71,162,-67,399,-3,563v91,233,274,407,580,407v112,0,202,-34,277,-86","w":1702},"A":{"d":"433,-540r507,0r-255,-725xm994,-385r-615,0r-134,385r-205,0r94,-232r446,-1228r215,0r445,1228r95,232r-205,0","w":1395},"B":{"d":"820,-800v180,48,320,149,320,380v0,307,-214,437,-535,430r-445,-10v15,-88,15,-202,15,-311r-1,-963v-1,-40,-3,-76,-5,-108v-2,-32,-5,-58,-9,-78r312,-10v327,-13,599,30,593,350v-3,181,-113,267,-245,320xm945,-420v0,-201,-128,-281,-345,-280r-235,0r0,545r245,5v194,-3,335,-73,335,-270xm590,-1315r-225,5r0,455r195,0v181,-2,307,-63,310,-235v3,-169,-107,-229,-280,-225","w":1285},"C":{"d":"760,-150v192,0,326,-87,430,-185r40,195v-153,146,-506,221,-753,114v-243,-105,-382,-339,-382,-684v0,-373,161,-614,421,-726v182,-78,439,-53,589,24v37,19,74,40,110,67r-60,180v-97,-85,-213,-150,-385,-150v-333,0,-480,237,-480,580v0,254,101,445,270,537v58,32,125,48,200,48","w":1355},"D":{"d":"160,0v19,-132,15,-301,15,-455r-1,-819v-1,-40,-3,-76,-5,-108v-2,-32,-5,-58,-9,-78r455,-10v458,13,700,260,700,730v0,430,-210,667,-565,736v-185,36,-387,5,-590,4xm590,-1310r-225,5r0,1140v23,2,53,5,91,7v139,10,289,-2,386,-52v172,-88,278,-249,278,-510v0,-377,-168,-585,-530,-590","w":1435},"E":{"d":"160,0v31,-291,15,-694,15,-1025v0,-99,-1,-185,-2,-261v-1,-76,-6,-134,-13,-174r850,0r0,165r-645,0r0,450r570,0r0,160r-570,0r0,520r514,-2v67,-1,121,-6,161,-13r0,180r-880,0","w":1160},"F":{"d":"160,0v18,-114,15,-279,15,-435r-1,-849v-1,-38,-3,-71,-5,-101v-2,-30,-5,-55,-9,-75r870,0r0,165r-665,0r0,460r580,0r0,160r-580,0r2,503v1,76,6,133,13,172r-220,0","w":1150},"G":{"d":"757,-150v144,1,235,-39,328,-95r0,-335r-350,0r0,-165r540,0r0,590v-148,102,-292,180,-530,180v-325,0,-512,-176,-601,-427v-65,-181,-65,-461,4,-640v110,-285,351,-478,754,-438v148,15,254,65,358,135r-65,180v-109,-87,-225,-150,-412,-150v-335,0,-493,229,-493,570v0,270,93,465,274,554v58,27,122,41,193,41","w":1420},"H":{"d":"1290,-1460v-31,291,-15,694,-15,1025v0,99,1,185,2,261v1,76,6,134,13,174r-205,0r0,-675r-720,0r0,675r-205,0v31,-291,15,-694,15,-1025v0,-99,-1,-185,-2,-261v-1,-76,-6,-134,-13,-174r205,0r0,625r720,0r0,-625r205,0","w":1475},"I":{"d":"815,-1460r0,145r-245,0r0,1170r245,0r0,145r-675,0r0,-145r240,0r0,-1170r-240,0r0,-145r675,0","w":975},"J":{"d":"780,-535v5,364,-146,599,-514,553v-94,-12,-179,-50,-231,-108r45,-185v60,66,141,120,260,120v183,0,251,-138,250,-330r-2,-769v-1,-41,-3,-79,-5,-114v-2,-35,-5,-65,-8,-92r205,0r0,925","w":965},"K":{"d":"160,0v31,-291,15,-694,15,-1025v0,-99,-1,-185,-2,-261v-1,-76,-6,-134,-13,-174r205,0r0,673r560,-673r240,0r-606,687r671,773r-245,0r-620,-717r0,717r-205,0","w":1310},"L":{"d":"160,0v31,-291,15,-694,15,-1025v0,-99,-1,-185,-2,-261v-1,-76,-6,-134,-13,-174r205,0r0,1295r486,-3v37,-1,71,-2,100,-4v29,-2,54,-5,74,-8r0,180r-865,0","w":1080},"M":{"d":"455,-1460r430,1255r435,-1255r220,0r54,1283r16,177r-185,0r-28,-1198r-412,1198r-195,0r-414,-1195r-31,1195r-185,0r30,-466r40,-994r225,0","w":1795},"N":{"d":"1315,-1460v-18,128,-15,285,-15,435r0,1025r-165,0r-795,-1152r0,1152r-180,0v31,-291,15,-694,15,-1025v0,-99,-1,-185,-2,-261v-1,-76,-6,-134,-13,-174r180,0r795,1157r0,-1157r180,0","w":1500},"O":{"d":"1290,-1058v66,181,65,460,-4,640v-68,178,-183,316,-343,391v-147,69,-317,71,-465,3v-237,-109,-383,-347,-383,-696v0,-325,132,-540,327,-673v135,-92,364,-125,538,-43v155,73,267,205,330,378xm1113,-477v68,-223,20,-539,-85,-674v-70,-89,-164,-159,-308,-159v-225,0,-342,147,-398,330v-68,223,-19,536,86,670v71,90,165,160,312,160v222,0,337,-145,393,-327","w":1460},"P":{"d":"585,-1470v316,4,530,129,530,440v0,356,-260,498,-643,472v-39,-3,-74,-4,-107,-7r2,393v1,76,6,133,13,172r-220,0v18,-114,15,-279,15,-435r-1,-839v-1,-40,-3,-76,-5,-108v-2,-32,-5,-58,-9,-78r268,-8v50,-1,103,-2,157,-2xm925,-1010v5,-286,-260,-322,-560,-295r0,585v66,8,130,10,205,10v224,1,351,-87,355,-300","w":1195},"Q":{"d":"1113,-477v68,-223,20,-539,-85,-674v-70,-89,-164,-159,-308,-159v-225,0,-342,147,-398,330v-68,223,-19,536,86,670v71,90,165,160,312,160v222,0,337,-145,393,-327xm875,0v-128,41,-283,31,-401,-24v-235,-110,-379,-348,-379,-696v0,-325,132,-540,327,-673v135,-92,366,-126,540,-43v235,112,378,348,378,696v0,289,-92,508,-260,635v116,69,223,130,375,150v-30,43,-55,95,-95,127v-56,46,-127,-5,-178,-31r-180,-92v-42,-19,-85,-44,-127,-49","w":1475},"R":{"d":"1090,-1060v-2,239,-145,358,-329,415r361,488r123,157r-255,0r-422,-625r-203,0r3,452v1,37,2,71,4,100v2,29,5,54,8,73r-220,0v18,-114,15,-279,15,-435r-1,-839v-1,-40,-3,-76,-5,-108v-2,-32,-5,-58,-9,-78r243,-8v374,-20,690,49,687,408xm555,-1310r-190,5r0,525r190,0v205,2,345,-80,345,-265v0,-201,-138,-265,-345,-265","w":1305},"S":{"d":"140,-315v114,100,241,165,425,165v134,0,235,-56,284,-146v28,-50,36,-125,13,-184v-26,-66,-84,-99,-159,-136v-92,-46,-291,-94,-379,-146v-114,-68,-189,-149,-189,-318v0,-184,113,-304,256,-366v183,-78,471,-29,609,51r-40,195v-124,-71,-293,-146,-474,-92v-105,31,-196,137,-150,272v21,61,77,89,147,120v88,41,257,80,347,128v130,70,235,158,235,347v0,225,-136,357,-307,417v-229,80,-523,7,-663,-102","w":1175},"T":{"d":"525,-1295v-166,3,-341,-11,-480,20r0,-185r1155,0r0,185v-141,-31,-317,-17,-485,-20r0,860v1,159,-2,320,20,435r-230,0v22,-113,20,-278,20,-435r0,-860","w":1265},"U":{"d":"710,-135v258,0,340,-168,340,-425r0,-900r205,0v-28,265,-11,640,-15,945v-5,347,-179,540,-530,540v-353,0,-534,-192,-535,-540r-3,-771v-2,-76,-5,-134,-12,-174r205,0r0,900v-1,259,84,425,345,425","w":1440},"V":{"d":"1095,-1460r215,0r-58,140r-82,225r-385,1095r-225,0r-525,-1460r215,0r422,1265","w":1365},"W":{"d":"1484,-186r311,-1274r220,0r-49,140r-66,225r-305,1095r-225,0r-343,-1176r-342,1176r-225,0r-370,-1320r-50,-140r220,0r316,1274r359,-1274r185,0","w":2080},"X":{"d":"642,-614r-372,614r-230,0r88,-124r137,-216r272,-441r-289,-459r-62,-90r-96,-130r235,0r331,526r319,-526r235,0r-46,58v-144,199,-270,424,-403,635r355,560r102,149r42,58r-230,0","w":1325},"Y":{"d":"540,0v23,-161,12,-409,15,-611r-379,-645v-42,-69,-93,-138,-141,-204r230,0r395,661r375,-661r230,0r-78,114r-117,188r-325,555r2,429v1,76,6,134,13,174r-220,0","w":1320},"Z":{"d":"870,-1295v-247,5,-523,-14,-735,20r0,-185r970,0r0,130r-795,1165r390,0v98,0,185,-2,261,-5v76,-3,134,-8,174,-15r0,185r-1060,0r0,-125","w":1230},"[":{"d":"200,410r0,-2010r440,0r0,150r-255,0r0,1710r255,0r0,150r-440,0","w":790},"\\":{"d":"360,-1600r470,1685r-145,30r-475,-1685","w":1025},"]":{"d":"150,410r0,-150r255,0r0,-1710r-255,0r0,-150r440,0r0,2010r-440,0","w":790},"^":{"d":"95,-850r380,-750r170,0r380,750r-180,0r-285,-580r-285,580r-180,0","w":1120},"_":{"d":"0,170r1274,0r0,165r-1274,0r0,-165","w":1274},"`":{"d":"230,-1600r350,430r-160,0r-420,-430r230,0","w":580},"a":{"d":"815,-830v-89,-37,-254,-56,-349,-7v-165,85,-232,426,-120,617v40,69,131,97,216,49v108,-62,199,-167,253,-284r0,-375xm380,-976v162,-105,456,-57,620,11v2,338,-21,736,75,965r-175,0v-26,-68,-52,-139,-65,-220v-95,112,-190,245,-380,245v-168,0,-269,-108,-319,-243v-67,-180,-16,-445,64,-567v51,-78,105,-143,180,-191","w":1150},"b":{"d":"330,-825v89,-111,193,-215,385,-215v186,0,273,143,319,299v38,131,32,310,-8,434v-72,223,-264,369,-569,323v-114,-17,-212,-50,-312,-81r-1,-1311v-1,-43,-3,-85,-5,-124v-2,-39,-5,-72,-9,-100r200,0r0,775xm330,-185v99,44,252,84,367,28v115,-56,183,-178,183,-348v0,-189,-46,-360,-225,-360v-128,0,-202,85,-263,167v-25,34,-45,72,-62,113r0,400","w":1155},"c":{"d":"925,-85v-88,68,-189,112,-345,110v-233,-3,-376,-127,-447,-300v-50,-124,-50,-299,-1,-428v73,-193,225,-333,483,-337v131,-2,224,34,300,85r-35,180v-98,-78,-259,-138,-404,-75v-121,52,-191,175,-191,350v0,167,67,284,184,334v158,67,343,-2,436,-94","w":1020},"d":{"d":"845,-795v-94,-55,-250,-111,-374,-49v-113,56,-181,182,-181,354v0,211,56,355,250,355v121,0,194,-89,251,-167v23,-31,40,-65,54,-98r0,-395xm845,-955v-3,-217,11,-470,-25,-645r210,0r0,1070v-1,218,24,388,75,530r-180,0v-18,-45,-42,-126,-55,-185v-84,117,-189,210,-365,210v-207,0,-319,-122,-372,-285v-42,-130,-35,-316,9,-440v67,-190,198,-340,438,-340v108,0,191,46,265,85","w":1190},"e":{"d":"995,-75v-151,82,-403,144,-603,67v-181,-70,-297,-234,-297,-487v0,-254,102,-428,280,-507v59,-26,126,-38,200,-38v319,2,429,225,414,555r-709,0v9,212,108,345,320,345v154,0,268,-34,375,-100xm810,-625v-3,-165,-88,-265,-250,-265v-167,0,-247,104,-272,265r522,0","w":1095},"f":{"d":"425,-850v3,288,-13,604,30,850r-215,0r0,-850r-200,0r0,-145r200,0r0,-175v-3,-270,104,-450,345,-450v88,0,165,31,220,70r-46,150v-43,-32,-106,-60,-174,-60v-204,0,-153,264,-160,465r270,0r0,145r-270,0","w":750},"g":{"d":"805,-830v-95,-36,-256,-61,-350,-6v-107,63,-165,188,-165,351v0,175,29,320,190,320v162,0,253,-118,325,-230r0,-435xm460,5v-247,0,-355,-178,-355,-440v0,-264,105,-456,285,-553v138,-75,371,-54,514,-4r86,27r0,940v-1,246,-105,401,-282,467v-193,72,-408,-7,-528,-92r65,-155v82,56,169,115,290,115v170,0,269,-114,270,-300r0,-185v-81,98,-180,180,-345,180","w":1125},"h":{"d":"330,-830v82,-119,207,-210,380,-210v232,0,330,163,330,415r0,625r-185,0r0,-550v-1,-181,-25,-320,-200,-315v-135,4,-216,95,-276,183v-23,34,-38,68,-49,102r0,580r-185,0r-2,-1414v-1,-81,-6,-143,-13,-186r200,0r0,770","w":1175},"i":{"d":"280,-1210v-80,0,-125,-55,-125,-135v0,-80,45,-135,125,-135v81,0,130,55,130,135v0,80,-49,135,-130,135xm375,-1020r1,658r10,261v2,41,6,74,9,101r-205,0r-2,-808v-1,-42,-3,-82,-5,-118v-2,-36,-5,-68,-8,-94r200,0","w":565},"j":{"d":"310,-1210v-80,0,-125,-55,-125,-135v0,-80,45,-135,125,-135v81,0,130,55,130,135v0,80,-49,135,-130,135xm40,300v143,0,180,-122,180,-275r-2,-833v-1,-42,-3,-82,-5,-118v-2,-36,-5,-68,-8,-94r200,0r0,995v5,315,-111,524,-425,491v-63,-7,-126,-31,-170,-61r35,-165v48,32,119,60,195,60","w":595},"k":{"d":"145,0r-2,-1414v-1,-81,-6,-143,-13,-186r200,0r0,999r405,-419r250,0r-495,447r525,573r-245,0r-440,-520r0,520r-185,0","w":1035},"l":{"d":"375,-1600r1,1238r10,260v2,41,6,75,9,102r-205,0r0,-1130v0,-97,-2,-185,-5,-264v-3,-79,-8,-148,-15,-206r205,0","w":565},"m":{"d":"1200,-865v-137,0,-204,104,-255,205r0,660r-185,0r0,-570v-1,-103,-1,-179,-30,-240v-20,-43,-55,-55,-115,-55v-136,0,-205,105,-255,205r0,660r-185,0v-7,-340,28,-764,-50,-1020r180,0v14,40,25,108,32,155v86,-96,168,-175,338,-175v132,0,207,73,246,168v87,-92,175,-166,339,-168v219,-3,270,159,270,380r0,660r-185,0r0,-550v-1,-108,-2,-189,-31,-254v-20,-45,-53,-61,-114,-61","w":1685},"n":{"d":"324,-825v106,-125,207,-215,395,-215v232,0,330,163,330,415r0,625r-185,0r0,-550v-2,-181,-24,-320,-200,-315v-135,4,-216,95,-276,183v-23,34,-38,68,-49,102r0,580r-185,0v-8,-339,29,-764,-50,-1020r180,0v19,55,28,131,40,195","w":1185},"o":{"d":"860,-505v0,-214,-85,-375,-290,-375v-201,0,-290,164,-290,375v0,212,86,370,290,370v200,0,290,-160,290,-370xm129,-277v-45,-130,-46,-332,5,-457v72,-178,211,-306,446,-306v315,0,465,213,465,535v0,256,-116,420,-298,495v-114,47,-263,46,-375,0v-118,-48,-199,-140,-243,-267","w":1140},"p":{"d":"340,-260v90,57,145,120,280,120v137,0,213,-99,248,-212v55,-178,11,-421,-112,-492v-95,-54,-213,-6,-272,49v-60,56,-110,132,-144,220r0,315xm340,-85v2,198,-9,412,25,575r-210,0r0,-975v-2,-199,4,-394,-50,-535r180,0v19,49,33,116,40,190v86,-107,188,-210,370,-210v201,0,302,138,353,302v40,131,36,310,-9,434v-65,181,-190,329,-419,329v-128,0,-200,-56,-280,-110","w":1170},"q":{"d":"795,-830v-93,-36,-249,-61,-340,-6v-107,64,-165,188,-165,351v0,188,60,340,230,340v132,0,211,-108,275,-220r0,-465xm795,-140v-101,127,-242,211,-430,138v-158,-61,-260,-208,-260,-433v0,-264,105,-456,285,-553v136,-73,366,-55,506,-4r84,27r0,1115v0,127,5,238,25,340r-210,0r0,-630","w":1130},"r":{"d":"556,-719v-125,178,-264,431,-196,719r-205,0v-8,-339,29,-764,-50,-1020r180,0v46,119,51,292,50,460v57,-157,113,-280,197,-381v62,-75,146,-115,268,-92v21,5,43,12,65,23r-30,185v-64,-26,-135,-31,-191,15v-29,24,-61,52,-88,91","w":890},"s":{"d":"500,-135v104,0,200,-41,200,-135v0,-88,-66,-112,-138,-143v-72,-31,-219,-60,-286,-94v-100,-52,-163,-142,-138,-287v46,-263,472,-305,697,-166r-35,175v-79,-46,-171,-93,-295,-95v-123,-2,-220,56,-187,176v61,95,245,91,360,142v109,48,202,116,202,267v0,160,-108,252,-234,295v-189,64,-422,-1,-536,-90r50,-180v84,70,194,135,340,135","w":965},"t":{"d":"512,25v-190,0,-282,-98,-282,-295r0,-580r-200,0r0,-145r200,0r0,-325r185,0r0,325r325,0r0,145r-325,0r0,460v4,133,0,250,128,250v83,0,148,-37,217,-75r0,160v-74,49,-149,80,-248,80","w":835},"u":{"d":"865,-200v-102,121,-206,225,-390,225v-213,0,-320,-143,-320,-430v0,-211,11,-433,-20,-615r205,0r0,555v3,169,9,325,170,325v125,0,208,-103,272,-184v26,-32,45,-65,58,-96v-3,-206,10,-422,-20,-600r205,0v9,350,-34,765,65,1020r-170,0v-23,-58,-44,-128,-55,-200","w":1185},"v":{"d":"1050,-1020r-182,420r-238,600r-190,0r-295,-738r-125,-282r210,0r305,820r305,-820r210,0","w":1070},"w":{"d":"850,-1020r260,805r210,-805r185,0r-105,355r-185,665r-190,0r-250,-785r-250,785r-190,0r-258,-915r-32,-105r185,0r210,805r260,-805r150,0","w":1550},"x":{"d":"536,-376r-261,376r-225,0r158,-211r220,-317r-204,-285r-164,-207r230,0r260,361r245,-361r225,0r-156,208r-207,302r220,304r158,206r-230,0","w":1085},"y":{"d":"40,225v65,60,223,116,302,25v51,-59,89,-130,127,-224r-279,-691r-65,-153v-25,-57,-56,-124,-95,-202r200,0r323,817r287,-817r200,0r-118,282r-267,738v-58,160,-115,278,-203,378v-76,87,-223,115,-356,70v-40,-15,-79,-36,-116,-63","w":1060},"z":{"d":"290,-870v-56,1,-116,-1,-155,15r0,-165r795,0r0,95r-595,775r430,0v65,0,125,-1,180,-15r0,165r-840,0r0,-110r575,-760r-390,0","w":1040},"{":{"d":"223,-594v-25,-24,-13,-31,15,-55v48,-42,129,-86,172,-131v30,-187,23,-467,56,-655v19,-106,77,-114,158,-149v52,-23,121,-42,176,-56r40,140v-70,30,-160,53,-210,100v-44,176,-9,451,-40,655v-30,41,-94,72,-136,105v-31,24,-31,26,0,50v43,33,104,65,136,105v25,177,10,426,30,615v7,66,51,67,98,92v38,20,81,33,122,48r-40,140v-105,-30,-233,-63,-305,-125v-75,-159,-75,-456,-75,-675v0,-84,-29,-75,-74,-112v-38,-32,-89,-58,-123,-92","w":1000},"|":{"d":"420,-1600r0,1990r-150,0r0,-1990r150,0","w":690},"}":{"d":"762,-649v27,25,40,31,15,55v-54,52,-134,92,-187,144v-30,187,-23,467,-56,655v-19,106,-77,114,-158,149v-52,23,-121,42,-176,56r-40,-140v70,-30,160,-53,210,-100v44,-176,9,-451,40,-655v36,-46,102,-78,148,-115v30,-24,-13,-38,-27,-50v-37,-33,-90,-57,-121,-95v-25,-177,-6,-426,-30,-615v-7,-46,-9,-44,-42,-64v-51,-31,-118,-54,-178,-76r40,-140v105,30,233,63,305,125v75,159,56,457,75,675v7,76,6,63,52,96","w":1000},"~":{"d":"372,-622v-107,-35,-239,-16,-237,102r-120,0v3,-125,59,-224,143,-272v67,-39,130,-29,224,-10v129,26,290,113,451,119v77,3,104,-42,112,-112r120,0v-5,186,-111,319,-315,285v-137,-23,-255,-72,-378,-112","w":1080},"\u00c7":{"d":"760,-150v192,0,326,-87,430,-185r40,195v-111,98,-280,159,-480,165r0,70v157,-40,253,123,182,257v-40,75,-123,126,-232,128v-56,1,-96,-20,-135,-40r10,-100v70,54,236,37,235,-70v0,-51,-44,-90,-97,-90v-32,0,-68,13,-88,25r0,-190v-347,-64,-530,-320,-530,-725v0,-373,161,-614,421,-726v182,-78,439,-53,589,24v37,19,74,40,110,67r-60,180v-97,-85,-213,-150,-385,-150v-333,0,-480,237,-480,580v0,254,101,445,270,537v58,32,125,48,200,48","w":1355},"\u00d6":{"d":"507,-1640v-80,0,-127,-55,-127,-135v0,-80,47,-135,127,-135v80,0,128,55,128,135v0,80,-48,135,-128,135xm927,-1640v-80,0,-127,-55,-127,-135v0,-80,47,-135,127,-135v80,0,128,55,128,135v0,80,-48,135,-128,135xm1290,-1058v66,181,65,460,-4,640v-68,178,-183,316,-343,391v-147,69,-317,71,-465,3v-237,-109,-383,-347,-383,-696v0,-325,132,-540,327,-673v135,-92,364,-125,538,-43v155,73,267,205,330,378xm1113,-477v68,-223,20,-539,-85,-674v-70,-89,-164,-159,-308,-159v-225,0,-342,147,-398,330v-68,223,-19,536,86,670v71,90,165,160,312,160v222,0,337,-145,393,-327","w":1460},"\u00dc":{"d":"497,-1640v-80,0,-127,-55,-127,-135v0,-80,47,-135,127,-135v80,0,128,55,128,135v0,80,-48,135,-128,135xm917,-1640v-80,0,-127,-55,-127,-135v0,-80,47,-135,127,-135v80,0,128,55,128,135v0,80,-48,135,-128,135xm710,-135v258,0,340,-168,340,-425r0,-900r205,0v-28,265,-11,640,-15,945v-5,347,-179,540,-530,540v-353,0,-534,-192,-535,-540r-3,-771v-2,-76,-5,-134,-12,-174r205,0r0,900v-1,259,84,425,345,425","w":1440},"\u00e7":{"d":"925,-85v-91,71,-202,116,-365,109r0,71v157,-40,253,123,182,257v-40,75,-123,126,-232,128v-56,1,-96,-20,-135,-40r10,-100v70,54,236,37,235,-70v0,-51,-44,-90,-97,-90v-32,0,-68,13,-88,25r0,-201v-207,-64,-340,-228,-340,-494v0,-253,125,-422,305,-506v157,-74,407,-46,515,41r-35,180v-98,-78,-259,-138,-404,-75v-121,52,-191,175,-191,350v0,167,67,284,184,334v158,67,343,-2,436,-94","w":1020},"\u00f6":{"d":"360,-1210v-80,0,-127,-55,-127,-135v0,-80,47,-135,127,-135v80,0,128,55,128,135v0,80,-48,135,-128,135xm780,-1210v-80,0,-127,-55,-127,-135v0,-80,47,-135,127,-135v80,0,128,55,128,135v0,80,-48,135,-128,135xm860,-505v0,-214,-85,-375,-290,-375v-201,0,-290,164,-290,375v0,212,86,370,290,370v200,0,290,-160,290,-370xm129,-277v-45,-130,-46,-332,5,-457v72,-178,211,-306,446,-306v315,0,465,213,465,535v0,256,-116,420,-298,495v-114,47,-263,46,-375,0v-118,-48,-199,-140,-243,-267","w":1140},"\u00fc":{"d":"379,-1210v-80,0,-127,-55,-127,-135v0,-80,47,-135,127,-135v80,0,128,55,128,135v0,80,-48,135,-128,135xm799,-1210v-80,0,-127,-55,-127,-135v0,-80,47,-135,127,-135v80,0,128,55,128,135v0,80,-48,135,-128,135xm865,-200v-102,121,-206,225,-390,225v-213,0,-320,-143,-320,-430v0,-211,11,-433,-20,-615r205,0r0,555v3,169,9,325,170,325v125,0,208,-103,272,-184v26,-32,45,-65,58,-96v-3,-206,10,-422,-20,-600r205,0v9,350,-34,765,65,1020r-170,0v-23,-58,-44,-128,-55,-200","w":1185},"\u0152":{"d":"969,-300v138,-182,137,-657,3,-851v-63,-91,-150,-159,-292,-159v-212,0,-314,151,-362,330v-60,221,-20,531,77,670v63,90,148,160,285,160v137,0,225,-65,289,-150xm690,-1485v181,0,289,86,373,189r-13,-164r750,0r0,165r-545,0r0,450r470,0r0,160r-470,0r0,520r414,-2v67,-1,121,-6,161,-13r0,180r-780,0v8,-43,11,-111,13,-165v-94,99,-209,190,-393,190v-292,0,-450,-192,-529,-427v-62,-181,-60,-460,3,-640v62,-177,168,-316,321,-391v72,-35,147,-52,225,-52","w":1950},"\u0153":{"d":"950,-172v-78,116,-212,197,-390,197v-314,0,-465,-210,-465,-532v0,-257,116,-423,298,-498v58,-24,121,-35,187,-35v177,1,303,76,376,191v78,-113,202,-191,384,-191v319,0,429,225,414,555r-709,0v9,212,108,345,320,345v154,0,268,-34,375,-100r20,165v-118,60,-245,102,-420,100v-188,-2,-310,-82,-390,-197xm860,-507v0,-214,-86,-373,-290,-373v-250,0,-336,283,-269,529v34,124,117,216,269,216v199,0,290,-162,290,-372xm1575,-625v-3,-165,-88,-265,-250,-265v-167,0,-247,104,-272,265r522,0","w":1860},"\u0178":{"d":"440,-1640v-80,0,-127,-55,-127,-135v0,-80,47,-135,127,-135v80,0,128,55,128,135v0,80,-48,135,-128,135xm860,-1640v-80,0,-127,-55,-127,-135v0,-80,47,-135,127,-135v80,0,128,55,128,135v0,80,-48,135,-128,135xm540,0v23,-161,12,-409,15,-611r-379,-645v-42,-69,-93,-138,-141,-204r230,0r395,661r375,-661r230,0r-78,114r-117,188r-325,555r2,429v1,76,6,134,13,174r-220,0","w":1320},"\u0131":{"d":"355,-1020r1,658r10,261v2,41,6,74,9,101r-205,0r-2,-808v-1,-42,-3,-82,-5,-118v-2,-36,-5,-68,-8,-94r200,0","w":530},"\u0103":{"d":"990,-1550v-5,177,-94,301,-218,365v-90,46,-225,47,-314,0v-125,-64,-212,-187,-218,-365r120,0v15,109,74,195,162,230v182,73,320,-64,346,-230r122,0xm815,-830v-89,-37,-254,-56,-349,-7v-165,85,-232,426,-120,617v40,69,131,97,216,49v108,-62,199,-167,253,-284r0,-375xm380,-976v162,-105,456,-57,620,11v2,338,-21,736,75,965r-175,0v-26,-68,-52,-139,-65,-220v-95,112,-190,245,-380,245v-168,0,-269,-108,-319,-243v-67,-180,-16,-445,64,-567v51,-78,105,-143,180,-191","w":1150},"\u0101":{"d":"240,-1390r750,0r0,150r-750,0r0,-150xm815,-830v-89,-37,-254,-56,-349,-7v-165,85,-232,426,-120,617v40,69,131,97,216,49v108,-62,199,-167,253,-284r0,-375xm380,-976v162,-105,456,-57,620,11v2,338,-21,736,75,965r-175,0v-26,-68,-52,-139,-65,-220v-95,112,-190,245,-380,245v-168,0,-269,-108,-319,-243v-67,-180,-16,-445,64,-567v51,-78,105,-143,180,-191","w":1150},"\u0102":{"d":"1062,-1980v-5,177,-94,301,-218,365v-90,46,-225,47,-314,0v-125,-64,-212,-187,-218,-365r120,0v15,109,74,195,162,230v182,73,320,-64,346,-230r122,0xm433,-540r507,0r-255,-725xm994,-385r-615,0r-134,385r-205,0r94,-232r446,-1228r215,0r445,1228r95,232r-205,0","w":1395},"\u0100":{"d":"312,-1820r750,0r0,150r-750,0r0,-150xm433,-540r507,0r-255,-725xm994,-385r-615,0r-134,385r-205,0r94,-232r446,-1228r215,0r445,1228r95,232r-205,0","w":1395},"\u0107":{"d":"970,-1600r-420,430r-160,0r350,-430r230,0xm925,-85v-88,68,-189,112,-345,110v-233,-3,-376,-127,-447,-300v-50,-124,-50,-299,-1,-428v73,-193,225,-333,483,-337v131,-2,224,34,300,85r-35,180v-98,-78,-259,-138,-404,-75v-121,52,-191,175,-191,350v0,167,67,284,184,334v158,67,343,-2,436,-94","w":1020},"\u0109":{"d":"145,-1170r340,-430r170,0r340,430r-150,0r-275,-280r-275,280r-150,0xm925,-85v-88,68,-189,112,-345,110v-233,-3,-376,-127,-447,-300v-50,-124,-50,-299,-1,-428v73,-193,225,-333,483,-337v131,-2,224,34,300,85r-35,180v-98,-78,-259,-138,-404,-75v-121,52,-191,175,-191,350v0,167,67,284,184,334v158,67,343,-2,436,-94","w":1020},"\u010d":{"d":"295,-1600r275,280r275,-280r150,0r-340,430r-170,0r-340,-430r150,0xm925,-85v-88,68,-189,112,-345,110v-233,-3,-376,-127,-447,-300v-50,-124,-50,-299,-1,-428v73,-193,225,-333,483,-337v131,-2,224,34,300,85r-35,180v-98,-78,-259,-138,-404,-75v-121,52,-191,175,-191,350v0,167,67,284,184,334v158,67,343,-2,436,-94","w":1020},"\u010b":{"d":"570,-1210v-81,0,-135,-54,-135,-135v0,-81,54,-135,135,-135v81,0,135,54,135,135v0,81,-54,135,-135,135xm925,-85v-88,68,-189,112,-345,110v-233,-3,-376,-127,-447,-300v-50,-124,-50,-299,-1,-428v73,-193,225,-333,483,-337v131,-2,224,34,300,85r-35,180v-98,-78,-259,-138,-404,-75v-121,52,-191,175,-191,350v0,167,67,284,184,334v158,67,343,-2,436,-94","w":1020},"\u0106":{"d":"1150,-2030r-420,430r-160,0r350,-430r230,0xm760,-150v192,0,326,-87,430,-185r40,195v-153,146,-506,221,-753,114v-243,-105,-382,-339,-382,-684v0,-373,161,-614,421,-726v182,-78,439,-53,589,24v37,19,74,40,110,67r-60,180v-97,-85,-213,-150,-385,-150v-333,0,-480,237,-480,580v0,254,101,445,270,537v58,32,125,48,200,48","w":1355},"\u0108":{"d":"325,-1600r340,-430r170,0r340,430r-150,0r-275,-280r-275,280r-150,0xm760,-150v192,0,326,-87,430,-185r40,195v-153,146,-506,221,-753,114v-243,-105,-382,-339,-382,-684v0,-373,161,-614,421,-726v182,-78,439,-53,589,24v37,19,74,40,110,67r-60,180v-97,-85,-213,-150,-385,-150v-333,0,-480,237,-480,580v0,254,101,445,270,537v58,32,125,48,200,48","w":1355},"\u010c":{"d":"475,-2030r275,280r275,-280r150,0r-340,430r-170,0r-340,-430r150,0xm760,-150v192,0,326,-87,430,-185r40,195v-153,146,-506,221,-753,114v-243,-105,-382,-339,-382,-684v0,-373,161,-614,421,-726v182,-78,439,-53,589,24v37,19,74,40,110,67r-60,180v-97,-85,-213,-150,-385,-150v-333,0,-480,237,-480,580v0,254,101,445,270,537v58,32,125,48,200,48","w":1355},"\u010a":{"d":"750,-1640v-81,0,-135,-54,-135,-135v0,-81,54,-135,135,-135v81,0,135,54,135,135v0,81,-54,135,-135,135xm760,-150v192,0,326,-87,430,-185r40,195v-153,146,-506,221,-753,114v-243,-105,-382,-339,-382,-684v0,-373,161,-614,421,-726v182,-78,439,-53,589,24v37,19,74,40,110,67r-60,180v-97,-85,-213,-150,-385,-150v-333,0,-480,237,-480,580v0,254,101,445,270,537v58,32,125,48,200,48","w":1355},"\u20ac":{"d":"153,-675r4,-125r-137,0r40,-145r122,0v58,-223,191,-384,390,-459v152,-57,345,-28,453,38v30,18,63,39,97,64r-57,171v-87,-75,-165,-142,-319,-142v-220,0,-325,149,-380,328r490,0r-40,145r-475,0v-3,40,-4,84,-2,125r449,0r-40,145r-386,0v40,151,118,275,246,336v40,19,83,28,129,28v173,-4,269,-87,361,-176r38,185v-123,126,-392,208,-612,121v-198,-78,-316,-256,-358,-494r-146,0r40,-145r93,0"},"\u0111":{"d":"845,-795v-94,-55,-250,-111,-374,-49v-113,56,-181,182,-181,354v0,211,56,355,250,355v121,0,194,-89,251,-167v23,-31,40,-65,54,-98r0,-395xm580,-1040v108,0,191,46,265,85r0,-220r-280,0r0,-135r279,0v-3,-110,-6,-205,-24,-290r210,0r0,290r160,0r0,135r-160,0v9,400,-36,891,75,1175r-180,0v-18,-45,-42,-126,-55,-185v-84,117,-189,210,-365,210v-207,0,-319,-122,-372,-285v-42,-130,-35,-316,9,-440v67,-190,198,-340,438,-340","w":1190},"\u010e":{"d":"440,-2030r275,280r275,-280r150,0r-340,430r-170,0r-340,-430r150,0xm160,0v19,-132,15,-301,15,-455r-1,-819v-1,-40,-3,-76,-5,-108v-2,-32,-5,-58,-9,-78r455,-10v458,13,700,260,700,730v0,430,-210,667,-565,736v-185,36,-387,5,-590,4xm590,-1310r-225,5r0,1140v23,2,53,5,91,7v139,10,289,-2,386,-52v172,-88,278,-249,278,-510v0,-377,-168,-585,-530,-590","w":1435},"\u0110":{"d":"160,0v25,-203,12,-458,15,-690r-175,0r0,-145r175,0r-1,-439v-1,-40,-3,-76,-5,-108v-2,-32,-5,-58,-9,-78r455,-10v458,13,700,260,700,730v0,430,-210,667,-565,736v-185,36,-387,5,-590,4xm590,-1310r-225,5r0,470r380,0r0,145r-380,0r0,525v23,2,53,5,91,7v139,10,289,-2,386,-52v172,-88,278,-249,278,-510v0,-377,-168,-585,-530,-590","w":1435},"\u0115":{"d":"944,-1550v-5,177,-94,301,-218,365v-90,46,-225,47,-314,0v-125,-64,-212,-187,-218,-365r120,0v15,109,74,195,162,230v182,73,320,-64,346,-230r122,0xm995,-75v-151,82,-403,144,-603,67v-181,-70,-297,-234,-297,-487v0,-254,102,-428,280,-507v59,-26,126,-38,200,-38v319,2,429,225,414,555r-709,0v9,212,108,345,320,345v154,0,268,-34,375,-100xm810,-625v-3,-165,-88,-265,-250,-265v-167,0,-247,104,-272,265r522,0","w":1095},"\u011b":{"d":"294,-1600r275,280r275,-280r150,0r-340,430r-170,0r-340,-430r150,0xm995,-75v-151,82,-403,144,-603,67v-181,-70,-297,-234,-297,-487v0,-254,102,-428,280,-507v59,-26,126,-38,200,-38v319,2,429,225,414,555r-709,0v9,212,108,345,320,345v154,0,268,-34,375,-100xm810,-625v-3,-165,-88,-265,-250,-265v-167,0,-247,104,-272,265r522,0","w":1095},"\u0113":{"d":"194,-1390r750,0r0,150r-750,0r0,-150xm995,-75v-151,82,-403,144,-603,67v-181,-70,-297,-234,-297,-487v0,-254,102,-428,280,-507v59,-26,126,-38,200,-38v319,2,429,225,414,555r-709,0v9,212,108,345,320,345v154,0,268,-34,375,-100xm810,-625v-3,-165,-88,-265,-250,-265v-167,0,-247,104,-272,265r522,0","w":1095},"\u0117":{"d":"569,-1210v-81,0,-135,-54,-135,-135v0,-81,54,-135,135,-135v81,0,135,54,135,135v0,81,-54,135,-135,135xm995,-75v-151,82,-403,144,-603,67v-181,-70,-297,-234,-297,-487v0,-254,102,-428,280,-507v59,-26,126,-38,200,-38v319,2,429,225,414,555r-709,0v9,212,108,345,320,345v154,0,268,-34,375,-100xm810,-625v-3,-165,-88,-265,-250,-265v-167,0,-247,104,-272,265r522,0","w":1095},"\u0114":{"d":"975,-1980v-5,177,-95,301,-219,365v-90,46,-225,47,-314,0v-125,-64,-211,-187,-217,-365r120,0v15,109,75,195,163,230v182,73,319,-64,345,-230r122,0xm160,0v31,-291,15,-694,15,-1025v0,-99,-1,-185,-2,-261v-1,-76,-6,-134,-13,-174r850,0r0,165r-645,0r0,450r570,0r0,160r-570,0r0,520r514,-2v67,-1,121,-6,161,-13r0,180r-880,0","w":1160},"\u011a":{"d":"325,-2030r275,280r275,-280r150,0r-340,430r-170,0r-340,-430r150,0xm160,0v31,-291,15,-694,15,-1025v0,-99,-1,-185,-2,-261v-1,-76,-6,-134,-13,-174r850,0r0,165r-645,0r0,450r570,0r0,160r-570,0r0,520r514,-2v67,-1,121,-6,161,-13r0,180r-880,0","w":1160},"\u0112":{"d":"225,-1820r750,0r0,150r-750,0r0,-150xm160,0v31,-291,15,-694,15,-1025v0,-99,-1,-185,-2,-261v-1,-76,-6,-134,-13,-174r850,0r0,165r-645,0r0,450r570,0r0,160r-570,0r0,520r514,-2v67,-1,121,-6,161,-13r0,180r-880,0","w":1160},"\u0116":{"d":"600,-1640v-81,0,-135,-54,-135,-135v0,-81,54,-135,135,-135v81,0,135,54,135,135v0,81,-54,135,-135,135xm160,0v31,-291,15,-694,15,-1025v0,-99,-1,-185,-2,-261v-1,-76,-6,-134,-13,-174r850,0r0,165r-645,0r0,450r570,0r0,160r-570,0r0,520r514,-2v67,-1,121,-6,161,-13r0,180r-880,0","w":1160},"\u011d":{"d":"170,-1170r340,-430r170,0r340,430r-150,0r-275,-280r-275,280r-150,0xm805,-830v-95,-36,-256,-61,-350,-6v-107,63,-165,188,-165,351v0,175,29,320,190,320v162,0,253,-118,325,-230r0,-435xm460,5v-247,0,-355,-178,-355,-440v0,-264,105,-456,285,-553v138,-75,371,-54,514,-4r86,27r0,940v-1,246,-105,401,-282,467v-193,72,-408,-7,-528,-92r65,-155v82,56,169,115,290,115v170,0,269,-114,270,-300r0,-185v-81,98,-180,180,-345,180","w":1125},"\u011f":{"d":"970,-1550v-5,177,-94,301,-218,365v-90,46,-225,47,-314,0v-125,-64,-212,-187,-218,-365r120,0v15,109,74,195,162,230v182,73,320,-64,346,-230r122,0xm805,-830v-95,-36,-256,-61,-350,-6v-107,63,-165,188,-165,351v0,175,29,320,190,320v162,0,253,-118,325,-230r0,-435xm460,5v-247,0,-355,-178,-355,-440v0,-264,105,-456,285,-553v138,-75,371,-54,514,-4r86,27r0,940v-1,246,-105,401,-282,467v-193,72,-408,-7,-528,-92r65,-155v82,56,169,115,290,115v170,0,269,-114,270,-300r0,-185v-81,98,-180,180,-345,180","w":1125},"\u0121":{"d":"595,-1210v-81,0,-135,-54,-135,-135v0,-81,54,-135,135,-135v81,0,135,54,135,135v0,81,-54,135,-135,135xm805,-830v-95,-36,-256,-61,-350,-6v-107,63,-165,188,-165,351v0,175,29,320,190,320v162,0,253,-118,325,-230r0,-435xm460,5v-247,0,-355,-178,-355,-440v0,-264,105,-456,285,-553v138,-75,371,-54,514,-4r86,27r0,940v-1,246,-105,401,-282,467v-193,72,-408,-7,-528,-92r65,-155v82,56,169,115,290,115v170,0,269,-114,270,-300r0,-185v-81,98,-180,180,-345,180","w":1125},"\u011c":{"d":"320,-1600r340,-430r170,0r340,430r-150,0r-275,-280r-275,280r-150,0xm757,-150v144,1,235,-39,328,-95r0,-335r-350,0r0,-165r540,0r0,590v-148,102,-292,180,-530,180v-325,0,-512,-176,-601,-427v-65,-181,-65,-461,4,-640v110,-285,351,-478,754,-438v148,15,254,65,358,135r-65,180v-109,-87,-225,-150,-412,-150v-335,0,-493,229,-493,570v0,270,93,465,274,554v58,27,122,41,193,41","w":1420},"\u011e":{"d":"1120,-1980v-5,177,-94,301,-218,365v-90,46,-225,47,-314,0v-125,-64,-212,-187,-218,-365r120,0v15,109,74,195,162,230v182,73,320,-64,346,-230r122,0xm757,-150v144,1,235,-39,328,-95r0,-335r-350,0r0,-165r540,0r0,590v-148,102,-292,180,-530,180v-325,0,-512,-176,-601,-427v-65,-181,-65,-461,4,-640v110,-285,351,-478,754,-438v148,15,254,65,358,135r-65,180v-109,-87,-225,-150,-412,-150v-335,0,-493,229,-493,570v0,270,93,465,274,554v58,27,122,41,193,41","w":1420},"\u0120":{"d":"745,-1640v-81,0,-135,-54,-135,-135v0,-81,54,-135,135,-135v81,0,135,54,135,135v0,81,-54,135,-135,135xm757,-150v144,1,235,-39,328,-95r0,-335r-350,0r0,-165r540,0r0,590v-148,102,-292,180,-530,180v-325,0,-512,-176,-601,-427v-65,-181,-65,-461,4,-640v110,-285,351,-478,754,-438v148,15,254,65,358,135r-65,180v-109,-87,-225,-150,-412,-150v-335,0,-493,229,-493,570v0,270,93,465,274,554v58,27,122,41,193,41","w":1420},"\u0125":{"d":"160,-1705r340,-430r170,0r340,430r-150,0r-275,-280r-275,280r-150,0xm330,-830v82,-119,207,-210,380,-210v232,0,330,163,330,415r0,625r-185,0r0,-550v-1,-181,-25,-320,-200,-315v-135,4,-216,95,-276,183v-23,34,-38,68,-49,102r0,580r-185,0r-2,-1414v-1,-81,-6,-143,-13,-186r200,0r0,770","w":1175},"\u0124":{"d":"300,-1600r340,-430r170,0r340,430r-150,0r-275,-280r-275,280r-150,0xm1290,-1460v-31,291,-15,694,-15,1025v0,99,1,185,2,261v1,76,6,134,13,174r-205,0r0,-675r-720,0r0,675r-205,0v31,-291,15,-694,15,-1025v0,-99,-1,-185,-2,-261v-1,-76,-6,-134,-13,-174r205,0r0,625r720,0r0,-625r205,0","w":1475},"\u012d":{"d":"355,-1020r1,658r10,261v2,41,6,74,9,101r-205,0r-2,-808v-1,-42,-3,-82,-5,-118v-2,-36,-5,-68,-8,-94r200,0xm640,-1550v-5,177,-94,301,-218,365v-90,46,-225,47,-314,0v-125,-64,-212,-187,-218,-365r120,0v15,109,74,195,162,230v182,73,320,-64,346,-230r122,0","w":530},"\u0129":{"d":"355,-1020r1,658r10,261v2,41,6,74,9,101r-205,0r-2,-808v-1,-42,-3,-82,-5,-118v-2,-36,-5,-68,-8,-94r200,0xm101,-1290v-51,-3,-80,38,-85,85r-105,0v2,-104,41,-192,111,-228v148,-77,257,70,409,78v48,3,79,-42,85,-85r105,0v-6,137,-64,250,-198,250v-125,0,-209,-94,-322,-100","w":530},"\u012b":{"d":"0,-1390r530,0r0,150r-530,0r0,-150xm355,-1020r1,658r10,261v2,41,6,74,9,101r-205,0r-2,-808v-1,-42,-3,-82,-5,-118v-2,-36,-5,-68,-8,-94r200,0","w":530},"\u0133":{"d":"280,-1210v-80,0,-125,-55,-125,-135v0,-80,45,-135,125,-135v81,0,130,55,130,135v0,80,-49,135,-130,135xm375,-1020r1,658r10,261v2,41,6,74,9,101r-205,0r-2,-808v-1,-42,-3,-82,-5,-118v-2,-36,-5,-68,-8,-94r200,0xm875,-1210v-80,0,-125,-55,-125,-135v0,-80,45,-135,125,-135v81,0,130,55,130,135v0,80,-49,135,-130,135xm605,300v143,0,180,-122,180,-275r-2,-833v-1,-42,-3,-82,-5,-118v-2,-36,-5,-68,-8,-94r200,0r0,995v5,315,-111,524,-425,491v-63,-7,-126,-31,-170,-61r35,-165v48,32,119,60,195,60","w":1160},"\u012c":{"d":"852,-1980v-5,177,-94,301,-218,365v-90,46,-225,47,-314,0v-125,-64,-212,-187,-218,-365r120,0v15,109,74,195,162,230v182,73,320,-64,346,-230r122,0xm815,-1460r0,145r-245,0r0,1170r245,0r0,145r-675,0r0,-145r240,0r0,-1170r-240,0r0,-145r675,0","w":975},"\u0128":{"d":"312,-1720v-51,-3,-80,38,-85,85r-105,0v2,-104,42,-192,112,-228v148,-77,256,70,408,78v48,3,79,-42,85,-85r105,0v-6,137,-64,250,-198,250v-125,0,-209,-94,-322,-100xm815,-1460r0,145r-245,0r0,1170r245,0r0,145r-675,0r0,-145r240,0r0,-1170r-240,0r0,-145r675,0","w":975},"\u012a":{"d":"212,-1820r530,0r0,150r-530,0r0,-150xm815,-1460r0,145r-245,0r0,1170r245,0r0,145r-675,0r0,-145r240,0r0,-1170r-240,0r0,-145r675,0","w":975},"\u0130":{"d":"477,-1640v-81,0,-135,-54,-135,-135v0,-81,54,-135,135,-135v81,0,135,54,135,135v0,81,-54,135,-135,135xm815,-1460r0,145r-245,0r0,1170r245,0r0,145r-675,0r0,-145r240,0r0,-1170r-240,0r0,-145r675,0","w":975},"\u0132":{"d":"815,-1460r0,145r-245,0r0,1170r245,0r0,145r-675,0r0,-145r240,0r0,-1170r-240,0r0,-145r675,0xm1755,-535v5,364,-146,599,-514,553v-94,-12,-179,-50,-231,-108r45,-185v60,66,141,120,260,120v183,0,251,-138,250,-330r-2,-769v-1,-41,-3,-79,-5,-114v-2,-35,-5,-65,-8,-92r205,0r0,925","w":1940},"\u013a":{"d":"682,-2135r-420,430r-160,0r350,-430r230,0xm375,-1600r1,1238r10,260v2,41,6,75,9,102r-205,0r0,-1130v0,-97,-2,-185,-5,-264v-3,-79,-8,-148,-15,-206r205,0","w":565},"\u0142":{"d":"525,-762r1,400r10,260v2,41,6,75,9,102r-205,0r0,-634r-180,124r-60,-145r240,-166r0,-309v0,-97,-2,-185,-5,-264v-3,-79,-8,-148,-15,-206r205,0r0,651r175,-121r60,145","w":860},"\u0139":{"d":"992,-2030r-420,430r-160,0r350,-430r230,0xm160,0v31,-291,15,-694,15,-1025v0,-99,-1,-185,-2,-261v-1,-76,-6,-134,-13,-174r205,0r0,1295r486,-3v37,-1,71,-2,100,-4v29,-2,54,-5,74,-8r0,180r-865,0","w":1080},"\u0141":{"d":"210,0v22,-147,13,-374,15,-562r-115,72r-60,-145r175,-109r-2,-542v-1,-76,-6,-134,-13,-174r205,0r0,597r315,-197r60,145r-375,235r0,515r486,-3v37,-1,71,-2,100,-4v29,-2,54,-5,74,-8r0,180r-865,0","w":1130},"\u0144":{"d":"999,-1600r-420,430r-160,0r350,-430r230,0xm324,-825v106,-125,207,-215,395,-215v232,0,330,163,330,415r0,625r-185,0r0,-550v-2,-181,-24,-320,-200,-315v-135,4,-216,95,-276,183v-23,34,-38,68,-49,102r0,580r-185,0v-8,-339,29,-764,-50,-1020r180,0v19,55,28,131,40,195","w":1185},"\u0148":{"d":"324,-1600r275,280r275,-280r150,0r-340,430r-170,0r-340,-430r150,0xm324,-825v106,-125,207,-215,395,-215v232,0,330,163,330,415r0,625r-185,0r0,-550v-2,-181,-24,-320,-200,-315v-135,4,-216,95,-276,183v-23,34,-38,68,-49,102r0,580r-185,0v-8,-339,29,-764,-50,-1020r180,0v19,55,28,131,40,195","w":1185},"\u014b":{"d":"720,-1040v265,0,330,205,330,480r0,450v-2,339,-81,580,-405,580v-69,0,-143,-25,-190,-55r65,-150v29,22,88,41,140,40v182,-3,205,-157,205,-350r0,-440v0,-134,-10,-235,-50,-311v-41,-78,-168,-87,-255,-44v-102,51,-181,148,-220,260r0,580r-185,0v-7,-340,28,-764,-50,-1020r180,0v19,55,28,131,40,195v107,-124,208,-215,395,-215","w":1185},"\u0143":{"d":"1137,-2030r-420,430r-160,0r350,-430r230,0xm1315,-1460v-18,128,-15,285,-15,435r0,1025r-165,0r-795,-1152r0,1152r-180,0v31,-291,15,-694,15,-1025v0,-99,-1,-185,-2,-261v-1,-76,-6,-134,-13,-174r180,0r795,1157r0,-1157r180,0","w":1500},"\u0147":{"d":"462,-2030r275,280r275,-280r150,0r-340,430r-170,0r-340,-430r150,0xm1315,-1460v-18,128,-15,285,-15,435r0,1025r-165,0r-795,-1152r0,1152r-180,0v31,-291,15,-694,15,-1025v0,-99,-1,-185,-2,-261v-1,-76,-6,-134,-13,-174r180,0r795,1157r0,-1157r180,0","w":1500},"\u014a":{"d":"715,265v52,35,169,53,233,13v98,-60,137,-191,137,-358r0,-705v-5,-267,-9,-500,-270,-500v-124,0,-198,78,-263,150v-72,79,-128,182,-162,295r0,840r-205,0v29,-244,11,-595,15,-880v3,-216,-22,-412,-65,-575r185,0v22,79,37,186,50,275v123,-157,252,-305,510,-305v309,0,395,268,395,593r0,747v-4,349,-98,615,-430,615v-78,0,-145,-22,-195,-50","w":1466},"\u0151":{"d":"710,-1600r-310,450r-140,0r240,-450r210,0xm1050,-1600r-310,450r-140,0r240,-450r210,0xm860,-505v0,-214,-85,-375,-290,-375v-201,0,-290,164,-290,375v0,212,86,370,290,370v200,0,290,-160,290,-370xm129,-277v-45,-130,-46,-332,5,-457v72,-178,211,-306,446,-306v315,0,465,213,465,535v0,256,-116,420,-298,495v-114,47,-263,46,-375,0v-118,-48,-199,-140,-243,-267","w":1140},"\u014f":{"d":"945,-1550v-5,177,-95,301,-219,365v-90,46,-225,47,-314,0v-125,-64,-211,-187,-217,-365r120,0v15,109,75,195,163,230v182,73,319,-64,345,-230r122,0xm860,-505v0,-214,-85,-375,-290,-375v-201,0,-290,164,-290,375v0,212,86,370,290,370v200,0,290,-160,290,-370xm129,-277v-45,-130,-46,-332,5,-457v72,-178,211,-306,446,-306v315,0,465,213,465,535v0,256,-116,420,-298,495v-114,47,-263,46,-375,0v-118,-48,-199,-140,-243,-267","w":1140},"\u014d":{"d":"195,-1390r750,0r0,150r-750,0r0,-150xm860,-505v0,-214,-85,-375,-290,-375v-201,0,-290,164,-290,375v0,212,86,370,290,370v200,0,290,-160,290,-370xm129,-277v-45,-130,-46,-332,5,-457v72,-178,211,-306,446,-306v315,0,465,213,465,535v0,256,-116,420,-298,495v-114,47,-263,46,-375,0v-118,-48,-199,-140,-243,-267","w":1140},"\u0150":{"d":"857,-2030r-310,450r-140,0r240,-450r210,0xm1197,-2030r-310,450r-140,0r240,-450r210,0xm1290,-1058v66,181,65,460,-4,640v-68,178,-183,316,-343,391v-147,69,-317,71,-465,3v-237,-109,-383,-347,-383,-696v0,-325,132,-540,327,-673v135,-92,364,-125,538,-43v155,73,267,205,330,378xm1113,-477v68,-223,20,-539,-85,-674v-70,-89,-164,-159,-308,-159v-225,0,-342,147,-398,330v-68,223,-19,536,86,670v71,90,165,160,312,160v222,0,337,-145,393,-327","w":1460},"\u014e":{"d":"1092,-1980v-5,177,-94,301,-218,365v-90,46,-225,47,-314,0v-125,-64,-212,-187,-218,-365r120,0v15,109,74,195,162,230v182,73,320,-64,346,-230r122,0xm1290,-1058v66,181,65,460,-4,640v-68,178,-183,316,-343,391v-147,69,-317,71,-465,3v-237,-109,-383,-347,-383,-696v0,-325,132,-540,327,-673v135,-92,364,-125,538,-43v155,73,267,205,330,378xm1113,-477v68,-223,20,-539,-85,-674v-70,-89,-164,-159,-308,-159v-225,0,-342,147,-398,330v-68,223,-19,536,86,670v71,90,165,160,312,160v222,0,337,-145,393,-327","w":1460},"\u014c":{"d":"342,-1820r750,0r0,150r-750,0r0,-150xm1290,-1058v66,181,65,460,-4,640v-68,178,-183,316,-343,391v-147,69,-317,71,-465,3v-237,-109,-383,-347,-383,-696v0,-325,132,-540,327,-673v135,-92,364,-125,538,-43v155,73,267,205,330,378xm1113,-477v68,-223,20,-539,-85,-674v-70,-89,-164,-159,-308,-159v-225,0,-342,147,-398,330v-68,223,-19,536,86,670v71,90,165,160,312,160v222,0,337,-145,393,-327","w":1460},"\u0155":{"d":"855,-1600r-420,430r-160,0r350,-430r230,0xm556,-719v-125,178,-264,431,-196,719r-205,0v-8,-339,29,-764,-50,-1020r180,0v46,119,51,292,50,460v57,-157,113,-280,197,-381v62,-75,146,-115,268,-92v21,5,43,12,65,23r-30,185v-64,-26,-135,-31,-191,15v-29,24,-61,52,-88,91","w":890},"\u0159":{"d":"180,-1600r275,280r275,-280r150,0r-340,430r-170,0r-340,-430r150,0xm556,-719v-125,178,-264,431,-196,719r-205,0v-8,-339,29,-764,-50,-1020r180,0v46,119,51,292,50,460v57,-157,113,-280,197,-381v62,-75,146,-115,268,-92v21,5,43,12,65,23r-30,185v-64,-26,-135,-31,-191,15v-29,24,-61,52,-88,91","w":890},"\u0154":{"d":"1010,-2030r-420,430r-160,0r350,-430r230,0xm1090,-1060v-2,239,-145,358,-329,415r361,488r123,157r-255,0r-422,-625r-203,0r3,452v1,37,2,71,4,100v2,29,5,54,8,73r-220,0v18,-114,15,-279,15,-435r-1,-839v-1,-40,-3,-76,-5,-108v-2,-32,-5,-58,-9,-78r243,-8v374,-20,690,49,687,408xm555,-1310r-190,5r0,525r190,0v205,2,345,-80,345,-265v0,-201,-138,-265,-345,-265","w":1305},"\u0158":{"d":"335,-2030r275,280r275,-280r150,0r-340,430r-170,0r-340,-430r150,0xm1090,-1060v-2,239,-145,358,-329,415r361,488r123,157r-255,0r-422,-625r-203,0r3,452v1,37,2,71,4,100v2,29,5,54,8,73r-220,0v18,-114,15,-279,15,-435r-1,-839v-1,-40,-3,-76,-5,-108v-2,-32,-5,-58,-9,-78r243,-8v374,-20,690,49,687,408xm555,-1310r-190,5r0,525r190,0v205,2,345,-80,345,-265v0,-201,-138,-265,-345,-265","w":1305},"\u015b":{"d":"895,-1600r-420,430r-160,0r350,-430r230,0xm500,-135v104,0,200,-41,200,-135v0,-88,-66,-112,-138,-143v-72,-31,-219,-60,-286,-94v-100,-52,-163,-142,-138,-287v46,-263,472,-305,697,-166r-35,175v-79,-46,-171,-93,-295,-95v-123,-2,-220,56,-187,176v61,95,245,91,360,142v109,48,202,116,202,267v0,160,-108,252,-234,295v-189,64,-422,-1,-536,-90r50,-180v84,70,194,135,340,135","w":965},"\u015d":{"d":"70,-1170r340,-430r170,0r340,430r-150,0r-275,-280r-275,280r-150,0xm500,-135v104,0,200,-41,200,-135v0,-88,-66,-112,-138,-143v-72,-31,-219,-60,-286,-94v-100,-52,-163,-142,-138,-287v46,-263,472,-305,697,-166r-35,175v-79,-46,-171,-93,-295,-95v-123,-2,-220,56,-187,176v61,95,245,91,360,142v109,48,202,116,202,267v0,160,-108,252,-234,295v-189,64,-422,-1,-536,-90r50,-180v84,70,194,135,340,135","w":965},"\u0161":{"d":"220,-1600r275,280r275,-280r150,0r-340,430r-170,0r-340,-430r150,0xm500,-135v104,0,200,-41,200,-135v0,-88,-66,-112,-138,-143v-72,-31,-219,-60,-286,-94v-100,-52,-163,-142,-138,-287v46,-263,472,-305,697,-166r-35,175v-79,-46,-171,-93,-295,-95v-123,-2,-220,56,-187,176v61,95,245,91,360,142v109,48,202,116,202,267v0,160,-108,252,-234,295v-189,64,-422,-1,-536,-90r50,-180v84,70,194,135,340,135","w":965},"\u015a":{"d":"980,-2030r-420,430r-160,0r350,-430r230,0xm140,-315v114,100,241,165,425,165v134,0,235,-56,284,-146v28,-50,36,-125,13,-184v-26,-66,-84,-99,-159,-136v-92,-46,-291,-94,-379,-146v-114,-68,-189,-149,-189,-318v0,-184,113,-304,256,-366v183,-78,471,-29,609,51r-40,195v-124,-71,-293,-146,-474,-92v-105,31,-196,137,-150,272v21,61,77,89,147,120v88,41,257,80,347,128v130,70,235,158,235,347v0,225,-136,357,-307,417v-229,80,-523,7,-663,-102","w":1175},"\u015c":{"d":"155,-1600r340,-430r170,0r340,430r-150,0r-275,-280r-275,280r-150,0xm140,-315v114,100,241,165,425,165v134,0,235,-56,284,-146v28,-50,36,-125,13,-184v-26,-66,-84,-99,-159,-136v-92,-46,-291,-94,-379,-146v-114,-68,-189,-149,-189,-318v0,-184,113,-304,256,-366v183,-78,471,-29,609,51r-40,195v-124,-71,-293,-146,-474,-92v-105,31,-196,137,-150,272v21,61,77,89,147,120v88,41,257,80,347,128v130,70,235,158,235,347v0,225,-136,357,-307,417v-229,80,-523,7,-663,-102","w":1175},"\u0160":{"d":"305,-2030r275,280r275,-280r150,0r-340,430r-170,0r-340,-430r150,0xm140,-315v114,100,241,165,425,165v134,0,235,-56,284,-146v28,-50,36,-125,13,-184v-26,-66,-84,-99,-159,-136v-92,-46,-291,-94,-379,-146v-114,-68,-189,-149,-189,-318v0,-184,113,-304,256,-366v183,-78,471,-29,609,51r-40,195v-124,-71,-293,-146,-474,-92v-105,31,-196,137,-150,272v21,61,77,89,147,120v88,41,257,80,347,128v130,70,235,158,235,347v0,225,-136,357,-307,417v-229,80,-523,7,-663,-102","w":1175},"\u0164":{"d":"347,-2030r275,280r275,-280r150,0r-340,430r-170,0r-340,-430r150,0xm525,-1295v-166,3,-341,-11,-480,20r0,-185r1155,0r0,185v-141,-31,-317,-17,-485,-20r0,860v1,159,-2,320,20,435r-230,0v22,-113,20,-278,20,-435r0,-860","w":1265},"\u0171":{"d":"729,-1600r-310,450r-140,0r240,-450r210,0xm1069,-1600r-310,450r-140,0r240,-450r210,0xm865,-200v-102,121,-206,225,-390,225v-213,0,-320,-143,-320,-430v0,-211,11,-433,-20,-615r205,0r0,555v3,169,9,325,170,325v125,0,208,-103,272,-184v26,-32,45,-65,58,-96v-3,-206,10,-422,-20,-600r205,0v9,350,-34,765,65,1020r-170,0v-23,-58,-44,-128,-55,-200","w":1185},"\u016d":{"d":"964,-1550v-5,177,-94,301,-218,365v-90,46,-225,47,-314,0v-125,-64,-212,-187,-218,-365r120,0v15,109,74,195,162,230v182,73,320,-64,346,-230r122,0xm865,-200v-102,121,-206,225,-390,225v-213,0,-320,-143,-320,-430v0,-211,11,-433,-20,-615r205,0r0,555v3,169,9,325,170,325v125,0,208,-103,272,-184v26,-32,45,-65,58,-96v-3,-206,10,-422,-20,-600r205,0v9,350,-34,765,65,1020r-170,0v-23,-58,-44,-128,-55,-200","w":1185},"\u0169":{"d":"424,-1290v-51,-3,-80,38,-85,85r-105,0v2,-104,42,-192,112,-228v148,-77,256,70,408,78v48,3,79,-42,85,-85r105,0v-6,137,-64,250,-198,250v-125,0,-209,-94,-322,-100xm865,-200v-102,121,-206,225,-390,225v-213,0,-320,-143,-320,-430v0,-211,11,-433,-20,-615r205,0r0,555v3,169,9,325,170,325v125,0,208,-103,272,-184v26,-32,45,-65,58,-96v-3,-206,10,-422,-20,-600r205,0v9,350,-34,765,65,1020r-170,0v-23,-58,-44,-128,-55,-200","w":1185},"\u016b":{"d":"214,-1390r750,0r0,150r-750,0r0,-150xm865,-200v-102,121,-206,225,-390,225v-213,0,-320,-143,-320,-430v0,-211,11,-433,-20,-615r205,0r0,555v3,169,9,325,170,325v125,0,208,-103,272,-184v26,-32,45,-65,58,-96v-3,-206,10,-422,-20,-600r205,0v9,350,-34,765,65,1020r-170,0v-23,-58,-44,-128,-55,-200","w":1185},"\u016f":{"d":"673,-1186v-190,70,-351,-99,-283,-283v34,-95,160,-162,283,-115v94,36,164,161,115,283v-21,52,-62,96,-115,115xm589,-1285v59,0,100,-41,100,-100v0,-59,-41,-100,-100,-100v-59,0,-100,41,-100,100v0,59,41,100,100,100xm865,-200v-102,121,-206,225,-390,225v-213,0,-320,-143,-320,-430v0,-211,11,-433,-20,-615r205,0r0,555v3,169,9,325,170,325v125,0,208,-103,272,-184v26,-32,45,-65,58,-96v-3,-206,10,-422,-20,-600r205,0v9,350,-34,765,65,1020r-170,0v-23,-58,-44,-128,-55,-200","w":1185},"\u0170":{"d":"847,-2030r-310,450r-140,0r240,-450r210,0xm1187,-2030r-310,450r-140,0r240,-450r210,0xm710,-135v258,0,340,-168,340,-425r0,-900r205,0v-28,265,-11,640,-15,945v-5,347,-179,540,-530,540v-353,0,-534,-192,-535,-540r-3,-771v-2,-76,-5,-134,-12,-174r205,0r0,900v-1,259,84,425,345,425","w":1440},"\u016c":{"d":"1082,-1980v-5,177,-94,301,-218,365v-90,46,-225,47,-314,0v-125,-64,-212,-187,-218,-365r120,0v15,109,74,195,162,230v182,73,320,-64,346,-230r122,0xm710,-135v258,0,340,-168,340,-425r0,-900r205,0v-28,265,-11,640,-15,945v-5,347,-179,540,-530,540v-353,0,-534,-192,-535,-540r-3,-771v-2,-76,-5,-134,-12,-174r205,0r0,900v-1,259,84,425,345,425","w":1440},"\u0168":{"d":"542,-1720v-51,-3,-80,38,-85,85r-105,0v2,-104,42,-192,112,-228v148,-77,256,70,408,78v48,3,79,-42,85,-85r105,0v-6,137,-64,250,-198,250v-125,0,-209,-94,-322,-100xm710,-135v258,0,340,-168,340,-425r0,-900r205,0v-28,265,-11,640,-15,945v-5,347,-179,540,-530,540v-353,0,-534,-192,-535,-540r-3,-771v-2,-76,-5,-134,-12,-174r205,0r0,900v-1,259,84,425,345,425","w":1440},"\u016a":{"d":"332,-1820r750,0r0,150r-750,0r0,-150xm710,-135v258,0,340,-168,340,-425r0,-900r205,0v-28,265,-11,640,-15,945v-5,347,-179,540,-530,540v-353,0,-534,-192,-535,-540r-3,-771v-2,-76,-5,-134,-12,-174r205,0r0,900v-1,259,84,425,345,425","w":1440},"\u016e":{"d":"791,-1616v-190,70,-351,-99,-283,-283v34,-95,160,-162,283,-115v94,36,164,161,115,283v-21,52,-62,96,-115,115xm707,-1715v59,0,100,-41,100,-100v0,-59,-41,-100,-100,-100v-59,0,-100,41,-100,100v0,59,41,100,100,100xm710,-135v258,0,340,-168,340,-425r0,-900r205,0v-28,265,-11,640,-15,945v-5,347,-179,540,-530,540v-353,0,-534,-192,-535,-540r-3,-771v-2,-76,-5,-134,-12,-174r205,0r0,900v-1,259,84,425,345,425","w":1440},"\u0175":{"d":"350,-1170r340,-430r170,0r340,430r-150,0r-275,-280r-275,280r-150,0xm850,-1020r260,805r210,-805r185,0r-105,355r-185,665r-190,0r-250,-785r-250,785r-190,0r-258,-915r-32,-105r185,0r210,805r260,-805r150,0","w":1550},"\u0174":{"d":"602,-1600r340,-430r170,0r340,430r-150,0r-275,-280r-275,280r-150,0xm1484,-186r311,-1274r220,0r-49,140r-66,225r-305,1095r-225,0r-343,-1176r-342,1176r-225,0r-370,-1320r-50,-140r220,0r316,1274r359,-1274r185,0","w":2080},"\u0177":{"d":"110,-1170r340,-430r170,0r340,430r-150,0r-275,-280r-275,280r-150,0xm40,225v65,60,223,116,302,25v51,-59,89,-130,127,-224r-279,-691r-65,-153v-25,-57,-56,-124,-95,-202r200,0r323,817r287,-817r200,0r-118,282r-267,738v-58,160,-115,278,-203,378v-76,87,-223,115,-356,70v-40,-15,-79,-36,-116,-63","w":1060},"\u0176":{"d":"225,-1600r340,-430r170,0r340,430r-150,0r-275,-280r-275,280r-150,0xm540,0v23,-161,12,-409,15,-611r-379,-645v-42,-69,-93,-138,-141,-204r230,0r395,661r375,-661r230,0r-78,114r-117,188r-325,555r2,429v1,76,6,134,13,174r-220,0","w":1320},"\u017a":{"d":"925,-1600r-420,430r-160,0r350,-430r230,0xm290,-870v-56,1,-116,-1,-155,15r0,-165r795,0r0,95r-595,775r430,0v65,0,125,-1,180,-15r0,165r-840,0r0,-110r575,-760r-390,0","w":1040},"\u017e":{"d":"250,-1600r275,280r275,-280r150,0r-340,430r-170,0r-340,-430r150,0xm290,-870v-56,1,-116,-1,-155,15r0,-165r795,0r0,95r-595,775r430,0v65,0,125,-1,180,-15r0,165r-840,0r0,-110r575,-760r-390,0","w":1040},"\u017c":{"d":"525,-1210v-81,0,-135,-54,-135,-135v0,-81,54,-135,135,-135v81,0,135,54,135,135v0,81,-54,135,-135,135xm290,-870v-56,1,-116,-1,-155,15r0,-165r795,0r0,95r-595,775r430,0v65,0,125,-1,180,-15r0,165r-840,0r0,-110r575,-760r-390,0","w":1040},"\u0179":{"d":"1005,-2030r-420,430r-160,0r350,-430r230,0xm870,-1295v-247,5,-523,-14,-735,20r0,-185r970,0r0,130r-795,1165r390,0v98,0,185,-2,261,-5v76,-3,134,-8,174,-15r0,185r-1060,0r0,-125","w":1230},"\u017d":{"d":"330,-2030r275,280r275,-280r150,0r-340,430r-170,0r-340,-430r150,0xm870,-1295v-247,5,-523,-14,-735,20r0,-185r970,0r0,130r-795,1165r390,0v98,0,185,-2,261,-5v76,-3,134,-8,174,-15r0,185r-1060,0r0,-125","w":1230},"\u017b":{"d":"605,-1640v-81,0,-135,-54,-135,-135v0,-81,54,-135,135,-135v81,0,135,54,135,135v0,81,-54,135,-135,135xm870,-1295v-247,5,-523,-14,-735,20r0,-185r970,0r0,130r-795,1165r390,0v98,0,185,-2,261,-5v76,-3,134,-8,174,-15r0,185r-1060,0r0,-125","w":1230},"\u00a0":{"w":550}}});
