// #### Generated By: http://www.cufonfonts.com ####
/*!
 * The following copyright notice may not be removed under any circumstances.
 * 
 * Copyright:
 * Copyright (c) Mårten Nettelbladt, 2006. All rights reserved.
 * 
 * Trademark:
 * Miso Bold is a trademark of Mårten Nettelbladt.
 * 
 * Full name:
 * Miso-Bold
 * 
 * Manufacturer:
 * Mårten Nettelbladt
 * 
 * Designer:
 * Mårten Nettelbladt
*/
Cufon.registerFont({"w":416,"face":{"font-family":"Miso Bold","font-weight":700,"font-style":"italic","font-stretch":"normal","units-per-em":"1000","panose-1":"0 0 0 0 0 0 0 0 0 0","ascent":"800","descent":"-200","x-height":"13","cap-height":"20","bbox":"-48 -876 717 220","underline-thickness":"96","underline-position":"96","slope":"10","stemh":"96","stemv":"96","unicode-range":"U+0020-U+20AC"},"glyphs":{" ":{"w":192},"O":{"d":"208,20v-93,0,-168,-75,-168,-168r0,-340v0,-93,75,-168,168,-168v93,0,168,75,168,168r0,340v0,93,-75,168,-168,168xm208,-560v-40,0,-72,32,-72,72r0,340v0,40,32,72,72,72v40,0,72,-32,72,-72r0,-340v0,-40,-32,-72,-72,-72","k":{"A":10,"Y":20,"W":20,"V":10,"T":20}},"Q":{"d":"376,-148v0,45,-17,84,-46,115v19,39,79,99,22,134v-57,35,-81,-52,-105,-86v-113,26,-207,-58,-207,-163r0,-340v0,-93,76,-168,168,-168v93,0,168,75,168,168r0,340xm136,-148v0,40,32,72,72,72v40,0,72,-32,72,-72r0,-340v0,-40,-32,-72,-72,-72v-40,0,-72,32,-72,72r0,340"},"R":{"d":"388,-484v0,102,-18,167,-90,205r87,234v11,25,-3,53,-28,62v-25,9,-52,-2,-62,-28r-93,-249r-54,0r0,232v0,27,-21,48,-48,48v-27,0,-48,-21,-48,-48r0,-576v1,-70,102,-48,168,-48v93,0,168,75,168,168xm148,-356r72,0v62,-1,72,-58,72,-128v0,-40,-32,-72,-72,-72r-72,0r0,200","k":{"Y":20,"T":10}},"S":{"d":"118,-114v32,62,143,40,143,-33v0,-23,-5,-43,-21,-60r-160,-164v-73,-71,-57,-195,19,-251v86,-63,205,-30,247,50v12,23,5,52,-18,66v-23,14,-52,5,-65,-18v-18,-34,-69,-49,-106,-21v-32,24,-38,76,-8,107r159,164v75,73,59,201,-19,259v-87,65,-211,29,-254,-51v-13,-24,-6,-53,17,-66v23,-13,54,-6,66,18","w":382},"T":{"d":"320,-652v27,0,48,21,48,48v0,27,-21,48,-48,48r-82,0r0,528v0,27,-21,48,-48,48v-27,0,-48,-21,-48,-48r0,-528v-58,0,-131,11,-130,-48v0,-27,21,-48,48,-48r260,0","w":380,"k":{",":80,":":60,";":60,"-":80,"\u00f6":30,".":80,"a":80,"e":70,"i":20,"o":70,"r":70,"y":70,"w":70,"u":70,"A":50,"O":10}},"U":{"d":"140,-148v0,40,32,72,72,72v39,0,72,-32,72,-72r0,-460v0,-27,21,-48,48,-48v27,0,48,21,48,48r0,460v0,93,-76,168,-168,168v-93,0,-168,-75,-168,-168r0,-460v0,-27,21,-48,48,-48v27,0,48,21,48,48r0,460","w":424,"k":{"A":10}},"V":{"d":"18,-595v-7,-27,7,-52,34,-59v25,-7,52,8,59,33r114,413r113,-413v7,-25,34,-40,59,-33v27,7,41,32,34,59r-160,580v-12,46,-81,45,-93,0","w":448,"k":{",":100,":":30,";":30,"-":50,"\u00f6":30,".":100,"a":50,"e":50,"o":50,"u":40,"A":40,"O":10}},"W":{"d":"57,-655v27,-7,51,9,58,36r94,386r93,-386v8,-48,81,-48,93,0r94,386r93,-386v7,-27,31,-43,58,-36v27,7,42,33,35,58r-140,580v-7,49,-82,48,-93,0r-93,-386r-94,386v-7,49,-82,48,-93,0r-140,-580v-7,-25,10,-51,35,-58","w":698,"k":{",":90,":":40,";":40,"-":40,".":90,"a":40,"e":40,"o":40,"y":30,"u":40,"A":40,"O":20}},"X":{"d":"39,15v-23,-12,-33,-41,-21,-64r139,-279r-129,-258v-12,-24,-2,-53,21,-65v24,-12,53,-2,65,22r97,194r97,-194v12,-24,41,-34,64,-22v24,12,34,41,22,65r-129,258r139,279v12,23,2,52,-22,64v-23,12,-52,2,-64,-21r-107,-215r-107,215v-12,23,-41,33,-65,21","w":422},"Y":{"d":"201,20v-27,0,-48,-21,-48,-48r0,-289r-135,-269v-12,-24,-2,-53,22,-65v23,-12,52,-2,64,22r97,194r97,-194v12,-24,41,-34,64,-22v24,12,34,41,22,65r-135,269r0,289v0,27,-21,48,-48,48","w":402,"k":{",":90,":":50,";":50,"-":90,".":90,"a":70,"e":70,"g":70,"i":20,"m":60,"n":60,"o":70,"p":60,"s":70,"x":50,"v":50,"u":60,"A":50,"O":20}},"Z":{"d":"72,16v-31,2,-58,-35,-44,-67r212,-505r-168,0v-27,0,-48,-21,-48,-48v0,-27,21,-48,48,-48r240,0v31,-2,58,35,44,67r-212,505r168,0v27,0,48,21,48,48v0,27,-21,48,-48,48r-240,0","w":384},"N":{"d":"428,-28v3,50,-70,64,-91,21r-189,-391r0,370v0,27,-21,48,-48,48v-27,0,-48,-21,-48,-48r0,-580v-3,-50,70,-65,91,-21r189,391r0,-370v0,-27,21,-48,48,-48v27,0,48,21,48,48r0,580","w":480},"M":{"d":"100,20v-27,0,-48,-21,-48,-48r0,-580v-4,-50,70,-64,91,-20r117,247r116,-247v18,-46,92,-30,92,20r0,580v0,27,-21,48,-48,48v-27,0,-48,-21,-48,-48r0,-365r-69,145v-14,36,-70,37,-87,0r-68,-145r0,365v0,27,-21,48,-48,48","w":520},"L":{"d":"100,16v-27,0,-48,-21,-48,-48r0,-576v0,-27,21,-48,48,-48v27,0,48,21,48,48r0,528r152,0v27,0,48,21,48,48v0,27,-21,48,-48,48r-200,0","w":348,"k":{"y":40,"Y":60,"W":60,"V":60,"T":60}},"K":{"d":"404,-49v11,24,1,53,-23,64v-24,12,-52,2,-64,-22r-131,-273r-38,52r0,200v0,27,-21,48,-48,48v-27,0,-48,-21,-48,-48r0,-580v0,-27,21,-48,48,-48v27,0,48,21,48,48r0,215r173,-243v16,-21,46,-26,67,-11v23,15,27,44,11,67r-150,211","w":421,"k":{"\u00f6":20,"e":20,"o":20,"y":20,"u":10,"O":10}},"J":{"d":"81,-86v48,29,108,-10,108,-62r0,-460v0,-27,21,-48,48,-48v27,0,48,21,48,48r0,460v7,116,-138,214,-252,146v-24,-14,-31,-43,-18,-66v13,-23,43,-31,66,-18","w":333,"k":{",":20,".":20}},"I":{"d":"100,20v-27,0,-48,-21,-48,-48r0,-580v0,-27,21,-48,48,-48v27,0,48,21,48,48r0,580v0,27,-21,48,-48,48","w":200},"H":{"d":"292,-608v0,-27,21,-48,48,-48v27,0,48,21,48,48r0,580v0,27,-21,48,-48,48v-27,0,-48,-21,-48,-48r0,-252r-144,0r0,252v0,27,-21,48,-48,48v-27,0,-48,-21,-48,-48r0,-580v0,-27,21,-48,48,-48v27,0,48,21,48,48r0,232r144,0r0,-232","w":440},"G":{"d":"228,-356v62,0,148,-17,148,48r0,160v0,93,-75,168,-168,168v-92,0,-168,-75,-168,-168r0,-340v0,-76,50,-143,125,-162v73,-19,151,11,189,78v13,23,5,52,-18,66v-23,14,-52,5,-65,-18v-33,-63,-135,-34,-135,36r0,340v0,40,33,72,72,72v40,0,72,-32,72,-72r0,-112v-51,3,-100,0,-100,-48v0,-27,21,-48,48,-48","w":412},"F":{"d":"100,16v-27,0,-48,-21,-48,-48r0,-572v0,-27,21,-48,48,-48r200,0v27,0,48,21,48,48v0,27,-21,48,-48,48r-152,0r0,180v69,6,180,-25,180,48v0,73,-111,42,-180,48r0,248v0,27,-21,48,-48,48","w":360,"k":{",":110,"\u00f6":10,".":110,"a":10,"e":20,"i":10,"o":20,"r":10,"A":40}},"E":{"d":"52,-604v0,-27,21,-48,48,-48r200,0v27,0,48,21,48,48v0,27,-21,48,-48,48r-152,0r0,180v69,6,180,-25,180,48v0,73,-111,42,-180,48r0,200r152,0v27,0,48,21,48,48v0,27,-21,48,-48,48r-200,0v-27,0,-48,-21,-48,-48r0,-572","w":368},"D":{"d":"220,-652v93,0,168,75,168,168r0,332v0,93,-75,168,-168,168v-67,0,-168,22,-168,-48r0,-572v1,-70,102,-48,168,-48xm292,-484v0,-40,-32,-72,-72,-72r-72,0r0,476r72,0v40,0,72,-32,72,-72r0,-332","w":428,"k":{"A":10,"Y":20,"W":10,"V":10}},"C":{"d":"164,14v-73,-19,-124,-85,-124,-162r0,-340v0,-76,51,-143,124,-162v75,-20,149,12,189,78v14,24,6,52,-17,66v-23,14,-53,6,-66,-18v-33,-61,-134,-35,-134,36r0,340v-4,71,100,98,134,36v13,-24,43,-32,66,-18v23,14,31,42,17,66v-40,66,-114,98,-189,78","w":385},"B":{"d":"388,-484v0,71,-12,116,-51,156v44,43,51,96,51,176v0,93,-76,168,-168,168v-67,0,-168,22,-168,-48r0,-572v1,-70,102,-48,168,-48v92,0,168,75,168,168xm292,-152v0,-70,-10,-127,-72,-128r-72,0r0,200r72,0v40,0,72,-32,72,-72xm220,-376v53,-2,72,-45,72,-108v0,-40,-32,-72,-72,-72r-72,0r0,180r72,0","w":428,"k":{"A":10}},"A":{"d":"422,-41v7,27,-7,55,-33,59v-73,12,-65,-76,-88,-138r-170,0v-21,52,-15,152,-88,138v-25,-5,-40,-32,-33,-59r160,-580v7,-45,80,-45,92,0xm274,-216v-19,-69,-39,-146,-58,-211v-19,65,-39,142,-58,211r116,0","w":432,"k":{"y":10,"w":10,"v":10,"Y":50,"W":40,"V":40,"T":50}},"u":{"d":"192,13v-80,0,-145,-65,-145,-145r0,-296v0,-25,20,-45,45,-45v25,0,45,20,45,45r0,296v0,53,53,60,110,55r0,-351v0,-25,20,-45,45,-45v25,0,45,20,45,45r0,396v0,62,-85,45,-145,45","w":392},"v":{"d":"22,-415v-7,-24,6,-49,30,-56v24,-7,49,6,56,30r77,256r77,-256v7,-24,32,-37,56,-30v24,7,37,32,30,56r-120,400v-10,41,-74,41,-86,0","w":370,"k":{",":70,"\u00f6":10,".":70,"a":10,"e":10,"o":10}},"w":{"d":"25,-417v-7,-24,8,-49,32,-55v55,-13,60,57,73,104v12,43,23,99,38,155r57,-226v9,-44,76,-43,87,0r56,226r57,-226v7,-24,30,-40,54,-33v24,7,40,31,33,55r-100,400v-9,43,-76,44,-87,0r-57,-225r-56,225v-9,43,-76,44,-87,0","w":538,"k":{",":60,".":60,"a":10,"e":10,"o":10,"s":10}},"x":{"d":"47,11v-23,-12,-30,-38,-18,-61r100,-182r-96,-174v-12,-23,-5,-49,18,-61v21,-12,49,-4,61,17r68,125r69,-125v12,-21,38,-29,61,-17v23,12,30,38,18,61r-96,174r100,182v12,23,5,50,-18,61v-23,12,-49,6,-61,-17r-73,-132r-72,132v-12,23,-40,28,-61,17","w":360},"y":{"d":"137,188v-41,31,-132,50,-132,-16v0,-25,20,-45,45,-45v25,0,46,-16,53,-39r34,-116r-116,-387v-7,-24,7,-49,31,-56v23,-7,48,6,56,30r76,256r77,-256v7,-24,33,-37,56,-30v24,7,38,32,31,56r-159,529v-9,31,-28,55,-52,74","w":369,"k":{",":70,".":70,"a":10,"e":10,"o":10}},"z":{"d":"72,13v-31,3,-57,-34,-41,-65r167,-327v-66,-6,-171,24,-171,-45v0,-25,20,-45,45,-45r200,0v30,-2,56,34,40,66r-167,326v66,6,172,-24,172,45v0,25,-21,45,-45,45r-200,0","w":344,"k":{"e":10,"o":10}},"t":{"d":"91,-379v-44,4,-80,-6,-80,-45v0,-39,36,-50,80,-45r0,-159v0,-25,20,-45,45,-45v25,0,45,20,45,45r0,159v49,-2,100,-2,100,45v0,47,-51,48,-100,45r0,251v0,31,24,55,55,55v25,0,45,20,45,45v0,25,-20,45,-45,45v-80,0,-145,-65,-145,-145r0,-251","w":296},"s":{"d":"116,-98v22,44,97,23,91,-27v-2,-17,-8,-29,-20,-37v-57,-43,-144,-78,-151,-167v-7,-82,73,-158,156,-142v40,7,75,30,96,66v12,21,6,49,-17,61v-21,12,-50,6,-61,-16v-20,-40,-90,-20,-84,25v2,14,8,25,19,34v58,44,145,80,152,170v6,85,-73,162,-160,146v-43,-7,-78,-31,-99,-68v-12,-21,-5,-49,16,-61v23,-12,51,-6,62,16","w":329,"k":{"w":10}},"r":{"d":"100,17v-25,0,-45,-20,-45,-45r0,-396v0,-62,86,-42,145,-45v46,-2,118,29,89,81v-12,22,-39,29,-62,16v-21,-12,-52,-5,-82,-7r0,351v0,25,-20,45,-45,45","w":299,"k":{",":80,"-":30,"\u00f6":10,".":80,"a":10,"c":10,"o":10,"t":-20,"y":-20,"v":-20}},"q":{"d":"243,13v-117,14,-200,-45,-200,-145r0,-192v0,-80,65,-145,145,-145v60,0,144,-17,145,45r0,596v0,25,-20,45,-45,45v-25,0,-45,-20,-45,-45r0,-159xm243,-379v-57,-4,-110,2,-110,55r0,192v0,53,53,60,110,55r0,-302","w":388},"p":{"d":"100,217v-25,0,-45,-20,-45,-45r0,-596v0,-62,85,-45,145,-45v80,0,145,65,145,145r0,192v0,80,-65,145,-145,145r-55,0r0,159v0,25,-20,45,-45,45xm255,-324v0,-53,-53,-60,-110,-55r0,302v57,4,110,-2,110,-55r0,-192","w":388,"k":{"y":10}},"o":{"d":"188,17v-80,0,-145,-65,-145,-145r0,-200v0,-80,65,-145,145,-145v80,0,145,65,145,145r0,200v0,80,-65,145,-145,145xm188,-383v-31,0,-55,24,-55,55r0,200v0,31,24,55,55,55v31,0,55,-24,55,-55r0,-200v0,-31,-24,-55,-55,-55","w":376,"k":{"y":10,"w":10,"v":10}},"n":{"d":"100,17v-25,0,-45,-20,-45,-45r0,-396v0,-62,85,-45,145,-45v80,0,145,65,145,145r0,296v0,25,-21,45,-45,45v-25,0,-45,-20,-45,-45r0,-296v0,-53,-53,-60,-110,-55r0,351v0,25,-21,45,-45,45","w":392},"m":{"d":"145,-379r0,351v0,25,-21,45,-45,45v-25,0,-45,-20,-45,-45r0,-396v0,-25,20,-45,45,-45r300,0v79,0,145,65,145,145r0,296v0,25,-21,45,-45,45v-25,0,-45,-20,-45,-45r0,-296v0,-53,-53,-60,-110,-55r0,351v0,25,-21,45,-45,45v-25,0,-45,-20,-45,-45r0,-351r-110,0","w":592},"l":{"d":"176,-5v-49,65,-124,-34,-124,-92r0,-531v0,-25,21,-45,45,-45v25,0,45,20,45,45r0,531v0,13,6,23,18,30v21,13,32,41,16,62","w":200},"k":{"d":"359,-50v12,23,5,49,-18,61v-21,11,-49,6,-61,-17r-105,-192r-30,33v-7,68,27,182,-45,182v-25,0,-45,-20,-45,-45r0,-600v0,-25,20,-45,45,-45v25,0,45,20,45,45r0,328r141,-158v17,-19,45,-20,64,-3v19,16,20,44,3,63r-115,129","w":380,"k":{"\u00f6":10,"e":10,"o":10}},"j":{"d":"108,-523v-31,0,-55,-24,-55,-55v0,-31,24,-55,55,-55v31,0,55,24,55,55v0,31,-24,55,-55,55xm8,217v-25,0,-45,-20,-45,-45v0,-25,20,-45,45,-45v31,0,55,-24,55,-55r0,-500v0,-25,20,-45,45,-45v25,0,45,20,45,45r0,500v0,80,-65,145,-145,145","w":208},"i":{"d":"100,-523v-31,0,-55,-24,-55,-55v0,-31,24,-55,55,-55v31,0,55,24,55,55v0,31,-24,55,-55,55xm145,-28v0,25,-20,45,-45,45v-25,0,-45,-20,-45,-45r0,-400v0,-25,20,-45,45,-45v25,0,45,20,45,45r0,400","w":200},"h":{"d":"100,17v-25,0,-45,-20,-45,-45r0,-600v0,-25,20,-45,45,-45v25,0,45,20,45,45r0,159v117,-14,200,45,200,145r0,296v0,25,-20,45,-45,45v-25,0,-45,-20,-45,-45r0,-296v0,-53,-53,-60,-110,-55r0,351v0,25,-20,45,-45,45","w":392},"g":{"d":"86,175v-29,-27,-6,-78,31,-78v13,0,23,5,32,14v34,35,94,6,94,-39r0,-59v-117,14,-200,-45,-200,-145r0,-192v0,-80,65,-145,145,-145v60,0,144,-17,145,45r0,496v0,60,-34,111,-89,134v-56,23,-116,9,-158,-31xm243,-379v-57,-4,-110,2,-110,55r0,192v0,53,53,60,110,55r0,-302","w":384},"f":{"d":"91,-379v-44,4,-80,-6,-80,-45v0,-39,36,-50,80,-45r0,-59v0,-80,65,-145,145,-145v25,0,45,20,45,45v0,25,-20,45,-45,45v-54,0,-60,56,-55,114v49,-2,100,-2,100,45v0,47,-51,48,-100,45r0,351v0,25,-20,45,-45,45v-25,0,-45,-20,-45,-45r0,-351","w":296},"e":{"d":"227,-89v27,-30,79,-6,77,32v0,12,-4,23,-13,32v-89,93,-248,17,-248,-103r0,-200v0,-80,65,-145,145,-145v80,0,145,65,145,145v0,60,17,144,-45,145r-155,0v-1,49,-5,92,34,106v21,8,45,5,60,-12xm188,-383v-53,0,-60,53,-55,110r110,0v4,-57,-2,-110,-55,-110","w":368,"k":{"y":10,"w":10,"v":10}},"d":{"d":"188,13v-80,0,-145,-65,-145,-145r0,-192v0,-80,65,-145,145,-145r55,0r0,-159v0,-25,20,-45,45,-45v25,0,45,20,45,45r0,596v0,62,-85,45,-145,45xm243,-379v-57,-4,-110,2,-110,55r0,192v0,53,53,60,110,55r0,-302","w":388},"c":{"d":"227,-89v27,-30,78,-5,77,32v0,12,-5,23,-14,32v-41,41,-102,54,-158,31v-55,-23,-89,-74,-89,-134r0,-200v-9,-119,158,-195,247,-102v27,28,6,78,-32,77v-12,0,-22,-5,-31,-14v-34,-35,-94,-6,-94,39r0,200v-3,45,60,76,94,39","w":328,"k":{"y":10}},"b":{"d":"200,13v-60,0,-144,17,-145,-45r0,-596v0,-25,20,-45,45,-45v25,0,45,20,45,45r0,159v117,-14,200,45,200,145r0,192v0,80,-65,145,-145,145xm145,-379r0,302v57,4,110,-2,110,-55r0,-192v0,-53,-53,-60,-110,-55","w":388,"k":{"y":10,"v":10}},"a":{"d":"124,-367v-26,29,-79,5,-77,-32v0,-12,5,-23,14,-32v87,-93,244,-16,244,101r0,298v0,62,-85,45,-145,45v-80,0,-145,-65,-145,-145v0,-80,65,-145,145,-145r55,0v1,-47,4,-89,-33,-102v-20,-8,-43,-4,-58,12xm215,-187v-57,-4,-110,2,-110,55v0,53,53,60,110,55r0,-110","w":352,"k":{"y":10,"w":10,"v":10}},"0":{"d":"208,20v-93,0,-168,-75,-168,-168r0,-340v0,-93,75,-168,168,-168v92,0,168,75,168,168r0,340v0,93,-76,168,-168,168xm208,-560v-40,0,-72,32,-72,72r0,340v0,40,32,72,72,72v39,0,72,-32,72,-72r0,-340v0,-40,-33,-72,-72,-72"},"1":{"d":"184,-492v-23,18,-36,50,-72,52v-41,2,-63,-53,-34,-82r120,-120v29,-33,82,-4,82,34r0,580v0,27,-21,48,-48,48v-27,0,-48,-21,-48,-48r0,-464"},"2":{"d":"68,-506v-23,-14,-31,-43,-18,-66v36,-70,137,-108,227,-63v70,35,115,136,68,225r-174,330v72,8,193,-28,193,48v0,27,-21,48,-48,48r-224,0v-30,2,-61,-35,-43,-70r211,-400v27,-59,-19,-119,-84,-103v-18,5,-33,16,-43,33v-14,23,-42,32,-65,18"},"3":{"d":"120,-112v33,61,138,36,134,-36r0,-60v0,-40,-32,-72,-72,-72v-27,0,-48,-21,-48,-48v0,-27,21,-48,48,-48v89,0,102,-161,19,-181v-32,-8,-64,5,-81,33v-14,23,-43,32,-66,18v-23,-14,-31,-43,-18,-66v38,-67,116,-98,189,-78v87,24,125,96,125,202v0,47,-19,89,-51,120v46,43,51,98,51,180v0,76,-50,142,-125,162v-73,20,-152,-12,-189,-78v-13,-23,-5,-52,18,-66v23,-14,53,-6,66,18"},"4":{"d":"74,-120v-31,0,-56,-29,-46,-63r140,-440v12,-51,104,-36,94,15v-23,122,-96,295,-122,392r86,0v1,-60,-14,-140,48,-140v27,0,48,21,48,48r0,92v45,-5,80,8,80,48v0,39,-35,53,-80,48v-1,60,14,140,-48,140v-27,0,-48,-21,-48,-48r0,-92r-152,0"},"5":{"d":"145,-294v-22,41,-90,25,-90,-24r0,-286v0,-27,21,-48,48,-48r208,0v27,0,48,21,48,48v0,27,-21,48,-48,48r-160,0r0,140v124,-39,224,53,224,158r0,110v0,77,-51,143,-124,162v-75,20,-149,-12,-189,-78v-14,-24,-6,-52,17,-66v23,-14,53,-6,66,18v33,61,137,36,134,-36v-3,-77,15,-163,-53,-179v-32,-8,-66,5,-81,33"},"6":{"d":"217,20v-92,0,-168,-75,-168,-168r0,-340v0,-76,50,-143,125,-162v73,-19,151,11,189,78v13,23,5,52,-18,66v-23,14,-52,5,-65,-18v-33,-63,-135,-34,-135,36r0,88v115,-53,242,34,240,152r0,100v0,93,-75,168,-168,168xm217,-320v-40,0,-72,32,-72,72r0,100v0,40,32,72,72,72v40,0,72,-32,72,-72r0,-100v0,-40,-32,-72,-72,-72"},"7":{"d":"85,-476v-27,0,-48,-21,-48,-48v0,-58,-10,-129,48,-128r240,0v29,-2,55,28,47,59r-140,576v-9,55,-108,42,-95,-11r127,-528r-131,0v5,45,-8,79,-48,80"},"8":{"d":"208,20v-92,0,-168,-75,-168,-168v0,-82,6,-137,51,-180v-40,-41,-51,-87,-51,-160v0,-93,76,-168,168,-168v106,0,168,85,168,208v0,47,-19,89,-50,120v45,43,50,98,50,180v0,93,-75,168,-168,168xm136,-488v0,65,18,112,72,112v55,0,72,-47,72,-112v0,-40,-32,-72,-72,-72v-39,0,-72,32,-72,72xm280,-208v0,-40,-32,-72,-72,-72v-39,0,-72,32,-72,72r0,60v0,40,33,72,72,72v63,-1,72,-60,72,-132"},"9":{"d":"271,-236v-115,53,-242,-34,-240,-152r0,-100v0,-93,76,-168,168,-168v93,0,168,75,168,168r0,340v0,77,-51,142,-124,162v-73,20,-152,-12,-189,-78v-13,-23,-6,-52,17,-66v23,-14,53,-5,66,18v32,63,134,36,134,-36r0,-88xm199,-560v-39,0,-72,32,-72,72r0,100v0,40,33,72,72,72v40,0,72,-32,72,-72r0,-100v0,-40,-32,-72,-72,-72"},".":{"d":"38,-38v0,-32,26,-58,58,-58v32,0,58,26,58,58v0,32,-26,58,-58,58v-32,0,-58,-26,-58,-58","w":192},"@":{"d":"382,-653v179,0,335,157,335,335r0,186v0,80,-65,145,-145,145r-200,0v-80,0,-145,-65,-145,-145v0,-80,65,-145,145,-145r55,0v1,-48,5,-88,-34,-102v-20,-8,-45,-4,-60,12v-29,30,-77,3,-77,-32v0,-13,5,-23,14,-32v90,-92,247,-18,247,101r0,253v57,4,110,-2,110,-55r0,-186v4,-130,-113,-245,-245,-245v-130,0,-245,115,-245,245r0,180v-4,132,114,245,245,245v62,0,155,-19,155,45v0,65,-93,43,-155,45v-178,6,-341,-155,-335,-335r0,-180v-5,-178,158,-335,335,-335xm427,-187v-57,-4,-110,2,-110,55v0,53,53,60,110,55r0,-110","w":764},"\u00f6":{"d":"163,-578v0,31,-24,55,-55,55v-31,0,-55,-24,-55,-55v0,-31,24,-55,55,-55v31,0,55,24,55,55xm323,-578v0,31,-24,55,-55,55v-31,0,-55,-24,-55,-55v0,-31,24,-55,55,-55v31,0,55,24,55,55xm43,-328v0,-80,65,-145,145,-145v80,0,145,65,145,145r0,200v0,80,-65,145,-145,145v-80,0,-145,-65,-145,-145r0,-200xm188,-383v-31,0,-55,24,-55,55r0,200v0,31,24,55,55,55v31,0,55,-24,55,-55r0,-200v0,-31,-24,-55,-55,-55","w":376,"k":{"v":10}},"\u00d6":{"d":"376,-148v0,93,-76,168,-168,168v-93,0,-168,-75,-168,-168r0,-340v0,-93,75,-168,168,-168v92,0,168,75,168,168r0,340xm208,-76v39,0,72,-32,72,-72r0,-340v0,-40,-33,-72,-72,-72v-40,0,-72,32,-72,72r0,340v0,40,32,72,72,72xm230,-778v0,-32,26,-58,58,-58v32,0,58,26,58,58v0,32,-26,58,-58,58v-32,0,-58,-26,-58,-58xm70,-778v0,-32,26,-58,58,-58v32,0,58,26,58,58v0,32,-26,58,-58,58v-32,0,-58,-26,-58,-58"},"-":{"d":"88,-240v-27,0,-48,-21,-48,-48v0,-27,21,-48,48,-48r240,0v27,0,48,21,48,48v0,27,-21,48,-48,48r-240,0"},"\u0131":{"d":"100,17v-24,0,-45,-20,-45,-45r0,-400v0,-25,21,-45,45,-45v25,0,45,20,45,45r0,400v0,25,-20,45,-45,45","w":200},"\u00fc":{"d":"112,-523v-31,0,-55,-24,-55,-55v0,-31,24,-55,55,-55v31,0,55,24,55,55v0,31,-24,55,-55,55xm327,-578v0,31,-24,55,-55,55v-31,0,-55,-24,-55,-55v0,-31,24,-55,55,-55v31,0,55,24,55,55xm47,-428v0,-25,21,-45,45,-45v25,0,45,20,45,45r0,296v0,53,53,60,110,55r0,-351v0,-25,21,-45,45,-45v25,0,45,20,45,45r0,396v0,62,-85,45,-145,45v-79,0,-145,-65,-145,-145r0,-296","w":392},"\u00e7":{"d":"143,10v-60,-21,-101,-74,-100,-138r0,-200v-8,-119,157,-196,248,-102v27,28,5,79,-32,77v-12,0,-23,-5,-32,-14v-34,-35,-94,-6,-94,39r0,200v0,29,22,53,56,55v28,2,43,-30,70,-30v23,0,46,22,45,46v-2,39,-43,56,-71,67v4,63,-16,104,-62,132v-22,13,-49,6,-62,-17v-12,-21,-5,-48,17,-61v18,-11,18,-28,17,-54","w":331},"\u0153":{"d":"427,-89v27,-30,78,-5,77,32v0,12,-5,23,-14,32v-52,58,-156,53,-202,2v-27,25,-61,40,-100,40v-80,0,-145,-65,-145,-145r0,-200v0,-80,65,-145,145,-145v39,0,73,15,100,40v27,-25,61,-40,100,-40v80,0,145,65,145,145v0,60,17,144,-45,145r-155,0v-1,49,-5,92,34,106v20,8,45,5,60,-12xm388,-383v-53,0,-60,53,-55,110r110,0v4,-57,-2,-110,-55,-110xm188,-73v31,0,55,-24,55,-55r0,-200v0,-31,-24,-55,-55,-55v-31,0,-55,24,-55,55r0,200v0,31,24,55,55,55","w":568},"\u00c7":{"d":"160,13v-72,-21,-120,-86,-120,-161r0,-340v0,-76,51,-142,124,-162v80,-22,164,22,199,95v11,24,5,53,-18,66v-31,19,-63,-8,-75,-35v-29,-63,-134,-35,-134,36r0,340v-4,71,104,100,134,36v13,-27,43,-53,75,-35v31,18,25,58,8,83v-26,37,-57,65,-97,77v4,64,-19,105,-65,133v-23,14,-52,6,-65,-17v-13,-23,-5,-52,18,-66v16,-9,17,-26,16,-50","w":394},"\u0152":{"d":"291,-2v-113,65,-251,-23,-251,-146r0,-340v-3,-123,138,-211,251,-146v9,-12,21,-18,37,-18r200,0v27,0,48,21,48,48v0,27,-21,48,-48,48r-152,0r0,180v69,6,180,-25,180,48v0,73,-111,42,-180,48r0,200r152,0v27,0,48,21,48,48v0,27,-21,48,-48,48r-200,0v-16,0,-28,-6,-37,-18xm208,-560v-40,0,-72,32,-72,72r0,340v0,40,32,72,72,72v47,0,72,-38,72,-92r0,-320v0,-40,-32,-72,-72,-72","w":596},"\u00dc":{"d":"212,20v-92,0,-168,-75,-168,-168r0,-460v0,-27,21,-48,48,-48v27,0,48,21,48,48r0,460v0,40,33,72,72,72v40,0,72,-32,72,-72r0,-460v0,-27,21,-48,48,-48v27,0,48,21,48,48r0,460v0,93,-75,168,-168,168xm234,-778v0,-32,26,-58,58,-58v32,0,58,26,58,58v0,32,-26,58,-58,58v-32,0,-58,-26,-58,-58xm132,-720v-32,0,-58,-26,-58,-58v0,-32,26,-58,58,-58v32,0,58,26,58,58v0,32,-26,58,-58,58","w":424},"\u0178":{"d":"297,-629v12,-24,41,-34,65,-22v24,12,33,41,21,65r-135,269r0,289v0,27,-21,48,-48,48v-27,0,-48,-21,-48,-48r0,-289r-135,-269v-11,-24,-2,-53,22,-65v24,-12,52,-2,64,22r97,194xm222,-778v0,-32,26,-58,58,-58v32,0,58,26,58,58v0,32,-26,58,-58,58v-32,0,-58,-26,-58,-58xm178,-778v0,32,-26,58,-58,58v-32,0,-58,-26,-58,-58v0,-32,26,-58,58,-58v32,0,58,26,58,58","w":402},"?":{"d":"208,-545v-36,-28,-87,-14,-106,21v-13,23,-43,32,-66,18v-23,-14,-29,-43,-17,-66v42,-80,162,-113,247,-50v78,58,89,178,18,252v-27,28,-72,53,-72,102v0,58,10,129,-48,128v-27,0,-48,-21,-48,-48v-3,-88,1,-148,49,-198v27,-29,76,-55,71,-107v-1,-21,-11,-39,-28,-52xm222,-38v0,32,-26,58,-58,58v-32,0,-58,-26,-58,-58v0,-32,26,-58,58,-58v32,0,58,26,58,58","w":357},"!":{"d":"100,20v-32,0,-58,-26,-58,-58v0,-32,26,-58,58,-58v32,0,58,26,58,58v0,32,-26,58,-58,58xm52,-588v0,-27,21,-48,48,-48v27,0,48,21,48,48r0,400v0,27,-21,48,-48,48v-27,0,-48,-21,-48,-48r0,-400","w":200},"\"":{"d":"256,-656v64,0,46,86,48,148v0,27,-21,48,-48,48v-64,0,-46,-86,-48,-148v0,-27,21,-48,48,-48xm48,-508v0,-62,-17,-148,48,-148v64,0,46,86,48,148v0,27,-21,48,-48,48v-27,0,-48,-21,-48,-48","w":352},"'":{"d":"144,-608v0,62,17,148,-48,148v-64,0,-46,-86,-48,-148v0,-27,21,-48,48,-48v27,0,48,21,48,48","w":192},";":{"d":"80,-93v43,0,76,8,78,45v4,70,-9,116,-60,138v-24,11,-49,-1,-60,-24v-11,-24,1,-49,25,-60v4,-1,4,-5,4,-10v-47,-13,-39,-89,13,-89xm38,-418v0,-32,26,-58,58,-58v32,0,58,26,58,58v0,32,-26,58,-58,58v-32,0,-58,-26,-58,-58","w":192},":":{"d":"96,20v-32,0,-58,-26,-58,-58v0,-32,26,-58,58,-58v32,0,58,26,58,58v0,32,-26,58,-58,58xm96,-360v-32,0,-58,-26,-58,-58v0,-32,26,-58,58,-58v32,0,58,26,58,58v0,32,-26,58,-58,58","w":192},",":{"d":"63,6v4,-1,4,-5,4,-10v-47,-13,-39,-89,13,-89v43,0,76,8,78,45v4,70,-9,116,-60,138v-24,11,-49,-1,-60,-24v-11,-24,1,-49,25,-60","w":192},"}":{"d":"80,-248v0,-31,9,-57,28,-80v-19,-23,-28,-49,-28,-80r0,-200v0,-19,-15,-32,-32,-32v-27,0,-48,-21,-48,-48v0,-27,21,-48,48,-48v70,0,128,57,128,128r0,200v0,19,13,32,32,32v27,0,48,21,48,48v0,27,-21,48,-48,48v-19,0,-32,13,-32,32r0,220v0,71,-58,128,-128,128v-27,0,-48,-21,-48,-48v0,-27,21,-48,48,-48v17,0,32,-13,32,-32r0,-220","w":256},"]":{"d":"56,-732v62,0,148,-17,148,48r0,732v0,64,-86,46,-148,48v-27,0,-48,-21,-48,-48v0,-47,49,-52,100,-48r0,-636v-51,3,-100,0,-100,-48v0,-27,21,-48,48,-48","w":256},")":{"d":"90,-728v112,133,183,382,103,609v-23,68,-57,132,-103,191v-16,21,-46,24,-67,8v-21,-17,-26,-48,-9,-68v100,-120,154,-328,89,-518v-20,-58,-50,-112,-89,-162v-16,-21,-12,-51,9,-68v21,-16,51,-12,67,8","w":269},"(":{"d":"165,-496v-65,188,-12,401,88,518v17,21,13,51,-8,68v-21,16,-50,12,-67,-8v-116,-139,-181,-389,-104,-609v24,-69,59,-132,104,-191v16,-20,46,-24,67,-8v21,17,25,47,8,68v-39,49,-68,102,-88,162","w":268},"[":{"d":"200,96v-62,0,-148,17,-148,-48r0,-732v0,-64,86,-46,148,-48v27,0,48,21,48,48v0,47,-49,52,-100,48r0,636v51,-3,100,0,100,48v0,27,-21,48,-48,48","w":256},"{":{"d":"176,-608v0,99,21,220,-28,280v17,23,28,49,28,80r0,220v0,19,13,32,32,32v27,0,48,21,48,48v0,27,-21,48,-48,48v-71,0,-128,-57,-128,-128r0,-220v0,-19,-13,-32,-32,-32v-27,0,-48,-21,-48,-48v0,-27,21,-48,48,-48v19,0,32,-13,32,-32r0,-200v0,-71,57,-128,128,-128v27,0,48,21,48,48v0,27,-21,48,-48,48v-19,0,-32,13,-32,32","w":256},"`":{"d":"168,-657v15,-18,42,-19,61,-3r100,90v17,16,19,42,3,61v-16,17,-43,19,-60,3r-100,-90v-19,-16,-20,-43,-4,-61","w":500},"<":{"d":"357,-519v17,21,13,51,-7,68r-195,163r195,163v21,16,24,47,7,68v-17,20,-48,23,-68,6r-240,-200v-22,-17,-22,-56,0,-74r240,-200v20,-17,51,-14,68,6"},">":{"d":"59,-57v-17,-21,-14,-52,6,-68r196,-163r-196,-163v-20,-16,-23,-47,-6,-68v17,-20,47,-23,68,-6r240,200v22,17,22,56,0,74r-240,200v-21,17,-51,14,-68,-6"},"=":{"d":"328,-256v27,0,48,21,48,48v0,27,-21,48,-48,48r-240,0v-27,0,-48,-21,-48,-48v0,-27,21,-48,48,-48r240,0xm328,-416v27,0,48,21,48,48v0,27,-21,48,-48,48r-240,0v-27,0,-48,-21,-48,-48v0,-27,21,-48,48,-48r240,0"},"^":{"d":"61,-392v-20,-18,-22,-48,-5,-68r158,-180v16,-22,54,-20,72,0r158,180v44,50,-34,109,-73,64r-121,-139r-121,139v-19,20,-48,22,-68,4","w":500},"+":{"d":"256,-336v56,-1,121,-8,120,48v0,27,-21,48,-48,48r-72,0v1,56,8,121,-48,120v-27,0,-48,-21,-48,-48r0,-72v-56,1,-121,8,-120,-48v0,-27,21,-48,48,-48r72,0v-1,-56,-8,-121,48,-120v27,0,48,21,48,48r0,72"},"|":{"d":"109,-876v27,0,48,21,48,48r0,1000v0,27,-21,48,-48,48v-27,0,-48,-21,-48,-48r0,-1000v0,-27,21,-48,48,-48","w":208},"\\":{"d":"373,-4v11,25,-3,52,-28,61v-25,9,-53,-4,-62,-29r-240,-660v-9,-24,4,-52,29,-61v25,-9,52,4,61,29"},"\/":{"d":"345,-693v25,9,37,36,28,61r-240,660v-9,25,-36,38,-61,29v-25,-9,-38,-36,-29,-61r240,-660v9,-25,37,-38,62,-29"},"_":{"d":"500,64v27,0,48,21,48,48v0,27,-21,48,-48,48r-500,0v-27,0,-48,-21,-48,-48v0,-27,21,-48,48,-48r500,0","w":500},"$":{"d":"59,-456v0,-69,48,-135,110,-153v-4,-47,5,-87,48,-87v43,0,53,40,48,88v51,12,136,88,71,137v-21,16,-54,7,-66,-18v-26,-53,-115,-29,-115,32v0,19,7,34,22,47r126,103v37,31,59,75,60,123v2,73,-51,138,-114,157v4,47,-5,87,-48,87v-42,0,-53,-40,-48,-87v-41,-13,-72,-37,-93,-74v-13,-23,-5,-52,18,-66v23,-14,53,-6,65,18v29,58,130,30,124,-34v-1,-19,-9,-38,-25,-50r-125,-103v-37,-29,-58,-73,-58,-120"},"\u20ac":{"d":"312,-524v-29,-63,-138,-35,-134,36r0,42v65,4,160,-20,160,48v0,68,-96,44,-160,48r0,64v56,-1,121,-8,120,48v0,27,-21,48,-48,48r-72,0v-5,58,8,99,53,112v39,11,75,-18,91,-51v11,-24,43,-31,66,-18v32,17,27,61,7,83v-37,66,-116,99,-189,78v-86,-26,-134,-96,-124,-204v-45,5,-80,-8,-80,-48v0,-39,35,-53,80,-48r0,-64v-45,5,-80,-8,-80,-48v0,-39,35,-53,80,-48v-9,-108,37,-178,124,-204v80,-24,164,22,199,95v11,24,6,53,-17,66v-31,19,-63,-8,-76,-35"},"&":{"d":"351,-72v-39,78,-154,124,-245,63v-73,-49,-100,-162,-39,-242r73,-94r-64,-82v-70,-108,26,-229,130,-229v106,0,190,140,112,238r-57,73r80,103v13,-30,46,-74,84,-47v53,37,-2,93,-21,129r71,93v16,21,14,53,-8,67v-58,37,-89,-43,-116,-72xm201,-423v17,-30,67,-58,47,-107v-21,-52,-105,-29,-100,24v4,38,36,56,53,83xm160,-88v36,25,83,8,102,-23r26,-42r-87,-113v-24,40,-78,69,-72,129v2,20,14,37,31,49","w":493},"*":{"d":"254,-379v1,54,7,117,-46,117v-52,0,-46,-63,-45,-117v-35,16,-94,73,-124,19v-31,-55,46,-76,78,-98v-33,-23,-109,-43,-78,-98v29,-52,90,2,124,19v-1,-53,-8,-117,45,-116v25,0,46,20,46,45r0,71v34,-18,94,-71,123,-19v31,55,-46,76,-78,98v33,23,108,42,78,98v-29,54,-90,-3,-123,-19"},"%":{"d":"437,-251v73,0,133,60,133,133v0,74,-60,133,-133,133v-74,0,-133,-59,-133,-133v0,-73,59,-133,133,-133xm437,-71v27,0,47,-20,47,-47v0,-27,-20,-47,-47,-47v-27,0,-47,20,-47,47v0,27,20,47,47,47xm290,-518v0,74,-60,133,-133,133v-74,0,-133,-59,-133,-133v0,-73,59,-133,133,-133v73,0,133,60,133,133xm110,-518v0,27,20,47,47,47v27,0,47,-20,47,-47v0,-27,-20,-47,-47,-47v-27,0,-47,20,-47,47xm458,-651v24,11,34,40,22,64r-280,580v-11,24,-40,34,-64,22v-24,-11,-34,-40,-22,-64r280,-580v11,-24,40,-34,64,-22","w":593},"#":{"d":"355,-362r0,69v49,-3,100,-1,100,45v0,46,-50,50,-100,46r0,174v0,25,-21,46,-46,46v-25,0,-45,-21,-45,-46r0,-174r-69,0r0,174v0,25,-21,46,-46,46v-25,0,-45,-21,-45,-46r0,-174v-50,3,-100,2,-100,-46v0,-47,51,-48,100,-45r0,-69v-50,3,-100,2,-100,-46v0,-47,51,-48,100,-45r0,-155v0,-25,20,-45,45,-45v25,0,46,20,46,45r0,155r69,0r0,-155v0,-25,20,-45,45,-45v25,0,46,20,46,45r0,155v49,-3,100,-1,100,45v0,46,-50,50,-100,46xm264,-362r-69,0r0,69r69,0r0,-69","w":458},"\u0160":{"d":"309,-274v73,74,59,201,-20,259v-88,65,-212,30,-254,-51v-13,-23,-5,-53,18,-66v23,-13,53,-5,65,18v19,35,75,50,113,22v35,-26,41,-82,9,-115r-160,-164v-70,-72,-57,-195,20,-251v86,-62,203,-29,246,50v13,24,6,52,-17,66v-23,14,-53,6,-66,-18v-18,-33,-68,-48,-105,-21v-31,23,-39,76,-9,107xm201,-793v33,-19,78,-89,124,-42v17,17,12,46,-7,61r-90,70v-15,12,-39,12,-54,0r-90,-70v-19,-15,-24,-44,-7,-61v45,-47,90,23,124,42","w":387},"\u017d":{"d":"312,-652v31,-2,58,35,44,67r-212,505r168,0v27,0,48,21,48,48v0,27,-21,48,-48,48r-240,0v-31,2,-58,-35,-44,-67r212,-505r-168,0v-27,0,-48,-21,-48,-48v0,-27,21,-48,48,-48r240,0xm192,-793v33,-19,78,-89,124,-42v17,17,12,46,-7,61r-90,70v-15,12,-39,12,-54,0r-90,-70v-19,-15,-24,-44,-7,-61v45,-47,90,23,124,42","w":384},"\u0161":{"d":"142,-301v58,44,145,80,152,170v6,85,-73,162,-160,146v-43,-7,-78,-31,-99,-68v-12,-21,-5,-49,16,-61v23,-12,52,-6,62,16v21,44,98,22,91,-27v-2,-17,-8,-29,-20,-37v-57,-43,-144,-78,-151,-167v-7,-82,73,-158,156,-142v40,7,75,30,96,66v12,21,6,49,-17,61v-21,12,-50,6,-61,-16v-20,-40,-90,-20,-84,25v2,14,8,25,19,34xm168,-589v34,-19,76,-90,122,-44v17,17,11,43,-7,57r-90,70v-14,10,-36,11,-50,0r-90,-70v-19,-15,-24,-40,-7,-57v45,-46,88,25,122,44","w":329},"\u017e":{"d":"272,-469v31,-2,56,34,40,66r-167,326v66,6,172,-24,172,45v0,25,-20,45,-45,45r-200,0v-31,2,-56,-34,-40,-65r166,-327v-66,-6,-171,24,-171,-45v0,-25,20,-45,45,-45r200,0xm172,-589v34,-19,77,-89,122,-44v17,17,11,43,-7,57r-90,70v-14,10,-36,11,-50,0r-90,-70v-19,-15,-24,-40,-7,-57v45,-46,88,25,122,44","w":344},"\u0141":{"d":"67,-245v-22,17,-56,12,-72,-14v-13,-23,-5,-52,18,-65r54,-32r0,-252v0,-27,21,-48,48,-48v27,0,48,21,48,48r0,197v26,-20,76,-43,97,-1v32,63,-61,86,-97,112r0,220r152,0v27,0,48,21,48,48v0,27,-21,48,-48,48r-200,0v-27,0,-48,-21,-48,-48r0,-213","w":375},"\u0142":{"d":"164,-406v21,-17,57,-17,72,11v11,21,5,48,-17,61r-55,32r0,205v0,13,6,23,17,30v23,13,29,39,17,62v-52,63,-124,-33,-124,-92r0,-153v-21,16,-59,17,-72,-10v-26,-53,40,-74,72,-94r0,-274v0,-25,20,-45,45,-45v25,0,45,20,45,45r0,222","w":238},"P":{"d":"52,-604v1,-70,102,-48,168,-48v93,0,168,75,168,168v0,133,-55,220,-168,224r-72,0r0,232v0,27,-21,48,-48,48v-27,0,-48,-21,-48,-48r0,-576xm292,-428v0,-70,-10,-127,-72,-128r-72,0r0,200r72,0v40,0,72,-32,72,-72","w":400,"k":{",":110,"\u00f6":10,".":110,"a":20,"e":10,"o":10,"A":40}},"~":{"d":"369,-316v58,51,-28,114,-78,122v-41,7,-86,-10,-116,-34v-21,-17,-51,-9,-64,11v-14,22,-44,30,-63,13v-58,-52,28,-115,77,-122v44,-7,87,8,117,34v21,18,51,8,63,-11v14,-22,45,-30,64,-13"},"\u00a0":{"w":192}}});
/*!
 * The following copyright notice may not be removed under any circumstances.
 * 
 * Copyright:
 * Copyright (c) Mårten Nettelbladt, 2006. All rights reserved.
 * 
 * Trademark:
 * Miso Light is a trademark of Mårten Nettelbladt.
 * 
 * Full name:
 * Miso-Light
 * 
 * Manufacturer:
 * Mårten Nettelbladt
 * 
 * Designer:
 * Mårten Nettelbladt
*/
Cufon.registerFont({"w":416,"face":{"font-family":"Miso Light","font-weight":300,"font-style":"italic","font-stretch":"normal","units-per-em":"1000","panose-1":"0 0 0 0 0 0 0 0 0 0","ascent":"800","descent":"-200","bbox":"-20 -847 690 191","underline-thickness":"36","underline-position":"36","slope":"10","stemh":"38","stemv":"36","unicode-range":"U+0020-U+20AC"},"glyphs":{" ":{"w":192},"O":{"d":"69,-488v0,-77,62,-139,139,-139v77,0,139,62,139,139r0,340v0,77,-62,139,-139,139v-77,0,-139,-62,-139,-139r0,-340xm309,-488v0,-56,-45,-101,-101,-101v-56,0,-101,45,-101,101r0,340v0,56,45,101,101,101v56,0,101,-45,101,-101r0,-340","k":{"A":10,"Y":20,"W":20,"V":10,"T":20}},"Q":{"d":"260,-19v-95,37,-191,-35,-191,-129r0,-340v0,-77,62,-139,139,-139v77,0,139,62,139,139r0,340v0,45,-21,83,-53,110r51,88v5,9,2,21,-7,27v-9,6,-20,2,-26,-8xm107,-148v0,56,46,101,101,101v56,0,101,-45,101,-101r0,-340v0,-56,-45,-101,-101,-101v-55,0,-101,45,-101,101r0,340"},"R":{"d":"220,-623v77,0,139,62,139,139v0,100,-23,165,-98,189r97,260v4,11,0,21,-11,25v-11,4,-21,0,-25,-11r-100,-268r-103,0r0,261v0,13,-6,19,-19,19v-11,0,-19,-8,-19,-19r0,-576v0,-11,8,-19,19,-19r120,0xm321,-428v0,-90,-24,-157,-101,-157r-101,0r0,258r101,0v56,0,101,-45,101,-101","k":{"Y":20,"T":10}},"S":{"d":"163,-49v98,22,169,-104,97,-178r-159,-164v-59,-59,-48,-162,15,-208v70,-52,170,-25,205,41v5,11,3,20,-7,27v-9,5,-21,2,-26,-7v-25,-46,-96,-69,-148,-30v-45,34,-54,107,-12,150r160,165v61,60,48,167,-17,215v-73,54,-176,25,-212,-43v-5,-9,-3,-21,8,-26v9,-5,20,-3,26,7v17,26,39,44,70,51","w":382},"T":{"d":"320,-623v11,0,20,8,20,19v0,11,-9,19,-20,19r-110,0r0,557v0,11,-9,19,-20,19v-11,0,-19,-8,-19,-19r0,-557r-111,0v-11,0,-19,-8,-19,-19v0,-11,8,-19,19,-19r260,0","w":380,"k":{",":80,":":60,";":60,"-":80,"\u00f6":30,".":80,"a":80,"e":70,"i":20,"o":70,"r":70,"y":70,"w":70,"u":70,"A":50,"O":10}},"U":{"d":"111,-148v0,56,45,101,101,101v55,0,100,-45,100,-101r0,-460v0,-11,9,-19,20,-19v11,0,19,8,19,19r0,460v0,77,-63,139,-139,139v-77,0,-140,-62,-140,-139r0,-460v0,-11,9,-19,20,-19v11,0,19,8,19,19r0,460","w":424,"k":{"A":10}},"V":{"d":"46,-603v-3,-11,3,-20,14,-23v11,-3,20,2,23,13r142,513r141,-513v3,-11,13,-16,24,-13v11,3,16,12,13,23r-160,580v-4,19,-32,18,-37,0","w":448,"k":{",":100,":":30,";":30,"-":50,"\u00f6":30,".":100,"a":50,"e":50,"o":50,"u":40,"A":40,"O":10}},"W":{"d":"50,-603v-7,-28,31,-32,37,-9r122,502r121,-502v2,-20,32,-20,37,0r122,502r121,-502v3,-11,12,-18,23,-15v13,3,17,11,14,24r-140,580v-4,19,-33,18,-37,0r-121,-503r-122,503v-4,19,-33,18,-37,0","w":698,"k":{",":90,":":40,";":40,"-":40,".":90,"a":40,"e":40,"o":40,"y":30,"u":40,"A":40,"O":20}},"X":{"d":"369,-11v-9,5,-21,1,-25,-8r-133,-266r-133,266v-5,9,-15,13,-26,8v-9,-5,-13,-15,-8,-26r145,-291r-135,-271v-5,-11,-1,-21,8,-26v11,-5,21,-1,26,8r123,246r123,-246v4,-9,16,-13,25,-8v11,5,14,15,9,26r-136,271r146,291v5,11,2,21,-9,26","w":422},"Y":{"d":"52,-625v11,-5,21,-1,26,8r123,246r123,-246v5,-9,15,-13,26,-8v9,5,13,15,8,26r-138,276r0,295v0,13,-6,19,-19,19v-13,0,-19,-6,-19,-19r0,-295r-138,-276v-5,-11,-1,-21,8,-26","w":402,"k":{",":90,":":50,";":50,"-":90,".":90,"a":70,"e":70,"g":70,"i":20,"m":60,"n":60,"o":70,"p":60,"s":70,"x":50,"v":50,"u":60,"A":50,"O":20}},"Z":{"d":"72,-13v-13,1,-23,-13,-18,-26r229,-546r-211,0v-13,0,-19,-6,-19,-19v0,-13,6,-19,19,-19r240,0v13,-1,23,13,18,26r-229,546r211,0v13,0,19,6,19,19v0,13,-6,19,-19,19r-240,0","w":384},"N":{"d":"399,-28v1,21,-27,26,-36,8r-244,-504r0,496v0,13,-6,19,-19,19v-13,0,-19,-6,-19,-19r0,-580v-1,-21,27,-26,36,-8r244,504r0,-496v0,-13,6,-19,19,-19v13,0,19,6,19,19r0,580","w":480},"M":{"d":"100,-9v-13,0,-19,-6,-19,-19r0,-580v-1,-21,27,-26,36,-8r143,303r142,-303v7,-18,37,-14,37,8r0,580v0,11,-8,19,-19,19v-13,0,-19,-6,-19,-19r0,-494r-124,262v-6,15,-29,14,-35,0r-123,-262r0,494v0,11,-8,19,-19,19","w":520},"L":{"d":"100,-13v-11,0,-20,-8,-20,-19r0,-576v0,-11,9,-19,20,-19v11,0,19,8,19,19r0,557r181,0v11,0,19,8,19,19v0,11,-8,19,-19,19r-200,0","w":348,"k":{"y":40,"Y":60,"W":60,"V":60,"T":60}},"K":{"d":"372,-624v8,7,10,18,4,27r-160,225r162,336v4,9,0,21,-9,25v-11,5,-21,2,-26,-9r-152,-316r-71,99r0,209v0,11,-9,19,-20,19v-11,0,-19,-8,-19,-19r0,-580v0,-11,8,-19,19,-19v11,0,20,8,20,19r0,305r225,-316v7,-9,18,-12,27,-5","w":421,"k":{"\u00f6":20,"e":20,"o":20,"y":20,"u":10,"O":10}},"J":{"d":"66,-61v67,42,151,-17,151,-87r0,-460v0,-11,9,-19,20,-19v11,0,19,8,19,19r0,460v6,98,-115,176,-209,121v-11,-6,-12,-16,-7,-27v5,-9,17,-12,26,-7","w":333,"k":{",":20,".":20}},"I":{"d":"100,-9v-11,0,-19,-8,-19,-19r0,-580v0,-11,8,-19,19,-19v11,0,20,8,20,19r0,580v0,11,-9,19,-20,19","w":200},"H":{"d":"321,-347r0,-261v0,-11,8,-19,19,-19v11,0,20,8,20,19r0,580v0,11,-9,19,-20,19v-11,0,-19,-8,-19,-19r0,-281r-201,0r0,281v0,11,-9,19,-20,19v-11,0,-19,-8,-19,-19r0,-580v0,-11,8,-19,19,-19v11,0,20,8,20,19r0,261r201,0","w":440},"G":{"d":"69,-488v0,-64,43,-118,103,-134v61,-17,126,9,157,64v6,11,3,20,-7,27v-9,5,-21,2,-26,-7v-23,-40,-70,-59,-114,-47v-44,11,-75,52,-75,97r0,340v0,56,46,101,101,101v56,0,101,-45,101,-101r0,-141r-81,0v-11,0,-19,-8,-19,-19v0,-11,8,-19,19,-19r100,0v13,0,19,6,19,19r0,160v0,77,-62,139,-139,139v-76,0,-139,-62,-139,-139r0,-340","w":412},"F":{"d":"100,-13v-11,0,-19,-8,-19,-19r0,-572v0,-11,8,-19,19,-19r200,0v13,0,19,6,19,19v0,13,-6,19,-19,19r-181,0r0,238r161,0v13,0,19,6,19,19v0,13,-6,19,-19,19r-161,0r0,277v0,13,-6,19,-19,19","w":360,"k":{",":110,"\u00f6":10,".":110,"a":10,"e":20,"i":10,"o":20,"r":10,"A":40}},"E":{"d":"100,-13v-13,0,-19,-6,-19,-19r0,-572v0,-13,6,-19,19,-19r200,0v13,0,19,6,19,19v0,13,-6,19,-19,19r-181,0r0,238r161,0v13,0,19,6,19,19v0,13,-6,19,-19,19r-161,0r0,258r181,0v13,0,19,6,19,19v0,13,-6,19,-19,19r-200,0","w":368},"D":{"d":"220,-623v77,0,139,62,139,139r0,332v0,77,-62,139,-139,139r-120,0v-13,0,-19,-6,-19,-19r0,-572v0,-13,6,-19,19,-19r120,0xm321,-484v0,-56,-45,-101,-101,-101r-101,0r0,534r101,0v56,0,101,-45,101,-101r0,-332","w":428,"k":{"A":10,"Y":20,"W":10,"V":10}},"C":{"d":"172,-13v-61,-17,-103,-71,-103,-135r0,-340v0,-64,42,-118,103,-134v61,-17,125,9,156,64v7,11,4,20,-7,27v-9,5,-21,2,-26,-7v-45,-88,-188,-49,-188,50r0,340v-5,100,143,138,188,50v5,-9,17,-12,26,-7v11,7,14,16,7,27v-31,55,-95,81,-156,65","w":385},"B":{"d":"81,-604v0,-13,6,-19,19,-19r120,0v89,3,139,72,139,175v0,51,-28,96,-69,120v57,34,69,90,69,176v0,77,-62,139,-139,139r-120,0v-13,0,-19,-6,-19,-19r0,-572xm321,-152v0,-90,-25,-157,-101,-157r-101,0r0,258r101,0v55,0,101,-45,101,-101xm321,-448v0,-81,-33,-137,-101,-137r-101,0r0,238r101,0v55,0,101,-45,101,-101","w":428,"k":{"A":10}},"A":{"d":"394,-33v3,11,-2,21,-13,24v-27,5,-27,-29,-34,-50v-7,-23,-13,-53,-24,-90r-214,0r-35,126v-3,11,-12,17,-23,14v-11,-3,-17,-13,-14,-24r160,-580v5,-18,33,-19,37,0xm312,-187r-96,-349r-96,349r192,0","w":432,"k":{"y":10,"w":10,"v":10,"Y":50,"W":40,"V":40,"T":50}},"u":{"d":"192,-14v-64,0,-118,-54,-118,-118r0,-296v0,-11,7,-18,18,-18v11,0,18,7,18,18r0,296v0,45,37,82,82,82r82,0r0,-378v0,-11,7,-18,18,-18v11,0,18,7,18,18r0,396v0,11,-7,18,-18,18r-100,0","w":392},"v":{"d":"48,-423v-3,-9,1,-19,12,-22v9,-3,19,1,22,12r103,342r103,-342v3,-11,13,-15,22,-12v11,3,15,13,12,22r-120,400v-2,18,-29,17,-34,0","w":370,"k":{",":70,"\u00f6":10,".":70,"a":10,"e":10,"o":10}},"w":{"d":"51,-424v-3,-9,2,-18,13,-21v11,-3,19,2,22,13r82,330r83,-330v3,-19,31,-18,35,0r82,330r83,-330v3,-11,11,-16,22,-13v9,3,16,12,13,21r-100,400v-4,18,-30,19,-35,0r-83,-330r-82,330v-4,18,-30,19,-35,0","w":538,"k":{",":60,".":60,"a":10,"e":10,"o":10,"s":10}},"x":{"d":"60,-12v-9,-5,-12,-16,-7,-25r107,-195r-103,-187v-13,-23,21,-37,31,-18r92,168r93,-168v4,-8,15,-12,24,-7v9,5,12,16,7,25r-103,187r107,195v5,9,2,20,-7,25v-9,5,-20,1,-24,-7r-97,-175r-96,175v-5,8,-16,12,-24,7","w":360},"y":{"d":"50,190v-11,0,-18,-7,-18,-18v0,-32,49,-11,67,-34v43,-36,45,-110,67,-166r-119,-395v-3,-9,3,-19,12,-22v11,-3,20,1,23,12r102,342r103,-342v3,-11,12,-15,23,-12v9,3,15,13,12,22r-159,529v-12,43,-58,85,-113,84","w":369,"k":{",":70,".":70,"a":10,"e":10,"o":10}},"z":{"d":"72,-14v-14,1,-21,-12,-17,-26r187,-366r-170,0v-11,0,-18,-7,-18,-18v0,-11,7,-18,18,-18r200,0v13,-1,22,14,16,26r-187,366r171,0v9,0,18,7,18,18v0,11,-9,18,-18,18r-200,0","w":344,"k":{"e":10,"o":10}},"t":{"d":"118,-406v-29,-4,-80,13,-80,-18v0,-31,52,-14,80,-18r0,-186v0,-11,7,-18,18,-18v11,0,18,7,18,18r0,186r82,0v11,0,18,7,18,18v0,11,-7,18,-18,18r-82,0r0,278v0,45,37,82,82,82v11,0,18,7,18,18v0,11,-7,18,-18,18v-64,0,-118,-54,-118,-118r0,-278","w":296},"s":{"d":"147,-47v75,15,119,-91,55,-137v-53,-38,-131,-67,-139,-147v-7,-65,58,-126,124,-114v33,6,61,25,77,53v5,9,3,20,-6,25v-9,5,-20,2,-25,-7v-31,-65,-144,-31,-134,41v3,23,13,40,31,54v52,41,133,68,140,150v6,69,-59,131,-129,118v-33,-6,-63,-24,-80,-55v-5,-9,-2,-20,7,-25v9,-5,20,-2,25,7v12,21,30,32,54,37","w":329,"k":{"w":10}},"r":{"d":"100,-10v-11,0,-18,-7,-18,-18r0,-396v0,-11,7,-18,18,-18v59,3,118,-10,159,16v9,5,12,16,7,24v-16,24,-42,-4,-66,-4r-82,0r0,378v0,11,-7,18,-18,18","w":299,"k":{",":80,"-":30,"\u00f6":10,".":80,"a":10,"c":10,"o":10,"t":-20,"y":-20,"v":-20}},"q":{"d":"188,-14v-64,0,-118,-54,-118,-118r0,-192v0,-64,54,-118,118,-118r100,0v11,0,18,7,18,18r0,596v0,11,-7,18,-18,18v-11,0,-18,-7,-18,-18r0,-186r-82,0xm188,-406v-45,0,-82,37,-82,82r0,192v0,45,37,82,82,82r82,0r0,-356r-82,0","w":388},"p":{"d":"100,190v-11,0,-18,-7,-18,-18r0,-596v0,-11,7,-18,18,-18r100,0v64,0,118,54,118,118r0,192v0,64,-54,118,-118,118r-82,0r0,186v0,11,-7,18,-18,18xm282,-324v0,-45,-37,-82,-82,-82r-82,0r0,356r82,0v45,0,82,-37,82,-82r0,-192","w":388,"k":{"y":10}},"o":{"d":"188,-10v-64,0,-118,-54,-118,-118r0,-200v0,-64,54,-118,118,-118v64,0,118,54,118,118r0,200v0,64,-54,118,-118,118xm188,-410v-45,0,-82,37,-82,82r0,200v0,45,37,82,82,82v45,0,82,-37,82,-82r0,-200v0,-45,-37,-82,-82,-82","w":376,"k":{"y":10,"w":10,"v":10}},"n":{"d":"100,-10v-11,0,-18,-7,-18,-18r0,-396v0,-11,7,-18,18,-18r100,0v64,0,118,54,118,118r0,296v0,11,-7,18,-18,18v-11,0,-18,-7,-18,-18r0,-296v0,-45,-37,-82,-82,-82r-82,0r0,378v0,11,-7,18,-18,18","w":392},"m":{"d":"118,-406r0,378v0,11,-9,18,-18,18v-11,0,-18,-7,-18,-18r0,-396v0,-11,7,-18,18,-18r300,0v64,0,118,54,118,118r0,296v0,11,-9,18,-18,18v-11,0,-18,-7,-18,-18r0,-296v0,-45,-37,-82,-82,-82r-82,0r0,378v0,11,-9,18,-18,18v-11,0,-18,-7,-18,-18r0,-378r-164,0","w":592},"l":{"d":"128,-12v-31,-19,-49,-50,-49,-85r0,-531v0,-11,9,-18,18,-18v11,0,18,7,18,18r0,531v0,23,12,42,31,53v9,5,12,16,7,25v-5,9,-16,12,-25,7","w":200},"k":{"d":"335,-37v13,23,-21,37,-31,18r-124,-226r-62,70r0,147v0,11,-7,18,-18,18v-11,0,-18,-7,-18,-18r0,-600v0,-11,7,-18,18,-18v11,0,18,7,18,18r0,399r188,-211v7,-7,18,-8,26,-1v7,7,8,18,1,25r-128,143","w":380,"k":{"\u00f6":10,"e":10,"o":10}},"j":{"d":"108,-550v-15,0,-28,-13,-28,-28v0,-15,13,-28,28,-28v16,0,28,13,28,28v0,15,-12,28,-28,28xm8,190v-11,0,-18,-7,-18,-18v0,-11,7,-18,18,-18v47,0,82,-37,82,-82r0,-500v0,-11,7,-18,18,-18v11,0,18,7,18,18r0,500v0,64,-54,118,-118,118","w":208},"i":{"d":"100,-550v-15,0,-28,-13,-28,-28v0,-15,13,-28,28,-28v16,0,28,13,28,28v0,15,-12,28,-28,28xm118,-28v0,11,-7,18,-18,18v-11,0,-18,-7,-18,-18r0,-400v0,-11,7,-18,18,-18v11,0,18,7,18,18r0,400","w":200},"h":{"d":"100,-10v-11,0,-18,-7,-18,-18r0,-600v0,-11,7,-18,18,-18v11,0,18,7,18,18r0,186r82,0v64,0,118,54,118,118r0,296v0,11,-7,18,-18,18v-11,0,-18,-7,-18,-18r0,-296v0,-45,-37,-82,-82,-82r-82,0r0,378v0,11,-7,18,-18,18","w":392},"g":{"d":"105,155v-10,-10,-4,-31,12,-30v5,0,10,2,13,5v50,54,140,10,140,-58r0,-86r-82,0v-64,0,-118,-54,-118,-118r0,-192v0,-64,54,-118,118,-118r100,0v11,0,18,7,18,18r0,496v6,95,-128,162,-201,83xm188,-406v-45,0,-82,37,-82,82r0,192v0,45,37,82,82,82r82,0r0,-356r-82,0","w":384},"f":{"d":"118,-406v-29,-4,-80,13,-80,-18v0,-31,52,-14,80,-18r0,-86v0,-64,54,-118,118,-118v11,0,18,7,18,18v0,11,-7,18,-18,18v-45,0,-82,37,-82,82r0,86r82,0v11,0,18,7,18,18v0,11,-7,18,-18,18r-82,0r0,378v0,11,-7,18,-18,18v-11,0,-18,-7,-18,-18r0,-378","w":296},"e":{"d":"246,-70v10,-11,31,-3,30,13v0,5,-2,9,-5,12v-71,78,-201,13,-201,-83r0,-200v0,-64,54,-118,118,-118v64,0,118,54,118,118r0,100v0,11,-7,18,-18,18r-182,0v-1,73,-6,136,51,158v31,12,65,6,89,-18xm188,-410v-45,0,-82,37,-82,82r0,82r164,0r0,-82v0,-45,-37,-82,-82,-82","w":368,"k":{"y":10,"w":10,"v":10}},"d":{"d":"188,-14v-64,0,-118,-54,-118,-118r0,-192v0,-64,54,-118,118,-118r82,0r0,-186v0,-11,7,-18,18,-18v11,0,18,7,18,18r0,596v0,11,-7,18,-18,18r-100,0xm188,-406v-45,0,-82,37,-82,82r0,192v0,45,37,82,82,82r82,0r0,-356r-82,0","w":388},"c":{"d":"246,-70v10,-11,31,-3,30,13v0,5,-2,9,-5,12v-72,78,-201,13,-201,-83r0,-200v-6,-95,128,-162,201,-83v10,10,3,31,-13,30v-5,0,-9,-2,-12,-5v-51,-52,-140,-10,-140,58r0,200v-5,67,90,112,140,58","w":328,"k":{"y":10}},"b":{"d":"100,-14v-11,0,-18,-7,-18,-18r0,-596v0,-11,7,-18,18,-18v11,0,18,7,18,18r0,186r82,0v64,0,118,54,118,118r0,192v0,64,-54,118,-118,118r-100,0xm118,-406r0,356r82,0v45,0,82,-37,82,-82r0,-192v0,-45,-37,-82,-82,-82r-82,0","w":388,"k":{"y":10,"v":10}},"a":{"d":"105,-387v-11,11,-31,4,-30,-12v0,-5,2,-10,5,-13v70,-76,198,-12,198,82r0,298v0,11,-7,18,-18,18r-100,0v-64,0,-118,-54,-118,-118v0,-64,54,-118,118,-118r82,0v1,-72,7,-133,-50,-154v-31,-12,-65,-7,-87,17xm78,-132v0,45,35,82,82,82r82,0r0,-164r-82,0v-47,0,-82,37,-82,82","w":352,"k":{"y":10,"w":10,"v":10}},"0":{"d":"208,-9v-77,0,-140,-62,-140,-139r0,-340v0,-77,63,-139,140,-139v76,0,139,62,139,139r0,340v0,77,-63,139,-139,139xm107,-148v0,56,45,101,101,101v55,0,100,-45,100,-101r0,-340v0,-56,-45,-101,-100,-101v-56,0,-101,45,-101,101r0,340"},"1":{"d":"125,-474v-18,17,-44,-11,-27,-28r120,-120v13,-12,34,-3,33,14r0,580v0,11,-8,19,-19,19v-13,0,-19,-6,-19,-19r0,-534"},"2":{"d":"109,-538v-13,21,-47,2,-34,-20v31,-55,114,-93,188,-52v57,32,96,111,56,187r-195,372r192,0v11,0,19,8,19,19v0,11,-8,19,-19,19r-224,0v-13,1,-24,-13,-17,-28r210,-400v39,-81,-27,-165,-116,-144v-26,6,-45,23,-60,47"},"3":{"d":"95,-98v46,87,188,51,188,-50v0,-92,-21,-159,-101,-161v-13,0,-19,-6,-19,-19v0,-13,6,-19,19,-19v70,-2,101,-58,101,-141v0,-45,-31,-86,-75,-97v-44,-12,-89,7,-113,47v-6,10,-17,13,-27,7v-11,-6,-13,-16,-7,-27v31,-55,96,-82,157,-64v74,21,103,81,103,174v0,51,-28,96,-69,120v58,34,69,92,69,180v0,64,-42,118,-103,135v-61,16,-126,-10,-157,-65v-6,-11,-4,-21,7,-27v10,-6,21,-4,27,7"},"4":{"d":"74,-149v-12,1,-22,-12,-18,-25r140,-440v4,-21,39,-14,37,6r-133,421r155,0r0,-121v0,-13,6,-19,19,-19v13,0,19,6,19,19r0,121v29,4,80,-14,80,19v0,33,-52,14,-80,19r0,121v0,13,-6,19,-19,19v-13,0,-19,-6,-19,-19r0,-121r-181,0"},"5":{"d":"120,-308v-10,17,-36,9,-36,-10r0,-286v0,-11,8,-19,19,-19r208,0v13,0,19,6,19,19v0,13,-6,19,-19,19r-189,0r0,217v91,-73,224,2,224,110r0,110v0,64,-42,118,-103,135v-61,16,-125,-10,-156,-65v-7,-11,-4,-20,7,-27v9,-5,21,-3,26,7v46,86,188,51,188,-50r0,-110v0,-45,-31,-86,-75,-97v-44,-12,-90,7,-113,47"},"6":{"d":"217,-9v-77,0,-139,-62,-139,-139r0,-340v0,-64,42,-118,103,-134v61,-17,125,9,157,64v13,22,-22,42,-34,20v-47,-87,-188,-49,-188,50r0,144v27,-27,62,-43,101,-43v77,0,139,62,139,139r0,100v0,77,-62,139,-139,139xm116,-148v0,56,46,101,101,101v56,0,101,-45,101,-101r0,-100v0,-56,-45,-101,-101,-101v-55,0,-101,45,-101,101r0,100"},"7":{"d":"85,-505v-35,0,-19,-65,-19,-99v0,-11,8,-19,19,-19r240,0v13,-1,22,11,19,24r-140,576v-3,22,-44,18,-38,-5r135,-557r-197,0v-4,29,14,80,-19,80"},"8":{"d":"208,-9v-76,0,-139,-62,-139,-139v0,-88,11,-146,69,-180v-52,-32,-69,-82,-69,-160v0,-77,63,-139,139,-139v91,0,140,72,140,179v0,51,-28,96,-69,120v58,34,69,92,69,180v0,77,-63,139,-140,139xm108,-488v0,83,31,141,100,141v70,0,101,-58,101,-141v0,-56,-45,-101,-101,-101v-55,0,-100,45,-100,101xm108,-208v0,91,22,161,100,161v56,0,101,-45,101,-101v0,-92,-21,-161,-101,-161v-55,0,-100,45,-100,101"},"9":{"d":"199,-249v-76,0,-139,-62,-139,-139r0,-100v0,-77,63,-139,139,-139v77,0,140,62,140,139r0,340v0,64,-43,118,-104,135v-60,16,-126,-10,-156,-65v-6,-11,-3,-20,7,-27v9,-5,21,-2,26,7v45,87,188,51,188,-50r0,-144v-25,27,-61,43,-101,43xm99,-388v0,56,45,101,100,101v56,0,101,-45,101,-101r0,-100v0,-56,-45,-101,-101,-101v-55,0,-100,45,-100,101r0,100"},".":{"d":"67,-38v0,-16,13,-29,29,-29v16,0,29,13,29,29v0,16,-13,29,-29,29v-16,0,-29,-13,-29,-29","w":192},"@":{"d":"382,-626v165,0,308,143,308,308r0,186v0,67,-54,118,-118,118r-200,0v-64,0,-118,-51,-118,-118v0,-64,54,-118,118,-118r82,0v1,-72,6,-133,-51,-154v-31,-12,-65,-5,-89,18v-10,10,-31,3,-30,-13v0,-5,2,-10,5,-13v72,-75,201,-13,201,82r0,280r82,0v47,0,82,-35,82,-82r0,-186v4,-146,-127,-272,-272,-272v-145,0,-272,127,-272,272r0,180v-3,145,126,276,272,272r110,0v11,0,18,9,18,18v0,11,-7,18,-18,18r-110,0v-164,4,-308,-143,-308,-308r0,-180v-4,-164,144,-308,308,-308xm290,-132v0,47,37,82,82,82r82,0r0,-164r-82,0v-45,0,-82,37,-82,82","w":764},"\u00f6":{"d":"136,-578v0,15,-13,28,-28,28v-15,0,-28,-13,-28,-28v0,-15,13,-28,28,-28v15,0,28,13,28,28xm296,-578v0,15,-13,28,-28,28v-15,0,-28,-13,-28,-28v0,-15,13,-28,28,-28v15,0,28,13,28,28xm306,-128v0,64,-54,118,-118,118v-64,0,-118,-54,-118,-118r0,-200v0,-64,54,-118,118,-118v64,0,118,54,118,118r0,200xm188,-46v45,0,82,-37,82,-82r0,-200v0,-45,-37,-82,-82,-82v-45,0,-82,37,-82,82r0,200v0,45,37,82,82,82","w":376,"k":{"v":10}},"\u00d6":{"d":"347,-148v0,77,-63,139,-139,139v-77,0,-140,-62,-140,-139r0,-340v0,-77,63,-139,140,-139v76,0,139,62,139,139r0,340xm208,-47v55,0,100,-45,100,-101r0,-340v0,-56,-45,-101,-100,-101v-56,0,-101,45,-101,101r0,340v0,56,45,101,101,101xm317,-778v0,16,-13,29,-29,29v-17,0,-30,-13,-30,-29v0,-16,13,-29,30,-29v16,0,29,13,29,29xm157,-778v0,16,-13,29,-29,29v-17,0,-30,-13,-30,-29v0,-16,13,-29,30,-29v16,0,29,13,29,29"},"-":{"d":"347,-288v0,11,-8,19,-19,19r-240,0v-11,0,-20,-8,-20,-19v0,-11,9,-19,20,-19r240,0v11,0,19,8,19,19"},"\u0131":{"d":"100,-10v-9,0,-18,-7,-18,-18r0,-400v0,-11,9,-18,18,-18v11,0,18,7,18,18r0,400v0,11,-7,18,-18,18","w":200},"\u00fc":{"d":"84,-578v0,-15,13,-28,28,-28v16,0,28,13,28,28v0,15,-12,28,-28,28v-15,0,-28,-13,-28,-28xm244,-578v0,-15,13,-28,28,-28v16,0,28,13,28,28v0,15,-12,28,-28,28v-15,0,-28,-13,-28,-28xm192,-14v-64,0,-118,-54,-118,-118r0,-296v0,-11,9,-18,18,-18v11,0,18,7,18,18r0,296v0,45,37,82,82,82r82,0r0,-378v0,-11,9,-18,18,-18v11,0,18,7,18,18r0,396v0,11,-7,18,-18,18r-100,0","w":392},"\u00e7":{"d":"170,-11v-58,-11,-100,-60,-100,-117r0,-200v-5,-96,129,-162,202,-83v10,10,3,31,-13,30v-5,0,-10,-2,-13,-5v-50,-53,-140,-9,-140,58r0,200v0,42,33,80,83,82v29,1,46,-20,70,-29v11,0,18,7,18,18v-10,30,-45,40,-71,46v4,63,-5,104,-49,129v-9,5,-20,2,-24,-6v-5,-9,-3,-20,6,-25v32,-17,33,-52,31,-98","w":331},"\u0153":{"d":"446,-70v10,-11,31,-3,30,13v0,5,-2,9,-5,12v-53,59,-154,37,-183,-20v-21,33,-57,55,-100,55v-64,0,-118,-54,-118,-118r0,-200v0,-64,54,-118,118,-118v43,0,79,22,100,55v21,-33,57,-55,100,-55v64,0,118,54,118,118r0,100v0,11,-7,18,-18,18r-182,0v-1,73,-7,136,50,158v31,12,66,6,90,-18xm388,-410v-45,0,-82,37,-82,82r0,82r164,0r0,-82v0,-45,-37,-82,-82,-82xm188,-46v45,0,82,-37,82,-82r0,-200v0,-45,-37,-82,-82,-82v-45,0,-82,37,-82,82r0,200v0,45,37,82,82,82","w":568},"\u00c7":{"d":"188,-10v-72,-10,-119,-69,-120,-138r0,-340v0,-64,43,-118,103,-134v69,-19,140,20,167,82v5,9,2,21,-7,26v-18,10,-30,-12,-36,-24v-23,-40,-70,-59,-114,-47v-44,11,-74,52,-74,97r0,340v-5,101,143,138,188,50v6,-12,18,-34,36,-24v18,10,5,32,-3,44v-23,39,-60,61,-101,68v4,64,-6,105,-50,131v-10,6,-21,2,-26,-7v-5,-9,-2,-21,7,-26v32,-16,31,-53,30,-98","w":394},"\u0152":{"d":"309,-52v-27,27,-62,43,-101,43v-77,0,-139,-62,-139,-139r0,-340v0,-77,62,-139,139,-139v39,0,74,16,101,43v0,-20,-2,-39,19,-39r200,0v11,0,19,8,19,19v0,11,-8,19,-19,19r-181,0r0,238r161,0v11,0,19,8,19,19v0,11,-8,19,-19,19r-161,0r0,258r181,0v11,0,19,8,19,19v0,11,-8,19,-19,19r-200,0v-21,2,-19,-19,-19,-39xm107,-148v0,56,45,101,101,101v61,0,101,-50,101,-121r0,-320v0,-56,-46,-101,-101,-101v-56,0,-101,45,-101,101r0,340","w":596},"\u00dc":{"d":"212,-9v-76,0,-139,-62,-139,-139r0,-460v0,-11,8,-19,19,-19v11,0,20,8,20,19r0,460v0,56,45,101,100,101v56,0,101,-45,101,-101r0,-460v0,-11,8,-19,19,-19v11,0,20,8,20,19r0,460v0,77,-63,139,-140,139xm263,-778v0,-16,13,-29,29,-29v16,0,30,13,30,29v0,16,-14,29,-30,29v-16,0,-29,-13,-29,-29xm132,-749v-16,0,-29,-13,-29,-29v0,-16,13,-29,29,-29v16,0,30,13,30,29v0,16,-14,29,-30,29","w":424},"\u0178":{"d":"78,-617r122,246r123,-246v5,-9,15,-13,26,-8v9,5,14,16,9,26r-138,276r0,295v0,11,-9,19,-20,19v-11,0,-19,-8,-19,-19r0,-295r-138,-276v-5,-11,-2,-21,9,-26v9,-5,21,-1,26,8xm280,-749v-16,0,-29,-13,-29,-29v0,-16,13,-29,29,-29v16,0,30,13,30,29v0,16,-14,29,-30,29xm150,-778v0,16,-14,29,-30,29v-16,0,-29,-13,-29,-29v0,-16,13,-29,29,-29v16,0,30,13,30,29","w":402},"?":{"d":"236,-417v69,-67,4,-191,-91,-170v-29,7,-53,24,-68,49v-5,9,-17,13,-26,7v-9,-6,-13,-16,-7,-27v36,-67,135,-93,205,-41v65,48,72,148,14,209v-31,32,-79,63,-79,122v0,35,16,95,-20,99v-35,-5,-16,-65,-19,-99v-6,-69,53,-112,91,-149xm164,-67v16,0,30,13,30,29v0,16,-14,29,-30,29v-16,0,-29,-13,-29,-29v0,-16,13,-29,29,-29","w":357},"!":{"d":"71,-38v0,-16,13,-29,29,-29v16,0,30,13,30,29v0,16,-14,29,-30,29v-16,0,-29,-13,-29,-29xm120,-188v0,11,-9,19,-20,19v-11,0,-19,-8,-19,-19r0,-400v0,-11,8,-19,19,-19v11,0,20,8,20,19r0,400","w":200},"\"":{"d":"256,-627v13,0,19,6,19,19r0,100v0,13,-6,19,-19,19v-13,0,-19,-6,-19,-19r0,-100v0,-13,6,-19,19,-19xm77,-608v0,-13,6,-19,19,-19v13,0,19,6,19,19r0,100v0,13,-6,19,-19,19v-13,0,-19,-6,-19,-19r0,-100","w":352},"'":{"d":"115,-508v0,11,-8,19,-19,19v-11,0,-20,-8,-20,-19r0,-100v0,-11,9,-19,20,-19v11,0,19,8,19,19r0,100","w":192},";":{"d":"80,-66v22,0,50,-5,50,18v0,55,0,97,-43,113v-9,4,-20,-1,-24,-10v-9,-26,31,-26,31,-55r0,-30v-32,10,-45,-36,-14,-36xm96,-389v-16,0,-29,-13,-29,-29v0,-16,13,-29,29,-29v16,0,29,13,29,29v0,16,-13,29,-29,29","w":192},":":{"d":"126,-38v0,16,-13,29,-30,29v-16,0,-29,-13,-29,-29v0,-16,13,-29,29,-29v17,0,30,13,30,29xm96,-447v17,0,30,13,30,29v0,16,-13,29,-30,29v-16,0,-29,-13,-29,-29v0,-16,13,-29,29,-29","w":192},",":{"d":"63,55v-9,-26,31,-26,31,-55r0,-30v-32,10,-45,-36,-14,-36v22,0,50,-5,50,18v0,55,0,97,-43,113v-9,4,-20,-1,-24,-10","w":192},"}":{"d":"108,-248v0,-33,16,-61,41,-80v-25,-19,-41,-47,-41,-80r0,-200v0,-33,-27,-61,-60,-61v-11,0,-20,-8,-20,-19v0,-11,9,-19,20,-19v53,0,99,43,99,99r0,200v0,35,26,61,61,61v11,0,19,8,19,19v0,11,-8,19,-19,19v-35,0,-61,28,-61,61r0,220v0,56,-46,99,-99,99v-11,0,-20,-8,-20,-19v0,-11,9,-19,20,-19v33,0,60,-26,60,-61r0,-220","w":256},"]":{"d":"156,-703v11,0,19,8,19,19r0,732v0,11,-8,19,-19,19r-100,0v-13,0,-19,-6,-19,-19v0,-13,6,-19,19,-19r81,0r0,-694r-81,0v-13,0,-19,-6,-19,-19v0,-13,6,-19,19,-19r100,0","w":256},")":{"d":"67,-710v111,131,174,372,99,581v-23,67,-56,127,-99,183v-7,8,-18,10,-27,3v-8,-7,-10,-18,-3,-27v105,-122,162,-349,93,-545v-21,-62,-52,-119,-93,-171v-7,-8,-5,-20,3,-27v9,-7,20,-5,27,3","w":269},"(":{"d":"231,-676v-105,123,-162,349,-93,545v22,63,52,120,93,171v7,9,5,20,-4,27v-8,7,-20,5,-27,-3v-110,-131,-171,-372,-98,-581v23,-67,55,-128,98,-183v7,-8,19,-10,27,-3v9,7,11,19,4,27","w":268},"[":{"d":"100,67v-13,0,-19,-6,-19,-19r0,-732v0,-13,6,-19,19,-19r100,0v13,0,19,6,19,19v0,13,-6,19,-19,19r-81,0r0,694r81,0v13,0,19,6,19,19v0,13,-6,19,-19,19r-100,0","w":256},"{":{"d":"147,-408v0,33,-16,61,-41,80v25,19,41,47,41,80r0,220v0,35,26,61,61,61v13,0,19,6,19,19v0,13,-6,19,-19,19v-56,0,-99,-43,-99,-99r0,-220v0,-33,-28,-61,-61,-61v-13,0,-19,-6,-19,-19v0,-13,6,-19,19,-19v33,0,61,-26,61,-61r0,-200v0,-56,43,-99,99,-99v13,0,19,6,19,19v0,13,-6,19,-19,19v-35,0,-61,28,-61,61r0,200","w":256},"`":{"d":"312,-551v8,7,9,18,2,25v-7,7,-18,8,-26,1r-100,-90v-7,-7,-8,-18,-1,-25v7,-7,18,-8,25,-1","w":500},"<":{"d":"339,-88v0,15,-19,26,-32,15r-240,-200v-8,-7,-8,-23,0,-30r240,-200v13,-11,32,0,32,15v0,6,-2,11,-7,15r-222,185r222,185v5,4,7,9,7,15"},">":{"d":"81,-76v-6,-8,-5,-21,3,-27r222,-185r-222,-185v-8,-6,-9,-19,-3,-27v7,-8,19,-10,27,-3r240,200v10,7,9,23,0,30r-240,200v-8,7,-20,5,-27,-3"},"=":{"d":"328,-227v13,0,19,6,19,19v0,13,-6,19,-19,19r-240,0v-11,0,-19,-8,-19,-19v0,-11,8,-19,19,-19r240,0xm328,-387v13,0,19,6,19,19v0,13,-6,19,-19,19r-240,0v-11,0,-19,-8,-19,-19v0,-11,8,-19,19,-19r240,0"},"^":{"d":"94,-409v-15,1,-28,-19,-16,-32r158,-180v5,-8,22,-7,28,0r158,180v12,13,-1,33,-16,32v-5,0,-10,-2,-13,-6r-143,-164r-143,164v-3,4,-8,6,-13,6","w":500},"+":{"d":"328,-307v11,0,19,8,19,19v0,11,-8,19,-19,19r-101,0r0,101v0,11,-8,19,-19,19v-13,0,-19,-6,-19,-19r0,-101r-101,0v-13,0,-19,-6,-19,-19v0,-13,6,-19,19,-19r101,0r0,-101v0,-13,6,-19,19,-19v11,0,19,8,19,19r0,101r101,0"},"|":{"d":"109,-847v13,0,19,6,19,19r0,1000v0,13,-6,19,-19,19v-13,0,-19,-6,-19,-19r0,-1000v0,-13,6,-19,19,-19","w":208},"\\":{"d":"346,5v4,11,0,21,-11,25v-11,4,-21,0,-25,-11r-240,-660v-3,-11,1,-21,12,-25v11,-4,21,2,24,11"},"\/":{"d":"335,-666v11,4,15,14,11,25r-240,660v-3,11,-13,15,-24,11v-11,-4,-15,-14,-12,-25r240,-660v4,-9,14,-15,25,-11"},"_":{"d":"500,93v11,0,19,8,19,19v0,11,-8,19,-19,19r-500,0v-11,0,-20,-8,-20,-19v0,-11,9,-19,20,-19r500,0","w":500},"$":{"d":"232,-547v-91,-18,-142,103,-73,159r126,103v31,25,48,62,49,102v2,65,-52,125,-114,133v-4,30,13,81,-19,81v-32,0,-16,-51,-20,-81v-40,-8,-76,-28,-96,-65v-6,-11,-3,-20,7,-27v9,-5,21,-2,26,7v19,30,44,46,83,48v86,3,126,-113,59,-168r-125,-103v-31,-24,-47,-60,-48,-99v-2,-64,51,-120,110,-129v3,-30,-12,-81,20,-81v32,0,15,52,19,81v38,8,72,29,92,63v7,11,4,20,-7,27v-9,5,-20,3,-26,-7v-14,-24,-34,-38,-63,-44"},"\u20ac":{"d":"337,-538v-45,-88,-193,-49,-188,50r0,71r141,0v11,0,19,8,19,19v0,11,-8,19,-19,19r-141,0r0,122r101,0v11,0,19,8,19,19v0,11,-8,19,-19,19r-101,0v-6,86,6,150,75,168v52,14,103,-18,123,-64v5,-9,17,-12,26,-7v18,11,5,32,-3,44v-31,55,-96,82,-156,65v-85,-24,-114,-97,-104,-206v-30,-3,-80,12,-80,-19v0,-31,51,-16,80,-19r0,-122v-30,-3,-80,12,-80,-19v0,-31,51,-16,80,-19v-9,-108,19,-181,104,-205v68,-20,139,20,166,82v5,9,2,21,-7,26v-18,10,-30,-12,-36,-24"},"&":{"d":"449,-23v-8,7,-20,5,-27,-3r-74,-97v-27,48,-59,100,-118,111v-125,24,-219,-118,-140,-221r86,-112v-37,-55,-129,-123,-80,-221v42,-84,175,-79,212,7v41,94,-46,160,-83,214r119,154r40,-67v5,-9,17,-12,26,-6v9,6,12,17,7,26r-48,80r83,108v7,9,5,20,-3,27xm201,-376r63,-83v43,-54,-2,-130,-61,-130v-56,0,-112,70,-70,125xm322,-155r-121,-158r-80,103v-59,73,13,180,101,161v52,-11,75,-65,100,-106","w":493},"*":{"d":"226,-426r0,118v0,11,-7,18,-18,18v-11,0,-18,-7,-18,-18r0,-118r-103,59v-8,5,-20,2,-25,-7v-5,-9,-2,-20,7,-25r103,-59r-103,-59v-9,-5,-12,-16,-7,-25v5,-9,17,-12,25,-7r103,59r0,-118v0,-11,7,-18,18,-18v11,0,18,7,18,18r0,118r103,-59v9,-5,20,-2,25,7v5,9,2,20,-7,25r-102,59r102,59v9,5,12,16,7,25v-5,9,-16,12,-25,7"},"%":{"d":"437,-226v60,0,108,48,108,108v0,60,-48,108,-108,108v-60,0,-108,-48,-108,-108v0,-60,48,-108,108,-108xm437,-46v40,0,72,-32,72,-72v0,-40,-32,-72,-72,-72v-40,0,-72,32,-72,72v0,40,32,72,72,72xm265,-518v0,60,-48,108,-108,108v-60,0,-108,-48,-108,-108v0,-60,48,-108,108,-108v60,0,108,48,108,108xm85,-518v0,40,32,72,72,72v40,0,72,-32,72,-72v0,-40,-32,-72,-72,-72v-40,0,-72,32,-72,72xm445,-625v11,5,14,16,9,25r-280,580v-4,11,-16,13,-25,9v-11,-5,-14,-16,-9,-25r280,-580v4,-11,16,-13,25,-9","w":593},"#":{"d":"328,-389r0,122r81,0v13,0,19,6,19,19v0,13,-6,19,-19,19r-81,0r0,201v0,13,-6,19,-19,19v-11,0,-19,-8,-19,-19r0,-201r-122,0r0,201v0,13,-6,19,-19,19v-11,0,-19,-8,-19,-19r0,-201r-81,0v-11,0,-19,-8,-19,-19v0,-35,66,-13,100,-19r0,-122r-81,0v-11,0,-19,-8,-19,-19v0,-35,66,-13,100,-19r0,-181v0,-11,8,-19,19,-19v13,0,19,6,19,19r0,181r122,0r0,-181v0,-11,8,-19,19,-19v13,0,19,6,19,19r0,181r81,0v13,0,19,6,19,19v0,13,-6,19,-19,19r-81,0xm290,-389r-122,0r0,122r122,0r0,-122","w":458},"\u0160":{"d":"288,-253v62,60,50,167,-16,215v-73,53,-176,26,-212,-43v-5,-9,-2,-21,7,-26v9,-5,21,-2,26,7v25,50,104,72,156,31v46,-36,57,-113,12,-158r-160,-164v-59,-59,-48,-161,16,-208v70,-52,171,-25,205,41v6,11,3,20,-8,27v-9,5,-20,3,-26,-7v-27,-46,-96,-69,-148,-30v-45,34,-53,107,-11,150xm96,-820v22,-22,44,15,59,22v17,15,37,29,46,36r78,-61v9,-7,20,-5,27,3v7,9,5,20,-3,27r-90,70v-8,7,-16,7,-24,0r-90,-70v-8,-7,-11,-19,-3,-27","w":387},"\u017d":{"d":"312,-623v13,-1,23,13,18,26r-229,546r211,0v13,0,19,6,19,19v0,13,-6,19,-19,19r-240,0v-13,1,-23,-13,-18,-26r229,-546r-211,0v-13,0,-19,-6,-19,-19v0,-13,6,-19,19,-19r240,0xm192,-762r78,-61v9,-7,20,-5,27,3v7,9,5,20,-3,27r-90,70v-8,7,-16,7,-24,0r-90,-70v-8,-7,-11,-19,-3,-27v22,-22,44,15,59,22v17,15,37,29,46,36","w":384},"\u0161":{"d":"127,-279v52,41,133,68,140,150v6,69,-59,131,-129,118v-33,-6,-63,-24,-80,-55v-5,-9,-2,-20,7,-25v9,-5,20,-2,25,7v20,40,80,52,117,18v35,-33,29,-90,-8,-118v-52,-39,-131,-67,-139,-147v-7,-65,58,-126,124,-114v33,6,61,25,77,53v5,9,3,20,-6,25v-9,5,-20,2,-25,-7v-31,-65,-144,-31,-134,41v3,23,13,40,31,54xm168,-561r79,-61v8,-7,18,-5,25,3v7,8,5,18,-3,25r-90,70v-7,6,-15,6,-22,0r-90,-70v-8,-7,-11,-18,-3,-25v23,-21,41,16,58,23","w":329},"\u017e":{"d":"272,-442v13,-1,22,14,16,26r-187,366r171,0v11,0,18,7,18,18v0,11,-7,18,-18,18r-200,0v-13,1,-22,-14,-16,-26r187,-366r-171,0v-11,0,-18,-7,-18,-18v0,-11,7,-18,18,-18r200,0xm68,-619v23,-21,41,16,58,23r46,35r79,-61v8,-7,18,-5,25,3v7,8,5,18,-3,25r-90,70v-7,6,-15,6,-22,0r-90,-70v-8,-7,-11,-18,-3,-25","w":344},"\u0141":{"d":"315,-51v13,0,19,6,19,19v0,13,-6,19,-19,19r-200,0v-13,0,-19,-6,-19,-19r0,-263v-23,8,-51,48,-76,22v-5,-9,-3,-21,7,-27r69,-39r0,-269v0,-13,6,-19,19,-19v13,0,19,6,19,19r0,247r75,-44v23,-13,42,21,19,34r-94,54r0,266r181,0","w":375},"\u0142":{"d":"137,-359v24,-8,51,-48,76,-23v5,9,2,20,-7,25r-69,39r0,221v0,23,12,42,31,53v9,5,12,16,7,25v-5,9,-16,12,-25,7v-31,-19,-49,-50,-49,-85r0,-200v-24,8,-51,48,-76,23v-5,-9,-2,-20,7,-25r69,-39r0,-290v0,-11,7,-18,18,-18v11,0,18,7,18,18r0,269","w":238},"P":{"d":"81,-604v0,-13,6,-19,19,-19r120,0v77,0,139,62,139,139r0,56v0,77,-62,139,-139,139r-101,0r0,261v0,13,-6,19,-19,19v-13,0,-19,-6,-19,-19r0,-576xm321,-428v0,-90,-24,-157,-101,-157r-101,0r0,258r101,0v56,0,101,-45,101,-101","w":400,"k":{",":110,"\u00f6":10,".":110,"a":20,"e":10,"o":10,"A":40}},"~":{"d":"353,-293v9,7,11,17,6,25v-32,56,-119,62,-168,18v-32,-29,-82,-13,-102,18v-6,9,-17,12,-26,5v-9,-7,-11,-16,-5,-25v32,-55,118,-62,167,-18v32,29,83,14,103,-18v6,-10,16,-11,25,-5"},"\u00a0":{"w":192}}});
/*!
 * The following copyright notice may not be removed under any circumstances.
 * 
 * Copyright:
 * Copyright (c) Mårten Nettelbladt, 2006. All rights reserved.
 * 
 * Trademark:
 * Miso is a trademark of Mårten Nettelbladt.
 * 
 * Manufacturer:
 * Mårten Nettelbladt
 * 
 * Designer:
 * Mårten Nettelbladt
*/
Cufon.registerFont({"w":416,"face":{"font-family":"Miso","font-weight":400,"font-style":"italic","font-stretch":"normal","units-per-em":"1000","panose-1":"0 0 0 0 0 0 0 0 0 0","ascent":"800","descent":"-200","cap-height":"4","bbox":"-32 -860 702 204","underline-thickness":"96","underline-position":"96","slope":"10","stemh":"64","stemv":"64","unicode-range":"U+0020-U+20AC"},"glyphs":{" ":{"w":192},"O":{"d":"208,4v-84,0,-152,-68,-152,-152r0,-340v0,-84,68,-152,152,-152v84,0,152,68,152,152r0,340v0,84,-68,152,-152,152xm208,-576v-49,0,-88,40,-88,88r0,340v0,49,39,88,88,88v48,0,88,-39,88,-88r0,-340v0,-48,-40,-88,-88,-88","k":{"A":10,"Y":20,"W":20,"V":10,"T":20}},"Q":{"d":"56,-488v0,-84,68,-152,152,-152v84,0,152,68,152,152r0,340v0,45,-19,85,-50,113r46,79v9,15,3,35,-12,44v-15,8,-35,3,-44,-12r-45,-79v-105,31,-199,-46,-199,-145r0,-340xm208,-576v-48,0,-88,40,-88,88r0,340v0,49,40,88,88,88v49,0,88,-39,88,-88r0,-340v0,-48,-39,-88,-88,-88"},"R":{"d":"372,-484v0,101,-21,165,-94,197r92,248v7,16,-2,34,-19,41v-16,7,-34,-2,-41,-19r-96,-259r-82,0r0,248v0,19,-13,32,-32,32v-17,0,-32,-13,-32,-32r0,-576v0,-19,15,-32,32,-32r120,0v84,0,152,68,152,152xm220,-340v70,-1,88,-62,88,-144v0,-48,-39,-88,-88,-88r-88,0r0,232r88,0","k":{"Y":20,"T":10}},"S":{"d":"166,-62v88,19,147,-92,85,-156r-160,-164v-65,-64,-51,-176,18,-227v77,-57,184,-28,223,45v8,15,4,35,-12,44v-15,9,-35,3,-43,-12v-21,-43,-85,-58,-130,-26v-40,28,-47,94,-10,131r160,165v66,66,53,182,-18,234v-80,58,-192,29,-231,-46v-8,-16,-3,-35,12,-44v15,-9,35,-4,44,12v13,23,35,38,62,44","w":382},"T":{"d":"320,-636v19,0,32,13,32,32v-2,52,-82,26,-130,32r0,544v0,19,-13,32,-32,32v-17,0,-32,-13,-32,-32r0,-544v-49,-6,-130,20,-130,-32v0,-19,15,-32,32,-32r260,0","w":380,"k":{",":80,":":60,";":60,"-":80,"\u00f6":30,".":80,"a":80,"e":70,"i":20,"o":70,"r":70,"y":70,"w":70,"u":70,"A":50,"O":10}},"U":{"d":"124,-148v0,49,39,88,88,88v48,0,88,-39,88,-88r0,-460v0,-19,13,-32,32,-32v17,0,32,13,32,32r0,460v0,84,-69,152,-152,152v-84,0,-152,-68,-152,-152r0,-460v0,-19,13,-32,32,-32v17,0,32,13,32,32r0,460","w":424,"k":{"A":10}},"V":{"d":"34,-599v-5,-17,5,-35,22,-40v17,-4,35,6,39,23r130,468r129,-468v4,-17,22,-27,39,-23v17,5,27,23,22,40r-160,580v-5,30,-53,29,-61,0","w":448,"k":{",":100,":":30,";":30,"-":50,"\u00f6":30,".":100,"a":50,"e":50,"o":50,"u":40,"A":40,"O":10}},"W":{"d":"38,-600v-4,-19,6,-35,23,-39v17,-4,35,5,39,24r109,451r109,-451v6,-31,54,-34,62,0r109,451r109,-451v4,-19,21,-28,38,-24v17,4,28,20,24,39r-140,580v-6,31,-54,31,-62,0r-109,-452r-109,452v-6,31,-54,31,-62,0","w":698,"k":{",":90,":":40,";":40,"-":40,".":90,"a":40,"e":40,"o":40,"y":30,"u":40,"A":40,"O":20}},"X":{"d":"47,1v-16,-8,-23,-27,-15,-43r143,-286r-133,-266v-8,-15,-1,-35,15,-43v15,-7,35,-1,43,15r111,222r111,-222v8,-16,27,-22,43,-15v16,8,22,28,15,43r-133,266r143,286v7,16,1,35,-15,43v-16,8,-35,1,-43,-15r-121,-242r-121,242v-8,16,-28,23,-43,15","w":422},"Y":{"d":"169,-320r-137,-274v-8,-15,-1,-35,15,-43v15,-7,35,-1,43,15r111,222r111,-222v8,-16,27,-22,43,-15v16,8,23,28,15,43r-137,274r0,292v0,19,-13,32,-32,32v-19,0,-32,-13,-32,-32r0,-292","w":402,"k":{",":90,":":50,";":50,"-":90,".":90,"a":70,"e":70,"g":70,"i":20,"m":60,"n":60,"o":70,"p":60,"s":70,"x":50,"v":50,"u":60,"A":50,"O":20}},"Z":{"d":"72,0v-22,2,-39,-23,-29,-44r221,-528r-192,0v-19,0,-32,-13,-32,-32v0,-19,13,-32,32,-32r240,0v22,-1,39,22,30,44r-222,528r192,0v19,0,32,13,32,32v0,19,-13,32,-32,32r-240,0","w":384},"N":{"d":"412,-28v2,33,-47,43,-61,14r-219,-454r0,440v0,19,-13,32,-32,32v-19,0,-32,-13,-32,-32r0,-580v-2,-33,47,-43,61,-14r219,454r0,-440v0,-19,13,-32,32,-32v19,0,32,13,32,32r0,580","w":480},"M":{"d":"100,4v-19,0,-32,-13,-32,-32r0,-580v-2,-33,48,-43,61,-14r131,279r131,-279v13,-29,61,-19,61,14r0,580v0,19,-15,32,-32,32v-19,0,-32,-13,-32,-32r0,-437r-99,211v-11,24,-47,23,-58,0r-99,-211r0,437v0,19,-15,32,-32,32","w":520},"L":{"d":"100,0v-19,0,-32,-13,-32,-32r0,-576v0,-19,13,-32,32,-32v17,0,32,13,32,32r0,544r168,0v17,0,32,13,32,32v0,19,-15,32,-32,32r-200,0","w":348,"k":{"y":40,"Y":60,"W":60,"V":60,"T":60}},"K":{"d":"389,-42v8,16,1,35,-15,43v-16,8,-35,1,-42,-15r-144,-297r-56,78r0,205v0,19,-13,32,-32,32v-17,0,-32,-13,-32,-32r0,-580v0,-19,15,-32,32,-32v19,0,32,13,32,32r0,265r202,-284v11,-15,30,-18,45,-7v15,11,18,30,7,45r-155,218","w":421,"k":{"\u00f6":20,"e":20,"o":20,"y":20,"u":10,"O":10}},"J":{"d":"73,-72v59,36,132,-15,132,-76r0,-460v0,-19,13,-32,32,-32v17,0,32,13,32,32r0,460v7,106,-125,192,-228,132v-16,-9,-21,-29,-12,-44v9,-15,28,-21,44,-12","w":333,"k":{",":20,".":20}},"I":{"d":"100,4v-17,0,-32,-13,-32,-32r0,-580v0,-19,15,-32,32,-32v19,0,32,13,32,32r0,580v0,19,-13,32,-32,32","w":200},"H":{"d":"308,-608v0,-19,15,-32,32,-32v19,0,32,13,32,32r0,580v0,19,-13,32,-32,32v-17,0,-32,-13,-32,-32r0,-268r-176,0r0,268v0,19,-13,32,-32,32v-17,0,-32,-13,-32,-32r0,-580v0,-19,15,-32,32,-32v19,0,32,13,32,32r0,248r176,0r0,-248","w":440},"G":{"d":"56,-488v0,-69,46,-128,113,-147v67,-19,136,12,171,71v9,15,4,35,-12,44v-15,9,-36,4,-44,-12v-38,-77,-164,-42,-164,44r0,340v0,49,40,88,88,88v49,0,88,-39,88,-88r0,-128v-42,-2,-100,13,-100,-32v0,-53,83,-32,132,-32v19,0,32,13,32,32r0,160v0,84,-68,152,-152,152v-84,0,-152,-68,-152,-152r0,-340","w":412},"F":{"d":"100,0v-17,0,-32,-13,-32,-32r0,-572v0,-19,15,-32,32,-32r200,0v19,0,32,13,32,32v0,19,-13,32,-32,32r-168,0r0,212r148,0v19,0,32,13,32,32v0,19,-13,32,-32,32r-148,0r0,264v0,19,-13,32,-32,32","w":360,"k":{",":110,"\u00f6":10,".":110,"a":10,"e":20,"i":10,"o":20,"r":10,"A":40}},"E":{"d":"68,-604v0,-19,13,-32,32,-32r200,0v19,0,32,13,32,32v0,19,-13,32,-32,32r-168,0r0,212r148,0v19,0,32,13,32,32v0,19,-13,32,-32,32r-148,0r0,232r168,0v19,0,32,13,32,32v0,19,-13,32,-32,32r-200,0v-19,0,-32,-13,-32,-32r0,-572","w":368},"D":{"d":"220,-636v84,0,152,68,152,152r0,332v0,84,-68,152,-152,152r-120,0v-19,0,-32,-13,-32,-32r0,-572v0,-19,13,-32,32,-32r120,0xm308,-484v0,-48,-39,-88,-88,-88r-88,0r0,508r88,0v49,0,88,-39,88,-88r0,-332","w":428,"k":{"A":10,"Y":20,"W":10,"V":10}},"C":{"d":"169,-1v-68,-19,-113,-78,-113,-147r0,-340v0,-69,45,-128,113,-147v67,-19,136,12,171,71v23,40,-39,66,-56,32v-39,-77,-164,-42,-164,44r0,340v-5,86,124,122,164,44v8,-16,29,-20,44,-12v15,9,20,29,12,44v-34,60,-105,89,-171,71","w":385},"B":{"d":"68,-604v0,-19,13,-32,32,-32r120,0v96,3,152,77,152,188v0,49,-23,92,-59,120v50,39,59,93,59,176v0,84,-68,152,-152,152r-120,0v-19,0,-32,-13,-32,-32r0,-572xm308,-152v0,-81,-18,-144,-88,-144r-88,0r0,232r88,0v48,0,88,-39,88,-88xm308,-448v0,-73,-27,-124,-88,-124r-88,0r0,212r88,0v48,0,88,-39,88,-88","w":428,"k":{"A":10}},"A":{"d":"407,-36v5,17,-4,34,-23,39v-32,9,-41,-27,-48,-55v-5,-21,-14,-49,-23,-84r-194,0r-32,117v-5,17,-21,27,-40,22v-17,-5,-27,-22,-22,-39r160,-580v6,-31,53,-31,62,0xm295,-200r-79,-288v-21,72,-52,189,-79,288r158,0","w":432,"k":{"y":10,"w":10,"v":10,"Y":50,"W":40,"V":40,"T":50}},"u":{"d":"192,-2v-72,0,-130,-58,-130,-130r0,-296v0,-17,13,-30,30,-30v17,0,30,13,30,30r0,296v0,39,31,70,70,70r70,0r0,-366v0,-17,13,-30,30,-30v17,0,30,13,30,30r0,396v-3,50,-83,30,-130,30","w":392},"v":{"d":"36,-419v-11,-36,47,-55,58,-18r91,305r91,-305v5,-15,22,-24,38,-20v16,5,25,22,20,38r-120,400v-7,27,-51,27,-58,0","w":370,"k":{",":70,"\u00f6":10,".":70,"a":10,"e":10,"o":10}},"w":{"d":"39,-421v-4,-16,6,-32,22,-36v16,-4,32,6,36,22r71,283r71,-283v6,-30,50,-30,58,0r71,283r71,-283v4,-16,20,-26,37,-22v16,4,25,20,21,36r-100,400v-5,30,-50,30,-58,0r-71,-283r-71,283v-5,30,-50,30,-58,0","w":538,"k":{",":60,".":60,"a":10,"e":10,"o":10,"s":10}},"x":{"d":"54,-2v-15,-8,-20,-25,-12,-40r104,-190r-100,-181v-8,-15,-3,-33,12,-41v15,-8,33,-3,41,12r81,148r82,-148v8,-15,26,-20,41,-12v15,8,20,26,12,41r-100,181r104,190v8,15,3,32,-12,40v-15,8,-33,4,-41,-11r-86,-156r-85,156v-8,15,-26,19,-41,11","w":360},"y":{"d":"50,202v-17,0,-30,-13,-30,-30v0,-17,13,-30,30,-30v81,-2,77,-109,103,-170r-117,-391v-5,-16,4,-33,20,-38v16,-4,32,5,37,20r91,305r92,-305v4,-15,21,-24,37,-20v16,5,25,22,20,38r-158,528v-15,53,-63,92,-125,93","w":369,"k":{",":70,".":70,"a":10,"e":10,"o":10}},"z":{"d":"72,-2v-23,1,-38,-23,-27,-44r178,-348r-151,0v-17,0,-30,-13,-30,-30v0,-17,13,-30,30,-30r200,0v21,-1,36,24,26,44r-177,348r151,0v16,0,30,13,30,30v0,17,-14,30,-30,30r-200,0","w":344,"k":{"e":10,"o":10}},"t":{"d":"106,-394v-36,0,-80,7,-80,-30v0,-36,44,-30,80,-30r0,-174v0,-17,13,-30,30,-30v17,0,30,13,30,30r0,174v40,3,100,-13,100,30v0,43,-60,28,-100,30r0,266v0,39,31,70,70,70v17,0,30,13,30,30v0,17,-13,30,-30,30v-72,0,-130,-58,-130,-130r0,-266","w":296},"s":{"d":"103,-90v29,57,127,28,119,-36v-2,-20,-11,-35,-27,-48v-53,-42,-137,-73,-144,-156v-6,-73,65,-140,138,-127v36,6,67,27,86,59v8,15,4,33,-11,41v-40,19,-47,-42,-84,-40v-60,-13,-94,72,-43,108v56,39,138,73,145,159v6,76,-67,144,-142,131v-39,-7,-70,-28,-89,-61v-8,-15,-4,-33,11,-41v15,-8,33,-4,41,11","w":329,"k":{"w":10}},"r":{"d":"100,2v-17,0,-30,-13,-30,-30r0,-396v3,-50,83,-26,130,-30v34,-3,96,17,76,58v-16,32,-49,2,-76,2r-70,0r0,366v0,17,-13,30,-30,30","w":299,"k":{",":80,"-":30,"\u00f6":10,".":80,"a":10,"c":10,"o":10,"t":-20,"y":-20,"v":-20}},"q":{"d":"188,-2v-72,0,-130,-58,-130,-130r0,-192v0,-72,58,-130,130,-130v48,0,130,-20,130,30r0,596v0,17,-14,30,-30,30v-17,0,-30,-13,-30,-30r0,-174r-70,0xm188,-394v-39,0,-70,31,-70,70r0,192v0,39,31,70,70,70r70,0r0,-332r-70,0","w":388},"p":{"d":"100,202v-17,0,-30,-13,-30,-30r0,-596v3,-50,83,-30,130,-30v71,0,130,58,130,130r0,192v0,72,-59,130,-130,130r-70,0r0,174v0,17,-14,30,-30,30xm270,-324v0,-39,-31,-70,-70,-70r-70,0r0,332r70,0v39,0,70,-31,70,-70r0,-192","w":388,"k":{"y":10}},"o":{"d":"188,2v-72,0,-130,-58,-130,-130r0,-200v0,-72,58,-130,130,-130v71,0,130,58,130,130r0,200v0,72,-59,130,-130,130xm188,-398v-39,0,-70,31,-70,70r0,200v0,39,31,70,70,70v39,0,70,-31,70,-70r0,-200v0,-39,-31,-70,-70,-70","w":376,"k":{"y":10,"w":10,"v":10}},"n":{"d":"100,2v-17,0,-30,-13,-30,-30r0,-396v3,-50,83,-30,130,-30v71,0,130,58,130,130r0,296v0,17,-14,30,-30,30v-17,0,-30,-13,-30,-30r0,-296v0,-39,-31,-70,-70,-70r-70,0r0,366v0,17,-14,30,-30,30","w":392},"m":{"d":"130,-394r0,366v0,17,-14,30,-30,30v-17,0,-30,-13,-30,-30r0,-396v0,-17,13,-30,30,-30r300,0v71,0,130,58,130,130r0,296v0,17,-14,30,-30,30v-17,0,-30,-13,-30,-30r0,-296v0,-39,-31,-70,-70,-70r-70,0r0,366v0,17,-14,30,-30,30v-17,0,-30,-13,-30,-30r0,-366r-140,0","w":592},"l":{"d":"122,-2v-33,-20,-55,-56,-55,-95r0,-531v0,-17,14,-30,30,-30v17,0,30,13,30,30r0,531v-6,38,57,45,36,84v-8,15,-26,19,-41,11","w":200},"k":{"d":"346,-42v8,15,3,32,-12,40v-15,8,-33,4,-41,-11r-115,-211r-48,53r0,143v0,17,-14,30,-30,30v-17,0,-30,-13,-30,-30r0,-600v0,-17,13,-30,30,-30v16,0,30,13,30,30r0,367r167,-187v11,-12,30,-13,43,-2v12,11,13,30,2,42r-122,136","w":380,"k":{"\u00f6":10,"e":10,"o":10}},"j":{"d":"108,-538v-23,0,-40,-17,-40,-40v0,-23,17,-40,40,-40v23,0,40,17,40,40v0,23,-17,40,-40,40xm8,202v-16,0,-30,-13,-30,-30v0,-17,14,-30,30,-30v39,0,70,-31,70,-70r0,-500v0,-17,14,-30,30,-30v17,0,30,13,30,30r0,500v0,72,-58,130,-130,130","w":208},"i":{"d":"100,-538v-23,0,-40,-17,-40,-40v0,-23,17,-40,40,-40v23,0,40,17,40,40v0,23,-17,40,-40,40xm130,-28v0,17,-13,30,-30,30v-16,0,-30,-13,-30,-30r0,-400v0,-17,14,-30,30,-30v17,0,30,13,30,30r0,400","w":200},"h":{"d":"100,2v-16,0,-30,-13,-30,-30r0,-600v0,-17,14,-30,30,-30v17,0,30,13,30,30r0,174r70,0v72,0,130,58,130,130r0,296v0,17,-13,30,-30,30v-16,0,-30,-13,-30,-30r0,-296v0,-39,-31,-70,-70,-70r-70,0r0,366v0,17,-13,30,-30,30","w":392},"g":{"d":"96,164v-18,-18,-4,-52,21,-51v9,0,16,3,22,9v42,45,119,7,119,-50r0,-74r-70,0v-72,0,-130,-58,-130,-130r0,-192v0,-72,58,-130,130,-130v48,0,130,-20,130,30r0,496v7,107,-140,175,-222,92xm188,-394v-39,0,-70,31,-70,70r0,192v0,39,31,70,70,70r70,0r0,-332r-70,0","w":384},"f":{"d":"106,-394v-36,0,-80,7,-80,-30v0,-36,44,-30,80,-30r0,-74v0,-72,58,-130,130,-130v17,0,30,13,30,30v0,17,-13,30,-30,30v-39,0,-70,31,-70,70r0,74v40,3,100,-13,100,30v0,43,-60,28,-100,30r0,366v0,17,-13,30,-30,30v-17,0,-30,-13,-30,-30r0,-366","w":296},"e":{"d":"237,-78v18,-19,53,-6,52,21v0,8,-3,15,-9,21v-79,83,-222,16,-222,-92r0,-200v0,-72,58,-130,130,-130v72,0,130,58,130,130v0,48,20,130,-30,130r-170,0v-1,62,-6,116,43,135v27,10,56,5,76,-15xm188,-398v-39,0,-70,31,-70,70r0,70r140,0r0,-70v0,-39,-31,-70,-70,-70","w":368,"k":{"y":10,"w":10,"v":10}},"d":{"d":"188,-2v-72,0,-130,-58,-130,-130r0,-192v0,-72,58,-130,130,-130r70,0r0,-174v0,-17,13,-30,30,-30v16,0,30,13,30,30r0,596v-4,50,-82,30,-130,30xm188,-394v-39,0,-70,31,-70,70r0,192v0,39,31,70,70,70r70,0r0,-332r-70,0","w":388},"c":{"d":"237,-78v17,-19,52,-6,51,21v0,8,-3,15,-8,21v-81,83,-222,16,-222,-92r0,-200v-7,-107,141,-176,222,-92v26,26,-16,72,-43,43v-43,-45,-119,-8,-119,49r0,200v-5,57,77,96,119,50","k":{"y":10}},"b":{"d":"200,-2v-48,0,-130,20,-130,-30r0,-596v0,-17,13,-30,30,-30v16,0,30,13,30,30r0,174r70,0v71,0,130,58,130,130r0,192v0,72,-59,130,-130,130xm130,-394r0,332r70,0v39,0,70,-31,70,-70r0,-192v0,-39,-31,-70,-70,-70r-70,0","w":388,"k":{"y":10,"v":10}},"a":{"d":"114,-378v-17,20,-53,4,-52,-21v0,-9,3,-16,9,-21v78,-83,219,-16,219,90r0,298v-4,50,-82,30,-130,30v-72,0,-130,-58,-130,-130v0,-72,58,-130,130,-130r70,0v1,-60,5,-113,-42,-131v-27,-10,-55,-5,-74,15xm90,-132v0,39,31,70,70,70r70,0r0,-140r-70,0v-39,0,-70,31,-70,70","w":352,"k":{"y":10,"w":10,"v":10}},"0":{"d":"208,4v-84,0,-152,-68,-152,-152r0,-340v0,-84,68,-152,152,-152v83,0,152,68,152,152r0,340v0,84,-69,152,-152,152xm208,-576v-49,0,-88,40,-88,88r0,340v0,49,39,88,88,88v48,0,88,-39,88,-88r0,-340v0,-48,-40,-88,-88,-88"},"1":{"d":"134,-465v-19,20,-56,4,-54,-23v0,-9,3,-16,9,-23r120,-120v20,-19,55,-5,55,23r0,580v0,19,-15,32,-32,32v-19,0,-32,-13,-32,-32r0,-503"},"2":{"d":"76,-520v-15,-9,-20,-28,-12,-44v34,-65,124,-98,205,-57v63,32,104,122,61,204r-185,353r171,0v17,0,32,13,32,32v0,19,-15,32,-32,32r-224,0v-23,2,-39,-25,-28,-47r210,-400v34,-70,-25,-145,-102,-126v-23,6,-41,21,-52,41v-9,15,-29,21,-44,12"},"3":{"d":"106,-104v39,77,164,42,164,-44v0,-83,-17,-146,-88,-148v-19,0,-32,-13,-32,-32v0,-19,13,-32,32,-32v106,0,125,-188,23,-213v-39,-10,-79,6,-99,41v-9,15,-29,21,-44,12v-15,-9,-21,-29,-12,-44v35,-59,104,-91,171,-71v81,25,113,87,113,187v0,49,-23,92,-59,120v51,39,59,95,59,180v0,69,-45,128,-113,147v-66,18,-137,-11,-171,-71v-9,-15,-3,-35,12,-44v15,-8,36,-4,44,12"},"4":{"d":"74,-136v-20,1,-38,-21,-31,-42r140,-440v10,-33,65,-26,63,10r-128,408r124,0v7,-51,-22,-140,32,-140v54,0,25,90,32,140v37,0,80,-6,80,32v0,38,-43,32,-80,32v-7,51,22,140,-32,140v-54,0,-25,-90,-32,-140r-168,0"},"5":{"d":"131,-302v-13,28,-60,16,-60,-16r0,-286v0,-19,13,-32,32,-32r208,0v19,0,32,13,32,32v0,19,-13,32,-32,32r-176,0r0,180v108,-57,224,31,224,134r0,110v0,69,-45,128,-113,147v-66,18,-137,-11,-171,-71v-8,-15,-3,-35,12,-44v15,-8,36,-4,44,12v39,77,164,42,164,-44r0,-110v5,-86,-126,-122,-164,-44"},"6":{"d":"217,4v-84,0,-152,-68,-152,-152r0,-340v0,-69,46,-128,113,-147v67,-19,136,12,171,71v9,15,3,35,-12,44v-15,9,-36,4,-44,-12v-39,-77,-164,-43,-164,44r0,116v97,-72,245,6,240,124r0,100v0,84,-68,152,-152,152xm217,-336v-48,0,-88,40,-88,88r0,100v0,49,40,88,88,88v49,0,88,-39,88,-88r0,-100v0,-48,-39,-88,-88,-88"},"7":{"d":"85,-492v-46,0,-32,-68,-32,-112v0,-19,15,-32,32,-32r240,0v19,-2,36,21,31,40r-140,576v-6,35,-72,28,-63,-8r132,-544r-168,0v0,37,6,80,-32,80"},"8":{"d":"208,4v-83,0,-152,-68,-152,-152v0,-85,7,-141,59,-180v-46,-37,-59,-84,-59,-160v0,-84,69,-152,152,-152v97,0,152,79,152,192v0,49,-23,92,-58,120v50,39,58,96,58,180v0,84,-68,152,-152,152xm120,-488v0,75,25,128,88,128v64,0,88,-53,88,-128v0,-48,-39,-88,-88,-88v-48,0,-88,40,-88,88xm296,-148v0,-83,-15,-148,-88,-148v-48,0,-88,40,-88,88r0,60v0,49,40,88,88,88v49,0,88,-39,88,-88"},"9":{"d":"287,-264v-95,72,-246,-6,-240,-124r0,-100v0,-84,69,-152,152,-152v84,0,152,68,152,152r0,340v0,69,-45,128,-112,147v-68,19,-136,-11,-171,-71v-9,-15,-4,-36,11,-44v16,-9,36,-4,44,12v39,77,164,42,164,-44r0,-116xm199,-576v-48,0,-88,40,-88,88r0,100v0,49,40,88,88,88v49,0,88,-39,88,-88r0,-100v0,-48,-39,-88,-88,-88"},".":{"d":"54,-38v0,-23,19,-42,42,-42v23,0,42,19,42,42v0,23,-19,42,-42,42v-23,0,-42,-19,-42,-42","w":192},"@":{"d":"382,-638v172,0,320,149,320,320r0,186v0,72,-58,130,-130,130r-200,0v-71,0,-130,-58,-130,-130v0,-71,59,-130,130,-130r70,0v1,-61,6,-112,-43,-130v-27,-10,-56,-5,-76,15v-18,17,-53,4,-51,-22v0,-9,3,-16,9,-21v79,-82,221,-15,221,90r0,268r70,0v39,0,70,-31,70,-70r0,-186v2,-138,-120,-260,-260,-260v-137,0,-260,122,-260,260r0,180v-4,140,122,260,260,260v50,0,140,-21,140,30v0,52,-90,28,-140,30v-171,8,-320,-148,-320,-320r0,-180v-4,-170,150,-320,320,-320xm302,-132v0,39,31,70,70,70r70,0r0,-140r-70,0v-39,0,-70,31,-70,70","w":764},"\u00f6":{"d":"148,-578v0,23,-17,40,-40,40v-23,0,-40,-17,-40,-40v0,-23,17,-40,40,-40v23,0,40,17,40,40xm308,-578v0,23,-17,40,-40,40v-23,0,-40,-17,-40,-40v0,-23,17,-40,40,-40v23,0,40,17,40,40xm318,-128v0,72,-58,130,-130,130v-72,0,-130,-58,-130,-130r0,-200v0,-72,58,-130,130,-130v72,0,130,58,130,130r0,200xm188,-58v39,0,70,-31,70,-70r0,-200v0,-39,-31,-70,-70,-70v-39,0,-70,31,-70,70r0,200v0,39,31,70,70,70","w":376,"k":{"v":10}},"\u00d6":{"d":"360,-148v0,84,-69,152,-152,152v-84,0,-152,-68,-152,-152r0,-340v0,-84,68,-152,152,-152v83,0,152,68,152,152r0,340xm208,-60v48,0,88,-39,88,-88r0,-340v0,-48,-40,-88,-88,-88v-49,0,-88,40,-88,88r0,340v0,49,39,88,88,88xm330,-778v0,23,-19,42,-42,42v-24,0,-42,-19,-42,-42v0,-23,18,-42,42,-42v23,0,42,19,42,42xm170,-778v0,23,-19,42,-42,42v-24,0,-42,-19,-42,-42v0,-23,18,-42,42,-42v23,0,42,19,42,42"},"-":{"d":"360,-288v0,19,-15,32,-32,32r-240,0v-19,0,-32,-13,-32,-32v0,-19,13,-32,32,-32r240,0v17,0,32,13,32,32"},"\u0131":{"d":"70,-428v0,-17,14,-30,30,-30v17,0,30,13,30,30r0,400v0,17,-13,30,-30,30v-16,0,-30,-13,-30,-30r0,-400","w":200},"\u00fc":{"d":"72,-578v0,-23,17,-40,40,-40v23,0,40,17,40,40v0,23,-17,40,-40,40v-23,0,-40,-17,-40,-40xm232,-578v0,-23,17,-40,40,-40v23,0,40,17,40,40v0,23,-17,40,-40,40v-23,0,-40,-17,-40,-40xm192,-2v-71,0,-130,-58,-130,-130r0,-296v0,-17,14,-30,30,-30v17,0,30,13,30,30r0,296v0,39,31,70,70,70r70,0r0,-366v0,-17,14,-30,30,-30v17,0,30,13,30,30r0,396v-3,50,-83,30,-130,30","w":392},"\u00e7":{"d":"158,-1v-59,-15,-100,-67,-100,-127r0,-200v-7,-107,141,-175,222,-92v18,19,5,53,-22,51v-8,0,-15,-3,-20,-8v-42,-47,-120,-9,-120,49r0,200v-1,36,28,70,71,70v27,0,44,-29,69,-29v17,0,33,13,31,30v-4,34,-42,46,-71,56v4,63,-10,103,-55,130v-15,9,-33,4,-41,-11v-20,-39,43,-47,36,-85r0,-34"},"\u0153":{"d":"437,-78v17,-19,52,-6,51,21v0,8,-3,15,-8,21v-55,56,-153,45,-192,-9v-24,29,-60,47,-100,47v-72,0,-130,-58,-130,-130r0,-200v0,-72,58,-130,130,-130v40,0,76,18,100,47v24,-29,60,-47,100,-47v71,0,130,58,130,130v0,48,19,130,-30,130r-170,0v-1,62,-6,116,43,135v27,10,56,5,76,-15xm388,-398v-39,0,-70,31,-70,70r0,70r140,0r0,-70v0,-39,-31,-70,-70,-70xm188,-58v39,0,70,-31,70,-70r0,-200v0,-39,-31,-70,-70,-70v-39,0,-70,31,-70,70r0,200v0,39,31,70,70,70","w":568},"\u00c7":{"d":"176,1v-72,-16,-120,-77,-120,-149r0,-340v0,-69,45,-127,112,-147v74,-22,149,22,181,88v8,16,4,34,-12,44v-24,15,-44,-10,-53,-29v-37,-78,-164,-42,-164,44r0,340v-5,86,126,123,164,44v9,-19,29,-43,53,-29v25,14,14,43,2,61v-25,38,-59,64,-99,73v4,64,-12,104,-57,131v-15,9,-34,4,-43,-11v-9,-16,-4,-35,12,-44v25,-14,25,-40,24,-76","w":394},"\u0152":{"d":"297,-25v-96,73,-241,-4,-241,-123r0,-340v-5,-119,145,-197,241,-123v3,-15,16,-25,31,-25r200,0v17,0,32,13,32,32v0,19,-15,32,-32,32r-168,0r0,212r148,0v17,0,32,13,32,32v0,19,-15,32,-32,32r-148,0r0,232r168,0v17,0,32,13,32,32v0,19,-15,32,-32,32r-200,0v-15,0,-28,-10,-31,-25xm208,-576v-49,0,-88,40,-88,88r0,340v0,49,39,88,88,88v54,0,88,-44,88,-108r0,-320v0,-48,-40,-88,-88,-88","w":596},"\u00dc":{"d":"212,4v-83,0,-152,-68,-152,-152r0,-460v0,-19,15,-32,32,-32v19,0,32,13,32,32r0,460v0,49,40,88,88,88v49,0,88,-39,88,-88r0,-460v0,-19,15,-32,32,-32v19,0,32,13,32,32r0,460v0,84,-68,152,-152,152xm250,-778v0,-23,19,-42,42,-42v24,0,42,19,42,42v0,23,-18,42,-42,42v-23,0,-42,-19,-42,-42xm132,-736v-23,0,-42,-19,-42,-42v0,-23,19,-42,42,-42v24,0,42,19,42,42v0,23,-18,42,-42,42","w":424},"\u0178":{"d":"312,-622v8,-16,27,-23,43,-15v15,7,22,28,14,43r-137,274r0,292v0,19,-13,32,-32,32v-17,0,-32,-13,-32,-32r0,-292r-136,-274v-8,-15,-2,-35,14,-43v16,-7,35,-1,43,15r111,222xm238,-778v0,-23,19,-42,42,-42v24,0,42,19,42,42v0,23,-18,42,-42,42v-23,0,-42,-19,-42,-42xm120,-736v-23,0,-42,-19,-42,-42v0,-23,19,-42,42,-42v24,0,42,19,42,42v0,23,-18,42,-42,42","w":402},"?":{"d":"227,-426v61,-58,3,-167,-80,-148v-26,6,-46,19,-59,42v-9,15,-28,21,-44,12v-15,-9,-20,-29,-11,-44v39,-73,146,-102,223,-45v70,52,80,162,16,228v-29,30,-74,59,-76,113v-2,44,16,112,-32,112v-46,0,-30,-68,-32,-112v-3,-71,55,-120,95,-158xm206,-38v0,23,-19,42,-42,42v-23,0,-42,-19,-42,-42v0,-23,19,-42,42,-42v23,0,42,19,42,42","w":357},"!":{"d":"100,4v-23,0,-42,-19,-42,-42v0,-23,19,-42,42,-42v23,0,42,19,42,42v0,23,-19,42,-42,42xm68,-588v0,-19,15,-32,32,-32v19,0,32,13,32,32r0,400v0,19,-13,32,-32,32v-17,0,-32,-13,-32,-32r0,-400","w":200},"\"":{"d":"256,-640v52,2,32,83,32,132v0,19,-13,32,-32,32v-52,-2,-32,-83,-32,-132v0,-19,13,-32,32,-32xm64,-508v0,-49,-20,-132,32,-132v53,0,32,83,32,132v0,19,-13,32,-32,32v-19,0,-32,-13,-32,-32","w":352},"'":{"d":"128,-608v0,49,19,132,-32,132v-53,0,-32,-83,-32,-132v0,-19,13,-32,32,-32v17,0,32,13,32,32","w":192},";":{"d":"80,-78v32,0,62,0,63,30v3,62,-5,104,-51,124v-16,7,-33,-1,-40,-16v-7,-16,1,-33,16,-40v13,-2,18,-24,12,-37v-17,0,-30,-14,-30,-31v0,-17,13,-30,30,-30xm96,-376v-23,0,-42,-19,-42,-42v0,-23,19,-42,42,-42v23,0,42,19,42,42v0,23,-19,42,-42,42","w":192},":":{"d":"138,-38v0,23,-18,42,-42,42v-23,0,-42,-19,-42,-42v0,-23,19,-42,42,-42v24,0,42,19,42,42xm96,-460v24,0,42,19,42,42v0,23,-18,42,-42,42v-23,0,-42,-19,-42,-42v0,-23,19,-42,42,-42","w":192},",":{"d":"68,20v13,-2,18,-24,12,-37v-17,0,-30,-14,-30,-31v0,-30,30,-30,62,-30v36,0,31,42,31,78v0,44,-61,110,-91,60v-9,-15,1,-33,16,-40","w":192},"}":{"d":"96,-248v0,-33,11,-59,33,-80v-22,-21,-33,-47,-33,-80r0,-200v0,-27,-21,-48,-48,-48v-19,0,-32,-13,-32,-32v0,-19,13,-32,32,-32v61,0,112,51,112,112r0,200v0,27,21,48,48,48v17,0,32,13,32,32v0,19,-15,32,-32,32v-27,0,-48,21,-48,48r0,220v0,61,-51,112,-112,112v-19,0,-32,-13,-32,-32v0,-19,13,-32,32,-32v27,0,48,-21,48,-48r0,-220","w":256},"]":{"d":"56,-716v50,0,132,-21,132,32r0,732v-3,52,-83,32,-132,32v-19,0,-32,-13,-32,-32v-1,-44,59,-30,100,-32r0,-668v-41,-2,-101,13,-100,-32v0,-19,13,-32,32,-32","w":256},")":{"d":"77,-718v109,129,179,373,101,594v-24,68,-57,130,-101,186v-11,15,-30,16,-45,5v-13,-11,-17,-31,-5,-45v102,-122,159,-340,91,-533v-21,-60,-51,-116,-91,-167v-11,-15,-8,-34,5,-45v15,-11,33,-9,45,5","w":269},"(":{"d":"241,-668v-102,122,-159,340,-91,533v21,60,51,116,91,167v11,15,9,34,-6,45v-15,11,-33,9,-45,-5v-114,-136,-175,-380,-100,-594v24,-68,56,-129,100,-186v11,-15,30,-16,45,-5v15,11,18,31,6,45","w":268},"[":{"d":"200,80v-49,0,-132,20,-132,-32r0,-732v2,-52,83,-32,132,-32v19,0,32,13,32,32v1,44,-59,30,-100,32r0,668v41,2,101,-13,100,32v0,19,-13,32,-32,32","w":256},"{":{"d":"160,-408v0,31,-13,60,-34,80v21,20,34,49,34,80r0,220v0,27,21,48,48,48v19,0,32,13,32,32v0,19,-13,32,-32,32v-61,0,-112,-51,-112,-112r0,-220v0,-27,-21,-48,-48,-48v-19,0,-32,-13,-32,-32v0,-19,13,-32,32,-32v27,0,48,-21,48,-48r0,-200v0,-61,51,-112,112,-112v19,0,32,13,32,32v0,19,-13,32,-32,32v-27,0,-48,21,-48,48r0,200","w":256},"`":{"d":"322,-562v13,12,14,32,2,45v-12,15,-32,15,-45,3r-100,-90v-13,-12,-14,-32,-3,-45v12,-13,33,-15,46,-3","w":500},"<":{"d":"352,-88v1,23,-31,44,-53,25r-240,-200v-14,-11,-15,-37,0,-50r240,-200v22,-19,53,2,53,25v0,10,-4,18,-12,25r-210,175r210,175v8,7,12,16,12,25"},">":{"d":"71,-67v-11,-12,-8,-35,4,-46r211,-175r-211,-175v-12,-11,-15,-32,-4,-45v12,-15,32,-16,45,-5r240,200v16,13,15,37,0,50r-240,200v-13,11,-33,9,-45,-4"},"=":{"d":"328,-240v19,0,32,13,32,32v0,19,-13,32,-32,32r-240,0v-17,0,-32,-13,-32,-32v0,-19,15,-32,32,-32r240,0xm328,-400v19,0,32,13,32,32v0,19,-13,32,-32,32r-240,0v-17,0,-32,-13,-32,-32v0,-19,15,-32,32,-32r240,0"},"^":{"d":"71,-404v-13,-12,-14,-32,-3,-45r158,-180v11,-14,36,-14,48,0r158,180v11,13,10,33,-3,45v-15,12,-34,10,-46,-3r-133,-152r-133,152v-12,13,-31,15,-46,3","w":500},"+":{"d":"240,-320v47,5,120,-18,120,32v0,50,-74,27,-120,32v-4,46,16,120,-32,120v-50,0,-27,-74,-32,-120v-46,-5,-120,18,-120,-32v0,-50,74,-27,120,-32v5,-46,-18,-120,32,-120v48,0,28,74,32,120"},"|":{"d":"109,-860v19,0,32,13,32,32r0,1000v0,19,-13,32,-32,32v-19,0,-32,-13,-32,-32r0,-1000v0,-19,13,-32,32,-32","w":208},"\\":{"d":"358,1v7,17,-2,34,-19,41v-16,7,-34,-2,-41,-19r-240,-660v-7,-17,3,-34,19,-41v17,-7,35,3,41,19"},"\/":{"d":"339,-678v17,7,26,24,19,41r-240,660v-7,17,-24,26,-41,19v-16,-7,-26,-24,-19,-41r240,-660v7,-16,25,-26,41,-19"},"_":{"d":"500,80v17,0,32,13,32,32v0,19,-15,32,-32,32r-500,0v-19,0,-32,-13,-32,-32v0,-19,13,-32,32,-32r500,0","w":500},"$":{"d":"230,-535v-79,-15,-122,89,-63,137r126,103v35,27,53,68,54,112v2,68,-52,130,-114,144v1,38,5,83,-32,83v-39,0,-32,-46,-32,-84v-40,-8,-74,-33,-95,-69v-9,-15,-3,-35,12,-44v15,-8,35,-3,44,12v16,26,35,40,71,41v75,3,108,-98,51,-145r-125,-103v-92,-68,-51,-231,58,-248v0,-38,-8,-84,32,-84v37,0,33,46,32,84v39,9,71,32,91,67v23,40,-38,66,-56,32v-11,-21,-29,-34,-54,-38"},"\u20ac":{"d":"326,-532v-37,-78,-169,-42,-164,44r0,58r128,0v17,0,32,13,32,32v0,19,-15,32,-32,32r-128,0r0,96v47,5,120,-18,120,32v0,50,-74,27,-120,32v-5,74,6,126,65,143v47,14,90,-18,109,-58v8,-17,28,-21,44,-12v24,13,12,43,1,61v-37,58,-103,91,-171,71v-86,-26,-122,-96,-112,-205v-37,0,-80,6,-80,-32v0,-38,43,-32,80,-32r0,-96v-37,0,-80,6,-80,-32v0,-38,43,-32,80,-32v-9,-109,25,-178,112,-205v75,-23,149,22,181,88v8,16,4,35,-11,44v-25,15,-45,-10,-54,-29"},"&":{"d":"349,-100v-34,82,-140,139,-234,78v-67,-44,-91,-146,-35,-219r80,-104r-70,-91v-62,-95,21,-204,115,-204v96,0,169,124,100,213r-64,82r101,132v18,-24,32,-82,75,-62v41,37,-20,82,-33,116r79,101v11,15,9,34,-6,45v-15,11,-34,10,-45,-5xm201,-397v23,-39,86,-77,61,-140v-19,-49,-99,-53,-121,-4v-31,68,37,104,60,144xm307,-154r-106,-138r-70,90v-49,64,8,157,88,140v46,-9,66,-57,88,-92","w":493},"*":{"d":"239,-405v-5,48,19,128,-31,128v-49,0,-24,-81,-30,-128r-85,48v-15,9,-33,4,-41,-11v-9,-15,-4,-33,11,-41r84,-49r-84,-49v-15,-8,-20,-26,-11,-41v8,-15,26,-20,41,-11r85,48v6,-47,-19,-127,30,-127v50,0,26,80,31,127r84,-48v15,-9,33,-4,41,11v9,15,4,33,-11,41r-84,49r84,49v15,8,20,26,11,41v-8,15,-26,20,-41,11"},"%":{"d":"437,-237v65,0,119,54,119,119v0,66,-54,119,-119,119v-66,0,-119,-53,-119,-119v0,-65,53,-119,119,-119xm437,-57v35,0,61,-26,61,-61v0,-35,-26,-61,-61,-61v-35,0,-61,26,-61,61v0,35,26,61,61,61xm276,-518v0,66,-54,119,-119,119v-66,0,-119,-53,-119,-119v0,-65,53,-119,119,-119v65,0,119,54,119,119xm96,-518v0,35,26,61,61,61v35,0,61,-26,61,-61v0,-35,-26,-61,-61,-61v-35,0,-61,26,-61,61xm451,-637v16,8,22,27,15,43r-280,580v-8,16,-27,23,-43,15v-16,-8,-23,-27,-15,-43r280,-580v8,-16,27,-22,43,-15","w":593},"#":{"d":"340,-377r0,99v41,2,100,-12,100,30v0,42,-59,29,-100,31r0,189v0,17,-14,31,-31,31v-17,0,-30,-14,-30,-31r0,-189r-99,0r0,189v0,17,-14,31,-31,31v-17,0,-30,-14,-30,-31r0,-189v-41,-2,-100,12,-100,-31v0,-43,60,-28,100,-30r0,-99v-41,-2,-100,12,-100,-31v0,-43,60,-28,100,-30r0,-170v0,-17,13,-30,30,-30v17,0,31,13,31,30r0,170r99,0r0,-170v0,-17,13,-30,30,-30v17,0,31,13,31,30r0,170v41,2,100,-12,100,30v0,42,-59,29,-100,31xm279,-377r-99,0r0,99r99,0r0,-99","w":458},"\u0160":{"d":"298,-262v66,65,53,182,-18,234v-80,58,-192,29,-231,-46v-9,-16,-4,-35,12,-44v15,-9,35,-4,43,12v24,45,90,62,137,27v41,-30,50,-99,11,-139r-160,-164v-66,-64,-52,-176,17,-227v77,-57,185,-28,224,45v22,40,-38,66,-56,32v-21,-42,-84,-59,-129,-26v-40,29,-47,93,-10,131xm245,-811v17,-13,47,-44,70,-16v12,14,8,32,-5,43r-90,70v-10,10,-27,8,-38,0r-90,-70v-13,-11,-17,-28,-5,-43v22,-28,53,2,69,16v15,12,33,25,45,34v11,-9,29,-22,44,-34","w":387},"\u017d":{"d":"312,-636v22,-2,39,23,29,44r-221,528r192,0v19,0,32,13,32,32v0,19,-13,32,-32,32r-240,0v-22,1,-39,-22,-30,-44r222,-528r-192,0v-19,0,-32,-13,-32,-32v0,-19,13,-32,32,-32r240,0xm236,-811v17,-13,47,-44,70,-16v12,14,8,32,-5,43r-90,70v-10,10,-27,8,-38,0r-90,-70v-13,-11,-17,-28,-5,-43v22,-28,53,2,69,16v15,12,33,25,45,34v11,-9,29,-22,44,-34","w":384},"\u0161":{"d":"134,-289v56,39,138,73,145,159v6,76,-67,144,-142,131v-39,-7,-70,-28,-89,-61v-8,-15,-4,-33,11,-41v41,-19,50,45,87,42v62,13,101,-76,46,-115v-55,-39,-137,-73,-144,-156v-6,-73,65,-140,138,-127v36,6,67,27,86,59v8,15,4,33,-11,41v-40,19,-47,-42,-84,-40v-60,-13,-94,72,-43,108xm213,-609v16,-12,45,-43,67,-16v10,13,8,29,-5,40r-90,70v-11,9,-23,9,-35,0r-90,-70v-29,-23,7,-67,35,-45r73,56v11,-9,30,-23,45,-35","w":329},"\u017e":{"d":"272,-454v21,-2,37,23,27,44r-178,348r151,0v17,0,30,13,30,30v0,17,-13,30,-30,30r-200,0v-21,1,-38,-22,-27,-44r178,-348r-151,0v-17,0,-30,-13,-30,-30v0,-17,13,-30,30,-30r200,0xm64,-585v-29,-23,7,-67,35,-45r73,56r72,-56v13,-11,30,-7,40,5v10,13,8,29,-5,40r-90,70v-11,9,-23,9,-35,0","w":344},"\u0141":{"d":"315,-64v19,0,32,13,32,32v0,19,-13,32,-32,32r-200,0v-19,0,-32,-13,-32,-32r0,-241v-20,14,-58,39,-74,6v-22,-45,48,-59,74,-79r0,-262v0,-19,13,-32,32,-32v19,0,32,13,32,32r0,225v29,-13,68,-59,100,-21v8,15,3,35,-12,44r-88,51r0,245r168,0","w":375},"\u0142":{"d":"149,-380v20,-12,58,-41,74,-8v21,46,-49,56,-74,77r0,214v-5,38,56,45,36,84v-8,15,-26,19,-41,11v-82,-40,-48,-165,-55,-274v-20,12,-58,41,-74,8v-21,-46,49,-56,74,-77r0,-283v0,-17,13,-30,30,-30v17,0,30,13,30,30r0,248","w":238},"P":{"d":"68,-604v0,-19,13,-32,32,-32r120,0v84,0,152,68,152,152v0,123,-48,204,-152,208r-88,0r0,248v0,19,-13,32,-32,32v-19,0,-32,-13,-32,-32r0,-576xm308,-428v0,-81,-18,-144,-88,-144r-88,0r0,232r88,0v48,0,88,-39,88,-88","w":400,"k":{",":110,"\u00f6":10,".":110,"a":20,"e":10,"o":10,"A":40}},"~":{"d":"360,-303v15,9,18,27,9,42v-35,60,-131,71,-185,21v-26,-24,-70,-11,-85,15v-9,15,-27,18,-42,8v-15,-10,-18,-27,-9,-42v33,-62,132,-70,185,-21v26,24,70,11,85,-15v9,-15,27,-17,42,-8"},"\u00a0":{"w":192}}});
