// #### Generated By: http://www.cufonfonts.com ####
/*!
 * The following copyright notice may not be removed under any circumstances.
 * 
 * Copyright:
 * © 2008 Bernd Montag - feel free to distribute - feel free to use personal and
 * commercial - read attached textfile for restrictions
*/
Cufon.registerFont({"w":1235,"face":{"font-family":"Sansation Bold","font-weight":700,"font-stretch":"normal","units-per-em":"2048","panose-1":"2 0 8 3 0 0 0 2 0 4","ascent":"1638","descent":"-410","x-height":"9","bbox":"0 -1843 2090 438","underline-thickness":"210","underline-position":"-59","unicode-range":"U+0020-U+20AC"},"glyphs":{" ":{"w":350},"!":{"d":"415,-1430r0,1060r-265,0r0,-1060r265,0xm415,-245r0,245r-265,0r0,-245r265,0","w":565},"\"":{"d":"715,-1430r-30,435r-185,0r-30,-435r245,0xm345,-1430r-30,435r-185,0r-30,-435r245,0","w":815},"#":{"d":"803,-876r-90,378r377,0r90,-378r-377,0xm403,5r89,-349r-392,0r30,-154r402,0r89,-378r-401,0r30,-154r412,0r100,-395r180,0r-100,395r378,0r102,-400r180,0r-101,400r392,0r-30,154r-402,0r-89,378r401,0r-30,154r-412,0r-90,349r-180,0r90,-349r-378,0r-90,349r-180,0","w":1893},"$":{"d":"150,-240r0,-220v117,40,238,60,364,60v114,0,171,-37,171,-110v0,-60,-42,-90,-125,-90r-110,0v-233,0,-350,-113,-350,-340v0,-167,107,-267,320,-300r0,-190r235,0r0,190v80,7,162,23,245,50r0,220v-117,-40,-231,-60,-343,-60v-135,0,-202,37,-202,110v0,60,38,90,115,90r110,0v247,0,370,107,370,320v0,180,-98,287,-295,320r0,190r-235,0r0,-190v-97,-7,-187,-23,-270,-50","w":1050},"%":{"d":"365,0r-265,0r1017,-1430r265,0xm428,-995v89,0,134,-49,134,-147v0,-83,-45,-124,-134,-124v-92,0,-138,41,-138,124v0,98,46,147,138,147xm100,-1140v0,-200,109,-300,328,-300v216,0,324,100,324,300v0,213,-108,319,-324,319v-219,0,-328,-106,-328,-319xm1078,-164v89,0,134,-46,134,-137v0,-89,-45,-134,-134,-134v-92,0,-138,45,-138,134v0,91,46,137,138,137xm750,-299v0,-207,109,-310,328,-310v216,0,324,103,324,310v0,206,-108,309,-324,309v-219,0,-328,-103,-328,-309","w":1502},"&":{"d":"283,-727v-122,-57,-183,-159,-183,-308v0,-263,170,-395,510,-395v123,0,243,17,360,50r0,210v-117,-33,-232,-50,-347,-50v-172,0,-258,60,-258,180v0,140,68,210,205,210r338,0r0,-142r143,0r102,142r182,0r0,210r-162,0r0,130v0,329,-183,493,-548,493v-350,0,-525,-139,-525,-417v0,-151,61,-256,183,-313xm572,-620v-138,0,-207,67,-207,201v0,139,87,209,261,209v188,0,282,-94,282,-282r0,-128r-336,0","w":1335},"'":{"d":"345,-1430r-30,435r-185,0r-30,-435r245,0","w":445},"(":{"d":"565,-1430v-267,602,-267,1208,0,1810r-265,0v-267,-602,-267,-1208,0,-1810r265,0","w":640},")":{"d":"340,-1430v267,602,267,1208,0,1810r-265,0v267,-602,267,-1208,0,-1810r265,0","w":640},"*":{"d":"327,-1430r156,0r-30,232r209,-101r48,147r-228,43r159,170r-123,92r-113,-205r-113,204r-124,-89r161,-171r-230,-42r48,-150r211,103","w":810},"+":{"d":"370,-630r0,-270r210,0r0,270r270,0r0,210r-270,0r0,270r-210,0r0,-270r-270,0r0,-210r270,0","w":950},",":{"d":"515,-185r-150,435r-265,0r150,-435r265,0","w":615},"-":{"d":"600,-630r0,210r-500,0r0,-210r500,0","w":700},"\u2010":{"d":"600,-630r0,210r-500,0r0,-210r500,0","w":700},".":{"d":"365,-245r0,245r-265,0r0,-245r265,0","w":465},"\/":{"d":"310,0r-285,0r725,-1430r285,0","w":1060},"0":{"d":"713,-220v235,0,352,-166,352,-499v0,-327,-117,-491,-352,-491v-242,0,-363,164,-363,491v0,333,121,499,363,499xm75,-713v0,-485,213,-727,638,-727v418,0,627,242,627,727v0,482,-209,723,-627,723v-425,0,-638,-241,-638,-723","w":1375},"1":{"d":"250,0r0,-1181r-150,0r0,-109r415,-140r0,1430r-265,0","w":585},"2":{"d":"100,0r0,-200v477,-331,715,-605,715,-820v0,-127,-87,-190,-260,-190v-147,0,-285,37,-415,110r0,-240v130,-67,268,-100,415,-100v350,0,525,140,525,420v0,247,-191,510,-573,790r573,0r0,230r-980,0","w":1180},"3":{"d":"100,-1380v133,-40,273,-60,420,-60v357,0,535,130,535,390v0,157,-63,266,-188,325v125,57,188,165,188,325v0,273,-178,410,-535,410v-147,0,-287,-20,-420,-60r0,-240v133,47,273,70,420,70v180,0,270,-60,270,-180v0,-140,-64,-210,-192,-210r-348,0r0,-230r345,0v130,0,195,-70,195,-210v0,-107,-90,-160,-270,-160v-147,0,-287,23,-420,70r0,-240","w":1115},"4":{"d":"942,0r-265,0r0,-340r-602,0r0,-230r395,-860r264,0r-386,860r329,0r0,-528r265,0r0,528r148,76r0,154r-148,0r0,340","w":1125,"k":{"7":150}},"5":{"d":"150,-1430r894,0r0,230r-656,0r-24,272v71,-8,140,-12,206,-12v380,0,570,160,570,480v0,313,-183,470,-550,470v-180,0,-337,-20,-470,-60r0,-240v133,47,290,70,470,70v190,0,285,-80,285,-240v0,-167,-102,-250,-305,-250v-183,0,-340,17,-470,50","w":1175},"6":{"d":"100,-530v0,-311,169,-625,508,-943r201,157v-171,131,-294,270,-369,419v67,-22,132,-33,195,-33v337,0,505,153,505,460v0,320,-171,480,-513,480v-351,0,-527,-180,-527,-540xm636,-220v162,0,243,-83,243,-250v0,-153,-84,-230,-251,-230v-90,0,-175,13,-255,38v-12,33,-18,72,-18,116v0,217,94,326,281,326","w":1240,"k":{"9":96,"7":150}},"7":{"d":"100,-1430r950,0r0,210r-572,1220r-291,0r582,-1200r-669,0r0,-230","w":1125,"k":{"6":150,"4":150}},"8":{"d":"100,-424v0,-149,71,-259,212,-331v-115,-63,-172,-171,-172,-323v0,-244,173,-366,520,-366v347,0,520,122,520,366v0,152,-59,260,-177,323v145,72,217,182,217,331v0,289,-183,434,-550,434v-380,0,-570,-145,-570,-434xm915,-1048v0,-108,-84,-162,-253,-162v-171,0,-257,54,-257,162v0,125,87,188,260,188v167,0,250,-63,250,-188xm955,-418v0,-141,-98,-212,-293,-212v-198,0,-297,71,-297,212v0,132,103,198,310,198v187,0,280,-66,280,-198","w":1240},"9":{"d":"1140,-904v0,311,-169,625,-508,943r-215,-165v181,-125,308,-262,383,-411v-69,42,-141,63,-216,63v-323,0,-484,-163,-484,-490v0,-320,178,-480,533,-480v338,0,507,180,507,540xm624,-1214v-175,0,-263,83,-263,250v0,167,77,250,232,250v103,0,194,-23,274,-69v12,-26,18,-61,18,-105v0,-217,-87,-326,-261,-326","w":1190,"k":{"7":96}},":":{"d":"365,-1050r0,245r-265,0r0,-245r265,0xm365,-245r0,245r-265,0r0,-245r265,0","w":465},";":{"d":"515,-1050r0,245r-265,0r0,-245r265,0xm515,-185r-150,435r-265,0r150,-435r265,0","w":615},"<":{"d":"100,-430r0,-190r900,-380r0,250r-573,229r573,221r0,250","w":1100},"=":{"d":"850,-470r0,210r-750,0r0,-210r750,0xm850,-790r0,210r-750,0r0,-210r750,0","w":950},">":{"d":"100,-50r0,-250r573,-221r-573,-229r0,-250r900,380r0,190","w":1100},"?":{"d":"250,-245r0,245r265,0r0,-245r-265,0xm100,-1380v140,-33,273,-50,400,-50v343,0,515,130,515,390v0,293,-167,440,-500,440r0,230r-265,0r0,-440r265,0v170,0,255,-77,255,-230v0,-120,-90,-180,-270,-180v-127,0,-260,17,-400,50r0,-210","w":1115},"@":{"d":"575,-327v0,-215,142,-323,426,-323v105,0,196,7,274,20r0,-69v0,-94,-94,-141,-283,-141v-108,0,-219,17,-332,50r0,-210v113,-33,224,-50,332,-50v365,0,548,112,548,336r0,596v0,39,27,58,80,58v97,0,145,-160,145,-480v0,-460,-229,-690,-686,-690v-476,0,-714,230,-714,690v0,473,215,710,645,710r0,210v-607,0,-910,-307,-910,-920v0,-600,321,-900,964,-900v644,0,966,300,966,900v0,460,-149,690,-447,690v-201,0,-301,-75,-301,-224v-85,49,-189,74,-312,74v-263,0,-395,-109,-395,-327xm1026,-450v-127,0,-191,40,-191,120v0,80,53,120,160,120v108,0,200,-27,275,-82r0,-138v-67,-13,-148,-20,-244,-20","w":2130},"A":{"d":"25,0r607,-1430r285,0r620,1430r-285,0r-180,-390r-458,0r91,-230r297,0r-234,-537r-471,1157r-272,0","w":1562,"k":{"Y":175,"V":175,"T":125}},"B":{"d":"150,0r0,-1430r670,0v272,0,408,111,408,333v0,163,-89,279,-266,349v189,35,284,144,284,325v0,282,-149,423,-447,423r-649,0xm788,-230v117,0,176,-60,176,-180v0,-149,-88,-223,-263,-223r-80,0r0,-171v220,-37,330,-129,330,-276v0,-80,-49,-120,-148,-120r-388,0r0,970r373,0","w":1310},"C":{"d":"1290,-60v-123,47,-263,70,-420,70v-513,0,-770,-248,-770,-745v0,-470,257,-705,770,-705v157,0,297,23,420,70r0,240v-123,-53,-257,-80,-400,-80v-343,0,-515,158,-515,475v0,343,172,515,515,515v143,0,277,-27,400,-80r0,240","w":1390},"D":{"d":"730,-230v297,0,445,-175,445,-524v0,-297,-148,-446,-445,-446r-315,0r0,970r315,0xm150,0r0,-1430r620,0v447,0,670,225,670,676v0,503,-223,754,-670,754r-620,0","w":1540},"E":{"d":"1089,-1430r0,228r-676,0r0,360r642,0r0,237r-645,0r0,375r693,0r0,230r-953,0r0,-1430r939,0","w":1238},"F":{"d":"1089,-1430r0,228r-676,0r0,360r642,0r0,237r-645,0r0,605r-260,0r0,-1430r939,0","w":1224,"k":{"\u0104":150,"A":150}},"G":{"d":"1290,-66v-115,51,-260,76,-433,76v-505,0,-757,-248,-757,-745v0,-470,257,-705,770,-705v157,0,297,23,420,70r0,240v-123,-53,-257,-80,-400,-80v-343,0,-515,158,-515,475v0,343,162,515,486,515v48,0,103,-8,164,-24r0,-416r265,0r0,594","w":1390},"H":{"d":"150,0r0,-1430r265,0r0,590r705,0r0,-590r265,0r0,1430r-265,0r0,-610r-705,0r0,610r-265,0","w":1535},"I":{"d":"415,-1430r0,1430r-265,0r0,-1430r265,0","w":565},"J":{"d":"590,-1430r0,1018v0,275,-188,412,-565,412r0,-230v200,0,300,-61,300,-182r0,-1018r265,0","w":740},"K":{"d":"415,-1430r0,1430r-265,0r0,-1430r265,0xm1361,-1430r-630,667r714,763r-367,0r-583,-668r0,-172r542,-590r324,0","w":1450,"k":{"\u0152":150,"\u00d6":150,"\u00c7":150,"Q":150,"O":150,"G":150,"C":150}},"L":{"d":"415,-1430r0,1200r668,0r0,230r-933,0r0,-1430r265,0","w":1183,"k":{"\u0152":150,"\u00d6":150,"\u00c7":150,"Y":288,"V":300,"T":300,"Q":150,"O":150,"G":150,"C":150}},"M":{"d":"150,0r0,-1430r275,0r485,1085r475,-1085r265,0r0,1430r-245,0r0,-996r-388,996r-226,0r-396,-996r0,996r-245,0","w":1800},"N":{"d":"150,0r0,-1430r265,0r795,1022r0,-1022r255,0r0,1430r-265,0r-795,-1044r0,1044r-255,0","w":1615},"O":{"d":"818,-220v288,0,432,-166,432,-499v0,-327,-144,-491,-432,-491v-295,0,-443,164,-443,491v0,333,148,499,443,499xm100,-713v0,-485,239,-727,718,-727v471,0,707,242,707,727v0,482,-236,723,-707,723v-457,0,-718,-241,-718,-723","w":1625},"P":{"d":"150,0r0,-1430r670,0v272,0,408,121,408,363v0,285,-196,458,-589,519r-38,-236v233,-43,350,-135,350,-275v0,-92,-49,-138,-148,-138r-388,0r0,1197r-265,0","w":1243,"k":{"\u0104":150,"A":150}},"Q":{"d":"818,-220v288,0,432,-166,432,-499v0,-327,-144,-491,-432,-491v-295,0,-443,164,-443,491v0,333,148,499,443,499xm100,-713v0,-485,239,-727,718,-727v471,0,707,242,707,727v0,399,-148,634,-445,706r232,270r-209,159r-325,-412v-431,0,-678,-241,-678,-723","w":1625},"R":{"d":"150,-2r0,-1428r650,0v292,0,438,128,438,383v0,173,-114,316,-341,429r453,618r-344,0r-435,-623r0,-121v260,-43,390,-142,390,-295v0,-105,-59,-158,-178,-158r-363,0r0,1195r-270,0","w":1375},"S":{"d":"170,-60r0,-240v143,53,305,80,486,80v219,0,329,-73,329,-220v0,-107,-67,-160,-202,-160r-244,0v-293,0,-439,-133,-439,-400v0,-293,208,-440,625,-440v160,0,312,23,455,70r0,240v-143,-53,-295,-80,-455,-80v-240,0,-360,70,-360,210v0,107,58,160,174,160r244,0v311,0,467,133,467,400v0,300,-198,450,-594,450v-181,0,-343,-23,-486,-70","w":1310,"k":{"\u015a":96,"S":96}},"T":{"d":"1085,-1430r0,230r-410,0r0,1200r-265,0r0,-1200r-410,0r0,-230r1085,0","w":1085,"k":{"\u0119":150,"\u015b":150,"\u0144":150,"\u0107":150,"\u0105":150,"\u0104":125,"\u017a":150,"\u017c":150,"\u0153":150,"\u00fc":150,"\u00f6":150,"\u00e7":150,"z":150,"y":150,"x":150,"w":150,"v":150,"u":150,"t":150,"s":150,"r":150,"q":150,"p":150,"o":150,"n":150,"m":140,"g":150,"e":150,"d":150,"c":150,"a":150,"A":125}},"U":{"d":"150,-562r0,-868r265,0r0,868v0,228,117,342,350,342v233,0,350,-114,350,-342r0,-868r265,0r0,868v0,381,-205,572,-615,572v-410,0,-615,-191,-615,-572","w":1530},"V":{"d":"1512,-1430r-627,1430r-285,0r-600,-1430r315,0r443,1095r442,-1095r312,0","w":1512,"k":{"\u0119":125,"\u015b":125,"\u0144":96,"\u0105":100,"\u0104":175,"\u017a":96,"\u017c":96,"\u0153":125,"\u00f6":125,"\u00e7":125,"z":96,"s":125,"r":96,"q":125,"p":96,"o":125,"n":96,"m":96,"g":125,"e":125,"d":125,"c":125,"a":100,"A":175}},"W":{"d":"0,-1430r259,0r183,997r352,-997r255,0r328,957r192,-957r251,0r-269,1430r-252,0r-393,-1122r-422,1122r-249,0","w":1820},"X":{"d":"25,-1430r335,0r1125,1430r-335,0xm360,0r-335,0r1125,-1430r335,0","w":1502},"Y":{"d":"25,-1430r285,0r402,689r378,-689r275,0r-526,930r0,500r-265,0r0,-500","w":1300,"k":{"\u0119":150,"\u015b":150,"\u0144":96,"\u0107":150,"\u0105":150,"\u0104":175,"\u017a":96,"\u017c":96,"\u0153":150,"\u00fc":96,"\u00f6":150,"\u00e7":150,"z":96,"x":96,"u":96,"s":150,"r":96,"q":150,"p":96,"o":150,"n":96,"m":96,"g":150,"e":150,"d":150,"c":150,"a":150,"A":175}},"Z":{"d":"1185,-1430r0,230r-761,970r761,0r0,230r-1060,0r0,-230r794,-970r-774,0r0,-230r1040,0","w":1250},"[":{"d":"630,-1430r0,210r-265,0r0,1390r265,0r0,210r-530,0r0,-1810r530,0","w":680},"\\":{"d":"25,-1430r285,0r725,1430r-285,0","w":1060},"]":{"d":"580,-1430r0,1810r-530,0r0,-210r265,0r0,-1390r-265,0r0,-210r530,0","w":680},"^":{"d":"450,-1430r150,0r400,730r-230,0r-249,-473r-241,473r-230,0","w":1050},"_":{"d":"1025,0r0,210r-1000,0r0,-210r1000,0","w":1050},"`":{"d":"400,-1385r0,210r-400,-150r0,-210","w":400},"a":{"d":"75,-327v0,-215,152,-323,456,-323v91,0,173,7,244,20r0,-69v0,-94,-91,-141,-273,-141v-115,0,-229,17,-342,50r0,-210v113,-33,227,-50,342,-50v359,0,538,115,538,346r0,704r-134,0r-114,-74v-91,49,-189,74,-292,74v-283,0,-425,-109,-425,-327xm531,-450v-127,0,-191,40,-191,120v0,80,53,120,160,120v108,0,200,-27,275,-82r0,-138v-67,-13,-148,-20,-244,-20","w":1165},"b":{"d":"390,-243v61,19,131,29,211,29v173,0,260,-113,260,-339v0,-185,-76,-277,-227,-277v-89,0,-171,18,-244,54r0,533xm125,-1430r265,0r0,430v79,-33,161,-50,245,-50v325,0,488,168,488,504v0,364,-178,546,-533,546v-144,0,-299,-14,-465,-43r0,-1387","w":1183},"c":{"d":"930,-30v-87,20,-183,30,-290,30v-387,0,-580,-182,-580,-545v0,-337,193,-505,580,-505v107,0,203,10,290,30r0,210v-87,-20,-177,-30,-270,-30v-223,0,-335,98,-335,295v0,223,112,335,335,335v93,0,183,-10,270,-30r0,210","w":980},"d":{"d":"830,-776v-68,-36,-150,-54,-246,-54v-165,0,-247,92,-247,277v0,219,82,329,247,329v96,0,178,-13,246,-39r0,-513xm1095,-63v-161,42,-324,63,-491,63v-353,0,-529,-182,-529,-546v0,-336,169,-504,508,-504v91,0,173,17,247,50r0,-430r265,0r0,1367","w":1220},"e":{"d":"1012,-422r-687,0v0,141,115,212,346,212v106,0,212,-10,318,-30r0,210v-93,20,-212,30,-358,30v-381,0,-571,-179,-571,-537v0,-342,174,-513,523,-513v348,0,491,209,429,628xm325,-616r438,0v9,-151,-61,-226,-210,-226v-140,0,-216,75,-228,226","w":1086},"f":{"d":"125,5r0,-1106v0,-254,157,-381,472,-381v86,0,164,13,234,40r0,210v-66,-27,-144,-40,-235,-40v-137,0,-206,74,-206,222r315,0r0,210r-315,0r0,841","w":741},"g":{"d":"827,-812v-43,-16,-112,-24,-205,-24v-190,0,-285,101,-285,303v0,195,79,293,237,293v96,0,180,-18,253,-54r0,-518xm1092,0v0,253,-188,380,-563,380v-129,0,-244,-17,-344,-50r0,-210v102,33,217,50,346,50v197,0,296,-80,296,-240v-79,33,-163,50,-254,50v-332,0,-498,-170,-498,-511v0,-346,192,-519,575,-519v122,0,269,14,442,43r0,1007","w":1217},"h":{"d":"125,0r0,-1430r265,0r0,494v109,-76,228,-114,357,-114v242,0,363,130,363,391r0,659r-265,0r0,-662v0,-116,-58,-174,-173,-174v-93,0,-187,44,-282,133r0,703r-265,0"},"i":{"d":"390,-1430r0,210r-265,0r0,-210r265,0xm390,-1050r0,1050r-265,0r0,-1050r265,0","w":515},"j":{"d":"390,-1430r0,210r-265,0r0,-210r265,0xm390,-1050r0,970v0,212,-61,385,-182,518r-208,-145v83,-90,125,-214,125,-373r0,-970r265,0","w":515},"k":{"d":"125,0r0,-1430r265,0r0,462v109,-55,230,-82,363,-82v255,0,382,111,382,333v0,127,-93,228,-280,304r316,413r-314,0r-334,-445r0,-83v231,-21,347,-84,347,-190v0,-81,-57,-122,-170,-122v-102,0,-205,31,-310,94r0,746r-265,0","w":1221},"l":{"d":"390,-1430r0,1430r-265,0r0,-1430r265,0","w":515},"m":{"d":"125,0r0,-1050r205,0r31,132v121,-88,240,-132,359,-132v132,0,226,48,281,144v134,-96,260,-144,377,-144v221,0,332,133,332,399r0,651r-265,0r0,-661v0,-117,-49,-175,-148,-175v-79,0,-161,45,-247,136r0,700r-265,0r0,-658v0,-119,-49,-178,-146,-178v-84,0,-167,45,-249,136r0,700r-265,0","w":1835},"n":{"d":"125,0r0,-1050r205,0r33,134v127,-89,255,-134,384,-134v242,0,363,130,363,391r0,659r-265,0r0,-662v0,-116,-58,-174,-173,-174v-93,0,-187,44,-282,133r0,703r-265,0"},"o":{"d":"590,-200v177,0,265,-110,265,-329v0,-214,-88,-321,-265,-321v-177,0,-265,107,-265,321v0,219,88,329,265,329xm60,-525v0,-357,177,-535,530,-535v353,0,530,178,530,535v0,356,-177,534,-530,534v-352,0,-530,-178,-530,-534","w":1180},"p":{"d":"390,-274v73,36,154,54,243,54v165,0,247,-111,247,-333v0,-189,-94,-283,-282,-283v-89,0,-158,5,-208,14r0,548xm125,-1007v139,-29,293,-43,462,-43v370,0,555,166,555,499v0,367,-169,551,-508,551v-84,0,-165,-17,-244,-50r0,430r-265,0r0,-1387","w":1202},"q":{"d":"827,-812v-63,-16,-138,-24,-225,-24v-177,0,-265,101,-265,303v0,209,79,313,237,313v96,0,180,-18,253,-54r0,-538xm1092,380r-265,0r0,-430v-79,33,-163,50,-254,50v-332,0,-498,-177,-498,-531v0,-346,182,-519,545,-519v142,0,299,14,472,43r0,1387","w":1217},"r":{"d":"125,0r0,-1050r205,0r33,134v92,-89,189,-134,292,-134r0,214v-99,0,-187,44,-265,133r0,703r-265,0","w":680},"s":{"d":"125,-50r0,-220v117,47,251,70,404,70v114,0,171,-37,171,-110v0,-67,-38,-100,-115,-100r-190,0v-213,0,-320,-107,-320,-320v0,-220,156,-330,467,-330v132,0,256,20,373,60r0,220v-117,-47,-243,-70,-380,-70v-143,0,-215,37,-215,110v0,67,42,100,125,100r170,0v233,0,350,107,350,320v0,220,-149,330,-446,330v-146,0,-277,-20,-394,-60","w":1025},"t":{"d":"125,-1220r196,0r40,170r244,0r0,210r-215,0r0,483v0,98,42,147,127,147r88,0r0,210r-216,0v-176,0,-264,-94,-264,-283r0,-937","w":680},"u":{"d":"1110,-1050r0,1050r-207,0r-32,-134v-127,89,-255,134,-384,134v-241,0,-362,-130,-362,-391r0,-659r265,0r0,662v0,116,57,174,172,174v93,0,187,-44,283,-133r0,-703r265,0"},"v":{"d":"0,-1050r280,0r255,734r265,-734r280,0r-427,1050r-252,0","w":1080},"w":{"d":"25,-1050r267,0r156,711r233,-711r227,0r252,711r138,-711r276,0r-284,1050r-249,0r-247,-725r-250,725r-253,0","w":1599},"x":{"d":"0,-1050r295,0r785,1050r-295,0xm295,0r-295,0r785,-1050r295,0","w":1080},"y":{"d":"0,-1050r281,0r265,756r259,-756r276,0r-436,1081v-77,191,-201,326,-371,407r-128,-181v117,-51,203,-135,256,-251","w":1081},"z":{"d":"120,-1050r810,0r0,210r-537,640r517,0r0,200r-810,0r0,-200r545,-640r-525,0r0,-210","w":990},"{":{"d":"705,-1430v-87,117,-130,277,-130,478v0,235,-83,377,-250,427v167,50,250,192,250,427v0,201,43,361,130,478r-265,0v-87,-117,-130,-277,-130,-478v0,-208,-70,-312,-210,-312r0,-230v140,0,210,-104,210,-312v0,-201,43,-361,130,-478r265,0","w":755},"|":{"d":"415,-1430r0,1810r-265,0r0,-1810r265,0","w":565},"}":{"d":"315,-1430v87,117,130,277,130,478v0,208,70,312,210,312r0,230v-140,0,-210,104,-210,312v0,201,-43,361,-130,478r-265,0v87,-117,130,-277,130,-478v0,-235,57,-377,170,-427v-113,-50,-170,-192,-170,-427v0,-201,-43,-361,-130,-478r265,0","w":755},"~":{"d":"850,-650r0,210v-70,73,-192,80,-365,20v-173,-60,-302,-53,-385,20r0,-210v70,-73,192,-80,365,-20v173,60,302,53,385,-20","w":950},"\u00c7":{"d":"583,244v72,33,144,50,216,50v72,0,108,-18,108,-55v0,-29,-28,-44,-83,-44r-183,0r131,-270r165,0r-81,152v143,0,214,54,214,162v0,122,-90,183,-271,183v-72,0,-144,-17,-216,-50r0,-128xm1290,-60v-123,47,-263,70,-420,70v-513,0,-770,-248,-770,-745v0,-470,257,-705,770,-705v157,0,297,23,420,70r0,240v-123,-53,-257,-80,-400,-80v-343,0,-515,158,-515,475v0,343,172,515,515,515v143,0,277,-27,400,-80r0,240","w":1390},"\u00d6":{"d":"818,-220v288,0,432,-166,432,-499v0,-327,-144,-491,-432,-491v-295,0,-443,164,-443,491v0,333,148,499,443,499xm100,-713v0,-485,239,-727,718,-727v471,0,707,242,707,727v0,482,-236,723,-707,723v-457,0,-718,-241,-718,-723xm1079,-1789r0,190r-215,0r0,-190r215,0xm739,-1789r0,190r-215,0r0,-190r215,0","w":1625},"\u00dc":{"d":"150,-562r0,-868r265,0r0,868v0,228,117,342,350,342v233,0,350,-114,350,-342r0,-868r265,0r0,868v0,381,-205,572,-615,572v-410,0,-615,-191,-615,-572xm1047,-1789r0,190r-215,0r0,-190r215,0xm707,-1789r0,190r-215,0r0,-190r215,0","w":1530},"\u00e7":{"d":"358,244v72,33,144,50,216,50v72,0,108,-15,108,-45v0,-36,-28,-54,-83,-54r-183,0r131,-269r165,0r-81,151v143,0,214,57,214,172v0,115,-90,173,-271,173v-72,0,-144,-17,-216,-50r0,-128xm930,-30v-87,20,-183,30,-290,30v-387,0,-580,-182,-580,-545v0,-337,193,-505,580,-505v107,0,203,10,290,30r0,210v-87,-20,-177,-30,-270,-30v-223,0,-335,98,-335,295v0,223,112,335,335,335v93,0,183,-10,270,-30r0,210","w":980},"\u00f6":{"d":"590,-200v177,0,265,-110,265,-329v0,-214,-88,-321,-265,-321v-177,0,-265,107,-265,321v0,219,88,329,265,329xm60,-525v0,-357,177,-535,530,-535v353,0,530,178,530,535v0,356,-177,534,-530,534v-352,0,-530,-178,-530,-534xm863,-1430r0,190r-215,0r0,-190r215,0xm523,-1430r0,190r-215,0r0,-190r215,0","w":1180},"\u00fc":{"d":"1110,-1050r0,1050r-207,0r-32,-134v-127,89,-255,134,-384,134v-241,0,-362,-130,-362,-391r0,-659r265,0r0,662v0,116,57,174,172,174v93,0,187,-44,283,-133r0,-703r265,0xm900,-1430r0,190r-215,0r0,-190r215,0xm560,-1430r0,190r-215,0r0,-190r215,0"},"\u0152":{"d":"818,-230v281,0,422,-163,422,-489v0,-321,-141,-481,-422,-481v-295,0,-443,160,-443,481v0,326,148,489,443,489xm100,-713v0,-478,239,-717,718,-717r1257,0r0,230r-700,0v73,75,120,195,140,360r525,0r0,230r-525,0v-14,161,-58,288,-131,380r706,0r0,230r-1272,0v-457,0,-718,-237,-718,-713","w":2215},"\u0153":{"d":"576,-210v170,0,255,-106,255,-319v0,-207,-85,-311,-255,-311v-170,0,-255,104,-255,311v0,213,85,319,255,319xm1106,-616r408,0v9,-151,-54,-226,-190,-226v-133,0,-206,75,-218,226xm60,-522v0,-352,170,-528,510,-528v176,0,304,56,385,169v79,-113,208,-169,387,-169v345,0,485,209,420,628r-663,0v0,141,121,212,362,212v98,0,191,-9,279,-28r0,206v-91,21,-202,32,-333,32v-215,0,-365,-49,-451,-146v-77,97,-205,146,-386,146v-326,0,-510,-174,-510,-522","w":1837},"\u0178":{"w":526},"\u0160":{"w":621},"\u0161":{"w":342},"\u0141":{"d":"150,-632r658,-484r0,230r-658,484r0,-230xm565,-1430r0,1200r668,0r0,230r-933,0r0,-1430r265,0","w":1333,"k":{"\u0152":150,"\u00d6":150,"\u00c7":150,"Y":288,"V":300,"T":300,"Q":150,"O":150,"G":150,"C":150}},"\u0142":{"d":"0,-632r565,-420r0,230r-565,420r0,-230xm415,-1430r0,1430r-265,0r0,-1430r265,0","w":565},"\u017d":{"w":690},"\u017e":{"w":462},"\u0131":{"w":234},"\u20ac":{"d":"1250,-50v-123,40,-257,60,-400,60v-500,0,-750,-248,-750,-745v0,-470,250,-705,750,-705v143,0,277,20,400,60r0,240v-123,-47,-250,-70,-380,-70v-279,0,-440,76,-485,228r673,0r0,210r-693,0r0,70r693,0r0,210r-673,0v38,181,200,272,485,272v130,0,257,-23,380,-70r0,240","w":1385},"\u017b":{"d":"145,-1430r0,230r774,0r-794,970r0,230r1040,0r0,-230r-741,0r761,-970r0,-230r-1040,0xm780,-1789r0,220r-245,0r0,-220r245,0","w":1250},"\u017c":{"d":"120,-1050r810,0r0,210r-537,640r537,0r0,200r-830,0r0,-200r545,-640r-525,0r0,-210xm649,-1430r0,220r-235,0r0,-220r235,0","w":990},"\u0179":{"d":"145,-1430r0,230r774,0r-794,970r0,230r1040,0r0,-230r-741,0r761,-970r0,-230r-1040,0xm871,-1843r0,210r-400,150r0,-210","w":1250},"\u017a":{"d":"120,-1050r810,0r0,210r-537,640r537,0r0,200r-830,0r0,-200r545,-640r-525,0r0,-210xm718,-1535r0,210r-400,150r0,-210","w":990},"\u0104":{"d":"25,0r607,-1430r285,0r620,1430r-285,0r-180,-390r-458,0r91,-230r297,0r-234,-537r-471,1157r-272,0xm1537,0v-159,64,-238,130,-238,198v0,97,166,70,222,48r0,160v-41,13,-90,20,-149,20v-174,0,-261,-68,-261,-203v0,-87,47,-162,141,-223r285,0","w":1562,"k":{"Y":175,"V":175,"T":125}},"\u0105":{"d":"1040,0v-135,64,-202,130,-202,198v0,97,166,70,222,48r0,160v-41,13,-90,20,-149,20v-174,0,-261,-68,-261,-203v0,-87,54,-162,161,-223r229,0xm75,-327v0,-215,152,-323,456,-323v91,0,173,7,244,20r0,-69v0,-94,-91,-141,-273,-141v-115,0,-229,17,-342,50r0,-210v113,-33,227,-50,342,-50v359,0,538,115,538,346r0,704r-229,0r-19,-74v-91,49,-189,74,-292,74v-283,0,-425,-109,-425,-327xm531,-450v-127,0,-191,40,-191,120v0,80,53,120,160,120v108,0,200,-27,275,-82r0,-138v-67,-13,-148,-20,-244,-20","w":1165},"\u0106":{"d":"1290,-300v-123,53,-257,80,-400,80v-343,0,-515,-172,-515,-515v0,-317,172,-475,515,-475v143,0,277,27,400,80r0,-240v-123,-47,-263,-70,-420,-70v-513,0,-770,235,-770,705v0,497,257,745,770,745v157,0,297,-23,420,-70r0,-240xm971,-1843r0,210r-400,150r0,-210","w":1390},"\u0107":{"d":"930,-240v-87,20,-177,30,-270,30v-223,0,-335,-112,-335,-335v0,-197,112,-295,335,-295v93,0,183,10,270,30r0,-210v-87,-20,-183,-30,-290,-30v-387,0,-580,168,-580,505v0,363,193,545,580,545v107,0,203,-10,290,-30r0,-210xm749,-1535r0,210r-400,150r0,-210","w":980},"\u0143":{"d":"150,0r0,-1430r265,0r795,1022r0,-1022r255,0r0,1430r-265,0r-795,-1044r0,1044r-255,0xm1038,-1843r0,210r-400,150r0,-210","w":1615},"\u0144":{"d":"125,0r0,-1050r205,0r33,134v127,-89,255,-134,384,-134v242,0,363,130,363,391r0,659r-265,0r0,-662v0,-116,-58,-174,-173,-174v-93,0,-187,44,-282,133r0,703r-265,0xm823,-1535r0,210r-400,150r0,-210"},"\u015a":{"d":"170,-60r0,-240v143,53,305,80,486,80v219,0,329,-73,329,-220v0,-107,-67,-160,-202,-160r-244,0v-293,0,-439,-133,-439,-400v0,-293,208,-440,625,-440v160,0,312,23,455,70r0,240v-143,-53,-295,-80,-455,-80v-240,0,-360,70,-360,210v0,107,58,160,174,160r244,0v311,0,467,133,467,400v0,300,-198,450,-594,450v-181,0,-343,-23,-486,-70xm872,-1843r0,210r-400,150r0,-210","w":1310,"k":{"S":96}},"\u015b":{"d":"125,-50r0,-220v117,47,251,70,404,70v114,0,171,-37,171,-110v0,-67,-38,-100,-115,-100r-190,0v-213,0,-320,-107,-320,-320v0,-220,156,-330,467,-330v132,0,256,20,373,60r0,220v-117,-47,-243,-70,-380,-70v-143,0,-215,37,-215,110v0,67,42,100,125,100r180,0v227,0,340,107,340,320v0,220,-149,330,-446,330v-146,0,-277,-20,-394,-60xm700,-1535r0,210r-400,150r0,-210","w":1025},"\u0118":{"d":"1089,-1430r0,228r-676,0r0,360r642,0r0,237r-645,0r0,375r693,0r0,230r-953,0r0,-1430r939,0xm1103,0v-135,64,-202,130,-202,198v0,97,166,70,222,48r0,160v-41,13,-90,20,-149,20v-174,0,-261,-68,-261,-203v0,-87,54,-162,161,-223r229,0","w":1238},"\u0119":{"d":"1012,-422r-687,0v0,141,115,212,346,212v106,0,212,-10,318,-30r0,210v-93,20,-212,30,-358,30v-381,0,-571,-179,-571,-537v0,-342,174,-513,523,-513v348,0,491,209,429,628xm325,-616r438,0v9,-151,-61,-226,-210,-226v-140,0,-216,75,-228,226xm989,-30v-135,84,-202,160,-202,228v0,97,166,70,222,48r0,160v-41,13,-90,20,-149,20v-174,0,-261,-68,-261,-203v0,-87,54,-172,161,-253r229,0","w":1086},"\u00a0":{"w":350}}});
/*!
 * The following copyright notice may not be removed under any circumstances.
 * 
 * Copyright:
 * © 2008 Bernd Montag - feel free to distribute - feel free to use personal and
 * commercial - read attached textfile for restrictions
*/
Cufon.registerFont({"w":405,"face":{"font-family":"Sansation Light","font-weight":300,"font-stretch":"normal","units-per-em":"2048","panose-1":"2 0 5 3 0 0 0 2 0 4","ascent":"1638","descent":"-410","bbox":"0 -1808 2090 426","underline-thickness":"90","underline-position":"-119","unicode-range":"U+0020-U+20AC"},"glyphs":{" ":{"w":485},"!":{"d":"255,-1430r0,1060r-105,0r0,-1060r105,0xm255,-105r0,105r-105,0r0,-105r105,0"},"\"":{"d":"505,-1430r-30,435r-55,0r-30,-435r115,0xm215,-1430r-30,435r-55,0r-30,-435r115,0","w":605},"#":{"d":"723,-906r-110,438r457,0r110,-438r-457,0xm393,5r99,-379r-392,0r20,-94r392,0r109,-438r-401,0r20,-94r402,0r110,-425r100,0r-110,425r458,0r112,-430r100,0r-111,430r482,0r-20,94r-482,0r-109,438r491,0r-20,94r-492,0r-100,379r-100,0r100,-379r-458,0r-100,379r-100,0","w":1883},"$":{"d":"150,-240r0,-100v117,40,238,60,364,60v207,0,311,-70,311,-210v0,-113,-75,-170,-225,-170r-150,0v-233,0,-350,-93,-350,-280v0,-187,130,-287,390,-300r0,-190r95,0r0,190v127,7,232,23,315,50r0,100v-117,-40,-231,-60,-343,-60v-235,0,-352,70,-352,210v0,113,82,170,245,170r150,0v233,0,350,93,350,280v0,187,-122,287,-365,300r0,190r-95,0r0,-190v-143,-7,-257,-23,-340,-50","w":1050},"%":{"d":"225,0r-125,0r1017,-1430r125,0xm378,-1005v116,0,174,-59,174,-177v0,-116,-58,-174,-174,-174v-119,0,-178,58,-178,174v0,118,59,177,178,177xm100,-1180v0,-173,93,-260,278,-260v183,0,274,87,274,260v0,173,-91,259,-274,259v-185,0,-278,-86,-278,-259xm968,-74v116,0,174,-59,174,-177v0,-116,-58,-174,-174,-174v-119,0,-178,58,-178,174v0,118,59,177,178,177xm690,-249v0,-173,93,-260,278,-260v183,0,274,87,274,260v0,173,-91,259,-274,259v-185,0,-278,-86,-278,-259","w":1342},"&":{"d":"323,-727v-149,-43,-223,-149,-223,-318v0,-257,170,-385,510,-385v123,0,243,17,360,50r0,90v-123,-33,-242,-50,-357,-50v-272,0,-408,97,-408,290v0,187,112,280,335,280r468,0r0,-172r73,0r22,172r172,0r0,90r-162,0r0,190v0,329,-173,493,-518,493v-330,0,-495,-132,-495,-397v0,-165,74,-276,223,-333xm542,-680v-225,0,-337,94,-337,281v0,206,127,309,381,309v281,0,422,-134,422,-402r0,-188r-466,0","w":1275},"'":{"d":"215,-1430r-30,435r-55,0r-30,-435r115,0","w":315},"(":{"d":"405,-1430v-267,602,-267,1208,0,1810r-105,0v-267,-602,-267,-1208,0,-1810r105,0","w":480},")":{"d":"180,-1430v267,602,267,1208,0,1810r-105,0v267,-602,267,-1208,0,-1810r105,0","w":480},"*":{"d":"328,-1430r156,0r-30,232r209,-101r48,147r-228,43r159,170r-123,92r-113,-205r-113,204r-124,-89r161,-171r-230,-42r48,-150r211,103","w":810},"+":{"d":"430,-570r0,-330r100,0r0,330r320,0r0,90r-320,0r0,330r-100,0r0,-330r-330,0r0,-90r330,0","w":950},",":{"d":"355,-185r-150,435r-105,0r150,-435r105,0","w":455},"-":{"d":"600,-570r0,90r-500,0r0,-90r500,0","w":700},"\u2010":{"d":"600,-570r0,90r-500,0r0,-90r500,0","w":700},".":{"d":"235,-125r0,125r-135,0r0,-125r135,0","w":335},"\/":{"d":"140,0r-115,0r725,-1430r115,0","w":965},"0":{"d":"693,-80v328,0,492,-213,492,-639v0,-421,-164,-631,-492,-631v-335,0,-503,210,-503,631v0,426,168,639,503,639xm75,-713v0,-485,206,-727,618,-727v405,0,607,242,607,727v0,482,-202,723,-607,723v-391,0,-618,-241,-618,-723","w":1375},"1":{"d":"250,0r0,-1301r-150,0r0,-59r255,-70r0,1430r-105,0","w":585},"2":{"d":"100,0r0,-90v583,-405,875,-715,875,-930v0,-220,-140,-330,-420,-330v-147,0,-285,37,-415,110r0,-100v130,-67,268,-100,415,-100v350,0,525,140,525,420v0,247,-275,557,-824,930r824,0r0,90r-980,0","w":1180},"3":{"d":"100,-1380v133,-40,267,-60,400,-60v343,0,515,130,515,390v0,171,-79,279,-238,325v159,43,238,152,238,325v0,273,-172,410,-515,410v-133,0,-267,-20,-400,-60r0,-100v133,47,267,70,400,70v273,0,410,-107,410,-320v0,-187,-111,-280,-332,-280r-328,0r0,-90r325,0v223,0,335,-93,335,-280v0,-200,-137,-300,-410,-300v-133,0,-267,23,-400,70r0,-100","w":1115},"4":{"d":"902,0r-105,0r0,-420r-722,0r0,-90r395,-920r104,0r-386,920r609,0r0,-588r105,0r0,588r148,46r0,44r-148,0r0,420","w":1125,"k":{"7":150}},"5":{"d":"150,-1430r854,0r0,80r-766,0r-44,512v131,-15,243,-22,336,-22v380,0,570,133,570,400v0,313,-183,470,-550,470v-153,0,-297,-20,-430,-60r0,-100v133,47,277,70,430,70v297,0,445,-127,445,-380v0,-213,-155,-320,-465,-320v-157,0,-300,17,-430,50","w":1175},"6":{"d":"100,-530v0,-311,169,-625,508,-943r66,77v-195,164,-336,360,-424,589v127,-42,249,-63,366,-63v349,0,524,133,524,400v0,320,-184,480,-553,480v-325,0,-487,-180,-487,-540xm596,-80v295,0,443,-130,443,-390v0,-207,-144,-310,-432,-310v-136,0,-264,23,-384,68v-19,67,-28,122,-28,166v0,311,134,466,401,466","w":1240,"k":{"9":96,"7":150}},"7":{"d":"100,-1430r950,0r0,90r-572,1340r-131,0r592,-1340r-839,0r0,-90","w":1125,"k":{"6":150,"4":150}},"8":{"d":"100,-424v0,-162,84,-269,252,-321v-141,-57,-212,-168,-212,-333v0,-244,160,-366,480,-366v320,0,480,122,480,366v0,165,-72,276,-217,333v171,52,257,159,257,321v0,289,-173,434,-520,434v-347,0,-520,-145,-520,-434xm995,-1058v0,-195,-128,-292,-383,-292v-245,0,-367,97,-367,292v0,179,127,268,380,268v247,0,370,-89,370,-268xm1035,-418v0,-188,-141,-282,-423,-282v-271,0,-407,94,-407,282v0,225,140,338,420,338v273,0,410,-113,410,-338","w":1240},"9":{"d":"1140,-904v0,311,-169,625,-508,943r-66,-77v208,-184,346,-377,414,-579v-135,62,-264,93,-386,93v-329,0,-494,-147,-494,-440v0,-320,178,-480,533,-480v338,0,507,180,507,540xm624,-1354v-282,0,-423,130,-423,390v0,227,131,340,392,340v176,0,317,-40,424,-119v12,-53,18,-101,18,-145v0,-311,-137,-466,-411,-466","w":1190,"k":{"7":96}},":":{"d":"235,-1050r0,125r-135,0r0,-125r135,0xm235,-125r0,125r-135,0r0,-125r135,0","w":385},";":{"d":"355,-185r-150,435r-105,0r150,-435r105,0xm375,-1050r0,125r-135,0r0,-125r135,0","w":525},"<":{"d":"100,-470r0,-110r900,-420r0,110r-813,369r813,361r0,110","w":1100},"=":{"d":"850,-420r0,90r-750,0r0,-90r750,0xm850,-720r0,90r-750,0r0,-90r750,0","w":950},">":{"d":"100,-50r0,-110r813,-361r-813,-369r0,-110r900,420r0,110","w":1100},"?":{"d":"290,-105r0,105r105,0r0,-105r-105,0xm100,-1380v140,-33,273,-50,400,-50v343,0,515,130,515,390v0,260,-166,390,-497,390r-123,0r0,280r-105,0r0,-370r225,0v263,0,395,-100,395,-300v0,-200,-137,-300,-410,-300v-127,0,-260,17,-400,50r0,-90","w":1115},"@":{"d":"625,-327v0,-195,142,-293,426,-293v105,0,223,7,354,20r0,-129v0,-154,-121,-231,-363,-231v-108,0,-219,17,-332,50r0,-90v113,-33,224,-50,332,-50v312,0,468,112,468,336r0,626v0,99,33,148,100,148v190,0,285,-200,285,-600v0,-540,-269,-810,-806,-810v-556,0,-834,270,-834,810v0,553,255,830,765,830r0,90v-580,0,-870,-307,-870,-920v0,-600,308,-900,924,-900v617,0,926,300,926,900v0,460,-142,690,-427,690v-107,0,-161,-75,-161,-224v-138,49,-269,74,-392,74v-263,0,-395,-109,-395,-327xm1051,-530v-214,0,-321,67,-321,200v0,160,97,240,290,240v128,0,256,-27,385,-82r0,-338v-127,-13,-245,-20,-354,-20","w":2150},"A":{"d":"25,0r647,-1430r125,0r650,1430r-125,0r-210,-480r-608,0r31,-90r537,0r-344,-778r-591,1348r-112,0","w":1472,"k":{"Y":175,"V":175,"T":125}},"B":{"d":"150,0r0,-1430r610,0v272,0,408,111,408,333v0,163,-99,279,-296,349v209,35,314,147,314,335v0,275,-149,413,-447,413r-589,0xm728,-90v231,0,346,-107,346,-320v0,-189,-144,-283,-433,-283r-80,0r0,-71v333,-30,500,-139,500,-326v0,-167,-103,-250,-308,-250r-498,0r0,1250r473,0","w":1310},"C":{"d":"1250,-50v-130,40,-263,60,-400,60v-500,0,-750,-248,-750,-745v0,-470,250,-705,750,-705v137,0,270,20,400,60r0,90v-130,-40,-257,-60,-380,-60v-443,0,-665,205,-665,615v0,437,222,655,665,655v123,0,250,-20,380,-60r0,90","w":1385},"D":{"d":"720,-90v377,0,565,-221,565,-664v0,-391,-188,-586,-565,-586r-465,0r0,1250r465,0xm150,0r0,-1430r580,0v447,0,670,225,670,676v0,503,-223,754,-670,754r-580,0","w":1500},"E":{"d":"1089,-1430r0,90r-834,0r0,570r800,0r0,90r-800,0r0,590r848,0r0,90r-953,0r0,-1430r939,0","w":1228},"F":{"d":"1089,-1430r0,90r-834,0r0,570r800,0r0,90r-800,0r0,680r-105,0r0,-1430r939,0","w":1239,"k":{"\u0104":150,"A":150}},"G":{"d":"1250,-56v-122,44,-250,66,-383,66v-511,0,-767,-248,-767,-745v0,-470,250,-705,750,-705v137,0,270,20,400,60r0,90v-130,-40,-257,-60,-380,-60v-443,0,-665,205,-665,615v0,437,215,655,646,655v88,0,186,-15,294,-44r0,-526r105,0r0,594","w":1385},"H":{"d":"150,0r0,-1430r105,0r0,660r975,0r0,-660r105,0r0,1430r-105,0r0,-680r-975,0r0,680r-105,0","w":1485},"I":{"d":"255,-1430r0,1430r-105,0r0,-1430r105,0"},"J":{"d":"480,-1430r0,1018v0,275,-152,412,-455,412r0,-90v233,0,350,-107,350,-322r0,-1018r105,0","w":630},"K":{"d":"255,-1430r0,1430r-105,0r0,-1430r105,0xm1106,-1430r-661,667r745,763r-177,0r-663,-698r0,-112r622,-620r134,0","w":1263,"k":{"\u0152":150,"\u00d6":150,"\u00c7":150,"Q":150,"O":150,"G":150,"C":150}},"L":{"d":"255,-1430r0,1340r828,0r0,90r-933,0r0,-1430r105,0","w":1183,"k":{"\u0152":150,"\u00d6":150,"\u00c7":150,"Y":288,"V":300,"T":300,"Q":150,"O":150,"G":150,"C":150}},"M":{"d":"150,0r0,-1430r105,0r645,1307r605,-1307r95,0r0,1430r-95,0r0,-1237r-568,1237r-86,0r-606,-1247r0,1247r-95,0","w":1750},"N":{"d":"150,0r0,-1430r135,0r955,1242r0,-1242r95,0r0,1430r-85,0r-1005,-1312r0,1312r-95,0","w":1485},"O":{"d":"818,-80v395,0,592,-213,592,-639v0,-421,-197,-631,-592,-631v-402,0,-603,210,-603,631v0,426,201,639,603,639xm100,-713v0,-485,239,-727,718,-727v471,0,707,242,707,727v0,482,-236,723,-707,723v-479,0,-718,-241,-718,-723","w":1625},"P":{"d":"150,0r0,-1430r610,0v272,0,408,114,408,343v0,258,-190,418,-569,479r-28,-86v320,-50,480,-178,480,-385v0,-172,-103,-258,-308,-258r-488,0r0,1337r-105,0","w":1243,"k":{"\u0104":150,"A":150}},"Q":{"d":"818,-90v395,0,592,-210,592,-629v0,-421,-197,-631,-592,-631v-402,0,-603,210,-603,631v0,419,201,629,603,629xm100,-713v0,-485,239,-727,718,-727v471,0,707,242,707,727v0,399,-178,637,-535,716r262,300r-94,68r-310,-361v-499,0,-748,-241,-748,-723","w":1625},"R":{"d":"150,0r0,-1430r590,0v259,0,388,114,388,343v0,198,-140,338,-421,421r483,666r-144,0r-475,-663r0,-71v293,-43,440,-158,440,-345v0,-172,-96,-258,-288,-258r-468,0r0,1337r-105,0","w":1215},"S":{"d":"140,-50r0,-100v150,47,315,70,496,70v293,0,439,-117,439,-350v0,-160,-97,-240,-292,-240r-314,0v-266,0,-399,-117,-399,-350v0,-280,192,-420,575,-420v160,0,315,20,465,60r0,90v-150,-40,-305,-60,-465,-60v-313,0,-470,110,-470,330v0,167,98,250,294,250r314,0v265,0,397,113,397,340v0,293,-181,440,-544,440v-181,0,-346,-20,-496,-60","w":1310,"k":{"\u015a":96,"S":96}},"T":{"d":"1075,-1430r0,90r-490,0r0,1340r-105,0r0,-1340r-480,0r0,-90r1075,0","w":1075,"k":{"\u0119":150,"\u015b":150,"\u0144":150,"\u0107":150,"\u0105":150,"\u0104":125,"\u017a":150,"\u017c":150,"\u0153":150,"\u00fc":150,"\u00f6":150,"\u00e7":150,"z":150,"y":150,"x":150,"w":150,"v":150,"u":150,"t":150,"s":150,"r":150,"q":150,"p":150,"o":150,"n":150,"m":140,"g":150,"e":150,"d":150,"c":150,"a":150,"A":125}},"U":{"d":"150,-552r0,-878r105,0r0,878v0,315,157,472,470,472v313,0,470,-157,470,-472r0,-878r105,0r0,878v0,375,-192,562,-575,562v-383,0,-575,-187,-575,-562","w":1450},"V":{"d":"1447,-1430r-627,1430r-165,0r-630,-1430r115,0r601,1349r594,-1349r112,0","w":1472,"k":{"\u0119":125,"\u015b":125,"\u0144":96,"\u0105":100,"\u0104":175,"\u017a":96,"\u017c":96,"\u0153":125,"\u00f6":125,"\u00e7":125,"z":96,"s":125,"r":96,"q":125,"p":96,"o":125,"n":96,"m":96,"g":125,"e":125,"d":125,"c":125,"a":100,"A":175}},"W":{"d":"25,-1430r99,0r243,1329r462,-1329r105,0r475,1342r275,-1342r91,0r-289,1430r-152,0r-452,-1306r-453,1306r-149,0","w":1849},"X":{"d":"25,-1430r125,0r1125,1430r-125,0xm150,0r-125,0r1125,-1430r125,0","w":1300},"Y":{"d":"25,-1430r125,0r463,830r477,-830r115,0r-536,930r0,500r-105,0r0,-500","w":1230,"k":{"\u0119":150,"\u015b":150,"\u0144":96,"\u0107":150,"\u0105":150,"\u0104":175,"\u017a":96,"\u017c":96,"\u0153":150,"\u00fc":96,"\u00f6":150,"\u00e7":150,"z":96,"x":96,"u":96,"s":150,"r":96,"q":150,"p":96,"o":150,"n":96,"m":96,"g":150,"e":150,"d":150,"c":150,"a":150,"A":175}},"Z":{"d":"1125,-1430r0,90r-867,1250r847,0r0,90r-980,0r0,-80r894,-1260r-874,0r0,-90r980,0","w":1250},"[":{"d":"520,-1430r0,90r-275,0r0,1630r275,0r0,90r-370,0r0,-1810r370,0","w":545},"\\":{"d":"25,-1430r115,0r725,1430r-115,0","w":965},"]":{"d":"395,-1430r0,1810r-370,0r0,-90r275,0r0,-1630r-275,0r0,-90r370,0","w":545},"^":{"d":"450,-1430r150,0r400,730r-110,0r-369,-673r-361,673r-110,0","w":1050},"_":{"d":"1025,0r0,90r-1000,0r0,-90r1000,0","w":1050},"`":{"d":"400,-1355r0,150r-400,-150r0,-150","w":400},"a":{"d":"100,-317v0,-202,149,-303,446,-303v105,0,216,7,334,20r0,-129v0,-154,-121,-231,-363,-231v-108,0,-219,17,-332,50r0,-90v113,-33,224,-50,332,-50v312,0,468,112,468,336r0,714r-64,0r-34,-74v-138,49,-269,74,-392,74v-263,0,-395,-106,-395,-317xm546,-530v-227,0,-341,70,-341,210v0,153,97,230,290,230v128,0,256,-27,385,-82r0,-338v-113,-13,-225,-20,-334,-20","w":1135},"b":{"d":"255,-123v114,19,214,29,301,29v287,0,430,-153,430,-459v0,-265,-132,-397,-397,-397v-96,0,-207,18,-334,54r0,773xm150,-1430r105,0r0,430v133,-33,244,-50,335,-50v332,0,498,168,498,504v0,364,-174,546,-523,546v-151,0,-289,-14,-415,-43r0,-1387","w":1188},"c":{"d":"950,-30v-87,20,-180,30,-280,30v-380,0,-570,-182,-570,-545v0,-337,190,-505,570,-505v100,0,193,10,280,30r0,90v-87,-20,-173,-30,-260,-30v-317,0,-475,138,-475,415v0,303,158,455,475,455v87,0,173,-10,260,-30r0,90","w":1025},"d":{"d":"935,-896v-128,-36,-240,-54,-336,-54v-258,0,-387,132,-387,397v0,306,129,459,387,459v96,0,208,-13,336,-39r0,-763xm1040,-63v-127,42,-284,63,-471,63v-313,0,-469,-182,-469,-546v0,-336,166,-504,498,-504v91,0,203,17,337,50r0,-430r105,0r0,1367","w":1190},"e":{"d":"992,-502r-787,0v0,275,162,412,486,412v93,0,185,-10,278,-30r0,90v-93,20,-205,30,-338,30v-354,0,-531,-179,-531,-537v0,-342,168,-513,503,-513v308,0,438,183,389,548xm205,-596r688,0v16,-244,-91,-366,-320,-366v-233,0,-356,122,-368,366","w":1126},"f":{"d":"150,5r0,-1106v0,-254,131,-381,392,-381v86,0,164,13,234,40r0,90v-66,-27,-144,-40,-235,-40v-191,0,-286,78,-286,233r0,109r395,0r0,90r-395,0r0,961","w":721},"g":{"d":"932,-932v-117,-16,-222,-24,-315,-24v-277,0,-415,141,-415,423v0,289,132,433,397,433v96,0,207,-18,333,-54r0,-778xm1037,0v0,253,-161,380,-483,380v-129,0,-244,-17,-344,-50r0,-90v102,33,217,50,346,50v271,0,391,-104,376,-340v-132,33,-243,50,-334,50v-332,0,-498,-177,-498,-531v0,-346,175,-519,525,-519v142,0,279,14,412,43r0,1007","w":1187},"h":{"d":"150,0r0,-1430r105,0r0,494v163,-76,308,-114,437,-114v229,0,343,130,343,391r0,659r-105,0r0,-702v0,-169,-98,-254,-293,-254v-106,0,-233,44,-382,133r0,823r-105,0","w":1185},"i":{"d":"255,-1430r0,100r-105,0r0,-100r105,0xm255,-1050r0,1050r-105,0r0,-1050r105,0"},"j":{"d":"255,-1430r0,100r-105,0r0,-100r105,0xm255,-1050r0,970v0,212,-52,361,-155,448r-75,-65v83,-57,125,-184,125,-383r0,-970r105,0"},"k":{"d":"150,0r0,-1430r105,0r0,462v129,-55,266,-82,413,-82v248,0,372,101,372,303v0,153,-110,258,-330,314r356,433r-154,0r-334,-435r0,-63v238,-27,357,-111,357,-250v0,-141,-97,-212,-290,-212v-129,0,-259,31,-390,94r0,866r-105,0","w":1101},"l":{"d":"255,-1430r0,1430r-105,0r0,-1430r105,0"},"m":{"d":"150,0r0,-1050r75,0r11,132v141,-88,277,-132,409,-132v125,0,212,48,261,144v127,-96,256,-144,387,-144v221,0,332,116,332,349r0,701r-105,0r0,-701v0,-170,-83,-255,-248,-255v-125,0,-234,45,-327,136r0,820r-105,0r0,-718v0,-159,-75,-238,-226,-238v-131,0,-250,45,-359,136r0,820r-105,0","w":1805},"n":{"d":"150,0r0,-1050r75,0r13,134v174,-89,325,-134,454,-134v229,0,343,110,343,331r0,719r-105,0r0,-722v0,-156,-88,-234,-263,-234v-126,0,-263,44,-412,133r0,823r-105,0","w":1185},"o":{"d":"600,-90v263,0,395,-146,395,-439v0,-287,-132,-431,-395,-431v-263,0,-395,144,-395,431v0,293,132,439,395,439xm100,-525v0,-350,167,-525,500,-525v333,0,500,175,500,525v0,349,-167,524,-500,524v-332,0,-500,-175,-500,-524","w":1200},"p":{"d":"255,-154v126,36,234,54,323,54v271,0,407,-151,407,-453v0,-269,-135,-403,-405,-403v-93,0,-202,8,-325,24r0,778xm150,-1007v139,-29,283,-43,432,-43v337,0,505,166,505,499v0,367,-169,551,-508,551v-84,0,-192,-17,-324,-50r0,430r-105,0r0,-1387","w":1187},"q":{"d":"932,-932v-117,-16,-222,-24,-315,-24v-277,0,-415,141,-415,423v0,289,132,433,397,433v96,0,207,-18,333,-54r0,-778xm1037,380r-105,0r0,-430v-132,33,-243,50,-334,50v-332,0,-498,-177,-498,-531v0,-346,175,-519,525,-519v142,0,279,14,412,43r0,1387","w":1187},"r":{"d":"150,0r0,-1050r75,0r13,134v59,-89,153,-134,282,-134r0,84v-125,0,-214,44,-265,133r0,833r-105,0","w":560},"s":{"d":"150,-50r0,-100v117,40,238,60,364,60v221,0,331,-70,331,-210v0,-113,-82,-170,-245,-170r-170,0v-220,0,-330,-93,-330,-280v0,-200,146,-300,437,-300v125,0,246,17,363,50r0,100v-117,-40,-238,-60,-363,-60v-221,0,-332,70,-332,210v0,120,75,180,225,180r170,0v233,0,350,90,350,270v0,200,-145,300,-436,300v-126,0,-247,-17,-364,-50","w":1050},"t":{"d":"150,-1220r66,0r20,170r264,0r0,90r-245,0r0,663v0,138,52,207,157,207r88,0r0,90r-86,0v-176,0,-264,-94,-264,-283r0,-937","w":550},"u":{"d":"1035,-1050r0,1050r-77,0r-12,-134v-174,89,-325,134,-454,134v-228,0,-342,-130,-342,-391r0,-659r105,0r0,662v0,196,97,294,292,294v106,0,234,-44,383,-133r0,-823r105,0","w":1185},"v":{"d":"0,-1050r120,0r384,959r386,-959r120,0r-447,1050r-122,0","w":1010},"w":{"d":"50,-1050r107,0r226,923r333,-923r77,0r342,903r231,-903r103,0r-274,1050r-109,0r-331,-895r-326,895r-113,0","w":1519},"x":{"d":"25,-1050r125,0r815,1050r-125,0xm150,0r-125,0r815,-1050r125,0","w":990},"y":{"d":"25,-1050r121,0r390,948r384,-948r116,0r-456,1081v-77,191,-193,310,-348,357r-31,-84v121,-44,214,-140,278,-288","w":1061},"z":{"d":"120,-1050r770,0r0,90r-657,870r637,0r0,90r-770,0r0,-90r665,-870r-645,0r0,-90","w":990},"{":{"d":"545,-1430v-87,117,-130,277,-130,478v0,235,-63,377,-190,427v127,50,190,192,190,427v0,201,43,361,130,478r-105,0v-87,-117,-130,-277,-130,-478v0,-255,-70,-382,-210,-382r0,-90v140,0,210,-127,210,-382v0,-201,43,-361,130,-478r105,0","w":570},"|":{"d":"255,-1430r0,1810r-105,0r0,-1810r105,0"},"}":{"d":"130,-1430v87,117,130,277,130,478v0,255,70,382,210,382r0,90v-140,0,-210,127,-210,382v0,201,-43,361,-130,478r-105,0v87,-117,130,-277,130,-478v0,-235,63,-377,190,-427v-127,-50,-190,-192,-190,-427v0,-201,-43,-361,-130,-478r105,0","w":570},"~":{"d":"850,-590r0,90v-70,73,-192,80,-365,20v-173,-60,-302,-53,-385,20r0,-90v70,-73,192,-80,365,-20v173,60,302,53,385,-20","w":950},"\u00c7":{"d":"583,284v72,40,144,60,216,60v99,0,148,-32,148,-95v0,-63,-41,-94,-123,-94r-153,0r131,-230r95,0r-81,152v149,0,224,57,224,172v0,115,-80,173,-241,173v-72,0,-144,-17,-216,-50r0,-88xm1250,-50v-130,40,-263,60,-400,60v-500,0,-750,-248,-750,-745v0,-470,250,-705,750,-705v137,0,270,20,400,60r0,90v-130,-40,-257,-60,-380,-60v-443,0,-665,205,-665,615v0,437,222,655,665,655v123,0,250,-20,380,-60r0,90","w":1385},"\u00d6":{"d":"818,-80v395,0,592,-213,592,-639v0,-421,-197,-631,-592,-631v-402,0,-603,210,-603,631v0,426,201,639,603,639xm100,-713v0,-485,239,-727,718,-727v471,0,707,242,707,727v0,482,-236,723,-707,723v-479,0,-718,-241,-718,-723xm1034,-1759r0,110r-115,0r0,-110r115,0xm714,-1759r0,110r-115,0r0,-110r115,0","w":1625},"\u00dc":{"d":"150,-552r0,-878r105,0r0,878v0,315,157,472,470,472v313,0,470,-157,470,-472r0,-878r105,0r0,878v0,375,-192,562,-575,562v-383,0,-575,-187,-575,-562xm935,-1759r0,110r-115,0r0,-110r115,0xm615,-1759r0,110r-115,0r0,-110r115,0","w":1450},"\u00e7":{"d":"950,-30v-87,20,-180,30,-280,30v-380,0,-570,-182,-570,-545v0,-337,190,-505,570,-505v100,0,193,10,280,30r0,90v-87,-20,-173,-30,-260,-30v-317,0,-475,138,-475,415v0,303,158,455,475,455v87,0,173,-10,260,-30r0,90xm398,284v72,40,144,60,216,60v99,0,148,-32,148,-95v0,-63,-41,-94,-123,-94r-153,0r131,-230r95,0r-81,152v149,0,224,57,224,172v0,115,-80,173,-241,173v-72,0,-144,-17,-216,-50r0,-88","w":1025},"\u00f6":{"d":"600,-90v263,0,395,-146,395,-439v0,-287,-132,-431,-395,-431v-263,0,-395,144,-395,431v0,293,132,439,395,439xm100,-525v0,-350,167,-525,500,-525v333,0,500,175,500,525v0,349,-167,524,-500,524v-332,0,-500,-175,-500,-524xm816,-1400r0,110r-115,0r0,-110r115,0xm496,-1400r0,110r-115,0r0,-110r115,0","w":1200},"\u00fc":{"d":"1035,-1050r0,1050r-77,0r-12,-134v-174,89,-325,134,-454,134v-228,0,-342,-130,-342,-391r0,-659r105,0r0,662v0,196,97,294,292,294v106,0,234,-44,383,-133r0,-823r105,0xm813,-1400r0,110r-115,0r0,-110r115,0xm493,-1400r0,110r-115,0r0,-110r115,0","w":1185},"\u0152":{"d":"818,-90v395,0,592,-210,592,-629v0,-414,-197,-621,-592,-621v-402,0,-603,207,-603,621v0,419,201,629,603,629xm100,-713v0,-478,239,-717,718,-717r1257,0r0,90r-855,0v183,91,285,281,305,570r515,0r0,90r-515,0v-20,298,-126,495,-317,590r882,0r0,90r-1272,0v-479,0,-718,-238,-718,-713","w":2215},"\u0153":{"d":"600,-90v237,0,355,-146,355,-439v0,-287,-118,-431,-355,-431v-263,0,-395,144,-395,431v0,293,132,439,395,439xm1060,-596r638,0v23,-244,-81,-366,-310,-366v-207,0,-316,122,-328,366xm100,-522v0,-352,168,-528,504,-528v189,0,324,73,405,219v65,-146,201,-219,407,-219v318,0,448,183,390,548r-743,0v0,275,147,412,442,412v98,0,191,-13,279,-38r0,96v-91,21,-202,32,-333,32v-208,0,-355,-75,-441,-226v-77,151,-212,226,-406,226v-336,0,-504,-174,-504,-522","w":1944},"\u0178":{"w":526},"\u0160":{"w":621},"\u0161":{"w":342},"\u0141":{"d":"0,-592r658,-484r0,110r-658,484r0,-110xm255,-1430r0,1340r828,0r0,90r-933,0r0,-1430r105,0","w":1183,"k":{"\u0152":150,"\u00d6":150,"\u00c7":150,"Y":288,"V":300,"T":300,"Q":150,"O":150,"G":150,"C":150}},"\u0142":{"d":"255,-1430r0,1430r-105,0r0,-1430r105,0xm0,-592r405,-300r0,110r-405,300r0,-110"},"\u017d":{"w":690},"\u017e":{"w":462},"\u0131":{"w":234},"\u20ac":{"d":"1250,-50v-123,40,-257,60,-400,60v-500,0,-750,-248,-750,-745v0,-470,250,-705,750,-705v143,0,277,20,400,60r0,100v-123,-47,-250,-70,-380,-70v-379,0,-594,146,-645,438r833,0r0,90r-843,0r0,170r843,0r0,90r-833,0v51,321,266,482,645,482v130,0,257,-23,380,-70r0,100","w":1385},"\u017b":{"d":"710,-1789r0,150r-175,0r0,-150r175,0xm145,-1430r0,90r874,0r-894,1260r0,80r980,0r0,-90r-847,0r867,-1250r0,-90r-980,0","w":1250},"\u017c":{"d":"589,-1430r0,150r-165,0r0,-150r165,0xm120,-1050r770,0r0,90r-657,870r637,0r0,90r-770,0r0,-90r665,-870r-645,0r0,-90","w":990},"\u0179":{"d":"812,-1808r0,90r-400,150r0,-90xm145,-1430r0,90r874,0r-894,1260r0,80r980,0r0,-90r-847,0r867,-1250r0,-90r-980,0","w":1250},"\u017a":{"d":"715,-1475r0,90r-400,150r0,-90xm120,-1050r770,0r0,90r-657,870r637,0r0,90r-770,0r0,-90r665,-870r-645,0r0,-90","w":990},"\u0104":{"d":"1447,0v-155,84,-232,160,-232,228v0,72,38,108,115,108v57,0,102,-7,137,-20r0,90v-41,13,-90,20,-149,20v-141,0,-211,-58,-211,-173v0,-101,72,-185,215,-253r125,0xm25,0r647,-1430r125,0r650,1430r-125,0r-210,-480r-608,0r31,-90r537,0r-344,-778r-591,1348r-112,0","w":1472,"k":{"Y":175,"V":175,"T":125}},"\u0105":{"d":"986,0v-155,84,-232,160,-232,228v0,72,38,108,115,108v57,0,102,-7,137,-20r0,90v-41,13,-90,20,-149,20v-141,0,-211,-58,-211,-173v0,-87,78,-172,234,-253r106,0xm100,-317v0,-202,149,-303,446,-303v105,0,216,7,334,20r0,-129v0,-154,-121,-231,-363,-231v-108,0,-219,17,-332,50r0,-90v113,-33,224,-50,332,-50v312,0,468,112,468,336r0,714r-105,0r0,-74v-133,49,-262,74,-385,74v-263,0,-395,-106,-395,-317xm546,-530v-227,0,-341,70,-341,210v0,153,97,230,290,230v128,0,256,-27,385,-82r0,-338v-113,-13,-225,-20,-334,-20","w":1135},"\u0106":{"d":"936,-1808r0,90r-400,150r0,-90xm1250,-140v-130,40,-257,60,-380,60v-443,0,-665,-218,-665,-655v0,-410,222,-615,665,-615v123,0,250,20,380,60r0,-90v-130,-40,-263,-60,-400,-60v-500,0,-750,235,-750,705v0,497,250,745,750,745v137,0,270,-20,400,-60r0,-90","w":1385},"\u0107":{"d":"768,-1475r0,90r-400,150r0,-90xm950,-120v-87,20,-173,30,-260,30v-317,0,-475,-152,-475,-455v0,-277,158,-415,475,-415v87,0,173,10,260,30r0,-90v-87,-20,-180,-30,-280,-30v-380,0,-570,168,-570,505v0,363,190,545,570,545v100,0,193,-10,280,-30r0,-90","w":1025},"\u0143":{"d":"952,-1808r0,90r-400,150r0,-90xm150,0r0,-1430r135,0r955,1242r0,-1242r95,0r0,1430r-85,0r-1005,-1312r0,1312r-95,0","w":1485},"\u0144":{"d":"795,-1475r0,90r-400,150r0,-90xm150,0r0,-1050r75,0r13,134v174,-89,325,-134,454,-134v229,0,343,110,343,331r0,719r-105,0r0,-722v0,-156,-88,-234,-263,-234v-126,0,-263,44,-412,133r0,823r-105,0","w":1185},"\u015a":{"d":"828,-1808r0,90r-400,150r0,-90xm170,-50r0,-100v150,47,315,70,496,70v293,0,439,-117,439,-350v0,-160,-97,-240,-292,-240r-314,0v-266,0,-399,-117,-399,-350v0,-280,192,-420,575,-420v160,0,315,20,465,60r0,90v-150,-40,-305,-60,-465,-60v-313,0,-470,110,-470,330v0,167,98,250,294,250r314,0v265,0,397,113,397,340v0,293,-181,440,-544,440v-181,0,-346,-20,-496,-60","w":1310,"k":{"S":96}},"\u015b":{"d":"712,-1475r0,90r-400,150r0,-90xm150,-50r0,-100v117,40,238,60,364,60v221,0,331,-70,331,-210v0,-113,-82,-170,-245,-170r-170,0v-220,0,-330,-93,-330,-280v0,-200,146,-300,437,-300v125,0,246,17,363,50r0,100v-117,-40,-238,-60,-363,-60v-221,0,-332,70,-332,210v0,120,75,180,225,180r170,0v233,0,350,90,350,270v0,200,-145,300,-436,300v-126,0,-247,-17,-364,-50","w":1050},"\u0118":{"d":"1100,0v-168,84,-252,160,-252,228v0,72,38,108,115,108v57,0,102,-7,137,-20r0,90v-41,13,-90,20,-149,20v-141,0,-211,-58,-211,-173v0,-101,68,-185,203,-253r157,0xm1089,-1430r0,90r-834,0r0,570r800,0r0,90r-800,0r0,590r848,0r0,90r-953,0r0,-1430r939,0","w":1225},"\u0119":{"d":"969,-30v-168,104,-252,190,-252,258v0,72,38,108,115,108v57,0,102,-7,137,-20r0,90v-41,13,-90,20,-149,20v-141,0,-211,-58,-211,-173v0,-101,74,-195,223,-283r137,0xm992,-502r-787,0v0,275,162,412,486,412v93,0,185,-10,278,-30r0,90v-93,20,-205,30,-338,30v-354,0,-531,-179,-531,-537v0,-342,168,-513,503,-513v308,0,438,183,389,548xm205,-596r688,0v16,-244,-91,-366,-320,-366v-233,0,-356,122,-368,366","w":1132},"\u00a0":{"w":485}}});
/*!
 * The following copyright notice may not be removed under any circumstances.
 * 
 * Copyright:
 * © 2008 Bernd Montag - feel free to distribute - feel free to use personal and
 * commercial - read attached textfile for restrictions
*/
Cufon.registerFont({"w":485,"face":{"font-family":"Sansation","font-weight":400,"font-stretch":"normal","units-per-em":"2048","panose-1":"2 0 5 3 0 0 0 2 0 4","ascent":"1638","descent":"-410","bbox":"0 -1838 2090 426","underline-thickness":"150","underline-position":"-89","unicode-range":"U+0020-U+20AC"},"glyphs":{" ":{},"!":{"d":"335,-1430r0,1060r-185,0r0,-1060r185,0xm335,-185r0,185r-185,0r0,-185r185,0"},"\"":{"d":"655,-1430r-30,435r-125,0r-30,-435r185,0xm285,-1430r-30,435r-125,0r-30,-435r185,0","w":755},"#":{"d":"803,-876r-90,378r377,0r90,-378r-377,0xm403,5r89,-349r-392,0r30,-154r402,0r89,-378r-401,0r30,-154r412,0r100,-395r180,0r-100,395r378,0r102,-400r180,0r-101,400r392,0r-30,154r-402,0r-89,378r401,0r-30,154r-412,0r-90,349r-180,0r90,-349r-378,0r-90,349r-180,0","w":1893},"$":{"d":"150,-240r0,-160v117,40,238,60,364,60v167,0,251,-50,251,-150v0,-93,-55,-140,-165,-140r-150,0v-233,0,-350,-103,-350,-310v0,-173,117,-273,350,-300r0,-190r175,0r0,190v100,7,192,23,275,50r0,160v-117,-40,-231,-60,-343,-60v-195,0,-292,50,-292,150v0,93,62,140,185,140r150,0v233,0,350,103,350,310v0,173,-108,273,-325,300r0,190r-175,0r0,-190v-117,-7,-217,-23,-300,-50","w":1050},"%":{"d":"305,0r-205,0r1017,-1430r205,0xm378,-1035v96,0,144,-49,144,-147v0,-96,-48,-144,-144,-144v-99,0,-148,48,-148,144v0,98,49,147,148,147xm100,-1180v0,-173,93,-260,278,-260v183,0,274,87,274,260v0,173,-91,259,-274,259v-185,0,-278,-86,-278,-259xm1048,-104v96,0,144,-49,144,-147v0,-96,-48,-144,-144,-144v-99,0,-148,48,-148,144v0,98,49,147,148,147xm770,-249v0,-173,93,-260,278,-260v183,0,274,87,274,260v0,173,-91,259,-274,259v-185,0,-278,-86,-278,-259","w":1422},"&":{"d":"293,-727v-129,-57,-193,-163,-193,-318v0,-257,170,-385,510,-385v123,0,243,17,360,50r0,150v-117,-33,-232,-50,-347,-50v-225,0,-338,77,-338,230v0,167,85,250,255,250r388,0r0,-142r63,0r102,142r182,0r0,150r-162,0r0,160v0,329,-173,493,-518,493v-330,0,-495,-132,-495,-397v0,-165,64,-276,193,-333xm542,-650v-171,0,-257,84,-257,251v0,166,100,249,301,249v228,0,342,-114,342,-342r0,-158r-386,0","w":1275},"'":{"d":"285,-1430r-30,435r-125,0r-30,-435r185,0","w":385},"(":{"d":"485,-1430v-267,602,-267,1208,0,1810r-185,0v-267,-602,-267,-1208,0,-1810r185,0","w":560},")":{"d":"260,-1430v267,602,267,1208,0,1810r-185,0v267,-602,267,-1208,0,-1810r185,0","w":560},"*":{"d":"327,-1430r156,0r-30,232r209,-101r48,147r-228,43r159,170r-123,92r-113,-205r-113,204r-124,-89r161,-171r-230,-42r48,-150r211,103","w":810},"+":{"d":"400,-600r0,-300r150,0r0,300r300,0r0,150r-300,0r0,300r-150,0r0,-300r-300,0r0,-150r300,0","w":950},",":{"d":"435,-185r-150,435r-185,0r150,-435r185,0","w":535},"-":{"d":"600,-600r0,150r-500,0r0,-150r500,0","w":700},"\u2010":{"d":"600,-600r0,150r-500,0r0,-150r500,0","w":700},".":{"d":"285,-185r0,185r-185,0r0,-185r185,0","w":385},"\/":{"d":"230,0r-205,0r725,-1430r205,0","w":980},"0":{"d":"693,-140v275,0,412,-193,412,-579v0,-381,-137,-571,-412,-571v-282,0,-423,190,-423,571v0,386,141,579,423,579xm75,-713v0,-485,206,-727,618,-727v405,0,607,242,607,727v0,482,-202,723,-607,723v-412,0,-618,-241,-618,-723","w":1375},"1":{"d":"250,0r0,-1241r-150,0r0,-89r335,-100r0,1430r-185,0","w":635},"2":{"d":"100,0r0,-150v530,-365,795,-655,795,-870v0,-180,-113,-270,-340,-270v-147,0,-285,37,-415,110r0,-160v130,-67,268,-100,415,-100v350,0,525,140,525,420v0,247,-238,537,-715,870r715,0r0,150r-980,0","w":1180},"3":{"d":"100,-1380v133,-40,267,-60,400,-60v343,0,515,130,515,390v0,157,-63,266,-188,325v125,57,188,165,188,325v0,273,-172,410,-515,410v-133,0,-267,-20,-400,-60r0,-160v133,47,267,70,400,70v220,0,330,-87,330,-260v0,-167,-84,-250,-252,-250r-328,0r0,-150r325,0v170,0,255,-83,255,-250v0,-160,-110,-240,-330,-240v-133,0,-267,23,-400,70r0,-160","w":1115},"4":{"d":"902,0r-185,0r0,-420r-642,0r0,-150r395,-860r184,0r-386,860r449,0r0,-528r185,0r0,528r148,76r0,74r-148,0r0,420","w":1125,"k":{"7":150}},"5":{"d":"150,-1430r854,0r0,150r-696,0r-34,402v78,-15,163,-22,256,-22v380,0,570,147,570,440v0,313,-183,470,-550,470v-153,0,-297,-20,-430,-60r0,-160v133,47,277,70,430,70v243,0,365,-107,365,-320v0,-193,-128,-290,-385,-290v-157,0,-300,17,-430,50","w":1175},"6":{"d":"100,-530v0,-311,169,-625,508,-943r126,107v-175,164,-299,327,-374,489v61,-15,146,-23,256,-23v349,0,524,143,524,430v0,320,-184,480,-553,480v-325,0,-487,-180,-487,-540xm596,-140v242,0,363,-110,363,-330v0,-187,-117,-280,-352,-280v-129,0,-231,9,-304,28v-19,73,-28,132,-28,176v0,271,107,406,321,406","w":1240,"k":{"9":96,"7":150}},"7":{"d":"100,-1430r950,0r0,150r-572,1280r-211,0r592,-1280r-759,0r0,-150","w":1125,"k":{"6":150,"4":150}},"8":{"d":"100,-424v0,-149,71,-256,212,-321v-115,-70,-172,-181,-172,-333v0,-244,160,-366,480,-366v320,0,480,122,480,366v0,152,-59,263,-177,333v145,65,217,172,217,321v0,289,-173,434,-520,434v-347,0,-520,-145,-520,-434xm915,-1058v0,-155,-101,-232,-303,-232v-191,0,-287,77,-287,232v0,159,100,238,300,238v193,0,290,-79,290,-238xm955,-418v0,-168,-114,-252,-343,-252v-218,0,-327,84,-327,252v0,185,113,278,340,278v220,0,330,-93,330,-278","w":1240},"9":{"d":"1140,-904v0,311,-169,625,-508,943r-126,-107v175,-164,299,-327,374,-489v-89,42,-187,63,-296,63v-323,0,-484,-157,-484,-470v0,-320,178,-480,533,-480v338,0,507,180,507,540xm624,-1294v-229,0,-343,110,-343,330v0,207,104,310,312,310v156,0,271,-26,344,-79v19,-59,28,-111,28,-155v0,-271,-114,-406,-341,-406","w":1240,"k":{"7":96}},":":{"d":"285,-1050r0,185r-185,0r0,-185r185,0xm285,-185r0,185r-185,0r0,-185r185,0","w":385},";":{"d":"435,-1050r0,185r-185,0r0,-185r185,0xm435,-185r-150,435r-185,0r150,-435r185,0","w":535},"<":{"d":"100,-450r0,-150r900,-400r0,150r-743,329r743,321r0,150","w":1100},"=":{"d":"850,-450r0,150r-750,0r0,-150r750,0xm850,-750r0,150r-750,0r0,-150r750,0","w":950},">":{"d":"100,-50r0,-150r743,-321r-743,-329r0,-150r900,400r0,150","w":1100},"?":{"d":"250,-185r0,185r185,0r0,-185r-185,0xm100,-1380v140,-33,273,-50,400,-50v343,0,515,130,515,390v0,260,-166,390,-497,390r-83,0r0,280r-185,0r0,-430r265,0v210,0,315,-80,315,-240v0,-160,-110,-240,-330,-240v-127,0,-260,17,-400,50r0,-150","w":1115},"@":{"d":"625,-327v0,-215,142,-323,426,-323v105,0,196,7,274,20r0,-99v0,-114,-94,-171,-283,-171v-108,0,-219,17,-332,50r0,-150v113,-33,224,-50,332,-50v312,0,468,112,468,336r0,626v0,59,33,88,100,88v137,0,205,-180,205,-540v0,-500,-242,-750,-726,-750v-503,0,-754,250,-754,750v0,513,228,770,685,770r0,150v-580,0,-870,-307,-870,-920v0,-600,308,-900,924,-900v617,0,926,300,926,900v0,460,-142,690,-427,690v-161,0,-241,-75,-241,-224v-85,49,-189,74,-312,74v-263,0,-395,-109,-395,-327xm1051,-500v-161,0,-241,57,-241,170v0,120,70,180,210,180v128,0,230,-27,305,-82r0,-248v-73,-13,-165,-20,-274,-20","w":2150},"A":{"d":"25,0r607,-1430r205,0r610,1430r-195,0r-190,-450r-478,0r51,-150r357,0r-264,-638r-511,1238r-192,0","w":1472,"k":{"Y":175,"V":175,"T":125}},"B":{"d":"150,0r0,-1430r610,0v272,0,408,111,408,333v0,163,-89,279,-266,349v189,35,284,144,284,325v0,282,-149,423,-447,423r-589,0xm728,-150v171,0,256,-87,256,-260v0,-169,-114,-253,-343,-253r-80,0r0,-121v273,-37,410,-135,410,-296v0,-133,-76,-200,-228,-200r-408,0r0,1130r393,0","w":1310},"C":{"d":"1250,-50v-123,40,-257,60,-400,60v-500,0,-750,-248,-750,-745v0,-470,250,-705,750,-705v143,0,277,20,400,60r0,160v-123,-47,-250,-70,-380,-70v-390,0,-585,185,-585,555v0,397,195,595,585,595v130,0,257,-23,380,-70r0,160","w":1385},"D":{"d":"690,-150v350,0,525,-201,525,-604v0,-351,-175,-526,-525,-526r-355,0r0,1130r355,0xm150,0r0,-1430r580,0v447,0,670,225,670,676v0,503,-223,754,-670,754r-580,0","w":1500},"E":{"d":"1085,-1430r0,150r-750,0r0,480r715,0r0,150r-715,0r0,500r765,0r0,150r-950,0r0,-1430r935,0","w":1225},"F":{"d":"1085,-1430r0,150r-750,0r0,480r715,0r0,150r-715,0r0,650r-185,0r0,-1430r935,0","w":1210,"k":{"\u0104":150,"A":150}},"G":{"d":"1250,-56v-115,44,-240,66,-373,66v-518,0,-777,-248,-777,-745v0,-470,250,-705,750,-705v143,0,277,20,400,60r0,160v-123,-47,-250,-70,-380,-70v-390,0,-585,185,-585,555v0,397,192,595,576,595v61,0,129,-8,204,-24r0,-486r185,0r0,594","w":1385},"H":{"d":"150,0r0,-1430r185,0r0,630r865,0r0,-630r185,0r0,1430r-185,0r0,-650r-865,0r0,650r-185,0","w":1535},"I":{"d":"335,-1430r0,1430r-185,0r0,-1430r185,0"},"J":{"d":"510,-1430r0,1018v0,275,-162,412,-485,412r0,-150v200,0,300,-87,300,-262r0,-1018r185,0","w":660},"K":{"d":"335,-1430r0,1430r-185,0r0,-1430r185,0xm1321,-1430r-641,667r725,763r-277,0r-633,-698r0,-112r592,-620r234,0","w":1430,"k":{"\u0152":150,"\u00d6":150,"\u00c7":150,"Q":150,"O":150,"G":150,"C":150}},"L":{"d":"335,-1430r0,1280r748,0r0,150r-933,0r0,-1430r185,0","w":1183,"k":{"\u0152":150,"\u00d6":150,"\u00c7":150,"Y":288,"V":300,"T":300,"Q":150,"O":150,"G":150,"C":150}},"M":{"d":"150,0r0,-1430r235,0r525,1193r515,-1193r225,0r0,1430r-165,0r0,-1153r-508,1153r-146,0r-516,-1153r0,1153r-165,0","w":1800},"N":{"d":"150,0r0,-1430r185,0r875,1142r0,-1142r175,0r0,1430r-185,0r-875,-1142r0,1142r-175,0","w":1535},"O":{"d":"818,-140v341,0,512,-193,512,-579v0,-381,-171,-571,-512,-571v-349,0,-523,190,-523,571v0,386,174,579,523,579xm100,-713v0,-485,239,-727,718,-727v471,0,707,242,707,727v0,482,-236,723,-707,723v-479,0,-718,-241,-718,-723","w":1625},"P":{"d":"150,0r0,-1430r610,0v272,0,408,114,408,343v0,258,-190,418,-569,479r-38,-156v273,-43,410,-148,410,-315v0,-132,-76,-198,-228,-198r-408,0r0,1277r-185,0","w":1243,"k":{"\u0104":150,"A":150}},"Q":{"d":"818,-140v341,0,512,-193,512,-579v0,-381,-171,-571,-512,-571v-349,0,-523,190,-523,571v0,386,174,579,523,579xm100,-713v0,-485,239,-727,718,-727v471,0,707,242,707,727v0,399,-162,634,-485,706r232,270r-144,108r-310,-361v-479,0,-718,-241,-718,-723","w":1625},"R":{"d":"150,0r0,-1430r610,0v272,0,408,114,408,343v0,186,-133,324,-399,413r491,674r-244,0r-455,-643r0,-121v273,-43,410,-148,410,-315v0,-132,-76,-198,-228,-198r-408,0r0,1277r-185,0","w":1285},"S":{"d":"170,-50r0,-170v150,53,312,80,486,80v246,0,369,-90,369,-270v0,-153,-91,-230,-272,-230r-204,0v-299,0,-449,-130,-449,-390v0,-273,192,-410,575,-410v167,0,322,20,465,60r0,170v-143,-53,-298,-80,-465,-80v-260,0,-390,87,-390,260v0,153,88,230,264,230r204,0v305,0,457,130,457,390v0,280,-185,420,-554,420v-174,0,-336,-20,-486,-60","w":1310,"k":{"\u015a":96,"S":96}},"T":{"d":"1085,-1430r0,150r-450,0r0,1280r-185,0r0,-1280r-450,0r0,-150r1085,0","w":1085,"k":{"\u0119":150,"\u015b":150,"\u0144":150,"\u0107":150,"\u0105":150,"\u0104":125,"\u017a":150,"\u017c":150,"\u0153":150,"\u00fc":150,"\u00f6":150,"\u00e7":150,"z":150,"y":150,"x":150,"w":150,"v":150,"u":150,"t":150,"s":150,"r":150,"q":150,"p":150,"o":150,"n":150,"m":140,"g":150,"e":150,"d":150,"c":150,"a":150,"A":125}},"U":{"d":"150,-552r0,-878r185,0r0,878v0,275,137,412,410,412v273,0,410,-137,410,-412r0,-878r185,0r0,878v0,375,-198,562,-595,562v-397,0,-595,-187,-595,-562","w":1490},"V":{"d":"1447,-1430r-607,1430r-205,0r-610,-1430r195,0r524,1238r511,-1238r192,0","w":1472,"k":{"\u0119":125,"\u015b":125,"\u0144":96,"\u0105":100,"\u0104":175,"\u017a":96,"\u017c":96,"\u0153":125,"\u00f6":125,"\u00e7":125,"z":96,"s":125,"r":96,"q":125,"p":96,"o":125,"n":96,"m":96,"g":125,"e":125,"d":125,"c":125,"a":100,"A":175}},"W":{"d":"25,-1430r179,0r201,1244r404,-1244r185,0r433,1244r227,-1244r171,0r-269,1430r-252,0r-404,-1198r-391,1198r-249,0","w":1850},"X":{"d":"25,-1430r225,0r1125,1430r-225,0xm250,0r-225,0r1125,-1430r225,0","w":1410},"Y":{"d":"25,-1430r205,0r412,747r418,-747r215,0r-546,930r0,500r-185,0r0,-500","w":1300,"k":{"\u0119":150,"\u015b":150,"\u0144":96,"\u0107":150,"\u0105":150,"\u0104":175,"\u017a":96,"\u017c":96,"\u0153":150,"\u00fc":96,"\u00f6":150,"\u00e7":150,"z":96,"x":96,"u":96,"s":150,"r":96,"q":150,"p":96,"o":150,"n":96,"m":96,"g":150,"e":150,"d":150,"c":150,"a":150,"A":175}},"Z":{"d":"1125,-1430r0,150r-777,1130r757,0r0,150r-980,0r0,-150r804,-1130r-784,0r0,-150r980,0","w":1250},"[":{"d":"600,-1430r0,150r-265,0r0,1510r265,0r0,150r-450,0r0,-1810r450,0","w":650},"\\":{"d":"25,-1430r205,0r725,1430r-205,0","w":980},"]":{"d":"500,-1430r0,1810r-450,0r0,-150r265,0r0,-1510r-265,0r0,-150r450,0","w":650},"^":{"d":"450,-1430r150,0r400,730r-150,0r-329,-603r-321,603r-150,0","w":1050},"_":{"d":"1025,0r0,150r-1000,0r0,-150r1000,0","w":1050},"`":{"d":"400,-1355r0,150r-400,-150r0,-150","w":400},"a":{"d":"100,-327v0,-215,142,-323,426,-323v105,0,196,7,274,20r0,-99v0,-114,-94,-171,-283,-171v-108,0,-219,17,-332,50r0,-150v113,-33,224,-50,332,-50v312,0,468,112,468,336r0,714r-94,0r-74,-74v-91,49,-199,74,-322,74v-263,0,-395,-109,-395,-327xm526,-500v-161,0,-241,57,-241,170v0,120,70,180,210,180v128,0,230,-27,305,-82r0,-248v-73,-13,-165,-20,-274,-20","w":1135},"b":{"d":"335,-183v61,19,134,29,221,29v233,0,350,-133,350,-399v0,-225,-106,-337,-317,-337v-96,0,-181,18,-254,54r0,653xm150,-1430r185,0r0,430v79,-33,164,-50,255,-50v332,0,498,168,498,504v0,364,-174,546,-523,546v-151,0,-289,-14,-415,-43r0,-1387","w":1188},"c":{"d":"950,-30v-87,20,-180,30,-280,30v-380,0,-570,-182,-570,-545v0,-337,190,-505,570,-505v100,0,193,10,280,30r0,150v-87,-20,-173,-30,-260,-30v-270,0,-405,118,-405,355v0,263,135,395,405,395v87,0,173,-10,260,-30r0,150","w":1025},"d":{"d":"855,-836v-75,-36,-160,-54,-256,-54v-211,0,-317,112,-317,337v0,266,106,399,317,399v96,0,181,-13,256,-39r0,-643xm1040,-63v-127,42,-284,63,-471,63v-313,0,-469,-182,-469,-546v0,-336,166,-504,498,-504v91,0,176,17,257,50r0,-430r185,0r0,1367","w":1190},"e":{"d":"992,-472r-707,0v0,215,135,322,406,322v93,0,185,-10,278,-30r0,150v-93,20,-205,30,-338,30v-354,0,-531,-179,-531,-537v0,-342,168,-513,503,-513v321,0,451,193,389,578xm285,-626r538,0v9,-184,-74,-276,-250,-276v-180,0,-276,92,-288,276","w":1132},"f":{"d":"150,5r0,-1106v0,-254,131,-381,392,-381v86,0,164,13,234,40r0,150v-66,-27,-144,-40,-235,-40v-137,0,-206,58,-206,173r0,109r315,0r0,150r-315,0r0,901","w":721},"g":{"d":"852,-872v-63,-16,-142,-24,-235,-24v-223,0,-335,121,-335,363v0,249,106,373,317,373v96,0,180,-18,253,-54r0,-658xm1037,0v0,253,-161,380,-483,380v-129,0,-244,-17,-344,-50r0,-150v102,33,217,50,346,50v218,0,310,-86,296,-280v-79,33,-163,50,-254,50v-332,0,-498,-177,-498,-531v0,-346,175,-519,525,-519v142,0,279,14,412,43r0,1007","w":1187},"h":{"d":"150,0r0,-1430r185,0r0,494v109,-76,228,-114,357,-114v242,0,363,130,363,391r0,659r-185,0r0,-662v0,-156,-78,-234,-233,-234v-106,0,-207,44,-302,133r0,763r-185,0","w":1205},"i":{"d":"335,-1430r0,150r-185,0r0,-150r185,0xm335,-1050r0,1050r-185,0r0,-1050r185,0"},"j":{"d":"335,-1430r0,150r-185,0r0,-150r185,0xm335,-1050r0,970v0,212,-52,371,-155,478r-155,-105v83,-90,125,-214,125,-373r0,-970r185,0"},"k":{"d":"150,0r0,-1430r185,0r0,462v109,-55,230,-82,363,-82v255,0,382,101,382,303v0,147,-100,248,-300,304r336,443r-234,0r-334,-445r0,-83v231,-21,347,-94,347,-220v0,-101,-73,-152,-220,-152v-115,0,-229,31,-340,94r0,806r-185,0","w":1181},"l":{"d":"335,-1430r0,1430r-185,0r0,-1430r185,0"},"m":{"d":"150,0r0,-1050r125,0r31,132v121,-88,240,-132,359,-132v132,0,226,48,281,144v134,-96,260,-144,377,-144v221,0,332,133,332,399r0,651r-185,0r0,-661v0,-157,-66,-235,-198,-235v-99,0,-191,45,-277,136r0,760r-185,0r0,-658v0,-159,-65,-238,-196,-238v-104,0,-197,45,-279,136r0,760r-185,0","w":1805},"n":{"d":"150,0r0,-1050r125,0r33,134v127,-89,255,-134,384,-134v242,0,363,130,363,391r0,659r-185,0r0,-662v0,-156,-78,-234,-233,-234v-106,0,-207,44,-302,133r0,763r-185,0","w":1205},"o":{"d":"600,-150v210,0,315,-126,315,-379v0,-247,-105,-371,-315,-371v-210,0,-315,124,-315,371v0,253,105,379,315,379xm100,-525v0,-350,167,-525,500,-525v333,0,500,175,500,525v0,349,-167,524,-500,524v-332,0,-500,-175,-500,-524","w":1200},"p":{"d":"335,-214v73,36,154,54,243,54v218,0,327,-131,327,-393v0,-229,-108,-343,-325,-343v-93,0,-175,8,-245,24r0,658xm150,-1007v139,-29,283,-43,432,-43v337,0,505,166,505,499v0,367,-169,551,-508,551v-84,0,-165,-17,-244,-50r0,430r-185,0r0,-1387","w":1187},"q":{"d":"852,-872v-63,-16,-142,-24,-235,-24v-223,0,-335,121,-335,363v0,249,106,373,317,373v96,0,180,-18,253,-54r0,-658xm1037,380r-185,0r0,-430v-79,33,-163,50,-254,50v-332,0,-498,-177,-498,-531v0,-346,175,-519,525,-519v142,0,279,14,412,43r0,1387","w":1187},"r":{"d":"150,0r0,-1050r125,0r33,134v92,-89,203,-134,332,-134r0,154v-125,0,-227,44,-305,133r0,763r-185,0","w":675},"s":{"d":"150,-50r0,-160v117,40,238,60,364,60v167,0,251,-50,251,-150v0,-93,-55,-140,-165,-140r-170,0v-220,0,-330,-103,-330,-310v0,-200,146,-300,437,-300v125,0,246,17,363,50r0,160v-117,-40,-238,-60,-363,-60v-175,0,-262,50,-262,150v0,93,52,140,155,140r170,0v233,0,350,103,350,310v0,200,-145,300,-436,300v-126,0,-247,-17,-364,-50","w":1050},"t":{"d":"150,-1220r116,0r40,170r244,0r0,150r-215,0r0,603v0,98,42,147,127,147r88,0r0,150r-136,0v-176,0,-264,-94,-264,-283r0,-937","w":650},"u":{"d":"1055,-1050r0,1050r-127,0r-32,-134v-127,89,-255,134,-384,134v-241,0,-362,-130,-362,-391r0,-659r185,0r0,662v0,156,77,234,232,234v106,0,207,-44,303,-133r0,-763r185,0","w":1205},"v":{"d":"0,-1050r200,0r301,823r299,-823r200,0r-427,1050r-172,0","w":1000},"w":{"d":"26,-1050r187,0r196,813r263,-813r167,0r282,813r178,-813r196,0r-274,1050r-189,0r-281,-785r-266,785r-193,0","w":1520},"x":{"d":"25,-1050r215,0r785,1050r-215,0xm240,0r-215,0r785,-1050r215,0","w":1120},"y":{"d":"25,-1050r201,0r297,820r307,-820r196,0r-436,1081v-77,191,-193,310,-348,357r-71,-131v117,-51,203,-135,256,-251","w":1050},"z":{"d":"120,-1050r770,0r0,150r-567,760r547,0r0,140r-770,0r0,-140r575,-760r-555,0r0,-150","w":990},"{":{"d":"625,-1430v-87,117,-130,277,-130,478v0,235,-70,377,-210,427v140,50,210,192,210,427v0,201,43,361,130,478r-185,0v-87,-117,-130,-277,-130,-478v0,-235,-70,-352,-210,-352r0,-150v140,0,210,-117,210,-352v0,-201,43,-361,130,-478r185,0","w":675},"|":{"d":"335,-1430r0,1810r-185,0r0,-1810r185,0"},"}":{"d":"235,-1430v87,117,130,277,130,478v0,235,70,352,210,352r0,150v-140,0,-210,117,-210,352v0,201,-43,361,-130,478r-185,0v87,-117,130,-277,130,-478v0,-235,70,-377,210,-427v-140,-50,-210,-192,-210,-427v0,-201,-43,-361,-130,-478r185,0","w":675},"~":{"d":"850,-620r0,150v-70,73,-192,80,-365,20v-173,-60,-302,-53,-385,20r0,-150v70,-73,192,-80,365,-20v173,60,302,53,385,-20","w":950},"\u00c7":{"d":"1250,-50v-123,40,-257,60,-400,60v-500,0,-750,-248,-750,-745v0,-470,250,-705,750,-705v143,0,277,20,400,60r0,160v-123,-47,-250,-70,-380,-70v-390,0,-585,185,-585,555v0,397,195,595,585,595v130,0,257,-23,380,-70r0,160xm583,264v72,33,144,50,216,50v72,0,108,-22,108,-65v0,-43,-28,-64,-83,-64r-183,0r131,-260r135,0r-81,152v143,0,214,57,214,172v0,115,-80,173,-241,173v-72,0,-144,-17,-216,-50r0,-108","w":1385},"\u00d6":{"d":"818,-140v341,0,512,-193,512,-579v0,-381,-171,-571,-512,-571v-349,0,-523,190,-523,571v0,386,174,579,523,579xm100,-713v0,-485,239,-727,718,-727v471,0,707,242,707,727v0,482,-236,723,-707,723v-479,0,-718,-241,-718,-723xm1098,-1789r0,150r-185,0r0,-150r185,0xm728,-1789r0,150r-185,0r0,-150r185,0","w":1625},"\u00dc":{"d":"150,-552r0,-878r185,0r0,878v0,275,137,412,410,412v273,0,410,-137,410,-412r0,-878r185,0r0,878v0,375,-198,562,-595,562v-397,0,-595,-187,-595,-562xm1024,-1789r0,150r-185,0r0,-150r185,0xm654,-1789r0,150r-185,0r0,-150r185,0","w":1490},"\u00e7":{"d":"950,-30v-87,20,-180,30,-280,30v-380,0,-570,-182,-570,-545v0,-337,190,-505,570,-505v100,0,193,10,280,30r0,150v-87,-20,-173,-30,-260,-30v-270,0,-405,118,-405,355v0,263,135,395,405,395v87,0,173,-10,260,-30r0,150xm398,264v72,33,144,50,216,50v72,0,108,-22,108,-65v0,-43,-28,-64,-83,-64r-183,0r131,-259r135,0r-81,151v143,0,214,57,214,172v0,115,-80,173,-241,173v-72,0,-144,-17,-216,-50r0,-108","w":1025},"\u00f6":{"d":"600,-150v210,0,315,-126,315,-379v0,-247,-105,-371,-315,-371v-210,0,-315,124,-315,371v0,253,105,379,315,379xm100,-525v0,-350,167,-525,500,-525v333,0,500,175,500,525v0,349,-167,524,-500,524v-332,0,-500,-175,-500,-524xm876,-1430r0,150r-185,0r0,-150r185,0xm506,-1430r0,150r-185,0r0,-150r185,0","w":1200},"\u00fc":{"d":"1055,-1050r0,1050r-127,0r-32,-134v-127,89,-255,134,-384,134v-241,0,-362,-130,-362,-391r0,-659r185,0r0,662v0,156,77,234,232,234v106,0,207,-44,303,-133r0,-763r185,0xm886,-1430r0,150r-185,0r0,-150r185,0xm516,-1430r0,150r-185,0r0,-150r185,0","w":1205},"\u0152":{"d":"818,-150v341,0,512,-190,512,-569v0,-374,-171,-561,-512,-561v-349,0,-523,187,-523,561v0,379,174,569,523,569xm100,-713v0,-478,239,-717,718,-717r1257,0r0,150r-775,0v130,99,205,259,225,480r515,0r0,150r-515,0v-20,238,-95,405,-225,500r790,0r0,150r-1272,0v-479,0,-718,-238,-718,-713","w":2215},"\u0153":{"d":"596,-150v210,0,315,-126,315,-379v0,-247,-105,-371,-315,-371v-210,0,-315,124,-315,371v0,253,105,379,315,379xm1096,-626r538,0v9,-184,-74,-276,-250,-276v-180,0,-276,92,-288,276xm100,-522v0,-352,167,-528,500,-528v189,0,324,56,405,169v79,-113,214,-169,407,-169v325,0,455,193,390,578r-703,0v0,215,134,322,402,322v98,0,191,-9,279,-28r0,146v-91,21,-202,32,-333,32v-208,0,-355,-59,-441,-176v-77,117,-212,176,-406,176v-333,0,-500,-174,-500,-522","w":1943},"\u0178":{"w":526},"\u0160":{"w":621},"\u0161":{"w":342},"\u0141":{"d":"335,-1430r0,1280r748,0r0,150r-933,0r0,-1430r185,0xm0,-602r658,-484r0,180r-658,484r0,-180","w":1183,"k":{"\u0152":150,"\u00d6":150,"\u00c7":150,"Y":288,"V":300,"T":300,"Q":150,"O":150,"G":150,"C":150}},"\u0142":{"d":"335,-1430r0,1430r-185,0r0,-1430r185,0xm0,-602r485,-360r0,180r-485,360r0,-180"},"\u017d":{"w":690},"\u017e":{"w":462},"\u0131":{"w":234},"\u20ac":{"d":"1250,-50v-123,40,-257,60,-400,60v-500,0,-750,-248,-750,-745v0,-470,250,-705,750,-705v143,0,277,20,400,60r0,160v-123,-47,-250,-70,-380,-70v-332,0,-527,116,-585,348r773,0r0,150r-793,0r0,110r793,0r0,150r-773,0v51,261,246,392,585,392v130,0,257,-23,380,-70r0,160","w":1385},"\u017b":{"d":"145,-1430r0,150r784,0r-804,1130r0,150r980,0r0,-150r-757,0r777,-1130r0,-150r-980,0xm730,-1789r0,190r-215,0r0,-190r215,0","w":1250},"\u017c":{"d":"120,-1050r770,0r0,150r-567,760r547,0r0,140r-770,0r0,-140r575,-760r-555,0r0,-150xm609,-1430r0,190r-205,0r0,-190r205,0","w":990},"\u0179":{"d":"145,-1430r0,150r784,0r-804,1130r0,150r980,0r0,-150r-757,0r777,-1130r0,-150r-980,0xm812,-1838r0,150r-400,150r0,-150","w":1250},"\u017a":{"d":"120,-1050r770,0r0,150r-567,760r547,0r0,140r-770,0r0,-140r575,-760r-555,0r0,-150xm715,-1505r0,150r-400,150r0,-150","w":990},"\u0104":{"d":"25,0r607,-1430r205,0r610,1430r-195,0r-190,-450r-478,0r51,-150r357,0r-264,-638r-511,1238r-192,0xm1447,0v-135,84,-202,160,-202,228v0,97,166,70,222,48r0,130v-41,13,-90,20,-149,20v-154,0,-231,-58,-231,-173v0,-87,55,-172,165,-253r195,0","w":1472,"k":{"Y":175,"V":175,"T":125}},"\u0105":{"d":"100,-327v0,-215,142,-323,426,-323v105,0,196,7,274,20r0,-99v0,-114,-94,-171,-283,-171v-108,0,-219,17,-332,50r0,-150v113,-33,224,-50,332,-50v312,0,468,112,468,336r0,714r-168,0r0,-74v-91,49,-199,74,-322,74v-263,0,-395,-109,-395,-327xm526,-500v-161,0,-241,57,-241,170v0,120,70,180,210,180v128,0,230,-27,305,-82r0,-248v-73,-13,-165,-20,-274,-20xm986,0v-135,84,-202,160,-202,228v0,97,166,70,222,48r0,130v-41,13,-90,20,-149,20v-154,0,-231,-58,-231,-173v0,-87,64,-172,191,-253r169,0","w":1135},"\u0106":{"d":"1250,-210v-123,47,-250,70,-380,70v-390,0,-585,-198,-585,-595v0,-370,195,-555,585,-555v130,0,257,23,380,70r0,-160v-123,-40,-257,-60,-400,-60v-500,0,-750,235,-750,705v0,497,250,745,750,745v143,0,277,-20,400,-60r0,-160xm936,-1838r0,150r-400,150r0,-150","w":1385},"\u0107":{"d":"950,-180v-87,20,-173,30,-260,30v-270,0,-405,-132,-405,-395v0,-237,135,-355,405,-355v87,0,173,10,260,30r0,-150v-87,-20,-180,-30,-280,-30v-380,0,-570,168,-570,505v0,363,190,545,570,545v100,0,193,-10,280,-30r0,-150xm768,-1505r0,150r-400,150r0,-150","w":1025},"\u0143":{"d":"150,0r0,-1430r185,0r875,1142r0,-1142r175,0r0,1430r-185,0r-875,-1142r0,1142r-175,0xm972,-1838r0,150r-400,150r0,-150","w":1535},"\u0144":{"d":"150,0r0,-1050r125,0r33,134v127,-89,255,-134,384,-134v242,0,363,130,363,391r0,659r-185,0r0,-662v0,-156,-78,-234,-233,-234v-106,0,-207,44,-302,133r0,763r-185,0xm795,-1505r0,150r-400,150r0,-150","w":1205},"\u015a":{"d":"828,-1838r0,150r-400,150r0,-150xm170,-50r0,-170v150,53,312,80,486,80v246,0,369,-90,369,-270v0,-153,-91,-230,-272,-230r-204,0v-299,0,-449,-130,-449,-390v0,-273,192,-410,575,-410v167,0,322,20,465,60r0,170v-143,-53,-298,-80,-465,-80v-260,0,-390,87,-390,260v0,153,88,230,264,230r204,0v305,0,457,130,457,390v0,280,-185,420,-554,420v-174,0,-336,-20,-486,-60","w":1310,"k":{"S":96}},"\u015b":{"d":"712,-1505r0,150r-400,150r0,-150xm150,-50r0,-160v117,40,238,60,364,60v167,0,251,-50,251,-150v0,-93,-55,-140,-165,-140r-170,0v-220,0,-330,-103,-330,-310v0,-200,146,-300,437,-300v125,0,246,17,363,50r0,160v-117,-40,-238,-60,-363,-60v-175,0,-262,50,-262,150v0,93,52,140,155,140r170,0v233,0,350,103,350,310v0,200,-145,300,-436,300v-126,0,-247,-17,-364,-50","w":1050},"\u0118":{"d":"1085,-1430r0,150r-750,0r0,480r715,0r0,150r-715,0r0,500r765,0r0,150r-950,0r0,-1430r935,0xm1100,0v-148,84,-222,160,-222,228v0,97,166,70,222,48r0,130v-41,13,-90,20,-149,20v-154,0,-231,-58,-231,-173v0,-87,58,-172,173,-253r207,0","w":1225},"\u0119":{"d":"992,-472r-707,0v0,215,135,322,406,322v93,0,185,-10,278,-30r0,150v-93,20,-205,30,-338,30v-354,0,-531,-179,-531,-537v0,-342,168,-513,503,-513v321,0,451,193,389,578xm285,-626r538,0v9,-184,-74,-276,-250,-276v-180,0,-276,92,-288,276xm969,-30v-148,104,-222,190,-222,258v0,97,166,70,222,48r0,130v-41,13,-90,20,-149,20v-154,0,-231,-58,-231,-173v0,-87,64,-182,193,-283r187,0","w":1132},"\u00a0":{}}});
