/*!
 * The following copyright notice may not be removed under any circumstances.
 * 
 * Copyright:
 * Copyright (c) 1992-97 Hewlett-Packard. All rights reserved.
 */
Cufon.registerFont({"w":906,"face":{"font-family":"Calderon Condensed Bold","font-weight":700,"font-stretch":"condensed","units-per-em":"2048","panose-1":"2 4 7 6 4 7 5 4 2 4","ascent":"1638","descent":"-410","x-height":"28","bbox":"-496 -1959 1888 536","underline-thickness":"105","underline-position":"-355","unicode-range":"U+0020-U+FB02"},"glyphs":{" ":{"w":453},"!":{"d":"247,-1423v165,0,198,249,144,407v-76,223,-78,340,-80,655r-128,0v-2,-314,-9,-428,-80,-655v-20,-63,-24,-92,-25,-174v-2,-118,63,-233,169,-233xm94,-153v0,-83,70,-153,153,-153v83,0,153,70,153,153v0,83,-70,153,-153,153v-83,0,-153,-70,-153,-153","w":491},"\"":{"d":"186,-1341v0,-74,33,-110,106,-110v73,0,116,37,106,110r-71,514r-69,0xm508,-1341v0,-74,33,-110,106,-110v73,0,116,37,106,110r-71,514r-69,0"},"#":{"d":"561,-1423r-108,451r154,-20r104,-431r166,0r-98,409r121,-15r0,144r-157,20r-41,169r198,-25r0,144r-233,29r-132,549r-166,0r126,-527r-154,20r-122,507r-166,0r117,-486r-140,18r0,-144r175,-22r41,-169r-216,27r0,-144r252,-32r113,-472r166,0xm417,-824r-41,170r156,-20r40,-170"},"$":{"d":"73,-1024v-2,-196,142,-316,331,-329r0,-70r102,0r0,72v159,13,308,102,311,251v1,76,-61,152,-134,152v-65,0,-135,-50,-135,-111v0,-86,78,-139,148,-96v-30,-60,-95,-83,-190,-88r0,391v122,72,233,150,276,202v44,53,67,116,67,190v1,204,-144,330,-343,346r0,142r-102,0r0,-140v-179,-9,-353,-108,-355,-277v-1,-91,58,-172,144,-172v71,0,128,59,128,130v0,75,-65,142,-137,106v39,62,127,98,220,110r0,-435v-129,-77,-217,-141,-262,-192v-46,-51,-69,-112,-69,-182xm404,-1236v-65,14,-125,77,-123,153v2,73,66,125,123,167r0,-320xm506,-223v121,-16,195,-194,89,-291v-22,-20,-50,-45,-89,-72r0,363"},"%":{"d":"130,-1076v-1,-215,65,-375,254,-375v57,0,103,13,140,36v189,73,276,87,423,-36r128,0r-676,1479r-128,0r618,-1353v-98,61,-161,67,-278,33v19,55,28,127,28,216v-2,233,-50,381,-255,381v-204,0,-252,-150,-254,-381xm324,-1280v-23,68,-18,345,0,413v22,80,99,80,123,8v17,-53,19,-376,0,-429v-13,-35,-32,-53,-63,-53v-28,0,-47,21,-60,61xm962,28v-204,0,-252,-150,-254,-381v-1,-215,65,-375,254,-375v204,0,255,145,255,375v0,233,-50,381,-255,381xm902,-557v-23,68,-18,345,0,413v22,80,99,80,123,8v17,-53,19,-376,0,-429v-13,-35,-32,-53,-63,-53v-28,0,-47,21,-60,61","w":1360},"&":{"d":"323,-789v-41,-83,-77,-198,-78,-292v-4,-211,127,-370,331,-370v159,0,271,106,271,264v0,75,-29,150,-86,226v-44,58,-107,120,-189,186v95,202,161,312,282,465v41,-50,79,-210,52,-278v-13,-29,-76,-31,-134,-29r0,-164r411,0r0,164v-67,-2,-114,0,-121,64v-14,140,-53,260,-114,353v26,28,39,60,91,60v40,0,68,-21,85,-64v17,-43,23,-110,19,-202r118,0v10,265,-37,427,-267,434v-82,2,-162,-29,-200,-73v-74,50,-175,71,-297,73v-244,4,-439,-170,-431,-410v6,-183,127,-297,257,-407xm308,-416v0,198,196,339,385,256v-127,-158,-197,-266,-296,-466v-50,53,-89,122,-89,210xm561,-1287v-134,0,-130,175,-93,282v7,21,18,50,34,85v85,-66,170,-137,174,-250v2,-75,-40,-117,-115,-117","w":1284},"'":{"d":"134,-1341v0,-74,33,-110,106,-110v73,0,116,37,106,110r-71,514r-69,0","w":453},"(":{"d":"293,536v-171,-164,-298,-628,-298,-976v0,-350,128,-811,298,-975r164,0v-127,197,-234,651,-234,975v0,324,108,780,234,976r-164,0","w":453},")":{"d":"153,-1415v171,164,298,628,298,976v0,350,-128,811,-298,975r-164,0v127,-197,234,-651,234,-975v0,-324,-108,-780,-234,-976r164,0","w":453},"*":{"d":"464,-481v-65,-1,-109,-59,-90,-132v4,-16,7,-31,12,-44v15,-44,27,-92,38,-144v20,-104,-21,-103,-86,-49v-65,53,-104,114,-172,157v-73,46,-161,-19,-140,-103v13,-52,72,-72,127,-84v46,-10,94,-21,145,-37v97,-29,96,-64,1,-96v-79,-27,-157,-33,-225,-65v-43,-21,-67,-75,-39,-126v23,-41,81,-65,131,-33v67,42,107,105,172,157v37,30,63,42,78,34v15,-8,17,-36,9,-82v-14,-84,-48,-140,-54,-226v-3,-53,40,-96,93,-95v66,0,110,60,90,133r-51,189v-21,106,20,105,86,49v64,-55,105,-115,173,-158v72,-46,161,18,139,103v-13,51,-71,70,-126,83v-46,11,-96,22,-147,38v-93,30,-93,64,1,95v79,27,157,33,225,65v43,21,65,74,39,126v-29,58,-117,57,-162,11v-47,-48,-85,-89,-141,-134v-37,-30,-63,-41,-78,-33v-15,8,-17,35,-9,81v14,81,48,141,54,225v4,52,-39,97,-93,95"},"+":{"d":"599,-631r-489,0r0,-162r489,0r0,-489r162,0r0,489r489,0r0,162r-489,0r0,489r-162,0r0,-489","w":1360},",":{"d":"215,-1v-94,0,-147,-48,-147,-143v0,-87,68,-163,153,-163v89,0,155,93,152,188v-7,177,-118,297,-247,381r-67,-102v83,-60,125,-86,156,-161","w":453},"-":{"d":"62,-639r318,0r0,176r-318,0r0,-176","w":453},".":{"d":"68,-153v0,-83,70,-153,153,-153v83,0,153,70,153,153v0,83,-70,153,-153,153v-83,0,-153,-70,-153,-153","w":453},"\/":{"d":"438,-1451r-255,1479r-149,0r255,-1479r149,0","w":453},"0":{"d":"146,-132v-57,-107,-87,-303,-87,-586v0,-279,30,-471,87,-576v57,-105,162,-157,313,-157v153,0,252,57,315,157v110,174,106,992,0,1162v-64,103,-162,160,-315,160v-151,0,-256,-53,-313,-160xm566,-246v35,-129,35,-802,0,-932v-22,-82,-55,-125,-107,-125v-51,0,-83,43,-105,125v-36,131,-35,804,0,932v23,83,54,126,105,126v52,0,85,-43,107,-126"},"1":{"d":"187,-148v74,-6,170,27,170,-64r0,-900r-171,0r0,-149v180,-4,262,-19,316,-161r117,0r0,1210v-9,78,64,63,131,64r0,148r-563,0r0,-148"},"2":{"d":"445,-1451v228,0,427,162,419,384v-7,202,-112,289,-260,395v-188,135,-311,240,-364,321v-29,45,-51,101,-64,169v31,-54,94,-92,158,-89v74,3,174,32,261,32v113,0,160,-105,159,-233r127,0v0,167,-22,292,-65,375v-43,83,-107,125,-193,125v-142,-2,-237,-120,-360,-120v-56,0,-92,41,-103,92r-134,0v0,-154,28,-285,84,-394v56,-109,162,-235,317,-381v91,-86,160,-175,165,-320v4,-117,-82,-207,-198,-207v-102,0,-177,51,-193,136v20,-18,45,-27,74,-27v60,-2,113,64,113,126v0,86,-75,146,-164,146v-99,0,-164,-97,-164,-203v0,-183,192,-327,385,-327"},"3":{"d":"313,-787v181,1,270,-80,272,-259v2,-139,-87,-256,-218,-256v-87,0,-148,47,-166,119v80,-45,190,1,190,100v0,82,-74,147,-158,147v-91,0,-158,-93,-158,-190v0,-198,177,-325,387,-325v229,0,388,155,388,382v0,183,-110,302,-271,333v172,32,287,149,287,343v0,234,-179,421,-412,421v-214,0,-412,-127,-412,-325v0,-103,77,-196,178,-196v76,0,135,68,135,145v0,88,-93,152,-168,101v22,76,97,126,192,126v141,0,223,-124,222,-274v-2,-185,-99,-273,-288,-270r0,-122"},"4":{"d":"438,-147v40,-1,48,-21,49,-64r0,-131r-473,0r0,-144r509,-937r226,0r0,948r130,0r0,133r-130,0r0,125v-9,84,56,69,130,70r0,147r-556,0r0,-147r115,0xm487,-475r0,-618r-326,618r326,0"},"5":{"d":"457,-944v264,0,396,178,396,453v0,295,-150,517,-428,519v-222,1,-377,-109,-379,-319v-1,-106,75,-202,176,-202v81,0,149,64,149,143v0,74,-42,127,-113,127v-35,0,-62,-12,-83,-37v15,78,102,143,197,139v172,-8,215,-157,216,-360v0,-181,-44,-309,-200,-314v-96,-3,-175,81,-187,170r-123,0r36,-798v185,26,345,39,479,39v66,0,145,-13,236,-39v-23,119,-77,193,-161,220v-84,27,-227,34,-430,20r-20,344v63,-71,143,-106,239,-105"},"6":{"d":"861,-452v-1,310,-113,480,-409,480v-142,0,-246,-52,-312,-154v-66,-102,-98,-264,-97,-486v1,-291,38,-503,111,-638v73,-134,188,-201,347,-201v183,0,360,120,360,292v0,92,-59,182,-145,182v-76,0,-146,-53,-146,-125v0,-88,65,-147,149,-117v-20,-64,-76,-96,-162,-96v-81,0,-140,42,-177,125v-37,82,-58,232,-53,409v55,-49,118,-73,190,-73v237,1,345,154,344,402xm349,-635v-40,82,-39,364,-1,445v43,91,171,90,214,0v39,-81,40,-364,0,-446v-44,-91,-169,-91,-213,1"},"7":{"d":"678,-1355v47,0,70,-31,90,-68r120,0v0,19,-19,67,-54,147v-74,170,-281,537,-317,750v-21,127,-39,301,-40,526r-309,0v46,-481,263,-886,519,-1237v-64,35,-128,52,-192,53v-47,0,-189,-27,-194,-25v-111,4,-142,98,-142,228r-128,0r0,-442r128,0r0,97v64,-64,139,-97,226,-97v106,0,205,68,293,68"},"8":{"d":"269,-738v-103,-75,-200,-201,-200,-348v0,-215,169,-365,387,-365v207,0,387,138,387,335v0,153,-99,271,-209,339v127,87,250,227,252,403v4,238,-192,402,-435,402v-233,0,-436,-157,-434,-380v2,-180,117,-310,252,-386xm489,-867v76,-57,152,-148,152,-257v0,-101,-67,-180,-165,-180v-97,0,-167,76,-165,175v2,102,101,216,178,262xm429,-636v-79,72,-165,176,-167,293v-3,123,77,224,194,224v115,0,198,-94,194,-212v-5,-149,-104,-235,-221,-305"},"9":{"d":"44,-970v0,-289,134,-479,409,-480v150,0,256,53,317,160v61,107,92,290,91,551v-1,281,-35,480,-104,595v-69,115,-187,173,-354,173v-192,0,-343,-110,-343,-292v0,-92,59,-182,145,-182v76,0,146,53,146,125v0,92,-74,152,-156,113v20,57,84,100,152,100v85,0,142,-36,179,-101v41,-71,56,-265,52,-433v-55,49,-119,73,-190,73v-237,-1,-344,-154,-344,-402xm556,-785v38,-80,37,-371,0,-449v-42,-89,-172,-89,-214,0v-37,79,-38,369,0,449v43,89,171,89,214,0"},":":{"d":"68,-153v0,-83,70,-153,153,-153v83,0,153,70,153,153v0,83,-70,153,-153,153v-83,0,-153,-70,-153,-153xm68,-928v0,-83,70,-153,153,-153v83,0,153,70,153,153v0,83,-70,153,-153,153v-83,0,-153,-70,-153,-153","w":453},";":{"d":"211,-1v-99,-2,-142,-45,-143,-146v-1,-87,68,-165,153,-165v89,0,155,93,152,188v-7,177,-118,297,-247,381r-67,-102v80,-56,120,-86,152,-156xm68,-928v0,-83,70,-153,153,-153v83,0,153,70,153,153v0,83,-70,153,-153,153v-83,0,-153,-70,-153,-153","w":453},"<":{"d":"410,-553r0,-150r1225,-546r0,192r-966,429r966,436r0,192","w":2039},"=":{"d":"110,-635r1138,0r0,162r-1138,0r0,-162xm110,-979r1138,0r0,162r-1138,0r0,-162","w":1360},">":{"d":"1635,-553r-1225,553r0,-192r966,-436r-966,-429r0,-192r1225,546r0,150","w":2039},"?":{"d":"532,-990v65,-127,-20,-270,-150,-270v-89,0,-149,36,-172,100v72,-67,182,0,182,98v0,79,-76,139,-159,139v-92,0,-160,-90,-160,-187v0,-184,190,-314,386,-314v214,0,388,135,386,340v0,67,-18,125,-53,174v-35,49,-101,106,-195,174v-85,61,-98,134,-100,289r0,85r-138,0v1,-240,-3,-397,102,-518v34,-39,55,-78,71,-110xm275,-153v0,-83,70,-153,153,-153v83,0,153,70,153,153v0,83,-70,153,-153,153v-83,0,-153,-70,-153,-153"},"@":{"d":"873,18v-172,0,-293,-137,-293,-312v0,-170,60,-331,181,-482v121,-151,249,-227,384,-227v101,0,179,52,234,155r40,-102r192,0r-254,642v-25,60,-37,104,-37,132v0,28,12,41,37,41v203,1,371,-301,371,-529v0,-300,-251,-503,-562,-503v-397,0,-775,366,-775,761v0,345,287,582,644,574v245,-5,467,-98,644,-207r89,65v-191,165,-450,289,-767,295v-461,9,-831,-295,-831,-738v0,-506,460,-903,979,-903v410,0,739,261,739,656v0,323,-290,702,-596,702v-84,0,-138,-45,-158,-122v-85,69,-172,102,-261,102xm798,-204v0,76,39,110,116,110v49,0,97,-36,151,-102v77,-94,237,-435,220,-594v-7,-68,-45,-101,-112,-101v-68,0,-148,84,-239,251v-91,167,-136,313,-136,436","w":2039},"A":{"d":"64,-164v35,-1,53,-31,61,-64r280,-1195r285,0r249,1195v13,49,10,62,61,64r47,0r0,164r-501,0r0,-164v58,1,114,8,101,-64r-34,-185r-274,0r-40,185v-20,68,36,65,98,64r0,164r-382,0r0,-164r49,0xm488,-1096r-114,519r208,0","w":1057},"B":{"d":"51,-164v61,2,105,1,105,-64r0,-961v-1,-56,-7,-72,-61,-70r-44,0r0,-164r494,0v273,-1,436,102,438,359v2,199,-104,312,-275,349v195,29,292,131,292,349v0,295,-125,366,-435,366r-514,0r0,-164xm689,-1028v0,-182,-58,-239,-239,-231r0,466v181,8,239,-51,239,-235xm706,-398v4,-187,-68,-239,-256,-231r0,465r64,0v155,-3,190,-70,192,-234","w":1057},"C":{"d":"518,-1451v98,0,176,47,224,140r46,-112r108,0r0,548r-139,0v-2,-146,-17,-251,-47,-315v-30,-64,-77,-97,-142,-97v-73,0,-115,38,-142,109v-41,106,-40,830,1,932v29,71,73,110,148,110v73,0,123,-37,151,-110v28,-73,38,-190,28,-352r142,0v10,221,-13,380,-70,478v-57,98,-153,148,-290,148v-158,0,-271,-51,-338,-154v-67,-103,-101,-276,-101,-518v0,-275,35,-478,104,-610v69,-132,174,-197,317,-197","w":982},"D":{"d":"50,-164v61,2,105,1,105,-64r0,-919v-3,-76,2,-109,-61,-112r-44,0r0,-164r525,0v149,0,252,59,324,166v127,190,124,899,3,1089v-70,109,-169,168,-314,168r-538,0r0,-164xm449,-164v112,6,181,-22,217,-102v43,-95,44,-797,-2,-892v-36,-74,-104,-107,-215,-101r0,1095","w":1057},"E":{"d":"616,-164v213,4,235,-141,230,-366r139,0r0,530r-931,0r0,-164v61,2,105,1,105,-64r0,-961v-1,-56,-7,-72,-61,-70r-44,0r0,-164r931,0r0,482r-139,0v6,-203,-27,-322,-224,-316r-169,0r0,433r84,0v98,7,74,-109,77,-200r139,0r0,559r-139,0v-3,-89,20,-203,-77,-195r-84,0r0,496r163,0","w":1057},"F":{"d":"44,-164v61,2,105,1,105,-64r0,-961v-1,-56,-7,-72,-61,-70r-44,0r0,-164r937,0r0,482r-139,0v6,-203,-27,-322,-224,-316r-175,0r0,433r80,0v98,7,74,-109,77,-200r139,0r0,559r-139,0v-3,-89,20,-203,-77,-195r-80,0r0,426v1,61,15,71,78,70r57,0r0,164r-534,0r0,-164","w":1020},"G":{"d":"1046,-562v-72,-5,-105,7,-105,83r0,479r-147,0r-44,-107v-53,89,-134,135,-245,135v-147,0,-252,-51,-315,-154v-63,-103,-95,-276,-95,-518v0,-291,33,-498,99,-622v66,-124,176,-185,330,-185v108,-1,195,51,243,146r49,-118r108,0r0,541r-139,0v-9,-136,-31,-237,-67,-304v-36,-67,-88,-101,-153,-101v-67,0,-105,44,-137,123v-46,116,-39,839,-13,933v24,90,137,133,193,43v33,-52,42,-126,39,-213v-5,-110,3,-158,-88,-161r-63,0r0,-164r550,0r0,164","w":1057},"H":{"d":"49,-164v61,2,105,1,105,-64r0,-961v-1,-56,-7,-72,-61,-70r-44,0r0,-164r504,0r0,164v-61,-2,-105,-1,-105,64r0,381r274,0r0,-381v5,-63,-39,-67,-99,-64r0,-164r498,0r0,164v-61,-2,-105,-1,-105,64r0,961v1,56,7,72,61,70r44,0r0,164r-498,0r0,-164v60,3,99,-1,99,-64r0,-422r-274,0r0,422v-5,65,43,66,105,64r0,164r-504,0r0,-164","w":1171},"I":{"d":"52,-164v61,2,105,1,105,-64r0,-961v-1,-56,-7,-72,-61,-70r-44,0r0,-164r504,0r0,164v-61,-2,-105,-4,-105,64r0,961v1,56,7,72,61,70r44,0r0,164r-504,0r0,-164","w":604},"J":{"d":"309,-104v119,-4,140,-63,132,-196v-4,-65,-6,-103,-6,-112r0,-777v-2,-64,-20,-71,-88,-70r-64,0r0,-164r551,0r0,164v-61,-2,-105,-1,-105,64r0,861v4,205,-144,362,-347,362v-195,0,-343,-79,-346,-256v-2,-99,48,-175,140,-176v86,-1,140,58,140,145v0,78,-42,115,-119,119v29,23,69,36,112,36","w":868},"K":{"d":"23,-164v61,2,105,1,105,-64r0,-961v-1,-56,-7,-72,-61,-70r-44,0r0,-164r504,0r0,164v-61,-2,-105,-1,-105,64r0,486r301,-493v29,-47,6,-56,-50,-57r-40,0r0,-164r433,0r0,164v-65,-3,-122,0,-148,44r-216,360r314,627v28,51,28,67,97,64r0,164r-484,0r0,-164v59,2,118,7,85,-64r-170,-365r-122,205r0,160v-5,65,43,66,105,64r0,164r-504,0r0,-164","w":1133},"L":{"d":"551,-164v162,-2,205,-70,207,-238r0,-128r139,0r0,530r-849,0r0,-164v61,2,105,1,105,-64r0,-961v-1,-56,-7,-72,-61,-70r-44,0r0,-164r532,0r0,164v-69,0,-133,-7,-133,64r0,1031r104,0","w":944},"M":{"d":"860,-164v61,2,105,1,105,-64r0,-801r-235,1029r-182,0r-235,-1161r0,933v-5,65,43,66,105,64r0,164r-381,0r0,-164v61,2,105,1,105,-64r0,-967v5,-65,-43,-66,-105,-64r0,-164r504,0r153,869r198,-869r472,0r0,164v-61,-2,-105,-1,-105,64r0,961v1,56,7,72,61,70r44,0r0,164r-504,0r0,-164","w":1397},"N":{"d":"1091,-1259v-61,-2,-105,-1,-105,64r0,1195r-253,0r-400,-992r0,764v-5,65,43,66,105,64r0,164r-381,0r0,-164v61,2,105,1,105,-64r0,-967v5,-65,-43,-66,-105,-64r0,-164r399,0r359,943r0,-715v5,-65,-43,-66,-105,-64r0,-164r381,0r0,164","w":1133},"O":{"d":"198,-123v-66,-101,-99,-269,-100,-506r0,-177v1,-223,35,-387,104,-490v69,-103,177,-155,326,-155v153,0,259,54,331,152v88,119,100,411,100,670v0,237,-33,405,-99,506v-66,101,-177,151,-332,151v-155,0,-264,-50,-330,-151xm640,-224v35,-135,37,-838,0,-976v-15,-58,-53,-87,-112,-87v-58,0,-96,29,-112,87v-37,137,-36,840,0,976v16,59,54,88,112,88v59,0,96,-29,112,-88","w":1057},"P":{"d":"49,-164v61,2,105,1,105,-64r0,-961v-1,-56,-7,-72,-61,-70r-44,0r0,-164r549,0v276,1,405,128,405,404v0,287,-146,411,-438,411r-117,0r0,380v1,44,10,63,52,64r84,0r0,164r-535,0r0,-164xm709,-1017v0,-159,-37,-238,-183,-242r-78,0r0,487r78,0v146,-3,183,-86,183,-245","w":1020},"Q":{"d":"818,-71v26,62,121,89,150,5v12,-36,21,-85,21,-148r98,0v0,141,-20,245,-60,312v-40,67,-101,101,-184,101v-112,0,-161,-81,-193,-184v-188,40,-360,-16,-447,-145v-86,-127,-108,-412,-104,-676v4,-223,35,-387,104,-490v69,-103,177,-155,326,-155v153,0,259,54,331,152v88,119,105,411,100,670v-6,279,-32,445,-142,558xm642,-1200v-16,-58,-54,-87,-113,-87v-58,0,-95,29,-111,87v-35,129,-28,664,-18,863v65,-76,186,-76,259,0v10,-198,18,-732,-17,-863xm605,-159v-17,-84,-75,-149,-161,-109v-22,10,-28,50,-16,78v25,59,126,70,177,31","w":1095},"R":{"d":"43,-164v61,2,105,1,105,-64r0,-961v-1,-56,-7,-72,-61,-70r-44,0r0,-164r552,0v270,0,407,110,407,372v0,236,-91,337,-299,369v138,33,207,121,228,272r16,140v7,55,15,92,21,108v12,38,66,29,75,-8v5,-22,10,-70,10,-143r113,0v-1,207,-60,335,-249,335v-207,0,-252,-84,-269,-292v-12,-153,23,-353,-139,-345r-67,0r0,387v1,40,5,64,40,64r65,0r0,164r-504,0r0,-164xm708,-1021v0,-159,-40,-235,-187,-238r-79,0r0,480r79,0v147,-3,187,-82,187,-242","w":1171},"S":{"d":"79,-1066v0,-229,137,-387,362,-385v112,0,196,38,253,115r24,-87r132,0r0,527r-139,0v-6,-125,-32,-222,-79,-290v-47,-68,-110,-101,-191,-101v-76,-1,-128,72,-128,152v0,36,21,75,62,118v41,42,107,92,198,149v121,77,207,153,258,229v51,76,76,165,76,267v0,237,-141,400,-373,400v-125,0,-220,-47,-285,-142r-31,114r-139,0r0,-569r139,0v16,145,50,253,102,325v52,72,124,108,214,108v86,0,147,-77,147,-167v0,-49,-21,-99,-64,-148v-43,-49,-111,-104,-204,-163v-121,-77,-207,-150,-258,-219v-51,-69,-76,-146,-76,-233","w":944},"T":{"d":"231,-164v70,-2,149,18,149,-64r0,-1029v-174,6,-192,117,-196,318r0,80r-139,0r0,-564r964,0r0,564r-139,0r0,-80v-4,-202,-22,-311,-196,-318r0,1023v2,64,21,71,89,70r65,0r0,164r-597,0r0,-164","w":1057},"U":{"d":"1002,-1259v-61,-2,-105,-1,-105,64r0,837v0,257,-129,386,-386,386v-263,-1,-385,-123,-386,-386r0,-831v-1,-56,-7,-72,-61,-70r-44,0r0,-164r500,0r0,164v-60,-2,-101,0,-101,64r0,851v2,142,25,208,154,208v114,0,153,-83,153,-208r0,-851v5,-63,-40,-67,-101,-64r0,-164r377,0r0,164","w":1020},"V":{"d":"168,-1195v-14,-49,-9,-62,-60,-64r-47,0r0,-164r503,0r0,164v-58,-1,-114,-8,-101,64r154,839r181,-839v20,-66,-29,-66,-88,-64r0,-164r360,0r0,164v-35,1,-64,-6,-82,17v-9,12,-17,27,-22,47r-273,1195r-282,0","w":1095},"W":{"d":"368,0r-231,-1195v-14,-49,-9,-62,-60,-64r-47,0r0,-164r473,0r0,164v-60,0,-117,-8,-105,64r136,841r137,-854v5,-28,-16,-52,-43,-51r-59,0r0,-164r500,0r0,164v-59,0,-117,-9,-104,64r145,809r138,-809v16,-67,-39,-66,-101,-64r0,-164r355,0r0,164v-32,1,-59,-6,-74,17v-8,12,-15,27,-19,47r-219,1195r-267,0r-139,-867r-149,867r-267,0","w":1511},"X":{"d":"50,-164v47,2,87,-1,103,-32r246,-477r-238,-522v-26,-46,-22,-61,-79,-64r-50,0r0,-164r487,0r0,164v-37,3,-103,-12,-82,35r119,263r137,-266v13,-31,-6,-32,-38,-32r-38,0r0,-164r404,0r0,164v-62,-3,-115,0,-138,44r-228,442r280,545v27,55,35,67,110,64r0,164r-495,0r0,-164v43,-2,110,12,83,-44r-134,-279r-150,291v-13,31,6,32,38,32r38,0r0,164r-375,0r0,-164","w":1057},"Y":{"d":"232,-164v69,0,136,8,136,-64r0,-348r-245,-619v-20,-58,-31,-67,-104,-64r0,-164r504,0r0,164v-57,0,-120,-10,-95,64r134,399r130,-399v28,-66,-25,-66,-85,-64r0,-164r385,0r0,164v-36,1,-65,-5,-85,17v-11,12,-21,27,-28,47r-217,617r0,344v-9,85,61,68,136,70r0,164r-566,0r0,-164","w":1020},"Z":{"d":"534,-164v187,-4,227,-93,230,-294r0,-126r139,0r0,584r-872,0r0,-157r575,-1100r-210,0v-161,5,-189,91,-192,270r0,116r-139,0r0,-552r845,0r0,151r-579,1108r203,0","w":944},"[":{"d":"35,392r0,-1807r376,0r0,148r-135,0r0,1511r135,0r0,148r-376,0","w":453},"\\":{"d":"289,28r-255,-1479r149,0r255,1479r-149,0","w":453},"]":{"d":"412,392r-376,0r0,-148r135,0r0,-1511r-135,0r0,-148r376,0r0,1807","w":453},"^":{"d":"99,-1087v187,-140,260,-228,359,-449r106,0v99,222,173,310,360,449r0,94v-182,-84,-303,-156,-414,-260v-110,105,-230,175,-411,260r0,-94","w":1020},"_":{"d":"0,512r0,-105r1020,0r0,105r-1020,0","w":1020},"`":{"d":"617,-1194r-258,-112v-52,-20,-81,-94,-45,-151v31,-50,115,-59,158,-15r198,199"},"a":{"d":"622,-131v-52,88,-153,159,-262,159v-169,0,-295,-106,-293,-271v0,-71,24,-128,67,-179v57,-67,238,-154,357,-210v66,-31,118,-87,112,-184v-6,-99,-72,-133,-183,-133v-63,0,-111,10,-144,30v94,-14,151,44,151,134v0,73,-80,136,-157,136v-105,0,-173,-72,-172,-179v3,-187,191,-281,402,-281v214,0,356,96,357,299r0,498v0,75,1,124,5,147v4,23,12,34,24,34v65,2,33,-101,41,-172r110,0v13,189,-42,325,-214,325v-105,0,-174,-62,-201,-153xm441,-132v164,-12,153,-241,151,-427r-4,4v-115,98,-183,164,-210,195v-60,69,-57,236,63,228","w":1057},"b":{"d":"116,0v14,-66,21,-124,21,-199r0,-1012v-1,-44,-4,-64,-43,-64r-52,0r0,-148r360,0r0,455v47,-87,125,-141,225,-141v95,0,165,49,217,144v97,178,96,681,-14,847v-63,94,-144,146,-257,146v-117,0,-206,-82,-242,-189r-85,161r-130,0xm533,-156v43,0,72,-30,92,-87v33,-96,28,-496,-3,-594v-35,-109,-157,-115,-199,-19v-29,66,-28,266,-28,392v0,111,11,190,32,237v21,47,56,71,106,71","w":982},"c":{"d":"676,-860v-19,-58,-76,-90,-155,-89v-68,0,-111,31,-141,87v-48,89,-40,559,-7,648v39,103,197,110,242,8v22,-51,36,-125,33,-226r158,0v5,284,-89,460,-350,460v-282,0,-387,-226,-387,-539v0,-195,35,-343,105,-445v70,-102,173,-153,307,-153v192,0,325,112,325,298v0,107,-62,199,-162,199v-84,0,-144,-49,-144,-131v0,-99,89,-161,176,-117","w":868},"d":{"d":"868,-212v-5,62,35,67,94,64r0,148r-359,0r0,-94v-49,81,-122,121,-219,122v-97,0,-167,-46,-220,-134v-106,-174,-91,-679,2,-848v56,-102,129,-155,228,-155v90,0,160,32,209,98r0,-200v-1,-44,-4,-64,-43,-64r-52,0r0,-148r360,0r0,1211xm484,-925v-46,0,-76,30,-98,86v-36,91,-33,519,-2,603v19,52,50,80,99,80v42,0,72,-26,95,-78v35,-78,34,-252,33,-383v0,-111,-10,-190,-29,-237v-19,-47,-52,-71,-98,-71","w":982},"e":{"d":"836,-411v9,279,-91,439,-353,439v-132,0,-228,-50,-297,-143v-127,-171,-132,-674,4,-847v74,-94,166,-147,293,-147v292,0,368,268,353,600r-483,0v2,140,14,237,35,291v23,57,66,86,130,86v133,0,160,-121,150,-279r168,0xm573,-657v-1,-109,-8,-182,-21,-221v-15,-45,-44,-67,-89,-67v-44,0,-73,27,-88,81v-11,39,-18,108,-21,207r219,0"},"f":{"d":"534,-1348v-134,3,-143,138,-92,267r211,0r0,147r-188,0r0,722v-5,70,62,65,130,64r0,148r-490,0r0,-148v58,3,95,-2,95,-64r0,-722r-109,0r0,-147r109,0r0,-86v-3,-164,120,-284,284,-284v121,0,232,72,232,184v0,72,-39,124,-108,124v-62,0,-107,-33,-108,-92v-1,-63,39,-99,101,-90v-18,-15,-40,-23,-67,-23","w":680},"g":{"d":"303,-351v-29,5,-59,29,-59,59v0,81,66,78,172,78r201,0v216,0,351,73,351,273v0,230,-196,296,-461,296v-154,0,-270,-17,-347,-51v-77,-34,-115,-84,-115,-152v0,-93,72,-141,164,-154v-79,-35,-144,-113,-144,-203v0,-87,67,-176,135,-198v-73,-57,-104,-152,-105,-290v-2,-252,116,-415,356,-416v94,0,170,22,228,67v26,-79,100,-137,196,-137v111,0,173,79,173,194v0,87,-36,142,-118,143v-67,0,-100,-40,-100,-108v0,-71,29,-99,101,-99v-67,-69,-170,9,-158,104v9,71,37,136,35,221v-5,264,-100,388,-357,390v-56,1,-105,-5,-148,-17xm536,-915v-34,-77,-135,-77,-170,-2v-29,64,-29,335,-2,396v32,72,140,72,172,-5v29,-70,31,-319,0,-389xm328,32v-52,-5,-104,34,-104,83v0,37,24,63,71,82v84,35,344,35,425,-3v46,-22,71,-50,71,-91v0,-25,-12,-43,-37,-51v-95,-29,-305,-8,-426,-20","w":1057},"h":{"d":"43,-148v58,3,95,-2,95,-64r0,-999v-1,-44,-4,-64,-43,-64r-52,0r0,-148r360,0r0,475v67,-93,170,-161,280,-161v138,0,215,95,215,237r0,660v-5,62,37,67,97,64r0,148r-447,0r0,-148v56,3,85,-5,85,-64r0,-594v1,-53,-33,-95,-85,-94v-50,0,-88,24,-112,72v-24,48,-33,122,-33,219r0,397v-4,58,26,68,82,64r0,148r-442,0r0,-148","w":1020},"i":{"d":"34,-148v58,3,95,-2,95,-64r0,-657v6,-65,-35,-66,-95,-64r0,-148r360,0r0,869v-5,62,37,67,97,64r0,148r-457,0r0,-148xm88,-1293v0,-86,72,-158,159,-158v87,0,159,72,159,158v0,86,-72,157,-159,157v-87,0,-159,-71,-159,-157","w":529},"j":{"d":"138,255v110,-6,106,-82,96,-218r-16,-209r0,-697v11,-83,-69,-61,-137,-64r0,-148r402,0r0,1097v-1,223,-75,336,-288,339v-141,2,-264,-76,-266,-205v-1,-77,55,-148,129,-148v65,0,117,60,116,127v-1,70,-35,101,-103,105v22,15,44,22,67,21xm178,-1293v0,-86,72,-158,159,-158v87,0,159,72,159,158v0,86,-72,157,-159,157v-87,0,-159,-71,-159,-157","w":642},"k":{"d":"26,-148v58,3,95,-2,95,-64r0,-999v6,-65,-35,-66,-95,-64r0,-148r360,0r0,875r218,-309v33,-49,44,-74,-26,-76r-53,0r0,-148r427,0r0,148v-81,-4,-128,9,-164,57r-145,194r246,457v30,47,36,81,102,77r0,148r-426,0r0,-148v24,0,59,4,63,-14v2,-10,-2,-27,-14,-50r-129,-259r-99,133v8,75,-31,196,58,190r39,0r0,148r-457,0r0,-148","w":1020},"l":{"d":"49,-148v58,3,95,-2,95,-64r0,-999v-1,-44,-4,-64,-43,-64r-52,0r0,-148r360,0r0,1211v-5,62,37,67,97,64r0,148r-457,0r0,-148","w":529},"m":{"d":"36,-148v58,3,95,-2,95,-64r0,-657v6,-65,-35,-66,-95,-64r0,-148r360,0r0,147v62,-97,170,-175,284,-175v115,0,189,67,208,169v64,-95,172,-169,285,-169v138,0,215,95,215,237r0,660v-5,62,37,67,97,64r0,148r-442,0r0,-148v55,4,80,-7,80,-64r0,-594v1,-53,-33,-95,-85,-94v-50,0,-88,24,-112,72v-24,48,-33,122,-33,219r0,397v-4,59,29,68,85,64r0,148r-430,0r0,-148v55,4,80,-7,80,-64r0,-593v1,-55,-33,-95,-86,-95v-51,0,-88,24,-112,72v-24,48,-34,122,-34,219r0,397v-4,60,30,68,87,64r0,148r-447,0r0,-148","w":1511},"n":{"d":"34,-148v58,3,95,-2,95,-64r0,-657v6,-65,-35,-66,-95,-64r0,-148r360,0r0,133v67,-93,170,-161,280,-161v138,0,215,95,215,237r0,660v-5,62,37,67,97,64r0,148r-447,0r0,-148v56,3,85,-5,85,-64r0,-594v1,-53,-33,-95,-85,-94v-50,0,-87,24,-111,72v-24,48,-34,122,-34,219r0,397v-4,58,26,68,82,64r0,148r-442,0r0,-148","w":1020},"o":{"d":"472,-1109v309,0,392,218,392,564v1,199,-31,343,-94,435v-63,92,-162,138,-298,138v-135,0,-229,-50,-296,-138v-120,-157,-122,-707,0,-864v67,-87,161,-135,296,-135xm567,-218v29,-80,29,-567,0,-647v-19,-52,-48,-80,-95,-80v-47,0,-75,28,-94,80v-29,81,-28,568,0,647v19,53,47,82,94,82v47,0,76,-29,95,-82","w":944},"p":{"d":"47,179v58,3,95,-2,95,-64r0,-984v6,-65,-35,-66,-95,-64r0,-148r360,0r0,110v61,-92,135,-138,222,-138v96,0,165,50,218,144v96,172,94,676,-1,847v-53,95,-122,146,-218,146v-93,0,-166,-34,-221,-101r0,188v-4,61,36,67,95,64r0,148r-455,0r0,-148xm543,-156v41,0,68,-30,87,-87v32,-96,30,-497,-2,-594v-36,-111,-143,-116,-185,-9v-31,79,-32,252,-31,382v0,111,10,190,30,237v20,47,54,71,101,71","w":982},"q":{"d":"495,179v58,3,95,-2,95,-64r0,-215v-47,87,-115,128,-204,128v-101,0,-176,-50,-232,-146v-103,-177,-98,-676,13,-847v108,-166,388,-203,489,-18r21,38r72,-136r127,0v-14,66,-21,125,-21,199r0,997v-4,61,36,67,95,64r0,148r-455,0r0,-148xm474,-925v-47,0,-77,30,-100,86v-36,90,-30,517,-5,603v31,107,160,99,201,8v32,-71,34,-259,33,-389v0,-119,-9,-200,-27,-243v-18,-43,-52,-65,-102,-65","w":982},"r":{"d":"44,-148v58,3,95,-2,95,-64r0,-657v6,-65,-35,-66,-95,-64r0,-148r326,0r0,92v40,-74,104,-120,187,-120v129,0,206,91,206,223v0,101,-52,177,-147,177v-76,1,-127,-50,-127,-126v0,-87,66,-148,152,-119v-13,-25,-38,-42,-72,-41v-64,0,-109,28,-132,85v-55,135,-25,485,-33,698v-3,74,73,63,145,64r0,148r-505,0r0,-148","w":755},"s":{"d":"379,-1109v90,1,167,37,220,111r48,-83r105,0r0,389r-132,0v-19,-77,-48,-138,-87,-184v-39,-46,-83,-69,-132,-69v-70,-1,-119,35,-119,102v0,27,17,54,52,82v35,27,87,55,156,84v112,47,192,99,240,156v48,57,72,130,72,217v0,192,-124,332,-313,332v-113,0,-206,-48,-267,-132r-43,104r-105,0r0,-432r129,0v39,162,116,290,286,296v69,2,112,-43,111,-113v0,-29,-18,-59,-54,-89v-35,-30,-89,-60,-160,-89v-112,-47,-192,-98,-240,-153v-48,-55,-72,-125,-72,-209v0,-186,122,-322,305,-320","w":868},"t":{"d":"399,22v-186,0,-259,-78,-259,-267r0,-689r-104,0r0,-147v173,-20,209,-80,221,-259r148,0r0,259r195,0r0,147r-195,0r0,674v3,75,-3,125,51,129v82,6,54,-113,60,-199r123,0r0,76v-2,191,-56,276,-240,276","w":642},"u":{"d":"126,-869v6,-65,-35,-66,-95,-64r0,-148r360,0r0,767v-1,69,26,136,85,136v50,0,88,-24,112,-73v24,-49,33,-122,33,-220r0,-398v6,-65,-35,-66,-95,-64r0,-148r360,0r0,869v-5,62,37,67,97,64r0,148r-362,0r0,-145v-53,95,-152,179,-250,174v-198,-10,-245,-150,-245,-377r0,-521","w":1020},"v":{"d":"115,-856v-15,-54,-26,-83,-92,-77r0,-148r458,0r0,148v-55,-1,-100,-5,-87,64r108,558r132,-558v19,-64,-23,-67,-81,-64r0,-148r327,0r0,148v-59,-5,-67,26,-80,77r-218,856r-251,0"},"w":{"d":"294,0r-199,-856v-13,-55,-24,-83,-90,-77r0,-148r431,0r0,148v-55,-1,-101,-5,-87,64r118,580r119,-591v10,-47,-30,-59,-80,-53r0,-148r443,0r0,148v-53,-3,-87,0,-76,64r101,575r126,-575v19,-63,-24,-67,-81,-64r0,-148r332,0r0,148v-64,-6,-78,21,-91,77r-202,856r-258,0r-113,-611r-132,611r-261,0","w":1360},"x":{"d":"32,-148v90,6,128,-18,164,-77r170,-274r-213,-357v-32,-50,-45,-82,-119,-77r0,-148r447,0r0,148v-24,0,-65,-3,-67,15v-2,10,4,26,18,49r80,135r84,-135v15,-23,22,-39,21,-49v-1,-18,-38,-15,-60,-15r0,-148r351,0r0,148v-88,-6,-122,19,-158,77r-158,254r225,377v33,53,53,83,133,77r0,148r-463,0r0,-148v25,0,67,4,69,-14v2,-10,-4,-27,-18,-50r-92,-154r-96,154v-15,23,-21,40,-19,50v4,18,48,14,74,14r0,148r-373,0r0,-148","w":944},"y":{"d":"197,229v37,36,109,20,143,-23v35,-44,65,-143,88,-215r-280,-847v-18,-60,-45,-83,-121,-77r0,-148r473,0r0,148v-28,0,-66,-2,-74,15v-5,10,-5,26,2,49r118,458r135,-458v24,-70,-34,-65,-96,-64r0,-148r344,0r0,148v-61,-5,-70,26,-86,77r-292,930v-48,160,-114,276,-288,281v-129,4,-212,-74,-219,-193v-5,-89,60,-164,146,-164v67,0,123,50,122,116v-1,80,-34,115,-115,115","w":944},"z":{"d":"427,-148v157,-6,184,-93,198,-261r131,0r0,409r-725,0r0,-141r451,-792r-106,0v-152,3,-188,73,-198,229r-131,0r0,-377r710,0r0,125r-436,808r106,0","w":793},"{":{"d":"909,-1465v-203,55,-321,185,-250,444v35,128,29,249,-50,330v-55,58,-154,111,-297,160v143,48,241,102,297,160v79,82,86,202,50,330v-72,259,47,390,250,444r0,88v-224,-24,-376,-82,-456,-173v-87,-98,-88,-248,-46,-399v68,-246,-52,-355,-251,-406r0,-88v200,-52,319,-159,251,-406v-42,-152,-41,-300,46,-399v80,-91,232,-149,456,-173r0,88","w":1020},"|":{"d":"458,512r0,-2048r105,0r0,2048r-105,0","w":1020},"}":{"d":"864,-487v-200,52,-319,159,-251,406v42,152,41,300,-46,399v-80,91,-232,149,-456,173r0,-88v203,-55,321,-185,250,-444v-35,-128,-29,-248,50,-330v56,-58,154,-112,297,-160v-143,-49,-242,-102,-297,-160v-79,-81,-86,-202,-50,-330v72,-259,-47,-390,-250,-444r0,-88v224,24,376,82,456,173v87,98,88,248,46,399v-68,246,52,355,251,406r0,88","w":1020},"~":{"d":"710,-551v-99,-4,-221,60,-264,121r-32,-66v54,-109,190,-240,327,-243v241,-6,399,132,645,135v102,1,223,-59,261,-124r37,56v-36,126,-177,256,-327,256v-201,0,-431,-127,-647,-135","w":2039},"\u00a0":{"w":453},"\u00a1":{"d":"247,335v-165,0,-198,-249,-144,-407v76,-223,78,-340,80,-655r128,0v2,314,9,428,80,655v20,63,24,92,25,174v2,118,-63,233,-169,233xm400,-935v0,83,-70,153,-153,153v-83,0,-153,-70,-153,-153v0,-83,70,-153,153,-153v83,0,153,70,153,153","w":491},"\u00a2":{"d":"78,-738v0,-268,112,-466,334,-500r0,-83r106,0r0,79v162,16,292,163,292,335v0,88,-46,155,-129,155v-76,0,-129,-46,-129,-120v0,-79,54,-133,136,-117v-30,-64,-104,-109,-188,-109v-68,0,-113,29,-144,82v-53,91,-51,472,0,564v30,55,73,84,138,84v154,0,188,-124,181,-303r135,0v12,270,-62,423,-292,446r0,125r-106,0r0,-128v-222,-38,-334,-237,-334,-510"},"\u00a3":{"d":"513,-642v41,142,65,242,30,388v75,14,149,11,177,-61v18,-46,30,-113,29,-204r134,0v3,219,-10,363,-35,437v-34,103,-162,147,-254,72v-28,-23,-69,-60,-118,-113v-58,86,-155,151,-242,151v-120,0,-217,-78,-217,-194v0,-154,173,-231,328,-170v-8,-138,-31,-154,-81,-306r-161,0r0,-139r109,0v-45,-130,-63,-156,-66,-300v-3,-218,148,-370,365,-370v201,0,364,145,364,341v0,89,-76,168,-165,168v-70,0,-137,-64,-137,-133v0,-103,94,-167,177,-114v-24,-57,-95,-113,-158,-113v-110,0,-180,85,-179,198v1,123,40,219,62,323r192,0r0,139r-154,0xm156,-166v0,37,31,58,70,58v48,0,95,-64,107,-117v-63,-13,-177,-25,-177,59"},"\u00a4":{"d":"690,-416v155,0,284,-129,284,-284v0,-155,-129,-284,-284,-284v-155,0,-284,129,-284,284v0,155,129,284,284,284xm962,-296v-152,105,-392,107,-544,0r-136,136r-132,-132r136,-136v-108,-152,-104,-392,-1,-545r-135,-135r132,-132r136,136v151,-107,393,-107,544,0r136,-136r132,132r-136,136v106,153,108,392,-1,543r137,137r-132,132","w":1360},"\u00a5":{"d":"186,-142v69,0,141,8,136,-64r0,-25r-230,0r0,-108r230,0r0,-62r-230,0r0,-108r230,0r0,-70r-218,-638v-18,-56,-24,-67,-94,-64r0,-142r471,0r0,142v-52,-2,-94,-4,-77,64r108,427r111,-427v10,-44,8,-63,-33,-64r-34,0r0,-142r351,0r0,142v-33,1,-56,-5,-73,17v-9,12,-18,27,-24,47r-194,651r0,57r230,0r0,108r-230,0r0,62r230,0r0,108r-230,0v-2,68,8,95,79,89r57,0r0,142r-566,0r0,-142"},"\u00a6":{"d":"458,461r0,-919r105,0r0,919r-105,0xm458,-564r0,-919r105,0r0,919r-105,0","w":1020},"\u00a7":{"d":"30,-1146v0,-227,144,-379,371,-376v99,1,180,38,244,112r26,-84r132,0r0,481r-139,0v-1,-173,-104,-343,-263,-345v-92,0,-143,59,-142,153v0,49,21,96,61,139v40,43,108,92,205,147v121,69,209,136,264,199v124,143,97,300,-10,458r-27,36v77,78,136,200,136,329v0,225,-160,393,-383,393v-127,0,-225,-39,-294,-118r-31,75r-125,0r0,-558r139,0v-3,151,18,262,62,332v44,70,116,105,215,105v105,0,188,-59,188,-158v0,-54,-21,-104,-63,-151v-42,-47,-113,-99,-214,-156v-121,-69,-206,-137,-262,-203v-132,-156,-88,-368,34,-511v-69,-71,-124,-184,-124,-299xm665,-441v0,-31,-19,-60,-53,-92v-42,-39,-253,-153,-342,-216v-38,70,-36,138,32,196v45,38,239,157,331,224v22,-29,33,-67,32,-112"},"\u00a8":{"d":"135,-1325v0,-71,60,-132,131,-132v72,0,131,61,131,132v0,72,-60,131,-131,131v-72,0,-131,-60,-131,-131xm548,-1325v0,-71,60,-132,131,-132v72,0,131,61,131,132v0,72,-60,131,-131,131v-72,0,-131,-60,-131,-131"},"\u00a9":{"d":"593,-811v88,0,137,-74,143,-163r47,0v-7,120,-80,209,-200,210v-159,1,-264,-135,-264,-300v0,-191,164,-369,350,-275v29,15,56,2,61,-25r42,0r0,216r-46,9v-11,-87,-67,-178,-153,-178v-93,0,-129,136,-129,253v0,130,40,253,149,253xm551,-1526v261,0,479,218,479,479v0,261,-218,478,-479,478v-261,0,-478,-217,-478,-478v0,-261,217,-479,478,-479xm955,-1047v0,-221,-183,-404,-404,-404v-220,0,-403,183,-403,404v0,220,183,403,403,403v221,0,404,-183,404,-403","w":1020},"\u00aa":{"d":"503,-792v-35,81,-109,145,-206,144v-149,-2,-223,-63,-224,-208v0,-46,19,-85,54,-122v51,-53,207,-118,302,-164v35,-17,74,-48,60,-107v-14,-54,-59,-85,-127,-85v-60,0,-102,18,-132,48v43,2,71,36,71,84v0,46,-49,84,-96,84v-65,0,-107,-44,-107,-109v0,-289,609,-304,614,-15r0,247v0,85,2,141,8,166v6,25,19,38,38,38v53,0,36,-75,39,-127r77,0r0,76v1,121,-72,188,-194,188v-89,0,-154,-55,-177,-138xm326,-951v-46,48,-39,172,47,163v96,-10,117,-163,113,-287v-87,61,-139,103,-160,124"},"\u00ab":{"d":"535,-951r-183,356r183,357r-142,0r-245,-357r244,-356r143,0xm839,-951r-183,356r183,357r-142,0r-245,-357r244,-356r143,0","w":944},"\u00ac":{"d":"1149,-904r-1070,0r0,-142r1212,0r0,682r-142,0r0,-540","w":1360},"\u00ad":{"d":"62,-639r318,0r0,176r-318,0r0,-176","w":453},"\u00ae":{"d":"504,-910v0,57,31,84,90,84r0,42r-285,0r0,-42v59,0,90,-27,90,-84r0,-303v0,-57,-31,-84,-90,-84r0,-42r305,0v108,0,175,41,177,142v1,68,-74,122,-143,134v47,37,77,82,89,151v4,22,20,50,38,54v26,-2,39,-44,38,-77r37,0v7,100,-83,197,-168,127v-53,-44,-58,-128,-82,-197v-12,-34,-46,-57,-96,-50r0,145xm504,-1092v93,11,164,-26,164,-105v0,-56,-25,-91,-72,-102v-122,-30,-86,104,-92,207xm551,-1526v261,0,479,218,479,479v0,261,-218,478,-479,478v-261,0,-478,-217,-478,-478v0,-261,217,-479,478,-479xm955,-1047v0,-221,-183,-404,-404,-404v-220,0,-403,183,-403,404v0,220,183,403,403,403v221,0,404,-183,404,-403","w":1020},"\u00af":{"d":"0,-1526r0,-105r1020,0r0,105r-1020,0","w":1020},"\u00b0":{"d":"150,-1145v0,-168,138,-306,306,-306v168,0,306,138,306,306v0,168,-138,306,-306,306v-168,0,-306,-138,-306,-306xm456,-967v98,0,178,-80,178,-178v0,-98,-80,-178,-178,-178v-98,0,-178,80,-178,178v0,98,80,178,178,178"},"\u00b1":{"d":"599,-681r-489,0r0,-162r489,0r0,-443r162,0r0,443r489,0r0,162r-489,0r0,443r-162,0r0,-443xm110,-174r1140,0r0,162r-1140,0r0,-162","w":1360},"\u00b2":{"d":"314,-1437v129,0,251,80,247,202v-4,138,-78,192,-186,255v-97,57,-161,103,-188,140v-11,15,-20,33,-26,54v54,-61,162,-14,239,-9v67,4,103,-50,102,-120r64,0v-1,145,-29,256,-150,260v-86,3,-143,-69,-216,-69v-35,0,-58,24,-65,55r-84,0v10,-188,79,-233,206,-350v67,-62,121,-120,130,-221v10,-114,-159,-157,-207,-63v46,-21,87,24,87,68v0,49,-40,85,-90,85v-53,0,-90,-46,-90,-100v0,-106,114,-187,227,-187","w":604},"\u00b3":{"d":"218,-1095v95,1,145,-39,146,-131v1,-68,-40,-129,-103,-129v-45,0,-80,15,-98,43v47,-14,86,10,86,63v0,50,-30,85,-80,85v-52,0,-95,-48,-94,-101v2,-110,110,-172,231,-172v131,0,232,78,232,204v0,88,-56,149,-132,170v81,24,157,85,157,176v0,152,-100,232,-257,232v-146,0,-255,-62,-257,-196v-2,-59,41,-114,97,-114v72,0,93,103,57,155v-14,20,-32,27,-57,21v23,29,56,48,107,48v84,0,141,-58,139,-144v-3,-104,-66,-129,-174,-142r0,-68","w":604},"\u00b4":{"d":"284,-1272r216,-214v75,-51,168,18,156,106v-4,32,-28,59,-59,72r-260,114"},"\u00b5":{"d":"727,-283v-41,144,-152,309,-303,311v-45,0,-81,-15,-110,-44r-61,288v-17,79,-47,129,-131,131v-65,1,-94,-45,-79,-115r115,-540r121,-588r230,0r-130,630v-12,49,23,88,70,88v34,0,69,-26,107,-78v38,-52,64,-113,78,-180r95,-460r230,0r-113,550v-10,47,-12,87,-5,120v15,70,60,60,95,10v20,-27,39,-65,56,-112r79,27v-27,95,-59,164,-96,208v-36,43,-81,65,-135,65v-116,0,-148,-170,-113,-311","w":1133},"\u00b6":{"d":"77,-1045v-2,-304,264,-488,587,-481r260,0r0,80r-138,0r0,1772r-80,0r0,-1772r-98,0r0,1772r-80,0r0,-892v-260,-45,-449,-197,-451,-479","w":944},"\u00b7":{"d":"68,-761v0,-83,70,-153,153,-153v83,0,153,70,153,153v0,83,-70,153,-153,153v-83,0,-153,-70,-153,-153","w":453},"\u00b8":{"d":"477,214v5,-46,-77,-45,-110,-40r-13,-64r130,-119r116,0r-110,96v108,0,178,30,181,127v5,193,-317,181,-449,106r37,-89v53,26,67,34,135,35v47,0,79,-13,83,-52"},"\u00b9":{"d":"181,-743v34,-2,37,-22,37,-64r0,-477r-92,1r0,-67v97,-5,144,-13,178,-87r70,0r0,630v-7,67,35,66,95,64r0,74r-343,0r0,-74r55,0","w":604},"\u00ba":{"d":"461,-648v-265,0,-367,-132,-367,-405v0,-270,104,-398,367,-398v263,0,368,128,368,398v0,273,-103,405,-368,405xm574,-834v41,-80,42,-352,0,-432v-46,-87,-178,-87,-224,0v-42,80,-41,352,0,432v46,89,178,89,224,0"},"\u00bb":{"d":"121,-238r183,-356r-183,-357r142,0r245,357r-244,356r-143,0xm425,-238r183,-356r-183,-357r142,0r245,357r-244,356r-143,0","w":944},"\u2215":{"d":"792,-1451r-1130,1479r-158,0r1130,-1479r158,0","w":302},"\u00bc":{"d":"846,-69v44,-2,91,15,91,-42r0,-104r-312,0r0,-73r341,-466r127,0r0,466r110,0r0,73r-110,0v6,61,-24,155,52,146r35,0r0,69r-334,0r0,-69xm937,-288r0,-310r-227,310r227,0xm215,-743v34,-2,37,-22,37,-64r0,-477r-92,1r0,-67v97,-5,144,-13,178,-87r70,0r0,630v-7,67,35,66,95,64r0,74r-343,0r0,-74r55,0xm1345,-1451r-1130,1479r-158,0r1130,-1479r158,0","w":1360},"\u00bd":{"d":"1016,-782v129,0,251,80,247,202v-4,138,-78,192,-186,255v-97,57,-161,103,-188,140v-11,15,-20,33,-26,54v54,-61,162,-14,239,-9v67,4,103,-50,102,-120r64,0v-1,145,-29,256,-150,260v-86,3,-143,-69,-216,-69v-35,0,-58,24,-65,55r-84,0v10,-188,79,-233,206,-350v67,-62,121,-120,130,-221v10,-114,-159,-157,-207,-63v46,-21,87,24,87,68v0,49,-40,85,-90,85v-53,0,-90,-46,-90,-100v0,-106,114,-187,227,-187xm190,-743v34,-2,37,-22,37,-64r0,-477r-92,1r0,-67v97,-5,144,-13,178,-87r70,0r0,630v-7,67,35,66,95,64r0,74r-343,0r0,-74r55,0xm1320,-1451r-1130,1479r-158,0r1130,-1479r158,0","w":1360},"\u00be":{"d":"845,-69v44,-2,91,15,91,-42r0,-104r-312,0r0,-73r341,-466r127,0r0,466r110,0r0,73r-110,0v6,61,-24,155,52,146r35,0r0,69r-334,0r0,-69xm936,-288r0,-310r-227,310r227,0xm225,-1095v95,1,145,-39,146,-131v1,-68,-40,-129,-103,-129v-45,0,-80,15,-98,43v47,-14,86,10,86,63v0,50,-30,85,-80,85v-52,0,-95,-48,-94,-101v2,-110,110,-172,231,-172v131,0,232,78,232,204v0,88,-56,149,-132,170v81,24,157,85,157,176v0,152,-100,232,-257,232v-146,0,-255,-62,-257,-196v-2,-59,41,-114,97,-114v72,0,93,103,57,155v-14,20,-32,27,-57,21v23,29,56,48,107,48v84,0,141,-58,139,-144v-3,-104,-66,-129,-174,-142r0,-68xm1344,-1451r-1130,1479r-158,0r1130,-1479r158,0","w":1360},"\u00bf":{"d":"386,-99v-65,124,22,263,150,263v86,0,147,-33,170,-95v-72,64,-180,-4,-180,-100v0,-77,79,-139,159,-139v92,0,160,90,160,187v0,183,-190,311,-386,311v-213,0,-388,-133,-386,-336v0,-65,18,-121,53,-170v35,-49,101,-105,195,-173v85,-61,98,-130,100,-284r0,-85r138,0v-1,238,2,393,-102,513v-34,39,-55,77,-71,108xm643,-929v0,83,-70,153,-153,153v-83,0,-153,-70,-153,-153v0,-83,70,-153,153,-153v83,0,153,70,153,153"},"\u00c0":{"d":"689,-1548r-291,-72v-45,-17,-73,-78,-52,-136v19,-50,100,-82,154,-42r228,162xm64,-164v35,-1,53,-31,61,-64r280,-1195r285,0r249,1195v13,49,10,62,61,64r47,0r0,164r-501,0r0,-164v58,1,114,8,101,-64r-34,-185r-274,0r-40,185v-20,68,36,65,98,64r0,164r-382,0r0,-164r49,0xm488,-1096r-114,519r208,0","w":1057},"\u00c1":{"d":"352,-1634r250,-174v86,-34,161,42,135,131v-9,32,-36,54,-70,62r-276,67xm64,-164v35,-1,53,-31,61,-64r280,-1195r285,0r249,1195v13,49,10,62,61,64r47,0r0,164r-501,0r0,-164v58,1,114,8,101,-64r-34,-185r-274,0r-40,185v-20,68,36,65,98,64r0,164r-382,0r0,-164r49,0xm488,-1096r-114,519r208,0","w":1057},"\u00c2":{"d":"643,-1755r223,219r-214,0r-118,-130r-132,130r-174,0r223,-219r192,0xm64,-164v35,-1,53,-31,61,-64r280,-1195r285,0r249,1195v13,49,10,62,61,64r47,0r0,164r-501,0r0,-164v58,1,114,8,101,-64r-34,-185r-274,0r-40,185v-20,68,36,65,98,64r0,164r-382,0r0,-164r49,0xm488,-1096r-114,519r208,0","w":1057},"\u00c3":{"d":"400,-1643v-55,2,-74,41,-81,97r-142,-37v14,-117,90,-223,209,-223v104,0,197,75,300,95v58,-1,81,-41,89,-98r142,37v-19,133,-73,223,-209,223v-95,0,-113,-13,-193,-48v-68,-30,-106,-46,-115,-46xm64,-164v35,-1,53,-31,61,-64r280,-1195r285,0r249,1195v13,49,10,62,61,64r47,0r0,164r-501,0r0,-164v58,1,114,8,101,-64r-34,-185r-274,0r-40,185v-20,68,36,65,98,64r0,164r-382,0r0,-164r49,0xm488,-1096r-114,519r208,0","w":1057},"\u00c4":{"d":"231,-1667v0,-71,60,-132,131,-132v72,0,131,61,131,132v0,72,-60,131,-131,131v-72,0,-131,-60,-131,-131xm600,-1667v0,-71,60,-132,131,-132v72,0,131,61,131,132v0,72,-60,131,-131,131v-72,0,-131,-60,-131,-131xm64,-164v35,-1,53,-31,61,-64r280,-1195r285,0r249,1195v13,49,10,62,61,64r47,0r0,164r-501,0r0,-164v58,1,114,8,101,-64r-34,-185r-274,0r-40,185v-20,68,36,65,98,64r0,164r-382,0r0,-164r49,0xm488,-1096r-114,519r208,0","w":1057},"\u00c5":{"d":"547,-1552v-110,0,-203,-93,-203,-203v0,-111,92,-204,203,-204v112,0,204,92,204,204v0,111,-93,203,-204,203xm547,-1680v42,0,76,-33,76,-75v0,-42,-34,-76,-76,-76v-42,0,-75,34,-75,76v0,42,33,75,75,75xm64,-164v35,-1,53,-31,61,-64r280,-1195r285,0r249,1195v13,49,10,62,61,64r47,0r0,164r-501,0r0,-164v58,1,114,8,101,-64r-34,-185r-274,0r-40,185v-20,68,36,65,98,64r0,164r-382,0r0,-164r49,0xm488,-1096r-114,519r208,0","w":1057},"\u00c6":{"d":"1341,-164v213,4,235,-141,230,-366r139,0r0,530r-943,0r0,-164v61,2,105,1,105,-64r0,-230r-431,0r-109,230v-25,56,4,64,62,64r63,0r0,164r-433,0r0,-164v37,-1,61,5,83,-17v12,-12,24,-27,35,-47r481,-967v25,-66,-28,-64,-101,-64r-88,0r0,-164r1276,0r0,482r-139,0v6,-203,-27,-322,-224,-316r-181,0r0,433r84,0v98,7,74,-109,77,-200r139,0r0,559r-139,0v-3,-89,20,-203,-77,-195r-84,0r0,496r175,0xm830,-1257r-308,635r350,0r0,-635r-42,0","w":1775},"\u00c7":{"d":"540,214v0,-28,-30,-43,-61,-42v-30,0,-47,1,-50,2r-13,-64r130,-119r116,0r-109,96v108,0,178,30,181,127v5,193,-318,181,-451,106r37,-89v53,26,67,34,136,35v47,0,84,-12,84,-52xm518,-1451v98,0,176,47,224,140r46,-112r108,0r0,548r-139,0v-2,-146,-17,-251,-47,-315v-30,-64,-77,-97,-142,-97v-73,0,-115,38,-142,109v-41,106,-40,830,1,932v29,71,73,110,148,110v73,0,123,-37,151,-110v28,-73,38,-190,28,-352r142,0v10,221,-13,380,-70,478v-57,98,-153,148,-290,148v-158,0,-271,-51,-338,-154v-67,-103,-101,-276,-101,-518v0,-275,35,-478,104,-610v69,-132,174,-197,317,-197","w":982},"\u00c8":{"d":"673,-1548r-291,-72v-45,-17,-73,-78,-52,-136v19,-50,100,-82,154,-42r228,162xm616,-164v213,4,235,-141,230,-366r139,0r0,530r-931,0r0,-164v61,2,105,1,105,-64r0,-961v-1,-56,-7,-72,-61,-70r-44,0r0,-164r931,0r0,482r-139,0v6,-203,-27,-322,-224,-316r-169,0r0,433r84,0v98,7,74,-109,77,-200r139,0r0,559r-139,0v-3,-89,20,-203,-77,-195r-84,0r0,496r163,0","w":1057},"\u00c9":{"d":"336,-1634r250,-174v86,-34,161,42,135,131v-9,32,-36,54,-70,62r-276,67xm616,-164v213,4,235,-141,230,-366r139,0r0,530r-931,0r0,-164v61,2,105,1,105,-64r0,-961v-1,-56,-7,-72,-61,-70r-44,0r0,-164r931,0r0,482r-139,0v6,-203,-27,-322,-224,-316r-169,0r0,433r84,0v98,7,74,-109,77,-200r139,0r0,559r-139,0v-3,-89,20,-203,-77,-195r-84,0r0,496r163,0","w":1057},"\u00ca":{"d":"627,-1755r223,219r-214,0r-118,-130r-132,130r-174,0r223,-219r192,0xm616,-164v213,4,235,-141,230,-366r139,0r0,530r-931,0r0,-164v61,2,105,1,105,-64r0,-961v-1,-56,-7,-72,-61,-70r-44,0r0,-164r931,0r0,482r-139,0v6,-203,-27,-322,-224,-316r-169,0r0,433r84,0v98,7,74,-109,77,-200r139,0r0,559r-139,0v-3,-89,20,-203,-77,-195r-84,0r0,496r163,0","w":1057},"\u00cb":{"d":"215,-1667v0,-71,60,-132,131,-132v72,0,131,61,131,132v0,72,-60,131,-131,131v-72,0,-131,-60,-131,-131xm584,-1667v0,-71,60,-132,131,-132v72,0,131,61,131,132v0,72,-60,131,-131,131v-72,0,-131,-60,-131,-131xm616,-164v213,4,235,-141,230,-366r139,0r0,530r-931,0r0,-164v61,2,105,1,105,-64r0,-961v-1,-56,-7,-72,-61,-70r-44,0r0,-164r931,0r0,482r-139,0v6,-203,-27,-322,-224,-316r-169,0r0,433r84,0v98,7,74,-109,77,-200r139,0r0,559r-139,0v-3,-89,20,-203,-77,-195r-84,0r0,496r163,0","w":1057},"\u00cc":{"d":"446,-1548r-291,-72v-45,-17,-73,-78,-52,-136v19,-50,100,-82,154,-42r228,162xm52,-164v61,2,105,1,105,-64r0,-961v-1,-56,-7,-72,-61,-70r-44,0r0,-164r504,0r0,164v-61,-2,-105,-4,-105,64r0,961v1,56,7,72,61,70r44,0r0,164r-504,0r0,-164","w":604},"\u00cd":{"d":"109,-1634r250,-174v86,-34,161,42,135,131v-9,32,-36,54,-70,62r-276,67xm52,-164v61,2,105,1,105,-64r0,-961v-1,-56,-7,-72,-61,-70r-44,0r0,-164r504,0r0,164v-61,-2,-105,-4,-105,64r0,961v1,56,7,72,61,70r44,0r0,164r-504,0r0,-164","w":604},"\u00ce":{"d":"412,-1755r223,219r-214,0r-118,-130r-132,130r-174,0r223,-219r192,0xm64,-164v61,2,105,1,105,-64r0,-961v-1,-56,-7,-72,-61,-70r-44,0r0,-164r504,0r0,164v-61,-2,-105,-4,-105,64r0,961v1,56,7,72,61,70r44,0r0,164r-504,0r0,-164","w":604},"\u00cf":{"d":"-25,-1667v0,-71,60,-132,131,-132v72,0,131,61,131,132v0,72,-60,131,-131,131v-72,0,-131,-60,-131,-131xm344,-1667v0,-71,60,-132,131,-132v72,0,131,61,131,132v0,72,-60,131,-131,131v-72,0,-131,-60,-131,-131xm39,-164v61,2,105,1,105,-64r0,-961v-1,-56,-7,-72,-61,-70r-44,0r0,-164r504,0r0,164v-61,-2,-105,-4,-105,64r0,961v1,56,7,72,61,70r44,0r0,164r-504,0r0,-164","w":604},"\u00d0":{"d":"155,-1147v-3,-76,2,-109,-61,-112r-44,0r0,-164r525,0v149,0,252,59,324,166v127,190,124,899,3,1089v-70,109,-169,168,-314,168r-538,0r0,-164v61,2,105,1,105,-64r0,-402r-105,0r0,-164r105,0r0,-353xm449,-1259r0,465r114,0r0,164r-114,0r0,466v112,6,181,-22,217,-102v43,-95,44,-797,-2,-892v-36,-74,-104,-107,-215,-101","w":1057},"\u00d1":{"d":"427,-1643v-55,2,-74,41,-81,97r-142,-37v14,-117,90,-223,209,-223v104,0,197,75,300,95v58,-1,81,-41,89,-98r142,37v-19,133,-73,223,-209,223v-95,0,-113,-13,-193,-48v-68,-30,-106,-46,-115,-46xm1091,-1259v-61,-2,-105,-1,-105,64r0,1195r-253,0r-400,-992r0,764v-5,65,43,66,105,64r0,164r-381,0r0,-164v61,2,105,1,105,-64r0,-967v5,-65,-43,-66,-105,-64r0,-164r399,0r359,943r0,-715v5,-65,-43,-66,-105,-64r0,-164r381,0r0,164","w":1133},"\u00d2":{"d":"670,-1548r-291,-72v-45,-17,-73,-78,-52,-136v19,-50,100,-82,154,-42r228,162xm198,-123v-66,-101,-99,-269,-100,-506r0,-177v1,-223,35,-387,104,-490v69,-103,177,-155,326,-155v153,0,259,54,331,152v88,119,100,411,100,670v0,237,-33,405,-99,506v-66,101,-177,151,-332,151v-155,0,-264,-50,-330,-151xm640,-224v35,-135,37,-838,0,-976v-15,-58,-53,-87,-112,-87v-58,0,-96,29,-112,87v-37,137,-36,840,0,976v16,59,54,88,112,88v59,0,96,-29,112,-88","w":1057},"\u00d3":{"d":"333,-1634r250,-174v86,-34,161,42,135,131v-9,32,-36,54,-70,62r-276,67xm198,-123v-66,-101,-99,-269,-100,-506r0,-177v1,-223,35,-387,104,-490v69,-103,177,-155,326,-155v153,0,259,54,331,152v88,119,100,411,100,670v0,237,-33,405,-99,506v-66,101,-177,151,-332,151v-155,0,-264,-50,-330,-151xm640,-224v35,-135,37,-838,0,-976v-15,-58,-53,-87,-112,-87v-58,0,-96,29,-112,87v-37,137,-36,840,0,976v16,59,54,88,112,88v59,0,96,-29,112,-88","w":1057},"\u00d4":{"d":"624,-1755r223,219r-214,0r-118,-130r-132,130r-174,0r223,-219r192,0xm198,-123v-66,-101,-99,-269,-100,-506r0,-177v1,-223,35,-387,104,-490v69,-103,177,-155,326,-155v153,0,259,54,331,152v88,119,100,411,100,670v0,237,-33,405,-99,506v-66,101,-177,151,-332,151v-155,0,-264,-50,-330,-151xm640,-224v35,-135,37,-838,0,-976v-15,-58,-53,-87,-112,-87v-58,0,-96,29,-112,87v-37,137,-36,840,0,976v16,59,54,88,112,88v59,0,96,-29,112,-88","w":1057},"\u00d5":{"d":"381,-1643v-55,2,-74,41,-81,97r-142,-37v14,-117,90,-223,209,-223v104,0,197,75,300,95v58,-1,81,-41,89,-98r142,37v-19,133,-73,223,-209,223v-95,0,-113,-13,-193,-48v-68,-30,-106,-46,-115,-46xm198,-123v-66,-101,-99,-269,-100,-506r0,-177v1,-223,35,-387,104,-490v69,-103,177,-155,326,-155v153,0,259,54,331,152v88,119,100,411,100,670v0,237,-33,405,-99,506v-66,101,-177,151,-332,151v-155,0,-264,-50,-330,-151xm640,-224v35,-135,37,-838,0,-976v-15,-58,-53,-87,-112,-87v-58,0,-96,29,-112,87v-37,137,-36,840,0,976v16,59,54,88,112,88v59,0,96,-29,112,-88","w":1057},"\u00d6":{"d":"212,-1667v0,-71,60,-132,131,-132v72,0,131,61,131,132v0,72,-60,131,-131,131v-72,0,-131,-60,-131,-131xm581,-1667v0,-71,60,-132,131,-132v72,0,131,61,131,132v0,72,-60,131,-131,131v-72,0,-131,-60,-131,-131xm198,-123v-66,-101,-99,-269,-100,-506r0,-177v1,-223,35,-387,104,-490v69,-103,177,-155,326,-155v153,0,259,54,331,152v88,119,100,411,100,670v0,237,-33,405,-99,506v-66,101,-177,151,-332,151v-155,0,-264,-50,-330,-151xm640,-224v35,-135,37,-838,0,-976v-15,-58,-53,-87,-112,-87v-58,0,-96,29,-112,87v-37,137,-36,840,0,976v16,59,54,88,112,88v59,0,96,-29,112,-88","w":1057},"\u00d7":{"d":"680,-598r-474,475r-115,-115r475,-474r-475,-474r115,-115r474,475r474,-475r115,115r-475,474r475,474r-115,115","w":1360},"\u00d8":{"d":"664,-832r-268,423v3,86,10,147,20,182v16,61,53,91,111,91v59,0,93,-32,113,-92v21,-64,25,-419,24,-604xm207,-110r-87,138r-122,0r155,-245v-50,-123,-58,-363,-56,-574v2,-233,35,-402,102,-505v67,-103,177,-155,328,-155v145,0,251,46,319,139r88,-139r122,0r-155,244v54,125,57,355,57,563v0,242,-32,415,-98,518v-66,103,-178,154,-333,154v-147,0,-253,-46,-320,-138xm527,-1287v-58,0,-91,31,-111,89v-22,65,-26,423,-25,606r268,-424v-3,-86,-10,-147,-20,-182v-16,-59,-53,-89,-112,-89","w":1057},"\u00d9":{"d":"714,-1548r-291,-72v-45,-17,-73,-78,-52,-136v19,-50,100,-82,154,-42r228,162xm1002,-1259v-61,-2,-105,-1,-105,64r0,837v0,257,-129,386,-386,386v-263,-1,-385,-123,-386,-386r0,-831v-1,-56,-7,-72,-61,-70r-44,0r0,-164r500,0r0,164v-60,-2,-101,0,-101,64r0,851v2,142,25,208,154,208v114,0,153,-83,153,-208r0,-851v5,-63,-40,-67,-101,-64r0,-164r377,0r0,164","w":1020},"\u00da":{"d":"377,-1634r250,-174v86,-34,161,42,135,131v-9,32,-36,54,-70,62r-276,67xm1002,-1259v-61,-2,-105,-1,-105,64r0,837v0,257,-129,386,-386,386v-263,-1,-385,-123,-386,-386r0,-831v-1,-56,-7,-72,-61,-70r-44,0r0,-164r500,0r0,164v-60,-2,-101,0,-101,64r0,851v2,142,25,208,154,208v114,0,153,-83,153,-208r0,-851v5,-63,-40,-67,-101,-64r0,-164r377,0r0,164","w":1020},"\u00db":{"d":"668,-1755r223,219r-214,0r-118,-130r-132,130r-174,0r223,-219r192,0xm1002,-1259v-61,-2,-105,-1,-105,64r0,837v0,257,-129,386,-386,386v-263,-1,-385,-123,-386,-386r0,-831v-1,-56,-7,-72,-61,-70r-44,0r0,-164r500,0r0,164v-60,-2,-101,0,-101,64r0,851v2,142,25,208,154,208v114,0,153,-83,153,-208r0,-851v5,-63,-40,-67,-101,-64r0,-164r377,0r0,164","w":1020},"\u00dc":{"d":"256,-1667v0,-71,60,-132,131,-132v72,0,131,61,131,132v0,72,-60,131,-131,131v-72,0,-131,-60,-131,-131xm625,-1667v0,-71,60,-132,131,-132v72,0,131,61,131,132v0,72,-60,131,-131,131v-72,0,-131,-60,-131,-131xm1002,-1259v-61,-2,-105,-1,-105,64r0,837v0,257,-129,386,-386,386v-263,-1,-385,-123,-386,-386r0,-831v-1,-56,-7,-72,-61,-70r-44,0r0,-164r500,0r0,164v-60,-2,-101,0,-101,64r0,851v2,142,25,208,154,208v114,0,153,-83,153,-208r0,-851v5,-63,-40,-67,-101,-64r0,-164r377,0r0,164","w":1020},"\u00dd":{"d":"301,-1634r250,-174v86,-34,161,42,135,131v-9,32,-36,54,-70,62r-276,67xm232,-164v69,0,136,8,136,-64r0,-348r-245,-619v-20,-58,-31,-67,-104,-64r0,-164r504,0r0,164v-57,0,-120,-10,-95,64r134,399r130,-399v28,-66,-25,-66,-85,-64r0,-164r385,0r0,164v-36,1,-65,-5,-85,17v-11,12,-21,27,-28,47r-217,617r0,344v-9,85,61,68,136,70r0,164r-566,0r0,-164","w":1020},"\u00de":{"d":"49,-164v61,2,105,1,105,-64r0,-961v-1,-56,-7,-72,-61,-70r-44,0r0,-164r504,0r0,164v-61,-2,-105,-1,-105,64r0,78r78,0v347,6,477,72,477,402v0,334,-128,403,-477,409r-78,0r0,72v-9,85,61,68,136,70r0,164r-535,0r0,-164xm526,-470v147,-3,183,-83,183,-243v0,-160,-36,-236,-183,-240r-78,0r0,483r78,0","w":1020},"\u00df":{"d":"602,-1127v0,-97,-39,-160,-129,-160v-143,0,-143,88,-101,224v19,58,31,81,31,130r0,933r-360,0r0,-148v58,3,95,-2,95,-64r0,-721v-40,-353,9,-513,324,-518v214,-4,358,80,358,279v0,163,-115,247,-271,270v298,23,387,127,387,450v0,365,-94,444,-462,451r0,-152v181,-10,189,-114,189,-330v0,-108,-16,-190,-48,-246v-32,-56,-79,-84,-141,-84r0,-154v87,-6,128,-65,128,-160","w":1020},"\u00e0":{"d":"618,-1194r-258,-112v-52,-20,-81,-94,-45,-151v31,-50,115,-59,158,-15r198,199xm622,-131v-52,88,-153,159,-262,159v-169,0,-295,-106,-293,-271v0,-71,24,-128,67,-179v57,-67,238,-154,357,-210v66,-31,118,-87,112,-184v-6,-99,-72,-133,-183,-133v-63,0,-111,10,-144,30v94,-14,151,44,151,134v0,73,-80,136,-157,136v-105,0,-173,-72,-172,-179v3,-187,191,-281,402,-281v214,0,356,96,357,299r0,498v0,75,1,124,5,147v4,23,12,34,24,34v65,2,33,-101,41,-172r110,0v13,189,-42,325,-214,325v-105,0,-174,-62,-201,-153xm441,-132v164,-12,153,-241,151,-427r-4,4v-115,98,-183,164,-210,195v-60,69,-57,236,63,228","w":1057},"\u00e1":{"d":"334,-1272r216,-214v75,-51,168,18,156,106v-4,32,-28,59,-59,72r-260,114xm622,-131v-52,88,-153,159,-262,159v-169,0,-295,-106,-293,-271v0,-71,24,-128,67,-179v57,-67,238,-154,357,-210v66,-31,118,-87,112,-184v-6,-99,-72,-133,-183,-133v-63,0,-111,10,-144,30v94,-14,151,44,151,134v0,73,-80,136,-157,136v-105,0,-173,-72,-172,-179v3,-187,191,-281,402,-281v214,0,356,96,357,299r0,498v0,75,1,124,5,147v4,23,12,34,24,34v65,2,33,-101,41,-172r110,0v13,189,-42,325,-214,325v-105,0,-174,-62,-201,-153xm441,-132v164,-12,153,-241,151,-427r-4,4v-115,98,-183,164,-210,195v-60,69,-57,236,63,228","w":1057},"\u00e2":{"d":"582,-1413r222,219r-214,0r-117,-130r-131,130r-174,0r222,-219r192,0xm622,-131v-52,88,-153,159,-262,159v-169,0,-295,-106,-293,-271v0,-71,24,-128,67,-179v57,-67,238,-154,357,-210v66,-31,118,-87,112,-184v-6,-99,-72,-133,-183,-133v-63,0,-111,10,-144,30v94,-14,151,44,151,134v0,73,-80,136,-157,136v-105,0,-173,-72,-172,-179v3,-187,191,-281,402,-281v214,0,356,96,357,299r0,498v0,75,1,124,5,147v4,23,12,34,24,34v65,2,33,-101,41,-172r110,0v13,189,-42,325,-214,325v-105,0,-174,-62,-201,-153xm441,-132v164,-12,153,-241,151,-427r-4,4v-115,98,-183,164,-210,195v-60,69,-57,236,63,228","w":1057},"\u00e3":{"d":"339,-1288v-55,2,-74,41,-81,97r-142,-37v14,-117,90,-223,209,-223v104,0,197,75,300,95v58,-1,81,-41,89,-98r142,37v-19,133,-73,223,-209,223v-95,0,-113,-13,-193,-48v-68,-30,-106,-46,-115,-46xm622,-131v-52,88,-153,159,-262,159v-169,0,-295,-106,-293,-271v0,-71,24,-128,67,-179v57,-67,238,-154,357,-210v66,-31,118,-87,112,-184v-6,-99,-72,-133,-183,-133v-63,0,-111,10,-144,30v94,-14,151,44,151,134v0,73,-80,136,-157,136v-105,0,-173,-72,-172,-179v3,-187,191,-281,402,-281v214,0,356,96,357,299r0,498v0,75,1,124,5,147v4,23,12,34,24,34v65,2,33,-101,41,-172r110,0v13,189,-42,325,-214,325v-105,0,-174,-62,-201,-153xm441,-132v164,-12,153,-241,151,-427r-4,4v-115,98,-183,164,-210,195v-60,69,-57,236,63,228","w":1057},"\u00e4":{"d":"148,-1325v0,-71,60,-132,131,-132v72,0,131,61,131,132v0,72,-60,131,-131,131v-72,0,-131,-60,-131,-131xm561,-1325v0,-71,60,-132,131,-132v72,0,131,61,131,132v0,72,-60,131,-131,131v-72,0,-131,-60,-131,-131xm622,-131v-52,88,-153,159,-262,159v-169,0,-295,-106,-293,-271v0,-71,24,-128,67,-179v57,-67,238,-154,357,-210v66,-31,118,-87,112,-184v-6,-99,-72,-133,-183,-133v-63,0,-111,10,-144,30v94,-14,151,44,151,134v0,73,-80,136,-157,136v-105,0,-173,-72,-172,-179v3,-187,191,-281,402,-281v214,0,356,96,357,299r0,498v0,75,1,124,5,147v4,23,12,34,24,34v65,2,33,-101,41,-172r110,0v13,189,-42,325,-214,325v-105,0,-174,-62,-201,-153xm441,-132v164,-12,153,-241,151,-427r-4,4v-115,98,-183,164,-210,195v-60,69,-57,236,63,228","w":1057},"\u00e5":{"d":"486,-1194v-124,0,-226,-103,-226,-226v0,-124,103,-226,226,-226v124,0,226,103,226,226v0,124,-103,226,-226,226xm486,-1322v53,0,98,-45,98,-98v0,-53,-45,-98,-98,-98v-53,0,-98,45,-98,98v0,53,45,98,98,98xm622,-131v-52,88,-153,159,-262,159v-169,0,-295,-106,-293,-271v0,-71,24,-128,67,-179v57,-67,238,-154,357,-210v66,-31,118,-87,112,-184v-6,-99,-72,-133,-183,-133v-63,0,-111,10,-144,30v94,-14,151,44,151,134v0,73,-80,136,-157,136v-105,0,-173,-72,-172,-179v3,-187,191,-281,402,-281v214,0,356,96,357,299r0,498v0,75,1,124,5,147v4,23,12,34,24,34v65,2,33,-101,41,-172r110,0v13,189,-42,325,-214,325v-105,0,-174,-62,-201,-153xm441,-132v164,-12,153,-241,151,-427r-4,4v-115,98,-183,164,-210,195v-60,69,-57,236,63,228","w":1057},"\u00e6":{"d":"269,-915v88,-9,142,46,142,130v0,73,-87,131,-165,131v-101,0,-164,-71,-164,-174v0,-259,460,-376,646,-193v63,-59,144,-88,243,-88v292,0,368,268,353,600r-472,0v7,206,-17,377,157,377v130,0,157,-122,147,-279r168,0v9,279,-91,439,-353,439v-131,0,-230,-47,-296,-141v-69,84,-178,141,-308,141v-178,0,-317,-104,-316,-275v0,-71,24,-129,67,-179v57,-68,242,-155,362,-211v63,-29,111,-85,104,-176v-7,-94,-76,-138,-180,-138v-61,1,-106,10,-135,36xm443,-132v106,0,133,-141,133,-252r0,-172v-108,87,-180,150,-209,186v-29,36,-44,78,-44,125v-1,67,52,113,120,113xm1061,-657v-1,-109,-7,-182,-20,-221v-14,-45,-42,-67,-84,-67v-42,0,-70,32,-84,97v-8,39,-14,103,-19,191r207,0","w":1397},"\u00e7":{"d":"472,214v5,-46,-77,-45,-110,-40r-13,-64r130,-119r116,0r-110,96v108,0,178,30,181,127v5,193,-317,181,-449,106r37,-89v53,26,67,34,135,35v47,0,79,-13,83,-52xm676,-860v-19,-58,-76,-90,-155,-89v-68,0,-111,31,-141,87v-48,89,-40,559,-7,648v39,103,197,110,242,8v22,-51,36,-125,33,-226r158,0v5,284,-89,460,-350,460v-282,0,-387,-226,-387,-539v0,-195,35,-343,105,-445v70,-102,173,-153,307,-153v192,0,325,112,325,298v0,107,-62,199,-162,199v-84,0,-144,-49,-144,-131v0,-99,89,-161,176,-117","w":868},"\u00e8":{"d":"608,-1194r-258,-112v-52,-20,-81,-94,-45,-151v31,-50,115,-59,158,-15r198,199xm836,-411v9,279,-91,439,-353,439v-132,0,-228,-50,-297,-143v-127,-171,-132,-674,4,-847v74,-94,166,-147,293,-147v292,0,368,268,353,600r-483,0v2,140,14,237,35,291v23,57,66,86,130,86v133,0,160,-121,150,-279r168,0xm573,-657v-1,-109,-8,-182,-21,-221v-15,-45,-44,-67,-89,-67v-44,0,-73,27,-88,81v-11,39,-18,108,-21,207r219,0"},"\u00e9":{"d":"324,-1272r216,-214v75,-51,168,18,156,106v-4,32,-28,59,-59,72r-260,114xm836,-411v9,279,-91,439,-353,439v-132,0,-228,-50,-297,-143v-127,-171,-132,-674,4,-847v74,-94,166,-147,293,-147v292,0,368,268,353,600r-483,0v2,140,14,237,35,291v23,57,66,86,130,86v133,0,160,-121,150,-279r168,0xm573,-657v-1,-109,-8,-182,-21,-221v-15,-45,-44,-67,-89,-67v-44,0,-73,27,-88,81v-11,39,-18,108,-21,207r219,0"},"\u00ea":{"d":"572,-1413r222,219r-214,0r-117,-130r-131,130r-174,0r222,-219r192,0xm836,-411v9,279,-91,439,-353,439v-132,0,-228,-50,-297,-143v-127,-171,-132,-674,4,-847v74,-94,166,-147,293,-147v292,0,368,268,353,600r-483,0v2,140,14,237,35,291v23,57,66,86,130,86v133,0,160,-121,150,-279r168,0xm573,-657v-1,-109,-8,-182,-21,-221v-15,-45,-44,-67,-89,-67v-44,0,-73,27,-88,81v-11,39,-18,108,-21,207r219,0"},"\u00eb":{"d":"138,-1325v0,-71,60,-132,131,-132v72,0,131,61,131,132v0,72,-60,131,-131,131v-72,0,-131,-60,-131,-131xm551,-1325v0,-71,60,-132,131,-132v72,0,131,61,131,132v0,72,-60,131,-131,131v-72,0,-131,-60,-131,-131xm836,-411v9,279,-91,439,-353,439v-132,0,-228,-50,-297,-143v-127,-171,-132,-674,4,-847v74,-94,166,-147,293,-147v292,0,368,268,353,600r-483,0v2,140,14,237,35,291v23,57,66,86,130,86v133,0,160,-121,150,-279r168,0xm573,-657v-1,-109,-8,-182,-21,-221v-15,-45,-44,-67,-89,-67v-44,0,-73,27,-88,81v-11,39,-18,108,-21,207r219,0"},"\u0131":{"d":"34,-148v58,3,95,-2,95,-64r0,-657v6,-65,-35,-66,-95,-64r0,-148r360,0r0,869v-5,62,37,67,97,64r0,148r-457,0r0,-148","w":529},"\u00ec":{"d":"393,-1194r-258,-112v-52,-20,-81,-94,-45,-151v31,-50,115,-59,158,-15r198,199xm34,-148v58,3,95,-2,95,-64r0,-657v6,-65,-35,-66,-95,-64r0,-148r360,0r0,869v-5,62,37,67,97,64r0,148r-457,0r0,-148","w":529},"\u00ed":{"d":"109,-1272r216,-214v75,-51,168,18,156,106v-4,32,-28,59,-59,72r-260,114xm34,-148v58,3,95,-2,95,-64r0,-657v6,-65,-35,-66,-95,-64r0,-148r360,0r0,869v-5,62,37,67,97,64r0,148r-457,0r0,-148","w":529},"\u00ee":{"d":"345,-1413r222,219r-214,0r-117,-130r-131,130r-174,0r222,-219r192,0xm22,-148v58,3,95,-2,95,-64r0,-657v6,-65,-35,-66,-95,-64r0,-148r360,0r0,869v-5,62,37,67,97,64r0,148r-457,0r0,-148","w":529},"\u00ef":{"d":"-54,-1325v0,-71,60,-132,131,-132v72,0,131,61,131,132v0,72,-60,131,-131,131v-72,0,-131,-60,-131,-131xm359,-1325v0,-71,60,-132,131,-132v72,0,131,61,131,132v0,72,-60,131,-131,131v-72,0,-131,-60,-131,-131xm57,-148v58,3,95,-2,95,-64r0,-657v6,-65,-35,-66,-95,-64r0,-148r360,0r0,869v-5,62,37,67,97,64r0,148r-457,0r0,-148","w":529},"\u00f0":{"d":"648,-1283v160,165,214,376,216,721v1,220,-28,373,-86,460v-58,87,-159,130,-306,130v-306,0,-388,-206,-391,-544v-3,-366,118,-568,474,-530v-22,-55,-49,-100,-87,-145r-170,88r-45,-96r138,-71v-41,-36,-87,-68,-138,-97r140,-112v65,37,122,76,173,119r174,-90r45,96xm377,-813v-28,75,-27,528,1,601v19,50,47,76,94,76v47,0,76,-26,95,-76v29,-75,29,-527,0,-602v-19,-49,-48,-74,-95,-74v-47,0,-76,26,-95,75","w":944},"\u00f1":{"d":"362,-1288v-55,2,-74,41,-81,97r-142,-37v14,-117,90,-223,209,-223v104,0,197,75,300,95v58,-1,81,-41,89,-98r142,37v-19,133,-73,223,-209,223v-95,0,-113,-13,-193,-48v-68,-30,-106,-46,-115,-46xm34,-148v58,3,95,-2,95,-64r0,-657v6,-65,-35,-66,-95,-64r0,-148r360,0r0,133v67,-93,170,-161,280,-161v138,0,215,95,215,237r0,660v-5,62,37,67,97,64r0,148r-447,0r0,-148v56,3,85,-5,85,-64r0,-594v1,-53,-33,-95,-85,-94v-50,0,-87,24,-111,72v-24,48,-34,122,-34,219r0,397v-4,58,26,68,82,64r0,148r-442,0r0,-148","w":1020},"\u00f2":{"d":"604,-1194r-258,-112v-52,-20,-81,-94,-45,-151v31,-50,115,-59,158,-15r198,199xm472,-1109v309,0,392,218,392,564v1,199,-31,343,-94,435v-63,92,-162,138,-298,138v-135,0,-229,-50,-296,-138v-120,-157,-122,-707,0,-864v67,-87,161,-135,296,-135xm567,-218v29,-80,29,-567,0,-647v-19,-52,-48,-80,-95,-80v-47,0,-75,28,-94,80v-29,81,-28,568,0,647v19,53,47,82,94,82v47,0,76,-29,95,-82","w":944},"\u00f3":{"d":"320,-1272r216,-214v75,-51,168,18,156,106v-4,32,-28,59,-59,72r-260,114xm472,-1109v309,0,392,218,392,564v1,199,-31,343,-94,435v-63,92,-162,138,-298,138v-135,0,-229,-50,-296,-138v-120,-157,-122,-707,0,-864v67,-87,161,-135,296,-135xm567,-218v29,-80,29,-567,0,-647v-19,-52,-48,-80,-95,-80v-47,0,-75,28,-94,80v-29,81,-28,568,0,647v19,53,47,82,94,82v47,0,76,-29,95,-82","w":944},"\u00f4":{"d":"568,-1413r222,219r-214,0r-117,-130r-131,130r-174,0r222,-219r192,0xm472,-1109v309,0,392,218,392,564v1,199,-31,343,-94,435v-63,92,-162,138,-298,138v-135,0,-229,-50,-296,-138v-120,-157,-122,-707,0,-864v67,-87,161,-135,296,-135xm567,-218v29,-80,29,-567,0,-647v-19,-52,-48,-80,-95,-80v-47,0,-75,28,-94,80v-29,81,-28,568,0,647v19,53,47,82,94,82v47,0,76,-29,95,-82","w":944},"\u00f5":{"d":"325,-1288v-55,2,-74,41,-81,97r-142,-37v14,-117,90,-223,209,-223v104,0,197,75,300,95v58,-1,81,-41,89,-98r142,37v-19,133,-73,223,-209,223v-95,0,-113,-13,-193,-48v-68,-30,-106,-46,-115,-46xm472,-1109v309,0,392,218,392,564v1,199,-31,343,-94,435v-63,92,-162,138,-298,138v-135,0,-229,-50,-296,-138v-120,-157,-122,-707,0,-864v67,-87,161,-135,296,-135xm567,-218v29,-80,29,-567,0,-647v-19,-52,-48,-80,-95,-80v-47,0,-75,28,-94,80v-29,81,-28,568,0,647v19,53,47,82,94,82v47,0,76,-29,95,-82","w":944},"\u00f6":{"d":"134,-1325v0,-71,60,-132,131,-132v72,0,131,61,131,132v0,72,-60,131,-131,131v-72,0,-131,-60,-131,-131xm547,-1325v0,-71,60,-132,131,-132v72,0,131,61,131,132v0,72,-60,131,-131,131v-72,0,-131,-60,-131,-131xm472,-1109v309,0,392,218,392,564v1,199,-31,343,-94,435v-63,92,-162,138,-298,138v-135,0,-229,-50,-296,-138v-120,-157,-122,-707,0,-864v67,-87,161,-135,296,-135xm567,-218v29,-80,29,-567,0,-647v-19,-52,-48,-80,-95,-80v-47,0,-75,28,-94,80v-29,81,-28,568,0,647v19,53,47,82,94,82v47,0,76,-29,95,-82","w":944},"\u00f7":{"d":"553,-382v0,-69,57,-126,126,-126v69,0,126,57,126,126v0,69,-57,126,-126,126v-69,0,-126,-57,-126,-126xm110,-793r1138,0r0,162r-1138,0r0,-162xm553,-1042v0,-69,57,-126,126,-126v69,0,126,57,126,126v0,69,-57,126,-126,126v-69,0,-126,-57,-126,-126","w":1360},"\u00f8":{"d":"590,-643r-222,382v10,65,41,125,104,125v47,0,76,-29,95,-82v18,-53,27,-279,23,-425xm239,-39r-36,61r-117,0r83,-142v-119,-159,-112,-700,7,-854v67,-87,161,-135,296,-135v97,0,174,23,233,68r36,-62r117,0r-81,139v120,161,111,700,-7,854v-68,88,-162,138,-298,138v-95,0,-173,-23,-233,-67xm472,-945v-47,0,-76,28,-94,80v-18,52,-26,282,-23,425r222,-380v-9,-66,-42,-125,-105,-125","w":944},"\u00f9":{"d":"638,-1194r-258,-112v-52,-20,-81,-94,-45,-151v31,-50,115,-59,158,-15r198,199xm126,-869v6,-65,-35,-66,-95,-64r0,-148r360,0r0,767v-1,69,26,136,85,136v50,0,88,-24,112,-73v24,-49,33,-122,33,-220r0,-398v6,-65,-35,-66,-95,-64r0,-148r360,0r0,869v-5,62,37,67,97,64r0,148r-362,0r0,-145v-53,95,-152,179,-250,174v-198,-10,-245,-150,-245,-377r0,-521","w":1020},"\u00fa":{"d":"354,-1272r216,-214v75,-51,168,18,156,106v-4,32,-28,59,-59,72r-260,114xm126,-869v6,-65,-35,-66,-95,-64r0,-148r360,0r0,767v-1,69,26,136,85,136v50,0,88,-24,112,-73v24,-49,33,-122,33,-220r0,-398v6,-65,-35,-66,-95,-64r0,-148r360,0r0,869v-5,62,37,67,97,64r0,148r-362,0r0,-145v-53,95,-152,179,-250,174v-198,-10,-245,-150,-245,-377r0,-521","w":1020},"\u00fb":{"d":"602,-1413r222,219r-214,0r-117,-130r-131,130r-174,0r222,-219r192,0xm126,-869v6,-65,-35,-66,-95,-64r0,-148r360,0r0,767v-1,69,26,136,85,136v50,0,88,-24,112,-73v24,-49,33,-122,33,-220r0,-398v6,-65,-35,-66,-95,-64r0,-148r360,0r0,869v-5,62,37,67,97,64r0,148r-362,0r0,-145v-53,95,-152,179,-250,174v-198,-10,-245,-150,-245,-377r0,-521","w":1020},"\u00fc":{"d":"168,-1325v0,-71,60,-132,131,-132v72,0,131,61,131,132v0,72,-60,131,-131,131v-72,0,-131,-60,-131,-131xm581,-1325v0,-71,60,-132,131,-132v72,0,131,61,131,132v0,72,-60,131,-131,131v-72,0,-131,-60,-131,-131xm126,-869v6,-65,-35,-66,-95,-64r0,-148r360,0r0,767v-1,69,26,136,85,136v50,0,88,-24,112,-73v24,-49,33,-122,33,-220r0,-398v6,-65,-35,-66,-95,-64r0,-148r360,0r0,869v-5,62,37,67,97,64r0,148r-362,0r0,-145v-53,95,-152,179,-250,174v-198,-10,-245,-150,-245,-377r0,-521","w":1020},"\u00fd":{"d":"373,-1272r216,-214v75,-51,168,18,156,106v-4,32,-28,59,-59,72r-260,114xm197,229v37,36,109,20,143,-23v35,-44,65,-143,88,-215r-280,-847v-18,-60,-45,-83,-121,-77r0,-148r473,0r0,148v-28,0,-66,-2,-74,15v-5,10,-5,26,2,49r118,458r135,-458v24,-70,-34,-65,-96,-64r0,-148r344,0r0,148v-61,-5,-70,26,-86,77r-292,930v-48,160,-114,276,-288,281v-129,4,-212,-74,-219,-193v-5,-89,60,-164,146,-164v67,0,123,50,122,116v-1,80,-34,115,-115,115","w":944},"\u00fe":{"d":"47,179v58,3,95,-2,95,-64r0,-1326v-1,-44,-4,-64,-43,-64r-52,0r0,-148r360,0r0,454v59,-93,130,-140,213,-140v99,0,170,47,224,135v106,171,91,676,4,847v-52,102,-120,155,-215,155v-95,0,-170,-34,-226,-102r0,189v-4,61,36,67,95,64r0,148r-455,0r0,-148xm541,-156v42,0,70,-30,89,-87v32,-96,31,-497,-2,-594v-38,-112,-142,-117,-185,-5v-33,86,-33,246,-34,378v0,111,11,190,31,237v20,47,54,71,101,71","w":982},"\u00ff":{"d":"187,-1325v0,-71,60,-132,131,-132v72,0,131,61,131,132v0,72,-60,131,-131,131v-72,0,-131,-60,-131,-131xm600,-1325v0,-71,60,-132,131,-132v72,0,131,61,131,132v0,72,-60,131,-131,131v-72,0,-131,-60,-131,-131xm197,229v37,36,109,20,143,-23v35,-44,65,-143,88,-215r-280,-847v-18,-60,-45,-83,-121,-77r0,-148r473,0r0,148v-28,0,-66,-2,-74,15v-5,10,-5,26,2,49r118,458r135,-458v24,-70,-34,-65,-96,-64r0,-148r344,0r0,148v-61,-5,-70,26,-86,77r-292,930v-48,160,-114,276,-288,281v-129,4,-212,-74,-219,-193v-5,-89,60,-164,146,-164v67,0,123,50,122,116v-1,80,-34,115,-115,115","w":944},"\u0100":{"d":"293,-1663r508,0r0,121r-508,0r0,-121xm64,-164v35,-1,53,-31,61,-64r280,-1195r285,0r249,1195v13,49,10,62,61,64r47,0r0,164r-501,0r0,-164v58,1,114,8,101,-64r-34,-185r-274,0r-40,185v-20,68,36,65,98,64r0,164r-382,0r0,-164r49,0xm488,-1096r-114,519r208,0","w":1057},"\u0101":{"d":"256,-1309r460,0r0,121r-460,0r0,-121xm622,-131v-52,88,-153,159,-262,159v-169,0,-295,-106,-293,-271v0,-71,24,-128,67,-179v57,-67,238,-154,357,-210v66,-31,118,-87,112,-184v-6,-99,-72,-133,-183,-133v-63,0,-111,10,-144,30v94,-14,151,44,151,134v0,73,-80,136,-157,136v-105,0,-173,-72,-172,-179v3,-187,191,-281,402,-281v214,0,356,96,357,299r0,498v0,75,1,124,5,147v4,23,12,34,24,34v65,2,33,-101,41,-172r110,0v13,189,-42,325,-214,325v-105,0,-174,-62,-201,-153xm441,-132v164,-12,153,-241,151,-427r-4,4v-115,98,-183,164,-210,195v-60,69,-57,236,63,228","w":1057},"\u0102":{"d":"865,-1826v-4,202,-109,290,-318,290v-209,0,-313,-88,-317,-290r167,0v7,106,40,143,150,143v111,0,144,-36,151,-143r167,0xm64,-164v35,-1,53,-31,61,-64r280,-1195r285,0r249,1195v13,49,10,62,61,64r47,0r0,164r-501,0r0,-164v58,1,114,8,101,-64r-34,-185r-274,0r-40,185v-20,68,36,65,98,64r0,164r-382,0r0,-164r49,0xm488,-1096r-114,519r208,0","w":1057},"\u0103":{"d":"804,-1484v-4,202,-109,290,-318,290v-209,0,-313,-88,-317,-290r167,0v7,106,40,143,150,143v111,0,144,-36,151,-143r167,0xm622,-131v-52,88,-153,159,-262,159v-169,0,-295,-106,-293,-271v0,-71,24,-128,67,-179v57,-67,238,-154,357,-210v66,-31,118,-87,112,-184v-6,-99,-72,-133,-183,-133v-63,0,-111,10,-144,30v94,-14,151,44,151,134v0,73,-80,136,-157,136v-105,0,-173,-72,-172,-179v3,-187,191,-281,402,-281v214,0,356,96,357,299r0,498v0,75,1,124,5,147v4,23,12,34,24,34v65,2,33,-101,41,-172r110,0v13,189,-42,325,-214,325v-105,0,-174,-62,-201,-153xm441,-132v164,-12,153,-241,151,-427r-4,4v-115,98,-183,164,-210,195v-60,69,-57,236,63,228","w":1057},"\u0104":{"d":"700,337v-134,2,-230,-63,-230,-189v0,-131,130,-211,262,-231r31,74v-81,21,-127,39,-130,124v-2,65,52,106,120,105v57,0,116,-17,156,-39r40,80v-57,41,-157,76,-249,76xm64,-164v35,-1,53,-31,61,-64r280,-1195r285,0r249,1195v13,49,10,62,61,64r47,0r0,164r-501,0r0,-164v58,1,114,8,101,-64r-34,-185r-274,0r-40,185v-20,68,36,65,98,64r0,164r-382,0r0,-164r49,0xm488,-1096r-114,519r208,0","w":1057},"\u0105":{"d":"826,337v-130,1,-222,-65,-222,-189v0,-128,126,-209,252,-231r31,74v-75,22,-118,42,-120,124v-2,63,48,106,113,105v55,0,110,-18,147,-39r40,80v-53,41,-151,76,-241,76xm622,-131v-52,88,-153,159,-262,159v-169,0,-295,-106,-293,-271v0,-71,24,-128,67,-179v57,-67,238,-154,357,-210v66,-31,118,-87,112,-184v-6,-99,-72,-133,-183,-133v-63,0,-111,10,-144,30v94,-14,151,44,151,134v0,73,-80,136,-157,136v-105,0,-173,-72,-172,-179v3,-187,191,-281,402,-281v214,0,356,96,357,299r0,498v0,75,1,124,5,147v4,23,12,34,24,34v65,2,33,-101,41,-172r110,0v13,189,-42,325,-214,325v-105,0,-174,-62,-201,-153xm441,-132v164,-12,153,-241,151,-427r-4,4v-115,98,-183,164,-210,195v-60,69,-57,236,63,228","w":1057},"\u0106":{"d":"339,-1634r250,-174v86,-34,161,42,135,131v-9,32,-36,54,-70,62r-276,67xm518,-1451v98,0,176,47,224,140r46,-112r108,0r0,548r-139,0v-2,-146,-17,-251,-47,-315v-30,-64,-77,-97,-142,-97v-73,0,-115,38,-142,109v-41,106,-40,830,1,932v29,71,73,110,148,110v73,0,123,-37,151,-110v28,-73,38,-190,28,-352r142,0v10,221,-13,380,-70,478v-57,98,-153,148,-290,148v-158,0,-271,-51,-338,-154v-67,-103,-101,-276,-101,-518v0,-275,35,-478,104,-610v69,-132,174,-197,317,-197","w":982},"\u0107":{"d":"329,-1272r216,-214v75,-51,168,18,156,106v-4,32,-28,59,-59,72r-260,114xm676,-860v-19,-58,-76,-90,-155,-89v-68,0,-111,31,-141,87v-48,89,-40,559,-7,648v39,103,197,110,242,8v22,-51,36,-125,33,-226r158,0v5,284,-89,460,-350,460v-282,0,-387,-226,-387,-539v0,-195,35,-343,105,-445v70,-102,173,-153,307,-153v192,0,325,112,325,298v0,107,-62,199,-162,199v-84,0,-144,-49,-144,-131v0,-99,89,-161,176,-117","w":868},"\u010c":{"d":"438,-1537r-223,-219r214,0r118,130r132,-130r174,0r-223,219r-192,0xm518,-1451v98,0,176,47,224,140r46,-112r108,0r0,548r-139,0v-2,-146,-17,-251,-47,-315v-30,-64,-77,-97,-142,-97v-73,0,-115,38,-142,109v-41,106,-40,830,1,932v29,71,73,110,148,110v73,0,123,-37,151,-110v28,-73,38,-190,28,-352r142,0v10,221,-13,380,-70,478v-57,98,-153,148,-290,148v-158,0,-271,-51,-338,-154v-67,-103,-101,-276,-101,-518v0,-275,35,-478,104,-610v69,-132,174,-197,317,-197","w":982},"\u010d":{"d":"391,-1195r-222,-219r214,0r117,130r131,-130r174,0r-222,219r-192,0xm676,-860v-19,-58,-76,-90,-155,-89v-68,0,-111,31,-141,87v-48,89,-40,559,-7,648v39,103,197,110,242,8v22,-51,36,-125,33,-226r158,0v5,284,-89,460,-350,460v-282,0,-387,-226,-387,-539v0,-195,35,-343,105,-445v70,-102,173,-153,307,-153v192,0,325,112,325,298v0,107,-62,199,-162,199v-84,0,-144,-49,-144,-131v0,-99,89,-161,176,-117","w":868},"\u010e":{"d":"396,-1537r-223,-219r214,0r118,130r132,-130r174,0r-223,219r-192,0xm50,-164v61,2,105,1,105,-64r0,-919v-3,-76,2,-109,-61,-112r-44,0r0,-164r525,0v149,0,252,59,324,166v127,190,124,899,3,1089v-70,109,-169,168,-314,168r-538,0r0,-164xm449,-164v112,6,181,-22,217,-102v43,-95,44,-797,-2,-892v-36,-74,-104,-107,-215,-101r0,1095","w":1057},"\u010f":{"d":"1082,-1346v-62,0,-95,-22,-95,-83v-1,-52,46,-94,99,-94v57,0,101,57,98,118v-6,108,-79,181,-158,239r-45,-62v54,-43,82,-62,101,-118xm868,-212v-5,62,35,67,94,64r0,148r-359,0r0,-94v-49,81,-122,121,-219,122v-97,0,-167,-46,-220,-134v-106,-174,-91,-679,2,-848v56,-102,129,-155,228,-155v90,0,160,32,209,98r0,-200v-1,-44,-4,-64,-43,-64r-52,0r0,-148r360,0r0,1211xm484,-925v-46,0,-76,30,-98,86v-36,91,-33,519,-2,603v19,52,50,80,99,80v42,0,72,-26,95,-78v35,-78,34,-252,33,-383v0,-111,-10,-190,-29,-237v-19,-47,-52,-71,-98,-71","w":1208},"\u0110":{"d":"155,-1147v-3,-76,2,-109,-61,-112r-44,0r0,-164r525,0v149,0,252,59,324,166v127,190,124,899,3,1089v-70,109,-169,168,-314,168r-538,0r0,-164v61,2,105,1,105,-64r0,-402r-105,0r0,-164r105,0r0,-353xm449,-1259r0,465r114,0r0,164r-114,0r0,466v112,6,181,-22,217,-102v43,-95,44,-797,-2,-892v-36,-74,-104,-107,-215,-101","w":1057},"\u0111":{"d":"600,-109v-47,85,-124,137,-224,137v-94,0,-162,-50,-214,-145v-94,-173,-97,-672,6,-839v57,-93,131,-142,233,-142v81,0,148,27,199,77r0,-114r-217,0r0,-75r217,-1v-1,-44,-4,-64,-43,-64r-52,0r0,-148r360,0r0,213r100,0r0,75r-100,0r0,923v-5,62,37,67,97,64r0,148r-362,0r0,-109xm483,-914v-46,0,-75,29,-97,84v-35,89,-33,513,-2,596v19,52,49,78,98,78v41,0,71,-27,94,-78v35,-77,33,-247,32,-377v0,-109,-9,-187,-28,-233v-19,-46,-52,-70,-97,-70","w":982},"\u0112":{"d":"277,-1663r508,0r0,121r-508,0r0,-121xm616,-164v213,4,235,-141,230,-366r139,0r0,530r-931,0r0,-164v61,2,105,1,105,-64r0,-961v-1,-56,-7,-72,-61,-70r-44,0r0,-164r931,0r0,482r-139,0v6,-203,-27,-322,-224,-316r-169,0r0,433r84,0v98,7,74,-109,77,-200r139,0r0,559r-139,0v-3,-89,20,-203,-77,-195r-84,0r0,496r163,0","w":1057},"\u0113":{"d":"246,-1309r460,0r0,121r-460,0r0,-121xm836,-411v9,279,-91,439,-353,439v-132,0,-228,-50,-297,-143v-127,-171,-132,-674,4,-847v74,-94,166,-147,293,-147v292,0,368,268,353,600r-483,0v2,140,14,237,35,291v23,57,66,86,130,86v133,0,160,-121,150,-279r168,0xm573,-657v-1,-109,-8,-182,-21,-221v-15,-45,-44,-67,-89,-67v-44,0,-73,27,-88,81v-11,39,-18,108,-21,207r219,0"},"\u0116":{"d":"404,-1669v0,-69,58,-127,127,-127v69,0,127,58,127,127v0,69,-58,127,-127,127v-69,0,-127,-58,-127,-127xm616,-164v213,4,235,-141,230,-366r139,0r0,530r-931,0r0,-164v61,2,105,1,105,-64r0,-961v-1,-56,-7,-72,-61,-70r-44,0r0,-164r931,0r0,482r-139,0v6,-203,-27,-322,-224,-316r-169,0r0,433r84,0v98,7,74,-109,77,-200r139,0r0,559r-139,0v-3,-89,20,-203,-77,-195r-84,0r0,496r163,0","w":1057},"\u0117":{"d":"345,-1319v0,-71,60,-132,131,-132v72,0,131,61,131,132v0,72,-60,131,-131,131v-72,0,-131,-60,-131,-131xm836,-411v9,279,-91,439,-353,439v-132,0,-228,-50,-297,-143v-127,-171,-132,-674,4,-847v74,-94,166,-147,293,-147v292,0,368,268,353,600r-483,0v2,140,14,237,35,291v23,57,66,86,130,86v133,0,160,-121,150,-279r168,0xm573,-657v-1,-109,-8,-182,-21,-221v-15,-45,-44,-67,-89,-67v-44,0,-73,27,-88,81v-11,39,-18,108,-21,207r219,0"},"\u0118":{"d":"874,337v-134,2,-230,-63,-230,-189v0,-131,130,-211,262,-231r31,74v-81,21,-127,39,-130,124v-2,65,52,106,120,105v57,0,116,-17,156,-39r40,80v-57,41,-157,76,-249,76xm616,-164v213,4,235,-141,230,-366r139,0r0,530r-931,0r0,-164v61,2,105,1,105,-64r0,-961v-1,-56,-7,-72,-61,-70r-44,0r0,-164r931,0r0,482r-139,0v6,-203,-27,-322,-224,-316r-169,0r0,433r84,0v98,7,74,-109,77,-200r139,0r0,559r-139,0v-3,-89,20,-203,-77,-195r-84,0r0,496r163,0","w":1057},"\u0119":{"d":"584,337v-130,1,-222,-65,-222,-189v0,-128,126,-209,252,-231r31,74v-75,22,-118,42,-120,124v-2,63,48,106,113,105v55,0,110,-18,147,-39r40,80v-53,41,-151,76,-241,76xm836,-411v9,279,-91,439,-353,439v-132,0,-228,-50,-297,-143v-127,-171,-132,-674,4,-847v74,-94,166,-147,293,-147v292,0,368,268,353,600r-483,0v2,140,14,237,35,291v23,57,66,86,130,86v133,0,160,-121,150,-279r168,0xm573,-657v-1,-109,-8,-182,-21,-221v-15,-45,-44,-67,-89,-67v-44,0,-73,27,-88,81v-11,39,-18,108,-21,207r219,0"},"\u011a":{"d":"435,-1537r-223,-219r214,0r118,130r132,-130r174,0r-223,219r-192,0xm616,-164v213,4,235,-141,230,-366r139,0r0,530r-931,0r0,-164v61,2,105,1,105,-64r0,-961v-1,-56,-7,-72,-61,-70r-44,0r0,-164r931,0r0,482r-139,0v6,-203,-27,-322,-224,-316r-169,0r0,433r84,0v98,7,74,-109,77,-200r139,0r0,559r-139,0v-3,-89,20,-203,-77,-195r-84,0r0,496r163,0","w":1057},"\u011b":{"d":"386,-1195r-222,-219r214,0r117,130r131,-130r174,0r-222,219r-192,0xm836,-411v9,279,-91,439,-353,439v-132,0,-228,-50,-297,-143v-127,-171,-132,-674,4,-847v74,-94,166,-147,293,-147v292,0,368,268,353,600r-483,0v2,140,14,237,35,291v23,57,66,86,130,86v133,0,160,-121,150,-279r168,0xm573,-657v-1,-109,-8,-182,-21,-221v-15,-45,-44,-67,-89,-67v-44,0,-73,27,-88,81v-11,39,-18,108,-21,207r219,0"},"\u011e":{"d":"842,-1826v-4,202,-109,290,-318,290v-209,0,-313,-88,-317,-290r167,0v7,106,40,143,150,143v111,0,144,-36,151,-143r167,0xm1046,-562v-72,-5,-105,7,-105,83r0,479r-147,0r-44,-107v-53,89,-134,135,-245,135v-147,0,-252,-51,-315,-154v-63,-103,-95,-276,-95,-518v0,-291,33,-498,99,-622v66,-124,176,-185,330,-185v108,-1,195,51,243,146r49,-118r108,0r0,541r-139,0v-9,-136,-31,-237,-67,-304v-36,-67,-88,-101,-153,-101v-67,0,-105,44,-137,123v-46,116,-39,839,-13,933v24,90,137,133,193,43v33,-52,42,-126,39,-213v-5,-110,3,-158,-88,-161r-63,0r0,-164r550,0r0,164","w":1057},"\u011f":{"d":"769,-1484v-4,202,-109,290,-318,290v-209,0,-313,-88,-317,-290r167,0v7,106,40,143,150,143v111,0,144,-36,151,-143r167,0xm303,-351v-29,5,-59,29,-59,59v0,81,66,78,172,78r201,0v216,0,351,73,351,273v0,230,-196,296,-461,296v-154,0,-270,-17,-347,-51v-77,-34,-115,-84,-115,-152v0,-93,72,-141,164,-154v-79,-35,-144,-113,-144,-203v0,-87,67,-176,135,-198v-73,-57,-104,-152,-105,-290v-2,-252,116,-415,356,-416v94,0,170,22,228,67v26,-79,100,-137,196,-137v111,0,173,79,173,194v0,87,-36,142,-118,143v-67,0,-100,-40,-100,-108v0,-71,29,-99,101,-99v-67,-69,-170,9,-158,104v9,71,37,136,35,221v-5,264,-100,388,-357,390v-56,1,-105,-5,-148,-17xm536,-915v-34,-77,-135,-77,-170,-2v-29,64,-29,335,-2,396v32,72,140,72,172,-5v29,-70,31,-319,0,-389xm328,32v-52,-5,-104,34,-104,83v0,37,24,63,71,82v84,35,344,35,425,-3v46,-22,71,-50,71,-91v0,-25,-12,-43,-37,-51v-95,-29,-305,-8,-426,-20","w":1057},"\u0122":{"d":"505,308v-62,0,-95,-22,-95,-83v-1,-52,46,-94,99,-94v57,0,101,57,98,118v-6,108,-79,181,-158,239r-45,-62v54,-43,82,-62,101,-118xm1046,-562v-72,-5,-105,7,-105,83r0,479r-147,0r-44,-107v-53,89,-134,135,-245,135v-147,0,-252,-51,-315,-154v-63,-103,-95,-276,-95,-518v0,-291,33,-498,99,-622v66,-124,176,-185,330,-185v108,-1,195,51,243,146r49,-118r108,0r0,541r-139,0v-9,-136,-31,-237,-67,-304v-36,-67,-88,-101,-153,-101v-67,0,-105,44,-137,123v-46,116,-39,839,-13,933v24,90,137,133,193,43v33,-52,42,-126,39,-213v-5,-110,3,-158,-88,-161r-63,0r0,-164r550,0r0,164","w":1057},"\u0123":{"d":"451,-1371v62,0,95,22,95,83v1,52,-46,94,-99,94v-57,0,-101,-57,-98,-118v6,-108,79,-181,158,-239r45,62v-54,43,-82,62,-101,118xm303,-351v-29,5,-59,29,-59,59v0,81,66,78,172,78r201,0v216,0,351,73,351,273v0,230,-196,296,-461,296v-154,0,-270,-17,-347,-51v-77,-34,-115,-84,-115,-152v0,-93,72,-141,164,-154v-79,-35,-144,-113,-144,-203v0,-87,67,-176,135,-198v-73,-57,-104,-152,-105,-290v-2,-252,116,-415,356,-416v94,0,170,22,228,67v26,-79,100,-137,196,-137v111,0,173,79,173,194v0,87,-36,142,-118,143v-67,0,-100,-40,-100,-108v0,-71,29,-99,101,-99v-67,-69,-170,9,-158,104v9,71,37,136,35,221v-5,264,-100,388,-357,390v-56,1,-105,-5,-148,-17xm536,-915v-34,-77,-135,-77,-170,-2v-29,64,-29,335,-2,396v32,72,140,72,172,-5v29,-70,31,-319,0,-389xm328,32v-52,-5,-104,34,-104,83v0,37,24,63,71,82v84,35,344,35,425,-3v46,-22,71,-50,71,-91v0,-25,-12,-43,-37,-51v-95,-29,-305,-8,-426,-20","w":1057},"\u012a":{"d":"52,-1663r508,0r0,121r-508,0r0,-121xm54,-164v61,2,105,1,105,-64r0,-961v-1,-56,-7,-72,-61,-70r-44,0r0,-164r504,0r0,164v-61,-2,-105,-4,-105,64r0,961v1,56,7,72,61,70r44,0r0,164r-504,0r0,-164","w":604},"\u012b":{"d":"34,-1309r460,0r0,121r-460,0r0,-121xm37,-148v58,3,95,-2,95,-64r0,-657v6,-65,-35,-66,-95,-64r0,-148r360,0r0,869v-5,62,37,67,97,64r0,148r-457,0r0,-148","w":529},"\u012e":{"d":"401,337v-134,2,-230,-63,-230,-189v0,-131,130,-211,262,-231r31,74v-81,21,-127,39,-130,124v-2,65,52,106,120,105v57,0,116,-17,156,-39r40,80v-57,41,-157,76,-249,76xm52,-164v61,2,105,1,105,-64r0,-961v-1,-56,-7,-72,-61,-70r-44,0r0,-164r504,0r0,164v-61,-2,-105,-4,-105,64r0,961v1,56,7,72,61,70r44,0r0,164r-504,0r0,-164","w":604},"\u012f":{"d":"357,337v-130,1,-222,-65,-222,-189v0,-128,126,-209,252,-231r31,74v-75,22,-118,42,-120,124v-2,63,48,106,113,105v55,0,110,-18,147,-39r40,80v-53,41,-151,76,-241,76xm34,-148v58,3,95,-2,95,-64r0,-657v6,-65,-35,-66,-95,-64r0,-148r360,0r0,869v-5,62,37,67,97,64r0,148r-457,0r0,-148xm88,-1293v0,-86,72,-158,159,-158v87,0,159,72,159,158v0,86,-72,157,-159,157v-87,0,-159,-71,-159,-157","w":529},"\u0130":{"d":"177,-1669v0,-69,58,-127,127,-127v69,0,127,58,127,127v0,69,-58,127,-127,127v-69,0,-127,-58,-127,-127xm52,-164v61,2,105,1,105,-64r0,-961v-1,-56,-7,-72,-61,-70r-44,0r0,-164r504,0r0,164v-61,-2,-105,-4,-105,64r0,961v1,56,7,72,61,70r44,0r0,164r-504,0r0,-164","w":604},"\u0136":{"d":"621,308v-62,0,-95,-22,-95,-83v-1,-52,46,-94,99,-94v57,0,101,57,98,118v-6,108,-79,181,-158,239r-45,-62v54,-43,82,-62,101,-118xm23,-164v61,2,105,1,105,-64r0,-961v-1,-56,-7,-72,-61,-70r-44,0r0,-164r504,0r0,164v-61,-2,-105,-1,-105,64r0,486r301,-493v29,-47,6,-56,-50,-57r-40,0r0,-164r433,0r0,164v-65,-3,-122,0,-148,44r-216,360r314,627v28,51,28,67,97,64r0,164r-484,0r0,-164v59,2,118,7,85,-64r-170,-365r-122,205r0,160v-5,65,43,66,105,64r0,164r-504,0r0,-164","w":1133},"\u0137":{"d":"552,308v-62,0,-95,-22,-95,-83v-1,-52,46,-94,99,-94v57,0,101,57,98,118v-6,108,-79,181,-158,239r-45,-62v54,-43,82,-62,101,-118xm26,-148v58,3,95,-2,95,-64r0,-999v6,-65,-35,-66,-95,-64r0,-148r360,0r0,875r218,-309v33,-49,44,-74,-26,-76r-53,0r0,-148r427,0r0,148v-81,-4,-128,9,-164,57r-145,194r246,457v30,47,36,81,102,77r0,148r-426,0r0,-148v24,0,59,4,63,-14v2,-10,-2,-27,-14,-50r-129,-259r-99,133v8,75,-31,196,58,190r39,0r0,148r-457,0r0,-148","w":1020},"\u0139":{"d":"194,-1634r250,-174v86,-34,161,42,135,131v-9,32,-36,54,-70,62r-276,67xm551,-164v162,-2,205,-70,207,-238r0,-128r139,0r0,530r-849,0r0,-164v61,2,105,1,105,-64r0,-961v-1,-56,-7,-72,-61,-70r-44,0r0,-164r532,0r0,164v-69,0,-133,-7,-133,64r0,1031r104,0","w":944},"\u013a":{"d":"81,-1634r250,-174v86,-34,161,42,135,131v-9,32,-36,54,-70,62r-276,67xm49,-148v58,3,95,-2,95,-64r0,-999v-1,-44,-4,-64,-43,-64r-52,0r0,-148r360,0r0,1211v-5,62,37,67,97,64r0,148r-457,0r0,-148","w":529},"\u013b":{"d":"525,308v-62,0,-95,-22,-95,-83v-1,-52,46,-94,99,-94v57,0,101,57,98,118v-6,108,-79,181,-158,239r-45,-62v54,-43,82,-62,101,-118xm551,-164v162,-2,205,-70,207,-238r0,-128r139,0r0,530r-849,0r0,-164v61,2,105,1,105,-64r0,-961v-1,-56,-7,-72,-61,-70r-44,0r0,-164r532,0r0,164v-69,0,-133,-7,-133,64r0,1031r104,0","w":944},"\u013c":{"d":"276,308v-62,0,-95,-22,-95,-83v-1,-52,46,-94,99,-94v57,0,101,57,98,118v-6,108,-79,181,-158,239r-45,-62v54,-43,82,-62,101,-118xm49,-148v58,3,95,-2,95,-64r0,-999v-1,-44,-4,-64,-43,-64r-52,0r0,-148r360,0r0,1211v-5,62,37,67,97,64r0,148r-457,0r0,-148","w":529},"\u013d":{"d":"766,-1246v-62,0,-95,-22,-95,-83v-1,-52,46,-94,99,-94v57,0,101,57,98,118v-6,108,-79,181,-158,239r-45,-62v54,-43,82,-62,101,-118xm551,-164v162,-2,205,-70,207,-238r0,-128r139,0r0,530r-849,0r0,-164v61,2,105,1,105,-64r0,-961v-1,-56,-7,-72,-61,-70r-44,0r0,-164r532,0r0,164v-69,0,-133,-7,-133,64r0,1031r104,0","w":944},"\u013e":{"d":"594,-1346v-62,0,-95,-22,-95,-83v-1,-52,46,-94,99,-94v57,0,101,57,98,118v-6,108,-79,181,-158,239r-45,-62v54,-43,82,-62,101,-118xm49,-148v58,3,95,-2,95,-64r0,-999v-1,-44,-4,-64,-43,-64r-52,0r0,-148r360,0r0,1211v-5,62,37,67,97,64r0,148r-457,0r0,-148","w":755},"\u0141":{"d":"555,-164v162,-2,205,-70,207,-238r0,-128r139,0r0,530r-849,0r0,-164v61,2,105,1,105,-64r0,-282r-133,114r0,-215r133,-114r0,-464v-1,-56,-7,-72,-61,-70r-44,0r0,-164r532,0r0,164v-69,0,-133,-7,-133,64r0,218r133,-114r0,215r-133,114r0,598r104,0","w":944},"\u0142":{"d":"46,-148v58,3,95,-2,95,-64r0,-268r-115,148r0,-263r115,-148r0,-468v-1,-44,-4,-64,-43,-64r-52,0r0,-148r360,0r0,339r113,-146r0,263r-113,146r0,609v-5,62,37,67,97,64r0,148r-457,0r0,-148","w":529},"\u0143":{"d":"422,-1634r250,-174v86,-34,161,42,135,131v-9,32,-36,54,-70,62r-276,67xm1091,-1259v-61,-2,-105,-1,-105,64r0,1195r-253,0r-400,-992r0,764v-5,65,43,66,105,64r0,164r-381,0r0,-164v61,2,105,1,105,-64r0,-967v5,-65,-43,-66,-105,-64r0,-164r399,0r359,943r0,-715v5,-65,-43,-66,-105,-64r0,-164r381,0r0,164","w":1133},"\u0144":{"d":"357,-1272r216,-214v75,-51,168,18,156,106v-4,32,-28,59,-59,72r-260,114xm34,-148v58,3,95,-2,95,-64r0,-657v6,-65,-35,-66,-95,-64r0,-148r360,0r0,133v67,-93,170,-161,280,-161v138,0,215,95,215,237r0,660v-5,62,37,67,97,64r0,148r-447,0r0,-148v56,3,85,-5,85,-64r0,-594v1,-53,-33,-95,-85,-94v-50,0,-87,24,-111,72v-24,48,-34,122,-34,219r0,397v-4,58,26,68,82,64r0,148r-442,0r0,-148","w":1020},"\u0145":{"d":"574,308v-62,0,-95,-22,-95,-83v-1,-52,46,-94,99,-94v57,0,101,57,98,118v-6,108,-79,181,-158,239r-45,-62v54,-43,82,-62,101,-118xm1091,-1259v-61,-2,-105,-1,-105,64r0,1195r-253,0r-400,-992r0,764v-5,65,43,66,105,64r0,164r-381,0r0,-164v61,2,105,1,105,-64r0,-967v5,-65,-43,-66,-105,-64r0,-164r399,0r359,943r0,-715v5,-65,-43,-66,-105,-64r0,-164r381,0r0,164","w":1133},"\u0146":{"d":"509,308v-62,0,-95,-22,-95,-83v-1,-52,46,-94,99,-94v57,0,101,57,98,118v-6,108,-79,181,-158,239r-45,-62v54,-43,82,-62,101,-118xm34,-148v58,3,95,-2,95,-64r0,-657v6,-65,-35,-66,-95,-64r0,-148r360,0r0,133v67,-93,170,-161,280,-161v138,0,215,95,215,237r0,660v-5,62,37,67,97,64r0,148r-447,0r0,-148v56,3,85,-5,85,-64r0,-594v1,-53,-33,-95,-85,-94v-50,0,-87,24,-111,72v-24,48,-34,122,-34,219r0,397v-4,58,26,68,82,64r0,148r-442,0r0,-148","w":1020},"\u0147":{"d":"478,-1537r-223,-219r214,0r118,130r132,-130r174,0r-223,219r-192,0xm1091,-1259v-61,-2,-105,-1,-105,64r0,1195r-253,0r-400,-992r0,764v-5,65,43,66,105,64r0,164r-381,0r0,-164v61,2,105,1,105,-64r0,-967v5,-65,-43,-66,-105,-64r0,-164r399,0r359,943r0,-715v5,-65,-43,-66,-105,-64r0,-164r381,0r0,164","w":1133},"\u0148":{"d":"419,-1195r-222,-219r214,0r117,130r131,-130r174,0r-222,219r-192,0xm34,-148v58,3,95,-2,95,-64r0,-657v6,-65,-35,-66,-95,-64r0,-148r360,0r0,133v67,-93,170,-161,280,-161v138,0,215,95,215,237r0,660v-5,62,37,67,97,64r0,148r-447,0r0,-148v56,3,85,-5,85,-64r0,-594v1,-53,-33,-95,-85,-94v-50,0,-87,24,-111,72v-24,48,-34,122,-34,219r0,397v-4,58,26,68,82,64r0,148r-442,0r0,-148","w":1020},"\u014c":{"d":"274,-1663r508,0r0,121r-508,0r0,-121xm198,-123v-66,-101,-99,-269,-100,-506r0,-177v1,-223,35,-387,104,-490v69,-103,177,-155,326,-155v153,0,259,54,331,152v88,119,100,411,100,670v0,237,-33,405,-99,506v-66,101,-177,151,-332,151v-155,0,-264,-50,-330,-151xm640,-224v35,-135,37,-838,0,-976v-15,-58,-53,-87,-112,-87v-58,0,-96,29,-112,87v-37,137,-36,840,0,976v16,59,54,88,112,88v59,0,96,-29,112,-88","w":1057},"\u014d":{"d":"242,-1309r460,0r0,121r-460,0r0,-121xm472,-1109v309,0,392,218,392,564v1,199,-31,343,-94,435v-63,92,-162,138,-298,138v-135,0,-229,-50,-296,-138v-120,-157,-122,-707,0,-864v67,-87,161,-135,296,-135xm567,-218v29,-80,29,-567,0,-647v-19,-52,-48,-80,-95,-80v-47,0,-75,28,-94,80v-29,81,-28,568,0,647v19,53,47,82,94,82v47,0,76,-29,95,-82","w":944},"\u0150":{"d":"242,-1611r205,-199v37,-42,115,-32,144,16v34,56,12,119,-37,141r-261,117xm619,-1611r205,-199v37,-42,114,-31,144,16v34,54,12,119,-37,141r-261,117xm198,-123v-66,-101,-99,-269,-100,-506r0,-177v1,-223,35,-387,104,-490v69,-103,177,-155,326,-155v153,0,259,54,331,152v88,119,100,411,100,670v0,237,-33,405,-99,506v-66,101,-177,151,-332,151v-155,0,-264,-50,-330,-151xm640,-224v35,-135,37,-838,0,-976v-15,-58,-53,-87,-112,-87v-58,0,-96,29,-112,87v-37,137,-36,840,0,976v16,59,54,88,112,88v59,0,96,-29,112,-88","w":1057},"\u0151":{"d":"210,-1264r216,-214v76,-54,168,24,156,106v-5,32,-28,58,-59,72r-260,114xm579,-1264r216,-214v75,-51,168,18,156,106v-4,32,-28,59,-59,72r-260,114xm472,-1109v309,0,392,218,392,564v1,199,-31,343,-94,435v-63,92,-162,138,-298,138v-135,0,-229,-50,-296,-138v-120,-157,-122,-707,0,-864v67,-87,161,-135,296,-135xm567,-218v29,-80,29,-567,0,-647v-19,-52,-48,-80,-95,-80v-47,0,-75,28,-94,80v-29,81,-28,568,0,647v19,53,47,82,94,82v47,0,76,-29,95,-82","w":944},"\u0152":{"d":"1180,-164v213,4,235,-141,230,-366r139,0r0,530r-817,0r0,-64v-56,61,-132,92,-229,92v-147,0,-252,-58,-315,-172v-63,-114,-95,-305,-95,-574v0,-264,33,-452,97,-565v63,-112,170,-168,320,-168v93,0,167,30,222,89r0,-61r817,0r0,482r-139,0v6,-203,-27,-322,-224,-316r-160,0r0,433r70,0v98,7,74,-109,77,-200r139,0r0,559r-139,0v-3,-89,20,-203,-77,-195r-70,0r0,496r154,0xm524,-1287v-58,0,-91,36,-112,103v-29,94,-28,853,0,944v21,68,54,104,112,104v59,0,93,-36,114,-104v28,-92,29,-850,0,-944v-21,-67,-55,-103,-114,-103","w":1624},"\u0153":{"d":"1342,-411v9,279,-91,439,-353,439v-117,0,-208,-38,-273,-113v-63,76,-154,113,-273,113v-131,0,-223,-50,-288,-138v-116,-158,-118,-706,0,-864v65,-87,157,-135,288,-135v123,0,215,39,276,116v67,-77,157,-116,270,-116v292,0,368,268,353,600r-483,0v2,140,14,237,35,291v23,57,66,86,130,86v133,0,160,-121,150,-279r168,0xm464,-945v-51,0,-82,28,-102,80v-31,81,-30,568,0,647v20,53,51,82,102,82v51,0,82,-29,102,-82v30,-80,31,-567,0,-647v-20,-52,-51,-80,-102,-80xm1079,-657v-1,-109,-8,-182,-21,-221v-15,-45,-44,-67,-89,-67v-44,0,-73,27,-88,81v-11,39,-18,108,-21,207r219,0","w":1397},"\u0154":{"d":"397,-1634r250,-174v86,-34,161,42,135,131v-9,32,-36,54,-70,62r-276,67xm43,-164v61,2,105,1,105,-64r0,-961v-1,-56,-7,-72,-61,-70r-44,0r0,-164r552,0v270,0,407,110,407,372v0,236,-91,337,-299,369v138,33,207,121,228,272r16,140v7,55,15,92,21,108v12,38,66,29,75,-8v5,-22,10,-70,10,-143r113,0v-1,207,-60,335,-249,335v-207,0,-252,-84,-269,-292v-12,-153,23,-353,-139,-345r-67,0r0,387v1,40,5,64,40,64r65,0r0,164r-504,0r0,-164xm708,-1021v0,-159,-40,-235,-187,-238r-79,0r0,480r79,0v147,-3,187,-82,187,-242","w":1171},"\u0155":{"d":"230,-1272r216,-214v75,-51,168,18,156,106v-4,32,-28,59,-59,72r-260,114xm44,-148v58,3,95,-2,95,-64r0,-657v6,-65,-35,-66,-95,-64r0,-148r326,0r0,92v40,-74,104,-120,187,-120v129,0,206,91,206,223v0,101,-52,177,-147,177v-76,1,-127,-50,-127,-126v0,-87,66,-148,152,-119v-13,-25,-38,-42,-72,-41v-64,0,-109,28,-132,85v-55,135,-25,485,-33,698v-3,74,73,63,145,64r0,148r-505,0r0,-148","w":755},"\u0156":{"d":"618,308v-62,0,-95,-22,-95,-83v-1,-52,46,-94,99,-94v57,0,101,57,98,118v-6,108,-79,181,-158,239r-45,-62v54,-43,82,-62,101,-118xm43,-164v61,2,105,1,105,-64r0,-961v-1,-56,-7,-72,-61,-70r-44,0r0,-164r552,0v270,0,407,110,407,372v0,236,-91,337,-299,369v138,33,207,121,228,272r16,140v7,55,15,92,21,108v12,38,66,29,75,-8v5,-22,10,-70,10,-143r113,0v-1,207,-60,335,-249,335v-207,0,-252,-84,-269,-292v-12,-153,23,-353,-139,-345r-67,0r0,387v1,40,5,64,40,64r65,0r0,164r-504,0r0,-164xm708,-1021v0,-159,-40,-235,-187,-238r-79,0r0,480r79,0v147,-3,187,-82,187,-242","w":1171},"\u0157":{"d":"271,308v-62,0,-95,-22,-95,-83v-1,-52,46,-94,99,-94v57,0,101,57,98,118v-6,108,-79,181,-158,239r-45,-62v54,-43,82,-62,101,-118xm44,-148v58,3,95,-2,95,-64r0,-657v6,-65,-35,-66,-95,-64r0,-148r326,0r0,92v40,-74,104,-120,187,-120v129,0,206,91,206,223v0,101,-52,177,-147,177v-76,1,-127,-50,-127,-126v0,-87,66,-148,152,-119v-13,-25,-38,-42,-72,-41v-64,0,-109,28,-132,85v-55,135,-25,485,-33,698v-3,74,73,63,145,64r0,148r-505,0r0,-148","w":755},"\u0158":{"d":"496,-1537r-223,-219r214,0r118,130r132,-130r174,0r-223,219r-192,0xm43,-164v61,2,105,1,105,-64r0,-961v-1,-56,-7,-72,-61,-70r-44,0r0,-164r552,0v270,0,407,110,407,372v0,236,-91,337,-299,369v138,33,207,121,228,272r16,140v7,55,15,92,21,108v12,38,66,29,75,-8v5,-22,10,-70,10,-143r113,0v-1,207,-60,335,-249,335v-207,0,-252,-84,-269,-292v-12,-153,23,-353,-139,-345r-67,0r0,387v1,40,5,64,40,64r65,0r0,164r-504,0r0,-164xm708,-1021v0,-159,-40,-235,-187,-238r-79,0r0,480r79,0v147,-3,187,-82,187,-242","w":1171},"\u0159":{"d":"349,-1195r-222,-219r214,0r117,130r131,-130r174,0r-222,219r-192,0xm44,-148v58,3,95,-2,95,-64r0,-657v6,-65,-35,-66,-95,-64r0,-148r326,0r0,92v40,-74,104,-120,187,-120v129,0,206,91,206,223v0,101,-52,177,-147,177v-76,1,-127,-50,-127,-126v0,-87,66,-148,152,-119v-13,-25,-38,-42,-72,-41v-64,0,-109,28,-132,85v-55,135,-25,485,-33,698v-3,74,73,63,145,64r0,148r-505,0r0,-148","w":755},"\u015a":{"d":"289,-1634r250,-174v86,-34,161,42,135,131v-9,32,-36,54,-70,62r-276,67xm79,-1066v0,-229,137,-387,362,-385v112,0,196,38,253,115r24,-87r132,0r0,527r-139,0v-6,-125,-32,-222,-79,-290v-47,-68,-110,-101,-191,-101v-76,-1,-128,72,-128,152v0,36,21,75,62,118v41,42,107,92,198,149v121,77,207,153,258,229v51,76,76,165,76,267v0,237,-141,400,-373,400v-125,0,-220,-47,-285,-142r-31,114r-139,0r0,-569r139,0v16,145,50,253,102,325v52,72,124,108,214,108v86,0,147,-77,147,-167v0,-49,-21,-99,-64,-148v-43,-49,-111,-104,-204,-163v-121,-77,-207,-150,-258,-219v-51,-69,-76,-146,-76,-233","w":944},"\u015b":{"d":"227,-1272r216,-214v75,-51,168,18,156,106v-4,32,-28,59,-59,72r-260,114xm379,-1109v90,1,167,37,220,111r48,-83r105,0r0,389r-132,0v-19,-77,-48,-138,-87,-184v-39,-46,-83,-69,-132,-69v-70,-1,-119,35,-119,102v0,27,17,54,52,82v35,27,87,55,156,84v112,47,192,99,240,156v48,57,72,130,72,217v0,192,-124,332,-313,332v-113,0,-206,-48,-267,-132r-43,104r-105,0r0,-432r129,0v39,162,116,290,286,296v69,2,112,-43,111,-113v0,-29,-18,-59,-54,-89v-35,-30,-89,-60,-160,-89v-112,-47,-192,-98,-240,-153v-48,-55,-72,-125,-72,-209v0,-186,122,-322,305,-320","w":868},"\u015e":{"d":"538,214v0,-28,-30,-43,-61,-42v-30,0,-47,1,-50,2r-13,-64r130,-119r116,0r-109,96v108,0,178,30,181,127v5,193,-318,181,-451,106r37,-89v53,26,67,34,136,35v47,0,84,-12,84,-52xm79,-1066v0,-229,137,-387,362,-385v112,0,196,38,253,115r24,-87r132,0r0,527r-139,0v-6,-125,-32,-222,-79,-290v-47,-68,-110,-101,-191,-101v-76,-1,-128,72,-128,152v0,36,21,75,62,118v41,42,107,92,198,149v121,77,207,153,258,229v51,76,76,165,76,267v0,237,-141,400,-373,400v-125,0,-220,-47,-285,-142r-31,114r-139,0r0,-569r139,0v16,145,50,253,102,325v52,72,124,108,214,108v86,0,147,-77,147,-167v0,-49,-21,-99,-64,-148v-43,-49,-111,-104,-204,-163v-121,-77,-207,-150,-258,-219v-51,-69,-76,-146,-76,-233","w":944},"\u015f":{"d":"447,214v5,-46,-77,-45,-110,-40r-13,-64r130,-119r116,0r-110,96v108,0,178,30,181,127v5,193,-317,181,-449,106r37,-89v53,26,67,34,135,35v47,0,79,-13,83,-52xm379,-1109v90,1,167,37,220,111r48,-83r105,0r0,389r-132,0v-19,-77,-48,-138,-87,-184v-39,-46,-83,-69,-132,-69v-70,-1,-119,35,-119,102v0,27,17,54,52,82v35,27,87,55,156,84v112,47,192,99,240,156v48,57,72,130,72,217v0,192,-124,332,-313,332v-113,0,-206,-48,-267,-132r-43,104r-105,0r0,-432r129,0v39,162,116,290,286,296v69,2,112,-43,111,-113v0,-29,-18,-59,-54,-89v-35,-30,-89,-60,-160,-89v-112,-47,-192,-98,-240,-153v-48,-55,-72,-125,-72,-209v0,-186,122,-322,305,-320","w":868},"\u0160":{"d":"345,-1537r-223,-219r214,0r118,130r132,-130r174,0r-223,219r-192,0xm79,-1066v0,-229,137,-387,362,-385v112,0,196,38,253,115r24,-87r132,0r0,527r-139,0v-6,-125,-32,-222,-79,-290v-47,-68,-110,-101,-191,-101v-76,-1,-128,72,-128,152v0,36,21,75,62,118v41,42,107,92,198,149v121,77,207,153,258,229v51,76,76,165,76,267v0,237,-141,400,-373,400v-125,0,-220,-47,-285,-142r-31,114r-139,0r0,-569r139,0v16,145,50,253,102,325v52,72,124,108,214,108v86,0,147,-77,147,-167v0,-49,-21,-99,-64,-148v-43,-49,-111,-104,-204,-163v-121,-77,-207,-150,-258,-219v-51,-69,-76,-146,-76,-233","w":944},"\u0161":{"d":"346,-1195r-222,-219r214,0r117,130r131,-130r174,0r-222,219r-192,0xm379,-1109v90,1,167,37,220,111r48,-83r105,0r0,389r-132,0v-19,-77,-48,-138,-87,-184v-39,-46,-83,-69,-132,-69v-70,-1,-119,35,-119,102v0,27,17,54,52,82v35,27,87,55,156,84v112,47,192,99,240,156v48,57,72,130,72,217v0,192,-124,332,-313,332v-113,0,-206,-48,-267,-132r-43,104r-105,0r0,-432r129,0v39,162,116,290,286,296v69,2,112,-43,111,-113v0,-29,-18,-59,-54,-89v-35,-30,-89,-60,-160,-89v-112,-47,-192,-98,-240,-153v-48,-55,-72,-125,-72,-209v0,-186,122,-322,305,-320","w":868},"\u0162":{"d":"531,214v0,-28,-30,-43,-61,-42v-30,0,-47,1,-50,2r-13,-64r130,-119r116,0r-109,96v108,0,178,30,181,127v5,193,-318,181,-451,106r37,-89v53,26,68,34,137,35v47,0,83,-12,83,-52xm231,-164v70,-2,149,18,149,-64r0,-1029v-174,6,-192,117,-196,318r0,80r-139,0r0,-564r964,0r0,564r-139,0r0,-80v-4,-202,-22,-311,-196,-318r0,1023v2,64,21,71,89,70r65,0r0,164r-597,0r0,-164","w":1057},"\u0163":{"d":"340,214v5,-46,-77,-45,-110,-40r-13,-64r130,-119r116,0r-110,96v108,0,178,30,181,127v5,193,-317,181,-449,106r37,-89v53,26,67,34,135,35v47,0,79,-13,83,-52xm399,22v-186,0,-259,-78,-259,-267r0,-689r-104,0r0,-147v173,-20,209,-80,221,-259r148,0r0,259r195,0r0,147r-195,0r0,674v3,75,-3,125,51,129v82,6,54,-113,60,-199r123,0r0,76v-2,191,-56,276,-240,276","w":642},"\u0164":{"d":"431,-1537r-223,-219r214,0r118,130r132,-130r174,0r-223,219r-192,0xm231,-164v70,-2,149,18,149,-64r0,-1029v-174,6,-192,117,-196,318r0,80r-139,0r0,-564r964,0r0,564r-139,0r0,-80v-4,-202,-22,-311,-196,-318r0,1023v2,64,21,71,89,70r65,0r0,164r-597,0r0,-164","w":1057},"\u0165":{"d":"579,-1325v-62,0,-95,-22,-95,-83v-1,-52,46,-94,99,-94v57,0,101,57,98,118v-6,108,-79,181,-158,239r-45,-62v54,-43,82,-62,101,-118xm399,22v-186,0,-259,-78,-259,-267r0,-689r-104,0r0,-147v173,-20,209,-80,221,-259r148,0r0,259r195,0r0,147r-195,0r0,674v3,75,-3,125,51,129v82,6,54,-113,60,-199r123,0r0,76v-2,191,-56,276,-240,276","w":718},"\u016a":{"d":"318,-1663r508,0r0,121r-508,0r0,-121xm1002,-1259v-61,-2,-105,-1,-105,64r0,837v0,257,-129,386,-386,386v-263,-1,-385,-123,-386,-386r0,-831v-1,-56,-7,-72,-61,-70r-44,0r0,-164r500,0r0,164v-60,-2,-101,0,-101,64r0,851v2,142,25,208,154,208v114,0,153,-83,153,-208r0,-851v5,-63,-40,-67,-101,-64r0,-164r377,0r0,164","w":1020},"\u016b":{"d":"276,-1309r460,0r0,121r-460,0r0,-121xm126,-869v6,-65,-35,-66,-95,-64r0,-148r360,0r0,767v-1,69,26,136,85,136v50,0,88,-24,112,-73v24,-49,33,-122,33,-220r0,-398v6,-65,-35,-66,-95,-64r0,-148r360,0r0,869v-5,62,37,67,97,64r0,148r-362,0r0,-145v-53,95,-152,179,-250,174v-198,-10,-245,-150,-245,-377r0,-521","w":1020},"\u016e":{"d":"572,-1552v-110,0,-203,-93,-203,-203v0,-111,92,-204,203,-204v112,0,204,92,204,204v0,111,-93,203,-204,203xm572,-1680v42,0,76,-33,76,-75v0,-42,-34,-76,-76,-76v-42,0,-75,34,-75,76v0,42,33,75,75,75xm1002,-1259v-61,-2,-105,-1,-105,64r0,837v0,257,-129,386,-386,386v-263,-1,-385,-123,-386,-386r0,-831v-1,-56,-7,-72,-61,-70r-44,0r0,-164r500,0r0,164v-60,-2,-101,0,-101,64r0,851v2,142,25,208,154,208v114,0,153,-83,153,-208r0,-851v5,-63,-40,-67,-101,-64r0,-164r377,0r0,164","w":1020},"\u016f":{"d":"506,-1194v-124,0,-226,-103,-226,-226v0,-124,103,-226,226,-226v124,0,226,103,226,226v0,124,-103,226,-226,226xm506,-1322v53,0,98,-45,98,-98v0,-53,-45,-98,-98,-98v-53,0,-98,45,-98,98v0,53,45,98,98,98xm126,-869v6,-65,-35,-66,-95,-64r0,-148r360,0r0,767v-1,69,26,136,85,136v50,0,88,-24,112,-73v24,-49,33,-122,33,-220r0,-398v6,-65,-35,-66,-95,-64r0,-148r360,0r0,869v-5,62,37,67,97,64r0,148r-362,0r0,-145v-53,95,-152,179,-250,174v-198,-10,-245,-150,-245,-377r0,-521","w":1020},"\u0170":{"d":"286,-1611r205,-199v37,-42,115,-32,144,16v34,56,12,119,-37,141r-261,117xm663,-1611r205,-199v37,-42,114,-31,144,16v34,54,12,119,-37,141r-261,117xm1002,-1259v-61,-2,-105,-1,-105,64r0,837v0,257,-129,386,-386,386v-263,-1,-385,-123,-386,-386r0,-831v-1,-56,-7,-72,-61,-70r-44,0r0,-164r500,0r0,164v-60,-2,-101,0,-101,64r0,851v2,142,25,208,154,208v114,0,153,-83,153,-208r0,-851v5,-63,-40,-67,-101,-64r0,-164r377,0r0,164","w":1020},"\u0171":{"d":"244,-1264r216,-214v76,-54,168,24,156,106v-5,32,-28,58,-59,72r-260,114xm613,-1264r216,-214v75,-51,168,18,156,106v-4,32,-28,59,-59,72r-260,114xm126,-869v6,-65,-35,-66,-95,-64r0,-148r360,0r0,767v-1,69,26,136,85,136v50,0,88,-24,112,-73v24,-49,33,-122,33,-220r0,-398v6,-65,-35,-66,-95,-64r0,-148r360,0r0,869v-5,62,37,67,97,64r0,148r-362,0r0,-145v-53,95,-152,179,-250,174v-198,-10,-245,-150,-245,-377r0,-521","w":1020},"\u0172":{"d":"634,337v-134,2,-230,-63,-230,-189v0,-131,130,-211,262,-231r31,74v-81,21,-127,39,-130,124v-2,65,52,106,120,105v57,0,116,-17,156,-39r40,80v-57,41,-157,76,-249,76xm1002,-1259v-61,-2,-105,-1,-105,64r0,837v0,257,-129,386,-386,386v-263,-1,-385,-123,-386,-386r0,-831v-1,-56,-7,-72,-61,-70r-44,0r0,-164r500,0r0,164v-60,-2,-101,0,-101,64r0,851v2,142,25,208,154,208v114,0,153,-83,153,-208r0,-851v5,-63,-40,-67,-101,-64r0,-164r377,0r0,164","w":1020},"\u0173":{"d":"727,337v-130,1,-222,-65,-222,-189v0,-128,126,-209,252,-231r31,74v-75,22,-118,42,-120,124v-2,63,48,106,113,105v55,0,110,-18,147,-39r40,80v-53,41,-151,76,-241,76xm126,-869v6,-65,-35,-66,-95,-64r0,-148r360,0r0,767v-1,69,26,136,85,136v50,0,88,-24,112,-73v24,-49,33,-122,33,-220r0,-398v6,-65,-35,-66,-95,-64r0,-148r360,0r0,869v-5,62,37,67,97,64r0,148r-362,0r0,-145v-53,95,-152,179,-250,174v-198,-10,-245,-150,-245,-377r0,-521","w":1020},"\u0178":{"d":"180,-1667v0,-71,60,-132,131,-132v72,0,131,61,131,132v0,72,-60,131,-131,131v-72,0,-131,-60,-131,-131xm549,-1667v0,-71,60,-132,131,-132v72,0,131,61,131,132v0,72,-60,131,-131,131v-72,0,-131,-60,-131,-131xm232,-164v69,0,136,8,136,-64r0,-348r-245,-619v-20,-58,-31,-67,-104,-64r0,-164r504,0r0,164v-57,0,-120,-10,-95,64r134,399r130,-399v28,-66,-25,-66,-85,-64r0,-164r385,0r0,164v-36,1,-65,-5,-85,17v-11,12,-21,27,-28,47r-217,617r0,344v-9,85,61,68,136,70r0,164r-566,0r0,-164","w":1020},"\u0179":{"d":"335,-1634r250,-174v86,-34,161,42,135,131v-9,32,-36,54,-70,62r-276,67xm534,-164v187,-4,227,-93,230,-294r0,-126r139,0r0,584r-872,0r0,-157r575,-1100r-210,0v-161,5,-189,91,-192,270r0,116r-139,0r0,-552r845,0r0,151r-579,1108r203,0","w":944},"\u017a":{"d":"250,-1272r216,-214v75,-51,168,18,156,106v-4,32,-28,59,-59,72r-260,114xm427,-148v157,-6,184,-93,198,-261r131,0r0,409r-725,0r0,-141r451,-792r-106,0v-152,3,-188,73,-198,229r-131,0r0,-377r710,0r0,125r-436,808r106,0","w":793},"\u017b":{"d":"360,-1669v0,-69,58,-127,127,-127v69,0,127,58,127,127v0,69,-58,127,-127,127v-69,0,-127,-58,-127,-127xm534,-164v187,-4,227,-93,230,-294r0,-126r139,0r0,584r-872,0r0,-157r575,-1100r-210,0v-161,5,-189,91,-192,270r0,116r-139,0r0,-552r845,0r0,151r-579,1108r203,0","w":944},"\u017c":{"d":"271,-1319v0,-71,60,