/*!
 * The following copyright notice may not be removed under any circumstances.
 * 
 * Copyright:
 * Copyright (c) 2009 Dave Crossland <dave@lab6.com>
 * 
 * Designer:
 * Dave Crossland
 * 
 * Vendor URL:
 * http://abattis.org
 */
Cufon.registerFont({"w":634,"face":{"font-family":"sans-serif","font-weight":500,"font-stretch":"normal","units-per-em":"1000","panose-1":"2 0 6 3 0 0 0 0 0 0","ascent":"739","descent":"-261","x-height":"10","bbox":"-7 -943 1028 264","underline-thickness":"56.6406","underline-position":"-113.77","unicode-range":"U+0020-U+2122"},"glyphs":{" ":{"w":273},"!":{"d":"110,-98r98,0r0,98r-98,0r0,-98xm117,-694r83,0r0,470r-83,0r0,-470","w":317},"\"":{"d":"244,-738r90,0r0,209r-90,0r0,-209xm54,-738r90,0r0,209r-90,0r0,-209","w":388},"#":{"d":"177,-694r78,0r0,191r175,0r0,-191r78,0r0,191r155,0r0,73r-155,0r0,172r155,0r0,73r-155,0r0,200r-78,0r0,-200r-175,0r0,200r-78,0r0,-200r-154,0r0,-73r154,0r0,-172r-155,0r0,-73r155,0r0,-191xm255,-430r0,172r175,0r0,-172r-175,0","w":684},"$":{"d":"134,-417v-42,-100,41,-179,136,-188r0,-133r59,0r0,127v63,0,78,6,129,20r-20,61v-44,-12,-83,-18,-116,-18v-62,0,-111,16,-116,71v10,59,87,63,139,84v64,26,140,49,140,132v0,93,-66,136,-156,148r0,145r-59,0r0,-142v-46,0,-99,-12,-159,-36r22,-61v52,21,78,33,137,34v70,1,124,-14,127,-78v-16,-77,-127,-67,-187,-102v-30,-18,-63,-32,-76,-64","w":585},"%":{"d":"223,-532v-1,-51,-16,-87,-64,-87v-44,0,-63,32,-63,85v0,54,15,95,64,95v43,0,64,-37,63,-93xm48,-534v0,-76,46,-132,112,-132v76,0,110,53,111,133v2,77,-42,139,-112,139v-74,0,-111,-54,-111,-140xm544,-170v-1,-51,-16,-87,-64,-87v-43,0,-63,33,-63,85v0,53,15,94,64,94v44,0,64,-35,63,-92xm370,-172v0,-75,44,-132,111,-132v76,0,111,51,111,133v0,78,-42,139,-112,139v-74,0,-110,-53,-110,-140xm515,-694r83,0r-473,694r-83,0","w":648},"&":{"d":"147,-548v-4,-95,96,-155,198,-155v126,0,208,116,131,216v-31,40,-85,82,-121,110r170,181r158,-172r46,46r-158,175r138,147r-99,0r-94,-98v-63,62,-131,119,-254,121v-102,2,-177,-63,-174,-161v4,-126,86,-180,158,-238v-56,-57,-96,-95,-99,-172xm408,-509v46,-53,-2,-124,-71,-124v-73,0,-140,74,-91,138v17,22,47,51,64,70v32,-28,70,-52,98,-84xm178,-207v-41,96,52,184,158,151v57,-18,94,-55,133,-90r-176,-182v-45,39,-91,66,-115,121","w":775},"'":{"d":"54,-738r90,0r0,209r-90,0r0,-209","w":197},"(":{"d":"260,199v-91,-154,-188,-371,-138,-618v27,-132,80,-238,137,-337r64,34v-67,114,-130,268,-130,442v0,172,63,325,130,438","w":362},")":{"d":"169,-280v0,-173,-63,-328,-130,-442r65,-34v91,153,188,368,136,614v-27,133,-79,243,-138,341r-63,-41v67,-114,130,-265,130,-438","w":362},"*":{"d":"250,-694r83,0r-8,156r130,-86r41,73r-139,69r139,70r-41,73r-130,-86r8,155r-83,0r9,-155r-130,86r-41,-73r139,-70r-139,-69r41,-73r130,86","w":583},"+":{"d":"306,-602r72,0r0,247r245,0r0,67r-245,0r0,247r-72,0r0,-247r-245,0r0,-67r245,0r0,-247","w":683},",":{"d":"98,-83r88,0r-78,190r-87,0","w":278},"-":{"d":"85,-355r420,0r0,67r-420,0r0,-67","w":590},".":{"d":"88,-103r102,0r0,103r-102,0r0,-103","w":278},"\/":{"d":"262,-694r83,0r-242,738r-83,0","w":354},"0":{"d":"499,-353v0,-149,-47,-275,-182,-275v-171,0,-205,216,-169,388v20,98,66,165,170,177v138,-15,181,-137,181,-290xm63,-246v-44,-264,71,-512,322,-447v131,34,196,163,196,339v0,181,-61,317,-195,354v-183,50,-295,-81,-323,-246"},"1":{"d":"290,-694r96,0r0,621r161,0r0,73r-404,0r0,-73r163,0r0,-541r-153,60r-31,-71"},"2":{"d":"440,-458v51,-89,-50,-169,-142,-169v-47,0,-107,13,-182,40r-24,-64v75,-32,148,-48,221,-48v145,0,275,108,213,246v-57,126,-202,171,-272,290v-17,29,-32,58,-43,90r342,0r0,73r-443,0r0,-45v50,-171,174,-269,292,-369v17,-14,29,-29,38,-44"},"3":{"d":"422,-524v0,-63,-64,-103,-136,-103v-48,0,-100,14,-159,41r-27,-66v67,-33,132,-50,196,-50v109,0,210,63,210,164v0,77,-47,137,-107,158v83,22,136,74,137,167v3,219,-259,285,-450,197r23,-67v68,19,121,28,159,28v92,2,188,-53,184,-140v-5,-109,-103,-137,-222,-139r0,-71v102,-2,192,-27,192,-119"},"4":{"d":"339,-694r116,0r0,453r121,0r0,73r-121,0r0,168r-80,0r0,-168r-316,0r0,-55xm375,-615r-221,374r221,0r0,-374"},"5":{"d":"469,-213v0,-159,-176,-165,-354,-139r0,-342r418,0r0,73r-339,0r0,190v191,-27,362,26,362,209v0,163,-120,229,-293,232v-60,0,-120,-6,-179,-17r16,-74v150,31,369,31,369,-132"},"6":{"d":"83,-282v-1,-280,130,-442,420,-414r-6,72v-193,-18,-309,61,-324,236v33,-39,91,-66,160,-67v124,-2,220,94,217,220v-4,145,-95,247,-240,247v-166,0,-226,-121,-227,-294xm470,-227v0,-90,-71,-160,-156,-160v-84,0,-150,69,-150,155v0,87,70,176,155,176v83,0,151,-85,151,-171"},"7":{"d":"64,-694r507,0r0,52r-324,642r-97,0r319,-616r-405,0r0,-78"},"8":{"d":"413,-469v73,-67,-5,-177,-99,-164v-96,-10,-165,112,-80,170v32,22,64,35,107,47v33,-21,47,-29,72,-53xm324,-63v102,0,182,-84,142,-182v-26,-64,-92,-89,-163,-109v-75,20,-145,76,-145,156v0,78,78,135,166,135xm112,-536v0,-101,91,-167,202,-167v125,0,208,54,208,169v0,76,-44,107,-98,147v80,35,138,90,138,187v0,133,-100,210,-242,210v-133,0,-247,-70,-247,-200v0,-91,67,-165,139,-196v-55,-29,-100,-73,-100,-150"},"9":{"d":"83,-468v0,-127,111,-241,242,-236v165,6,225,123,226,296v2,278,-131,439,-420,412r6,-72v179,19,303,-51,316,-215v1,-10,3,-22,5,-37v-34,37,-91,64,-157,64v-120,3,-218,-92,-218,-212xm470,-470v-3,-89,-66,-161,-156,-165v-76,-3,-150,81,-150,159v0,81,74,152,155,152v80,0,154,-67,151,-146"},":":{"d":"88,-103r102,0r0,103r-102,0r0,-103xm88,-485r102,0r0,103r-102,0r0,-103","w":278},";":{"d":"98,-83r88,0r-78,190r-87,0xm88,-485r102,0r0,103r-102,0r0,-103","w":278},"<":{"d":"475,-551r0,76r-341,172r341,164r0,80r-426,-201r0,-81","w":523},"=":{"d":"107,-245r469,0r0,74r-469,0r0,-74xm107,-466r469,0r0,73r-469,0r0,-73","w":683},">":{"d":"49,-551r426,210r0,81r-426,201r0,-80r341,-164r-341,-172r0,-76","w":523},"?":{"d":"152,-98r98,0r0,98r-98,0r0,-98xm347,-522v0,-125,-177,-125,-273,-87r-25,-59v45,-22,98,-34,158,-34v128,0,218,48,221,166v5,184,-184,169,-186,345r-83,0v-4,-133,84,-179,151,-242v20,-20,37,-50,37,-89","w":510},"@":{"d":"293,-221v0,-141,88,-249,222,-249v41,0,81,10,120,29r11,-32r55,0r1,375v1,47,14,94,62,88v93,-11,110,-127,112,-239v4,-233,-107,-357,-339,-355v-246,3,-367,151,-367,390v0,182,90,296,229,339v82,26,168,17,240,-19r31,59v-148,81,-373,34,-465,-56v-70,-69,-117,-167,-117,-306v0,-309,155,-486,470,-486v275,0,403,147,400,424v-2,156,-43,273,-156,309v-78,25,-149,-17,-168,-77v-42,25,-86,37,-132,37v-126,1,-209,-99,-209,-231xm368,-232v0,145,136,223,257,153r0,-309v-128,-62,-257,10,-257,156","w":1025},"A":{"d":"310,-694r94,0r247,694r-84,0r-70,-202r-287,0r-70,202r-77,0xm354,-613r-119,339r236,0","w":675},"B":{"d":"497,-523v2,-125,-147,-107,-272,-107r0,233v127,-5,270,3,272,-126xm552,-202v0,-94,-84,-139,-186,-138v-6,0,-53,2,-141,7r0,260v151,0,327,20,327,-129xm634,-210v-6,147,-112,210,-267,210r-225,0r0,-694r244,0v116,3,186,56,191,167v2,55,-50,126,-90,139v79,12,151,89,147,178","w":695},"C":{"d":"149,-234v-63,-255,82,-467,332,-465v63,0,127,12,189,37r-25,69v-63,-22,-119,-32,-166,-32v-165,0,-262,116,-262,278v0,171,107,281,280,281v50,0,103,-10,157,-30r25,62v-136,65,-319,56,-416,-25v-51,-43,-96,-101,-114,-175","w":708},"D":{"d":"326,-73v196,6,297,-92,297,-279v0,-149,-77,-240,-199,-265v-50,-10,-138,-3,-199,-4r0,548r101,0xm706,-368v0,254,-141,383,-414,368r-150,0r0,-694r214,0v224,1,350,109,350,326","w":784},"E":{"d":"142,0r0,-694r406,0r0,73r-323,0r0,227r296,0r0,73r-296,0r0,248r323,0r0,73r-406,0","w":626},"F":{"d":"225,-621r0,227r289,0r0,73r-289,0r0,321r-83,0r0,-694r401,0r0,73r-318,0","w":609},"G":{"d":"704,-94v-65,85,-241,131,-381,83v-159,-55,-257,-234,-204,-441v37,-145,145,-247,330,-247v78,0,152,20,223,59r-33,62v-70,-38,-193,-69,-285,-29v-95,41,-166,122,-166,255v0,172,112,288,282,288v63,0,114,-19,153,-57r0,-177r-197,0r0,-68r278,0r0,272","w":776},"H":{"d":"596,-694r83,0r0,694r-83,0r0,-321r-371,0r0,321r-83,0r0,-694r83,0r0,299r371,0r0,-299","w":781},"I":{"d":"156,-694r83,0r0,694r-83,0r0,-694","w":356},"J":{"d":"67,-73v111,25,213,-7,213,-131r0,-490r83,0r0,486v13,182,-139,243,-309,205","w":465},"K":{"d":"142,-694r83,0r0,694r-83,0r0,-694xm530,-694r104,0r-293,331r312,363r-107,0r-310,-356","w":691},"L":{"d":"142,-694r83,0r0,621r311,0r0,73r-394,0r0,-694","w":553},"M":{"d":"142,-694r117,0r222,421r227,-421r109,0r0,694r-83,0r0,-575r-213,376r-83,0r-213,-376r0,575r-83,0r0,-694","w":919},"N":{"d":"142,-694r105,0r378,581r0,-581r83,0r0,694r-105,0r-378,-582r0,582r-83,0r0,-694","w":810},"O":{"d":"757,-355v0,213,-121,362,-329,362v-205,0,-323,-138,-323,-352v0,-215,116,-356,327,-356v207,0,325,136,325,346xm435,-65v191,0,276,-195,222,-387v-29,-105,-103,-176,-230,-176v-155,0,-237,111,-237,273v0,167,84,290,245,290","w":823},"P":{"d":"602,-509v3,204,-171,235,-377,218r0,291r-83,0r0,-694r255,0v124,4,203,56,205,185xm518,-496v0,-144,-153,-125,-293,-125r0,257v141,11,293,14,293,-132","w":653},"Q":{"d":"105,-344v0,-215,116,-352,328,-357v197,-4,324,149,324,354v0,97,-24,178,-73,240r88,87r-44,47r-92,-86v-56,44,-123,66,-202,66v-210,0,-329,-136,-329,-351xm672,-334v-3,-176,-79,-294,-246,-294v-154,0,-236,110,-236,274v0,172,88,289,253,289v53,0,100,-16,139,-46r-154,-145r51,-53r149,147v29,-45,44,-102,44,-172","w":833},"R":{"d":"396,-694v132,-2,204,59,204,191v0,114,-59,182,-156,205r196,298r-93,0r-188,-289r-134,0r0,289r-83,0r0,-694r254,0xm517,-494v-2,-91,-61,-127,-152,-127r-140,0r0,259v144,2,296,14,292,-132","w":702},"S":{"d":"131,-499v0,-195,251,-237,442,-173r-27,75v-59,-17,-109,-25,-152,-25v-100,0,-214,65,-156,157v107,112,412,75,349,327v-31,125,-204,173,-363,136v-32,-8,-68,-19,-107,-35r29,-81v81,30,145,46,192,46v109,0,219,-81,147,-167v-92,-109,-354,-64,-354,-260","w":664},"T":{"d":"42,-694r546,0r0,73r-232,0r0,621r-83,0r0,-621r-231,0r0,-73","w":590},"U":{"d":"406,10v-171,0,-264,-66,-264,-248r0,-456r83,0r0,450v-5,123,67,182,181,182v115,0,181,-57,181,-182r0,-450r82,0r1,457v4,172,-93,247,-264,247","w":772},"V":{"d":"68,-694r99,0r198,606r198,-606r92,0r-242,694r-103,0","w":684},"W":{"d":"68,-694r88,0r175,583r175,-583r84,0r181,583r169,-583r88,0r-214,694r-88,0r-183,-580r-170,580r-88,0","w":1057},"X":{"d":"531,-694r95,0r-219,330r246,364r-107,0r-195,-292r-195,292r-102,0r250,-362r-221,-332r101,0r176,261","w":667},"Y":{"d":"49,-694r98,0r177,287r180,-287r93,0r-236,365r0,329r-83,0r0,-329","w":616},"Z":{"d":"90,-694r531,0r0,53r-435,568r448,0r0,73r-558,0r0,-54r426,-567r-412,0r0,-73","w":663},"[":{"d":"122,-738r224,0r0,73r-144,0r0,792r144,0r0,73r-224,0r0,-938","w":370},"\\":{"d":"10,-694r83,0r242,738r-83,0","w":354},"]":{"d":"24,-738r224,0r0,938r-224,0r0,-73r144,0r0,-792r-144,0r0,-73","w":370},"^":{"d":"354,-752r125,139r-45,43r-86,-96r-89,96r-43,-38","w":722},"_":{"d":"73,-73r420,0r0,73r-420,0r0,-73","w":566},"`":{"d":"168,-774r247,151r-31,53r-250,-144","w":547},"a":{"d":"354,-274v8,-98,-25,-154,-119,-151v-33,0,-76,7,-129,22r-15,-59v53,-20,106,-30,157,-30v122,-1,186,52,186,170r0,322r-57,0r-18,-44v-39,36,-85,54,-136,54v-83,0,-166,-61,-163,-138v6,-137,152,-141,294,-146xm140,-132v-3,45,55,79,105,79v42,0,78,-17,109,-50r0,-110v-96,2,-208,-8,-214,81","w":521},"b":{"d":"515,-247v2,148,-87,257,-227,257v-44,0,-88,-11,-130,-32r-10,22r-55,0r0,-738r80,0r0,279v42,-22,85,-33,129,-33v143,0,210,97,213,245xm437,-233v0,-117,-51,-193,-163,-193v-35,0,-68,9,-101,26r0,324v35,15,69,23,103,23v107,0,161,-70,161,-180","w":577},"c":{"d":"288,10v-147,0,-225,-87,-225,-240v0,-161,78,-261,234,-261v46,0,92,10,136,29r-20,58v-36,-12,-71,-18,-106,-18v-111,0,-166,63,-166,175v0,122,56,189,175,191v31,0,61,-5,92,-16r19,55v-46,18,-92,27,-139,27","w":488},"d":{"d":"277,10v-142,0,-214,-96,-214,-243v0,-156,77,-259,228,-259v38,0,77,9,116,26r0,-272r80,0r0,738r-55,0r-14,-30v-45,27,-92,40,-141,40xm142,-246v0,116,53,190,161,190v35,0,70,-9,104,-27r0,-323v-35,-16,-70,-23,-105,-23v-108,0,-159,70,-160,183","w":580},"e":{"d":"63,-226v0,-159,79,-261,232,-266v157,-5,187,125,180,288r-332,0v6,134,157,178,291,132r14,55v-52,18,-104,27,-154,27v-154,0,-231,-87,-231,-236xm397,-264v10,-140,-100,-195,-193,-135v-40,26,-58,74,-59,135r252,0","w":538},"f":{"d":"136,-482v-11,-139,36,-216,161,-216v35,0,74,6,116,19r-13,60v-88,-27,-186,-11,-183,84r0,53r161,0r0,63r-161,0r0,419r-81,0r0,-419r-70,0r0,-63r70,0","w":400},"g":{"d":"62,-240v-5,-203,181,-312,358,-214r10,-28r56,0r0,512v-2,152,-81,233,-237,234v-50,0,-99,-10,-149,-31r22,-58v40,15,79,22,117,22v124,2,175,-80,167,-220v-42,22,-84,33,-127,33v-145,0,-214,-99,-217,-250xm141,-249v2,111,52,193,160,193v35,0,70,-9,105,-28r0,-316v-45,-18,-82,-27,-114,-27v-94,-1,-153,78,-151,178","w":574},"h":{"d":"333,-491v125,-1,161,89,161,214r0,277r-82,0r0,-292v4,-151,-136,-150,-239,-90r0,382r-80,0r0,-738r80,0r0,292v57,-30,110,-45,160,-45","w":581},"i":{"d":"81,-694r94,0r0,92r-94,0r0,-92xm88,-482r80,0r0,482r-80,0r0,-482","w":255},"j":{"d":"81,-694r94,0r0,92r-94,0r0,-92xm88,-482r80,0r-3,602v-13,76,-60,116,-126,141r-30,-61v53,-25,79,-67,79,-125r0,-557","w":255},"k":{"d":"88,-738r80,0r0,738r-80,0r0,-738xm389,-492r88,0r-210,217r223,275r-96,0r-218,-267","w":523},"l":{"d":"98,-738r80,0r0,738r-80,0r0,-738","w":275},"m":{"d":"382,-297v0,-70,-30,-120,-101,-121v-28,0,-66,12,-113,37r0,381r-80,0r0,-482r56,0r17,40v100,-59,197,-76,267,4v64,-35,122,-53,172,-53v119,0,157,80,157,201r0,290r-80,0r-1,-311v-4,-64,-33,-107,-102,-107v-30,0,-70,13,-119,38v15,103,4,261,7,380r-80,0r0,-297","w":846},"n":{"d":"332,-492v119,0,154,82,154,204r0,288r-80,0r0,-293v5,-150,-135,-149,-238,-89r0,382r-80,0r0,-482r56,0r18,41v62,-34,119,-51,170,-51","w":574},"o":{"d":"63,-236v0,-149,92,-256,235,-256v137,0,230,98,230,241v0,151,-93,261,-237,261v-138,1,-228,-102,-228,-246xm450,-235v-3,-108,-55,-188,-158,-188v-86,0,-150,76,-150,173v0,100,60,191,157,191v90,0,154,-80,151,-176","w":591},"p":{"d":"512,-247v8,193,-166,313,-344,231r0,275r-80,0r0,-741r56,0r13,30v46,-27,93,-40,142,-40v143,0,207,98,213,245xm434,-233v0,-117,-51,-189,-163,-192v-35,0,-69,9,-103,27r0,321v35,16,70,24,105,24v107,0,161,-70,161,-180","w":574},"q":{"d":"62,-238v-6,-203,180,-315,358,-216r10,-28r56,0r0,741r-80,0r0,-283v-43,22,-86,34,-131,34v-143,0,-210,-99,-213,-248xm141,-246v2,115,51,189,162,189v35,0,69,-8,103,-26r0,-317v-45,-18,-82,-27,-114,-27v-96,0,-153,78,-151,181","w":574},"r":{"d":"159,-446v63,-48,150,-61,227,-27r-24,64v-67,-25,-137,-16,-194,19r0,390r-80,0r0,-482r56,0","w":391},"s":{"d":"75,-346v0,-145,202,-170,336,-126r-21,61v-44,-12,-82,-18,-115,-18v-62,2,-113,18,-117,75v12,57,88,63,140,84v64,26,140,49,140,132v0,168,-233,175,-375,111r23,-60v57,19,85,34,145,34v79,0,119,-26,119,-76v-19,-76,-127,-68,-188,-102v-44,-25,-87,-51,-87,-115","w":496},"t":{"d":"234,10v-100,0,-135,-63,-135,-162r0,-267r-65,0r0,-63r65,0r0,-139r80,0r0,139r147,0r0,63r-147,0r0,266v4,102,54,113,154,90r11,55v-47,12,-84,18,-110,18","w":378},"u":{"d":"243,10v-119,-1,-155,-83,-155,-204r0,-288r80,0r0,294v-4,148,137,148,239,88r0,-382r80,0r0,482r-56,0r-17,-41v-62,34,-119,51,-171,51","w":574},"v":{"d":"453,-482r-169,482r-83,0r-169,-482r88,0r125,402r125,-402r83,0","w":484},"w":{"d":"29,-482r86,0r131,404r124,-404r78,0r129,404r131,-404r85,0r-176,482r-80,0r-129,-391r-127,391r-80,0","w":822},"x":{"d":"32,-482r93,0r136,191r131,-191r86,0r-178,246r168,236r-93,0r-129,-181r-123,181r-85,0r169,-237","w":511},"y":{"d":"24,-482r88,0r155,409r143,-409r83,0r-278,741r-86,0r97,-235","w":517},"z":{"d":"73,-482r368,0r0,42r-264,377r276,0r0,63r-380,0r0,-42r263,-377r-263,0r0,-63","w":526},"{":{"d":"44,-302v94,-13,125,-113,125,-225v0,-118,65,-197,179,-211r14,63v-104,15,-121,121,-127,237v-4,79,-33,136,-88,170v86,47,86,167,101,284v9,68,50,110,114,122r-14,63v-133,-15,-178,-126,-184,-276v-3,-82,-44,-146,-120,-159r0,-68","w":389},"|":{"d":"176,-782r80,0r0,932r-80,0r0,-932","w":431},"}":{"d":"220,-527v6,109,31,214,126,225r0,68v-100,17,-118,116,-126,231v-8,115,-67,191,-178,204r-15,-63v119,-13,118,-152,132,-274v6,-57,40,-104,83,-132v-89,-47,-81,-180,-102,-295v-11,-60,-51,-102,-113,-112r15,-63v111,13,171,93,178,211","w":389},"~":{"d":"272,-753v77,0,95,73,156,88v42,-3,39,-54,49,-89r52,8v-14,64,-20,141,-98,141v-78,1,-94,-74,-156,-89v-40,4,-40,51,-48,88r-53,-7v13,-64,19,-140,98,-140","w":683},"\u00a0":{"w":273},"\u00a1":{"d":"117,-421r83,0r0,621r-83,0r0,-621xm110,-645r98,0r0,98r-98,0r0,-98","w":317},"\u00a2":{"d":"265,-112v-119,-15,-192,-96,-192,-236v0,-140,69,-239,192,-256r0,-134r59,0r0,132v35,0,74,9,118,28r-19,59v-36,-12,-71,-19,-106,-19v-109,0,-166,64,-166,173v0,120,58,188,176,189v30,0,59,-5,90,-16r20,55v-42,17,-80,25,-113,25r0,144r-59,0r0,-144","w":498},"\u00a3":{"d":"441,-632v-141,-3,-177,97,-168,243r259,0r0,66r-259,0r0,257r288,0r0,66r-487,0r0,-66r119,0r0,-257r-86,0r0,-66r86,0v-14,-195,59,-310,238,-310v38,0,75,7,114,19r-23,59v-29,-8,-56,-11,-81,-11"},"\u00a4":{"d":"233,-508v51,-31,118,-30,169,0r81,-80r61,61r-81,80v30,51,31,119,0,169r80,81r-61,61r-80,-81v-51,32,-118,32,-169,1r-81,81r-61,-61r81,-81v-32,-51,-32,-119,0,-170r-82,-81r61,-61xm415,-362v0,-54,-45,-100,-98,-100v-53,0,-97,46,-97,100v0,52,45,100,97,100v52,0,98,-48,98,-100"},"\u00a5":{"d":"70,-694r90,0r157,295r162,-295r86,0r-209,353r138,0r0,61r-141,0r0,97r141,0r0,61r-141,0r0,122r-78,0r0,-122r-134,0r0,-61r134,0r0,-97r-134,0r0,-61r130,0"},"\u00a6":{"d":"176,-225r80,0r0,375r-80,0r0,-375xm176,-782r80,0r0,373r-80,0r0,-373","w":431},"\u00a7":{"d":"95,-550v4,-152,217,-174,355,-129r-22,64v-85,-28,-233,-38,-245,54v14,77,115,77,178,107v54,26,115,48,115,121v0,40,-14,74,-41,102v27,22,41,49,41,82v-2,178,-252,185,-398,127r23,-61v56,20,105,30,148,30v90,0,135,-29,135,-87v0,-76,-113,-75,-175,-101v-57,-24,-112,-51,-114,-126v0,-35,14,-67,43,-94v-29,-23,-43,-53,-43,-89xm207,-425v-39,29,-26,89,16,102v39,21,97,36,140,52v30,-25,25,-81,-7,-99v-41,-24,-102,-36,-149,-55","w":554},"\u00a8":{"d":"138,-694r91,0r0,91r-91,0r0,-91xm357,-694r91,0r0,91r-91,0r0,-91","w":585},"\u00a9":{"d":"273,-329v-7,-155,134,-223,268,-165r-15,42v-98,-35,-196,-1,-196,113v0,115,90,159,192,124r15,40v-33,13,-66,19,-100,19v-108,-1,-159,-64,-164,-173xm711,-333v0,-166,-113,-276,-281,-276v-168,0,-282,110,-282,276v0,166,114,275,282,275v167,0,281,-110,281,-275xm182,-571v70,-80,242,-133,384,-75v148,61,258,249,183,443v-59,152,-259,258,-455,182v-150,-58,-263,-249,-184,-442v18,-42,44,-76,72,-108","w":859},"\u00aa":{"d":"85,-447v3,-88,69,-88,170,-91v11,-88,-83,-87,-152,-64r-9,-34v87,-34,209,-28,209,84r0,181r-34,0r-11,-26v-50,64,-176,36,-173,-50xm133,-448v0,26,28,47,59,47v25,0,46,-13,63,-39r0,-58v-56,2,-122,-2,-122,50","w":374},"\u00ab":{"d":"342,-482r91,0r-134,178r134,178r-91,0r-124,-178xm161,-482r90,0r-133,178r133,178r-90,0r-124,-178","w":457},"\u00ac":{"d":"61,-357r562,0r0,219r-73,0r0,-147r-489,0r0,-72","w":683},"\u00ad":{"d":"107,-355r310,0r0,67r-310,0r0,-67","w":524},"\u00ae":{"d":"208,-645v91,1,195,-18,195,80v0,41,-17,67,-51,78r55,108r-49,0r-49,-101r-55,0r0,101r-46,0r0,-266xm400,-276v-209,83,-426,-112,-336,-332v36,-88,117,-152,237,-154v180,-4,308,174,236,351v-26,64,-73,109,-137,135xm503,-509v0,-106,-94,-199,-202,-199v-108,0,-203,92,-203,199v0,107,94,198,203,198v109,0,202,-92,202,-198xm360,-560v0,-52,-54,-46,-106,-45r0,87v49,-1,106,8,106,-42","w":601},"\u00af":{"d":"139,-801r405,0r0,73r-405,0r0,-73","w":683},"\u00b0":{"d":"206,-603v0,-33,-28,-65,-62,-65v-35,0,-63,30,-63,65v0,36,27,65,63,65v35,0,62,-32,62,-65xm37,-603v0,-59,50,-109,107,-109v57,0,107,51,107,109v0,58,-50,110,-107,110v-58,0,-107,-50,-107,-110","w":287},"\u00b1":{"d":"107,-140r469,0r0,67r-469,0r0,-67xm306,-694r71,0r0,201r199,0r0,67r-199,0r0,201r-71,0r0,-201r-199,0r0,-67r199,0r0,-201","w":683},"\u00b2":{"d":"233,-615v31,-39,-17,-81,-60,-79v-19,0,-49,8,-91,25r-19,-44v99,-65,284,-21,229,107v-33,75,-123,101,-152,185r167,0r0,51r-235,0v3,-127,104,-173,161,-245","w":390},"\u00b3":{"d":"231,-646v-11,-59,-89,-51,-144,-22r-19,-46v85,-50,219,-37,219,61v0,34,-17,64,-41,77v38,15,56,44,56,85v1,114,-138,154,-241,103r16,-47v76,27,156,23,169,-47v-2,-54,-55,-61,-111,-62r0,-50v56,0,90,-12,96,-52","w":390},"\u00b4":{"d":"380,-774r34,60r-250,144r-30,-53","w":547},"\u00b5":{"d":"173,-210v0,89,29,155,119,155v29,0,69,-12,120,-37r0,-390r80,0r0,482r-56,0r-15,-33v-80,52,-178,68,-248,7r0,226r-80,0r0,-682r80,0r0,272","w":579},"\u00b6":{"d":"63,-553v0,-138,90,-185,230,-185r268,0r0,738r-83,0r0,-665r-118,0r0,665r-83,0r0,-335v-136,-5,-214,-78,-214,-218","w":653},"\u00b7":{"d":"93,-409r102,0r0,102r-102,0r0,-102","w":288},"\u00b8":{"d":"399,153v2,77,-94,110,-170,77r-41,-12r13,-45v74,18,93,37,136,12v10,-6,14,-16,14,-26v0,-51,-73,-45,-112,-64r28,-106r62,0r-19,77v46,13,88,30,89,87","w":537},"\u00b9":{"d":"29,-712v45,-10,79,-30,138,-26r0,367r-55,0r0,-314r-70,20","w":265},"\u00ba":{"d":"284,-558v0,-77,-25,-133,-98,-133v-71,0,-98,54,-98,130v0,80,23,145,99,145v73,0,97,-62,97,-142xm33,-560v1,-108,53,-182,154,-182v104,0,152,71,152,183v0,107,-57,192,-153,192v-109,0,-154,-77,-153,-193","w":372},"\u00bb":{"d":"115,-482r124,178r-124,178r-91,0r134,-178r-134,-178r91,0xm296,-482r124,178r-124,178r-90,0r133,-178r-133,-178r90,0","w":457},"\u00bc":{"d":"576,-694r86,0r-401,694r-86,0xm73,-668v47,-11,85,-31,148,-26r0,392r-65,0r0,-328r-68,19xm679,-408r77,0r0,259r52,0r0,54r-52,0r0,95r-65,0r0,-95r-191,0r0,-44xm691,-336r-118,187r118,0r0,-187","w":878},"\u00bd":{"d":"576,-694r86,0r-401,694r-86,0xm73,-668v47,-11,85,-31,148,-26r0,397r-65,0r0,-333r-68,19xm739,-264v39,-44,-11,-91,-63,-91v-21,0,-55,8,-100,26r-20,-48v98,-57,261,-47,261,72v0,99,-94,122,-141,187v-15,20,-29,40,-37,61r185,0r0,57r-260,0v-4,-56,19,-81,39,-117v36,-63,91,-97,136,-147","w":901},"\u00be":{"d":"654,-694r86,0r-401,694r-86,0xm752,-408r77,0r0,259r52,0r0,54r-52,0r0,95r-65,0r0,-95r-190,0r0,-44xm764,-336r-118,187r118,0r0,-187xm282,-602v-12,-64,-100,-56,-158,-23r-22,-51v92,-55,241,-41,241,67v0,39,-20,69,-45,85v42,17,62,48,62,93v1,125,-151,171,-265,114r18,-52v42,11,72,17,92,17v46,2,94,-26,93,-69v0,-46,-41,-68,-122,-68r0,-55v54,-2,102,-10,106,-58","w":952},"\u00bf":{"d":"227,0v103,0,176,-103,110,-177v-60,-67,-144,-108,-158,-222v-4,-25,-6,-53,-6,-83r83,0v-5,141,79,191,149,257v23,22,38,61,36,107v-6,135,-147,218,-293,176v-27,-7,-56,-18,-86,-32r26,-60v55,22,101,34,139,34xm166,-694r97,0r0,98r-97,0r0,-98","w":511},"\u00c0":{"d":"310,-694r94,0r247,694r-84,0r-70,-202r-287,0r-70,202r-77,0xm354,-613r-119,339r236,0xm257,-942r246,151r-30,53r-250,-144","w":675},"\u00c1":{"d":"310,-694r94,0r247,694r-84,0r-70,-202r-287,0r-70,202r-77,0xm354,-613r-119,339r236,0xm456,-942r34,60r-250,144r-30,-53","w":675},"\u00c2":{"d":"310,-694r94,0r247,694r-84,0r-70,-202r-287,0r-70,202r-77,0xm354,-613r-119,339r236,0xm367,-939r125,139r-46,43r-86,-96r-88,96r-43,-38","w":675},"\u00c3":{"d":"443,-828v42,-4,40,-52,49,-89r53,8v-14,66,-20,139,-98,140v-76,0,-95,-71,-155,-87v-44,2,-40,53,-50,87r-53,-7v15,-63,20,-140,99,-140v77,0,95,73,155,88xm354,-613r-119,339r236,0xm310,-694r94,0r247,694r-84,0r-70,-202r-287,0r-70,202r-77,0","w":675},"\u00c4":{"d":"310,-694r94,0r247,694r-84,0r-70,-202r-287,0r-70,202r-77,0xm354,-613r-119,339r236,0xm203,-926r90,0r0,90r-90,0r0,-90xm422,-926r90,0r0,90r-90,0r0,-90","w":675},"\u00c5":{"d":"229,-790v-1,-69,61,-125,129,-125v67,0,131,57,129,125v-1,54,-35,98,-76,115r240,675r-84,0r-70,-202r-287,0r-70,202r-77,0r241,-676v-40,-17,-74,-61,-75,-114xm433,-790v0,-39,-33,-74,-74,-74v-41,0,-78,33,-77,74v0,40,35,75,77,75v40,0,74,-36,74,-75xm354,-613r-119,339r236,0","w":675},"\u00c6":{"d":"249,-274r223,0r0,-347r-89,0xm334,-694r523,0r0,73r-302,0r0,227r275,0r0,73r-275,0r0,248r302,0r0,73r-385,0r0,-202r-251,0r-78,202r-80,0","w":935},"\u00c7":{"d":"448,66v47,11,88,32,88,88v0,63,-67,109,-140,89v-12,-3,-39,-10,-80,-22r15,-51v53,16,88,25,105,25v25,1,45,-14,45,-35v0,-45,-71,-44,-115,-62r27,-97v-152,-30,-259,-170,-259,-347v0,-214,133,-353,347,-353v63,0,127,12,189,37r-25,69v-63,-22,-119,-32,-166,-32v-165,0,-262,116,-262,278v0,171,107,281,280,281v50,0,103,-10,157,-30r25,62v-74,31,-139,45,-217,44","w":708},"\u00c8":{"d":"142,-694r406,0r0,73r-323,0r0,227r296,0r0,73r-296,0r0,248r323,0r0,73r-406,0r0,-694xm234,-942r246,151r-31,53r-250,-144","w":626},"\u00c9":{"d":"142,-694r406,0r0,73r-323,0r0,227r296,0r0,73r-296,0r0,248r323,0r0,73r-406,0r0,-694xm465,-942r34,60r-250,144r-30,-53","w":626},"\u00ca":{"d":"142,-694r406,0r0,73r-323,0r0,227r296,0r0,73r-296,0r0,248r323,0r0,73r-406,0r0,-694xm352,-943r125,139r-46,43r-86,-95r-88,95r-43,-38","w":626},"\u00cb":{"d":"142,-694r406,0r0,73r-323,0r0,227r296,0r0,73r-296,0r0,248r323,0r0,73r-406,0r0,-694xm190,-927r91,0r0,91r-91,0r0,-91xm409,-927r91,0r0,91r-91,0r0,-91","w":626},"\u00cc":{"d":"156,-694r83,0r0,694r-83,0r0,-694xm101,-941r246,151r-31,52r-250,-143","w":356},"\u00cd":{"d":"156,-694r83,0r0,694r-83,0r0,-694xm271,-942r34,60r-250,144r-30,-53","w":356},"\u00ce":{"d":"156,-694r83,0r0,694r-83,0r0,-694xm191,-939r125,139r-45,43r-86,-96r-88,96r-43,-38","w":356},"\u00cf":{"d":"142,-694r83,0r0,694r-83,0r0,-694xm43,-891r90,0r0,91r-90,0r0,-91xm233,-891r90,0r0,91r-90,0r0,-91","w":327},"\u00d0":{"d":"728,-368v0,250,-133,370,-383,368r-181,0r0,-321r-107,0r0,-74r107,0r0,-299r247,1v198,13,317,112,317,325xm645,-352v-2,-169,-91,-266,-264,-269r-134,0r0,226r125,0r0,74r-125,0r0,248r101,0v194,3,300,-86,297,-279","w":783},"\u00d1":{"d":"361,-856v-42,3,-39,52,-49,88r-52,-8v13,-66,20,-139,98,-140v77,0,95,73,155,88v42,-5,41,-52,49,-89r53,8v-13,64,-19,140,-98,140v-76,0,-96,-72,-156,-87xm142,-694r105,0r378,581r0,-581r83,0r0,694r-105,0r-378,-582r0,582r-83,0r0,-694","w":810},"\u00d2":{"d":"757,-355v0,213,-121,362,-329,362v-205,0,-323,-138,-323,-352v0,-215,116,-356,327,-356v207,0,325,136,325,346xm435,-65v190,0,276,-194,222,-386v-29,-105,-103,-177,-231,-177v-156,0,-236,110,-236,273v0,167,84,290,245,290xm360,-943r246,151r-31,53r-250,-144","w":823},"\u00d3":{"d":"757,-355v0,213,-121,362,-329,362v-205,0,-323,-138,-323,-352v0,-215,116,-356,327,-356v207,0,325,136,325,346xm435,-65v190,0,276,-194,222,-386v-29,-105,-103,-177,-231,-177v-156,0,-236,110,-236,273v0,167,84,290,245,290xm541,-942r34,60r-250,144r-31,-53","w":823},"\u00d4":{"d":"757,-355v0,213,-121,362,-329,362v-205,0,-323,-138,-323,-352v0,-215,116,-356,327,-356v207,0,325,136,325,346xm435,-65v190,0,276,-194,222,-386v-29,-105,-103,-177,-231,-177v-156,0,-236,110,-236,273v0,167,84,290,245,290xm445,-939r125,139r-45,43r-86,-96r-88,96r-43,-38","w":823},"\u00d5":{"d":"367,-916v76,0,95,72,155,88v42,-4,40,-53,49,-89r53,8v-14,63,-20,140,-99,140v-76,0,-95,-71,-155,-87v-43,3,-39,52,-49,88r-53,-8v13,-64,20,-141,99,-140xm435,-65v157,0,237,-115,237,-281v0,-168,-83,-282,-246,-282v-156,0,-236,110,-236,273v0,167,84,290,245,290xm757,-355v0,213,-121,362,-329,362v-205,0,-323,-138,-323,-352v0,-215,116,-356,327,-356v207,0,325,136,325,346","w":823},"\u00d6":{"d":"757,-355v0,213,-121,362,-329,362v-205,0,-323,-138,-323,-352v0,-215,116,-356,327,-356v207,0,325,136,325,346xm435,-65v190,0,276,-194,222,-386v-29,-105,-103,-177,-231,-177v-156,0,-236,110,-236,273v0,167,84,290,245,290xm281,-927r91,0r0,91r-91,0r0,-91xm500,-927r91,0r0,91r-91,0r0,-91","w":823},"\u00d7":{"d":"141,-95r-52,-51r173,-173r-169,-169r51,-52r176,177r173,-174r51,52r-172,173r169,169r-51,52r-177,-177"},"\u00d8":{"d":"428,7v-105,0,-182,-42,-232,-96r-91,87r-30,-32r93,-89v-98,-128,-71,-386,30,-482v55,-53,132,-96,234,-96v102,1,185,40,238,99r90,-86r31,32r-94,89v40,59,60,130,60,212v0,213,-121,362,-329,362xm427,-628v-155,0,-237,111,-237,273v0,65,14,122,42,171r377,-360v-39,-49,-102,-84,-182,-84xm258,-147v38,47,100,82,177,82v157,0,237,-115,237,-281v0,-62,-13,-116,-38,-161","w":857},"\u00d9":{"d":"402,10v-169,0,-260,-73,-260,-246r0,-458r83,0r0,478v8,101,68,155,180,154v122,0,182,-61,181,-182r0,-450r83,0r-1,487v-4,155,-105,217,-266,217xm305,-941r246,151r-31,52r-250,-143","w":771},"\u00da":{"d":"402,10v-169,0,-260,-73,-260,-246r0,-458r83,0r0,478v8,101,68,155,180,154v122,0,182,-61,181,-182r0,-450r83,0r-1,487v-4,155,-105,217,-266,217xm520,-942r34,60r-250,144r-31,-53","w":771},"\u00db":{"d":"402,10v-169,0,-260,-73,-260,-246r0,-458r83,0r0,478v8,101,68,155,180,154v122,0,182,-61,181,-182r0,-450r83,0r-1,487v-4,155,-105,217,-266,217xm412,-939r125,139r-46,43r-85,-96r-89,96r-43,-38","w":771},"\u00dc":{"d":"402,10v-169,0,-260,-73,-260,-246r0,-458r83,0r0,478v8,101,68,155,180,154v122,0,182,-61,181,-182r0,-450r83,0r-1,487v-4,155,-105,217,-266,217xm250,-927r91,0r0,91r-91,0r0,-91xm470,-927r90,0r0,91r-90,0r0,-91","w":771},"\u00dd":{"d":"49,-694r98,0r177,287r180,-287r93,0r-236,365r0,329r-83,0r0,-329xm425,-942r34,60r-250,144r-30,-53","w":616},"\u00de":{"d":"519,-367v0,-141,-162,-130,-294,-120r0,251r141,4v91,-3,153,-39,153,-135xm604,-386v-7,172,-100,234,-299,227v-27,0,-53,-1,-80,-3r0,162r-83,0r0,-694r83,0r0,134v181,-17,387,-14,379,174","w":647},"\u00df":{"d":"98,-500v2,-125,71,-198,192,-198v103,0,164,63,169,160v4,87,-72,113,-114,158v-53,101,110,95,166,147v24,23,45,59,45,106v0,92,-63,139,-162,140v-48,0,-97,-8,-149,-23r15,-57v51,10,90,15,117,15v92,0,125,-95,60,-136v-69,-44,-185,-43,-185,-156v0,-104,118,-100,129,-189v6,-50,-52,-94,-100,-93v-71,2,-103,53,-103,127r0,499r-80,0r0,-500","w":614},"\u00e0":{"d":"354,-273v8,-99,-24,-152,-119,-152v-33,0,-76,7,-129,22r-15,-59v52,-20,105,-29,157,-29v123,-2,186,51,186,171r0,320r-57,0r-18,-44v-39,36,-85,54,-136,54v-83,0,-167,-61,-163,-138v7,-135,149,-143,294,-145xm140,-132v-3,45,55,79,105,79v42,0,78,-17,109,-50r0,-110v-95,1,-208,-7,-214,81xm217,-751r178,158r-39,49r-184,-154","w":521},"\u00e1":{"d":"330,-756r45,53r-184,154r-39,-49xm140,-132v-3,45,55,79,105,79v42,0,78,-17,109,-50r0,-110v-95,1,-208,-7,-214,81xm354,-273v8,-99,-24,-152,-119,-152v-33,0,-76,7,-129,22r-15,-59v52,-20,105,-29,157,-29v123,-2,186,51,186,171r0,320r-57,0r-18,-44v-39,36,-85,54,-136,54v-83,0,-167,-61,-163,-138v7,-135,149,-143,294,-145","w":521},"\u00e2":{"d":"266,-728r125,140r-46,43r-85,-96r-89,96r-43,-38xm140,-132v-3,45,55,79,105,79v42,0,78,-17,109,-50r0,-110v-95,1,-208,-7,-214,81xm354,-273v8,-99,-24,-152,-119,-152v-33,0,-76,7,-129,22r-15,-59v52,-20,105,-29,157,-29v123,-2,186,51,186,171r0,320r-57,0r-18,-44v-39,36,-85,54,-136,54v-83,0,-167,-61,-163,-138v7,-135,149,-143,294,-145","w":521},"\u00e3":{"d":"343,-616v41,-5,40,-53,49,-89r52,8v-12,68,-25,141,-98,140v-77,0,-96,-72,-156,-88v-39,6,-41,50,-48,88r-53,-7v13,-66,21,-140,99,-140v76,0,95,73,155,88xm140,-132v-3,45,55,79,105,79v42,0,78,-17,109,-50r0,-110v-95,1,-208,-7,-214,81xm354,-273v8,-99,-24,-152,-119,-152v-33,0,-76,7,-129,22r-15,-59v52,-20,105,-29,157,-29v123,-2,186,51,186,171r0,320r-57,0r-18,-44v-39,36,-85,54,-136,54v-83,0,-167,-61,-163,-138v7,-135,149,-143,294,-145","w":521},"\u00e4":{"d":"346,-694r90,0r0,91r-90,0r0,-91xm126,-694r91,0r0,91r-91,0r0,-91xm140,-132v-3,45,55,79,105,79v42,0,78,-17,109,-50r0,-110v-95,1,-208,-7,-214,81xm354,-273v8,-99,-24,-152,-119,-152v-33,0,-76,7,-129,22r-15,-59v52,-20,105,-29,157,-29v123,-2,186,51,186,171r0,320r-57,0r-18,-44v-39,36,-85,54,-136,54v-83,0,-167,-61,-163,-138v7,-135,149,-143,294,-145","w":521},"\u00e5":{"d":"331,-659v0,-33,-28,-65,-62,-65v-34,0,-63,31,-63,65v0,36,27,66,63,66v34,0,62,-33,62,-66xm162,-659v0,-59,50,-109,107,-109v57,0,107,51,107,109v0,58,-50,110,-107,110v-58,0,-107,-50,-107,-110xm140,-132v-3,45,55,79,105,79v42,0,78,-17,109,-50r0,-110v-95,1,-208,-7,-214,81xm354,-273v8,-99,-24,-152,-119,-152v-33,0,-76,7,-129,22r-15,-59v52,-20,105,-29,157,-29v123,-2,186,51,186,171r0,320r-57,0r-18,-44v-39,36,-85,54,-136,54v-83,0,-167,-61,-163,-138v7,-135,149,-143,294,-145","w":521},"\u00e6":{"d":"179,-191v-92,45,-8,137,68,137v41,0,77,-16,107,-47r0,-112v-71,-1,-134,2,-175,22xm677,-273v-2,-82,-26,-147,-109,-149v-78,-2,-132,70,-130,149r239,0xm354,-274v4,-93,-29,-151,-120,-151v-30,0,-71,8,-123,22r-20,-58v112,-45,278,-48,317,55v51,-83,233,-123,298,-25v34,52,48,130,47,218r-319,0v2,128,144,193,278,141r14,54v-114,47,-263,35,-325,-46v-37,49,-94,74,-170,74v-84,0,-176,-60,-171,-140v8,-125,138,-149,294,-144","w":817},"\u00e7":{"d":"380,154v2,78,-94,109,-170,76v-7,-1,-35,-9,-41,-12r13,-44v74,18,93,37,136,12v10,-6,14,-17,14,-27v0,-50,-72,-45,-112,-63r23,-86v-118,-19,-180,-100,-180,-237v0,-161,78,-261,234,-261v46,0,92,10,136,29r-20,59v-36,-12,-71,-19,-106,-19v-110,2,-166,63,-166,175v0,122,56,190,175,191v31,0,61,-5,92,-16r19,55v-42,16,-83,25,-123,27r-13,53v44,14,88,30,89,88","w":488},"\u00e8":{"d":"63,-226v0,-159,79,-261,232,-266v157,-5,187,125,180,288r-332,0v6,134,157,178,291,132r14,55v-52,18,-104,27,-154,27v-154,0,-231,-87,-231,-236xm397,-264v10,-140,-100,-195,-193,-135v-40,26,-58,74,-59,135r252,0xm225,-756r177,158r-39,49r-183,-154","w":538},"\u00e9":{"d":"63,-226v0,-159,79,-261,232,-266v157,-5,187,125,180,288r-332,0v6,134,157,178,291,132r14,55v-52,18,-104,27,-154,27v-154,0,-231,-87,-231,-236xm397,-264v10,-140,-100,-195,-193,-135v-40,26,-58,74,-59,135r252,0xm379,-756r45,53r-184,154r-39,-49","w":538},"\u00ea":{"d":"63,-226v0,-159,79,-261,232,-266v157,-5,187,125,180,288r-332,0v6,134,157,178,291,132r14,55v-52,18,-104,27,-154,27v-154,0,-231,-87,-231,-236xm397,-264v10,-140,-100,-195,-193,-135v-40,26,-58,74,-59,135r252,0xm308,-728r125,140r-45,43r-86,-96r-89,96r-43,-38","w":538},"\u00eb":{"d":"63,-226v0,-159,79,-261,232,-266v157,-5,187,125,180,288r-331,0v6,134,156,178,290,132r14,55v-52,18,-104,27,-154,27v-154,0,-231,-87,-231,-236xm397,-264v10,-140,-100,-195,-193,-135v-40,26,-60,73,-60,135r253,0xm144,-694r90,0r0,91r-90,0r0,-91xm363,-694r91,0r0,91r-91,0r0,-91","w":538},"\u00ec":{"d":"88,-482r80,0r0,482r-80,0r0,-482xm45,-756r178,158r-39,49r-184,-154","w":255},"\u00ed":{"d":"88,-482r80,0r0,482r-80,0r0,-482xm232,-756r45,53r-183,154r-39,-49","w":255},"\u00ee":{"d":"88,-482r80,0r0,482r-80,0r0,-482xm131,-728r110,140r-45,43r-71,-91r-74,91r-43,-38","w":258},"\u00ef":{"d":"88,-482r80,0r0,482r-80,0r0,-482xm-7,-694r90,0r0,90r-90,0r0,-90xm173,-694r90,0r0,90r-90,0r0,-90","w":255},"\u00f0":{"d":"288,-394v-86,-2,-147,71,-147,159v0,94,65,182,154,179v135,-5,154,-130,151,-281v-61,-38,-113,-57,-158,-57xm63,-209v4,-139,77,-251,214,-251v47,0,103,18,165,53v-8,-62,-34,-115,-77,-156r-87,50r-27,-46r70,-40v-30,-21,-64,-37,-101,-50r30,-63v54,15,103,38,145,71r88,-51r27,46r-74,42v63,68,86,145,87,269v1,194,-43,344,-235,345v-131,1,-228,-86,-225,-219","w":611},"\u00f1":{"d":"332,-492v119,0,155,83,155,204r0,288r-81,0r0,-293v5,-150,-135,-149,-238,-89r0,382r-80,0r0,-482r56,0r18,41v62,-34,119,-51,170,-51xm384,-618v41,-5,40,-53,49,-90r53,9v-12,69,-27,140,-99,140v-76,0,-95,-71,-155,-87v-42,3,-40,51,-49,87r-53,-7v9,-69,35,-140,99,-140v77,0,94,73,155,88","w":574},"\u00f2":{"d":"258,-756r178,158r-39,49r-184,-154xm450,-235v-3,-108,-55,-188,-158,-188v-86,0,-150,76,-150,173v0,100,60,191,157,191v90,0,154,-80,151,-176xm63,-236v0,-149,92,-256,235,-256v137,0,230,98,230,241v0,151,-93,261,-237,261v-138,1,-228,-102,-228,-246","w":591},"\u00f3":{"d":"63,-236v0,-149,92,-256,235,-256v137,0,230,98,230,241v0,151,-93,261,-237,261v-138,1,-228,-102,-228,-246xm450,-235v-3,-108,-55,-188,-158,-188v-86,0,-150,76,-150,173v0,100,60,191,157,191v90,0,154,-80,151,-176xm345,-756r45,53r-184,154r-39,-49","w":591},"\u00f4":{"d":"63,-236v0,-149,92,-256,235,-256v137,0,230,98,230,241v0,151,-93,261,-237,261v-138,1,-228,-102,-228,-246xm450,-235v-3,-108,-55,-188,-158,-188v-86,0,-150,76,-150,173v0,100,60,191,157,191v90,0,154,-80,151,-176xm305,-728r125,140r-45,43r-86,-96r-89,96r-43,-38","w":591},"\u00f5":{"d":"375,-618v41,-4,39,-53,48,-89r53,8v-13,64,-19,141,-99,140v-75,-1,-95,-71,-155,-87v-44,2,-38,53,-49,87r-52,-7v13,-64,20,-140,98,-140v77,0,95,73,156,88xm450,-235v-3,-108,-55,-188,-158,-188v-86,0,-150,76,-150,173v0,100,60,191,157,191v90,0,154,-80,151,-176xm63,-236v0,-149,92,-256,235,-256v137,0,230,98,230,241v0,151,-93,261,-237,261v-138,1,-228,-102,-228,-246","w":591},"\u00f6":{"d":"63,-236v0,-149,92,-256,235,-256v137,0,230,98,230,241v0,151,-93,261,-237,261v-138,1,-228,-102,-228,-246xm450,-235v-3,-108,-55,-188,-158,-188v-86,0,-150,76,-150,173v0,100,60,191,157,191v90,0,154,-80,151,-176xm156,-694r90,0r0,91r-90,0r0,-91xm375,-694r90,0r0,91r-90,0r0,-91","w":591},"\u00f7":{"d":"294,-602r95,0r0,95r-95,0r0,-95xm294,-136r95,0r0,95r-95,0r0,-95xm61,-355r562,0r0,68r-562,0r0,-68","w":683},"\u00f8":{"d":"63,-236v0,-149,92,-256,235,-256v64,0,117,19,159,58r51,-52r29,28r-54,54v30,41,45,92,45,153v0,151,-93,261,-237,261v-62,0,-114,-19,-155,-57r-54,54r-28,-27r55,-57v-31,-42,-46,-96,-46,-159xm400,-375v-94,-106,-258,-22,-258,125v0,42,9,79,27,112xm299,-59v132,0,189,-173,125,-284r-232,237v29,32,65,47,107,47","w":591},"\u00f9":{"d":"243,10v-119,-1,-155,-83,-155,-204r0,-288r80,0r0,294v-4,148,137,148,239,88r0,-382r80,0r0,482r-56,0r-17,-41v-62,34,-119,51,-171,51xm233,-756r178,158r-39,49r-184,-154","w":574},"\u00fa":{"d":"243,10v-119,-1,-155,-83,-155,-204r0,-288r80,0r0,294v-4,148,137,148,239,88r0,-382r80,0r0,482r-56,0r-17,-41v-62,34,-119,51,-171,51xm374,-756r45,53r-184,154r-39,-49","w":574},"\u00fb":{"d":"243,10v-119,-1,-155,-83,-155,-204r0,-288r80,0r0,294v-4,148,137,148,239,88r0,-382r80,0r0,482r-56,0r-17,-41v-62,34,-119,51,-171,51xm298,-728r125,140r-45,43r-86,-96r-88,96r-43,-38","w":574},"\u00fc":{"d":"243,10v-119,-1,-155,-83,-155,-204r0,-288r80,0r0,294v-4,148,137,148,239,88r0,-382r80,0r0,482r-56,0r-17,-41v-62,34,-119,51,-171,51xm135,-694r90,0r0,91r-90,0r0,-91xm354,-694r90,0r0,91r-90,0r0,-91","w":574},"\u00fd":{"d":"24,-482r83,0r155,409r143,-409r83,0r-278,741r-85,0r99,-240xm374,-756r45,53r-184,154r-39,-49","w":512},"\u00fe":{"d":"455,-235v0,-108,-56,-186,-157,-186v-105,0,-130,88,-130,193v0,114,44,171,132,171v102,0,155,-72,155,-178xm533,-249v4,140,-92,262,-225,260v-52,0,-98,-17,-135,-52r0,300r-80,0r0,-953r80,0r0,262v34,-38,80,-58,139,-58v140,0,217,96,221,241","w":596},"\u00ff":{"d":"24,-482r83,0r155,409r143,-409r83,0r-278,741r-85,0r99,-240xm108,-694r90,0r0,91r-90,0r0,-91xm327,-694r90,0r0,91r-90,0r0,-91","w":512},"\u2013":{"d":"0,-355r566,0r0,67r-566,0r0,-67","w":565},"\u2014":{"d":"0,-355r676,0r0,67r-676,0r0,-67","w":675},"\u2018":{"d":"44,-738r95,0r61,212r-95,0","w":219},"\u2019":{"d":"81,-738r95,0r-61,212r-95,0","w":219},"\u201c":{"d":"361,-738r-61,212r-95,0r61,-212r95,0xm176,-738r-61,212r-95,0r61,-212r95,0","w":405},"\u201d":{"d":"266,-738r95,0r-61,212r-95,0xm81,-738r95,0r-61,212r-95,0","w":405},"\u2026":{"d":"88,-103r102,0r0,103r-102,0r0,-103xm364,-103r102,0r0,103r-102,0r0,-103xm640,-103r102,0r0,103r-102,0r0,-103","w":839},"\u2032":{"d":"54,-738r90,0r0,209r-90,0r0,-209","w":197},"\u2033":{"d":"54,-738r90,0r0,209r-90,0r0,-209xm251,-738r91,0r0,209r-91,0r0,-209","w":395},"\u2122":{"d":"187,-460r-48,0r0,-239r-85,0r0,-39r218,0r0,39r-85,0r0,239xm337,-738r57,0r84,155r81,-155r58,0r0,278r-48,0r0,-218r-78,143r-33,0r-73,-145r0,220r-48,0r0,-278","w":695}}});
/*!
 * The following copyright notice may not be removed under any circumstances.
 * 
 * Copyright:
 * Copyright (c) 2009 Dave Crossland <dave@lab6.com>
 * 
 * Designer:
 * Dave Crossland
 * 
 * Vendor URL:
 * http://abattis.org
 */
Cufon.registerFont({"w":714,"face":{"font-family":"sans-serif","font-weight":700,"font-stretch":"normal","units-per-em":"1000","panose-1":"2 0 8 3 0 0 0 0 0 0","ascent":"739","descent":"-261","x-height":"10","bbox":"-18 -965 1162 266","underline-thickness":"56.6406","underline-position":"-113.77","unicode-range":"U+0020-U+2122"},"glyphs":{" ":{"w":273},"!":{"d":"90,-118r138,0r0,138r-138,0r0,-138xm97,-714r123,0r0,510r-123,0r0,-510","w":317},"\"":{"d":"224,-758r130,0r0,249r-130,0r0,-249xm34,-758r130,0r0,249r-130,0r0,-249","w":388},"#":{"d":"157,-714r118,0r0,191r135,0r0,-191r118,0r0,191r155,0r0,113r-155,0r0,132r155,0r0,113r-155,0r0,200r-118,0r0,-200r-135,0r0,200r-118,0r0,-200r-154,0r0,-113r154,0r0,-132r-155,0r0,-113r155,0r0,-191xm275,-410r0,132r135,0r0,-132r-135,0","w":684},"$":{"d":"516,-499v-80,-22,-230,-43,-261,26v31,55,130,52,192,79v58,25,123,52,123,129v0,98,-74,139,-164,156r0,141r-121,0r0,-136v-53,-2,-119,-19,-174,-42r36,-93v67,35,187,53,264,25v30,-11,44,-49,12,-65v-105,-51,-295,-38,-295,-184v0,-90,73,-128,157,-145r0,-130r121,0r0,121v63,1,92,10,143,25","w":666},"%":{"d":"201,-599v-31,0,-47,22,-47,65v0,50,15,75,47,75v32,0,48,-25,48,-73v0,-45,-16,-67,-48,-67xm66,-534v-2,-88,55,-152,135,-152v94,0,143,56,145,153v2,90,-59,160,-145,159v-94,-2,-133,-62,-135,-160xm555,-237v-32,0,-48,22,-48,65v0,50,16,74,48,74v32,0,48,-24,48,-72v0,-45,-16,-67,-48,-67xm411,-172v0,-90,62,-153,144,-152v92,1,134,58,135,153v1,90,-51,159,-135,159v-95,0,-144,-59,-144,-160xm581,-694r132,0r-539,694r-132,0","w":729},"&":{"d":"345,-723v130,0,229,113,159,229v-30,49,-76,85,-119,119r140,150r158,-172r73,74r-157,176r157,167r-154,0r-87,-90v-63,59,-133,111,-253,113v-113,2,-197,-73,-194,-181v3,-122,76,-185,148,-240v-47,-51,-87,-88,-89,-170v-3,-105,106,-175,218,-175xm407,-558v-8,-90,-161,-59,-158,14v2,47,39,64,63,92v57,-48,82,-50,95,-106xm189,-160v-5,82,108,116,178,70v23,-15,48,-33,73,-56r-148,-155v-46,39,-98,66,-103,141","w":775},"'":{"d":"34,-758r130,0r0,249r-130,0r0,-249","w":197},"(":{"d":"251,-782r100,52v-108,160,-185,439,-102,678v28,80,60,153,102,217r-97,62r-11,-18v-94,-157,-192,-379,-141,-631v28,-143,87,-254,149,-360","w":362},")":{"d":"111,-782v102,167,201,380,149,645v-28,144,-87,259,-152,364r-96,-62v107,-160,184,-436,101,-675v-28,-81,-61,-154,-102,-220","w":362},"*":{"d":"229,-714r125,0r-7,137r114,-75r63,109r-122,61r122,62r-63,109r-114,-75r7,136r-125,0r8,-136r-114,75r-63,-109r123,-62r-123,-61r63,-109r114,75","w":583},"+":{"d":"286,-622r112,0r0,247r245,0r0,107r-245,0r0,247r-112,0r0,-247r-245,0r0,-107r245,0r0,-247","w":683},",":{"d":"84,-103r131,0r-93,230r-131,0","w":278},"-":{"d":"65,-375r460,0r0,107r-460,0r0,-107","w":590},".":{"d":"68,-123r142,0r0,143r-142,0r0,-143","w":278},"\/":{"d":"247,-714r126,0r-256,778r-125,0","w":354},"0":{"d":"358,-104v159,0,207,-184,168,-343v-21,-83,-72,-141,-169,-141v-127,0,-180,99,-180,233v0,141,51,251,181,251xm54,-355v0,-212,99,-348,303,-348v203,0,304,138,304,349v0,217,-97,364,-303,364v-207,0,-304,-147,-304,-365"},"1":{"d":"325,-694r140,0r0,581r168,0r0,113r-484,0r0,-113r175,0r0,-460r-155,53r-47,-101"},"2":{"d":"360,-699v163,0,322,100,252,251v-68,147,-267,184,-339,335r365,0r0,113r-523,0r0,-64v57,-168,192,-260,324,-350v28,-19,60,-41,60,-78v0,-58,-85,-95,-157,-95v-55,0,-140,20,-213,45r-37,-100v76,-37,172,-57,268,-57"},"3":{"d":"461,-514v-3,-51,-70,-73,-133,-73v-58,0,-128,20,-186,47r-42,-102v60,-32,146,-60,240,-60v131,0,251,61,251,175v0,65,-35,118,-77,146v66,27,107,79,107,161v0,158,-143,242,-315,242v-79,0,-155,-18,-220,-46r36,-103v66,16,142,32,185,32v95,0,220,-44,184,-138v-28,-73,-139,-82,-251,-81r0,-111v102,-2,206,-4,221,-89"},"4":{"d":"369,-694r166,0r0,433r121,0r0,113r-121,0r0,148r-120,0r0,-148r-356,0r0,-77xm400,-261r0,-281r-187,281r187,0","w":754},"5":{"d":"512,-224v-12,-94,-102,-117,-210,-119v-41,0,-120,5,-183,14r0,-365r498,0r0,113r-374,0r0,127v211,-19,397,29,397,223v0,252,-318,267,-556,219r24,-113v137,27,389,52,404,-99"},"6":{"d":"83,-285v-4,-307,186,-443,501,-409r-9,112v-165,-15,-315,14,-349,144v44,-24,93,-37,150,-37v146,0,258,91,254,230v-4,164,-112,257,-281,257v-184,0,-263,-110,-266,-297xm510,-236v0,-79,-77,-131,-156,-131v-78,0,-150,49,-150,125v0,76,75,146,156,146v77,0,150,-65,150,-140"},"7":{"d":"64,-694r587,0r0,73r-372,621r-141,0r353,-576r-427,0r0,-118"},"8":{"d":"477,-511v0,-110,-237,-108,-237,-5v0,69,82,78,141,98v51,-33,85,-41,96,-93xm365,-104v101,0,186,-73,137,-162v-29,-52,-94,-69,-161,-88v-71,19,-142,64,-142,136v0,71,81,114,166,114xm112,-526v0,-113,111,-177,242,-177v147,0,249,51,249,179v0,67,-37,101,-81,136v68,36,120,91,120,180v0,149,-124,214,-282,218v-147,3,-287,-76,-287,-209v0,-85,58,-150,119,-186v-49,-31,-80,-77,-80,-141"},"9":{"d":"83,-458v0,-158,119,-246,283,-246v182,0,265,111,265,300v0,306,-189,438,-502,406r10,-112v168,18,327,-16,349,-162v-44,24,-94,36,-149,36v-142,0,-256,-89,-256,-222xm510,-461v0,-68,-82,-134,-156,-134v-72,0,-150,62,-150,129v0,71,81,122,156,122v74,0,150,-49,150,-117"},":":{"d":"68,-123r142,0r0,143r-142,0r0,-143xm68,-505r142,0r0,143r-142,0r0,-143","w":278},";":{"d":"84,-103r131,0r-93,230r-131,0xm68,-505r142,0r0,143r-142,0r0,-143","w":278},"<":{"d":"495,-583r0,120r-316,159r316,152r0,125r-466,-221r0,-106","w":523},"=":{"d":"87,-265r509,0r0,114r-509,0r0,-114xm87,-486r509,0r0,113r-509,0r0,-113","w":683},">":{"d":"29,-583r466,229r0,106r-466,221r0,-125r316,-152r-316,-159r0,-120","w":523},"?":{"d":"132,-118r138,0r0,138r-138,0r0,-138xm207,-722v166,0,276,96,231,262v-33,124,-185,124,-176,289r-123,0v-9,-147,74,-205,151,-270v20,-17,37,-46,37,-81v-2,-117,-185,-98,-264,-61r-40,-95v49,-28,112,-44,184,-44","w":510},"@":{"d":"273,-221v0,-191,164,-325,350,-247r9,-25r89,0r0,370v-2,64,8,106,63,88v55,-36,72,-118,72,-214v2,-220,-98,-337,-319,-335v-234,2,-347,144,-347,370v0,172,84,278,215,320v84,27,176,11,243,-26r49,93v-117,75,-314,65,-433,2v-141,-75,-223,-249,-189,-474v38,-253,190,-400,483,-404v328,-5,462,222,412,551v-19,127,-78,221,-216,228v-61,3,-108,-34,-129,-76v-170,89,-352,-30,-352,-221xm388,-232v0,124,108,194,217,141r0,-284v-116,-47,-217,18,-217,143","w":1025},"A":{"d":"338,-694r135,0r275,694r-127,0r-78,-182r-283,0r-77,182r-120,0xm500,-294r-98,-258r-99,258r197,0","w":755},"B":{"d":"521,-492v8,-120,-140,-95,-256,-98r0,192v71,-2,120,-5,148,-10v68,-12,105,-40,108,-84xm591,-212v0,-83,-104,-108,-205,-108v-3,0,-43,2,-121,6r0,201v134,-6,326,27,326,-99xm594,-392v101,29,161,190,81,288v-57,70,-157,104,-288,104r-245,0r0,-694v225,5,515,-43,515,177v0,51,-33,99,-63,125","w":775},"C":{"d":"523,10v-236,-6,-389,-127,-389,-356v0,-232,159,-348,396,-353v79,-2,158,18,225,46r-38,106v-59,-23,-136,-39,-190,-38v-158,4,-269,87,-269,238v0,222,266,287,467,206r40,98v-73,31,-158,54,-242,53","w":788},"D":{"d":"358,-113v212,18,351,-115,293,-317v-30,-103,-118,-151,-256,-151r-126,0r0,468r89,0xm786,-367v0,269,-176,379,-461,367r-179,0r0,-694r246,0v238,3,394,94,394,327","w":864},"E":{"d":"142,0r0,-694r486,0r0,113r-363,0r0,167r337,0r0,113r-337,0r0,188r363,0r0,113r-486,0","w":706},"F":{"d":"265,-581r0,167r329,0r0,113r-329,0r0,301r-123,0r0,-694r482,0r0,113r-359,0","w":689},"G":{"d":"229,-351v0,157,123,245,287,247v60,0,109,-14,147,-41r0,-133r-217,0r0,-108r338,0r0,285v-104,137,-409,140,-546,35v-96,-74,-166,-227,-118,-387v46,-152,173,-244,373,-246v99,-1,193,25,266,71r-51,97v-72,-43,-208,-76,-310,-39v-92,33,-169,98,-169,219","w":856},"H":{"d":"636,-694r123,0r0,694r-123,0r0,-301r-371,0r0,301r-123,0r0,-694r123,0r0,279r371,0r0,-279","w":861},"I":{"d":"156,-694r123,0r0,694r-123,0r0,-694","w":396},"J":{"d":"74,-117v119,32,249,3,249,-133r0,-444r123,0r0,444v18,223,-184,295,-392,241","w":545},"K":{"d":"265,-376r316,-318r158,0r-334,332r351,362r-159,0r-332,-336r0,336r-123,0r0,-694r123,0r0,318","w":771},"L":{"d":"142,-694r123,0r0,581r351,0r0,113r-474,0r0,-694","w":633},"M":{"d":"142,-694r149,0r230,399r234,-399r142,0r0,694r-123,0r0,-519r-197,320r-116,0r-196,-320r0,519r-123,0r0,-694","w":1000},"N":{"d":"142,-694r135,0r388,533r0,-533r123,0r0,694r-138,0r-385,-534r0,534r-123,0r0,-694","w":890},"O":{"d":"105,-345v0,-222,144,-356,367,-356v221,0,365,128,365,347v0,224,-144,361,-369,361v-221,0,-363,-127,-363,-352xm475,-105v174,0,278,-155,222,-332v-30,-95,-109,-151,-230,-151v-147,0,-232,84,-236,233v-4,144,105,250,244,250","w":903},"P":{"d":"682,-499v0,215,-198,240,-417,229r0,270r-123,0r0,-694v238,7,540,-51,540,195xm556,-485v0,-123,-168,-90,-291,-96r0,198v126,3,291,21,291,-102","w":733},"Q":{"d":"105,-344v0,-223,142,-354,367,-357v217,-2,365,139,365,355v0,89,-21,164,-66,225r89,84r-71,73r-98,-89v-62,40,-135,60,-218,60v-225,0,-368,-124,-368,-351xm709,-335v-2,-162,-88,-253,-245,-253v-145,0,-233,86,-233,235v0,159,99,248,252,248v42,0,81,-9,116,-26r-163,-132r86,-75r157,132v20,-35,30,-77,30,-129","w":913},"R":{"d":"437,-694v146,-1,242,52,242,199v0,113,-61,177,-152,205r210,290r-160,0r-195,-269r-117,0r0,269r-123,0r0,-694r295,0xm265,-382v126,-3,286,24,286,-102v0,-65,-50,-97,-150,-97r-136,0r0,199","w":781},"S":{"d":"151,-429v-93,-243,278,-324,514,-237r-40,114v-56,-18,-128,-30,-180,-30v-76,0,-169,24,-174,83v12,68,96,79,161,98v125,37,292,89,240,259v-52,171,-365,185,-537,103r-18,-6r42,-119v73,30,169,52,222,52v93,0,205,-39,155,-121v-101,-90,-334,-62,-385,-196","w":744},"T":{"d":"42,-694r626,0r0,113r-251,0r0,581r-124,0r0,-581r-251,0r0,-113","w":670},"U":{"d":"745,-277v14,204,-102,290,-301,287v-207,-3,-302,-71,-302,-253r0,-451r123,0r0,440v-3,113,69,152,179,152v109,0,179,-39,179,-152r0,-440r122,0r0,417","w":848},"V":{"d":"68,-694r141,0r205,562r203,-562r134,0r-269,694r-146,0","w":764},"W":{"d":"68,-694r130,0r160,533r201,-533r113,0r165,533r195,-533r130,0r-266,694r-118,0r-167,-531r-196,531r-118,0","w":1177},"X":{"d":"598,-694r144,0r-244,331r271,363r-156,0r-204,-276r-204,276r-151,0r275,-362r-245,-332r148,0r186,245","w":748},"Y":{"d":"49,-694r145,0r186,269r189,-269r141,0r-266,370r0,324r-138,0r0,-324","w":696},"Z":{"d":"90,-694r611,0r0,75r-449,506r462,0r0,113r-638,0r0,-76r438,-505r-424,0r0,-113","w":743},"[":{"d":"102,-758r264,0r0,113r-144,0r0,752r144,0r0,113r-264,0r0,-978","w":384},"\\":{"d":"-18,-714r125,0r256,778r-126,0","w":354},"]":{"d":"19,-758r264,0r0,978r-264,0r0,-113r144,0r0,-752r-144,0r0,-113","w":379},"^":{"d":"354,-782r153,170r-74,71r-85,-95r-87,94r-73,-65","w":722},"_":{"d":"53,-93r460,0r0,113r-460,0r0,-113","w":566},"`":{"d":"162,-802r280,172r-51,87r-285,-164","w":547},"a":{"d":"394,-284v6,-80,-39,-101,-118,-101v-37,0,-111,10,-164,27r-25,-97v156,-57,427,-74,427,139r0,316r-90,0r-13,-32v-129,100,-433,8,-333,-164v48,-83,183,-86,316,-88xm187,-142v21,63,156,61,207,17r0,-68v-65,0,-127,2,-159,11v-32,8,-48,21,-48,40","w":602},"b":{"d":"595,-247v3,161,-108,259,-270,257v-49,0,-95,-9,-137,-26r-6,16r-89,0r0,-738r120,0r0,267v42,-14,84,-21,128,-21v160,3,251,85,254,245xm477,-234v0,-139,-139,-178,-264,-136r0,263v121,34,264,8,264,-127","w":657},"c":{"d":"337,10v-168,-1,-274,-73,-274,-241v0,-177,108,-258,285,-260v62,-1,120,15,170,37r-32,96v-114,-45,-305,-38,-305,112v0,100,63,150,190,150v39,1,78,-9,109,-22r33,93v-53,20,-113,36,-176,35","w":568},"d":{"d":"317,10v-157,0,-249,-83,-254,-243v-7,-205,183,-300,384,-243r0,-262r120,0r0,738r-88,0r-10,-22v-47,21,-98,32,-152,32xm182,-245v0,139,143,174,265,132r0,-262v-125,-35,-265,-8,-265,130","w":660},"e":{"d":"341,10v-171,-1,-278,-72,-278,-237v0,-173,108,-260,280,-265v178,-5,223,122,212,308r-363,0v29,94,208,110,316,67r24,93v-56,21,-123,35,-191,34xm437,-284v-5,-68,-43,-97,-114,-98v-71,-1,-121,40,-130,98r244,0","w":618},"f":{"d":"476,-575v-93,-27,-231,-31,-210,93r192,0r0,103r-192,0r0,379r-120,0r0,-379r-80,0r0,-103r80,0v-14,-154,59,-216,205,-216v45,0,101,10,145,26","w":480},"g":{"d":"323,10v-162,-4,-258,-88,-261,-250v-4,-212,214,-302,407,-221r7,-21r90,0r0,492v-3,173,-101,253,-277,254v-68,1,-137,-16,-195,-40r36,-95v43,16,99,28,146,28v115,0,173,-53,170,-169v-41,15,-82,22,-123,22xm187,-248v0,130,138,184,259,134r0,-255v-125,-45,-259,-8,-259,121","w":654},"h":{"d":"376,-491v137,-1,191,80,191,217r0,274r-119,0r0,-282v3,-118,-140,-112,-235,-71r0,353r-120,0r0,-738r120,0r0,280v59,-22,113,-33,163,-33","w":654},"i":{"d":"81,-694r134,0r0,132r-134,0r0,-132xm88,-482r120,0r0,482r-120,0r0,-482","w":295},"j":{"d":"87,-694r135,0r0,132r-135,0r0,-132xm95,-482r120,0r-1,558v-5,109,-71,161,-158,190r-47,-95v49,-20,86,-58,86,-116r0,-537","w":295},"k":{"d":"208,-289r231,-203r145,0r-249,221r257,271r-148,0r-236,-240r0,240r-120,0r0,-738r120,0r0,449","w":604},"l":{"d":"98,-738r120,0r0,738r-120,0r0,-738","w":315},"m":{"d":"757,-285v-1,-114,-124,-106,-219,-67v9,105,2,238,4,352r-120,0r0,-287v-1,-109,-120,-106,-214,-65r0,352r-120,0r0,-482r89,0r14,31v100,-48,229,-64,302,8v61,-32,125,-48,194,-48v133,-1,190,72,190,205r0,286r-120,0r0,-285","w":966},"n":{"d":"439,-283v5,-122,-137,-109,-231,-70r0,353r-120,0r0,-482r84,0r16,33v67,-29,129,-43,187,-43v132,-1,185,75,185,207r0,285r-121,0r0,-283","w":647},"o":{"d":"63,-236v0,-159,112,-256,276,-256v156,0,269,87,269,242v0,161,-113,260,-278,260v-157,0,-267,-92,-267,-246xm490,-236v-3,-95,-66,-147,-159,-147v-85,0,-148,48,-149,134v-1,85,68,150,158,150v83,0,152,-55,150,-137","w":671},"p":{"d":"592,-246v6,201,-183,298,-379,239r0,266r-125,0r0,-741r89,0r11,23v50,-21,101,-33,153,-33v156,0,246,84,251,246xm474,-234v0,-140,-138,-177,-261,-134r0,260v121,37,261,8,261,-126","w":654},"q":{"d":"62,-238v-4,-214,209,-306,405,-223r9,-21r86,0r0,741r-121,0r0,-272v-43,15,-85,23,-128,23v-158,0,-248,-86,-251,-248xm181,-246v0,138,139,175,260,132r0,-255v-127,-44,-260,-9,-260,123","w":649},"r":{"d":"182,-457v84,-39,202,-50,280,-6r-38,100v-62,-29,-150,-24,-216,3r0,360r-120,0r0,-482r80,0","w":462},"s":{"d":"523,-143v0,123,-120,150,-254,153v-68,1,-144,-18,-206,-46r37,-97v82,35,185,54,265,27v31,-11,42,-45,10,-60v-105,-47,-294,-34,-294,-175v0,-169,273,-172,421,-124r-33,98v-44,-13,-97,-23,-142,-22v-56,1,-109,6,-119,49v17,38,79,39,124,54v83,27,191,44,191,143","w":576},"t":{"d":"229,-163v8,84,93,76,180,57r19,92v-146,46,-319,38,-319,-141r0,-224r-75,0r0,-103r75,0r0,-139r120,0r0,139r177,0r0,103r-177,0r0,216","w":458},"u":{"d":"208,-198v-3,122,144,107,239,69r0,-353r120,0r0,482r-89,0r-15,-33v-65,28,-128,43,-189,43v-132,0,-186,-73,-186,-207r0,-285r120,0r0,284","w":654},"v":{"d":"550,-482r-190,482r-130,0r-198,-482r138,0r128,355r126,-355r126,0","w":564},"w":{"d":"29,-482r129,0r115,357r150,-357r108,0r115,358r156,-358r129,0r-231,482r-110,0r-113,-347r-153,347r-109,0","w":942},"x":{"d":"32,-482r142,0r146,176r140,-176r136,0r-200,245r190,237r-142,0r-139,-166r-133,166r-134,0r191,-237","w":595},"y":{"d":"24,-482r138,0r159,370r144,-370r127,0r-314,741r-146,0r119,-255","w":597},"z":{"d":"73,-482r448,0r0,62r-276,317r288,0r0,103r-460,0r0,-62r272,-317r-272,0r0,-103","w":606},"{":{"d":"24,-319v100,-7,117,-99,125,-210v9,-133,77,-222,214,-230r24,101v-126,3,-124,134,-136,254v-6,56,-32,105,-70,136v72,54,72,169,86,279v9,67,50,105,120,110r-24,102v-162,-9,-213,-138,-221,-310v-3,-70,-43,-126,-118,-130r0,-102","w":404},"|":{"d":"156,-802r120,0r0,972r-120,0r0,-972","w":431},"}":{"d":"41,-759v166,9,211,136,221,309v4,77,46,125,118,131r0,102v-105,5,-116,109,-125,216v-11,130,-81,215,-214,224r-23,-102v125,-3,123,-134,135,-253v6,-56,33,-105,70,-136v-73,-53,-70,-171,-86,-280v-10,-66,-49,-105,-119,-110","w":404},"~":{"d":"298,-661v-40,-38,-44,23,-52,58r-3,20r-93,-13v20,-79,22,-179,122,-177v63,1,101,43,133,75v10,9,18,14,23,14v25,-9,25,-59,32,-93r93,14v-18,82,-23,178,-122,178v-62,0,-100,-45,-133,-76","w":683},"\u00a0":{"w":273},"\u00a1":{"d":"97,-441r123,0r0,661r-123,0r0,-661xm90,-665r138,0r0,138r-138,0r0,-138","w":317},"\u00a2":{"d":"53,-348v0,-144,70,-248,192,-272r0,-138r99,0r0,133v36,3,85,19,123,36r-31,95v-36,-12,-80,-24,-119,-24v-98,1,-140,56,-146,153v-9,153,131,200,259,148r32,92v-36,15,-84,29,-118,32r0,145r-99,0r0,-147v-121,-24,-191,-107,-192,-253","w":498},"\u00a3":{"d":"441,-612v-121,0,-155,78,-148,203r259,0r0,106r-259,0r0,217r288,0r0,106r-527,0r0,-106r119,0r0,-217r-86,0r0,-106r86,0v-11,-199,75,-307,258,-310v45,-1,98,12,141,26r-38,96v-29,-7,-67,-15,-93,-15","w":634},"\u00a4":{"d":"398,-532r85,-85r89,90r-85,84v25,50,25,112,1,162r84,84r-90,89r-84,-84v-49,25,-113,25,-162,1r-84,84r-90,-89r85,-85v-25,-51,-25,-111,0,-162r-85,-85r89,-90r86,86v51,-25,110,-25,161,0xm395,-362v0,-43,-36,-80,-78,-80v-42,0,-77,37,-77,80v0,44,35,80,77,80v41,0,78,-38,78,-80","w":634},"\u00a5":{"d":"35,-714r137,0r146,273r150,-273r132,0r-208,353r122,0r0,101r-141,0r0,57r141,0r0,101r-141,0r0,122r-118,0r0,-122r-134,0r0,-101r134,0r0,-57r-134,0r0,-101r116,0","w":634},"\u00a6":{"d":"156,-245r120,0r0,415r-120,0r0,-415xm156,-802r120,0r0,413r-120,0r0,-413","w":431},"\u00a7":{"d":"152,-680v71,-52,237,-47,324,-13r-35,103v-40,-14,-90,-24,-135,-24v-58,0,-131,30,-91,78v94,67,281,53,281,203v0,38,-11,71,-33,100v22,23,33,52,33,84v-1,201,-286,210,-443,138r36,-97v51,19,116,35,160,35v76,0,115,-23,115,-67v-27,-68,-137,-61,-197,-97v-47,-28,-90,-59,-92,-130v0,-34,12,-65,35,-93v-46,-43,-44,-133,-3,-179v13,-14,28,-28,45,-41xm212,-402v-36,75,90,80,144,108v18,-29,1,-58,-25,-68v-35,-13,-83,-27,-119,-40","w":554},"\u00a8":{"d":"118,-714r131,0r0,131r-131,0r0,-131xm337,-714r131,0r0,131r-131,0r0,-131","w":585},"\u00a9":{"d":"253,-329v-9,-178,165,-250,312,-176r-27,79v-25,-10,-59,-20,-89,-19v-66,0,-99,35,-99,106v0,113,96,137,184,99r28,77v-36,16,-83,28,-125,27v-120,-3,-178,-71,-184,-193xm691,-333v0,-150,-110,-256,-261,-256v-151,0,-262,106,-262,256v0,150,111,255,262,255v150,0,261,-106,261,-255xm573,-665v154,64,271,236,205,444v-46,143,-163,248,-348,248v-213,0,-367,-150,-367,-360v0,-167,97,-277,221,-331v90,-40,198,-39,289,-1","w":859},"\u00aa":{"d":"145,-448v7,42,78,47,98,4v-1,-13,2,-30,-1,-41v-51,1,-92,0,-97,37xm73,-447v3,-91,77,-103,170,-103v3,-74,-98,-55,-149,-36r-14,-58v94,-38,235,-37,235,92r0,193r-54,0r-7,-17v-63,56,-184,18,-181,-71","w":374},"\u00ab":{"d":"381,-502r140,0r-148,198r148,198r-140,0r-139,-198xm151,-502r141,0r-149,198r149,198r-141,0r-139,-198","w":526},"\u00ac":{"d":"41,-377r602,0r0,259r-113,0r0,-147r-489,0r0,-112","w":683},"\u00ad":{"d":"87,-375r350,0r0,107r-350,0r0,-107","w":524},"\u00ae":{"d":"348,-560v0,-40,-43,-32,-82,-33r0,63v37,-1,82,7,82,-30xm110,-509v0,99,89,186,191,186v47,0,87,-15,122,-44r-73,0r-49,-101r-35,0r0,101r-70,0r0,-290r121,0v64,0,99,31,99,92v0,40,-16,68,-47,84r57,112v36,-32,64,-78,65,-140v2,-99,-89,-187,-190,-187v-102,0,-191,87,-191,187xm301,-774v156,0,269,111,269,265v0,154,-115,265,-269,265v-159,0,-269,-106,-269,-265v0,-155,114,-265,269,-265","w":601},"\u00af":{"d":"119,-821r445,0r0,113r-445,0r0,-113","w":683},"\u00b0":{"d":"186,-603v0,-23,-18,-45,-42,-45v-24,0,-43,21,-43,45v0,24,18,45,43,45v24,0,42,-22,42,-45xm144,-732v69,0,127,60,127,129v0,70,-58,130,-127,130v-69,0,-127,-60,-127,-130v0,-69,59,-129,127,-129","w":287},"\u00b1":{"d":"87,-160r509,0r0,107r-509,0r0,-107xm286,-714r111,0r0,201r199,0r0,107r-199,0r0,201r-111,0r0,-201r-199,0r0,-107r199,0r0,-201","w":683},"\u00b2":{"d":"48,-719v92,-59,265,-52,265,72v0,109,-117,130,-154,213r160,0r0,76r-259,0v-3,-134,92,-187,158,-256v32,-34,-6,-68,-45,-68v-17,0,-65,14,-98,29","w":390},"\u00b3":{"d":"219,-646v-12,-53,-96,-30,-138,-5r-29,-69v90,-57,247,-47,247,67v0,30,-10,55,-31,75v31,19,46,48,46,87v0,128,-158,170,-268,110r23,-68v66,21,151,33,164,-33v-3,-50,-58,-49,-110,-50r0,-74v54,2,102,-11,96,-40","w":390},"\u00b4":{"d":"387,-802r54,95r-284,165r-50,-87","w":547},"\u00b5":{"d":"73,-502r120,0r0,292v-2,143,94,162,199,105r0,-397r120,0r0,522r-90,0r-10,-24v-72,39,-146,52,-219,16r0,208r-120,0r0,-722","w":579},"\u00b6":{"d":"43,-553v0,-150,98,-205,250,-205r282,0r0,778r-120,0r0,-665r-78,0r0,665r-120,0r0,-335v-133,-14,-214,-91,-214,-238","w":647},"\u00b7":{"d":"73,-429r142,0r0,142r-142,0r0,-142","w":288},"\u00b8":{"d":"419,153v1,80,-88,129,-176,101v-27,-9,-53,-16,-79,-23r24,-83v37,12,102,30,114,28v29,4,39,-25,14,-35v-16,-6,-76,-25,-102,-32r38,-140r103,0r-21,83v57,19,85,52,85,101","w":537},"\u00b9":{"d":"15,-721v52,-12,95,-34,165,-29r0,391r-80,0r0,-310r-67,19","w":265},"\u00ba":{"d":"271,-558v0,-70,-20,-121,-85,-121v-64,0,-85,50,-85,118v0,74,19,133,86,133v66,0,84,-58,84,-130xm187,-754v114,0,163,77,165,195v2,112,-62,204,-166,204v-118,0,-165,-83,-165,-205v0,-115,57,-194,166,-194","w":372},"\u00bb":{"d":"5,-502r141,0r138,198r-138,198r-141,0r149,-198xm235,-502r140,0r139,198r-139,198r-140,0r149,-198","w":526},"\u00bc":{"d":"569,-706r114,0r-415,718r-114,0xm165,-706r68,0r0,416r-89,0r0,-324r-65,18r-20,-81xm673,-420r95,0r0,259r52,0r0,78r-52,0r0,95r-89,0r0,-95r-191,0r0,-60xm679,-293r-84,132r84,0r0,-132","w":878},"\u00bd":{"d":"569,-706r114,0r-415,718r-114,0xm165,-706r68,0r0,421r-89,0r0,-329r-65,18r-20,-81xm564,-383v103,-65,290,-55,290,78v0,121,-131,143,-171,236r177,0r0,81r-283,0v-4,-112,60,-163,113,-222v28,-31,64,-46,76,-87v-1,-25,-33,-46,-66,-46v-20,0,-67,15,-106,30","w":926},"\u00be":{"d":"647,-706r114,0r-415,718r-114,0xm746,-420r95,0r0,259r53,0r0,78r-53,0r0,95r-89,0r0,-95r-190,0r0,-60xm752,-293r-84,132r84,0r0,-132xm270,-602v0,-23,-25,-36,-55,-36v-24,0,-66,15,-98,29r-31,-73v43,-21,95,-38,135,-38v70,0,136,44,134,111v0,33,-12,61,-35,83v35,21,53,52,53,95v1,138,-173,188,-293,120r25,-73v36,10,82,20,100,20v39,0,82,-21,81,-57v-2,-52,-57,-56,-122,-56r0,-80v50,1,106,-2,106,-45","w":952},"\u00bf":{"d":"77,-60v94,50,264,69,264,-50v0,-79,-74,-93,-114,-140v-49,-56,-78,-139,-74,-252r123,0v-7,122,43,189,112,235v60,40,96,147,52,232v-47,89,-164,148,-295,113v-32,-9,-74,-25,-108,-42xm146,-714r137,0r0,138r-137,0r0,-138","w":511},"\u00c0":{"d":"338,-694r135,0r275,694r-127,0r-78,-182r-283,0r-77,182r-120,0xm500,-294r-98,-258r-99,258r197,0xm288,-950r308,173r-55,87r-313,-164","w":755},"\u00c1":{"d":"338,-694r135,0r275,694r-127,0r-78,-182r-283,0r-77,182r-120,0xm500,-294r-98,-258r-99,258r197,0xm522,-950r61,96r-314,164r-55,-87","w":755},"\u00c2":{"d":"338,-694r135,0r275,694r-127,0r-78,-182r-283,0r-77,182r-120,0xm500,-294r-98,-258r-99,258r197,0xm417,-949r167,170r-81,71r-94,-95r-96,94r-80,-65","w":755},"\u00c3":{"d":"537,-920r100,15v-18,85,-29,178,-133,176v-66,-2,-111,-44,-146,-75v-39,-35,-46,8,-57,59r-4,19r-102,-13v21,-83,30,-179,135,-177v72,2,110,49,152,80v43,32,44,-46,55,-84xm500,-294r-98,-258r-99,258r197,0xm338,-694r135,0r275,694r-127,0r-78,-182r-283,0r-77,182r-120,0","w":755},"\u00c4":{"d":"338,-694r135,0r275,694r-127,0r-78,-182r-283,0r-77,182r-120,0xm500,-294r-98,-258r-99,258r197,0xm214,-926r144,0r0,130r-144,0r0,-130xm455,-926r144,0r0,130r-144,0r0,-130","w":755},"\u00c5":{"d":"243,-770v-1,-81,80,-145,164,-145v84,0,166,64,164,145v-1,57,-37,98,-79,118r256,652r-127,0r-78,-182r-283,0r-77,182r-120,0r257,-653v-41,-20,-76,-62,-77,-117xm467,-770v0,-29,-27,-54,-59,-54v-33,0,-63,23,-62,54v1,31,28,55,62,55v32,0,59,-25,59,-55xm500,-294r-98,-258r-99,258r197,0","w":755},"\u00c6":{"d":"442,-581r-126,287r185,0r0,-287r-59,0xm361,-694r585,0r0,113r-314,0r0,167r287,0r0,113r-287,0r0,188r314,0r0,113r-445,0r0,-182r-232,0r-83,182r-123,0","w":1015},"\u00c7":{"d":"613,134v0,79,-89,132,-180,109r-112,-28r29,-90v44,13,118,32,130,30v29,2,40,-23,8,-32v-19,-6,-79,-23,-112,-31r30,-96v-159,-35,-272,-162,-272,-343v0,-230,160,-347,397,-352v78,-2,158,18,224,46r-38,106v-130,-55,-303,-51,-384,34v-38,39,-72,95,-72,166v2,221,264,288,464,206r40,98v-71,31,-154,53,-238,53r-6,22v46,17,92,40,92,102","w":788},"\u00c8":{"d":"142,-694r486,0r0,113r-363,0r0,167r337,0r0,113r-337,0r0,188r363,0r0,113r-486,0r0,-694xm247,-959r320,172r-50,87r-325,-164","w":706},"\u00c9":{"d":"142,-694r486,0r0,113r-363,0r0,167r337,0r0,113r-337,0r0,188r363,0r0,113r-486,0r0,-694xm532,-959r54,95r-324,164r-50,-87","w":706},"\u00ca":{"d":"142,-694r486,0r0,113r-363,0r0,167r337,0r0,113r-337,0r0,188r363,0r0,113r-486,0r0,-694xm394,-953r170,171r-78,70r-101,-95r-104,94r-76,-65","w":706},"\u00cb":{"d":"142,-694r486,0r0,113r-363,0r0,167r337,0r0,113r-337,0r0,188r363,0r0,113r-486,0r0,-694xm190,-927r142,0r0,131r-142,0r0,-131xm438,-927r142,0r0,131r-142,0r0,-131","w":706},"\u00cc":{"d":"164,-694r123,0r0,694r-123,0r0,-694xm122,-949r280,173r-51,86r-285,-164","w":396},"\u00cd":{"d":"203,-694r123,0r0,694r-123,0r0,-694xm382,-950r55,95r-325,165r-50,-88","w":436},"\u00ce":{"d":"165,-694r123,0r0,694r-123,0r0,-694xm235,-949r153,171r-76,70r-84,-95r-86,94r-74,-65","w":396},"\u00cf":{"d":"142,-694r123,0r0,694r-123,0r0,-694xm43,-891r130,0r0,131r-130,0r0,-131xm233,-891r130,0r0,131r-130,0r0,-131","w":367},"\u00d0":{"d":"396,-694v240,4,412,85,412,327v0,245,-147,367,-443,367r-201,0r0,-301r-107,0r0,-114r107,0r0,-279r232,0xm684,-351v-3,-161,-113,-228,-282,-230r-115,0r0,166r127,0r0,114r-127,0r0,188v220,8,401,-23,397,-238","w":863},"\u00d1":{"d":"601,-920r100,15v-19,84,-29,178,-133,176v-66,-2,-111,-44,-146,-75v-39,-35,-48,8,-58,59r-4,19r-101,-13v18,-87,31,-179,135,-177v72,1,110,50,152,80v43,31,42,-46,55,-84xm142,-694r135,0r388,533r0,-533r123,0r0,694r-138,0r-385,-534r0,534r-123,0r0,-694","w":890},"\u00d2":{"d":"105,-345v0,-222,144,-356,367,-356v221,0,365,128,365,347v0,224,-144,361,-369,361v-221,0,-363,-127,-363,-352xm475,-105v144,-5,236,-89,236,-241v0,-154,-97,-242,-246,-242v-145,0,-229,85,-234,233v-4,144,105,255,244,250xm386,-951r305,172r-55,87r-310,-164","w":903},"\u00d3":{"d":"105,-345v0,-222,144,-356,367,-356v221,0,365,128,365,347v0,224,-144,361,-369,361v-221,0,-363,-127,-363,-352xm475,-105v144,-5,236,-89,236,-241v0,-154,-97,-242,-246,-242v-145,0,-229,85,-234,233v-4,144,105,255,244,250xm598,-950r59,95r-310,165r-54,-88","w":903},"\u00d4":{"d":"105,-345v0,-222,144,-356,367,-356v221,0,365,128,365,347v0,224,-144,361,-369,361v-221,0,-363,-127,-363,-352xm475,-105v144,-5,236,-89,236,-241v0,-154,-97,-242,-246,-242v-145,0,-229,85,-234,233v-4,144,105,255,244,250xm487,-949r166,170r-81,71r-93,-95r-94,94r-80,-65","w":903},"\u00d5":{"d":"606,-920r101,15v-19,84,-29,178,-133,176v-66,-1,-112,-44,-146,-75v-39,-35,-48,8,-58,59r-4,19r-101,-13v18,-86,30,-177,134,-177v72,0,110,50,153,80v43,30,43,-45,54,-84xm475,-105v174,0,278,-154,222,-332v-30,-96,-110,-151,-232,-151v-145,0,-229,85,-234,233v-4,144,105,250,244,250xm105,-345v0,-222,144,-356,367,-356v221,0,365,128,365,347v0,224,-144,361,-369,361v-221,0,-363,-127,-363,-352","w":903},"\u00d6":{"d":"105,-345v0,-222,144,-356,367,-356v221,0,365,128,365,347v0,224,-144,361,-369,361v-221,0,-363,-127,-363,-352xm475,-105v144,-5,236,-89,236,-241v0,-154,-97,-242,-246,-242v-145,0,-229,85,-234,233v-4,144,105,255,244,250xm286,-927r142,0r0,131r-142,0r0,-131xm525,-927r142,0r0,131r-142,0r0,-131","w":903},"\u00d7":{"d":"169,-81r-80,-79r181,-159r-177,-155r79,-80r197,162r193,-159r79,80r-180,159r177,155r-80,80r-197,-162"},"\u00d8":{"d":"477,-588v-146,0,-236,83,-236,233v0,49,10,92,31,130r367,-309v-46,-36,-99,-54,-162,-54xm115,-345v0,-221,143,-356,366,-356v103,0,188,28,255,86r92,-77r53,63r-90,75v38,56,56,123,56,200v0,224,-144,361,-369,361v-105,0,-192,-35,-252,-87r-96,80r-52,-62r94,-79v-38,-57,-57,-125,-57,-204xm485,-105v144,0,234,-89,236,-241v0,-48,-9,-90,-29,-125r-368,309v45,37,98,57,161,57","w":937},"\u00d9":{"d":"441,10v-182,0,-299,-65,-299,-252r0,-452r123,0r0,440v-3,113,68,151,180,152v115,1,182,-41,181,-152r0,-440r123,0r0,480v-10,165,-131,224,-308,224xm324,-963r314,172r-55,86r-320,-163","w":851},"\u00da":{"d":"441,10v-182,0,-299,-65,-299,-252r0,-452r123,0r0,440v-3,113,68,151,180,152v115,1,182,-41,181,-152r0,-440r123,0r0,480v-10,165,-131,224,-308,224xm582,-965r59,95r-318,165r-56,-87","w":851},"\u00db":{"d":"441,10v-182,0,-299,-65,-299,-252r0,-452r123,0r0,440v-3,113,68,151,180,152v115,1,182,-41,181,-152r0,-440r123,0r0,480v-10,165,-131,224,-308,224xm454,-949r171,171r-84,70r-96,-95r-97,94r-82,-65","w":851},"\u00dc":{"d":"441,10v-182,0,-299,-65,-299,-252r0,-452r123,0r0,440v-3,113,68,151,180,152v115,1,182,-41,181,-152r0,-440r123,0r0,480v-10,165,-131,224,-308,224xm250,-927r146,0r0,131r-146,0r0,-131xm495,-927r145,0r0,131r-145,0r0,-131","w":851},"\u00dd":{"d":"49,-694r145,0r186,269r189,-269r141,0r-266,370r0,324r-138,0r0,-324xm501,-965r61,95r-318,165r-56,-87","w":696},"\u00de":{"d":"559,-367v0,-128,-171,-104,-294,-102r0,215v131,3,294,23,294,-113xm684,-377v-3,216,-174,253,-419,236r0,141r-123,0r0,-694r123,0r0,128v199,-14,422,-13,419,189","w":727},"\u00df":{"d":"98,-479v3,-143,85,-219,226,-219v124,0,215,65,215,180v0,93,-82,115,-133,158v-34,47,46,58,84,71v73,25,146,56,146,153v0,178,-241,165,-392,119r29,-93v50,10,121,18,152,18v69,0,107,-36,72,-80v-76,-57,-239,-36,-239,-169v0,-86,86,-102,133,-144v49,-43,-26,-103,-77,-101v-63,3,-95,41,-96,107r0,479r-120,0r0,-479","w":694},"\u00e0":{"d":"394,-284v11,-144,-174,-103,-282,-74r-25,-97v152,-57,427,-72,427,141r0,314r-90,0r-13,-32v-129,100,-432,9,-333,-164v48,-83,184,-84,316,-88xm180,-142v23,63,160,61,214,17r0,-68v-67,0,-131,2,-164,11v-33,8,-50,21,-50,40xm248,-760r234,184r-63,80r-255,-180","w":602},"\u00e1":{"d":"392,-765r71,84r-248,180r-70,-80xm180,-142v23,63,160,61,214,17r0,-68v-67,0,-131,2,-164,11v-33,8,-50,21,-50,40xm394,-284v11,-144,-174,-103,-282,-74r-25,-97v152,-57,427,-72,427,141r0,314r-90,0r-13,-32v-129,100,-432,9,-333,-164v48,-83,184,-84,316,-88","w":602},"\u00e2":{"d":"311,-737r168,170r-75,71r-102,-95r-107,93r-76,-64xm180,-142v23,63,160,61,214,17r0,-68v-67,0,-131,2,-164,11v-33,8,-50,21,-50,40xm394,-284v11,-144,-174,-103,-282,-74r-25,-97v152,-57,427,-72,427,141r0,314r-90,0r-13,-32v-129,100,-432,9,-333,-164v48,-83,184,-84,316,-88","w":602},"\u00e3":{"d":"401,-615v32,-10,23,-62,35,-93r92,15r-12,62v-12,126,-134,136,-216,81v-27,-17,-50,-45,-83,-55v-25,-3,-31,63,-39,91r-93,-13v15,-85,34,-180,128,-177v71,3,122,43,162,75v12,9,20,14,26,14xm180,-142v22,63,159,61,211,17r0,-68v-66,0,-129,2,-162,11v-33,8,-49,21,-49,40xm391,-284v11,-144,-170,-104,-279,-74r-25,-97v152,-57,427,-72,427,141r0,314r-90,0r-13,-32v-118,81,-351,43,-351,-101v0,-148,179,-142,331,-151","w":602},"\u00e4":{"d":"383,-694r133,0r0,131r-133,0r0,-131xm126,-694r148,0r0,131r-148,0r0,-131xm180,-142v23,63,160,61,213,17r0,-68v-67,0,-131,2,-164,11v-33,8,-49,21,-49,40xm393,-284v11,-145,-173,-103,-281,-74r-25,-97v60,-21,127,-36,201,-36v137,0,226,42,226,177r0,314r-90,0r-13,-32v-113,81,-351,43,-351,-101v0,-148,180,-142,333,-151","w":602},"\u00e5":{"d":"366,-639v0,-25,-26,-45,-52,-45v-27,0,-53,20,-53,45v0,26,25,46,53,46v26,0,52,-21,52,-46xm162,-639v0,-74,73,-129,151,-129v79,0,143,54,143,129v0,74,-63,130,-142,130v-79,0,-152,-55,-152,-130xm180,-142v23,63,160,61,214,17r0,-68v-67,0,-131,2,-164,11v-33,8,-50,21,-50,40xm394,-284v11,-144,-174,-103,-282,-74r-25,-97v152,-57,427,-72,427,141r0,314r-90,0r-13,-32v-129,100,-432,9,-333,-164v48,-83,184,-84,316,-88","w":602},"\u00e6":{"d":"197,-186v-51,45,24,92,77,92v36,0,67,-12,94,-35r0,-84v-68,2,-131,4,-171,27xm716,-293v-6,-54,-34,-89,-95,-89v-63,0,-110,38,-118,89r213,0xm368,-291v2,-129,-144,-110,-250,-78r-33,-87v116,-43,301,-62,367,36v43,-39,107,-71,184,-71v162,0,201,130,197,298r-333,0v22,97,182,122,287,75r22,93v-118,49,-283,51,-368,-29v-45,43,-106,64,-184,64v-96,0,-202,-59,-197,-148v8,-131,148,-154,308,-153","w":897},"\u00e7":{"d":"460,134v0,108,-146,131,-244,89r-47,-11r28,-83v46,12,121,31,136,28v28,2,49,-24,18,-35v-21,-8,-93,-25,-122,-33r27,-84v-117,-23,-193,-94,-193,-233v0,-176,112,-256,287,-260v61,-1,120,15,168,38r-32,95v-114,-44,-298,-37,-298,112v0,100,62,150,184,150v38,1,76,-10,108,-21r33,92v-41,17,-91,31,-136,34r-6,21v60,17,89,51,89,101","w":568},"\u00e8":{"d":"63,-227v0,-173,107,-261,277,-265v179,-4,227,121,215,308r-369,0v29,94,213,110,322,67r24,93v-56,22,-124,35,-193,34v-170,-1,-276,-73,-276,-237xm437,-284v-5,-69,-44,-97,-117,-98v-72,-1,-124,40,-133,98r250,0xm254,-765r236,184r-65,80r-254,-180","w":618},"\u00e9":{"d":"63,-227v0,-173,107,-261,277,-265v179,-4,227,121,215,308r-369,0v29,94,213,110,322,67r24,93v-56,22,-124,35,-193,34v-170,-1,-276,-73,-276,-237xm437,-284v-5,-69,-44,-97,-117,-98v-72,-1,-124,40,-133,98r250,0xm441,-765r71,84r-241,180r-75,-80","w":618},"\u00ea":{"d":"63,-227v0,-173,107,-261,277,-265v179,-4,227,121,215,308r-369,0v29,94,213,110,322,67r24,93v-56,22,-124,35,-193,34v-170,-1,-276,-73,-276,-237xm437,-284v-5,-69,-44,-97,-117,-98v-72,-1,-124,40,-133,98r250,0xm356,-737r165,170r-74,71r-99,-95r-103,93r-83,-64","w":618},"\u00eb":{"d":"63,-227v0,-173,107,-261,277,-265v179,-4,227,121,215,308r-368,0v29,94,212,110,321,67r24,93v-56,22,-124,35,-193,34v-170,-1,-276,-73,-276,-237xm437,-284v-5,-69,-44,-97,-117,-98v-73,-1,-125,40,-134,98r251,0xm144,-694r148,0r0,131r-148,0r0,-131xm397,-694r137,0r0,131r-137,0r0,-131","w":618},"\u00ec":{"d":"96,-482r120,0r0,482r-120,0r0,-482xm71,-765r207,184r-63,80r-215,-180","w":295},"\u00ed":{"d":"95,-482r120,0r0,482r-120,0r0,-482xm262,-765r71,84r-215,180r-63,-80","w":295},"\u00ee":{"d":"96,-482r120,0r0,482r-120,0r0,-482xm159,-739r137,173r-74,71r-70,-88r-71,86r-73,-65","w":298},"\u00ef":{"d":"88,-482r120,0r0,482r-120,0r0,-482xm-7,-694r130,0r0,131r-130,0r0,-131xm173,-694r130,0r0,131r-130,0r0,-131","w":295},"\u00f0":{"d":"327,-394v-81,-2,-146,58,-146,139v0,88,70,161,155,159v127,-4,155,-108,150,-250v-61,-32,-114,-48,-159,-48xm63,-212v0,-153,95,-252,252,-252v48,0,101,11,158,33v-11,-32,-32,-61,-61,-87r-105,53r-54,-81r67,-34v-29,-14,-67,-27,-103,-38r54,-98v67,16,127,37,181,71r99,-55r47,81r-71,41v56,62,75,136,77,246v2,208,-69,342,-277,342v-151,0,-264,-79,-264,-222","w":691},"\u00f1":{"d":"423,-626v30,24,42,-15,46,-40r8,-44r93,14r-13,62v-13,127,-130,136,-213,82v-29,-19,-48,-46,-83,-55v-23,-6,-33,63,-40,91r-95,-14v15,-86,34,-179,131,-176v78,2,122,45,166,80xm446,-283v4,-125,-142,-107,-238,-70r0,353r-120,0r0,-482r89,0r14,33v66,-29,129,-43,189,-43v133,0,187,74,187,207r0,285r-121,0r0,-283","w":654},"\u00f2":{"d":"291,-765r232,184r-67,80r-248,-180xm490,-236v-3,-95,-66,-147,-159,-147v-85,0,-148,48,-149,134v-1,85,68,150,158,150v83,0,152,-55,150,-137xm63,-236v0,-159,112,-256,276,-256v156,0,269,87,269,242v0,161,-113,260,-278,260v-157,0,-267,-92,-267,-246","w":671},"\u00f3":{"d":"63,-236v0,-159,112,-256,276,-256v156,0,269,87,269,242v0,161,-113,260,-278,260v-157,0,-267,-92,-267,-246xm490,-236v-3,-95,-66,-147,-159,-147v-85,0,-148,48,-149,134v-1,85,68,150,158,150v83,0,152,-55,150,-137xm395,-765r82,84r-248,180r-69,-80","w":671},"\u00f4":{"d":"63,-236v0,-159,112,-256,276,-256v156,0,269,87,269,242v0,161,-113,260,-278,260v-157,0,-267,-92,-267,-246xm490,-236v-3,-95,-66,-147,-159,-147v-85,0,-148,48,-149,134v-1,85,68,150,158,150v83,0,152,-55,150,-137xm347,-737r171,170r-81,71r-98,-95r-100,93r-81,-64","w":671},"\u00f5":{"d":"467,-710r93,15r-13,62v-11,126,-133,136,-215,81v-27,-17,-50,-45,-83,-55v-24,-2,-32,62,-40,91r-92,-13v13,-87,35,-180,128,-177v70,2,121,43,161,75v55,44,50,-39,61,-79xm490,-236v-3,-95,-66,-147,-159,-147v-85,0,-148,48,-149,134v-1,85,68,150,158,150v83,0,152,-55,150,-137xm63,-236v0,-159,112,-256,276,-256v156,0,269,87,269,242v0,161,-113,260,-278,260v-157,0,-267,-92,-267,-246","w":671},"\u00f6":{"d":"63,-236v0,-159,112,-256,276,-256v156,0,269,87,269,242v0,161,-113,260,-278,260v-157,0,-267,-92,-267,-246xm490,-236v-3,-95,-66,-147,-159,-147v-85,0,-148,48,-149,134v-1,85,68,150,158,150v83,0,152,-55,150,-137xm156,-694r146,0r0,131r-146,0r0,-131xm404,-694r141,0r0,131r-141,0r0,-131","w":671},"\u00f7":{"d":"307,-602r150,0r0,135r-150,0r0,-135xm307,-176r150,0r0,135r-150,0r0,-135xm61,-375r642,0r0,108r-642,0r0,-108","w":763},"\u00f8":{"d":"63,-236v-1,-159,112,-256,276,-256v72,0,130,17,177,50r62,-56r52,58r-60,54v25,38,38,84,38,136v1,161,-113,263,-278,260v-61,0,-114,-13,-157,-38r-61,55r-52,-58r54,-49v-34,-42,-51,-93,-51,-156xm423,-358v-95,-58,-241,-12,-241,109v0,32,8,61,25,85xm268,-113v125,55,271,-49,208,-187","w":671},"\u00f9":{"d":"208,-198v-3,122,144,107,239,69r0,-353r120,0r0,482r-89,0r-15,-33v-65,28,-128,43,-189,43v-132,0,-186,-73,-186,-207r0,-285r120,0r0,284xm260,-765r238,184r-66,80r-252,-180","w":654},"\u00fa":{"d":"208,-198v-3,122,144,107,239,69r0,-353r120,0r0,482r-89,0r-15,-33v-65,28,-128,43,-189,43v-132,0,-186,-73,-186,-207r0,-285r120,0r0,284xm434,-765r73,84r-245,180r-73,-80","w":654},"\u00fb":{"d":"208,-198v-3,122,144,107,239,69r0,-353r120,0r0,482r-89,0r-15,-33v-65,28,-128,43,-189,43v-132,0,-186,-73,-186,-207r0,-285r120,0r0,284xm341,-737r170,170r-76,71r-102,-95r-104,93r-77,-64","w":654},"\u00fc":{"d":"208,-198v-3,122,144,107,239,69r0,-353r120,0r0,482r-89,0r-15,-33v-65,28,-128,43,-189,43v-132,0,-186,-73,-186,-207r0,-285r120,0r0,284xm135,-694r142,0r0,131r-142,0r0,-131xm383,-694r141,0r0,131r-141,0r0,-131","w":654},"\u00fd":{"d":"24,-482r127,0r161,370r148,-370r127,0r-318,741r-145,0r120,-260xm443,-765r74,84r-239,180r-72,-80","w":592},"\u00fe":{"d":"495,-235v0,-93,-65,-146,-156,-146v-91,0,-126,51,-126,152v0,85,41,134,128,132v90,-2,154,-47,154,-138xm613,-249v0,158,-102,258,-263,260v-47,0,-91,-11,-131,-32r0,280r-126,0r0,-953r126,0r0,238v39,-23,84,-34,135,-34v153,2,259,88,259,241","w":676},"\u00ff":{"d":"24,-482r127,0r161,370r148,-370r127,0r-318,741r-145,0r120,-260xm117,-694r145,0r0,131r-145,0r0,-131xm364,-694r143,0r0,131r-143,0r0,-131","w":592},"\u2013":{"d":"0,-375r606,0r0,107r-606,0r0,-107","w":605},"\u2014":{"d":"0,-375r716,0r0,107r-716,0r0,-107","w":715},"\u2018":{"d":"17,-758r137,0r73,252r-137,0","w":219},"\u2019":{"d":"65,-758r138,0r-73,252r-137,0","w":219},"\u201c":{"d":"388,-758r-73,252r-137,0r73,-252r137,0xm203,-758r-73,252r-137,0r72,-252r138,0","w":405},"\u201d":{"d":"251,-758r137,0r-73,252r-137,0xm65,-758r138,0r-73,252r-137,0","w":405},"\u2026":{"d":"68,-123r142,0r0,143r-142,0r0,-143xm344,-123r142,0r0,143r-142,0r0,-143xm620,-123r142,0r0,143r-142,0r0,-143","w":839},"\u2032":{"d":"34,-758r130,0r0,249r-130,0r0,-249","w":197},"\u2033":{"d":"34,-758r130,0r0,249r-130,0r0,-249xm231,-758r131,0r0,249r-131,0r0,-249","w":395},"\u2122":{"d":"199,-448r-72,0r0,-239r-85,0r0,-63r243,0r0,63r-86,0r0,239xm325,-750r76,0r77,141r73,-141r78,0r0,302r-72,0r0,-182r-58,108r-48,0r-54,-107r0,181r-72,0r0,-302","w":695}}});
/*!
 * The following copyright notice may not be removed under any circumstances.
 * 
 * Copyright:
 * Copyright (c) 2009 Dave Crossland <dave@lab6.com>
 * 
 * Designer:
 * Dave Crossland
 * 
 * Vendor URL:
 * http://abattis.org
 */
Cufon.registerFont({"w":634,"face":{"font-family":"sans-serif","font-weight":500,"font-style":"oblique","font-stretch":"normal","units-per-em":"1000","panose-1":"2 0 6 3 0 0 0 0 0 0","ascent":"739","descent":"-261","x-height":"10","bbox":"-127 -943 1227 264","underline-thickness":"56.6406","underline-position":"-113.77","slope":"-16","unicode-range":"U+0020-U+2122"},"glyphs":{" ":{"w":273},"!":{"d":"138,-98r97,0r-27,98r-98,0xm316,-694r83,0r-135,470r-83,0","w":317},"\"":{"d":"456,-738r90,0r-60,209r-90,0xm265,-738r90,0r-59,209r-90,0","w":388},"#":{"d":"376,-694r78,0r-55,191r175,0r55,-191r78,0r-55,191r155,0r-21,73r-155,0r-49,172r154,0r-21,73r-154,0r-57,200r-78,0r57,-200r-175,0r-57,200r-78,0r57,-200r-154,0r21,-73r154,0r49,-172r-155,0r21,-73r155,0xm378,-430r-49,172r175,0r49,-172r-175,0","w":684},"$":{"d":"193,-207v84,51,263,55,279,-56v-35,-98,-255,-44,-215,-206v19,-78,95,-121,186,-136r38,-133r59,0r-36,127v54,1,81,6,123,20r-38,61v-97,-31,-230,-29,-248,63v35,97,255,53,219,206v-20,85,-97,136,-199,148r-42,145r-59,0r41,-142v-46,0,-95,-12,-148,-36","w":585},"%":{"d":"286,-439v66,0,96,-69,96,-134v0,-31,-15,-46,-45,-46v-66,0,-91,68,-96,131v-3,33,17,49,45,49xm191,-473v6,-102,59,-193,160,-193v48,0,83,25,81,77v-4,102,-64,191,-160,195v-50,2,-84,-26,-81,-79xm600,-210v3,-32,-17,-48,-46,-47v-66,3,-90,65,-95,131v-1,32,16,48,44,48v66,0,91,-68,97,-132xm409,-111v3,-101,65,-193,159,-193v50,0,83,23,82,77v-3,104,-66,195,-160,195v-50,0,-83,-25,-81,-79xm713,-694r83,0r-671,694r-83,0","w":648},"&":{"d":"347,-387v-121,-139,24,-331,200,-316v120,-14,164,109,94,189v-48,54,-116,98,-178,137r119,181r207,-172r32,46r-208,175r96,147r-99,0r-66,-98v-80,60,-156,113,-289,121v-118,7,-163,-101,-114,-197v47,-93,128,-149,213,-202v-1,-1,-3,-5,-7,-11xm554,-509v49,-37,44,-124,-35,-124v-80,0,-172,75,-122,157r35,51v41,-29,83,-54,122,-84xm215,-160v-28,81,53,129,137,104v64,-19,113,-57,159,-90r-124,-182v-89,59,-145,88,-172,168","w":775},"'":{"d":"265,-738r90,0r-59,209r-90,0","w":197},"(":{"d":"530,-722v-155,177,-287,378,-287,658v0,75,12,149,35,222r-75,41v-71,-206,-46,-457,39,-618v67,-127,146,-237,234,-337","w":362},")":{"d":"-6,158v141,-166,286,-355,286,-655v0,-76,-11,-150,-34,-225r74,-34v73,205,45,453,-39,614v-67,129,-148,240,-236,341","w":362},"*":{"d":"449,-694r83,0r-53,156r154,-86r21,73r-158,69r118,70r-62,73r-106,-86r-35,155r-83,0r53,-155r-154,86r-21,-73r159,-70r-119,-69r62,-73r106,86","w":583},"+":{"d":"479,-602r72,0r-72,247r245,0r-19,67r-245,0r-70,247r-73,0r71,-247r-244,0r19,-67r244,0","w":683},",":{"d":"122,-83r87,0r-131,190r-88,0","w":278},"-":{"d":"188,-355r419,0r-19,67r-420,0","w":590},".":{"d":"117,-103r103,0r-30,103r-102,0","w":278},"\/":{"d":"460,-694r83,0r-453,738r-83,0","w":354},"0":{"d":"554,-237v58,-105,130,-391,-57,-391v-75,0,-122,42,-163,85v-63,66,-115,203,-118,324v-3,107,65,182,169,147v79,-27,127,-89,169,-165xm386,0v-150,45,-263,-47,-255,-199v12,-238,121,-439,317,-494v148,-42,266,42,257,194v-14,241,-125,440,-319,499"},"1":{"d":"489,-694r95,0r-177,621r161,0r-21,73r-404,0r21,-73r163,0r154,-541r-169,60r-11,-71"},"2":{"d":"599,-505v22,-75,-46,-122,-121,-122v-47,0,-112,13,-194,40r-5,-64v84,-32,162,-48,235,-48v116,0,207,65,175,179v-32,115,-143,166,-231,228v-86,61,-170,127,-226,219r342,0r-21,73r-443,0v15,-69,56,-110,94,-157v89,-110,205,-177,317,-257v34,-24,67,-51,78,-91"},"3":{"d":"576,-548v0,-52,-49,-79,-110,-79v-48,0,-105,14,-171,41r-8,-66v77,-33,148,-50,211,-50v90,0,168,44,168,125v0,101,-79,167,-158,197v64,19,97,56,97,114v0,231,-294,353,-515,250r43,-67v62,19,113,28,151,28v112,0,228,-63,228,-173v0,-91,-90,-102,-186,-106r21,-71v120,-4,229,-37,229,-143"},"4":{"d":"538,-694r116,0r-130,453r122,0r-21,73r-122,0r-48,168r-80,0r48,-168r-316,0r16,-55xm551,-615r-327,374r220,0"},"5":{"d":"530,-213v26,-104,-55,-153,-160,-150v-34,0,-86,3,-155,11r98,-342r418,0r-21,73r-338,0r-54,190v149,-19,315,-4,310,147v-5,137,-89,213,-190,261v-89,42,-240,40,-352,16r38,-74v123,29,295,19,358,-55v22,-26,40,-45,48,-77"},"6":{"d":"307,12v-107,0,-165,-56,-165,-164v0,-271,152,-479,389,-536v56,-13,109,-14,172,-8r-27,72v-214,-19,-334,82,-391,236v43,-38,105,-65,179,-67v124,-3,189,97,154,220v-35,123,-162,247,-311,247xm542,-275v2,-68,-51,-115,-117,-112v-108,4,-199,89,-202,206v-1,68,43,129,112,125v106,-6,204,-104,207,-219"},"7":{"d":"263,-694r507,0r-15,52r-508,642r-97,0r496,-616r-405,0"},"8":{"d":"599,-559v0,-51,-48,-75,-103,-74v-74,1,-152,49,-152,121v0,63,68,78,116,96v71,-44,139,-54,139,-143xm342,-63v104,-2,196,-68,196,-169v0,-79,-69,-102,-134,-122v-94,28,-194,84,-194,188v0,66,59,104,132,103xm260,-493v0,-131,122,-207,256,-210v98,-2,168,31,168,116v0,108,-69,151,-149,200v84,43,115,120,76,211v-46,106,-145,182,-294,186v-106,3,-196,-55,-196,-152v0,-126,105,-200,202,-244v-42,-25,-63,-60,-63,-107"},"9":{"d":"375,-256v-119,4,-195,-94,-157,-212v40,-127,153,-236,309,-236v105,0,162,56,162,164v0,271,-151,478,-387,536v-53,13,-114,14,-173,8r27,-72v219,24,341,-91,394,-252v-44,36,-105,62,-175,64xm610,-511v1,-66,-46,-127,-113,-124v-96,5,-201,95,-203,199v-1,65,52,115,118,112v100,-4,196,-81,198,-187"},":":{"d":"117,-103r103,0r-30,103r-102,0xm227,-485r103,0r-30,103r-102,0","w":278},";":{"d":"122,-83r87,0r-131,190r-88,0xm227,-485r103,0r-30,103r-102,0","w":278},"<":{"d":"633,-551r-22,76r-390,172r294,164r-23,80r-368,-201r22,-81","w":523},"=":{"d":"178,-245r468,0r-21,74r-468,0xm241,-466r469,0r-21,73r-469,0","w":683},">":{"d":"207,-551r366,210r-23,81r-485,201r24,-80r388,-164r-292,-172","w":523},"?":{"d":"180,-98r97,0r-27,98r-98,0xm497,-522v35,-134,-163,-121,-248,-87r-8,-59v125,-61,391,-57,341,132v-45,173,-241,178,-285,345r-83,0v30,-125,131,-177,220,-242v28,-20,53,-52,63,-89","w":510},"@":{"d":"344,-140v9,-180,132,-330,305,-330v41,0,79,10,112,29r21,-32r55,0r-101,350v-17,58,-27,107,31,113v108,-23,147,-134,181,-239v18,-55,24,-105,24,-147v0,-139,-88,-208,-262,-208v-278,0,-407,176,-478,390v-14,42,-18,83,-18,119v3,152,93,234,243,234v50,0,100,-11,151,-33r15,59v-65,29,-132,43,-198,43v-181,0,-303,-80,-303,-261v0,-273,157,-472,358,-573v71,-35,168,-57,273,-57v206,0,309,81,309,245v0,216,-96,434,-274,488v-72,22,-144,-8,-146,-77v-120,71,-306,43,-298,-113xm424,-167v-3,117,133,139,224,88r89,-309v-161,-73,-309,56,-313,221","w":1025},"A":{"d":"509,-694r94,0r48,694r-84,0r-13,-202r-286,0r-128,202r-77,0xm529,-613r-215,339r236,0","w":675},"B":{"d":"652,-555v0,-98,-145,-72,-247,-75r-67,233v155,-1,314,-12,314,-158xm615,-240v0,-73,-68,-100,-151,-100v-7,0,-55,2,-144,7r-74,260r159,0v116,-6,210,-52,210,-167xm599,-388v89,9,127,123,84,209v-54,108,-155,179,-316,179r-225,0r198,-694r245,0v89,1,148,34,150,119v2,90,-76,160,-136,187","w":695},"C":{"d":"473,10v-200,0,-298,-155,-242,-350v47,-164,156,-287,318,-339v103,-33,218,-25,311,17r-46,69v-140,-62,-290,-24,-372,53v-70,65,-138,153,-138,278v0,120,86,198,212,196v50,0,105,-10,165,-30r8,62v-76,29,-149,44,-216,44","w":708},"D":{"d":"723,-352v46,-152,-20,-282,-186,-269r-135,0r-156,548r137,-1v196,-7,292,-121,340,-278xm555,-694v162,2,274,56,274,214v0,201,-111,342,-248,425v-104,63,-271,56,-439,55r198,-694r215,0","w":784},"E":{"d":"142,0r198,-694r407,0r-21,73r-324,0r-65,227r297,0r-21,73r-297,0r-70,248r323,0r-21,73r-406,0","w":626},"F":{"d":"402,-621r-65,227r290,0r-21,73r-290,0r-91,321r-83,0r198,-694r402,0r-21,73r-319,0","w":609},"G":{"d":"447,10v-202,5,-301,-154,-245,-350v47,-164,157,-285,317,-339v117,-39,246,-22,336,39r-50,62v-64,-42,-184,-66,-276,-29v-137,55,-246,163,-254,343v-5,123,87,202,213,200v63,0,120,-19,170,-57r50,-177r-197,0r20,-68r278,0r-79,272v-65,56,-160,101,-283,104","w":776},"H":{"d":"794,-694r83,0r-198,694r-83,0r92,-321r-371,0r-92,321r-83,0r198,-694r83,0r-85,299r371,0","w":781},"I":{"d":"355,-694r83,0r-199,694r-83,0","w":356},"J":{"d":"479,-694r83,0r-140,486v-30,158,-180,248,-367,205r33,-70v126,28,220,-26,250,-131","w":465},"K":{"d":"340,-694r83,0r-198,694r-83,0xm729,-694r104,0r-388,331r208,363r-107,0r-208,-356","w":691},"L":{"d":"340,-694r83,0r-177,621r311,0r-21,73r-394,0","w":553},"M":{"d":"340,-694r118,0r102,421r346,-421r110,0r-199,694r-83,0r165,-575r-321,376r-83,0r-106,-376r-164,575r-83,0","w":919},"N":{"d":"340,-694r105,0r212,581r166,-581r83,0r-198,694r-105,0r-211,-582r-167,582r-83,0","w":810},"O":{"d":"426,7v-149,0,-240,-80,-240,-231v0,-170,81,-295,184,-380v80,-65,168,-97,263,-97v146,0,249,85,244,229v-6,170,-83,292,-186,379v-80,68,-169,100,-265,100xm771,-346v47,-147,-12,-289,-164,-282v-175,8,-267,128,-315,273v-48,146,12,299,161,290v179,-10,270,-132,318,-281","w":823},"P":{"d":"758,-575v0,227,-191,311,-450,284r-83,291r-83,0r198,-694r259,0v86,4,159,30,159,119xm667,-539v0,-110,-155,-76,-265,-82r-73,257v44,4,87,4,128,3v124,-2,210,-61,210,-178","w":653},"Q":{"d":"432,7v-147,0,-253,-85,-247,-231v8,-207,123,-360,268,-434v58,-30,119,-43,181,-43v155,1,241,81,241,233v0,141,-78,287,-160,361r63,87r-58,47r-67,-86v-69,44,-142,66,-221,66xm786,-449v5,-148,-131,-212,-268,-163v-139,50,-234,181,-242,362v-5,115,75,185,186,185v53,0,103,-16,151,-46r-112,-145r67,-53r107,147v61,-63,107,-172,111,-287","w":833},"R":{"d":"756,-576v0,149,-94,246,-226,278r110,298r-93,0r-105,-289r-134,0r-83,289r-83,0r198,-694r255,0v91,0,161,26,161,118xm449,-362v129,1,216,-55,216,-175v0,-56,-41,-84,-122,-84r-140,0r-74,259r120,0","w":702},"S":{"d":"359,-72v101,-2,203,-42,203,-136v0,-86,-112,-94,-178,-122v-66,-28,-137,-72,-110,-169v45,-159,291,-252,492,-173r-49,75v-53,-17,-102,-25,-145,-25v-96,2,-200,44,-207,132v12,83,112,91,178,120v67,30,138,78,109,176v-46,152,-226,236,-427,192v-29,-6,-62,-19,-97,-35r51,-81v73,30,133,46,180,46","w":664},"T":{"d":"240,-694r547,0r-21,73r-232,0r-178,621r-83,0r178,-621r-232,0","w":590},"U":{"d":"578,-25v-127,56,-400,65,-386,-121v1,-22,7,-53,18,-92r130,-456r83,0r-129,450v-39,110,13,185,129,182v129,-4,203,-73,234,-182r129,-450r82,0r-142,496v-27,74,-76,141,-148,173","w":772},"V":{"d":"267,-694r99,0r25,606r371,-606r92,0r-441,694r-103,0","w":684},"W":{"d":"267,-694r88,0r7,583r343,-583r84,0r13,583r337,-583r88,0r-413,694r-88,0r-17,-580r-336,580r-88,0","w":1057},"X":{"d":"729,-694r96,0r-314,330r142,364r-107,0r-111,-292r-279,292r-102,0r354,-362r-126,-332r100,0r102,261","w":667},"Y":{"d":"248,-694r98,0r94,287r263,-287r93,0r-341,365r-94,329r-83,0r94,-329","w":616},"Z":{"d":"289,-694r530,0r-15,53r-597,568r448,0r-21,73r-558,0r15,-54r589,-567r-412,0","w":663},"[":{"d":"333,-738r224,0r-20,73r-144,0r-227,792r143,0r-21,73r-224,0","w":370},"\\":{"d":"208,-694r84,0r30,738r-83,0","w":354},"]":{"d":"236,-738r223,0r-269,938r-223,0r21,-73r143,0r228,-792r-144,0","w":370},"^":{"d":"570,-752r85,139r-58,43r-58,-96r-116,96r-32,-38","w":722},"_":{"d":"94,-73r420,0r-21,73r-420,0","w":566},"`":{"d":"391,-774r202,151r-46,53r-208,-144","w":547},"a":{"d":"90,-95v12,-151,168,-169,333,-173v7,-23,19,-57,19,-82v0,-42,-31,-63,-93,-63v-31,0,-75,7,-132,21r1,-58v58,-20,113,-29,163,-29v118,0,168,58,137,165r-91,314r-56,0r-6,-44v-49,36,-99,54,-149,54v-70,0,-131,-41,-126,-105xm173,-114v0,37,41,61,83,61v41,0,80,-16,119,-48r31,-106v-108,0,-233,-2,-233,93","w":516},"b":{"d":"589,-333v-8,189,-128,343,-309,343v-44,0,-83,-11,-118,-32r-16,22r-56,0r212,-738r80,0r-83,291v120,-62,297,-41,290,114xm505,-304v6,-118,-133,-131,-223,-85r-90,314v31,15,62,22,94,22v143,0,211,-112,219,-251","w":570},"c":{"d":"423,-17v-131,50,-321,40,-311,-118v13,-195,115,-344,317,-344v45,0,87,10,124,29r-36,57v-32,-12,-64,-17,-98,-17v-145,2,-215,106,-223,243v-7,115,126,128,224,95","w":481},"d":{"d":"419,-30v-121,70,-312,54,-306,-108v5,-147,87,-263,188,-314v71,-35,158,-39,228,-2r81,-284r80,0r-211,738r-56,0xm197,-167v-7,120,134,133,226,84r89,-312v-30,-15,-62,-22,-96,-22v-142,0,-211,113,-219,250","w":573},"e":{"d":"445,-17v-138,46,-340,49,-333,-117v7,-168,101,-282,228,-330v29,-10,59,-15,88,-15v169,-5,138,159,95,281r-325,0v-32,134,120,171,248,127xm475,-331v3,-105,-140,-91,-193,-34v-30,32,-53,66,-65,107r246,0v8,-28,12,-53,12,-73","w":531},"f":{"d":"570,-618v-100,-36,-188,8,-206,91r-16,57r158,0r-18,63r-158,0r-144,503v-26,137,-163,193,-313,145r28,-59v96,30,181,-5,203,-83r145,-506r-68,0r18,-63r68,0v30,-126,79,-225,224,-228v34,0,70,6,108,19","w":390},"g":{"d":"405,-23v-123,64,-302,37,-292,-119v12,-188,116,-338,305,-338v38,0,79,13,121,39r18,-29r56,0r-154,532v-43,116,-131,200,-290,202v-49,0,-95,-10,-138,-31r39,-58v154,59,285,-2,325,-163xm198,-172v0,72,40,117,114,116v35,0,72,-9,110,-27r87,-306v-164,-82,-309,48,-311,217","w":567},"h":{"d":"413,-408v-37,0,-83,12,-136,36r-107,372r-80,0r212,-738r80,0r-87,304v65,-30,121,-45,170,-45v125,-2,130,99,98,209r-78,270r-82,0r81,-283v22,-67,5,-125,-71,-125","w":575},"i":{"d":"279,-694r95,0r-26,92r-95,0xm226,-482r80,0r-138,482r-80,0","w":255},"j":{"d":"277,-694r95,0r-26,92r-95,0xm224,-482r80,0r-169,586v-28,77,-89,131,-172,157r-12,-61v59,-25,97,-67,113,-125","w":253},"k":{"d":"297,-738r80,0r-211,738r-80,0xm522,-492r88,0r-269,217r141,275r-96,0r-136,-267","w":518},"l":{"d":"309,-738r80,0r-211,738r-80,0","w":275},"m":{"d":"392,-406v-27,0,-67,12,-120,36r-106,370r-80,0r135,-470r56,0r5,40v67,-33,121,-49,163,-49v49,0,81,17,98,53v73,-35,134,-53,184,-53v120,0,127,94,98,197r-81,282r-80,0r82,-287v20,-63,6,-119,-66,-119v-30,0,-73,13,-127,37v-18,116,-69,255,-98,369r-80,0r82,-288v19,-60,5,-118,-65,-118","w":835},"n":{"d":"221,-470r56,0r6,41v71,-34,131,-51,181,-51v121,0,125,96,95,199r-81,281r-80,0r81,-285v23,-67,7,-125,-71,-123v-37,0,-83,12,-136,36r-106,372r-80,0","w":567},"o":{"d":"115,-146v8,-187,133,-328,315,-333v101,-3,175,54,171,154v-8,188,-139,329,-319,335v-101,4,-171,-58,-167,-156xm516,-293v4,-101,-101,-146,-187,-100v-68,35,-127,113,-129,214v-1,70,40,123,111,120v117,-5,199,-109,205,-234","w":583},"p":{"d":"281,-439v121,-70,310,-55,305,107v-5,146,-84,261,-186,312v-71,37,-159,41,-230,4r-79,275r-80,0r210,-729r55,0xm502,-303v7,-120,-135,-131,-225,-84r-89,311v30,15,61,23,95,23v143,0,211,-111,219,-250","w":567},"q":{"d":"405,-24v-123,63,-298,43,-292,-115v7,-163,95,-281,221,-326v78,-28,136,-18,205,24r18,-29r56,0r-209,729r-80,0xm197,-167v-3,120,134,131,225,84r87,-306v-167,-84,-308,53,-312,222","w":567},"r":{"d":"282,-434v71,-45,154,-61,229,-26r-42,63v-66,-25,-132,-15,-195,19r-108,378r-80,0r135,-470r56,0","w":385},"s":{"d":"109,-86v85,45,261,55,272,-52v-33,-95,-248,-43,-211,-200v29,-122,219,-172,366,-122r-38,61v-99,-32,-224,-26,-245,64v37,89,221,52,221,172v0,170,-249,212,-404,136","w":490},"t":{"d":"340,-8v-103,29,-214,34,-214,-68v0,-116,61,-223,87,-331r-63,0r18,-63r63,0r43,-151r80,0r-42,151r143,0r-18,63r-144,0r-73,258v-17,51,-10,98,49,96v9,0,35,-2,76,-9","w":372},"u":{"d":"533,-470r80,0r-134,470r-57,0r-5,-41v-70,34,-131,51,-182,51v-120,0,-125,-96,-95,-199r81,-281r80,0r-82,285v-22,64,-5,123,72,123v37,0,82,-13,136,-37","w":568},"v":{"d":"581,-470r-302,470r-81,0r-32,-470r88,0r9,392r235,-392r83,0","w":478},"w":{"d":"164,-470r85,0r14,394r235,-394r76,0r13,394r240,-394r86,0r-309,470r-79,0r-16,-381r-233,381r-78,0","w":807},"x":{"d":"166,-470r92,0r80,186r182,-186r85,0r-245,240r101,230r-93,0r-76,-177r-170,177r-85,0r233,-231","w":504},"y":{"d":"159,-470r88,0r37,402r255,-402r83,0r-482,729r-86,0r163,-231","w":512},"z":{"d":"206,-470r359,0r-12,42r-362,365r269,0r-18,63r-371,0r12,-42r361,-365r-256,0","w":516},"{":{"d":"191,-129v1,-57,-29,-96,-80,-105r19,-68v159,-26,164,-208,238,-316v46,-66,100,-107,191,-120r-3,63v-172,24,-168,257,-268,358v-18,19,-40,36,-64,49v31,24,47,59,47,105v0,35,-30,166,-29,200v2,58,31,93,81,101r-33,63v-78,-8,-123,-58,-125,-146v-1,-63,26,-120,26,-184","w":389},"|":{"d":"400,-782r80,0r-267,932r-80,0","w":431},"}":{"d":"302,-572v-1,-59,-30,-96,-81,-103r32,-63v78,9,125,56,125,146v0,65,-25,117,-25,183v0,61,28,99,79,107r-19,68v-160,25,-162,211,-239,319v-47,64,-100,103,-190,116r4,-63v166,-22,166,-243,257,-347v20,-23,45,-43,74,-59v-31,-24,-46,-59,-46,-105v0,-36,30,-165,29,-199","w":389},"~":{"d":"488,-753v72,-3,77,73,130,88v49,-6,54,-56,75,-89r50,8v-30,69,-74,168,-178,132v-45,-16,-65,-114,-122,-66v-22,18,-30,49,-43,74r-50,-7v31,-60,51,-136,138,-140","w":683},"\u00a0":{"w":273},"\u00a1":{"d":"238,-421r83,0r-178,621r-83,0xm295,-645r98,0r-29,98r-97,0","w":317},"\u00a2":{"d":"297,-112v-83,-10,-143,-56,-138,-148v9,-182,116,-317,279,-344r39,-134r59,0r-38,132v35,0,72,9,110,28r-36,59v-33,-12,-66,-19,-101,-19v-143,2,-220,105,-227,247v-6,119,127,133,229,99r3,55v-47,17,-87,25,-120,25r-41,144r-59,0","w":498},"\u00a3":{"d":"93,-66r119,0r74,-257r-86,0r19,-66r86,0v40,-172,120,-306,326,-310v38,0,74,7,109,19r-40,59v-161,-43,-271,43,-299,176r-16,56r259,0r-19,66r-259,0r-74,257r288,0r-19,66r-487,0"},"\u00a4":{"d":"251,-277v-18,-68,5,-117,49,-170r-58,-81r78,-61r58,81v55,-28,122,-33,169,0r105,-80r43,61r-104,80v15,69,-6,118,-49,169r58,81r-79,61r-57,-81v-55,30,-121,34,-169,1r-105,81r-43,-61xm522,-390v2,-42,-31,-74,-72,-72v-67,3,-129,57,-131,128v0,41,30,74,73,72v66,-4,128,-58,130,-128"},"\u00a5":{"d":"269,-694r90,0r73,295r246,-295r86,0r-310,353r138,0r-17,61r-141,0r-29,97r141,0r-17,61r-141,0r-35,122r-78,0r35,-122r-135,0r18,-61r134,0r28,-97r-134,0r17,-61r131,0"},"\u00a6":{"d":"240,-225r80,0r-107,375r-80,0xm400,-782r80,0r-107,373r-80,0","w":431},"\u00a7":{"d":"212,-284v-43,-67,5,-137,59,-177v-56,-67,8,-149,56,-186v66,-50,223,-70,318,-32r-41,64v-92,-33,-250,-31,-263,68v34,102,235,57,235,186v0,61,-33,95,-75,130v58,79,-23,169,-83,203v-82,46,-242,51,-334,6r40,-61v110,49,289,46,302,-71v-26,-84,-170,-61,-214,-130xm440,-271v25,-19,56,-60,30,-92v-28,-35,-96,-42,-141,-62v-42,21,-56,84,-6,107v34,16,81,32,117,47","w":554},"\u00a8":{"d":"337,-694r90,0r-26,91r-90,0xm556,-694r90,0r-25,91r-91,0","w":585},"\u00a9":{"d":"357,-264v9,-143,87,-251,233,-251v34,0,65,7,92,21r-27,42v-23,-9,-48,-13,-73,-13v-107,1,-158,79,-164,181v-5,84,93,94,165,69r4,40v-96,36,-237,28,-230,-89xm807,-333v46,-153,-54,-281,-203,-276v-181,7,-315,129,-360,276v-46,152,54,280,202,275v181,-7,316,-128,361,-275xm428,7v-182,0,-306,-153,-249,-340v56,-181,220,-332,444,-341v182,-7,306,154,249,341v-45,147,-159,258,-300,312v-48,18,-96,28,-144,28","w":859},"\u00aa":{"d":"208,-421v0,-102,77,-116,196,-117v17,-37,8,-77,-46,-77v-26,0,-54,4,-85,13r1,-34v66,-26,197,-33,190,43v-7,78,-42,150,-60,222r-34,0r-3,-26v-28,23,-56,35,-82,35v-43,0,-77,-18,-77,-59xm258,-438v11,57,87,42,118,-2r17,-58v-64,1,-128,2,-135,60","w":370},"\u00ab":{"d":"480,-482r91,0r-185,178r83,178r-91,0r-73,-178xm299,-482r91,0r-185,178r83,178r-91,0r-73,-178","w":457},"\u00ac":{"d":"164,-357r561,0r-63,219r-72,0r42,-147r-489,0","w":683},"\u00ad":{"d":"209,-355r310,0r-19,67r-310,0","w":524},"\u00ae":{"d":"570,-593v0,51,-35,92,-78,106r24,108r-49,0r-21,-101r-54,0r-29,101r-46,0r77,-266v71,5,176,-23,176,52xm375,-256v-136,6,-228,-115,-185,-253v42,-135,163,-247,330,-253v135,-5,227,114,184,253v-42,135,-164,246,-329,253xm657,-562v2,-85,-65,-150,-153,-146v-134,6,-264,111,-268,252v-2,85,66,149,154,145v135,-6,263,-110,267,-251xm402,-518v63,3,121,-1,121,-58v0,-35,-57,-29,-95,-29","w":601},"\u00af":{"d":"369,-801r405,0r-21,73r-405,0","w":683},"\u00b0":{"d":"382,-622v0,-26,-19,-47,-47,-46v-44,2,-85,38,-85,84v0,26,19,47,48,46v44,-2,84,-38,84,-84xm205,-572v1,-79,71,-136,143,-140v46,-3,81,33,80,79v-2,79,-70,136,-142,140v-47,2,-81,-34,-81,-79","w":287},"\u00b1":{"d":"147,-140r469,0r-19,67r-469,0xm505,-694r71,0r-57,201r198,0r-19,67r-198,0r-58,201r-71,0r57,-201r-199,0r20,-67r198,0","w":683},"\u00b2":{"d":"405,-610v40,-32,20,-84,-33,-84v-19,0,-52,8,-99,25r-5,-44v47,-21,89,-31,126,-31v60,-1,112,37,92,97v-29,86,-118,111,-177,170v-18,19,-36,36,-49,56r168,0r-15,51r-235,0v35,-120,144,-173,227,-240","w":390},"\u00b3":{"d":"418,-656v0,-23,-23,-34,-50,-34v-23,0,-54,7,-90,22r-6,-46v45,-19,84,-29,116,-29v51,-1,89,23,89,69v0,44,-31,81,-66,98v66,30,23,125,-14,158v-50,44,-150,71,-225,30r30,-47v34,10,59,16,79,16v50,-2,105,-28,105,-80v0,-43,-51,-43,-95,-45r15,-50v62,-1,112,-14,112,-62","w":390},"\u00b4":{"d":"602,-774r17,60r-291,144r-16,-53","w":547},"\u00b5":{"d":"225,-470r80,0v-27,110,-87,212,-87,333v0,55,28,82,84,82v28,0,71,-12,128,-36r108,-379r80,0r-135,470r-56,0r-5,-33v-85,47,-182,72,-244,7r-65,226r-80,0","w":573},"\u00b6":{"d":"209,-475v0,-169,108,-263,296,-263r267,0r-211,738r-83,0r190,-665r-117,0r-191,665r-83,0r96,-335v-95,-3,-164,-42,-164,-140","w":653},"\u00b7":{"d":"210,-409r102,0r-29,102r-102,0","w":288},"\u00b8":{"d":"327,80v80,59,-17,183,-119,161v-29,-6,-57,-15,-82,-23r25,-45v71,19,88,36,133,12v15,-8,21,-19,23,-37v-8,-40,-64,-37,-96,-53r59,-106r62,0r-41,77v12,3,27,7,36,14","w":537},"\u00b9":{"d":"233,-712v47,-10,85,-30,146,-26r-105,367r-55,0r90,-314r-77,20","w":265},"\u00ba":{"d":"448,-621v4,-48,-25,-70,-68,-70v-100,0,-136,104,-143,201v-4,49,24,74,66,74v100,0,137,-106,145,-205xm179,-475v3,-141,89,-267,217,-267v67,0,113,33,110,106v-5,140,-89,269,-218,269v-68,0,-110,-35,-109,-108","w":366},"\u00bb":{"d":"253,-482r74,178r-176,178r-90,0r185,-178r-83,-178r90,0xm435,-482r73,178r-176,178r-90,0r185,-178r-83,-178r91,0","w":457},"\u00bc":{"d":"775,-694r85,0r-599,694r-86,0xm265,-668v49,-11,90,-31,155,-26r-112,392r-65,0r94,-328r-74,19xm796,-408r77,0r-75,259r53,0r-16,54r-52,0r-27,95r-65,0r27,-95r-190,0r12,-44xm787,-336r-171,187r117,0","w":878},"\u00bd":{"d":"775,-694r85,0r-599,694r-86,0xm265,-668v49,-11,90,-31,155,-26r-114,397r-65,0r96,-333r-74,19xm814,-264v44,-35,23,-91,-36,-91v-21,0,-58,8,-108,26r-6,-48v53,-22,99,-34,138,-34v66,-1,124,39,102,106v-30,94,-131,123,-195,187v-20,20,-39,40,-54,61r185,0r-16,57r-260,0v42,-128,157,-191,250,-264","w":901},"\u00be":{"d":"853,-694r85,0r-599,694r-86,0xm870,-408r76,0r-74,259r52,0r-15,54r-53,0r-27,95r-65,0r28,-95r-191,0r12,-44xm860,-336r-171,187r118,0xm456,-612v-1,-26,-23,-39,-55,-38v-26,0,-58,8,-98,25r-7,-51v49,-21,92,-32,128,-32v58,-1,97,26,97,76v0,48,-36,89,-73,108v27,13,41,33,41,62v0,135,-172,209,-303,145r33,-52v38,11,67,17,87,17v56,-1,115,-32,115,-87v0,-34,-35,-50,-105,-50r17,-55v68,0,114,-18,123,-68","w":952},"\u00bf":{"d":"98,-34v124,69,299,30,299,-107v0,-74,-76,-88,-95,-153v-18,-62,-10,-119,9,-188r83,0v-26,75,-18,152,22,194v38,39,86,91,59,170v-41,118,-183,219,-343,176v-25,-7,-51,-18,-77,-32xm364,-694r98,0r-28,98r-98,0","w":511},"\u00c0":{"d":"509,-694r94,0r48,694r-84,0r-13,-202r-286,0r-128,202r-77,0xm529,-613r-215,339r236,0xm527,-942r202,151r-45,53r-208,-144","w":675},"\u00c1":{"d":"509,-694r94,0r48,694r-84,0r-13,-202r-286,0r-128,202r-77,0xm529,-613r-215,339r236,0xm726,-942r17,60r-291,144r-15,-53","w":675},"\u00c2":{"d":"509,-694r94,0r48,694r-84,0r-13,-202r-286,0r-128,202r-77,0xm529,-613r-215,339r236,0xm636,-939r85,139r-58,43r-58,-96r-116,96r-32,-38","w":675},"\u00c3":{"d":"681,-828v47,-7,55,-54,74,-89r51,8v-31,67,-73,168,-178,131v-41,-16,-46,-68,-91,-78v-48,4,-54,55,-75,87r-50,-7v33,-60,51,-136,139,-140v72,-4,75,74,130,88xm529,-613r-215,339r236,0xm509,-694r94,0r48,694r-84,0r-13,-202r-286,0r-128,202r-77,0","w":675},"\u00c4":{"d":"509,-694r94,0r48,694r-84,0r-13,-202r-286,0r-128,202r-77,0xm529,-613r-215,339r236,0xm469,-926r90,0r-26,90r-90,0xm688,-926r90,0r-26,90r-90,0","w":675},"\u00c5":{"d":"719,-823v0,76,-57,124,-115,148r47,675r-84,0r-13,-202r-286,0r-128,202r-77,0r435,-676v-75,-33,-44,-145,2,-186v28,-25,69,-53,120,-53v56,-1,99,38,99,92xm663,-810v0,-31,-25,-55,-57,-54v-51,2,-98,41,-100,94v-1,33,24,56,58,55v50,-2,99,-43,99,-95xm529,-613r-215,339r236,0","w":675},"\u00c6":{"d":"328,-274r223,0r99,-347r-89,0xm533,-694r523,0r-21,73r-302,0r-65,227r275,0r-21,73r-275,0r-71,248r302,0r-21,73r-385,0r58,-202r-251,0r-136,202r-80,0","w":935},"\u00c7":{"d":"495,131v0,78,-82,129,-169,112v-12,-3,-36,-10,-73,-22r29,-51v49,16,81,25,98,25v49,0,79,-56,26,-74r-68,-23r55,-97v-151,-26,-215,-199,-156,-363v66,-183,204,-337,445,-337v63,0,122,12,178,37r-46,69v-140,-62,-290,-24,-372,53v-70,65,-138,153,-138,278v0,120,86,198,212,196v50,0,105,-10,165,-30r8,62v-83,31,-151,45,-230,44r-30,56v34,9,66,23,66,65","w":708},"\u00c8":{"d":"340,-694r407,0r-21,73r-324,0r-65,227r297,0r-21,73r-297,0r-70,248r323,0r-21,73r-406,0xm504,-942r203,151r-46,53r-209,-144","w":626},"\u00c9":{"d":"340,-694r407,0r-21,73r-324,0r-65,227r297,0r-21,73r-297,0r-70,248r323,0r-21,73r-406,0xm735,-942r17,60r-292,144r-15,-53","w":626},"\u00ca":{"d":"340,-694r407,0r-21,73r-324,0r-65,227r297,0r-21,73r-297,0r-70,248r323,0r-21,73r-406,0xm622,-943r85,139r-58,43r-58,-95r-116,95r-32,-38","w":626},"\u00cb":{"d":"340,-694r407,0r-21,73r-324,0r-65,227r297,0r-21,73r-297,0r-70,248r323,0r-21,73r-406,0xm456,-927r90,0r-25,91r-91,0xm675,-927r90,0r-26,91r-90,0","w":626},"\u00cc":{"d":"355,-694r83,0r-199,694r-83,0xm371,-941r203,151r-46,52r-209,-143","w":356},"\u00cd":{"d":"355,-694r83,0r-199,694r-83,0xm541,-942r17,60r-291,144r-15,-53","w":356},"\u00ce":{"d":"355,-694r83,0r-199,694r-83,0xm461,-939r85,139r-59,43r-57,-96r-116,96r-32,-38","w":356},"\u00cf":{"d":"340,-694r83,0r-198,694r-83,0xm298,-891r91,0r-26,91r-91,0xm488,-891r91,0r-26,91r-91,0","w":327},"\u00d0":{"d":"575,-694v158,1,277,52,277,210v0,293,-184,484,-507,484r-181,0r92,-321r-107,0r21,-74r107,0r85,-299r213,0xm760,-447v0,-122,-77,-174,-201,-174r-135,0r-64,226r125,0r-21,74r-125,0r-71,248v155,4,294,-11,371,-91v63,-65,121,-163,121,-283","w":783},"\u00d1":{"d":"759,-771v-86,19,-96,-67,-152,-85v-46,5,-55,56,-74,88r-51,-8v37,-57,50,-136,139,-140v72,-2,76,73,129,88v48,-6,56,-56,76,